Network weights:
4
784 100
-0.651479 0.0485624 0.726478 -0.955301 -0.0383384 -0.863461 -0.36569 0.197838 -0.293648 -0.973562 0.461906 -0.404097 -0.0745474 0.884262 -0.951031 -0.164966 0.364366 0.511603 0.636041 0.135421 -0.10006 -0.291974 0.486738 -0.245246 0.999942 -0.266696 -0.00205233 -0.260462 0.16577 -0.669058 -0.405389 0.514291 0.379505 -0.678911 0.55899 -0.658834 -0.542372 -0.8067 0.539004 0.16398 -0.780262 0.000909994 0.759883 0.14519 -0.114828 0.808852 0.980224 -0.750462 0.320455 0.616265 0.384959 -0.779605 -0.675709 -0.128303 -0.0248513 -0.675767 0.605 0.973096 0.0637717 -0.229229 -0.695961 0.658383 -0.714938 0.683544 0.979472 0.844052 -0.97529 -0.5629 -0.962648 0.563714 0.601079 -0.74291 -0.435376 0.360962 0.40228 0.449796 0.169814 0.382504 0.699334 -0.50973 -0.00123053 0.0842927 -0.289335 0.32306 0.955989 0.685813 0.647293 0.56099 0.65891 -0.288935 -0.668239 0.962949 -0.630552 -0.383177 0.646492 -0.65108 -0.539125 0.671202 -0.213981 -0.501773 
0.234916 -0.612902 -0.244683 0.79954 0.74806 -0.842403 0.249336 -0.0821253 0.540101 -0.0513299 0.408144 -0.461129 -0.967037 -0.881191 0.861931 0.988952 0.804623 0.509224 0.549942 0.463532 -0.77971 0.881702 0.426481 -0.410262 -0.501475 0.0729733 -0.0613427 -0.0406001 -0.255824 0.724677 0.457627 0.979092 -0.888225 -0.787056 0.778632 0.859835 -0.62946 0.0279686 -0.22229 0.910642 0.976639 -0.814146 -0.550488 -0.990399 -0.695336 -0.688557 0.998554 -0.890714 0.820667 0.548495 0.572819 -0.959043 0.430198 -0.000700374 -0.369305 0.928723 -0.927727 0.569352 -0.111877 -0.183551 0.294028 -0.65425 -0.204459 0.405803 -0.441307 -0.425827 0.265639 -0.0707663 0.602142 -0.956651 -0.160125 0.57878 -0.770797 0.289387 0.588382 -0.466133 0.60083 0.586935 -0.356847 0.421498 0.135431 -0.784028 0.462455 -0.434372 0.215271 -0.906851 -0.505649 0.287544 0.662501 0.382474 -0.896007 -0.0434704 0.728224 -0.100467 -0.637667 -0.713083 0.473706 0.627972 0.216151 0.075848 
0.671321 -0.943974 -0.345372 0.900524 0.345413 -0.75699 -0.565609 -0.0537562 0.829945 0.0775444 -0.632258 -0.0346243 0.293516 0.830197 0.531004 -0.491213 0.923346 -0.974644 0.796332 0.585847 0.40783 0.900325 -0.457623 0.136054 -0.200142 -0.0952903 0.422971 -0.726436 -0.467318 -0.360878 0.349412 -0.795998 -0.304852 -0.995959 -0.895473 -0.959438 -0.752949 -0.461082 -0.0131945 -0.923004 0.616462 0.354547 0.0423714 -0.0900214 0.184744 -0.426624 0.418766 0.10809 -0.401269 0.215098 -0.306063 -0.993439 0.115422 0.236314 0.142615 0.91528 -0.858977 -0.434414 -0.811155 -0.326295 0.204708 0.538257 -0.122293 0.899856 0.542298 -0.017766 0.940418 0.789348 0.521152 -0.072777 0.866344 0.137615 -0.71823 -0.0912844 -0.952407 0.466514 0.482091 0.466359 -0.425396 -0.919178 -0.318543 0.26854 -0.912617 0.796879 -0.495146 0.229998 0.71216 -0.354123 0.795584 0.901004 0.319582 0.000291781 0.439262 -0.802711 -0.0998523 -0.0184405 0.179523 -0.159435 -0.229092 -0.299325 
0.767789 -0.362748 0.83829 -0.950443 0.545971 0.885852 0.516072 0.028059 0.352213 -0.909324 0.108881 -0.966334 0.359175 0.196265 0.830578 0.864064 -0.573732 0.542738 -0.49013 -0.778133 0.443742 0.829494 0.222138 -0.116969 -0.973181 -0.877714 0.864564 0.206299 -0.0370855 -0.364529 0.907004 -0.269296 0.272675 0.745307 -0.219808 -0.181287 0.63119 -0.703726 0.84675 -0.0165678 -0.613053 -0.0443767 0.0171314 0.746164 -0.848086 -0.152291 0.610282 -0.42184 -0.60955 -0.880008 -0.199993 0.834204 0.949693 -0.977854 -0.282746 0.97654 -0.855567 -0.418283 0.182892 0.107284 0.217188 0.0900022 0.837925 -0.510047 -0.164832 -0.381881 0.308637 -0.533613 -0.0856055 0.15532 0.449818 0.301342 -0.888973 -0.533041 0.0475333 -0.73706 0.3147 -0.342259 -0.158917 0.705109 -0.22208 0.64109 0.539208 -0.272387 0.663311 -0.743512 -0.29584 0.807757 -0.161814 0.886963 -0.0849927 -0.944515 -0.0230576 -0.247128 -0.454567 0.812064 0.371014 0.854075 -0.7215 -0.714583 
0.00955472 0.728276 0.589551 0.118164 -0.804433 -0.375713 0.380605 0.502275 0.280694 -0.718125 0.214934 -0.935156 0.873683 -0.219727 -0.192216 0.522737 0.0190768 0.50149 0.321667 0.857428 0.388709 -0.749621 0.899891 -0.62012 0.00431547 -0.532011 -0.818787 -0.61764 -0.689177 -0.543564 -0.323133 0.316337 -0.771109 -0.749843 -0.564438 -0.642116 -0.120195 0.811474 0.860645 -0.822449 -0.958007 0.103737 -0.755958 0.906085 0.871808 0.0447583 0.454375 -0.130063 -0.456064 -0.243519 -0.274162 0.938542 0.0447922 -0.376107 -0.686407 -0.965503 0.0889635 -0.538489 -0.600543 0.376596 -0.0717702 0.0758722 -0.296007 0.110474 0.309464 0.126949 0.490998 -0.818368 -0.0471947 0.390127 -0.641525 -0.0149483 -0.509964 -0.387469 -0.148835 -0.649509 0.649399 -0.671417 0.214206 -0.820828 0.100754 0.93776 -0.878089 -0.87661 -0.456731 -0.582093 -0.851136 0.644821 -0.100262 -0.448936 0.0127438 0.819216 0.645906 0.702148 -0.0555547 -0.0703999 -0.155787 -0.557252 0.134465 0.783003 
0.830585 0.485046 -0.235993 -0.750385 -0.896846 0.578005 -0.351067 0.727565 0.941829 0.957984 0.945507 -0.0102075 0.912283 -0.882349 0.253928 -0.672714 -0.556129 0.357427 -1.04838 0.409791 0.913157 -0.0241936 0.151782 0.653004 -0.261452 -0.808478 -0.52314 0.571234 -0.349431 0.60269 0.358669 -0.535734 0.125838 -0.859049 -0.214924 0.153946 0.725721 0.38401 -0.0695549 0.737957 0.313262 -0.0784389 -0.203211 0.109151 0.00743533 -0.978977 0.522621 0.503981 0.358842 0.542175 -0.0731171 0.303287 -0.391312 -0.859275 -0.170819 0.31813 -0.682529 0.143336 -0.134441 -0.0709122 -0.157214 -0.703268 0.424153 0.949794 -0.682598 -0.838377 0.252805 -1.01856 0.659365 -0.821898 0.731745 -0.106891 0.0806153 -0.414084 -0.968192 -0.91398 -0.489212 0.593016 0.593091 0.845328 0.125978 -0.509737 0.26905 0.706423 -0.326585 -0.971561 -0.00106025 0.019326 0.333943 0.90352 0.954398 -0.800992 -0.726382 0.325514 -0.792935 -0.553834 0.518675 0.352517 -0.416525 0.116675 
0.55411 -0.706578 0.953784 -0.497117 -0.10574 -1.00082 -0.296055 0.452709 0.662387 -0.650388 0.405937 -0.337195 -0.10128 -0.35038 -0.530077 0.437074 -0.369787 0.499968 -0.572968 0.965562 0.403382 -0.677678 -0.894225 0.653795 0.73699 -0.627122 -1.07233 0.207821 0.790964 -0.467805 -0.709484 0.288727 -0.125552 -0.709233 0.953552 0.699965 -0.682143 -0.344092 0.281939 0.993835 -0.0068525 -0.371651 -0.269726 0.768088 0.295292 0.218185 0.301358 0.907305 -0.320732 0.774923 0.902807 -0.878907 -0.927091 -0.974146 0.650387 0.8648 -0.544721 0.559314 0.0731043 -0.804607 -0.867732 0.449479 0.55376 -0.00557451 0.708755 0.475967 -0.171096 -1.00203 -0.822645 0.98731 -1.00876 0.12669 -0.397971 -0.258725 -0.0605644 0.869076 0.847711 -0.74017 0.801314 -0.434263 -1.01547 0.650909 -0.246034 -0.860966 0.850254 -0.60985 -0.977625 -0.785992 0.995221 0.0829929 -0.541428 -0.806819 -0.496857 0.965008 0.190985 -0.872058 0.497298 0.873725 -0.790277 0.575012 
0.915321 -0.823759 -0.303261 -0.602153 -0.0878883 0.703276 -0.665374 -0.205258 1.00056 -0.859049 0.44467 0.93565 0.829983 -0.849684 -0.86117 0.522467 -0.533732 -0.859871 0.739572 -0.574249 0.233691 -0.837063 -0.401883 0.780534 -0.825082 0.784798 0.882442 0.592947 0.712682 -0.938684 0.189043 0.610456 -0.75128 0.976128 -0.84548 0.175246 0.719369 -0.486027 -0.96136 0.6987 -0.358618 0.460083 0.665602 -0.583154 0.639412 0.801975 -0.977787 -0.894195 0.918366 0.785644 -0.472303 0.164887 0.863816 0.0838728 -0.100716 -0.903374 -0.0766248 -0.278703 0.70093 -0.334883 -0.16917 -0.0416322 -0.666216 0.0167194 -0.0643532 -0.517696 -0.745707 -0.405043 0.0628311 -0.706779 -0.714298 0.673121 0.737805 0.972545 -0.86749 0.351565 0.682766 -0.875467 0.446927 0.668252 0.882214 0.925941 -0.13766 0.844227 0.289619 0.664541 0.947595 -0.980808 -0.576322 0.631191 -0.281206 0.261358 -0.434973 0.0525878 -0.648026 0.44017 0.590817 -0.509591 -0.88964 -0.455643 
-0.153321 -0.607524 -0.777526 -0.512655 -0.62244 -0.61833 0.879675 -0.903705 -0.422611 0.328907 0.803192 -0.55794 0.275922 -0.357619 -0.681571 -0.64215 -0.700494 -0.7325 -0.575555 -0.264254 0.915833 0.125217 -1.00352 -0.487054 -0.7785 -0.680822 0.951701 0.76056 -0.122847 -0.962284 -0.66118 0.772586 -0.580236 -0.368907 -0.691309 -0.172157 0.0448203 -0.780415 -0.0790434 0.590009 0.554357 -0.248024 -0.956888 -0.206104 0.401672 -0.625415 0.201899 0.705214 -0.361749 0.649296 -0.545914 -0.463299 -0.259453 -0.552532 0.0301397 -0.00245058 -0.231222 -0.0545132 -0.236469 0.676529 -0.000196888 0.240701 0.439077 0.396064 0.747217 0.739371 -0.744492 -0.243209 1.04952 0.237758 -0.665428 0.535705 0.972212 -0.611073 -0.586476 0.35186 -0.30712 0.584671 0.0555124 0.361381 0.206548 0.496289 0.954779 -0.969292 1.22097 -0.108747 0.0245378 -0.234638 0.873543 0.780456 -0.54154 -0.123088 -0.0860553 0.903756 -0.590818 -0.371431 0.678692 -0.47622 0.437633 0.686106 
0.785628 0.775944 0.199881 0.69182 -0.84617 0.54633 0.0822058 -0.0988315 0.197561 -0.837246 -0.708873 -0.620324 0.676137 -0.775878 -0.599185 0.658485 0.14009 0.442561 -0.536024 0.0218763 0.22907 -0.0946397 0.90584 -0.857556 -0.170885 -0.781903 -0.210985 -0.506247 -0.225113 -0.782764 -0.857692 -0.397085 0.953378 0.341812 -0.68553 -0.848082 -0.0904446 0.411806 0.033722 -0.928358 0.576935 0.33506 -0.544658 0.224388 0.563839 -0.116595 -0.0800702 -0.303996 -0.678733 0.380748 0.710784 0.520531 -0.745131 0.646147 0.653422 0.133965 0.841152 -0.542289 0.6213 -0.35747 -0.33536 0.876698 0.218857 -0.384024 0.103544 0.510603 -0.216088 -0.983483 -0.0141094 0.850842 -0.920378 -0.472326 0.175201 -0.463857 0.83866 -0.270808 0.37867 -0.271723 0.434473 0.709512 -0.915258 0.156317 0.296903 -0.577613 0.0508274 -0.095642 0.522969 -0.320535 0.376381 0.162248 0.319862 -0.946404 -0.0519639 -0.449373 -0.214301 -0.94556 -0.919711 0.458161 -0.91443 0.0784599 
0.304222 -0.841326 0.56764 -0.521443 -0.314456 0.35905 0.199391 -0.899144 -0.895295 -0.354076 0.817947 -0.800214 0.814629 0.0807412 -0.396914 -0.368125 -1.00092 -0.844505 0.319414 0.376057 0.31938 -0.366521 0.427744 -0.74462 0.194799 -0.880698 -0.689091 0.275591 0.583991 -0.613644 -0.693821 -0.0859863 -0.467229 0.867372 0.369602 0.233921 0.226176 -0.419013 0.329005 0.318081 0.221137 0.144266 0.514821 0.0379681 -0.76606 -0.865854 0.674267 -0.776518 -0.719361 -0.0173142 0.596091 0.595756 0.605383 0.038341 0.851294 -0.179645 0.142014 -0.823976 -0.900017 -0.261439 -0.447975 -0.550999 0.638067 0.0769454 -0.730699 -0.00110568 -0.68643 0.497627 0.595638 0.644075 -0.18784 -0.185992 -0.206469 -0.67309 0.876465 0.0223161 -0.542318 0.533113 0.254993 -0.26723 -0.492864 -0.133809 -0.664847 -0.846734 1.00805 -0.820525 -0.0367148 0.0557135 -0.646395 0.0624881 0.800653 -0.0999416 0.469046 0.434885 1.03954 0.735473 -0.558993 -0.696507 0.230844 -0.943584 
0.952829 -0.962339 -0.150869 -0.254921 -0.637405 -0.286888 0.767972 -0.179346 -0.752331 0.0208294 0.555767 -0.23235 0.885374 0.887879 -0.0836963 0.788194 -0.925753 0.883058 -0.148808 -0.573118 -0.0532379 -0.355482 0.331254 -0.590032 -0.91784 0.327638 -0.856166 -0.477414 0.636558 0.372059 -0.444674 0.58837 0.408869 0.406213 -0.667323 0.771881 -0.88408 -0.897923 -0.402629 -0.63541 0.122764 -0.845376 0.130386 0.00651678 -0.957018 -0.954413 -0.205399 -0.88408 0.926064 0.639374 -0.455835 -0.126046 -0.71532 0.875968 0.283286 -0.635045 0.20205 0.428699 -0.112076 -0.164375 -0.201086 0.446554 -0.5775 -0.790188 -0.150507 -0.246579 0.983372 -0.0346524 -0.143531 -0.418396 0.328168 0.978265 -0.262395 -0.540892 -0.0172833 -0.218918 -0.496024 0.77296 -0.101417 -0.567554 0.418199 0.441888 0.30922 0.702039 0.317585 -0.408574 -0.935954 -0.479268 -0.981818 -0.0379845 0.352929 -0.183095 -0.589095 0.777162 0.0276273 0.253804 -0.465664 0.0141291 -0.782379 0.386998 
0.597965 0.54557 0.364689 -0.666083 -0.997871 -0.649198 0.116403 -0.491284 -0.870939 -0.985932 -0.0578421 0.547914 0.456092 -0.751031 0.252983 -0.225698 -0.160601 0.322284 0.293898 -0.142332 -0.719099 -0.353149 0.675247 -0.313666 -0.576362 -0.294087 0.93786 -0.0455541 0.71929 -0.843651 -0.656608 0.316779 0.701332 0.710047 0.65151 0.703509 -0.940744 -0.232749 -0.782931 -0.810066 -0.218031 0.159975 0.736125 -0.762858 0.409303 -0.011482 0.0111728 -0.751643 -0.691916 -0.695886 0.104955 -0.408058 -0.0487822 -0.218292 0.277062 0.375497 0.485112 0.213968 -0.671105 0.2018 0.371603 -0.325489 -0.482189 0.0733352 -0.616175 -0.83137 -0.218146 -0.558081 -0.0647297 -0.000432125 -0.369018 0.716831 -0.839967 -0.632119 0.953113 0.569761 0.356009 -0.0403677 0.818257 0.666365 0.268994 -0.0760136 -0.738103 -0.781887 0.704048 0.534374 0.591956 0.190597 -0.250373 0.924696 -0.607514 -0.878987 -0.398397 -0.0871009 0.195156 -0.0160437 0.0824328 0.976976 0.426587 -0.984539 
-0.02302 -0.94216 0.731904 0.136733 -0.574928 0.685481 -0.2941 0.780843 -0.349812 -0.477045 0.447877 0.919327 0.445933 0.7066 -0.860585 0.151125 0.240557 0.736016 -0.658392 0.990698 0.660973 -0.265442 -0.88832 -0.738115 0.646198 0.306545 0.245968 -0.273687 0.284571 -0.326843 -0.257923 -0.738872 -0.269121 -0.526663 0.39797 0.156156 -0.840644 -0.897227 -0.0638827 -0.190374 -0.373214 -0.614884 -0.271137 -0.927109 -0.909908 -0.131531 0.224267 0.3323 -0.396466 0.56574 0.320015 -0.735177 -0.699739 0.432392 -0.47377 0.946657 -0.261061 0.771567 -0.326838 -0.975827 -0.554179 0.414967 -0.716658 0.176846 0.889182 0.681151 -0.666862 -0.951976 0.784836 0.269797 -0.142223 -0.58851 0.655705 0.586945 -0.515755 0.744073 -0.544395 0.709257 0.0749309 0.0589549 0.274323 -0.603965 0.323541 0.574948 0.827298 0.850442 0.521673 -0.433597 0.622968 -0.806678 -0.410333 -0.93115 0.609524 -0.126997 0.245646 0.498993 -0.446976 0.577948 0.547165 -0.662283 
-0.151223 -0.600297 -0.273385 -0.503284 0.989317 0.229974 -0.767936 -0.556525 -0.0730832 0.313731 0.504402 -0.78175 0.722883 -0.165843 0.793583 0.556918 -0.322331 0.315311 -0.897383 -0.685658 0.511211 -0.298415 -0.627516 0.130051 0.572764 0.621715 -0.377402 -0.878369 0.188675 -0.836177 -0.535561 -0.936634 -0.438274 0.246221 -0.461157 -0.447971 -0.539883 -0.204791 0.0118094 0.396919 -0.880169 -0.496944 0.612934 0.827783 0.355402 0.406246 0.372246 -0.976671 -0.277012 0.482084 -0.658482 -0.768791 -0.831631 -0.295644 0.342351 0.747737 -0.679127 0.96515 0.875704 0.510325 -0.869264 -0.595766 0.569222 -0.30044 0.563992 -0.899902 0.257655 -0.984148 -0.0882237 -0.735002 0.407421 0.0179363 -0.221056 0.0216083 -0.135838 -0.875988 -0.581702 -0.788509 -0.86392 0.135312 0.687187 -0.525748 0.366515 0.882045 0.198866 -0.293513 0.656153 0.496391 -0.313659 0.518415 0.0191763 -0.187911 0.862511 -0.421941 0.553562 0.418917 -0.30505 -0.216819 0.436152 0.608607 
0.0387263 -0.167091 -0.439635 0.810318 0.857275 0.456907 0.920719 -0.718361 0.652936 -0.927152 0.426921 0.376473 -0.4152 -0.169669 0.260474 0.795943 0.533899 -0.100238 0.238898 -0.761105 -0.587381 -0.719462 0.0378869 -0.703514 -0.14433 -0.448335 0.707361 0.532665 0.307001 0.129477 0.12521 -0.628195 0.968961 0.801663 -0.846869 0.827984 0.210816 -0.884437 -0.828294 -0.130809 -0.779446 0.550584 -0.757066 -0.219844 -0.613216 0.498705 -0.465743 0.903626 -0.599918 0.783426 -0.845376 -0.1799 -0.999229 0.172818 0.0726455 -0.0895394 0.726146 -0.214928 -0.540552 0.0239178 0.910174 0.667648 0.395005 0.888673 0.3573 0.538243 0.715685 -0.464085 0.697189 0.831494 0.390231 0.89174 0.394408 0.634167 -0.321742 0.76737 0.112875 0.157585 0.646891 0.518439 -0.028582 0.796445 -0.676409 0.0605145 -0.0557526 0.398684 1.06339 -0.312995 -0.803643 -0.534536 0.740062 -0.90428 -0.937296 0.110382 1.01206 0.390933 -0.306712 0.753597 0.923101 -0.63469 
0.528825 0.312473 -0.793898 -0.107357 -0.0504771 -0.0820317 -0.312944 -0.939517 -0.896318 -0.616005 0.652382 0.135727 -0.785532 0.957991 -0.814842 0.192914 0.38729 -0.779029 0.89252 0.598312 -0.364604 0.571909 0.685741 -0.25437 -0.299822 0.676913 -0.955578 0.361634 0.361092 -1.00497 0.729127 -0.142612 0.344246 0.999855 0.848634 -0.73849 -0.105865 -0.464071 -0.56576 0.0121705 -0.0567696 0.981709 -0.869048 0.117311 0.990464 -0.702324 -0.667459 0.330226 -0.52469 -0.813474 -0.0441578 0.126383 0.632377 -0.396325 0.813826 -0.583318 -0.729229 0.931131 0.790991 0.670799 0.901814 0.556354 -0.450492 0.221182 0.508559 -0.618434 0.500213 -0.579312 -0.034076 0.847841 0.432603 0.890368 0.859776 0.53515 -0.013154 0.801673 0.838209 0.238044 0.101707 -0.652586 0.404817 -0.951548 0.47739 0.143666 -0.378395 0.313993 0.618982 -0.0771688 0.194697 0.352916 -0.429267 0.127503 -0.120986 0.0777415 -0.71475 -0.588988 0.490665 0.864562 -0.158225 -0.587297 
0.625525 -0.738169 -0.707213 0.498359 0.820583 0.314363 0.338133 0.656556 -0.416994 -0.475101 -0.82704 -0.923449 -0.456689 0.523902 0.169512 0.122658 -0.140346 -0.241187 -0.89432 -0.921863 -0.946736 -0.361172 0.151821 0.00973117 0.661313 0.499215 0.332434 0.177659 0.312465 -0.831546 0.659597 -0.137844 -0.532621 0.992653 -0.436215 -0.759278 0.319183 0.858939 0.957673 0.906539 -0.656534 -0.983044 0.930775 -0.187 0.638662 0.0612292 1.0443 -0.531502 0.76657 -0.911624 -0.438195 0.8042 -0.431173 0.67961 -0.191609 -0.68761 0.156934 -0.852212 0.506146 -0.493189 -0.682272 0.13634 0.483901 -0.240077 0.0619689 -0.97354 0.0264962 -0.523855 0.978074 -0.00951442 -0.609104 -0.768608 0.0937678 -0.738196 0.0436805 -0.315967 0.341826 0.0119214 0.134546 0.155663 0.0276083 0.658247 -0.00666571 0.634093 0.292883 0.750796 0.943157 -0.484152 0.897516 0.421482 -0.0331739 -0.724122 -0.368996 -0.555564 -0.0950093 0.782417 -0.58061 -0.996049 -0.683545 -0.721419 
-0.0254434 -0.35625 -0.419546 -0.925964 -0.0463619 0.636765 -0.235844 -0.671046 -0.352576 0.92436 0.603644 0.695627 0.552306 -0.472281 0.296395 -0.167815 -0.676332 0.227149 0.342794 -0.776118 -0.370596 -0.662469 -0.576407 0.266489 -0.286043 0.414005 0.00230461 0.202633 0.417796 0.250392 0.57751 -0.640323 0.905092 -0.841464 -0.453175 -0.160102 0.790176 0.287678 0.194462 -0.563687 0.175442 -0.257251 -0.897027 -0.30709 0.319424 0.379401 0.595378 0.626022 -0.432116 -0.0710984 0.867112 0.187169 0.167153 -0.723631 -0.525478 0.945201 0.677385 0.455625 0.14707 0.0899255 -0.282857 -0.311685 0.538243 -0.375421 -0.193213 -0.924147 0.463646 -0.332724 0.390429 -0.32321 0.110975 -0.470193 0.469544 0.196892 0.225369 -0.246072 -0.431642 -0.231408 -0.612137 0.161578 0.657995 -0.782894 -0.620665 -0.158444 -0.518748 -0.211056 -0.217038 -0.805954 -0.73155 0.921187 0.278382 0.0164793 -0.30723 -0.166784 0.55594 0.54863 -0.148958 0.0534566 -0.740088 -0.802086 
0.754381 0.318507 -0.235747 0.199471 -0.482491 0.984273 0.949291 0.11197 -0.232571 -0.679001 -0.718749 -0.579219 -0.465428 -0.342268 0.265955 0.0334584 0.477769 -0.951444 0.212555 0.731492 0.986838 -0.518613 -0.28025 -0.352156 0.301589 -0.686599 -0.81699 -0.820136 0.370779 -0.609473 -0.575999 0.127107 0.711421 0.192474 -0.678637 -0.784304 0.162174 -0.722313 0.340675 0.954683 -0.40289 0.612465 -0.638233 0.132071 -0.717291 0.627331 -0.833156 0.755762 0.668436 0.374264 0.497483 0.669761 0.851825 -0.78225 -0.697554 0.163342 -0.463251 -0.512308 0.343883 0.890492 -0.115556 0.771762 0.0178486 -0.415324 -0.0402943 0.342945 -0.1948 -0.856312 0.611115 -0.850735 -0.912466 -0.786042 0.773741 -0.553689 0.345127 -0.94339 -0.926001 0.495254 0.812741 0.747101 -0.122694 0.305705 0.411267 -0.266019 0.525611 0.707675 0.89288 -0.947305 -0.788842 0.246474 0.951233 0.0719423 0.0459368 -0.0310042 0.657007 0.975569 -0.68354 -0.53638 -0.876362 0.927053 
-0.387304 -0.783655 -0.861547 -0.6179 -0.350497 0.444977 -0.559846 -0.281965 -0.0161871 -0.85305 -0.53396 0.867587 0.576373 0.874094 -0.418266 0.121461 0.658211 -0.497011 0.18084 0.785664 0.81207 0.026664 -0.13864 -0.230856 -0.957694 -0.48095 -0.246788 -0.638459 -0.0159337 -0.110894 -0.706363 0.601716 0.0831109 -0.565143 0.937381 0.706561 0.892305 -0.581637 -0.566744 -0.0223247 -0.328237 -0.115145 -0.218312 -0.730051 -0.215172 0.383666 0.330636 -0.642211 0.876368 -0.527962 -0.838137 0.620154 0.521248 0.0207798 -0.601168 0.618887 0.485796 0.171907 0.984249 -0.516954 -0.993427 -0.719578 -0.88691 0.0933477 -0.323165 -0.909339 -0.198801 -0.299564 -0.501818 0.254266 0.638089 0.173566 -0.827619 -0.692672 0.420187 -0.0522388 0.683823 -0.236974 0.314058 0.550772 0.208862 0.476203 0.190045 -0.185005 -0.539064 0.604547 -0.605268 -0.96284 -0.231661 -0.648619 -0.435758 -0.212085 -0.314426 -0.329539 0.841405 0.354447 -0.235596 -0.34751 0.98983 0.270754 
0.896563 0.548676 -0.55317 -0.954774 0.877357 0.854443 -0.00777823 0.521926 -0.312797 -0.726924 0.0898386 0.831566 0.798952 -0.7412 -0.414072 -0.688756 0.890218 -0.00821489 -0.634047 -0.418863 0.402642 -0.13887 0.348701 -0.97092 0.549075 0.150137 0.401457 -0.680379 0.825088 0.408973 0.598031 0.713567 -0.0462358 -0.947602 0.741683 -0.219562 0.882571 -0.229944 -0.722759 -0.422851 0.0985962 0.355411 -0.624869 -0.0768815 0.644212 -0.0129373 0.221032 0.482863 1.00323 0.545588 -0.923078 0.34301 -0.598625 0.415421 0.387567 -0.954011 -0.443348 -0.194966 -0.671605 -0.61309 -0.835796 0.945654 -0.895666 0.0849843 0.972605 0.880298 0.83363 0.954337 -0.352522 -0.85254 -0.486068 0.750893 0.522366 -0.175934 -0.365311 0.147247 0.808226 0.861898 -0.356891 0.766013 0.403015 -0.284545 0.108819 0.867963 -0.866561 -0.50896 0.858785 -0.252761 0.263388 -0.821091 0.112636 0.467456 -0.836469 0.233575 -0.46277 -0.884145 0.125021 -0.63829 -0.969619 0.767115 
-0.482098 -0.499779 0.506044 -0.970499 0.324388 -0.844242 0.176366 0.118399 -0.990428 0.809779 -0.111455 0.403542 -0.469057 0.9977 0.244817 -0.333877 -0.520591 0.101655 0.385476 0.731139 0.297205 -0.495329 0.151059 0.437693 0.733315 0.660312 0.569 -0.158572 -0.963129 0.612339 -0.396044 -0.445779 -0.887225 -0.88768 -0.419171 0.436836 -0.733998 0.758733 -0.442793 -0.726486 0.573272 0.446377 0.676554 -0.894232 0.445148 -0.077753 -0.229538 0.924505 -0.974595 -0.845156 0.657263 0.324294 -0.353178 -0.193833 -0.238878 -0.610611 -0.530492 -0.664712 0.233134 -0.496691 0.941479 0.839587 0.0564469 -0.947226 0.948518 0.638787 0.489282 -0.784329 0.39906 -0.951084 -0.510545 -0.0283631 0.496299 -0.834933 0.0763685 -0.0585415 0.0867099 0.846618 -0.133987 0.111278 -0.999872 -0.477881 -0.56508 -0.343931 0.328608 0.195712 0.0455884 0.796902 0.526029 -0.721688 -0.699196 0.466184 -0.884347 0.357507 0.524361 -0.936547 -0.00510375 0.0102957 -0.720966 -0.603409 
0.0592891 -0.232349 0.364286 -0.444396 -0.0669712 -0.559376 0.496986 -0.97936 -0.712755 -0.637155 0.132141 -0.712992 -0.11497 0.567276 -0.0564263 -0.786807 -0.236247 0.989165 -0.990027 -0.711031 -0.733083 -0.689299 0.755357 -0.617863 0.667863 0.275266 -0.55456 -0.336225 -0.714353 -0.275737 0.0572103 0.344936 0.491914 -0.578571 0.900544 -0.575207 -0.137875 0.397605 -0.554479 0.149362 0.760637 0.577457 0.436741 -0.354326 0.14494 -0.619684 -0.141171 0.908662 -0.630519 -0.131367 -0.802405 -0.363161 0.179632 0.952954 0.0189638 -0.152409 0.228327 0.464362 0.511499 0.513951 -0.811368 -0.431424 -0.141304 0.680663 -0.00992762 -0.240573 -0.894532 0.852188 -0.843053 -0.449048 0.00173764 0.917675 -0.871449 -0.561647 -0.436874 0.273579 -0.181509 0.422226 0.182241 0.188088 -0.708782 0.379837 0.824625 0.470946 0.332774 -0.156126 -0.681463 -0.438906 -0.691717 0.829897 -0.924942 -0.503166 -0.601522 -0.0655243 -0.822574 0.38859 0.693477 -0.717111 0.240744 0.850492 
-0.166127 -0.757702 0.768062 -0.0374871 -0.319399 -0.668588 -0.763948 0.499223 0.75364 0.41824 -0.312711 -0.955328 -0.201837 -0.487794 0.515801 -0.869041 0.356098 0.834339 -0.308017 0.664344 0.664025 -0.232917 -0.838799 -0.937274 0.701035 -0.66142 0.451283 0.394395 -0.378488 -0.307987 0.244788 0.455385 -0.0656891 0.0128167 -0.5821 0.614837 0.344265 -0.34601 0.114104 0.0979008 -0.927677 0.80129 0.142758 -0.12951 -0.6864 -0.341441 0.00143048 0.669683 -0.507102 0.693328 0.334009 -0.842857 -0.539439 0.49521 -0.780138 -0.838356 0.833844 0.671124 0.556106 -0.544656 -0.636859 -0.199172 0.910635 0.29751 0.813678 -0.671373 -0.0876461 0.157939 -0.0174249 -0.973561 -0.744066 0.0549447 0.827801 0.398627 0.925324 -0.858555 -0.942902 -0.0731106 0.811128 -0.449946 -0.379602 0.145136 -0.292955 0.0810076 -0.359662 -0.0729486 0.242652 -0.525822 -0.4018 -0.201311 -0.070471 -0.0386995 0.599519 -0.159477 -0.741224 0.413217 0.168938 0.171127 -0.428862 -0.848454 
0.197582 -0.173021 0.206439 0.0254277 -0.774422 0.131874 0.166873 -0.717265 -0.941236 -0.0219995 -0.16721 -0.320838 -0.876863 0.539983 0.76017 -0.236517 -0.532965 0.00282159 0.237662 0.0652143 0.801513 -0.832816 -0.973465 0.401032 0.00743647 -0.714691 -0.185771 -0.823684 0.456436 0.385366 -0.672186 -0.345982 -0.787654 0.534252 0.679446 -0.562076 -0.333873 -0.153681 -0.279341 -0.27511 0.824319 0.553449 0.404052 0.947456 0.0934318 0.164222 -0.289061 0.560467 -0.832957 0.948601 -0.374319 0.968556 -0.884215 -0.347784 0.369588 0.123222 -0.0624753 -0.816184 0.299538 -0.606039 0.569182 0.627351 0.0479786 0.781528 0.161604 -0.272576 -0.780548 0.82773 0.573743 -0.0598895 -0.447379 0.398062 -0.506441 0.956672 0.345518 0.586991 0.120894 -0.943543 0.147457 0.287937 -0.994942 0.773138 0.256493 -0.879157 -0.574646 -0.373919 0.244065 0.362879 -0.190103 -0.456397 0.75684 -0.62092 -0.829046 -0.195182 -0.839392 0.332558 0.532243 -0.61994 0.160288 0.105986 
0.32017 0.712908 -0.495952 0.813729 0.669581 0.849565 0.40072 -0.209525 0.906022 -0.451822 -0.921588 0.91108 -0.678684 0.334906 -0.968077 -0.25333 0.960987 0.275988 -0.890451 -0.229116 0.819591 0.866388 0.149964 0.990545 -0.328793 0.310572 0.323102 -0.796551 0.690632 -0.51661 0.309435 0.010802 -0.803701 0.813482 -0.175469 0.86588 0.663048 -0.774748 -0.343645 0.56907 -0.226571 -0.265233 0.480151 0.0947449 -0.930327 0.512074 0.841415 -0.96934 -0.211938 0.950964 -0.198455 -0.392347 0.817352 0.951508 -0.401802 -0.511441 0.26208 0.921301 -0.307992 -0.0472881 -0.595309 -0.998557 0.963514 -0.39901 0.814926 -0.211955 -0.53313 0.477973 0.0132967 0.123225 0.0470437 0.786726 0.857992 -0.472806 -0.118529 0.927666 -0.960732 -0.277114 0.958326 -0.172669 -0.32615 -0.24013 0.434984 -0.508798 -0.288621 -0.966818 -0.0202391 0.973459 0.954483 0.671769 -0.0738291 -0.640826 0.673212 -0.110315 -0.0398364 0.488138 0.67773 0.427033 -0.0338885 -0.308973 
-0.449742 -0.986845 -0.522247 -0.59175 -0.45965 0.359223 -0.664084 -0.420382 -0.917891 -0.705758 0.406949 -0.244041 0.0541124 -0.158067 0.24716 0.765491 -0.124885 -0.773079 0.73895 -0.170403 0.89869 -0.334879 0.188771 0.571903 0.554806 -0.851066 0.0600409 0.232536 0.575968 -0.973848 0.923562 -0.873774 -0.960692 -0.598685 -0.465524 -0.420343 0.760538 -0.129607 0.159275 0.842647 0.164635 -0.433776 -0.401394 -0.781253 0.408156 0.845766 0.984238 -0.716729 -0.927313 0.723188 0.112868 0.971378 -0.61169 -0.698361 0.543281 0.943116 -0.549426 -0.396678 0.175651 -0.973459 -0.370526 0.0992138 -0.847233 -0.331219 0.500529 -0.312756 0.248439 0.261067 0.557636 -0.592286 0.103714 -0.277729 -0.0260626 0.70232 -0.0589822 -0.617906 0.548086 -0.074744 -0.334635 0.620774 -0.351556 0.778233 0.592152 0.0367541 -0.920128 0.135432 -0.0201303 -0.469554 0.738754 -0.844479 -0.443013 -0.631772 0.254735 -0.290245 0.0370091 -0.244736 0.396999 -0.714552 -0.983669 -0.045365 
-0.306839 0.120045 0.676906 0.667099 -0.177635 -0.382076 -0.950807 -0.629549 0.54318 -0.285443 0.991225 -0.808376 -0.50721 0.583377 0.228378 -0.427337 -0.281191 -0.791752 0.103108 -0.542437 -0.636231 0.660096 -0.17421 0.618504 -0.63015 0.862799 -0.626232 0.766849 -0.851753 -0.609902 -0.278516 -0.158591 0.510143 -0.60161 -0.491493 -0.667491 0.0163133 -0.4423 -0.29704 -0.440507 0.272257 -0.305815 -0.248883 0.765048 -0.722438 0.979496 -0.66229 -0.0036292 -0.812256 0.440819 0.453934 -0.448487 0.100914 -0.720276 -0.829983 0.470765 -0.857477 -0.456215 0.237613 -0.70923 -0.0661166 0.959097 0.132179 -0.555973 -0.642513 0.640686 -0.223465 0.3738 -0.801614 0.479495 0.933293 0.470644 -0.82632 -0.31559 0.235691 -0.548758 -0.336094 0.573402 0.447613 -0.14835 0.0142205 -0.0984536 0.403163 -0.884865 0.18127 0.57318 0.585899 0.323794 -0.883035 -0.176487 0.614564 0.0508479 -0.21739 -0.253257 0.494875 0.140096 -0.612571 -0.72859 -0.486104 -0.414184 
0.750859 -0.552848 -0.943265 0.924376 0.131625 0.291823 -0.624022 0.795506 -0.134483 0.823499 -0.352915 0.879776 -0.274883 -0.949641 0.994995 0.906009 0.623322 0.580791 0.230118 0.740438 -0.59565 -0.15529 -0.2087 0.186954 0.591355 -0.713776 -0.672943 0.978785 -0.442507 -0.159107 -0.435398 -0.691432 0.288049 -0.378929 -0.766859 -0.580281 0.913286 -0.391086 -0.78479 -0.221217 -0.567448 -0.137619 -0.341467 0.157344 -0.0873807 -0.346408 0.0637263 -0.463829 -0.765749 -0.706246 -0.723417 -0.361398 0.138264 0.0678298 0.8255 -0.270263 0.354121 -0.847979 -0.291596 0.911904 -0.00653972 0.272915 -0.779732 -0.71846 0.894165 -0.546434 -0.298689 0.807292 0.062297 -0.0835715 -0.414037 0.494577 0.778827 0.244602 -0.348022 -0.308453 0.898028 0.715518 0.227853 -0.867694 -0.990876 0.504383 -0.229109 0.147422 -0.427701 -0.403586 0.877188 0.926455 -0.251091 -0.414524 0.838089 0.742282 0.858919 -0.941592 -0.976056 0.752408 -0.488245 -0.274803 0.559826 0.574026 
0.642138 -0.855777 0.0753627 0.412689 0.390652 0.714704 -0.881202 0.283764 0.435179 0.342954 0.4191 0.445336 -0.155844 -0.809163 -0.405324 0.417479 -0.215085 -0.528917 0.345455 0.534694 0.0551153 0.18719 0.27868 -0.0866224 0.238528 0.302766 -0.33345 0.750301 -0.970825 -0.773571 0.324202 0.671672 -0.63051 -0.605393 0.0940096 0.762872 -0.882989 0.202624 0.0497999 0.552908 -0.454453 -0.527846 -0.00211939 0.384756 -0.339617 0.591507 -0.193901 0.450376 -0.945622 -0.849556 -0.0102168 0.109533 0.334438 -0.736176 -0.970848 -0.432613 0.575595 -0.315518 -0.683684 0.607535 -0.0806522 0.6399 0.268089 0.293287 -0.959444 -0.644148 0.0569245 -0.84684 0.563786 -0.898436 0.695801 -0.894348 -0.424211 -0.30028 0.49333 0.242313 -0.71536 -0.706359 -0.305447 -0.652427 -0.558038 0.678685 0.458623 0.770356 0.947631 0.483332 -0.659292 0.519965 -0.824447 -0.341585 0.112935 0.100028 -0.692521 -0.61497 -0.614353 -0.662573 -0.254561 0.441689 -0.506992 -0.69695 
0.549485 -0.818063 -0.580602 -0.887052 -0.100304 0.90558 0.401603 0.142575 -0.812432 -0.927644 0.512896 -0.370253 0.704268 -0.0330339 -0.590076 0.663137 -0.539478 -0.247715 0.204883 -0.34427 0.395782 -0.67267 0.758686 0.712673 -0.307406 -0.86843 -0.956664 0.416582 0.582514 -0.483115 0.743792 0.131958 -0.269541 -0.864633 0.261335 0.623811 -0.893591 -0.404455 -0.219252 -0.714534 -0.331637 -0.673035 -0.0750532 -0.63527 0.321019 0.330412 -0.936265 0.786636 -0.957519 0.264016 -0.547229 0.456753 0.589881 -0.822233 0.184386 -0.756115 -0.64467 0.205538 0.687821 0.961874 0.747874 0.423313 0.0179392 -0.506636 0.610002 -0.749378 -0.891633 0.675278 -0.0891752 -0.0782644 0.895893 0.559842 0.257898 -0.157175 0.944752 -0.424992 -0.820358 0.995539 -0.659082 -0.747815 0.297584 -0.20476 0.726424 -0.164779 -0.0112692 -0.125641 0.0669235 0.305933 -0.893804 -0.234085 0.201628 0.907384 -0.770992 -0.746613 -0.644534 0.84687 -0.476008 -0.523493 0.490268 0.374835 
0.383357 0.416066 -0.0683372 -0.369734 -0.705842 -0.113844 0.206064 -0.627219 -0.177032 0.555971 -0.300343 -0.872866 -0.682063 -0.587817 -0.0268242 0.340086 0.276497 -0.931912 -0.41257 0.438024 -0.185963 0.812312 0.294426 0.110043 -0.963138 0.702394 -0.161708 -0.416289 -0.870338 -0.664228 0.991281 0.517962 0.800305 -0.0449011 -0.834928 -1.02368 0.828705 0.290685 -0.546298 -0.238419 -0.226773 0.106614 -0.10058 0.0998656 0.532372 0.893938 -0.559179 -0.171943 0.878645 -0.00516964 -0.789304 -0.271733 -0.131329 0.533159 0.840179 -0.155151 0.1902 -0.411526 0.42193 0.348928 -0.0237808 0.472113 -0.169251 -0.295578 -0.61727 -0.0971504 -0.193133 -0.798625 -0.778202 0.231488 -0.064633 0.0503035 -0.629342 0.900444 -0.76373 0.887062 0.762401 -0.416338 -0.283213 0.769575 0.65386 -0.0101558 -0.513692 -0.628151 -0.439886 -0.650841 0.233731 0.69414 -0.100308 -0.363144 -0.0472337 0.94136 -0.829123 0.779233 -0.319072 -0.463097 -0.29048 0.383231 -0.226363 -0.0652652 
-0.393923 0.706286 -1.05033 0.00842771 0.667611 -0.838738 -0.00832701 0.358667 -0.344507 0.627405 0.21816 -0.599685 -0.356259 0.678253 -0.112877 0.154754 0.909031 -0.879716 -0.298578 -0.167773 -0.173485 0.68989 -0.273935 0.150621 0.554705 0.46 0.399553 -0.779314 -0.168095 -0.787387 0.20182 0.505705 0.958104 0.135302 -0.506253 0.477225 0.425246 0.23533 -0.132252 -0.774779 -0.0450891 -0.953703 -0.530108 0.460989 0.691221 0.409616 -0.372609 0.715399 0.451744 0.347643 -0.348846 -0.670651 0.185742 0.371159 0.417555 -0.413792 -0.246224 -0.384045 -0.109456 0.623586 -0.034268 -0.952112 0.074904 -0.16057 0.271342 0.416711 -0.583376 -0.423516 -0.197562 0.353849 -0.287838 0.633792 0.494417 0.376032 0.240682 0.329071 -0.207222 0.721251 0.0442745 -0.672376 0.0761807 0.76462 -0.287076 -0.846724 0.154659 0.952631 -0.341064 0.863743 -0.297356 0.471492 0.464912 0.721474 0.861553 -0.501673 -0.448063 -0.0624353 0.929958 -0.111535 0.672691 -0.329386 
-0.87288 -0.579894 -0.795125 0.695656 0.938401 0.472912 0.0347073 -0.497516 0.262942 -0.799846 0.0193133 -0.637257 0.959454 0.653559 -0.416486 0.00261523 0.6401 0.324984 -0.100227 -0.724486 -0.00598884 -0.690347 0.81044 -0.345503 -0.0931486 -0.502186 0.316591 -0.248282 0.481198 0.115186 0.435952 0.546911 0.61598 0.64722 0.453945 0.359848 0.213705 -0.598103 -1.05468 -0.399239 -0.143764 -0.0724703 -0.281898 -0.306019 -0.316373 0.269415 0.875632 -0.657785 -0.559469 -0.162158 -0.369293 0.343719 0.0211177 -0.51116 -0.721134 0.898612 0.0623727 0.488296 -0.168632 -0.582382 -0.191289 -0.908373 0.896964 -0.593452 -0.950508 0.248963 0.904348 0.310244 0.868488 0.911687 0.864916 -0.439967 -0.00191952 -0.34947 0.516416 0.790364 -0.934394 0.15019 -0.783779 -0.40108 0.766856 -0.278831 -0.877918 -0.120392 0.236645 -0.752248 -0.280481 -0.908131 0.805089 0.591129 -0.490814 -0.199068 0.951444 -0.612258 0.175587 0.814401 0.540271 -0.156469 0.343382 0.302742 
-0.0963473 0.197163 -0.980953 0.894341 1.10483 0.421687 0.582715 0.868704 -0.449971 0.68819 -0.428977 -0.60497 -0.675528 -0.342476 0.292461 0.540538 -0.319437 -0.916492 0.781448 -0.524351 0.711128 -0.79829 0.0281397 0.469066 -0.350512 -0.807637 0.368466 -0.847037 0.365489 -0.250396 0.64664 -0.853803 0.92353 0.735314 -0.829925 0.888809 0.109355 0.738302 0.704079 0.771648 0.589223 -0.655424 -0.919049 0.920358 0.0356826 0.271934 0.598446 0.78713 0.21137 0.35306 -0.627574 -0.232266 0.405889 0.437424 -0.240024 -0.98875 0.749303 0.697946 -0.666048 0.0146021 -0.359731 0.91337 0.146402 -0.383477 0.727022 0.23537 -0.421556 -0.125667 0.291111 -0.563595 -0.365503 -0.388686 -0.101079 -0.338302 -0.358753 1.0024 -0.929553 -0.870583 0.961166 0.331925 0.286125 -0.864278 -0.692373 -0.16225 0.633124 -0.199872 -0.196216 0.28334 -0.464071 0.121158 -0.714188 0.339495 0.111447 0.362794 1.01505 -0.211005 -0.4652 -0.664147 0.823024 0.692974 
0.00895059 -0.47991 -0.699791 0.926135 0.50541 -0.0301632 0.886367 0.316021 0.191806 0.714537 -0.140218 -0.610882 0.779355 0.0868747 0.201917 0.269644 0.801126 -0.934404 -0.28815 -0.696199 0.290792 -0.0856932 0.618141 -0.714101 -0.667251 0.62306 0.238551 -0.208922 -0.696629 0.0672279 -0.448474 0.154996 0.534616 0.0515391 0.204523 0.0337291 0.867096 -0.0105641 -0.742705 -0.0936985 -0.227972 0.164969 0.366467 -0.468886 -0.68855 -0.445919 1.04282 -0.880698 -0.553389 -0.245158 -0.485074 0.605499 0.575958 -0.882292 -0.672003 0.853032 0.871649 0.199723 -0.206497 1.03372 -0.573443 0.431723 0.16502 -0.947593 -0.648654 -0.809106 0.100667 -0.761262 0.519705 0.537485 0.056413 -0.947453 -0.291369 -0.458177 -0.294987 0.102713 0.102223 -0.446861 0.315916 0.743487 0.251207 0.717359 0.533571 -0.0979842 1.09125 0.565096 -0.290061 0.800255 -0.112112 0.51221 0.623953 0.401489 -0.0179804 -0.114062 0.618601 0.290607 0.0672729 -0.526261 0.659434 -0.643531 
-0.883086 0.0636196 -0.718358 -0.0650416 0.632374 0.193849 0.890169 -0.384302 0.611746 0.104067 -0.627467 -0.203761 -0.207573 0.938926 0.439977 -0.385743 0.599575 -0.46875 -0.45239 -0.679417 1.03416 -0.970109 0.782656 -0.204388 -0.0452533 0.349495 -0.686747 0.844179 0.968949 0.954492 -0.886307 -0.935969 -0.244359 -0.329606 -0.0561878 -0.493648 0.532436 -0.307772 0.0449175 0.035203 0.904025 0.533849 0.877668 -0.48523 0.456547 0.672137 0.348675 -0.02839 0.870385 1.04116 0.198379 0.806194 0.806141 0.184378 -0.114717 -0.33613 -0.360267 0.0518677 -0.45603 -0.396813 0.0391959 -0.260255 -0.590001 0.968749 0.314999 0.306904 -0.486266 -0.280961 -0.548256 0.672438 0.919762 -0.812238 0.171165 0.694616 -0.23537 -0.262895 0.217686 -1.16416 0.854766 0.263749 0.672888 0.221071 0.281959 0.633508 -0.238028 -0.86289 -0.868656 0.0502895 0.0341076 -0.330163 0.539324 -0.686044 0.709724 1.01483 -0.698015 0.0574712 0.291364 -0.559273 0.982283 0.380797 
-0.759012 0.968169 0.365673 0.390082 0.708107 -0.691284 -0.951249 -0.080136 -0.755607 0.937402 -0.657997 -0.936208 -0.124199 0.612084 0.419436 0.373643 0.555014 0.881431 -0.373023 -0.317977 -0.369179 0.903864 -0.079448 -0.892909 0.938549 0.179262 0.129856 0.12159 0.919322 0.061391 -0.403786 1.01616 -0.084102 -0.833482 0.496828 -0.40261 -0.415481 0.285465 0.63569 -0.290831 0.205992 -1.07239 -0.247859 -0.95854 0.587222 -0.555281 0.641634 0.226388 -1.06597 1.11514 -1.07704 -0.601886 0.913502 -0.0924467 -0.19017 0.721175 -0.760269 0.819679 -0.0702084 -0.828216 0.0981461 0.540041 0.905203 -1.02265 0.906556 0.321062 -0.13978 -0.668745 -0.0437719 -0.560305 0.266449 0.995168 -0.418831 -0.946095 -0.905559 -0.728542 -0.860366 0.521729 0.739038 -0.626409 0.518205 0.467199 0.0352972 0.540688 -0.267605 0.945846 -0.0184148 -0.174059 0.819722 -1.02215 -0.300642 0.0155518 0.913997 -0.30289 -0.0561469 0.882333 -1.02197 0.580906 -0.693941 -0.319805 
-0.877342 0.532523 -0.339736 -0.198066 0.626677 -0.219354 -0.088649 0.807674 -0.56474 -0.36151 -0.632959 -0.908991 0.781407 0.402066 0.431298 -0.675581 0.106344 -0.393837 0.162588 -0.0702746 -0.0851124 0.852215 0.728391 -0.188371 -0.450024 -0.217795 -0.386718 -0.5894 -0.323974 -0.103516 0.218718 -0.273631 -0.543537 -1.00285 0.581559 -0.911438 0.0264125 -0.686362 -1.02781 0.341099 -0.105426 -0.762154 0.44873 -0.373541 0.566867 -0.0920543 -0.00182456 -0.20104 0.503845 -0.879989 0.795436 -0.795435 0.897211 0.572389 0.248187 -0.636137 -0.431491 0.64678 -0.183926 0.184963 -0.163005 -0.836015 0.660956 0.382297 -0.649334 0.163544 0.591519 0.293121 0.854346 0.565922 -0.264465 -0.604213 0.889895 -0.861236 -0.0339052 0.649999 -0.123432 0.908601 -0.355673 -0.303781 -0.926351 -0.742143 0.041974 1.01 1.10466 -0.512766 -1.01331 -0.619618 -0.826049 0.230191 0.192748 0.208123 0.487574 -0.0649042 -0.526471 0.835024 -0.90063 0.929257 0.130486 0.488357 
0.425902 0.859931 0.876074 0.436856 -0.860319 -0.0689493 0.0253579 0.0924004 -0.18046 0.612862 0.903776 -0.0613138 0.698484 0.0538779 -0.269429 0.60264 0.273419 0.11129 0.856101 0.597474 -0.619949 0.219523 -0.429004 0.907558 -0.867716 0.0790371 0.678316 -0.80662 0.171557 -0.18871 0.771064 -0.450285 -0.289903 0.784239 -0.950624 -0.291667 -0.236269 0.00924688 -1.09484 0.633645 -0.306062 0.771797 -0.478651 -0.67818 -0.176792 0.498616 0.939463 -0.68488 -0.451876 0.926677 0.77728 -0.262398 0.12583 -0.600865 -0.167341 0.214487 0.516814 -0.614212 0.403545 -0.327771 0.439802 0.267128 0.142113 -0.820148 0.159605 0.130078 -0.0408076 0.926896 -0.566719 -0.0236169 0.586875 -0.225072 -0.134349 -0.921845 0.0941766 0.67588 0.539471 0.0885413 0.97841 -0.806389 -0.0181378 0.684677 0.171252 -0.969278 -0.865707 1.03962 -0.0401661 0.567995 -0.499352 -0.30566 -0.933983 1.00286 -0.812832 0.328093 0.946857 0.313747 -0.600518 -0.0940047 0.258983 -0.531746 
0.778215 -0.203056 0.395679 -0.355457 0.0316072 -0.441828 -0.722373 -0.495773 0.566064 -0.628182 -0.148862 -0.457764 0.774077 0.997388 -0.440583 0.858801 0.860688 0.873524 0.318576 -0.64122 -0.402283 0.597211 -0.737082 -0.0583419 -0.227621 -0.768908 -0.870224 0.198481 0.284759 0.343285 0.844104 0.0650079 -0.779664 0.243303 0.799608 0.161553 0.842246 -0.923735 0.752307 0.525202 -0.54385 -0.477207 -1.09701 -1.01843 -0.443777 -0.3331 0.886189 -0.368541 -0.595356 0.239981 -0.169719 -0.0990695 -0.16764 0.124084 0.969194 0.525168 0.328336 -1.18501 -0.25469 -0.400994 0.570575 -0.426901 0.532174 0.837025 0.993521 0.268789 -0.0112904 0.81537 0.607244 -0.177724 0.31536 0.637667 0.481267 0.250898 0.689893 0.89567 0.805386 0.524652 -0.581998 -0.745926 -0.149484 0.179106 0.347359 0.637411 -0.606298 0.304892 -0.150489 0.593948 0.202028 0.913042 -0.918848 -0.156951 -0.28095 0.757571 -0.582275 -0.39603 -0.0572852 0.453953 -0.532189 -0.674631 
-0.755653 0.673668 -0.98511 0.675691 0.132885 0.835218 0.574118 -0.101887 0.407992 1.18946 0.322112 -0.691762 0.0369735 -0.368417 0.986467 0.340629 0.818419 0.0626046 -0.0764224 0.167433 -0.0412672 0.0607778 0.888401 0.842111 -0.292965 -0.515009 -0.80355 0.678002 1.00425 -0.366869 -0.822448 -0.712853 -0.614696 -0.691346 -0.846497 0.367716 -0.853583 0.676599 -0.500803 0.66748 0.919279 0.512493 0.792676 -0.45953 -0.71485 0.783709 -0.955388 -0.715056 -0.365603 0.0134338 0.35695 0.632373 -0.892833 0.276889 0.500844 -0.291555 0.599572 0.457192 -0.517725 0.664539 -0.568084 -0.27284 0.723733 -0.0490343 0.165015 0.742972 -0.730674 0.22089 0.658487 -0.234979 -0.152211 0.124671 -0.513694 -0.294463 0.873579 -0.162304 -0.602837 0.737353 0.0410556 0.2869 -0.122865 -0.69047 0.0289472 -0.0358063 0.771885 -0.404986 0.361414 0.134218 -0.980508 -0.819125 -0.312792 -0.310821 0.0623139 -0.365752 0.281293 0.967004 -0.603493 0.678676 0.310001 0.909149 
-0.495712 -0.840034 0.00199698 -0.0807454 -0.0728588 0.0250542 0.701071 0.421922 -0.0717551 -0.0522145 -0.0760735 0.889394 -0.154008 0.901756 -0.139525 -0.536117 -0.664443 -0.531524 0.66685 -0.257064 -0.483747 -0.625484 0.199503 0.564302 -0.203818 -0.239112 0.365411 0.261795 -0.575993 -0.246139 0.266817 -0.035544 -0.147084 -0.610375 0.983426 0.638728 0.312479 0.692343 0.433246 -0.70864 -0.353168 -1.0123 -0.964226 0.155433 -1.01467 -0.207084 0.73495 -0.393124 0.0393937 0.334463 0.183615 0.630438 0.749161 -0.505218 0.288807 -0.518429 0.0303197 -0.438981 0.864687 0.616629 0.506736 0.210294 -0.735174 -0.536545 0.58146 -0.77398 -0.85048 -0.0603202 1.09336 0.411956 0.225516 -0.636596 0.776479 0.270788 0.567561 0.802667 -0.966849 0.238669 -0.734865 0.439439 -0.299869 0.437297 0.127542 -0.428959 1.11451 -0.543098 -0.29971 0.000625428 -0.114875 -0.151502 -0.533164 -0.370706 -0.872441 -0.0492158 -0.304368 0.621974 0.158043 0.0368827 -0.312251 0.14812 
-0.454997 0.840534 0.515105 -0.972274 0.221939 0.394794 0.875545 0.367138 -0.107131 -0.488815 0.121021 0.561732 0.499368 -0.92684 1.13949 0.426293 -0.711645 0.0452655 -0.35734 0.741613 0.812321 -0.0512934 -0.906086 0.836717 0.770418 0.0635767 0.333485 0.0532109 -0.8379 -0.825877 -0.665909 -0.392859 0.927285 0.806008 -0.146602 -0.0334693 0.0382076 -0.244643 -0.429689 0.803004 0.200515 0.534874 0.310453 -0.649391 0.401066 0.315865 1.0124 -0.899117 -0.695242 -0.576024 0.512367 -0.864868 0.404587 0.807109 -0.870802 0.0991183 -0.188155 0.531191 -0.682356 0.00148256 0.927867 -0.44181 0.225084 0.850747 -0.554503 -0.867453 0.0176682 0.725749 0.180015 0.506971 0.582349 0.937507 0.159114 -0.0436384 -0.587121 -0.259725 -0.864659 -0.651438 -0.229247 -0.0694831 -0.215556 -0.694337 -0.0240465 -0.425283 -0.857943 0.236727 0.345215 -0.048458 -0.33204 0.791108 0.89585 -0.21097 -0.598657 0.195633 -0.776223 0.16108 0.456583 0.370672 -0.142868 -0.723275 
0.0902766 -0.453322 -0.556915 -1.10344 0.478261 0.0674861 -0.279372 0.911628 0.793087 0.592795 -0.116947 -0.58356 0.573569 0.926412 0.0283572 0.699 -0.215921 -0.682072 -0.0230419 0.917725 -0.91641 -0.466391 -0.707502 -0.485528 0.810253 -0.189081 0.537271 0.127533 -0.447288 -0.606678 0.773338 0.492202 -0.246777 -0.899883 0.714641 -0.933846 0.194148 -0.502064 -0.927324 -0.269869 1.01066 -0.0376584 0.275457 0.467348 -0.307944 -0.997883 0.381814 0.659452 -0.724583 -0.991365 0.175082 -0.597837 -0.646967 -0.977801 0.0560933 -0.788162 0.0575198 -0.545252 0.59822 0.490504 0.110603 0.301806 -0.403915 0.71501 0.920173 -0.636344 -0.962028 0.153903 0.186116 -0.804778 0.87926 -0.0955397 0.115992 0.156136 -0.560433 1.08249 0.050888 0.664252 0.771884 0.677774 0.918363 0.231142 0.851046 -0.137521 0.210107 0.00436925 -0.227254 -0.730736 0.442116 -0.609067 0.619251 -0.297668 0.793642 -0.674435 -0.862727 0.737229 -0.126779 -0.668739 -0.252054 0.739583 
-0.490083 -0.206024 -0.149447 0.677914 0.891123 0.348539 0.653282 0.174877 0.408607 0.412165 -0.174441 0.0154187 -0.673074 -0.192391 0.861888 0.491539 0.601552 -0.624306 0.858761 0.315746 -0.211554 0.317952 0.613968 -0.406047 0.662829 -0.9553 -0.821063 -0.482258 -0.196237 -0.26768 -0.452817 0.164379 0.288302 0.178106 0.12567 0.310795 -0.425998 -0.174835 -0.620761 0.741431 -0.905074 0.308498 0.00532495 -0.631713 -0.966947 -0.604066 0.955634 0.604733 -0.00312662 0.537376 -0.316013 0.759519 -0.149845 -0.176266 -0.581819 -0.450824 0.275176 -0.568192 0.299808 0.902274 0.584719 0.730066 -0.0953306 -0.144589 0.282768 -0.894959 -0.632043 1.05467 -0.0138604 -0.148492 0.772848 -0.105284 -0.819932 -0.353994 0.277481 -0.533141 0.222236 0.0443923 1.11792 -0.686172 -0.0939646 0.0230629 0.809519 1.12564 0.879306 -0.590388 -0.434069 0.174691 -0.0881537 0.760957 -0.196594 -0.379932 0.650682 0.830895 0.362353 0.125627 -1.03839 0.736323 -0.0444016 -0.208656 
-0.311825 -0.193642 0.856927 -0.0514089 0.451233 0.146395 0.126272 -0.240977 -0.516192 0.181402 0.0662545 0.207474 -1.02147 -0.123965 0.169879 0.925711 0.252491 0.607504 -0.195248 -0.657288 0.519938 0.607452 -0.431158 0.158476 0.479484 -0.947644 -0.922324 0.466561 1.12258 0.0069975 -0.541341 -0.25695 0.69958 -0.899913 0.79974 0.21289 0.274252 -0.161176 0.832141 0.807104 0.955983 -0.044763 0.0637447 0.9295 0.788189 -0.810623 0.695915 -0.00476831 1.01086 -0.445461 0.0756355 0.44819 -0.689807 -1.03313 -0.265683 0.785259 -0.781837 -0.220557 0.349826 -0.82215 1.01887 0.694471 -0.1721 0.556955 -1.02815 -0.486463 -0.0910786 0.526085 0.4797 -0.223033 0.326601 0.220108 0.760722 -0.826678 0.0586813 0.605657 -0.405394 -0.277594 -0.386143 -0.397368 0.478215 0.990598 -1.1278 0.800695 0.966384 -0.115934 0.672864 -0.768503 0.517393 -0.203034 -0.671676 0.657435 -0.297229 0.315148 0.2382 -0.115163 0.944059 -0.986472 -0.740901 0.154789 
-0.140135 0.48935 -0.447441 -0.495206 0.816242 0.825708 -0.893968 -0.599471 -0.448879 -0.282595 -0.0775813 -0.921515 -0.560541 -0.0985352 0.78975 -0.650161 0.602777 0.426186 -0.237191 0.394099 -0.554484 -0.112748 -0.145225 -0.0468969 -0.743782 -0.933549 0.81049 -0.879768 -0.588683 -0.83759 0.38727 -0.0185437 0.654737 -1.08378 0.78328 0.402302 0.568463 0.694628 0.728423 -0.838471 -0.631106 -0.273243 -0.931324 -0.120449 0.508123 0.922551 0.50041 0.594436 0.438781 1.0767 -0.448475 0.617125 -0.151667 0.538357 -0.196462 0.173006 0.872171 -0.257383 0.419464 1.03624 0.0770491 -0.243063 0.0665385 -0.657614 -0.469353 -0.34164 0.903727 -0.45163 -0.507753 0.616542 -0.13725 -0.212782 -0.492579 -0.281211 0.750537 -0.821146 -0.222335 -0.0713445 0.556101 -0.622441 -0.12881 -0.586501 0.785292 0.957567 0.948115 0.000159865 0.0583359 0.749701 0.471097 -0.595795 0.617268 -0.447846 0.131728 -0.173096 -0.0677883 -0.766231 0.462876 -0.290071 -0.245812 0.859262 
-0.543445 0.328632 -0.28201 0.0829837 -0.683274 -0.30504 0.0918845 0.0894637 0.731301 -0.289875 0.404394 -0.560996 -0.206095 0.310657 -0.803794 -0.362347 -0.895134 0.109462 -0.50821 0.816804 0.629141 -1.06106 -0.889891 -0.390718 -0.166144 -0.0655669 -0.177812 -0.84959 0.963024 0.462558 -0.998805 -0.563028 -0.156849 -0.228094 0.516337 0.190636 0.154687 -0.508777 -0.937141 -0.290447 0.114993 0.537482 0.059814 0.943233 -0.361752 0.264239 -0.345092 0.252472 -0.476159 0.0020507 -0.429964 0.868641 -0.15615 -0.151354 -0.270946 0.741205 1.09346 0.642019 -0.861573 1.02197 0.225577 -0.900063 -0.556981 0.822701 -0.0352163 0.839177 -0.121795 -0.585064 -0.460872 0.0353165 0.0336909 0.513596 -0.344736 0.937927 0.394694 0.366046 0.0371581 -0.909273 -0.455748 0.770057 0.102215 0.202839 0.463592 -0.777184 -0.821363 -0.557815 1.04175 -0.841014 0.927811 -0.954972 0.999946 0.307944 -0.878752 -0.541207 0.141005 0.222723 -0.737406 -1.12614 0.539364 -0.333549 
-1.3807e-05 -0.659491 -0.847066 0.845794 -0.580228 0.781276 0.191818 0.516549 0.771024 0.769544 0.230951 -0.167081 -0.173476 -0.310794 -0.02207 -0.21958 0.11378 -0.0975561 -0.173672 0.0565199 -0.0618199 -0.191413 -0.9599 0.0592194 0.0870119 0.0794593 -0.719374 0.409183 0.244139 0.686796 -1.08253 -0.758185 -0.813047 -0.830449 -0.810307 -0.243368 0.743688 0.274137 -0.843775 0.512633 -0.121562 0.436052 -0.647255 0.57741 -0.796267 0.383964 -0.508647 0.390576 -0.738826 0.25731 -0.787041 0.238811 -0.894673 -0.533513 -0.649114 0.190922 0.879099 -0.340716 -0.271362 -0.00982248 -0.507758 -0.273425 0.24764 -0.370811 -0.0685028 0.225507 0.264725 -0.241788 -0.477527 0.476111 -0.610132 0.314898 -0.101375 -0.508073 -0.00997613 0.0380967 0.676954 0.376588 -0.563628 -0.777223 -0.208498 -0.328463 0.266895 -0.0332868 0.357714 0.841898 -0.856394 0.0291829 -0.626027 -0.0630616 0.808077 -0.0835198 0.767866 0.146382 0.687704 -0.333027 -0.591982 -0.223726 0.493582 -0.0350603 
-0.840932 0.52162 -0.663859 0.273839 -0.757833 0.404721 -0.836712 -1.03965 -0.230456 -0.477238 -0.831175 0.557491 0.300154 0.379057 -0.598654 -0.492469 0.252181 -0.415017 0.528723 0.636893 0.600194 0.392565 -0.481705 0.236476 -0.572432 -0.904353 0.855347 -0.091245 0.0835713 0.277958 0.700956 0.287798 -0.118956 -0.739971 -0.444798 0.287224 0.393778 -0.287183 0.134532 -0.752957 0.281758 0.305859 0.799233 -0.4511 -0.0747101 -0.701486 0.19321 -0.986627 -0.0764686 -0.376273 0.571045 -0.503879 -0.878865 -0.694687 0.765631 -0.451136 -0.457879 0.671323 0.53279 0.505661 -0.127184 0.390089 -0.165224 0.819007 0.444299 0.314188 -0.0123403 -0.0704098 -1.02581 -0.927031 0.341592 0.205938 0.55243 -0.178865 0.870027 -0.822157 0.00485702 -0.0965781 -0.687797 -0.801574 0.631153 0.899999 -0.431517 0.776099 -0.727671 -0.497633 -0.579079 -0.280646 -1.01997 0.917208 -0.809653 -0.0928882 0.351187 0.0673563 -0.106096 -0.0892809 -0.689375 0.654016 0.881274 -0.678782 
0.776679 -0.123982 0.566621 0.289302 0.904114 0.536473 0.429181 0.0207196 -0.679692 0.657371 0.247913 -0.90048 0.76877 0.717823 0.84753 0.976259 -0.80806 -0.789744 -0.325977 -0.867173 -0.744738 -0.109613 0.175158 0.544755 0.876304 0.886474 -0.56497 -0.691886 0.594158 -0.743936 -0.471673 0.325517 0.229705 -0.706649 -0.410356 0.191705 0.590218 -0.952737 -0.741761 -0.971898 0.727277 0.486667 -0.847458 0.490414 0.47099 0.954839 0.465844 0.574662 -0.754704 -0.826403 0.603343 -0.602685 0.128213 -0.170092 -0.974317 0.0619135 -0.268635 -0.613832 0.377646 -0.674675 -0.331636 0.900905 0.642359 0.963586 -1.0196 -0.729263 0.152509 0.721864 -0.83582 0.37018 0.854963 0.91968 -0.0156711 0.904226 0.378798 -0.838628 0.878983 -0.196003 0.697925 -0.752619 -0.00948877 0.292784 -0.404409 -0.991167 -0.745283 -0.399224 0.247052 -0.140998 0.0378979 -0.470319 0.192126 0.730148 -0.610249 -0.23041 0.644664 -0.480102 0.0312225 -0.31231 -0.737391 0.260118 
-0.919963 -1.00354 0.139195 -0.010608 -1.01052 -0.404187 0.159966 0.873757 0.413213 -0.186972 -0.855569 -0.536711 -0.818539 -0.312996 -0.459108 -0.654941 0.289278 0.706604 0.188418 -0.731988 -0.783111 -0.654057 -0.964228 -0.360211 0.10506 0.674141 0.15881 -0.83734 -0.624721 0.388434 0.339821 -0.548132 0.432115 -0.423338 0.436925 0.460989 0.166275 -0.405588 0.371158 -0.486391 0.401521 0.466507 0.0477744 0.515913 -0.818598 0.51839 0.878458 0.497907 0.281944 0.0891049 0.757069 0.50231 0.422878 0.804948 -0.863332 -0.435013 0.45869 0.241941 -0.239154 0.818875 -0.312684 -0.893758 -0.704261 -0.880739 -0.261979 0.737327 0.53954 0.836074 -0.682851 -0.0770144 -0.562043 0.689533 -0.599263 0.457045 0.24029 -0.444064 -0.0311616 0.095534 -0.961512 -0.669705 -0.80574 0.790485 0.873967 0.609723 0.608589 0.901077 -0.776552 0.080087 0.235997 -0.0928423 -0.0579008 0.859366 0.104714 0.222694 0.951121 0.708965 -0.0576988 0.483936 0.569621 0.29432 
-0.59358 0.977604 -0.0670926 -0.23391 0.4408 -0.858269 0.357653 -0.485455 0.267818 0.37706 -0.180194 0.483145 0.166377 -0.350125 0.106143 -0.224112 -0.399027 0.282649 0.848718 0.804399 -0.775975 -0.238431 0.656119 0.272723 0.969878 0.597349 -0.0121396 -0.0861009 0.0836425 -0.461963 -0.848105 0.480147 -0.48074 0.0883067 -0.703789 0.963311 0.263983 0.646219 -0.554549 -0.446569 0.0192311 0.255704 -0.958006 -0.817908 0.919178 0.138838 -0.0404316 -0.471226 -0.555129 -0.185277 -0.680543 -0.340119 0.627379 0.979764 0.962961 0.543333 0.581399 -0.0672254 -0.540673 -0.341686 0.478372 -0.385587 -0.856728 1.02947 0.717105 -0.53476 0.954879 -0.0302582 -0.954249 -0.59768 0.526999 0.0945943 0.664665 0.565847 0.282463 0.582476 -0.29524 -0.754737 -0.911483 0.156361 0.0709687 -0.577982 0.837732 -0.366514 -0.633741 0.785378 -0.819968 0.981033 -0.275251 -0.390731 -0.371471 -0.795087 0.261649 -0.212972 -0.801774 -0.0354468 0.226447 -0.84405 0.937172 0.288447 
-0.442353 0.462457 -0.615371 -0.776379 0.0284303 0.666675 0.805663 0.73815 0.91382 0.905054 -0.105906 -0.0237152 -0.671366 -0.270402 0.615024 -0.267927 -0.483714 0.801724 -0.287524 0.241789 -0.552095 0.350819 0.444684 0.708295 -0.866243 0.643366 -0.326597 0.34798 0.798811 -0.391015 -0.361818 -0.643621 -0.928557 0.0228222 -0.419576 0.099864 -0.310221 -0.613991 -0.162285 -0.396194 -0.708937 0.731746 0.580087 -0.380298 -0.53855 0.195104 0.35176 -0.0221927 -0.00300804 -0.935701 -0.780527 0.444808 0.415565 0.664175 0.15336 0.548848 0.307596 0.826623 -0.103167 0.106334 -0.564338 0.535031 0.462756 -0.492615 -0.442084 -0.95658 0.606957 0.247646 -0.571161 -0.55531 0.851441 -0.279829 -0.823483 0.431536 0.339904 -0.362046 -0.373357 -0.308292 0.615557 0.62365 -0.243926 0.83516 0.0686179 -0.828917 0.499008 -0.77811 0.719932 -0.193104 -0.951435 -0.383483 0.913132 -0.515752 -0.848128 0.376006 -0.00868347 -0.290277 0.419193 -0.401714 0.957375 0.848161 
0.0429705 0.808823 -0.431634 0.219488 0.240362 0.90827 0.857439 0.867006 -0.400021 0.47311 0.490646 0.355988 0.308289 -0.440736 0.527116 -0.192359 -0.218845 0.24712 0.614537 -0.170279 0.863961 0.527767 0.31395 -0.984167 -0.0962475 -0.694728 -0.274442 -0.677162 -0.0964481 -0.317072 -0.828968 0.946522 -0.508249 -0.260601 0.16601 0.732114 -0.352331 0.0234487 0.599119 0.247647 -0.503441 0.0897657 -0.396365 0.804847 0.64903 -0.869249 -0.387512 -0.569815 0.377872 -0.772975 0.259906 0.241833 0.754792 -0.426145 0.257666 -0.341455 -0.120873 0.983223 -0.0186169 0.782679 -0.333848 0.152416 0.729202 0.157903 0.891814 -0.104789 -0.109983 -0.460517 0.91866 -0.510864 0.78713 -0.584781 0.578902 -0.609235 -0.779934 0.227932 -0.478483 -0.167446 0.658117 0.899388 0.0595795 -0.0819774 0.141221 -0.185628 0.491878 -0.601113 0.472917 -0.628995 -0.61789 -0.5457 -0.846316 0.0482617 0.606716 0.882886 -0.793835 0.49853 -0.221903 0.0961818 -0.961987 -0.303242 
0.585213 0.823833 0.117481 0.165002 -0.783446 0.32514 -0.60363 -0.243975 -0.832584 -0.94675 -0.364066 0.225366 -0.03048 0.780544 -0.961063 -0.544855 -0.828138 0.51123 -0.169355 -0.444209 0.967528 -0.0123474 0.60154 0.56129 -0.133654 0.815498 0.070804 0.644705 -0.0905696 0.109219 -0.659479 -0.503924 -0.067221 0.453574 0.661078 0.150691 -0.214646 -0.947626 0.888577 -0.0463188 -0.894671 -0.475315 -0.824669 0.0682513 -0.701721 -0.782079 0.535315 -0.520005 0.724814 -0.63523 0.0382038 0.691424 0.343222 -0.357652 0.264099 -0.782108 -0.539439 -0.669295 0.86002 0.371288 0.442898 -0.802329 0.865175 -0.623733 0.658543 0.527022 0.530165 -0.55814 0.54716 0.417752 0.387814 0.675905 0.938166 0.570196 -0.253263 -0.753695 0.785177 -0.723721 -0.270973 0.515311 -0.365115 0.759413 0.200329 0.984383 -0.592886 -0.535093 -0.786903 -0.133699 -0.200529 -0.934411 -0.769432 -0.75627 -0.732215 -0.903127 -0.380267 0.912901 0.618205 -0.853286 -0.633444 0.191728 
0.55406 0.702324 -0.0894748 0.476062 0.290342 0.541127 0.815588 0.185436 0.817425 -0.58157 -0.436699 -0.411653 -0.746301 0.800921 -0.490682 -0.400683 -0.785603 -0.188402 0.473211 0.0038525 -0.249709 0.753342 0.292399 -0.0707947 0.763788 0.970353 -0.00531088 0.350291 -0.886383 0.364519 -0.414878 0.68067 0.0200896 0.559993 0.18722 -0.539634 0.150247 -0.151178 0.524149 0.0433961 0.292187 -0.906189 0.539395 0.553621 0.911589 -0.894014 -0.673369 -0.818668 -0.277933 0.786831 0.343337 0.427897 0.38684 -0.503067 -0.388453 0.286025 -0.459077 0.515759 -0.291983 -0.332106 -0.210863 0.340213 -0.648435 0.822372 -0.0956857 0.416779 -0.757427 0.973844 -0.799972 0.737666 -0.0554381 0.730824 0.817812 -0.435792 0.379831 0.759131 -0.405735 0.545509 1.05967 0.439138 0.295963 0.221689 -0.115564 -0.248008 0.879897 0.404958 -0.747747 -0.630389 -0.0853499 -0.24011 -0.0432476 0.701991 -0.873187 0.31584 0.527774 0.0215763 -0.293671 0.684985 0.0277692 0.0991018 
0.476529 -1.07431 -0.241403 0.326657 -0.496513 -0.73724 0.172833 -0.187443 0.475716 -0.193015 -0.691424 0.114253 -0.953735 0.325297 0.677256 0.587608 -0.347892 1.23019 -0.8241 0.797642 -0.436935 0.211999 0.524586 -0.35145 -0.630053 0.0173226 0.853406 0.0844485 -0.0958473 -0.142683 -0.762245 -0.726742 -0.357582 0.4093 0.585256 0.36899 0.434656 -0.808069 -0.384415 0.0470213 -0.114505 -0.102533 -0.7775 0.163446 -0.59073 1.05353 0.308563 0.191391 0.697447 0.337249 0.232164 -0.867309 -0.535577 -0.70627 0.217322 -0.10343 0.513829 -0.253175 -0.864584 -0.493929 0.421506 -0.384673 -0.548845 -0.850953 0.60009 0.697016 0.623968 0.0840097 -0.807343 1.03821 -1.14033 0.398995 0.15303 -0.592776 -0.222133 0.415665 -0.748574 0.541977 -0.38136 -0.624037 0.37334 0.801264 -0.544212 0.605437 -0.62505 0.36806 -0.241704 0.686341 -0.7504 -0.46617 0.682947 1.0512 0.200282 -0.670414 -0.935588 0.343807 -0.844125 0.605434 -0.743378 -0.633337 
0.648057 -0.883139 0.422244 -0.0944763 -0.322221 -0.141062 0.887397 -0.32819 -1.24846 -0.92073 -0.0997216 0.357819 -0.929237 0.594593 -0.113789 -1.38141 -0.0170344 1.19539 0.572615 0.616198 -0.412882 0.530935 0.383307 0.938445 0.770459 0.710869 -0.119782 -1.07831 0.391036 0.12212 -0.806801 -0.0140519 0.207286 -0.395948 0.521144 1.31425 -0.315284 -0.0786393 0.085542 -0.0277249 -0.0489081 -0.780993 -0.335377 0.614877 0.684324 0.891131 1.09459 0.0500552 0.558916 0.278489 -0.286114 -1.05827 -0.235122 -0.940651 1.2714 -0.403441 0.833594 -0.330945 -0.0345014 0.29945 0.637335 0.836908 0.988976 -0.116317 0.61822 -0.0228663 0.555515 -0.473495 -0.682089 -0.882022 0.280989 -1.07119 -0.5272 -0.209507 0.998766 -0.996361 -0.43722 -0.089788 0.11329 -0.292057 -0.148563 1.13056 -0.608811 0.486878 -0.523237 -0.509373 -0.390267 1.05015 0.397414 0.0959343 -0.217169 0.261256 -0.414346 -0.260258 -0.843906 0.0406136 -0.785882 0.0100014 0.756583 -0.164702 
0.0211222 -0.0666353 -0.516495 1.04167 -0.856238 -0.562707 0.256029 -0.227183 -0.147792 -0.588711 0.0477649 -0.898313 -0.587289 0.757107 -1.20661 -0.908849 -0.701404 0.219161 -1.01815 0.640999 -0.51821 0.333947 -0.915157 0.557329 -0.945127 -0.0426533 0.941401 -0.63474 1.49534 0.470354 -0.220961 0.23788 -0.435 0.930698 -0.183861 0.361259 -1.12207 0.46724 0.598259 0.824158 -1.35921 -0.202377 -0.777526 -0.252139 -0.692894 -0.989778 0.584698 -0.0861592 -0.405634 -0.209339 -0.227067 -0.143106 -0.459614 0.110026 -0.10768 -0.485713 -0.7208 -1.11143 0.465482 -0.500259 0.304977 -0.551584 0.520312 -0.91987 -0.659491 0.562964 0.357696 -0.844469 -0.000429241 -0.882267 -1.36904 0.654596 0.261198 -0.736129 -0.396175 0.988659 -0.197837 -0.0694746 -0.0864417 0.637065 -0.448429 0.775648 -0.205717 0.202216 0.407458 0.66428 -0.949787 0.427925 1.30888 0.242179 0.126016 0.455292 -0.896984 -0.546381 0.766416 -0.0422046 -0.819846 -0.615305 0.512739 1.2041 
-0.597627 -0.0312036 0.329376 1.52725 -0.271582 1.25556 0.637455 -0.414647 -0.167802 -0.384925 -0.713215 0.952337 -0.84011 0.62435 0.211097 -0.0695521 0.1997 1.22638 -0.918977 -0.202853 0.804126 0.677698 -1.85644 0.817373 -0.947903 0.735722 -0.817781 -0.567048 1.80592 0.350028 -0.99885 -0.258736 0.0677834 0.866992 0.165854 1.18866 0.47662 -1.13806 0.509235 -0.131299 -0.770373 -0.558388 0.316509 0.598793 -0.896792 -0.930493 -0.190245 0.212701 0.407229 -0.741746 -0.723578 -0.363573 -0.722749 -1.06791 0.805627 -0.62436 -0.672169 -0.0254278 0.215988 -0.241314 -0.193708 0.339413 0.192709 -1.13466 0.314003 0.519627 0.324397 -0.0459988 0.386061 -0.142078 0.390616 -0.711949 0.454535 -0.551363 1.0311 1.39064 0.532224 -1.12836 0.707449 -0.0863227 -0.351339 0.932123 -0.569346 0.31517 1.4614 1.17809 -1.35988 -0.879046 0.278675 0.173642 -1.1938 1.01325 -0.040787 0.0336727 1.47292 -0.671642 -1.15339 0.0894512 0.536169 0.917722 
-1.00171 -0.204766 -0.629462 -0.487754 0.0831017 -0.162476 0.996351 -0.164115 -0.486077 0.193351 -0.826456 0.883223 -0.347364 -0.0278132 -0.0051238 -0.550001 -0.861262 0.735482 0.198633 0.234262 -0.128171 -0.109383 -0.931419 0.623467 0.846771 0.219554 1.03761 0.80334 0.0369643 -0.0596888 0.64528 -0.186394 -0.623973 -0.665128 0.29274 0.57136 -0.731696 -0.810631 0.619797 0.197804 0.372751 -0.733073 0.300591 0.188691 0.141328 -0.90713 0.737437 0.311789 -0.217917 -0.984888 -0.30889 -0.220761 0.239492 -1.68176 1.21881 0.00015137 0.775004 -0.73812 0.347003 1.28564 -0.743443 0.0410325 -0.200483 -0.814566 0.42725 0.229838 0.616867 -0.734902 0.909477 0.199812 -0.419164 0.825188 0.302696 -1.42515 -0.335581 0.308598 -0.472841 0.650276 0.108685 0.780267 -0.621263 0.45269 0.128395 -1.02063 0.788846 0.180172 0.0870217 -0.30309 0.526961 -0.202083 -1.00874 0.997785 -0.991092 -0.12718 0.261778 0.31316 0.313788 -1.21485 0.186296 0.788218 
0.53645 -0.590294 0.196707 1.1991 0.671246 1.11422 -0.620226 0.00911365 0.605681 0.0999171 -0.0229624 1.00056 -1.05924 -0.426726 0.364134 0.098651 -0.305049 0.764896 -0.2666 -0.326557 -0.520805 -0.682278 -1.68971 -0.525804 0.358865 0.00060947 0.954472 -0.0898812 0.664267 -0.0567205 -0.815029 -0.0722953 0.686034 0.963256 -0.255615 1.00304 -0.26397 -1.0083 -0.93192 -1.00299 0.376959 0.69791 -0.893707 1.16381 1.03733 0.955069 0.0354715 -0.312311 0.091311 0.286994 -0.191312 -0.649453 -0.952957 -0.134033 1.74784 -0.0239193 0.695288 -0.254137 -0.262385 1.41487 -0.490696 -0.107293 0.0407904 -1.04143 -0.452193 0.0848542 0.817684 0.7005 0.40832 0.844146 -0.0993399 -0.0225476 0.0508688 -0.0837674 -0.588434 0.771124 0.345626 -0.240393 -0.244893 0.368328 -0.0994174 0.821175 -1.08 0.0737201 1.18568 1.38122 -0.884149 -0.832435 -0.0338411 0.572264 -1.06005 0.7103 -0.22771 -0.270015 -0.407379 0.332087 -0.150598 0.127414 0.0392002 -0.0959456 
0.591455 -0.15881 0.113843 1.04528 -0.419376 0.837689 -0.569757 -0.992922 -0.990019 0.134292 0.190266 0.0335148 -0.700756 0.990294 -0.103063 -1.49204 0.15792 -0.0710128 0.228737 -0.456679 0.847044 -0.958777 -1.37877 -0.514907 0.108071 -0.464934 -0.515293 -0.507398 0.667742 0.0833527 -0.533955 0.458388 -1.16886 -0.673352 0.0147096 1.17297 0.2884 -0.793463 0.169348 -0.0068902 1.24194 -0.425241 -1.23192 0.319317 -0.576525 0.80746 -0.950116 0.527014 -0.446831 -0.12381 -1.06949 -1.46141 0.607638 -1.3608 1.53015 -1.08426 0.70996 0.162834 0.621241 0.560651 -0.343573 -0.660853 1.65085 -0.531844 -0.394416 0.147125 0.946648 0.779086 0.995695 0.182381 0.0207196 0.480598 -1.22577 -0.556396 1.19498 -0.306923 -0.681568 -1.27597 -0.793777 0.62258 0.165291 0.263262 -0.689586 -0.0573698 1.63391 1.04203 -0.0533302 -0.854213 0.142139 -0.0777373 -0.427569 0.810756 1.10375 -0.792537 -0.383737 -0.35463 -0.243719 0.302512 0.248757 -0.249413 
0.051418 0.775047 0.850721 0.849456 -0.423762 0.8573 0.418846 -1.7029 0.00455725 -0.579079 0.747225 -0.15686 -0.839014 1.34255 -1.06983 -1.13066 -0.374035 -0.680774 0.71356 0.877302 -0.266433 0.270168 -0.257124 -0.259312 -0.938433 0.69627 0.66119 0.217528 0.305105 -0.927199 -1.49219 -0.531936 -1.06368 -0.979068 1.0738 1.11531 0.957922 -0.487361 0.128402 0.21168 0.99928 -0.47351 -0.108021 0.27237 -0.277655 -0.670717 -0.839306 -1.24014 -0.797638 0.0637236 -0.823879 -1.02052 -0.0035879 -0.198304 0.370639 -0.799692 0.519132 0.49894 -0.273605 0.272217 -0.899701 0.0876502 0.35279 -1.00855 0.551779 0.44539 0.503692 0.216738 1.83269 -0.379914 0.272883 0.356541 0.628613 -0.979042 1.04206 -0.083034 -1.63813 0.738892 -0.474759 -0.192938 0.149517 0.615784 -0.466225 1.02347 0.884672 0.0863922 -1.30772 0.591305 -0.0567149 0.0709357 0.355557 -0.070153 0.00848983 -0.496107 -0.202743 -0.485749 -0.109776 -1.49888 0.0406269 0.24056 
-0.396919 0.0931379 -0.671261 0.0860313 0.272781 0.733033 -0.0158575 -1.71586 0.28113 -0.0997501 0.30672 -0.267357 -0.658786 0.498019 0.247512 0.499265 -0.0460207 -1.10514 0.615603 0.908004 0.34149 0.169325 -1.37352 -0.390769 0.754815 -0.0922122 0.232244 -0.509248 0.17424 0.377459 -0.994309 0.721215 -0.455337 -0.178067 -0.0452042 -0.286889 0.513177 -0.000864294 -0.781299 -0.158518 1.86254 -0.297831 -0.675021 0.246085 -0.831457 -0.30745 -1.40956 -0.939074 -0.456998 0.0521879 -0.62201 -2.49055 1.69469 -0.241251 0.568698 0.384962 0.825724 -1.17787 -0.568824 0.19805 0.843996 -1.01344 -0.901539 -0.901479 0.49597 0.0593104 -0.732906 -0.568898 2.59379 -0.325688 0.533932 0.736204 0.815707 -1.35326 -0.378431 0.101482 -1.76268 -1.12251 -0.474123 0.340776 0.433264 0.925404 0.824805 0.540021 1.98633 -2.52217e-05 -1.77097 0.133539 -0.185008 0.96374 -0.504942 -0.090467 -0.688937 0.476658 -0.199283 0.0479552 0.692373 -0.468593 -0.741208 0.683522 
0.12525 0.340219 0.103266 0.737294 0.473807 0.278927 -1.19162 -1.54814 0.0362074 0.769117 1.17201 0.0470297 0.510975 0.423115 0.157168 0.643012 -1.48916 -0.83932 -0.430642 -0.302129 -1.00837 1.12258 -0.915484 -0.125108 0.408992 0.167564 0.701528 -0.390272 -0.441845 0.632608 -0.261376 0.64575 -0.101095 -0.898697 0.879026 -0.782085 1.17664 -0.206026 -0.350502 0.731928 0.198603 -1.09787 0.233254 0.947865 -1.05473 0.619036 0.170201 -0.191333 0.490465 1.03005 0.230917 -2.7085 1.67402 1.68886 -0.118822 -0.0457237 -0.135231 -1.10132 -1.22006 0.424995 -0.521917 0.551413 -0.106355 0.184363 -0.792391 1.20215 0.22363 -1.00755 1.32846 -0.607012 0.431266 -0.322429 -0.0133756 -0.390518 0.135212 0.900736 -1.16645 -0.769568 0.178884 -0.213875 -0.134673 0.180717 0.217668 -0.3841 1.02146 1.11331 -1.83782 0.505673 -1.33689 -0.909223 -1.47874 -0.188856 1.29241 0.417443 0.216924 0.278297 0.20392 -0.316952 -0.997023 -1.20748 
-0.0219666 0.865075 0.118267 -1.13083 0.577646 -1.19467 0.100885 -1.26 -0.856929 0.905149 1.0224 0.350007 -0.313688 -0.321342 0.194942 0.446837 -0.641122 -0.413508 -0.486138 -0.378292 -0.504139 0.142734 -0.739373 0.596598 -0.623662 0.90017 -0.577218 0.212668 0.231686 -0.391433 0.650436 0.961318 -0.6802 -0.216055 1.46085 -0.285691 -0.216964 -0.00963772 -0.877589 1.43471 2.08051 -1.65699 -0.907112 -0.762957 0.114637 -0.138359 0.733698 1.36744 -0.651342 -0.765269 -0.600564 -2.49588 1.43904 1.00575 0.271414 -0.877877 -0.625081 -0.384995 -0.539782 0.5066 1.40059 0.0186173 0.217752 -0.369411 -0.530979 0.261139 -1.42578 0.0125563 0.274598 -0.458581 -0.228513 0.347117 -0.735252 -1.71754 -0.69582 1.55564 -1.77617 -0.755306 0.281369 0.0928138 0.313608 1.25367 0.744468 -0.223789 1.53488 -0.00329136 -3.32453 0.933104 -0.526969 -1.3419 -0.994143 0.919776 1.52683 -0.284611 0.157283 0.166496 0.462628 -1.06098 0.0909435 0.0307135 
-0.629033 -0.332405 0.221607 -0.0987437 -0.177269 0.0868217 -0.134812 -0.677525 -1.23996 0.885683 -0.127998 0.320035 0.544181 -1.2303 0.653643 0.0838072 -0.733717 -0.892589 -0.774667 0.994465 -0.746086 0.197275 0.157016 0.469931 0.00819781 0.554454 -1.03213 -1.06302 0.724886 0.67843 0.468313 1.22422 -1.24857 -0.386868 1.14702 -1.62681 -1.26094 -0.690352 0.684532 -0.0226267 0.999295 -1.5054 0.0322809 -1.32552 -0.349319 1.1544 -0.0426674 0.439898 -0.444817 -0.338692 -0.469344 -1.85572 0.286115 1.76672 0.16588 0.689022 -0.379853 -0.994945 -0.402083 -0.286511 -0.481859 -0.00614331 -1.04511 0.244438 -0.590309 0.584578 -0.772179 -1.30358 1.60617 -0.281964 -0.245355 -1.10435 -0.28229 -0.984601 -0.441384 1.59953 -1.60616 0.219824 -0.466299 -1.158 -0.039013 0.354762 -0.191401 0.524355 1.61856 1.06093 -3.21209 -0.142609 -2.03716 -1.20241 -1.03334 -0.235993 2.14885 0.441396 -1.65498 0.500042 -0.131975 0.452396 -0.906001 -0.896089 
-0.638873 0.375372 -0.347859 -0.134069 -0.759035 -0.281931 0.184701 -0.688782 0.459913 2.39105 0.482146 -0.802283 -1.07466 0.454118 0.244321 1.40543 0.0339267 -0.785452 1.02927 0.742531 -0.648826 -0.200953 0.389068 0.654539 0.279869 1.12334 -1.09413 0.376539 0.502853 -0.0640227 -0.823356 1.20263 0.0374694 -0.184315 1.05232 -1.14509 -1.48536 -0.504414 -1.18794 0.571724 2.77312 -0.124702 -1.00079 -1.05069 0.0229624 1.18341 -0.857101 -0.54893 -0.212914 -1.63291 0.0211744 -1.62185 0.340393 0.677315 0.179537 -0.497879 -1.08023 -0.564679 -1.89213 -0.620682 1.1374 -0.917344 -0.335009 0.571316 0.784573 -0.421893 -1.68247 -1.44705 0.670913 -1.30208 0.710011 -0.125825 0.00714361 -1.59893 0.283851 2.01423 -0.0344126 -1.72209 -0.845028 0.559502 -0.684924 0.495724 -0.864393 0.853408 0.441855 0.779225 -1.9365 0.860191 -2.14238 -0.0741693 -0.267642 0.612901 0.450373 0.0976746 -0.527858 1.10103 0.558351 0.513423 0.689124 -0.219561 
0.957986 1.06745 0.6679 -0.909384 0.958008 0.265331 -0.384011 1.02638 1.57445 2.04247 1.55803 -1.39588 -1.75318 -0.313993 0.718884 0.452053 0.0950848 0.483858 1.26622 1.00969 -0.315758 -0.132018 -0.912387 0.975055 0.466456 -0.934054 -0.167002 -0.815313 1.16543 0.309835 0.490465 1.48276 -0.776294 -0.165898 0.597925 -2.16191 -1.04763 1.1614 -1.37297 -0.826607 1.64705 -0.0110202 0.405434 -0.509576 -0.212675 0.0457195 0.696402 -0.769277 0.670343 -0.677644 -0.0479445 -0.84641 -0.766202 0.27849 1.17986 0.212954 -0.436019 -0.678869 -1.60102 0.395809 2.18544 0.328837 -1.59758 -0.404752 0.54822 -0.0416851 -1.10415 -0.423743 1.24408 -0.78025 0.364953 -0.825176 0.0751961 -0.108146 -0.207271 2.00801 -1.63365 -0.423363 -0.113655 -0.750164 -0.655337 1.08642 -0.682042 1.22597 0.588524 0.784798 -1.97842 1.76783 -0.335281 -0.801473 0.108601 0.630596 0.517153 0.724069 -0.942377 0.317893 -0.000685131 0.514952 -0.0770611 -0.357504 
-0.703976 0.9025 -0.0689205 -0.303081 -0.267764 -0.730757 -0.185399 0.469751 0.367757 2.0053 0.952328 -1.02055 -0.993289 0.173275 -0.20522 -0.376032 0.0285956 0.14096 1.74649 0.297237 0.634971 -0.371278 -2.184 0.0398406 -0.137063 -0.740399 -0.402845 -0.545995 0.256165 -0.99505 -1.09864 0.854751 0.0235877 -0.597253 0.533335 -2.20561 -0.46492 -0.501151 -0.582821 -1.99639 2.11054 0.506256 0.017621 -0.483184 0.867054 0.375 0.00653703 -0.119204 0.877949 -0.520134 -2.53588 0.860926 0.272598 -0.371867 0.0909586 -1.54079 0.168265 -0.216483 0.0724787 0.484416 2.19798 0.0407168 -2.14397 0.100892 -0.0420741 -0.862299 -0.278244 0.20409 1.63866 -1.31334 -0.27416 0.175589 0.0089753 -1.61486 -1.66498 0.899756 0.145107 -0.471062 1.77094 0.567921 -1.079 1.28347 -1.02316 1.01708 -0.275381 1.46193 -1.42319 0.487773 -0.927957 -1.50937 0.820527 -0.160686 -0.574954 0.260677 -0.642254 1.33953 -0.987411 -0.880205 -0.133777 -0.891033 
-0.962418 1.68395 0.606178 0.238213 1.27856 -0.635333 -1.68639 0.759649 0.181387 1.83958 0.339291 -1.28753 -0.424019 -0.355351 0.789923 0.941595 0.0331847 0.89526 1.32381 -0.277445 0.883572 -0.286188 -1.89549 -1.00271 -0.575597 -2.05963 -0.326655 -0.990673 -0.288464 0.370846 -0.551723 0.12902 -0.11174 -0.762391 -0.345831 -0.311475 -0.788172 -0.687424 -0.432679 -0.813063 -0.0335564 -0.0897224 -1.03257 0.821079 -0.175337 -0.0347702 0.352577 0.672409 0.104574 -0.195898 -2.81887 0.429873 -0.847459 -0.0686445 0.604762 -0.918307 -0.200901 -1.29841 0.755802 1.74534 0.422825 -1.404 -1.18315 1.24654 0.157916 -0.61511 0.379425 0.404839 -0.358981 -0.981393 -0.879285 -1.24204 0.279798 -1.51813 -1.97922 1.39262 1.16704 -0.843062 1.07756 0.427207 -0.424965 1.22654 -2.32793 1.16635 -0.171301 0.921224 -0.935236 0.616175 0.153649 0.303688 1.9721 1.33736 -0.329544 -0.383538 0.270966 0.775823 0.330315 -0.107175 1.32669 0.700802 
-1.48279 0.385285 -1.00723 0.746465 0.213107 -0.240974 -1.56259 -0.0270018 0.192721 1.986 0.760819 -1.06111 -0.712216 0.700169 -0.253202 0.496839 -1.0704 -0.174021 0.34956 -0.41154 -0.399054 -0.388311 -2.30721 -0.55594 0.512046 -2.03339 -1.53534 0.318413 0.612055 0.609611 -0.304607 0.495571 -1.58714 0.335284 -0.0373232 0.109983 -1.44368 -0.782952 0.188281 -1.7515 0.867501 0.711588 0.496553 -0.590625 0.119105 -1.0701 0.186032 0.337431 0.110378 -0.336384 -1.43476 0.925383 -0.954536 -1.90083 0.210855 -1.20706 -0.807378 -0.295961 1.01678 1.38515 0.784884 -1.21093 0.0838069 0.137468 -1.02099 -1.14658 -0.94592 0.83925 0.295784 -1.56434 1.24065 -1.19028 1.54678 -0.799056 -1.0349 0.0229847 1.69508 -2.10859 1.82126 0.459679 -0.260832 2.00062 -1.49567 0.311453 -0.85102 1.27328 1.37102 0.617405 -0.568891 -0.0304038 0.287958 -1.03012 -0.883088 1.49477 0.445588 2.16569 0.524621 0.284852 0.803956 -0.345937 
-1.86542 1.30035 0.142886 1.48636 0.201185 -0.00573586 0.30098 0.0295103 0.444059 2.24449 0.420733 0.605968 0.688991 0.444055 0.691237 0.73461 -0.0140506 0.62001 -1.13106 -0.265943 -0.0394127 -1.10368 -1.45096 -0.635539 -0.863779 0.0873853 -0.0871658 -0.59257 0.638954 -0.339631 -0.882403 0.398148 -1.22929 -0.927294 1.11956 1.08954 -1.30721 -0.167698 -1.34741 -1.29439 -0.667231 0.44165 -0.368624 -0.698437 -0.0315462 -1.37328 -1.02262 0.161518 0.513886 -0.328121 -1.10612 -0.945714 -0.248992 -0.719094 0.591254 -0.279429 1.05318 0.0721472 0.694362 0.957367 1.57957 -2.18309 0.0358545 -1.34418 -1.75615 -0.654928 0.140769 -0.412513 0.28269 0.0652151 0.464523 -1.5709 0.909738 -0.880368 -0.88131 0.235819 -0.426446 -1.7715 1.07855 1.23044 -0.858419 0.91281 0.264907 0.504802 -0.0239051 1.22913 0.483087 0.0257799 -0.941746 -0.473026 1.19227 -0.676149 -1.44983 0.487025 0.24623 1.0999 -0.282052 -0.91223 0.167165 -0.517274 
-0.12165 0.167646 -0.253275 0.659379 -0.585234 0.539785 0.384922 -0.141751 1.70154 1.40401 -0.581833 -0.503043 -0.262803 0.0196396 0.069372 -0.0341182 -0.0708104 0.595373 -0.323739 1.25034 1.39612 -0.49253 -1.30707 -1.76811 0.319288 -0.711641 -0.546753 -0.302649 0.342694 -1.10377 -0.994314 -0.245034 -0.559006 -0.000487538 0.346764 1.32465 0.356931 0.959747 0.653295 -0.386315 -0.718859 0.563138 1.11645 0.164241 0.243518 -1.15863 -1.17019 0.792559 0.575075 0.358278 -1.3667 -0.150506 0.00250087 -1.50727 0.679215 -1.32119 1.32445 -0.599862 0.405515 0.884902 -0.0878456 -0.38795 -0.295274 -0.390491 -0.607625 -0.494015 -0.495511 -0.943754 -0.752141 -0.42617 0.593808 -0.416822 0.342686 -1.04542 -1.01296 -0.22809 0.0114451 -1.05523 0.666488 0.662075 -1.10776 1.07845 -0.408565 -0.0634966 -0.490464 -0.236817 0.186469 0.0116902 -0.802078 -0.53027 0.465029 1.22964 0.286548 1.42627 1.01277 -0.130954 -0.672946 -1.27744 -0.712771 -0.0181847 
-0.430733 1.09158 1.31058 1.19224 -0.15861 -0.46273 0.738916 -0.51173 1.01037 0.250293 0.428312 1.24272 0.516742 -1.16491 0.228028 0.430923 -0.726035 -1.03678 0.00759708 0.225319 -0.0139549 0.0509348 -0.861653 -0.0500914 -0.43808 0.460269 0.193957 0.552596 1.01104 -1.16454 -0.0412566 -0.444204 -1.12184 0.747314 1.0029 0.968822 -1.35707 -0.958281 0.6335 0.00926519 -0.669587 0.18624 0.96462 0.575222 0.321523 -1.0669 0.105239 0.606479 -0.897488 -0.446063 -1.09211 -1.19472 -0.1896 -1.42034 -1.16384 0.387108 0.356252 0.438468 0.380221 0.362372 -1.13918 -0.535156 1.35417 -1.1328 0.186675 0.631569 0.696223 -1.0562 0.662087 0.610642 -0.585773 -0.781619 0.648084 -0.429994 -1.02976 1.16225 -0.300274 -0.228468 0.372936 1.31798 -0.188265 0.530779 -0.793866 0.0321945 -0.829459 0.174187 -0.366854 0.29549 -0.994754 0.931464 0.0940203 0.549208 0.6331 -0.13503 0.386912 0.788705 -0.248007 -0.697548 -0.880686 0.179067 
-1.15457 -0.679718 0.840146 0.437958 0.95234 -0.164208 -0.871144 0.0106697 -0.876702 0.525092 0.379381 0.517321 0.884362 0.732514 -0.790466 0.376849 -0.54849 -0.287279 -0.757663 -0.0943697 0.572975 -1.40654 0.167319 -0.291752 -0.289844 -0.672324 -0.980967 -0.456516 0.060365 -0.164562 -1.21611 0.0231185 -0.207835 0.221871 2.10596 0.614843 -0.354089 -0.984862 -0.529294 -0.115594 0.30945 -0.331082 -1.03181 -0.170185 -0.215374 -1.05302 -0.78545 -0.610743 -0.0890932 -0.675151 -0.0942526 0.0928044 -0.198829 -0.602765 -0.1261 -1.13407 1.12479 0.868675 -0.632904 0.0514046 -0.727766 0.372693 1.35285 0.163763 -0.970079 0.552216 0.0431078 -0.543383 0.645351 0.520695 -0.326481 -0.488189 1.97643 -1.49067 0.838731 -0.424055 -1.72596 0.075356 0.493649 1.1571 -0.453283 -0.360261 -0.178787 0.251351 0.653158 0.211225 0.0680274 -0.0291514 -1.26281 0.803586 0.165522 0.190753 0.283696 -0.165406 -0.0427805 0.637872 -0.830096 0.368112 -1.1303 -0.791947 
-0.240685 -1.33875 -0.301835 0.305734 -0.087118 0.707862 0.150533 -0.387337 -0.529597 -0.997724 -0.0496245 0.98758 0.309329 -1.20755 0.159997 -1.03156 -0.509609 -0.8553 0.0830652 -0.914513 1.3119 -1.03205 0.477015 -0.528333 0.35767 1.02003 0.382648 -0.474364 -0.119675 0.898322 -1.63246 -1.35291 -1.06236 0.622302 0.38504 0.0252747 -0.746931 -0.703194 -0.928899 0.00577127 -0.983112 0.228705 -0.514257 -0.200875 0.741872 0.581725 0.0408641 1.16536 0.88244 -0.362951 -1.17709 0.497962 -0.3339 0.346355 -0.569894 -0.617685 0.456555 -1.00718 0.166453 -0.568622 0.750128 0.449131 -0.565417 0.446572 -0.3154 0.512815 -0.311243 -0.368711 0.330202 -0.252413 -0.48567 -0.0304136 -0.0867902 -0.296872 -0.755782 0.707727 -0.835836 -0.219705 0.943183 0.189809 0.350915 0.927923 -0.376937 -0.70967 0.487244 0.168038 0.269034 -0.737513 -0.0783985 1.57182 0.0130645 -0.138625 0.196003 0.0211357 -0.365803 1.0081 -0.751144 0.0951039 -0.198606 1.09214 
-0.976934 -0.302051 -0.470887 -0.192218 -0.725342 0.46064 -0.696433 -0.388422 -1.05337 0.62002 -0.652809 -0.760052 0.745077 -0.157177 -0.518354 -0.50908 0.811604 0.652997 -0.161204 -0.292088 0.721853 0.461717 0.89485 -0.137555 -0.43518 -0.556315 -0.487604 0.469326 0.0466038 0.297495 -0.312314 0.239205 -0.649394 -0.94879 1.08949 -0.332615 0.515935 -0.711387 -0.82379 0.460617 0.784303 -0.965953 0.66868 -0.00527844 -0.0472877 -0.65646 0.644794 0.177571 0.791158 -0.00429874 0.598064 0.536558 -0.712755 0.369905 -0.882033 0.186612 0.401149 -0.447214 -0.102323 -0.353406 1.05691 0.913079 -0.735224 -0.829446 0.950788 -0.828192 -0.00791677 -0.0158373 -0.665546 0.0422894 0.337574 0.755937 0.592561 -0.0668996 0.105189 -0.592259 0.115718 -0.54831 0.406502 0.328333 0.303415 0.127531 0.054005 0.879496 -0.268286 -0.371523 0.356573 -0.976254 0.486836 -0.532946 0.0566214 0.0647615 -0.812513 0.0635136 0.432706 0.861154 -0.145386 -0.461063 0.233809 0.784191 
0.495077 -0.802799 -0.036116 -0.0883703 0.307764 -1.02021 0.32629 -0.174936 -0.293084 -0.395673 -0.730827 -0.798493 0.703232 0.109496 -0.820768 -0.821199 0.951715 0.555755 -0.766946 0.319551 0.791372 -0.00317165 -0.550816 0.799318 0.932279 0.787656 0.742404 -0.0331545 -0.905946 -0.149097 -0.96733 0.555233 0.0930263 0.0352084 -0.456928 -0.563019 0.116984 0.889468 0.333664 0.825317 -0.51547 0.51756 -0.928323 -0.829904 -0.360375 -0.748513 -0.649486 -0.343659 0.825804 -0.363576 0.911598 0.624209 0.68554 -0.678971 0.412965 0.564939 -0.928986 0.142772 -0.451585 -0.812046 0.979094 -0.390729 0.771363 0.104832 0.682903 -0.64369 0.507422 -0.255823 -0.897327 -0.214168 -0.3288 -0.347766 -0.659496 -0.255031 -0.161721 -0.0387791 0.0046439 0.166769 0.5404 -0.149011 0.852369 0.474373 -0.478838 0.462543 0.812637 0.91659 0.0694596 0.907666 0.0468865 0.526422 -0.914952 -0.00865777 -0.776183 0.884872 -0.864965 0.869591 -0.802762 0.638363 -0.356832 -0.613105 
-0.580285 0.276601 0.00304631 -0.314534 -0.969255 0.769698 0.709734 0.118641 -0.00725951 0.272193 0.936503 -0.148368 -0.255426 -0.569514 -0.680323 -0.429322 -0.651361 0.361768 -0.536027 0.394085 0.00035621 -0.458126 -0.580392 0.223455 -0.597618 -0.482197 0.0836078 -0.421279 -0.853257 0.707155 -0.0803964 -0.449419 -0.0161437 0.925179 0.321609 0.0126947 0.752122 0.0153867 -0.929315 -0.21322 -0.712433 -1.0055 0.637594 0.0328605 -0.553596 0.956086 0.60057 -0.190331 0.350933 -0.922667 -0.820884 -0.666768 -0.290437 -0.397737 0.608698 0.0162211 0.130859 -0.335883 0.595892 0.263051 -0.617874 -0.481048 0.822261 0.422379 -0.543449 0.19227 -0.623765 -0.800916 -0.91136 -0.549303 -0.0164001 -0.569447 -0.538427 -0.377118 0.469697 -0.094529 -0.420466 0.0792621 0.674013 0.933467 0.170104 0.879067 -0.700838 0.767527 -0.584721 0.890297 -0.21647 0.605282 -0.43501 -0.670769 -0.151306 -0.0487816 -0.0861686 -0.305374 -0.690074 0.357487 0.839749 -0.311219 0.557664 0.954361 
0.138235 -0.457217 -0.608207 0.599816 0.166227 0.861504 -0.495237 0.745757 -0.0592356 -0.798283 0.677355 -0.902332 -0.915357 0.976525 0.874089 -0.430707 0.866822 -0.327794 -0.825424 -0.567985 0.0670118 0.042911 0.379349 0.980842 0.733285 0.690427 0.338697 0.551351 -0.622057 -0.104374 0.512497 0.516178 0.43841 0.904289 0.115994 -0.395363 0.765793 0.620757 -0.649606 -0.293442 0.822474 -0.97225 -0.195774 0.907117 -0.995725 -0.321685 -0.52359 0.871097 0.35052 -0.349014 -0.696888 -0.582468 0.693897 0.682461 -0.601626 0.427182 0.372888 0.737071 -0.0214668 0.75083 -0.367303 -0.50897 0.267008 -0.928893 -0.604681 -0.616998 -0.324256 -0.838888 -0.996241 0.026138 -0.13233 0.826234 0.0538877 0.671896 0.73335 0.0581626 -0.649789 -0.790239 -0.0707405 0.700731 -0.139253 0.232372 -0.881737 -0.445357 -0.0851671 -0.483362 0.981825 -0.71228 -0.746291 -0.0396413 -0.961449 -0.113594 0.451389 0.305559 -0.0424877 0.846708 0.688562 0.633256 -0.99218 0.692321 
-0.332125 -0.131671 0.512745 0.719892 -0.447712 0.235698 -0.224571 -0.0633202 0.474793 0.676687 -0.403864 -0.670377 -0.0630415 -0.280869 -0.122128 0.841884 0.213506 -0.13179 -0.878769 0.496183 0.821813 -0.823889 -0.63759 0.243421 0.465672 0.320319 0.113883 0.16233 -0.0415822 0.127559 -0.15077 0.619126 -0.996602 -0.617165 0.339741 -0.434254 0.62942 -0.896794 0.455717 0.0991101 0.807546 -0.953511 0.417564 -0.253107 -0.246818 -0.716817 -0.393403 0.978256 0.144986 -0.275454 0.477002 -0.0402261 -0.122388 0.841999 -0.765076 -0.608603 0.190204 0.375002 0.553461 -0.848133 -0.527539 -0.590844 0.787765 -0.522499 -0.212498 0.125027 0.0329157 -0.59304 0.173187 -0.512131 0.492226 0.018254 -0.473249 -0.0756806 0.769245 0.287675 0.231387 -0.642519 0.287979 -0.618313 0.0862469 -0.240785 0.341987 0.991704 -0.385019 0.585537 -0.584699 0.791119 -0.059016 0.924167 0.942075 0.43455 -0.675184 0.715788 0.90008 0.11354 -0.186145 -0.0756737 0.539446 -0.979107 
0.501541 -0.085825 0.0129426 1.03284 0.784315 -0.378475 0.268102 0.318761 0.0316947 -0.868399 0.441303 -0.639735 0.366116 -0.0450297 -0.801318 0.737762 -0.770834 -0.130502 0.379737 0.39752 -0.370984 0.655895 -0.327843 -0.354718 0.0993623 -0.326743 1.02784 -1.12071 0.699968 0.70753 -0.841821 0.0906369 -0.56612 0.38498 0.107419 -0.383687 -0.984388 -0.937883 0.817869 0.303943 -0.449171 0.325583 0.645145 -1.04483 -0.833587 0.764778 1.21499 -0.555929 -0.33605 0.503671 -0.744525 -0.210629 -0.203333 -0.442103 1.03069 -0.368658 0.624074 0.996468 -0.253786 0.212179 0.140063 -0.18604 -0.503977 0.775077 -0.906036 0.415151 -0.649031 -0.923877 0.252308 -0.855079 0.256356 -0.689326 0.455908 0.0462654 -0.548623 0.495209 0.0391561 -0.815285 1.0857 0.595289 0.874421 1.11782 -0.573024 -0.0364984 -0.0879034 -0.845867 0.928105 -0.555241 -0.949499 -1.02499 0.56735 0.516319 -0.189686 -1.07787 0.214955 0.156658 0.303441 0.511685 0.18793 0.0169889 
0.831689 -0.68778 0.414978 0.115399 0.338714 0.889433 -0.480646 -0.649689 -1.1647 -1.32812 0.435221 -0.941479 -0.436148 -0.594302 -0.0493909 -0.508133 -0.887237 0.243434 -0.170238 -0.524034 -0.100959 -0.116994 -1.00615 0.168451 -0.451693 0.334836 -0.412524 -1.15488 0.30767 0.900804 0.349325 -0.228647 0.892723 0.39404 0.733833 0.911868 -0.00499207 0.366615 -0.456604 -0.0111717 -1.68409 1.31854 0.60467 -0.731901 -0.632817 -0.508379 0.980236 -0.467649 0.103968 -0.5568 1.08618 -0.0985925 0.168292 -0.0327402 -0.0171518 -0.021851 0.172823 0.203305 0.394858 1.01668 -1.15837 0.163681 -0.0700334 -1.06268 0.761812 -0.960657 1.19629 -0.0822669 -1.26267 1.01974 -1.32382 -0.994361 1.51983 0.466363 -0.452766 -0.500408 1.13177 0.12906 0.0170583 0.0819996 -0.0758233 -0.180807 0.790628 -0.856128 -0.629567 -1.06642 1.16196 0.334301 0.216486 -0.845832 -0.266406 0.986354 -0.283119 0.179734 1.01908 1.04258 0.828502 0.415193 -0.861982 -0.764231 
0.810095 -1.23839 -0.796277 1.33674 0.215607 0.225201 0.692627 0.331163 -0.816485 -0.910117 -0.167133 0.31307 0.463909 0.58941 0.38353 -0.672259 0.383854 0.99604 -1.18463 -0.148763 1.15525 -0.171693 -0.469506 0.00343499 -0.592363 -0.222948 -0.30132 -1.01572 -0.211142 -0.177817 -0.779606 -0.558357 -0.287272 0.56837 0.762077 0.32386 -1.15986 -0.0566021 1.1669 -0.734042 -2.14726 0.777919 -0.290112 0.719232 -0.309431 -0.462283 0.704298 -0.588454 0.488247 -0.564734 1.11556 -0.464574 -1.52529 -1.42993 1.35001 0.153824 0.165288 -0.398728 -0.870623 0.683098 -1.2775 0.348612 0.90324 -0.266347 -0.833254 0.102523 1.04499 -0.917639 -0.471575 -0.179901 -0.698622 0.155207 -0.206246 0.397884 0.214248 0.1281 1.64113 -0.345388 0.151856 0.449753 -0.291175 0.438214 0.707917 -0.337365 0.815836 0.638279 0.281435 -0.250289 0.876399 -0.802073 0.651112 -0.319144 -0.752125 -0.401756 0.54271 1.14772 0.0543409 -0.502033 0.637147 1.44187 
0.620525 -1.24878 0.512696 2.29742 0.50797 -0.404257 -0.285116 1.08523 -0.125197 -1.3874 -1.1382 -0.423894 0.352105 0.30762 0.0480322 -1.54467 -0.454685 0.434558 -0.687 -1.02716 0.600141 -0.490895 -0.818405 1.51402 -1.12677 -0.717615 0.976197 -0.570032 0.633745 -0.116445 -0.50384 0.00300267 0.35426 -0.0651123 -0.186611 1.54379 -0.829735 -0.292603 0.4263 -1.13268 -1.34051 1.4317 0.753747 0.0971788 -0.697358 0.0676769 1.02163 0.352526 -0.0920047 -0.55645 1.29984 -0.0646306 -1.3007 -1.8649 1.08099 -0.87284 0.205017 0.446823 1.22995 1.33268 -0.062956 -0.0284927 0.260891 -0.32293 1.04122 0.353683 -0.171421 -1.13684 -1.0005 -0.257723 -1.42079 -1.04932 0.283085 0.309753 -0.018284 0.696644 0.864148 -0.138554 -0.547418 0.54124 -0.362404 -0.02208 0.106709 -0.0107309 0.735216 0.703198 -0.147021 0.97367 -0.740329 -0.802162 0.569188 0.989958 -0.945503 -1.56989 0.200667 0.562031 0.759848 -0.087663 0.0102714 -0.0792008 
-0.946978 -0.61132 -0.0989454 1.28655 0.0523089 0.369322 -0.207665 0.45835 -1.43292 -0.192496 -0.175908 1.65584 0.747978 0.889927 -0.253612 -1.20568 -0.330673 0.499141 -1.33165 -0.618983 0.256513 -0.884631 -1.51077 0.98776 -0.90109 0.771431 1.65824 -1.61433 0.443909 -0.475212 -1.20114 0.191447 -0.715848 0.512759 1.3821 1.67477 0.0815803 -1.74908 -0.139037 -0.959439 -1.605 -0.182354 0.0631007 0.016404 0.162853 1.4173 0.77393 -0.799209 -1.64184 -1.08147 0.606597 -2.10834 -0.669951 -1.27964 1.37678 0.124275 1.11751 0.7485 1.15642 -0.425569 -1.21721 -1.36483 1.29349 -0.951007 0.505486 0.488194 1.13467 -0.53796 -0.511901 -0.83427 -1.30882 -1.28225 -0.0148099 -0.474437 -0.330297 -0.167316 1.1329 -0.207121 -0.263502 -0.377735 -0.774939 1.33548 -0.0898899 -1.62728 1.33918 0.884002 0.907058 -0.540862 -0.904133 0.230243 -0.38963 -0.239745 -0.517943 -1.36038 0.40726 -0.282194 -0.367328 -0.558722 -0.138421 1.34372 
-0.187878 -0.158322 1.08373 1.89361 0.0778585 -0.4325 -0.174811 0.166332 0.287505 -0.000672725 -0.397922 0.812498 -0.555793 -0.362605 -0.62973 -1.95809 -0.0768907 0.769307 -0.376559 -0.144452 -0.00746948 -0.878693 -1.09195 2.21011 -1.01166 -0.249168 -0.154129 -0.688605 1.09458 -0.400727 -0.586283 -0.613946 -0.59234 -0.0562364 1.87056 1.60286 -0.877951 -1.65261 -0.219604 -0.235678 -1.11326 1.33363 0.915464 1.35274 -1.53397 0.0663155 1.23537 -0.266538 -0.293199 -1.43106 -0.599043 -0.802766 -1.09862 -1.64923 2.03879 -0.569476 0.618147 0.099744 -0.655711 0.44612 -0.68228 -1.07293 2.10893 -0.643931 0.663643 1.66142 -0.059717 1.60276 0.73224 -0.250339 -1.84748 0.450813 -0.0651756 -1.56219 0.307649 1.06832 0.139701 -0.898713 0.268017 1.03161 0.334756 0.644003 -0.137341 -0.667887 0.637763 0.569696 0.566868 -0.390172 -1.16099 0.33204 -0.740997 0.365761 -0.756118 -0.671468 -0.2 0.528655 0.236889 -0.628298 0.829332 0.969241 
-0.864843 -1.12116 -0.419899 2.32834 -0.34551 1.26841 0.767198 -0.246795 -1.17024 -0.474018 0.0228014 1.4246 -0.887214 0.0278402 -1.18697 -0.536585 -0.114091 -0.171272 -0.527625 0.574325 -0.578082 0.248112 -2.22369 1.0718 0.496742 -0.229085 0.158537 -0.186061 1.03693 -1.10998 -0.588148 0.46996 -0.637806 0.631053 1.06101 2.2779 -0.698824 -1.17817 -0.422376 -0.147121 -0.752308 0.940353 -0.423735 1.07118 -1.14656 0.848392 -0.493157 0.40204 0.924905 -0.561903 -0.289524 0.0643949 -0.331095 -3.02576 2.05258 -1.41835 0.992273 0.278643 -0.457445 0.292276 -0.791712 -0.671341 1.36893 -0.490772 -0.493727 2.53522 0.933816 1.08256 0.70401 -0.605111 -0.404807 1.16034 -0.209032 -0.909696 0.836061 -0.938707 0.0744593 0.152676 1.27676 0.706266 0.809211 1.03343 -0.670077 0.115294 1.67893 1.08872 0.0959668 0.114766 0.463745 -0.992424 0.438579 -0.451986 0.322749 -0.747923 0.70633 0.390962 -1.25733 -1.50493 0.303635 -0.083946 
0.562954 -0.155436 -0.622961 1.54089 -0.713088 1.52668 0.375462 -0.874456 -0.783935 0.813385 0.849935 0.497176 -1.49464 0.681111 0.00934074 0.405623 -1.0873 0.610276 1.14682 0.0169798 0.242794 0.427967 -1.99424 0.456066 0.719631 -0.340964 0.687825 -1.46045 -0.53266 -1.35993 -0.688474 0.440956 -0.195763 0.056368 1.03888 1.68781 -0.507409 -1.27419 0.0100194 0.162533 0.796328 -0.336586 0.475654 1.69129 -1.60082 0.909308 -0.564093 -0.389454 0.438028 -0.655658 0.200562 -1.49001 0.752204 -1.77765 3.57625 -1.83634 1.29326 -0.364061 0.704413 0.847693 0.155805 -1.22002 0.992774 -0.958129 0.379067 2.32278 1.01954 0.172794 3.16646 -1.43834 -0.254403 1.18126 0.0455762 -0.10597 1.38222 0.610968 -1.57184 -0.363597 -1.03241 1.04085 0.0199955 0.744524 -1.46723 1.15315 2.34417 -0.401878 -1.71469 -1.56256 0.692227 1.03423 -0.715133 0.824312 -0.703191 -0.406932 0.77938 -0.826362 0.0361863 -1.01931 0.0782957 0.248678 
-0.435699 -0.818481 0.0103997 0.763592 -1.14631 0.705486 -0.87699 -0.68361 -1.18229 0.999542 0.535527 1.9036 -2.10543 0.650641 -0.618893 0.854518 -1.05073 0.527832 1.05927 0.0515559 -0.44141 -0.0920527 -1.05017 0.720893 -0.594494 0.70286 -0.290608 -1.82745 0.993661 0.0985402 -0.832509 -0.60414 -0.0402276 -0.773274 0.717674 2.02785 0.561723 0.161049 0.513056 1.16042 0.748074 -0.910717 -0.506769 1.32489 -1.37256 0.262681 -1.98854 0.0666393 1.16235 -1.39403 -0.538421 -1.71707 1.9828 -1.54765 2.72961 -0.877888 1.31911 0.295039 0.885989 0.571877 -0.420348 0.561481 2.05933 0.462449 -0.962213 1.85058 -0.583311 0.540967 2.46416 -1.14526 0.0522736 1.15549 0.54153 -1.22331 0.66662 0.527761 -2.31367 -0.0337404 -1.36656 -0.324101 0.734099 1.78154 -0.0262547 1.1696 2.96003 -0.0615794 -1.13154 -0.0605453 -0.0557491 0.587945 -2.17933 1.39537 -0.328873 -0.781027 0.986553 0.0384912 0.444844 -0.471719 0.128053 -0.61501 
-0.0942967 0.442398 -0.822884 0.477555 -0.121309 0.24417 -0.981134 -2.4622 -1.16038 1.45933 0.338927 2.35232 -0.395836 0.48976 0.0472352 1.28967 -1.73431 -0.214754 -0.332734 0.0647217 -1.15948 0.235947 -0.558444 1.24629 0.632475 0.458138 0.965814 -1.08409 1.06694 -0.132115 -0.884834 0.190137 -1.00361 0.39317 1.64909 2.17499 0.226028 -0.970543 -1.30187 1.16832 2.17653 -1.97404 -0.55537 0.624927 -1.38918 1.0787 -0.466545 -1.12873 -0.75675 -0.915106 1.13007 -2.47001 2.89179 0.21871 1.58771 -1.0494 1.4424 -0.964407 -1.97736 0.728488 0.157512 1.40353 1.00691 -0.173789 0.985048 1.73 -0.566912 -1.04911 3.15947 -0.018535 0.542613 0.287257 0.320699 -0.562298 1.55305 1.10712 -3.23215 0.360656 -0.757979 -0.865303 1.75009 1.26969 0.0432101 -0.404699 3.26953 -0.339768 -1.90765 0.373117 -0.385388 0.463638 -1.35135 2.05117 0.35 0.35633 1.09997 -0.667033 -0.695274 0.65964 0.291838 0.0950152 
-0.361418 -0.310062 0.980533 0.869194 -1.38669 0.759936 -0.0435453 -2.00094 -1.20949 1.43245 1.11418 0.304033 0.95421 -1.37392 -0.971104 2.04165 -1.55104 -0.637495 0.710669 0.0532227 -1.32025 0.703552 -1.55036 1.61173 -0.411819 1.17048 0.567878 -1.69432 -0.163884 0.560901 -0.504375 0.363811 -1.01743 -0.126683 1.56541 -1.24017 -0.00293718 0.0331041 -0.621146 1.2084 2.62661 -0.588228 -0.236656 0.461445 0.583991 0.345859 -0.396665 1.14133 -0.387786 0.237427 1.17887 -1.84605 1.77722 1.90362 0.87817 -0.0236775 0.179535 -0.814018 -0.997737 -0.574516 1.49937 0.58058 1.33467 0.690927 -0.321969 1.68242 -2.37612 -0.201267 2.80216 -0.336519 -0.939616 0.655867 -1.36825 -1.46914 0.647038 1.97169 -2.25867 -0.381857 -0.495548 -1.18271 0.507761 0.775082 0.522287 0.130026 2.01843 0.983303 -4.30312 0.216897 -1.84698 -1.20602 -1.66658 2.23798 1.394 0.441413 1.46282 -2.17548 -0.151568 1.44942 -0.390991 0.672185 
0.804764 -0.849169 0.728422 -1.15596 -0.789804 -0.491305 -0.859251 -0.00672379 -0.296612 2.84571 0.385777 1.28342 -1.00794 -1.71822 -1.15517 0.324595 0.16536 -1.29712 0.494733 1.02241 -0.834243 0.190126 0.0388744 1.95695 -1.02531 1.39855 -0.723977 -1.50921 0.455215 2.10308 -1.12049 -0.762899 -0.538875 0.121472 0.923948 -2.07705 0.179063 0.470897 -0.181143 1.55788 1.72169 -0.337316 -0.135908 -1.12636 0.34331 0.641363 -0.451008 0.207222 -1.67621 -0.51108 0.516089 -1.86787 0.502984 0.650431 0.377051 0.100057 -1.33026 0.103516 -2.91008 0.878931 1.22795 -0.414184 1.09987 0.57253 -1.21081 0.976929 -3.01619 -2.31854 1.85621 0.0622405 -0.371481 -0.790184 -1.28857 -0.277324 0.337271 2.49723 -0.565145 -0.539248 -0.879561 -0.759306 1.66088 0.936872 -0.372104 0.955627 2.95108 1.77961 -5.4894 1.42214 -2.17377 -0.859813 -2.05923 -0.24744 2.05174 0.176719 -0.760645 -0.21769 1.13021 1.23835 -0.431377 -0.493685 
1.34947 0.320469 0.716528 -0.750658 -0.988708 -1.13992 -0.139297 -0.940672 -0.654427 2.92844 1.14565 0.0324862 -1.19081 -0.576291 -1.81571 2.36518 0.722021 0.0434351 0.453933 0.998995 -0.381153 -0.35985 0.657065 0.801298 -0.475081 0.890441 -0.718612 -1.64683 -0.286106 1.19626 -0.239255 1.14598 1.01684 1.02294 1.29772 -3.28323 -2.54231 -0.566182 -0.103348 1.49417 1.91769 -0.619183 -0.600015 -0.406695 0.622567 0.321707 0.211855 0.532459 -1.20056 -0.5845 0.0721695 -2.69065 1.96818 0.72446 -0.518578 1.01268 0.186098 0.0814499 -2.86069 -0.0593036 1.58795 0.464582 -0.193761 0.818922 0.24366 1.74509 -2.24549 -2.59105 1.52853 -1.31223 -1.33799 -0.110854 -0.279167 -0.157309 -0.39838 1.42777 -0.855914 -0.843269 0.17416 -0.805174 -0.383541 1.56792 1.10266 1.49831 1.18021 0.477934 -4.491 1.29136 -1.61677 -0.0127394 -1.11246 -0.0351143 1.93191 -0.590951 -1.74169 0.419472 0.382389 0.161142 -1.98787 -1.28872 
1.86649 -0.955206 0.761993 -0.528205 0.433762 -1.2672 -0.595247 0.00599757 0.282714 3.2024 1.2553 -0.229734 -1.10981 -0.869277 -0.679635 0.670848 1.49253 -1.01427 -0.0667652 -0.506642 -1.11007 -0.480629 -0.450468 0.766468 -0.879223 -0.613527 0.892938 -1.47858 0.835445 2.85076 -0.00575992 0.104181 -0.930293 -0.25414 0.756934 -2.37585 -2.23206 0.700036 -0.726666 0.278619 1.10518 0.0470788 -0.772561 -1.56318 -0.0308709 -0.252306 -1.11288 0.462828 -2.25944 -1.16606 0.141107 -1.97891 0.941032 0.366549 -0.753528 -0.253592 -1.29976 -0.989011 -2.63534 -0.843403 1.5628 -0.138435 -0.119518 0.789812 -1.39768 -0.74788 -3.36376 -2.17623 0.907495 -1.93449 -0.49469 -1.279 0.297098 0.933718 -1.12066 2.85011 -0.459575 -0.605545 -0.509174 -1.29107 -0.738062 1.18125 -0.150242 1.62053 1.87127 1.3778 -2.77114 2.14986 -0.899242 -2.00753 -0.803706 -0.414314 -0.0828637 0.3519 -3.07939 0.822181 1.38577 -0.897446 -0.828387 -1.25432 
1.29726 -0.671737 0.434417 -0.837605 0.883668 0.31449 0.143374 1.39867 0.360145 3.21568 0.547864 -1.45239 -1.934 -1.0012 -0.857143 2.23894 1.28751 1.4529 -0.0169981 -0.625956 -0.929095 0.361011 -1.58434 0.777991 -0.628116 -0.576352 0.654956 -1.28991 -0.544923 1.28955 -0.825917 1.31432 -0.39244 0.705443 0.88266 -3.11614 -1.93946 0.32695 -1.54764 -0.15074 0.231175 0.693378 0.369317 -0.185463 -0.68263 0.731208 -0.903746 0.986343 -0.748205 -0.987958 -1.77956 -2.10163 -0.719343 1.28394 -0.393544 0.165527 -1.33471 -0.897541 -2.58402 0.668017 3.02497 -1.368 -0.544747 0.65343 -1.23437 -1.37327 -1.89859 -0.412614 1.02093 -0.739958 0.243127 -0.291982 -0.291639 0.299154 -0.96588 1.53431 -0.312323 -1.38719 1.76599 -0.347722 -0.626834 0.143235 -0.461864 2.24807 1.34458 1.99027 -2.46537 2.02031 -1.97151 -0.843621 -0.444231 0.633001 -0.278744 1.56949 -1.76519 0.643856 0.00920736 -0.474316 -0.515199 -0.452548 
0.797796 0.346256 -0.283642 -0.807949 0.993956 -0.880987 0.168255 0.470838 0.0564893 3.22982 -0.0570796 -1.22554 -3.59205 -0.542077 0.538081 3.34862 1.01459 1.47232 0.902868 0.144747 0.591946 -0.628214 -1.79054 0.363372 0.90577 -1.43724 -1.5061 -1.69466 -0.846876 0.745932 -0.848193 1.18218 0.186755 -1.374 -0.559127 -2.15167 -2.88134 -0.582003 -2.1545 0.060764 0.980387 1.85585 -0.132366 0.396044 0.699253 -0.212847 -0.104274 0.225515 -0.956152 -0.759994 -2.12965 -0.392941 -2.04545 -0.70185 -0.102453 -0.461327 -0.871132 -0.81898 -1.25914 1.51636 2.02481 -3.07684 -0.413386 0.087158 -2.02144 -0.149387 -2.50666 0.274516 0.0758398 -2.46579 -0.584462 -0.256779 1.98117 -0.221545 -1.70471 2.44257 0.14638 -0.171282 1.29479 -0.1539 -0.0255584 1.68883 -0.976217 2.65645 -0.28017 0.390592 -0.288901 2.2438 0.0772001 -1.60266 1.16711 0.809158 -1.11761 0.00063111 -2.91294 1.55198 -0.811459 -1.16651 0.790468 -1.38769 
-0.455387 0.222115 -1.98923 -0.289506 0.822358 0.360274 -1.05375 -0.27032 0.336131 2.36316 -0.337443 -2.56923 -1.98736 0.669404 -0.525862 1.29843 0.385501 1.71622 -0.160546 -0.290847 0.176496 -0.482345 -1.37975 -0.51758 1.29232 -1.04125 -0.903246 -1.95936 -0.566728 0.416538 -1.84335 0.743969 -0.871132 -1.25668 0.570767 -2.45608 -3.42018 -1.0298 -1.43571 -1.07281 0.153909 1.28959 0.717614 -0.553235 -0.287285 -1.58593 -0.595012 -0.234853 0.0869639 -0.484195 -3.13372 -0.785399 -0.751911 -0.621832 -1.09501 -0.931015 -0.514135 -0.435759 0.913223 0.493885 1.12959 -1.92236 -0.408787 1.94933 -2.47002 -0.953035 -1.62132 -0.0683906 0.642035 -1.81215 0.429026 -2.06672 1.10787 -0.745688 -3.11587 1.76777 0.824833 -0.332721 2.47039 0.56049 -0.425245 0.0357023 -1.44666 0.0514007 -0.410287 1.24771 0.850451 3.86766 0.136662 -0.462595 2.27451 0.378573 -1.2824 0.958372 -1.13405 1.70687 -1.42507 -0.0886783 -0.0325386 -0.509854 
-0.252734 0.469024 -0.279501 0.607831 0.330623 1.2187 -0.532097 0.483611 1.3961 1.69465 1.53643 -2.38202 -1.00812 -1.13473 0.596569 0.975298 -0.393118 0.430631 -0.508851 -1.33495 1.2651 -1.24619 -2.04057 -2.35603 0.56311 -1.90682 -0.62659 0.727178 0.711586 -0.546246 -1.4676 -0.738118 -2.09174 -1.65144 0.401132 -0.226536 -2.88582 -0.654181 -1.91307 -0.75127 -0.836702 0.0465127 -0.663899 1.13049 -0.139656 0.127351 -1.48645 -1.33755 -0.907872 -0.288381 -3.06739 -0.660611 -1.57037 -2.42589 -1.63724 -0.122604 -1.08263 0.122734 1.67832 -0.100933 1.20604 -3.8451 -1.13214 -0.230533 -1.76626 -1.41598 -1.12729 -0.0263012 0.0854556 -1.47308 -0.414376 -1.17926 2.79075 -1.17155 -1.69889 0.508371 1.16293 -2.67345 1.16822 1.71521 -0.664778 0.762123 -0.0966277 0.419895 -0.465765 1.39143 1.08158 3.71834 -0.0264152 -0.062523 2.29368 -0.589701 -1.16605 0.518412 -0.52549 1.95735 -1.21697 -2.0486 0.0563978 0.0220179 
-0.129034 2.36142 0.4214 0.00557445 -0.33654 0.19091 0.0673457 0.0805208 1.11938 2.47336 1.35423 -1.56931 0.923048 -1.34538 -0.493204 0.488519 -0.925785 1.64173 -1.69676 0.396133 0.419569 0.178837 -0.790197 -1.56196 1.15129 -1.5851 -0.425454 -0.111842 1.09819 -0.526173 -0.91511 -0.649086 -1.81652 -1.08471 -0.832115 1.60099 -1.30442 -0.059311 0.0125859 -0.255839 -1.34616 0.786915 0.397644 -0.176423 -0.177236 -1.22872 -1.28207 -0.83658 0.663199 0.279251 -2.47606 -0.0998283 -0.436708 -2.86405 -1.29752 -1.58175 0.296797 0.706974 1.16954 0.11465 -1.44094 -3.35894 0.924922 -0.235552 -0.26631 -0.349496 -0.719142 -0.146811 0.560962 -0.89688 -0.350056 -2.37246 1.95155 -2.18171 -0.756596 0.492104 0.796057 -2.67181 1.54383 1.25308 -1.20253 -0.829646 0.803389 -2.02884 -0.377172 1.23234 0.615184 1.50364 0.0207704 0.315241 1.28852 -0.683737 -0.667931 1.3702 0.91743 0.128882 0.0304956 -0.558491 -0.819009 0.0114184 
-0.050927 1.72543 2.22088 -0.729788 0.857037 0.780872 -0.775423 -0.0654839 2.18985 -0.13887 0.0576791 -0.0857788 0.897887 -1.00341 0.508291 -0.479657 0.0273244 0.293309 -1.4785 -0.838487 0.607047 -1.64534 -0.592821 -1.59018 0.383208 -2.60551 0.265646 0.948333 0.472956 -0.693279 -2.38034 -1.36497 -1.44276 -0.0352852 0.528837 1.15437 -0.988712 0.648166 -0.668441 0.419376 -3.27817 0.22962 0.194402 0.380398 -0.419046 -0.698564 -1.48591 1.28011 0.00942246 -1.72747 -0.296617 0.210904 -0.370102 -3.1852 -1.10252 0.142902 0.83375 0.146517 1.21937 1.70327 -0.996645 -1.86544 0.08985 -0.0183917 0.00328299 0.732523 0.0332885 -0.547187 -0.513426 1.05981 0.225394 -1.82103 1.98427 -2.65201 -0.101419 0.794383 0.773628 -2.83052 0.27843 1.78927 -1.21975 -0.433511 0.52061 -0.899082 -0.708946 0.86593 -0.365776 1.81517 1.11173 1.73473 0.789604 -0.624344 -0.123452 -0.380698 -0.368646 1.35641 0.930524 0.569785 -1.37729 -0.569278 
