Network weights:
4
784 100
-0.651479 0.0485624 0.726478 -0.955301 -0.0383384 -0.863461 -0.36569 0.197838 -0.293648 -0.973562 0.461906 -0.404097 -0.0745474 0.884262 -0.951031 -0.164966 0.364366 0.511603 0.636041 0.135421 -0.10006 -0.291974 0.486738 -0.245246 0.999942 -0.266696 -0.00205233 -0.260462 0.16577 -0.669058 -0.405389 0.514291 0.379505 -0.678911 0.55899 -0.658834 -0.542372 -0.8067 0.539004 0.16398 -0.780262 0.000909994 0.759883 0.14519 -0.114828 0.808852 0.980224 -0.750462 0.320455 0.616265 0.384959 -0.779605 -0.675709 -0.128303 -0.0248513 -0.675767 0.605 0.973096 0.0637717 -0.229229 -0.695961 0.658383 -0.714938 0.683544 0.979472 0.844052 -0.97529 -0.5629 -0.962648 0.563714 0.601079 -0.74291 -0.435376 0.360962 0.40228 0.449796 0.169814 0.382504 0.699334 -0.50973 -0.00123053 0.0842927 -0.289335 0.32306 0.955989 0.685813 0.647293 0.56099 0.65891 -0.288935 -0.668239 0.962949 -0.630552 -0.383177 0.646492 -0.65108 -0.539125 0.671202 -0.213981 -0.501773 
0.234916 -0.612902 -0.244683 0.79954 0.74806 -0.842403 0.249336 -0.0821253 0.540101 -0.0513299 0.408144 -0.461129 -0.967037 -0.881191 0.861931 0.988952 0.804623 0.509224 0.549942 0.463532 -0.77971 0.881702 0.426481 -0.410262 -0.501475 0.0729733 -0.0613427 -0.0406001 -0.255824 0.724677 0.457627 0.979092 -0.888225 -0.787056 0.778632 0.859835 -0.62946 0.0279686 -0.22229 0.910642 0.976639 -0.814146 -0.550488 -0.990399 -0.695336 -0.688557 0.998554 -0.890714 0.820667 0.548495 0.572819 -0.959043 0.430198 -0.000700374 -0.369305 0.928723 -0.927727 0.569352 -0.111877 -0.183551 0.294028 -0.65425 -0.204459 0.405803 -0.441307 -0.425827 0.265639 -0.0707663 0.602142 -0.956651 -0.160125 0.57878 -0.770797 0.289387 0.588382 -0.466133 0.60083 0.586935 -0.356847 0.421498 0.135431 -0.784028 0.462455 -0.434372 0.215271 -0.906851 -0.505649 0.287544 0.662501 0.382474 -0.896007 -0.0434704 0.728224 -0.100467 -0.637667 -0.713083 0.473706 0.627972 0.216151 0.075848 
0.671321 -0.943974 -0.345372 0.900524 0.345413 -0.75699 -0.565609 -0.0537562 0.829945 0.0775444 -0.632258 -0.0346243 0.293516 0.830197 0.531004 -0.491213 0.923346 -0.974644 0.796332 0.585847 0.40783 0.900325 -0.457623 0.136054 -0.200142 -0.0952903 0.422971 -0.726436 -0.467318 -0.360878 0.349412 -0.795998 -0.304852 -0.995959 -0.895473 -0.959438 -0.752949 -0.461082 -0.0131945 -0.923004 0.616462 0.354547 0.0423714 -0.0900214 0.184744 -0.426624 0.418766 0.10809 -0.401269 0.215098 -0.306063 -0.993439 0.115422 0.236314 0.142615 0.91528 -0.858977 -0.434414 -0.811155 -0.326295 0.204708 0.538257 -0.122293 0.899856 0.542298 -0.017766 0.940418 0.789348 0.521152 -0.072777 0.866344 0.137615 -0.71823 -0.0912844 -0.952407 0.466514 0.482091 0.466359 -0.425396 -0.919178 -0.318543 0.26854 -0.912617 0.796879 -0.495146 0.229998 0.71216 -0.354123 0.795584 0.901004 0.319582 0.000291781 0.439262 -0.802711 -0.0998523 -0.0184405 0.179523 -0.159435 -0.229092 -0.299325 
0.767789 -0.362748 0.83829 -0.950443 0.545971 0.885852 0.516072 0.028059 0.352215 -0.909324 0.108881 -0.966333 0.359195 0.196265 0.830578 0.864064 -0.573737 0.542738 -0.490131 -0.778133 0.443742 0.829494 0.222138 -0.116969 -0.973181 -0.877714 0.864564 0.2063 -0.0370855 -0.364529 0.907002 -0.269331 0.272675 0.745307 -0.219802 -0.181285 0.63119 -0.703726 0.84675 -0.0165678 -0.613053 -0.0443767 0.0171314 0.746164 -0.848094 -0.152291 0.610241 -0.42184 -0.60955 -0.879991 -0.199993 0.834195 0.949703 -0.977854 -0.282746 0.97654 -0.855567 -0.418283 0.182892 0.107284 0.217188 0.0900022 0.837925 -0.510047 -0.164832 -0.381881 0.308637 -0.533613 -0.0856055 0.15532 0.449818 0.301342 -0.888973 -0.533041 0.0475333 -0.73706 0.3147 -0.342259 -0.158917 0.705109 -0.22208 0.641091 0.539208 -0.272385 0.663261 -0.743512 -0.29584 0.807756 -0.161813 0.886965 -0.0849941 -0.944515 -0.0230576 -0.247128 -0.454567 0.812064 0.37101 0.854075 -0.7215 -0.714585 
0.00955314 0.728276 0.589384 0.117276 -0.804426 -0.37524 0.380734 0.502714 0.282553 -0.734565 0.215134 -0.936382 0.873574 -0.225753 -0.193818 0.523471 0.0183222 0.501453 0.322943 0.857477 0.388709 -0.749339 0.900662 -0.620637 0.00431547 -0.544456 -0.81607 -0.62255 -0.688849 -0.543564 -0.323317 0.313599 -0.770305 -0.75019 -0.567045 -0.633777 -0.120026 0.818099 0.868902 -0.823878 -0.957638 0.103907 -0.755956 0.905984 0.869353 0.0447478 0.433695 -0.130063 -0.456459 -0.241426 -0.275557 0.93242 0.0350331 -0.376217 -0.6923 -0.96551 0.0902897 -0.538412 -0.600544 0.377384 -0.0717753 0.0763888 -0.294693 0.112256 0.309464 0.127128 0.494088 -0.815713 -0.0523102 0.387988 -0.638118 -0.0150313 -0.509927 -0.387454 -0.148703 -0.649509 0.651244 -0.671454 0.21402 -0.820788 0.100838 0.937808 -0.877768 -0.876364 -0.458909 -0.581425 -0.85024 0.644549 -0.100956 -0.448709 0.0127067 0.822644 0.637075 0.702116 -0.0512662 -0.0725416 -0.155178 -0.558157 0.132568 0.782017 
0.83066 0.48463 -0.23687 -0.754442 -0.896518 0.581958 -0.349922 0.730287 0.951289 0.941341 0.960927 -0.0049261 0.902966 -0.890565 0.252394 -0.651046 -0.55858 0.357143 -1.03368 0.410524 0.913129 -0.00424836 0.159427 0.645552 -0.261562 -0.822949 -0.50704 0.5657 -0.349387 0.603529 0.358449 -0.541388 0.128252 -0.874313 -0.216586 0.1647 0.727814 0.421732 -0.046901 0.730064 0.316514 -0.0774712 -0.203001 0.101331 0.00130827 -0.978973 0.508004 0.504052 0.357166 0.546589 -0.0723109 0.297441 -0.417517 -0.860405 -0.190897 0.318136 -0.673991 0.151329 -0.135224 -0.0750994 -0.157627 -0.720869 0.431246 0.95882 -0.682595 -0.840106 0.25858 -1.00306 0.615797 -0.832365 0.751248 -0.106989 0.0814044 -0.413878 -0.967313 -0.91392 -0.478357 0.592486 0.592459 0.846552 0.126351 -0.50985 0.270742 0.707346 -0.333016 -0.972833 0.00329692 0.00520133 0.333011 0.904515 0.951138 -0.797354 -0.780559 0.325461 -0.791965 -0.554873 0.516585 0.332635 -0.426354 0.115194 
0.555634 -0.707609 0.966476 -0.491653 -0.105883 -0.996298 -0.288393 0.460144 0.655185 -0.663034 0.417667 -0.326558 -0.103223 -0.365095 -0.523786 0.454608 -0.375519 0.483525 -0.556574 0.96731 0.403223 -0.659047 -0.880932 0.648927 0.726782 -0.621529 -1.05261 0.203812 0.78921 -0.459988 -0.69982 0.281606 -0.123995 -0.715671 0.959051 0.705658 -0.670629 -0.34158 0.284259 0.989011 -0.0141404 -0.374842 -0.269714 0.761893 0.290203 0.218521 0.279364 0.908359 -0.326281 0.775103 0.916459 -0.877465 -0.898787 -0.9741 0.635584 0.864868 -0.537071 0.568503 0.0687141 -0.811187 -0.867848 0.436846 0.565074 -0.00327564 0.708156 0.478116 -0.177758 -0.998196 -0.826849 0.986433 -1.00691 0.127623 -0.39705 -0.258291 -0.0597407 0.874596 0.863414 -0.743075 0.800151 -0.43412 -1.01492 0.653175 -0.236619 -0.848882 0.845398 -0.626996 -0.984231 -0.797068 0.995574 0.0846398 -0.549295 -0.816132 -0.501924 0.965083 0.190248 -0.862138 0.488811 0.856829 -0.786726 0.582037 
0.915789 -0.824848 -0.279177 -0.605187 -0.0856232 0.710981 -0.643833 -0.189844 0.989935 -0.861988 0.445924 0.93154 0.829317 -0.862401 -0.86267 0.520872 -0.522134 -0.875726 0.744121 -0.572501 0.233945 -0.836112 -0.387328 0.780614 -0.845582 0.793208 0.882857 0.592766 0.723138 -0.938231 0.203783 0.607829 -0.745012 0.981886 -0.834341 0.174759 0.717007 -0.486415 -0.951129 0.694489 -0.361448 0.45777 0.665617 -0.584289 0.637306 0.801955 -0.988817 -0.892786 0.911268 0.785881 -0.450071 0.16457 0.8859 0.0835668 -0.123731 -0.903576 -0.0653425 -0.273788 0.693197 -0.333336 -0.169179 -0.0363815 -0.661775 0.0410601 -0.064492 -0.513223 -0.742891 -0.404915 0.0543244 -0.703908 -0.711112 0.674505 0.738508 0.972702 -0.867235 0.358048 0.690846 -0.874492 0.44247 0.667647 0.88579 0.930811 -0.120554 0.845655 0.254949 0.675351 0.943046 -0.972338 -0.573967 0.632632 -0.285067 0.258606 -0.43377 0.0526552 -0.655041 0.442406 0.585001 -0.484285 -0.889135 -0.448849 
-0.15329 -0.608623 -0.765955 -0.512727 -0.623109 -0.616794 0.883906 -0.896348 -0.426369 0.32848 0.802982 -0.563607 0.275744 -0.363865 -0.681747 -0.640397 -0.694173 -0.736458 -0.571815 -0.262382 0.915952 0.122766 -0.997151 -0.486753 -0.787666 -0.675254 0.953654 0.762126 -0.11775 -0.961995 -0.652747 0.775512 -0.578651 -0.365617 -0.68423 -0.176254 0.043308 -0.780855 -0.0535744 0.587828 0.551151 -0.25592 -0.956868 -0.205955 0.395452 -0.625456 0.203357 0.705973 -0.372547 0.649179 -0.533605 -0.462435 -0.249426 -0.552756 0.00419889 -0.00247419 -0.229935 -0.0536563 -0.240359 0.678774 -1.34733e-05 0.236239 0.440936 0.40911 0.747593 0.741079 -0.740111 -0.243116 1.03902 0.239253 -0.66523 0.536513 0.972421 -0.611019 -0.587535 0.35407 -0.310165 0.584199 0.054191 0.360866 0.207071 0.498637 0.974542 -0.987009 1.18104 -0.094672 0.0235714 -0.233087 0.875495 0.780945 -0.543187 -0.123497 -0.0858296 0.902164 -0.602354 -0.369768 0.673798 -0.465875 0.43895 0.686787 
0.785544 0.774759 0.19967 0.693434 -0.844184 0.545562 0.079926 -0.0989154 0.1959 -0.836937 -0.709199 -0.621896 0.67613 -0.7765 -0.598562 0.661955 0.138211 0.441605 -0.533279 0.0235438 0.229055 -0.101736 0.90514 -0.857117 -0.169179 -0.781797 -0.210223 -0.50541 -0.220306 -0.782343 -0.854012 -0.391198 0.955623 0.341975 -0.684524 -0.849692 -0.090785 0.411114 0.0436502 -0.929266 0.574728 0.334068 -0.544649 0.22465 0.561418 -0.117109 -0.0784173 -0.303844 -0.684161 0.381828 0.720384 0.522376 -0.746368 0.646133 0.643838 0.133831 0.838162 -0.542659 0.619706 -0.3576 -0.3351 0.867648 0.219171 -0.382542 0.104212 0.515369 -0.214943 -0.984178 -0.0182946 0.851264 -0.920927 -0.471206 0.17513 -0.464031 0.836918 -0.270756 0.375393 -0.272398 0.434009 0.709879 -0.914385 0.156041 0.299242 -0.598209 0.00985284 -0.0834254 0.523474 -0.320488 0.377621 0.162083 0.319916 -0.94645 -0.0527911 -0.452455 -0.222156 -0.944792 -0.919968 0.457874 -0.914209 0.0778536 
0.30422 -0.842151 0.567477 -0.521341 -0.314508 0.357841 0.199377 -0.899143 -0.896696 -0.354094 0.8178 -0.800266 0.814625 0.0803231 -0.397224 -0.367506 -1.00235 -0.845036 0.320217 0.376654 0.319319 -0.36711 0.427719 -0.744277 0.194874 -0.88009 -0.689099 0.2756 0.586471 -0.612974 -0.693812 -0.0835444 -0.466415 0.867795 0.370551 0.233902 0.226121 -0.418828 0.329112 0.318038 0.220272 0.144229 0.514821 0.0380039 -0.766127 -0.866919 0.674206 -0.776058 -0.719574 -0.0164168 0.602394 0.595759 0.605196 0.0383311 0.851189 -0.180216 0.141434 -0.824313 -0.901131 -0.261652 -0.448087 -0.555092 0.637229 0.0784745 -0.730868 0.00174996 -0.685868 0.49722 0.595601 0.644468 -0.187925 -0.18554 -0.206509 -0.673087 0.878442 0.022316 -0.543955 0.532953 0.254639 -0.26763 -0.492345 -0.133698 -0.66489 -0.856923 0.987909 -0.815348 -0.0367097 0.0557842 -0.646675 0.0634041 0.800656 -0.0998842 0.468121 0.43427 1.03687 0.735637 -0.559198 -0.696184 0.231388 -0.943748 
0.952528 -0.962342 -0.150681 -0.254921 -0.634987 -0.287354 0.767972 -0.179338 -0.752343 0.0208353 0.555406 -0.23246 0.885374 0.887976 -0.0838886 0.788182 -0.925753 0.883249 -0.148869 -0.57311 -0.0533358 -0.355701 0.33116 -0.590135 -0.917964 0.325296 -0.856168 -0.477596 0.63632 0.372059 -0.444665 0.589155 0.409364 0.406109 -0.66742 0.77456 -0.884052 -0.897928 -0.402629 -0.63534 0.122808 -0.845437 0.130386 0.00653609 -0.957017 -0.954381 -0.205465 -0.884057 0.925959 0.639441 -0.455836 -0.126046 -0.71532 0.875954 0.283288 -0.635045 0.201908 0.428394 -0.110817 -0.164687 -0.201176 0.446463 -0.577546 -0.790022 -0.150654 -0.246575 0.984088 -0.0346573 -0.143529 -0.417862 0.328168 0.977578 -0.262367 -0.541336 -0.0149683 -0.218918 -0.496004 0.774832 -0.101417 -0.567528 0.418236 0.441828 0.307944 0.702372 0.31751 -0.408804 -0.93596 -0.479202 -0.981809 -0.038034 0.352915 -0.183056 -0.590284 0.777323 0.0276273 0.253804 -0.465802 0.0141291 -0.782379 0.387241 
0.597627 0.545776 0.364713 -0.666011 -0.995151 -0.649266 0.116405 -0.491276 -0.870512 -0.985899 -0.0578952 0.547913 0.456446 -0.751013 0.25286 -0.225711 -0.160612 0.322312 0.293903 -0.142332 -0.719097 -0.352929 0.674945 -0.314099 -0.576362 -0.296729 0.937852 -0.0457574 0.718988 -0.843651 -0.656704 0.317075 0.701887 0.71004 0.650461 0.706497 -0.94066 -0.232619 -0.782892 -0.810066 -0.218075 0.159975 0.736125 -0.762858 0.409319 -0.011482 0.0111606 -0.751583 -0.692034 -0.695877 0.104801 -0.408058 -0.0488231 -0.218294 0.277808 0.375497 0.485299 0.214118 -0.66959 0.202074 0.37159 -0.325492 -0.48218 0.0736674 -0.616108 -0.831355 -0.218044 -0.557548 -0.0649918 -0.000311708 -0.369018 0.716061 -0.839967 -0.632688 0.953456 0.569803 0.356192 -0.0382864 0.817666 0.666365 0.268996 -0.0761355 -0.739653 -0.781511 0.70404 0.53434 0.591956 0.190607 -0.250373 0.926102 -0.607523 -0.878956 -0.398849 -0.0869698 0.195302 -0.0158814 0.0822578 0.977118 0.426583 -0.984369 
-0.023021 -0.942057 0.731904 0.136768 -0.574928 0.685481 -0.294099 0.780843 -0.349599 -0.477028 0.447849 0.919326 0.446287 0.706346 -0.860616 0.151125 0.240545 0.735578 -0.658396 0.990482 0.660975 -0.265316 -0.88853 -0.738115 0.645986 0.306545 0.245966 -0.273686 0.284523 -0.326844 -0.25813 -0.738902 -0.269247 -0.526552 0.397758 0.156129 -0.840644 -0.897113 -0.0632855 -0.190374 -0.373437 -0.615006 -0.271137 -0.927108 -0.909892 -0.131531 0.224266 0.332065 -0.396466 0.565741 0.319967 -0.735177 -0.699631 0.432392 -0.473024 0.946657 -0.260969 0.77272 -0.326868 -0.976474 -0.554179 0.414972 -0.716889 0.176925 0.889183 0.681247 -0.666576 -0.951709 0.784537 0.26984 -0.142279 -0.58851 0.65507 0.586945 -0.515756 0.744115 -0.544318 0.708427 0.0746309 0.0589549 0.274323 -0.604094 0.323518 0.574947 0.827299 0.850442 0.521673 -0.433597 0.622968 -0.805976 -0.410143 -0.931119 0.609524 -0.127021 0.245985 0.498871 -0.446154 0.578398 0.547144 -0.662094 
-0.15156 -0.600311 -0.27326 -0.503319 0.991506 0.229422 -0.767881 -0.556503 -0.0653327 0.314361 0.504363 -0.781601 0.721645 -0.167217 0.793094 0.554547 -0.324126 0.315328 -0.895013 -0.689362 0.511211 -0.300472 -0.628594 0.129699 0.572764 0.618818 -0.377467 -0.878518 0.19042 -0.836044 -0.534177 -0.934393 -0.436666 0.229572 -0.462031 -0.443643 -0.539771 -0.205065 0.0121265 0.396883 -0.880212 -0.500726 0.61296 0.828006 0.355258 0.406215 0.372379 -0.976704 -0.281939 0.481995 -0.661537 -0.768846 -0.821412 -0.295644 0.342403 0.747754 -0.681453 0.962831 0.877258 0.510689 -0.869264 -0.598167 0.569335 -0.300553 0.563999 -0.899888 0.257601 -0.98407 -0.0864517 -0.733057 0.407299 0.0193108 -0.22106 0.020908 -0.135838 -0.875937 -0.583124 -0.787095 -0.85995 0.135363 0.687246 -0.524127 0.375001 0.874936 0.197168 -0.280275 0.6544 0.49629 -0.313465 0.518378 0.0191405 -0.188363 0.861963 -0.42176 0.550316 0.420434 -0.309242 -0.225157 0.436147 0.609462 
0.0380352 -0.167114 -0.439385 0.810146 0.861798 0.452107 0.920722 -0.718319 0.667206 -0.925529 0.426839 0.376772 -0.416929 -0.17893 0.259502 0.779784 0.533017 -0.100316 0.256593 -0.766336 -0.587381 -0.722768 0.0358932 -0.704261 -0.144385 -0.454246 0.707238 0.532424 0.307177 0.129745 0.134708 -0.62986 0.976018 0.767241 -0.848763 0.826938 0.211072 -0.88498 -0.827673 -0.130884 -0.779618 0.542802 -0.757013 -0.219877 -0.614616 0.498649 -0.465145 0.90365 -0.609822 0.783261 -0.849829 -0.180453 -0.940821 0.172829 0.0726567 -0.0895053 0.724306 -0.218865 -0.537275 0.0246785 0.910174 0.667248 0.396908 0.888598 0.357279 0.539202 0.715676 -0.462776 0.698035 0.835456 0.390072 0.892856 0.394388 0.632734 -0.321742 0.767403 0.112579 0.16837 0.653511 0.518647 -0.0284979 0.799714 -0.659426 0.0603761 -0.0383543 0.417851 1.05058 -0.31315 -0.803304 -0.534591 0.736812 -0.90524 -0.93951 0.11074 1.01044 0.39347 -0.315087 0.721218 0.923063 -0.634389 
0.529154 0.308992 -0.809757 -0.0962533 -0.0459646 -0.0854408 -0.311151 -0.916129 -0.88631 -0.615033 0.641445 0.135139 -0.789636 0.94448 -0.814634 0.177518 0.377689 -0.816719 0.916184 0.598669 -0.364673 0.554691 0.687308 -0.285553 -0.329378 0.676339 -0.950695 0.361567 0.361194 -1.00174 0.738169 -0.138328 0.349019 0.980307 0.831383 -0.735027 -0.100095 -0.464013 -0.57042 0.00809112 -0.0603177 0.97362 -0.868988 0.116809 0.987806 -0.70234 -0.697086 0.330179 -0.534911 -0.852612 -0.0669983 0.125919 0.686667 -0.39551 0.811757 -0.583761 -0.729278 0.929575 0.7941 0.671828 0.901814 0.566537 -0.449523 0.215875 0.505451 -0.617385 0.498158 -0.576846 -0.0339173 0.849657 0.432823 0.888053 0.859545 0.534112 -0.0131665 0.804333 0.850342 0.249736 0.104895 -0.652585 0.404976 -0.949717 0.494479 0.151124 -0.379115 0.316653 0.606985 -0.0745636 0.195014 0.355426 -0.433452 0.120866 -0.123124 0.0768539 -0.663799 -0.584894 0.48712 0.837948 -0.150101 -0.59226 
0.632893 -0.742235 -0.725832 0.504281 0.82525 0.317893 0.338141 0.684184 -0.408869 -0.474756 -0.838798 -0.93413 -0.470293 0.508492 0.16994 0.120914 -0.149821 -0.289752 -0.890859 -0.921699 -0.9468 -0.388223 0.154592 -0.0283127 0.617536 0.494145 0.333311 0.180243 0.313239 -0.831146 0.660504 -0.117056 -0.533414 0.979833 -0.455887 -0.74915 0.320688 0.858015 0.973522 0.900074 -0.661054 -0.984661 0.93082 -0.182717 0.635847 0.0612612 0.994384 -0.531647 0.757631 -0.95607 -0.464564 0.804839 -0.423623 0.681036 -0.211794 -0.686427 0.157434 -0.851924 0.509125 -0.489986 -0.679349 0.148344 0.483293 -0.239712 0.0524936 -0.97319 0.0332354 -0.523654 0.954285 -0.00993356 -0.608185 -0.770972 0.103353 -0.734893 0.0436167 -0.315798 0.36172 0.0175347 0.130069 0.155655 0.0276198 0.658195 0.00892012 0.641043 0.291493 0.754372 0.943355 -0.475618 0.897752 0.429213 -0.0336742 -0.730248 -0.391327 -0.567025 -0.0372639 0.782646 -0.570705 -1.00204 -0.683549 -0.722263 
-0.0235045 -0.358229 -0.428829 -0.920018 -0.0407876 0.638967 -0.2358 -0.65731 -0.353131 0.926217 0.597986 0.688115 0.542585 -0.482348 0.296582 -0.167832 -0.681569 0.203022 0.34493 -0.773759 -0.369742 -0.674263 -0.573536 0.247216 -0.311025 0.409008 0.00410598 0.204679 0.418092 0.250558 0.577509 -0.629779 0.904953 -0.852226 -0.463804 -0.152786 0.791618 0.287292 0.210429 -0.567784 0.172276 -0.255653 -0.897028 -0.305747 0.315089 0.379395 0.567701 0.628048 -0.432953 -0.0925287 0.8542 0.187733 0.168435 -0.722121 -0.542769 0.945403 0.67816 0.455987 0.151396 0.0931305 -0.283669 -0.305674 0.538395 -0.374791 -0.200484 -0.924204 0.4706 -0.332698 0.376645 -0.323521 0.111212 -0.472025 0.472049 0.197002 0.225616 -0.245171 -0.421822 -0.225509 -0.61465 0.161574 0.658002 -0.782251 -0.622317 -0.15636 -0.52005 -0.207568 -0.216286 -0.800932 -0.731572 0.926521 0.27836 0.0136253 -0.329232 -0.171424 0.583679 0.549082 -0.136693 0.0530125 -0.743886 -0.803634 
0.753686 0.317865 -0.235757 0.19954 -0.476928 0.9852 0.950507 0.112186 -0.234787 -0.678388 -0.718967 -0.580714 -0.463414 -0.342273 0.265889 0.0325838 0.479122 -0.951466 0.212519 0.731424 0.986846 -0.518618 -0.280823 -0.35315 0.301646 -0.692119 -0.816968 -0.820534 0.37021 -0.609316 -0.575999 0.127651 0.712186 0.192227 -0.68064 -0.77803 0.16347 -0.722322 0.340976 0.954672 -0.402996 0.612472 -0.638233 0.13218 -0.7174 0.627332 -0.833131 0.75577 0.665924 0.373646 0.498167 0.669914 0.856103 -0.782173 -0.697797 0.163306 -0.462368 -0.512026 0.346833 0.891279 -0.122646 0.771583 0.0178486 -0.413755 -0.0405707 0.342943 -0.192959 -0.856403 0.614594 -0.850889 -0.912602 -0.787574 0.773909 -0.554858 0.351753 -0.945246 -0.925609 0.49956 0.812817 0.74713 -0.12269 0.306405 0.414827 -0.265211 0.525802 0.713391 0.892905 -0.946068 -0.789392 0.24641 0.951089 0.0766881 0.0452401 -0.0306341 0.656876 0.976177 -0.683575 -0.536499 -0.871849 0.927001 
-0.387623 -0.784353 -0.861555 -0.616007 -0.348308 0.447721 -0.558526 -0.281653 -0.0141101 -0.837773 -0.53411 0.866069 0.576566 0.874084 -0.419205 0.113781 0.654843 -0.497029 0.179108 0.77968 0.812659 0.0247293 -0.139357 -0.231314 -0.957937 -0.483587 -0.246812 -0.638653 -0.0161887 -0.106825 -0.706363 0.600769 0.0727642 -0.565285 0.937285 0.714544 0.893515 -0.58164 -0.566589 -0.0226493 -0.328282 -0.114594 -0.218312 -0.730109 -0.215191 0.383696 0.330642 -0.64199 0.873844 -0.528705 -0.823962 0.620701 0.533509 0.020831 -0.601142 0.618863 0.512896 0.166896 0.985603 -0.516576 -0.999449 -0.71939 -0.886911 0.0946121 -0.330289 -0.909329 -0.196875 -0.301912 -0.497123 0.254209 0.634577 0.177705 -0.823284 -0.693209 0.427393 -0.0542312 0.684018 -0.23881 0.318168 0.550876 0.208864 0.476965 0.194593 -0.185005 -0.518226 0.598849 -0.605249 -0.961493 -0.232587 -0.645301 -0.435908 -0.21056 -0.314771 -0.329369 0.839831 0.37229 -0.235446 -0.352522 0.994648 0.272456 
0.896564 0.548093 -0.552525 -0.947088 0.876646 0.852457 -0.00203606 0.52086 -0.318819 -0.720372 0.0889311 0.830171 0.802735 -0.741216 -0.414423 -0.693849 0.889447 -0.00821423 -0.63552 -0.418885 0.40294 -0.139027 0.343907 -0.97092 0.548887 0.149969 0.401359 -0.680659 0.825058 0.411181 0.598031 0.711816 -0.0526769 -0.947741 0.743374 -0.218037 0.884305 -0.229957 -0.721114 -0.423038 0.0992811 0.355412 -0.624869 -0.0772056 0.644095 -0.0143437 0.219236 0.482983 1.00101 0.544867 -0.912811 0.343378 -0.586273 0.415421 0.387566 -0.956069 -0.427753 -0.201461 -0.667885 -0.614866 -0.841997 0.948171 -0.895661 0.085941 0.968736 0.880298 0.83738 0.953071 -0.34592 -0.852318 -0.487975 0.750893 0.524699 -0.175934 -0.35868 0.14525 0.807497 0.861881 -0.35691 0.766037 0.402997 -0.283846 0.114709 0.867181 -0.866381 -0.509579 0.861067 -0.261677 0.263486 -0.819143 0.113337 0.464236 -0.836561 0.233574 -0.461183 -0.872859 0.125163 -0.638412 -0.96507 0.767461 
-0.482097 -0.499806 0.506041 -0.970515 0.324388 -0.845665 0.176438 0.118413 -0.990539 0.810136 -0.111455 0.403571 -0.468755 0.9977 0.244774 -0.333877 -0.520613 0.101655 0.385225 0.731139 0.297231 -0.495581 0.150099 0.437693 0.733315 0.660316 0.568952 -0.158572 -0.963114 0.612339 -0.396044 -0.446631 -0.887221 -0.88771 -0.418586 0.436837 -0.733836 0.758733 -0.442353 -0.726486 0.573273 0.446354 0.676554 -0.894249 0.445148 -0.077753 -0.229471 0.924505 -0.974685 -0.84519 0.657263 0.324295 -0.350495 -0.193833 -0.238884 -0.610611 -0.530502 -0.666855 0.233128 -0.49669 0.941182 0.840777 0.0564785 -0.947264 0.948518 0.638787 0.489355 -0.784323 0.399214 -0.950975 -0.510559 -0.0283631 0.496289 -0.834933 0.0767081 -0.058621 0.0861239 0.846618 -0.133987 0.111278 -0.999872 -0.477853 -0.56473 -0.343833 0.32868 0.195965 0.0455884 0.796954 0.526007 -0.721657 -0.699202 0.466387 -0.884349 0.357323 0.524364 -0.936533 -0.00514409 0.0102957 -0.72078 -0.603277 
0.0592891 -0.232349 0.364286 -0.444396 -0.0669712 -0.559376 0.49704 -0.97936 -0.712755 -0.637147 0.132141 -0.712817 -0.114896 0.567276 -0.0564263 -0.786807 -0.236415 0.989165 -0.990049 -0.711031 -0.733031 -0.689299 0.755357 -0.617863 0.667863 0.275275 -0.55456 -0.336225 -0.714353 -0.275737 0.0572103 0.344936 0.491914 -0.578495 0.900544 -0.575207 -0.137875 0.397605 -0.554479 0.149362 0.760637 0.577411 0.436741 -0.35436 0.14494 -0.619684 -0.141082 0.908662 -0.630519 -0.131215 -0.802405 -0.363161 0.179632 0.952954 0.0189506 -0.152409 0.228327 0.464362 0.511494 0.513951 -0.811368 -0.431424 -0.141241 0.68066 -0.00992762 -0.240573 -0.894532 0.852188 -0.843053 -0.449048 0.00170968 0.917675 -0.871451 -0.561648 -0.436744 0.273579 -0.181508 0.422226 0.182241 0.188088 -0.708782 0.379837 0.824781 0.470946 0.332774 -0.156126 -0.681463 -0.438906 -0.691717 0.829958 -0.924942 -0.503166 -0.601522 -0.0658928 -0.822574 0.38859 0.693375 -0.717111 0.240744 0.850494 
-0.166127 -0.757702 0.768062 -0.0374871 -0.319399 -0.668588 -0.763921 0.499223 0.75364 0.418244 -0.312711 -0.955241 -0.2018 -0.487794 0.515801 -0.869041 0.356013 0.834339 -0.308028 0.664344 0.664052 -0.232917 -0.838799 -0.937274 0.701035 -0.661416 0.451283 0.394395 -0.378488 -0.307987 0.244788 0.455385 -0.0656891 0.0128551 -0.5821 0.614837 0.344265 -0.34601 0.114104 0.0979008 -0.927677 0.801267 0.142758 -0.129527 -0.6864 -0.341441 0.00147526 0.669683 -0.507102 0.693405 0.334009 -0.842857 -0.539439 0.49521 -0.780144 -0.838356 0.833844 0.671124 0.556104 -0.544656 -0.636859 -0.199172 0.910666 0.297509 0.813678 -0.671373 -0.0876461 0.157939 -0.0174249 -0.973561 -0.74408 0.0549447 0.8278 0.398627 0.925389 -0.858555 -0.942902 -0.0731106 0.811128 -0.449946 -0.379602 0.145136 -0.292877 0.0810076 -0.359662 -0.0729486 0.242652 -0.525822 -0.4018 -0.20128 -0.070471 -0.0386995 0.599519 -0.159661 -0.741224 0.413217 0.168888 0.171127 -0.428862 -0.848453 
0.197582 -0.173021 0.206439 0.0254277 -0.774422 0.131874 0.166873 -0.717265 -0.941236 -0.0219995 -0.16721 -0.320838 -0.876863 0.539983 0.76017 -0.236517 -0.532965 0.00282159 0.237662 0.0652143 0.801513 -0.832816 -0.973465 0.401032 0.00743647 -0.714691 -0.185771 -0.823684 0.456436 0.385366 -0.672186 -0.345982 -0.787654 0.534252 0.679446 -0.562076 -0.333873 -0.153681 -0.279341 -0.27511 0.824319 0.553449 0.404052 0.947456 0.0934318 0.164222 -0.289061 0.560467 -0.832957 0.948601 -0.374319 0.968556 -0.884215 -0.347784 0.369588 0.123222 -0.0624753 -0.816184 0.299538 -0.606039 0.569182 0.627351 0.0479786 0.781528 0.161604 -0.272576 -0.780548 0.82773 0.573743 -0.0598895 -0.447379 0.398062 -0.506441 0.956672 0.345518 0.586991 0.120894 -0.943543 0.147457 0.287937 -0.994942 0.773138 0.256493 -0.879157 -0.574646 -0.373919 0.244065 0.362879 -0.190103 -0.456397 0.75684 -0.62092 -0.829046 -0.195182 -0.839392 0.332558 0.532243 -0.61994 0.160288 0.105986 
0.32017 0.712908 -0.495952 0.813729 0.669581 0.849565 0.40072 -0.209525 0.906022 -0.451822 -0.921588 0.91108 -0.678684 0.334906 -0.968077 -0.25333 0.960987 0.275988 -0.890451 -0.229116 0.819591 0.866388 0.149964 0.990545 -0.328793 0.310572 0.323102 -0.796551 0.690632 -0.51661 0.309435 0.010802 -0.803701 0.813482 -0.175469 0.86588 0.663048 -0.774748 -0.343645 0.56907 -0.226571 -0.265233 0.480151 0.0947449 -0.930327 0.512074 0.841415 -0.96934 -0.211938 0.950964 -0.198455 -0.392347 0.817352 0.951508 -0.401802 -0.511441 0.26208 0.921301 -0.307992 -0.0472881 -0.595309 -0.998557 0.963514 -0.39901 0.814926 -0.211955 -0.53313 0.477973 0.0132967 0.123225 0.0470437 0.786726 0.857992 -0.472806 -0.118529 0.927666 -0.960732 -0.277114 0.958326 -0.172669 -0.32615 -0.24013 0.434984 -0.508798 -0.288621 -0.966818 -0.0202391 0.973459 0.954483 0.671769 -0.0738291 -0.640826 0.673212 -0.110315 -0.0398364 0.488138 0.67773 0.427033 -0.0338885 -0.308973 
-0.449742 -0.986845 -0.522247 -0.59175 -0.45965 0.359223 -0.664084 -0.420382 -0.917891 -0.705758 0.406949 -0.244041 0.0541124 -0.158067 0.24716 0.765491 -0.124885 -0.773079 0.73895 -0.170403 0.89869 -0.334879 0.188771 0.571903 0.554806 -0.851066 0.0600409 0.232536 0.575968 -0.973848 0.923562 -0.873774 -0.960692 -0.598685 -0.465524 -0.420343 0.760538 -0.129607 0.159275 0.842647 0.164635 -0.433776 -0.401394 -0.781253 0.408156 0.845766 0.984238 -0.716729 -0.927313 0.723188 0.112868 0.971378 -0.61169 -0.698361 0.543281 0.943116 -0.549426 -0.396678 0.175651 -0.973459 -0.370526 0.0992138 -0.847233 -0.331219 0.500529 -0.312756 0.248439 0.261067 0.557636 -0.592286 0.103714 -0.277729 -0.0260626 0.70232 -0.0589822 -0.617906 0.548086 -0.074744 -0.334635 0.620774 -0.351556 0.778233 0.592152 0.0367541 -0.920128 0.135432 -0.0201303 -0.469554 0.738754 -0.844479 -0.443013 -0.631772 0.254735 -0.290245 0.0370091 -0.244736 0.396999 -0.714552 -0.983669 -0.045365 
-0.306839 0.120045 0.676906 0.667099 -0.177635 -0.382076 -0.950807 -0.629549 0.54318 -0.285443 0.991225 -0.808376 -0.50721 0.583377 0.228378 -0.427337 -0.281191 -0.791752 0.103108 -0.542437 -0.636231 0.660096 -0.17421 0.618504 -0.63015 0.862799 -0.626232 0.766849 -0.851753 -0.609902 -0.278516 -0.158591 0.510143 -0.60161 -0.491493 -0.667491 0.0163133 -0.4423 -0.29704 -0.440507 0.272257 -0.305815 -0.248883 0.765048 -0.722438 0.979496 -0.66229 -0.0036292 -0.812256 0.440819 0.453934 -0.448487 0.100914 -0.720276 -0.829983 0.470765 -0.857477 -0.456215 0.237613 -0.70923 -0.0661166 0.959097 0.132179 -0.555973 -0.642513 0.640686 -0.223465 0.3738 -0.801614 0.479495 0.933293 0.470644 -0.82632 -0.31559 0.235691 -0.548758 -0.336094 0.573402 0.447613 -0.14835 0.0142205 -0.0984536 0.403163 -0.884865 0.18127 0.57318 0.585899 0.323794 -0.883035 -0.176487 0.614564 0.0508479 -0.21739 -0.253257 0.494875 0.140096 -0.612571 -0.72859 -0.486104 -0.414184 
0.750859 -0.552848 -0.9433 0.924428 0.131625 0.291825 -0.624023 0.795506 -0.134483 0.823499 -0.352917 0.879776 -0.274892 -0.949663 0.99498 0.90608 0.623307 0.580787 0.230118 0.740439 -0.595697 -0.15529 -0.20869 0.186954 0.591355 -0.713779 -0.672943 0.978785 -0.442507 -0.159107 -0.435398 -0.691432 0.288049 -0.378929 -0.766859 -0.580281 0.913286 -0.391086 -0.78479 -0.221217 -0.567451 -0.137619 -0.341466 0.157344 -0.0873807 -0.346473 0.0637111 -0.463829 -0.765749 -0.706269 -0.72342 -0.361398 0.138264 0.0678737 0.8255 -0.270369 0.354121 -0.847985 -0.291615 0.911904 -0.00653972 0.272928 -0.779742 -0.71846 0.894165 -0.546465 -0.298732 0.807293 0.0623018 -0.0835729 -0.414036 0.494579 0.778827 0.244602 -0.348022 -0.308453 0.898028 0.715518 0.227853 -0.86769 -0.990847 0.504383 -0.229101 0.147424 -0.427758 -0.403583 0.877188 0.926461 -0.251091 -0.41452 0.838105 0.742282 0.858917 -0.941592 -0.976056 0.752411 -0.488247 -0.274803 0.559826 0.574026 
0.6421 -0.855773 0.0743562 0.416538 0.391502 0.714702 -0.882309 0.283958 0.434777 0.342923 0.41893 0.44664 -0.155935 -0.809762 -0.405665 0.417163 -0.215187 -0.528914 0.34549 0.533938 0.0550623 0.185681 0.279028 -0.0868696 0.238801 0.303176 -0.33341 0.750304 -0.970816 -0.774338 0.324327 0.671536 -0.630461 -0.606018 0.0937138 0.762211 -0.883059 0.202688 0.0498785 0.552946 -0.454088 -0.529323 -0.00237093 0.384474 -0.339467 0.59032 -0.19439 0.450592 -0.944878 -0.851021 -0.0103576 0.111107 0.33433 -0.735093 -0.97159 -0.4345 0.576122 -0.315326 -0.684304 0.607368 -0.0806906 0.640274 0.269058 0.293257 -0.959018 -0.640134 0.0560202 -0.847692 0.562375 -0.89854 0.695836 -0.894123 -0.425551 -0.300223 0.493558 0.242147 -0.71397 -0.706119 -0.305752 -0.651127 -0.558436 0.678566 0.461151 0.769748 0.94641 0.481223 -0.659396 0.51718 -0.824394 -0.341878 0.11323 0.096561 -0.692257 -0.614969 -0.613984 -0.664001 -0.254824 0.441313 -0.506882 -0.697338 
0.546009 -0.817896 -0.57956 -0.88873 -0.0972469 0.906469 0.393564 0.150096 -0.813417 -0.924135 0.510226 -0.366679 0.705253 -0.0298703 -0.584246 0.661235 -0.529844 -0.247408 0.201196 -0.340358 0.401585 -0.67506 0.753002 0.706797 -0.306733 -0.862006 -0.955032 0.417147 0.585349 -0.483942 0.743564 0.136729 -0.270355 -0.860946 0.257008 0.619099 -0.894822 -0.398431 -0.225893 -0.714436 -0.329808 -0.683126 -0.0747108 -0.634181 0.31923 0.334999 -0.935315 0.787427 -0.951502 0.263543 -0.549293 0.46997 0.592258 -0.818521 0.178797 -0.754543 -0.642221 0.209079 0.681169 0.947526 0.745689 0.422893 0.0213814 -0.510775 0.613694 -0.735372 -0.890297 0.668609 -0.0926561 -0.079174 0.894069 0.559599 0.250287 -0.15586 0.943817 -0.426583 -0.816997 0.99988 -0.658778 -0.751418 0.290733 -0.204042 0.733434 -0.164716 -0.016118 -0.139433 0.068157 0.30673 -0.892672 -0.231854 0.204674 0.889597 -0.773682 -0.749322 -0.641457 0.834983 -0.476962 -0.527933 0.489792 0.37377 
0.37654 0.415197 -0.0584159 -0.370422 -0.724219 -0.114494 0.200873 -0.599315 -0.151832 0.551399 -0.31932 -0.874351 -0.699088 -0.592821 -0.0245404 0.303403 0.281864 -0.937003 -0.41418 0.441945 -0.190308 0.806952 0.262954 0.109554 -0.967189 0.677178 -0.152547 -0.416067 -0.871253 -0.667688 0.9934 0.534637 0.795182 -0.0769934 -0.849262 -1.00425 0.829097 0.295771 -0.562009 -0.23435 -0.216472 0.117017 -0.0771072 0.10291 0.538014 0.898054 -0.564922 -0.171302 0.897824 -0.00702591 -0.789483 -0.247987 -0.14036 0.540708 0.832609 -0.148197 0.21039 -0.39491 0.419286 0.325914 -0.0226275 0.437369 -0.174109 -0.28469 -0.611554 -0.0878989 -0.210774 -0.798733 -0.771973 0.224937 -0.0575139 0.0536205 -0.630682 0.907697 -0.776055 0.885027 0.766855 -0.411946 -0.282588 0.747487 0.645881 -0.0117797 -0.518375 -0.618903 -0.452038 -0.658179 0.226761 0.696576 -0.101604 -0.348057 -0.0334129 0.921601 -0.843663 0.777095 -0.315158 -0.474509 -0.286484 0.392454 -0.241117 -0.072771 
-0.385925 0.698307 -1.02012 0.008153 0.654138 -0.835441 -0.00413249 0.390711 -0.306099 0.636056 0.215852 -0.598704 -0.390106 0.677086 -0.0947005 0.104487 0.915192 -0.890817 -0.294418 -0.162004 -0.173698 0.703509 -0.2985 0.125033 0.527936 0.43735 0.424394 -0.763517 -0.20858 -0.787387 0.205264 0.52589 0.952082 0.13421 -0.519051 0.510024 0.454624 0.247509 -0.0992839 -0.792269 -0.0610714 -0.942826 -0.504048 0.457996 0.728398 0.424616 -0.365557 0.715348 0.47126 0.331748 -0.32632 -0.645768 0.168254 0.381689 0.379427 -0.416057 -0.221558 -0.338741 -0.117625 0.59446 -0.0478005 -0.940627 0.0595086 -0.150707 0.264919 0.435965 -0.575033 -0.423517 -0.218795 0.355025 -0.27614 0.645561 0.494406 0.381995 0.23439 0.313317 -0.211891 0.729049 0.0401451 -0.695476 0.0839117 0.750363 -0.294394 -0.839529 0.127046 0.963206 -0.310442 0.870453 -0.286789 0.484693 0.47677 0.688067 0.781533 -0.515238 -0.47248 -0.0544617 0.936301 -0.137639 0.653634 -0.309748 
-0.784169 -0.616511 -0.717379 0.699787 0.951052 0.477737 0.114649 -0.472813 0.241985 -0.798746 -0.00227701 -0.662155 0.950448 0.660368 -0.428725 -0.0410112 0.665503 0.284777 -0.109837 -0.742078 0.00078024 -0.675148 0.847211 -0.335548 -0.127947 -0.477012 0.354799 -0.215331 0.401089 0.145333 0.464395 0.566815 0.581114 0.714271 0.448726 0.384164 0.256972 -0.583521 -1.00407 -0.406321 -0.169487 -0.0469157 -0.274282 -0.305476 -0.286371 0.273712 0.848668 -0.656357 -0.546791 -0.210159 -0.296148 0.377934 0.0497795 -0.487364 -0.775875 0.889581 0.0582725 0.53634 -0.195217 -0.616701 -0.211849 -0.797428 0.885226 -0.560177 -0.957387 0.273365 0.935023 0.315512 0.842644 0.931726 0.867723 -0.430624 0.00807578 -0.33823 0.42719 0.765076 -0.974727 0.109494 -0.79316 -0.413433 0.767814 -0.266911 -0.900343 -0.0887453 0.189239 -0.772114 -0.228844 -0.894993 0.808061 0.573326 -0.49459 -0.241398 0.932209 -0.647124 0.0950169 0.889265 0.560884 -0.115756 0.3254 0.374585 
-0.0675837 0.169204 -0.920317 0.883863 1.1031 0.421439 0.654409 0.880404 -0.450079 0.713858 -0.447862 -0.631419 -0.660155 -0.325473 0.29175 0.501444 -0.268083 -0.922706 0.750617 -0.510074 0.700127 -0.778422 0.0680485 0.496179 -0.391914 -0.760152 0.378702 -0.816958 0.305704 -0.243413 0.684074 -0.827839 0.899469 0.767575 -0.82166 0.898621 0.119779 0.744537 0.776899 0.77119 0.598045 -0.639767 -0.930064 0.916388 0.0415557 0.265597 0.60056 0.780605 0.219304 0.314999 -0.567267 -0.186452 0.435016 0.460451 -0.308309 -1.0034 0.749404 0.724284 -0.685399 -0.00682455 -0.366645 0.984513 0.0995077 -0.329572 0.722468 0.235542 -0.396132 -0.107139 0.195001 -0.561525 -0.374038 -0.38245 -0.0962079 -0.319928 -0.406837 1.00364 -0.960205 -0.913817 0.938792 0.332646 0.275277 -0.833615 -0.712982 -0.141062 0.597991 -0.183435 -0.198513 0.283949 -0.440221 0.0957533 -0.7353 0.325951 0.111408 0.364608 0.941516 -0.15402 -0.455438 -0.616253 0.807443 0.727275 
0.0292598 -0.511258 -0.684789 0.913423 0.506227 -0.0296075 0.92418 0.307404 0.171811 0.747119 -0.152304 -0.623583 0.798284 0.136447 0.214702 0.296855 0.775907 -0.911576 -0.320137 -0.666127 0.268012 -0.0545902 0.631564 -0.694611 -0.664022 0.634694 0.223803 -0.178008 -0.768237 0.0858051 -0.417835 0.17579 0.545317 0.0470884 0.181712 0.024613 0.860001 0.000650088 -0.684506 -0.0770616 -0.225643 0.141076 0.361811 -0.485071 -0.672538 -0.452586 1.06507 -0.879356 -0.53894 -0.265048 -0.484862 0.649148 0.60488 -0.847192 -0.69639 0.848254 0.84362 0.227509 -0.231285 1.02038 -0.569017 0.488059 0.14258 -0.934167 -0.628648 -0.822898 0.093695 -0.779409 0.421213 0.530478 0.0732931 -0.969012 -0.292299 -0.455814 -0.316358 0.0891465 0.0927231 -0.472033 0.276982 0.749012 0.239424 0.73589 0.48848 -0.088714 1.05921 0.611594 -0.261395 0.803909 -0.0960656 0.524622 0.613985 0.398382 -0.0141121 -0.134415 0.573649 0.321278 0.0502014 -0.515027 0.616902 -0.63873 
-0.874693 0.0520119 -0.665893 -0.105163 0.617015 0.145818 0.907729 -0.39528 0.660883 0.112254 -0.608764 -0.21207 -0.19744 0.979095 0.498266 -0.353685 0.596715 -0.48695 -0.478705 -0.660037 1.01748 -0.951583 0.797943 -0.17645 -0.0718222 0.356329 -0.709091 0.871642 0.926495 0.988509 -0.843058 -0.91359 -0.226734 -0.351007 -0.0852389 -0.490938 0.526052 -0.288949 0.0741815 0.0434298 0.86365 0.522053 0.876553 -0.497587 0.476518 0.609784 0.382319 -0.0239168 0.901475 0.981131 0.276081 0.844 0.799197 0.22814 -0.117275 -0.340207 -0.387015 0.112517 -0.467186 -0.409791 0.0414809 -0.248096 -0.56884 0.95751 0.318587 0.305221 -0.517337 -0.284957 -0.655743 0.67914 0.902776 -0.880245 0.159283 0.712523 -0.225662 -0.255058 0.251506 -1.17704 0.794323 0.297665 0.676358 0.231989 0.24464 0.611464 -0.308163 -0.861921 -0.855265 0.0623358 0.0329464 -0.307286 0.5365 -0.68935 0.693682 0.982691 -0.704494 0.102996 0.291961 -0.529388 0.953001 0.383032 
-0.78716 0.961988 0.425255 0.370963 0.658089 -0.705935 -0.932997 -0.0455504 -0.742755 0.909715 -0.670868 -0.942352 -0.0786063 0.608345 0.456393 0.396829 0.538043 0.867147 -0.425332 -0.284663 -0.396748 0.915209 -0.0334408 -0.878611 0.911201 0.19764 0.117594 0.123289 0.874912 0.12758 -0.370873 1.01624 -0.0998642 -0.829526 0.459101 -0.357676 -0.413524 0.330767 0.664355 -0.286885 0.159496 -1.08472 -0.254272 -0.979184 0.597794 -0.636461 0.656935 0.233452 -1.02027 1.11712 -1.04591 -0.575536 0.904088 -0.0787628 -0.173121 0.732742 -0.725557 0.908487 -0.0527087 -0.824785 0.109151 0.54871 0.937821 -1.00266 0.900622 0.309752 -0.14237 -0.673005 -0.0968164 -0.536342 0.229405 0.933266 -0.410909 -0.932559 -0.916386 -0.734651 -0.818011 0.517481 0.638517 -0.602189 0.497929 0.500993 0.073172 0.513487 -0.334819 0.916388 0.0478409 -0.201799 0.799338 -0.959827 -0.302549 -0.0186628 0.910532 -0.315983 -0.0441778 0.901789 -0.980413 0.612021 -0.677364 -0.300884 
-0.851678 0.528762 -0.315128 -0.208582 0.605098 -0.201833 -0.0533767 0.8391 -0.548924 -0.409783 -0.650487 -0.912392 0.830175 0.373573 0.475933 -0.638219 0.0798784 -0.385277 0.140523 -0.0525969 -0.10788 0.833392 0.781689 -0.201694 -0.471577 -0.220381 -0.40375 -0.582167 -0.343263 -0.0416112 0.244546 -0.285321 -0.542615 -1.0123 0.55809 -0.891975 0.0277248 -0.651635 -1.00455 0.354372 -0.126702 -0.768331 0.444648 -0.384042 0.64767 -0.118842 0.0187757 -0.161197 0.533334 -0.859033 0.787723 -0.74738 0.898537 0.578276 0.275933 -0.630812 -0.44418 0.687457 -0.162261 0.166361 -0.157275 -0.824499 0.660084 0.351172 -0.640249 0.145538 0.577254 0.295016 0.788416 0.567141 -0.277434 -0.666666 0.905095 -0.833779 -0.0495033 0.628708 -0.0636138 0.934475 -0.393551 -0.305302 -0.954411 -0.72699 0.110125 1.01085 1.07902 -0.528982 -0.92269 -0.613773 -0.832227 0.253917 0.190727 0.179665 0.488714 -0.0619984 -0.517839 0.833615 -0.874687 0.950167 0.138739 0.538949 
0.44169 0.866009 0.876132 0.446334 -0.854364 -0.066794 0.0390173 0.117509 -0.152051 0.604629 0.884235 -0.0475235 0.731061 0.0499244 -0.21943 0.638935 0.29706 0.108779 0.874664 0.604571 -0.630546 0.248263 -0.409961 0.912022 -0.922215 0.0724553 0.645629 -0.801492 0.143874 -0.136884 0.789896 -0.44974 -0.305233 0.778849 -0.977343 -0.255327 -0.262518 0.0305752 -1.07055 0.662156 -0.325812 0.771429 -0.466146 -0.705406 -0.163633 0.461627 0.942542 -0.69875 -0.438475 0.914618 0.773345 -0.227101 0.116929 -0.590179 -0.152687 0.232568 0.529075 -0.585075 0.427674 -0.314634 0.406802 0.279651 0.135461 -0.845087 0.174269 0.152042 -0.0486426 0.946387 -0.624855 -0.0323607 0.594858 -0.233524 -0.142242 -0.915539 0.101393 0.677579 0.557101 0.0823262 0.937895 -0.801241 -0.0226403 0.663502 0.18171 -0.975422 -0.820293 1.04225 0.0380162 0.568929 -0.513482 -0.236474 -0.923314 0.978507 -0.825869 0.328194 0.985873 0.306174 -0.583003 -0.0666614 0.247067 -0.521259 
0.806676 -0.202918 0.402263 -0.319546 0.0102193 -0.447435 -0.692777 -0.475106 0.574137 -0.656853 -0.167232 -0.447927 0.804788 0.991728 -0.435933 0.884543 0.877701 0.862308 0.346353 -0.607427 -0.400161 0.573404 -0.728364 -0.0698932 -0.267488 -0.761989 -0.88966 0.209776 0.241287 0.408593 0.844881 0.0721526 -0.793854 0.232035 0.762702 0.182061 0.835698 -0.907341 0.784685 0.510851 -0.602561 -0.457006 -1.07313 -1.02856 -0.44768 -0.382222 0.88903 -0.389434 -0.585375 0.244288 -0.175225 -0.0688906 -0.191039 0.126585 0.990606 0.550593 0.351212 -1.08808 -0.237827 -0.385283 0.543094 -0.415152 0.525164 0.817507 0.992152 0.286711 0.00699885 0.834173 0.555527 -0.181103 0.306448 0.629181 0.464553 0.258123 0.692846 0.923014 0.82418 0.504357 -0.598187 -0.720228 -0.15407 0.171658 0.348499 0.620658 -0.619597 0.302271 -0.069241 0.60203 0.194538 0.939769 -0.911625 -0.187635 -0.32001 0.755957 -0.555707 -0.396426 -0.00160284 0.49048 -0.557724 -0.678626 
-0.731847 0.670681 -0.976648 0.720045 0.134194 0.830093 0.597369 -0.081784 0.417137 1.14723 0.314532 -0.691432 0.0501381 -0.366475 0.970208 0.381539 0.796607 0.0475528 -0.0782461 0.218098 -0.0350245 0.0494334 0.884295 0.854042 -0.294708 -0.542123 -0.81424 0.691933 0.983514 -0.337083 -0.801064 -0.708904 -0.615021 -0.732356 -0.884413 0.415723 -0.850901 0.699259 -0.535232 0.649855 0.818115 0.546477 0.79954 -0.434286 -0.706793 0.742132 -0.945558 -0.709862 -0.34337 0.00781428 0.342999 0.658006 -0.9245 0.285602 0.528307 -0.264872 0.643596 0.531063 -0.500312 0.725942 -0.563672 -0.284995 0.74136 -0.102701 0.171624 0.78171 -0.702084 0.235178 0.612164 -0.235869 -0.173334 0.0770624 -0.503564 -0.284732 0.881582 -0.15633 -0.565012 0.81705 0.0267964 0.305079 -0.131814 -0.692144 0.049758 -0.0624455 0.701416 -0.37865 0.441654 0.14986 -0.965831 -0.82262 -0.326586 -0.33247 0.0146963 -0.359434 0.306752 0.978031 -0.570681 0.696592 0.292381 0.900067 
-0.496977 -0.837178 0.0161496 -0.0800979 -0.0407261 0.0117691 0.724772 0.442407 -0.0710442 -0.09536 -0.0692858 0.902731 -0.144303 0.902119 -0.168993 -0.514937 -0.646609 -0.562638 0.661 -0.217611 -0.491642 -0.602715 0.19666 0.591421 -0.192708 -0.309068 0.360534 0.274702 -0.577438 -0.216235 0.283549 -0.0620582 -0.124271 -0.691522 0.95385 0.716288 0.315595 0.701845 0.387609 -0.698568 -0.422013 -0.969349 -0.960036 0.189117 -1.01275 -0.210005 0.749669 -0.37248 0.0648462 0.321395 0.167101 0.657235 0.721233 -0.499178 0.29148 -0.480205 0.115118 -0.371608 0.886634 0.651926 0.474372 0.150883 -0.714582 -0.585303 0.575559 -0.753068 -0.82801 -0.0515773 1.0838 0.423978 0.19634 -0.703758 0.764327 0.273032 0.618395 0.796122 -0.910751 0.320569 -0.738918 0.444662 -0.270695 0.441617 0.109768 -0.458746 1.06121 -0.499103 -0.228118 0.0182034 -0.107389 -0.120364 -0.557588 -0.389833 -0.889967 -0.0843058 -0.304846 0.621252 0.209122 0.039675 -0.32928 0.124869 
-0.440386 0.866449 0.528481 -0.936545 0.246343 0.355853 0.911558 0.406076 -0.0949322 -0.550361 0.0840152 0.5817 0.510418 -0.910822 1.1546 0.460036 -0.636349 0.0119867 -0.365457 0.750484 0.800791 -0.0233929 -0.870468 0.851818 0.759787 -0.0220046 0.373901 0.0780014 -0.865683 -0.803202 -0.643581 -0.417927 0.937367 0.76621 -0.185267 0.0546273 0.076907 -0.225982 -0.420159 0.805318 0.137026 0.545009 0.334215 -0.582211 0.402857 0.326157 1.00458 -0.878496 -0.699331 -0.648939 0.522514 -0.875427 0.357802 0.818276 -0.865221 0.148148 -0.136083 0.578122 -0.66099 0.0276231 0.895749 -0.438919 0.259117 0.821138 -0.54597 -0.838133 0.0203266 0.742004 0.155885 0.530458 0.556349 0.930979 0.143481 -0.0357402 -0.542488 -0.308666 -0.771021 -0.613424 -0.250321 -0.0689355 -0.146478 -0.710176 -0.0576731 -0.488287 -0.868407 0.239343 0.404173 -0.0223435 -0.333298 0.843852 0.868076 -0.243301 -0.573031 0.162773 -0.707427 0.159551 0.47968 0.366643 -0.141988 -0.727571 
0.122437 -0.449883 -0.552848 -1.06017 0.524212 0.0793852 -0.294074 0.928773 0.772436 0.603035 -0.142362 -0.554074 0.601935 0.89126 -0.0232116 0.760962 -0.164917 -0.736792 -0.0742485 0.932433 -0.90876 -0.458184 -0.632347 -0.548387 0.785512 -0.219959 0.576259 0.1526 -0.502422 -0.593052 0.809511 0.486424 -0.215578 -0.878605 0.668618 -0.854398 0.211135 -0.481955 -0.892209 -0.263839 1.0083 -0.0217325 0.266866 0.498211 -0.31947 -0.989771 0.374419 0.689484 -0.740928 -1.09972 0.211894 -0.618412 -0.569568 -0.962164 0.0264603 -0.760308 0.0473676 -0.500563 0.600867 0.529103 0.106336 0.324259 -0.359041 0.734697 0.868206 -0.616459 -0.935855 0.143761 0.14707 -0.795947 0.889837 -0.102618 0.147713 0.17185 -0.536767 1.03956 0.080054 0.707778 0.736178 0.678821 0.943393 0.195626 0.879458 -0.202156 0.178216 0.00645178 -0.212318 -0.710772 0.440827 -0.589499 0.590378 -0.321927 0.792144 -0.680359 -0.775831 0.715684 -0.127952 -0.654324 -0.26061 0.753583 
-0.462694 -0.192643 -0.145845 0.705905 0.933923 0.340109 0.627112 0.166385 0.392709 0.418138 -0.172897 0.0309456 -0.652294 -0.230733 0.783702 0.522837 0.635224 -0.61337 0.841641 0.353721 -0.191505 0.351713 0.663868 -0.459782 0.668246 -0.96366 -0.834518 -0.474103 -0.250735 -0.233767 -0.443754 0.18804 0.345695 0.194608 0.0976708 0.352173 -0.42188 -0.197869 -0.594576 0.742438 -0.90227 0.286473 -0.0299245 -0.65076 -0.983351 -0.571373 0.943513 0.684652 -0.0223495 0.51809 -0.302877 0.721866 -0.116375 -0.150239 -0.595305 -0.422395 0.269305 -0.475302 0.289055 0.912681 0.567854 0.759269 -0.0576749 -0.117305 0.252002 -0.92561 -0.593572 1.03755 0.00618586 -0.141915 0.79169 -0.110362 -0.784923 -0.355988 0.293591 -0.569874 0.214706 0.0974365 1.09314 -0.70659 -0.0640733 0.00850064 0.845212 1.09316 0.848965 -0.593995 -0.425893 0.16592 -0.0765439 0.757253 -0.197984 -0.400886 0.61365 0.808829 0.378539 0.0454026 -1.05742 0.752304 -0.0554129 -0.221074 
-0.30547 -0.186864 0.852774 -0.0985738 0.469767 0.144713 0.101918 -0.256601 -0.51483 0.157113 0.0447579 0.215176 -1.0124 -0.106337 0.145148 0.919227 0.239637 0.636995 -0.145211 -0.677988 0.541422 0.642883 -0.419125 0.111645 0.485042 -0.951744 -0.920487 0.455262 1.06311 0.0163495 -0.542361 -0.250402 0.729084 -0.861628 0.751238 0.209281 0.278673 -0.189342 0.848118 0.816595 0.953936 -0.0913768 0.0280144 0.906156 0.806032 -0.792675 0.71577 0.0728123 0.984327 -0.435759 0.0986436 0.447166 -0.701194 -1.01321 -0.256234 0.815101 -0.771721 -0.135351 0.326452 -0.852431 0.991432 0.714373 -0.132474 0.567506 -1.01971 -0.470246 -0.0839685 0.540991 0.474131 -0.232875 0.339551 0.212188 0.769693 -0.810103 0.0686072 0.592103 -0.439999 -0.239581 -0.387346 -0.413475 0.51191 0.972438 -1.08508 0.794754 0.95112 -0.124851 0.687948 -0.767233 0.542941 -0.192359 -0.668447 0.657963 -0.30648 0.290539 0.233268 -0.167737 0.923032 -0.969104 -0.744609 0.161525 
-0.129417 0.494093 -0.443093 -0.479959 0.810652 0.808605 -0.918145 -0.610182 -0.404919 -0.304872 -0.0863655 -0.943161 -0.523891 -0.107313 0.751694 -0.605216 0.642971 0.443013 -0.22716 0.379549 -0.551214 -0.0486804 -0.162598 -0.0473033 -0.773231 -0.950125 0.809421 -0.879323 -0.653121 -0.817647 0.421856 -0.0149581 0.645287 -1.03463 0.755677 0.432403 0.578035 0.684243 0.739674 -0.815252 -0.623241 -0.299213 -0.951088 -0.121802 0.539621 0.938378 0.441064 0.484679 0.389968 1.07161 -0.436045 0.623054 -0.110551 0.553871 -0.176958 0.21065 0.847055 -0.218471 0.405373 1.004 0.0548515 -0.234538 0.0661472 -0.601523 -0.393212 -0.312876 0.900822 -0.466071 -0.488231 0.624691 -0.140269 -0.203429 -0.495739 -0.286772 0.731365 -0.868752 -0.229235 -0.042401 0.567934 -0.703294 -0.100737 -0.624347 0.846687 0.914372 0.941756 -0.0317285 0.0773952 0.735764 0.494743 -0.611147 0.644562 -0.456078 0.117266 -0.20483 -0.070075 -0.792634 0.440282 -0.262466 -0.261595 0.859236 
-0.50834 0.326933 -0.264611 0.0839858 -0.68184 -0.356247 0.103609 0.0810774 0.722779 -0.313368 0.381478 -0.568423 -0.187043 0.281927 -0.827538 -0.349319 -0.85558 0.119706 -0.522084 0.804089 0.603251 -1.01971 -0.885891 -0.381707 -0.217904 -0.0629285 -0.17478 -0.834751 0.932854 0.501168 -0.974631 -0.56384 -0.168654 -0.20631 0.488218 0.172844 0.160397 -0.515919 -0.922174 -0.286256 0.124661 0.529621 0.056801 0.957591 -0.325983 0.24668 -0.347437 0.155112 -0.506673 0.00969448 -0.401903 0.853398 -0.100229 -0.158187 -0.259665 0.772124 1.0883 0.655827 -0.889228 1.00507 0.222981 -0.88658 -0.553489 0.875032 -0.0558386 0.867862 -0.116345 -0.607863 -0.460497 0.0229338 0.0195299 0.504659 -0.341676 0.932147 0.406435 0.30457 0.0743927 -0.914325 -0.464297 0.715516 0.102279 0.189494 0.507843 -0.785372 -0.858069 -0.573126 1.06097 -0.878155 0.940148 -0.979306 1.0055 0.274792 -0.866653 -0.574754 0.121175 0.238934 -0.757898 -1.09082 0.56519 -0.343478 
0.0380693 -0.637127 -0.850235 0.814809 -0.570735 0.776699 0.187626 0.536919 0.710782 0.73767 0.197153 -0.172281 -0.179996 -0.278035 0.00703378 -0.226136 0.113033 -0.100085 -0.176564 0.0973237 -0.0899378 -0.19384 -0.955026 0.0496641 0.0981125 0.0975327 -0.711319 0.41679 0.208831 0.739032 -1.05051 -0.70879 -0.811725 -0.811711 -0.815229 -0.303653 0.750102 0.263747 -0.842148 0.503694 -0.112154 0.423103 -0.632076 0.584088 -0.833038 0.351729 -0.496134 0.414308 -0.763962 0.302782 -0.766156 0.226136 -0.860697 -0.526673 -0.640171 0.202986 0.827509 -0.282483 -0.290041 -0.0177475 -0.490997 -0.274731 0.255204 -0.335406 -0.106535 0.238003 0.247511 -0.255371 -0.450949 0.466162 -0.637633 0.307852 -0.0995698 -0.507675 0.00782026 -0.0025253 0.71518 0.367479 -0.560505 -0.760582 -0.209639 -0.303782 0.30899 0.00468856 0.351725 0.835407 -0.854182 0.00903917 -0.617271 -0.0633175 0.806987 -0.0676822 0.761511 0.117762 0.668948 -0.320959 -0.650921 -0.188401 0.491154 -0.0390239 
-0.803379 0.541491 -0.676539 0.247149 -0.756551 0.396842 -0.832706 -1.02566 -0.296571 -0.460108 -0.849107 0.579969 0.303038 0.365742 -0.572947 -0.497723 0.246192 -0.405449 0.538891 0.689071 0.567638 0.385631 -0.481147 0.222801 -0.554651 -0.878692 0.869832 -0.0871091 0.0582273 0.285456 0.727296 0.307028 -0.112398 -0.750765 -0.420251 0.233216 0.414728 -0.296216 0.145439 -0.769406 0.293669 0.292358 0.794232 -0.475816 -0.108122 -0.712391 0.197334 -0.991983 -0.0966712 -0.352878 0.595224 -0.532207 -0.885889 -0.696815 0.797547 -0.445677 -0.461566 0.738371 0.55028 0.518833 -0.104433 0.380605 -0.160332 0.840363 0.46299 0.309553 -0.0404988 -0.0657307 -1.02403 -0.92202 0.336147 0.215552 0.545895 -0.170752 0.892193 -0.799364 0.0166527 -0.117654 -0.661825 -0.802393 0.637958 0.936422 -0.421793 0.808834 -0.710294 -0.512765 -0.596665 -0.271991 -0.992174 0.929883 -0.80176 -0.110333 0.345287 0.0371296 -0.129551 -0.068593 -0.716559 0.676891 0.882273 -0.672358 
0.771642 -0.103318 0.584175 0.262569 0.912416 0.50793 0.414172 0.0330179 -0.646653 0.65177 0.247161 -0.875569 0.767936 0.706181 0.835609 0.966721 -0.817137 -0.785911 -0.312213 -0.85113 -0.759842 -0.12466 0.172056 0.547654 0.897156 0.910136 -0.557925 -0.700442 0.574792 -0.71944 -0.46293 0.334922 0.245587 -0.751857 -0.413605 0.172612 0.600271 -0.969088 -0.735796 -0.951393 0.723699 0.4699 -0.846605 0.466857 0.40482 0.980012 0.471685 0.52728 -0.769071 -0.836684 0.630731 -0.578193 0.108089 -0.178327 -0.948317 0.0650185 -0.27715 -0.571874 0.381079 -0.681402 -0.31568 0.90437 0.656863 0.993018 -1.01288 -0.735295 0.116864 0.72437 -0.869045 0.373533 0.89407 0.926945 -0.0144983 0.930391 0.393424 -0.8563 0.872441 -0.185972 0.680351 -0.76963 0.000267023 0.29714 -0.40038 -0.96888 -0.76623 -0.385116 0.214973 -0.12708 0.0121034 -0.45522 0.192635 0.699647 -0.610563 -0.258302 0.612253 -0.469761 0.0121848 -0.326354 -0.738096 0.253451 
-0.92275 -0.986457 0.145833 -0.0256084 -1.00792 -0.438909 0.143813 0.896992 0.427633 -0.190953 -0.858272 -0.539425 -0.81901 -0.314113 -0.457137 -0.67133 0.285752 0.699839 0.194507 -0.710334 -0.784539 -0.661125 -0.961141 -0.359488 0.113042 0.682561 0.160357 -0.840654 -0.624776 0.369514 0.343914 -0.537164 0.444676 -0.441318 0.437404 0.444369 0.162812 -0.421151 0.374112 -0.443043 0.386431 0.458894 0.0450717 0.534949 -0.833296 0.565486 0.876376 0.483079 0.280156 0.0821588 0.766417 0.511266 0.447447 0.800596 -0.83846 -0.431146 0.443682 0.242612 -0.25966 0.820954 -0.322901 -0.898501 -0.698875 -0.886657 -0.327109 0.737658 0.537839 0.836488 -0.689365 -0.0788942 -0.526558 0.690034 -0.606127 0.461178 0.23471 -0.450105 -0.0136756 0.10513 -0.974279 -0.671768 -0.800213 0.793156 0.852444 0.612483 0.605997 0.928726 -0.786199 0.0833414 0.213086 -0.09135 -0.0688061 0.86134 0.0635856 0.214556 0.964073 0.716235 -0.0581281 0.475759 0.563095 0.28905 
-0.593342 0.978645 -0.0669624 -0.238121 0.440884 -0.851823 0.357205 -0.49313 0.275973 0.37693 -0.180206 0.483732 0.166412 -0.34909 0.105857 -0.224386 -0.398848 0.282417 0.848554 0.805604 -0.776066 -0.239183 0.657524 0.272614 0.970209 0.597248 -0.012447 -0.0864847 0.0842809 -0.462663 -0.847532 0.480912 -0.480424 0.0884582 -0.704362 0.96248 0.263674 0.644452 -0.554892 -0.444637 0.0189865 0.25493 -0.959893 -0.816613 0.919031 0.14193 -0.0404891 -0.471297 -0.554956 -0.185285 -0.684168 -0.335977 0.626278 0.9803 0.954074 0.544266 0.580304 -0.0676913 -0.541639 -0.341703 0.478444 -0.386231 -0.85661 1.02936 0.702697 -0.534217 0.954841 -0.0302526 -0.95229 -0.597955 0.528417 0.0947054 0.664646 0.566166 0.2821 0.58179 -0.294518 -0.753478 -0.911883 0.157461 0.0707393 -0.578207 0.836235 -0.364711 -0.604245 0.785887 -0.817603 0.981057 -0.275317 -0.388148 -0.370114 -0.794701 0.261253 -0.213338 -0.800791 -0.0347469 0.225254 -0.843954 0.936627 0.288933 
-0.442353 0.462457 -0.615371 -0.776411 0.0284303 0.666756 0.805663 0.738075 0.913888 0.905054 -0.105906 -0.0237152 -0.671366 -0.270397 0.615021 -0.267927 -0.483714 0.801724 -0.287524 0.241789 -0.552095 0.350819 0.444684 0.708295 -0.86624 0.643366 -0.326597 0.34798 0.798811 -0.391015 -0.361815 -0.643621 -0.928557 0.0228222 -0.419582 0.099864 -0.310224 -0.613991 -0.162285 -0.396194 -0.708937 0.731742 0.580087 -0.380298 -0.53855 0.195104 0.35176 -0.0221933 -0.00300804 -0.935701 -0.780562 0.444841 0.41555 0.664175 0.153279 0.548848 0.307596 0.826623 -0.103167 0.106334 -0.564338 0.535031 0.462756 -0.492608 -0.442184 -0.956582 0.606957 0.247646 -0.571144 -0.55531 0.851441 -0.279829 -0.823483 0.431536 0.339904 -0.362046 -0.373357 -0.308292 0.615557 0.62366 -0.243929 0.83516 0.0686179 -0.828901 0.499273 -0.77811 0.719953 -0.193104 -0.951435 -0.383457 0.913146 -0.515752 -0.848128 0.376006 -0.00868347 -0.290277 0.419181 -0.401714 0.957375 0.848161 
0.0429705 0.808823 -0.431634 0.219488 0.240362 0.90827 0.857439 0.867006 -0.400021 0.47311 0.490646 0.355988 0.308289 -0.440736 0.527116 -0.192359 -0.218845 0.24712 0.614537 -0.170279 0.863961 0.527767 0.31395 -0.984167 -0.0962475 -0.694728 -0.274442 -0.677162 -0.0964481 -0.317072 -0.828968 0.946522 -0.508249 -0.260601 0.16601 0.732114 -0.352331 0.0234487 0.599119 0.247647 -0.503441 0.0897657 -0.396365 0.804847 0.64903 -0.869249 -0.387512 -0.569815 0.377872 -0.772975 0.259906 0.241833 0.754792 -0.426145 0.257666 -0.341455 -0.120873 0.983223 -0.0186169 0.782679 -0.333848 0.152416 0.729202 0.157903 0.891814 -0.104789 -0.109983 -0.460517 0.91866 -0.510864 0.78713 -0.584781 0.578902 -0.609235 -0.779934 0.227932 -0.478483 -0.167446 0.658117 0.899388 0.0595795 -0.0819774 0.141221 -0.185628 0.491878 -0.601113 0.472917 -0.628995 -0.61789 -0.5457 -0.846316 0.0482617 0.606716 0.882886 -0.793835 0.49853 -0.221903 0.0961818 -0.961987 -0.303242 
0.585183 0.82399 0.116729 0.166485 -0.783786 0.325049 -0.603612 -0.244398 -0.832723 -0.9468 -0.364139 0.225229 -0.0308421 0.779842 -0.961244 -0.54314 -0.828566 0.511178 -0.169367 -0.443433 0.96657 -0.0120083 0.601751 0.562307 -0.133275 0.815645 0.0709437 0.64515 -0.0905291 0.109021 -0.659463 -0.504205 -0.0672205 0.453109 0.660838 0.151078 -0.215365 -0.947751 0.888566 -0.0463947 -0.894201 -0.475085 -0.824777 0.0678157 -0.699554 -0.783124 0.535503 -0.520032 0.726048 -0.635751 0.0378784 0.691854 0.342521 -0.356782 0.264224 -0.784221 -0.539361 -0.669496 0.859284 0.371962 0.442839 -0.8002 0.864993 -0.623702 0.658218 0.527665 0.528783 -0.557379 0.548426 0.417867 0.387995 0.675941 0.938012 0.570056 -0.252935 -0.75438 0.785244 -0.723151 -0.272089 0.515345 -0.364676 0.759258 0.201554 0.984349 -0.59424 -0.536026 -0.789623 -0.133467 -0.200904 -0.935688 -0.769447 -0.756729 -0.732065 -0.903228 -0.379834 0.913176 0.618308 -0.852768 -0.633183 0.191543 
0.545268 0.714349 -0.0854274 0.509008 0.282143 0.558221 0.819377 0.161963 0.842062 -0.539425 -0.438266 -0.411806 -0.752077 0.78619 -0.495774 -0.393883 -0.771753 -0.189681 0.477095 0.0309083 -0.246617 0.774385 0.299772 -0.0743131 0.76904 0.995662 -0.0154999 0.370015 -0.884968 0.349473 -0.411386 0.673308 0.0331754 0.545982 0.1644 -0.543704 0.140415 -0.15249 0.507126 0.0582528 0.322511 -0.91276 0.530513 0.556819 0.936685 -0.87991 -0.687013 -0.800091 -0.283457 0.786186 0.327048 0.456526 0.39821 -0.484761 -0.388047 0.27799 -0.434671 0.515709 -0.305737 -0.33426 -0.217542 0.350411 -0.637144 0.82173 -0.110037 0.458396 -0.762261 0.973583 -0.80111 0.753135 -0.0619572 0.738615 0.803858 -0.441842 0.38511 0.742658 -0.383213 0.557474 1.0313 0.45465 0.27852 0.212379 -0.0841243 -0.245192 0.862289 0.361986 -0.787381 -0.653988 -0.105958 -0.210667 -0.0451331 0.67919 -0.855877 0.311972 0.556132 0.0372277 -0.278871 0.705128 0.0248114 0.0851571 
0.408539 -1.08435 -0.171499 0.314544 -0.486553 -0.722176 0.156482 -0.0480061 0.553793 -0.0908345 -0.677668 0.122503 -0.935852 0.332622 0.724672 0.657005 -0.278616 1.228 -0.850862 0.863227 -0.425978 0.249098 0.522345 -0.369445 -0.623568 0.0855927 0.845265 0.107485 -0.0904611 -0.190401 -0.771014 -0.713797 -0.324461 0.362278 0.490484 0.298688 0.469211 -0.790843 -0.489588 0.129426 -0.0289294 -0.146809 -0.798748 0.201581 -0.559831 1.11431 0.237179 0.238755 0.711078 0.337352 0.202279 -0.777824 -0.457525 -0.666508 0.117891 -0.0723388 0.555789 -0.166199 -0.920403 -0.616676 0.396991 -0.395479 -0.506481 -0.851696 0.672551 0.807272 0.625595 0.0209634 -0.787714 1.03647 -1.15678 0.476665 0.111567 -0.589775 -0.173739 0.38363 -0.644123 0.616404 -0.401782 -0.698357 0.311715 0.793572 -0.492365 0.597335 -0.722697 0.228146 -0.244848 0.673895 -0.763108 -0.350758 0.722425 0.931144 0.223175 -0.682665 -0.84293 0.302009 -0.820257 0.623405 -0.791896 -0.688863 
0.607395 -0.901344 0.488059 -0.144788 -0.376685 -0.262172 0.879466 -0.21595 -1.07405 -0.810865 -0.0744513 0.378398 -0.959331 0.600039 -0.0134203 -1.2208 0.0202952 1.16218 0.535102 0.720046 -0.503756 0.488478 0.38692 0.931139 0.752433 0.748792 -0.0835951 -1.05802 0.361933 0.0732625 -0.777856 0.0349948 0.249221 -0.551882 0.409531 1.16904 -0.246954 -0.031857 0.00472642 0.0995113 0.0507338 -0.819329 -0.316483 0.698901 0.745927 0.940197 0.972072 0.114245 0.658176 0.282308 -0.332929 -0.940928 -0.160857 -0.906894 1.10272 -0.300733 0.91265 -0.134875 -0.117657 0.131755 0.668915 0.724037 0.937713 -0.0628304 0.685161 0.116271 0.379925 -0.536459 -0.584259 -0.912421 0.342824 -0.944685 -0.604036 -0.167448 1.04297 -0.993108 -0.366894 -0.0445671 0.10606 -0.5264 -0.158866 1.11196 -0.557024 0.489946 -0.636491 -0.589959 -0.441854 1.08488 0.309807 0.187282 -0.161555 0.137415 -0.387114 -0.275923 -0.735379 -0.0148327 -0.751096 0.0617984 0.53302 -0.282145 
0.0964369 -0.0480425 -0.5194 0.902623 -0.885497 -0.637207 0.240742 -0.250628 0.0905782 -0.486502 0.166525 -0.791693 -0.652826 0.808724 -1.18834 -0.7499 -0.775304 0.105582 -1.08167 0.681345 -0.633861 0.324077 -0.850032 0.52615 -0.937896 0.013449 0.930675 -0.610545 1.23497 0.484921 -0.177807 0.31166 -0.384427 0.92946 -0.375068 0.186088 -0.983662 0.488604 0.54749 0.871657 -1.28806 -0.23721 -0.92806 -0.184814 -0.606084 -0.880347 0.324992 -0.053831 -0.247592 -0.217548 -0.169093 -0.0556221 -0.447918 0.279157 -0.362153 -0.375617 -0.640931 -0.752104 0.42019 -0.764072 0.341905 -0.406761 0.332919 -0.915183 -0.680703 0.589894 0.249758 -0.863321 0.208027 -0.856759 -1.17051 0.701627 0.119842 -0.677389 -0.332625 0.90767 -0.193476 0.00811128 -0.0427836 0.656738 -0.404351 0.755249 -0.211214 0.210957 0.215304 0.66719 -0.872307 0.45766 1.13479 0.324265 0.156554 0.441065 -1.04567 -0.638911 0.751979 -0.0704218 -0.76639 -0.764215 0.251655 1.05259 
-0.417603 0.0527968 0.391825 1.32807 -0.311892 1.13744 0.646932 -0.444667 0.127736 -0.314459 -0.562178 1.02423 -0.817579 0.686605 0.232484 0.00956588 0.120983 1.03539 -1.03681 -0.252294 0.718383 0.782344 -1.65607 0.883492 -0.906013 0.895529 -0.860089 -0.535981 1.56419 0.37214 -0.970388 -0.232214 0.0214991 0.8414 -0.115282 0.927681 0.63071 -1.12813 0.597818 -0.0322975 -0.585753 -0.541209 0.0746245 0.551181 -0.892131 -0.848727 -0.510929 0.184651 0.593809 -0.741357 -0.520454 -0.331905 -0.672913 -0.781919 0.615909 -0.5794 -0.652762 0.138847 0.229648 -0.611221 -0.201997 0.557506 -0.0849051 -1.10866 0.31541 0.435319 0.385233 -0.147649 0.492254 -0.0355747 0.559794 -0.685151 0.286876 -0.430642 1.04667 1.23498 0.398598 -1.06096 0.689063 -0.0165643 -0.295348 0.891795 -0.638882 0.33557 1.26588 1.06518 -1.29493 -0.815535 0.161589 0.223096 -1.18733 1.02444 -0.172951 -0.137533 1.27375 -0.633713 -1.14917 -0.0438009 0.350089 0.868845 
-0.811119 -0.161924 -0.600067 -0.743401 0.0684722 -0.297607 1.05639 -0.137149 -0.239443 0.380916 -0.815969 0.848843 -0.263731 0.0056589 -0.00835828 -0.458054 -0.951968 0.563914 -0.116917 0.310972 -0.158049 -0.0229358 -0.66234 0.695426 0.89847 0.377404 0.95409 0.835194 -0.126272 -0.0400031 0.657946 -0.0987848 -0.707922 -0.767474 0.0254407 0.383585 -0.569384 -0.843332 0.723836 0.22798 0.608072 -0.731368 0.194703 0.0287368 0.123234 -0.894337 0.495271 0.216467 -0.14278 -1.00941 -0.234826 -0.0997188 0.20887 -1.37467 1.09139 0.0859423 0.681281 -0.590405 0.366717 1.05555 -0.717039 0.199861 -0.435477 -0.61263 0.433923 0.0706366 0.698503 -0.812057 1.01216 0.365017 -0.234176 0.595563 0.298587 -1.21404 -0.390178 0.214295 -0.442588 0.687367 -0.0126741 0.764842 -0.690826 0.463245 0.056723 -1.00527 0.643776 0.0928912 -0.0211748 -0.337126 0.454724 -0.207391 -1.04846 1.00875 -1.15176 -0.211995 0.0426747 0.319559 0.276907 -1.31386 0.168218 0.655817 
0.686732 -0.685118 0.13105 0.899568 0.718686 0.999892 -0.573829 0.0816051 0.794817 0.219914 -0.0084287 0.978501 -1.00347 -0.394374 0.460192 0.235992 -0.405099 0.58889 -0.50834 -0.278608 -0.545722 -0.483536 -1.45957 -0.603512 0.369866 0.163736 0.905201 -0.0950191 0.605905 0.00906693 -0.700979 -0.0173972 0.637761 0.717099 -0.44596 0.710138 -0.141015 -0.935718 -0.804149 -0.978708 0.316984 0.619813 -0.92174 0.879771 1.01605 0.889068 -0.0868784 -0.283513 0.154567 0.247399 -0.226225 -0.56539 -0.973124 0.174562 1.55254 0.125733 0.512117 -0.127967 -0.365904 1.35071 -0.451512 -0.0485354 -0.0911025 -0.920161 -0.342128 -0.276362 0.753045 0.621309 0.500564 1.07702 0.0952447 -0.414976 0.10552 0.0354167 -0.592239 0.726444 0.542856 -0.198628 -0.373675 0.347736 -0.244244 0.832406 -1.18231 0.0570874 1.04541 1.34104 -0.827285 -0.925771 -0.191476 0.507394 -1.15125 0.766544 -0.354951 -0.340071 -0.537282 0.379813 -0.162628 0.0651099 0.0292722 -0.266729 
0.697107 -0.220759 0.0958696 0.710613 -0.273715 0.708054 -0.611587 -0.86824 -0.697146 0.0917725 0.245349 0.121104 -0.662739 1.04146 0.131551 -1.30207 0.147497 -0.14068 0.0836499 -0.396306 0.850369 -0.786422 -1.24266 -0.565105 0.0728874 -0.487452 -0.587743 -0.501169 0.740966 0.175236 -0.299823 0.502397 -1.15552 -0.863247 -0.137773 0.81484 0.356223 -0.626581 0.214088 -0.0362738 1.02828 -0.398662 -1.21218 0.0102042 -0.604064 0.682982 -0.870925 0.650179 -0.306839 -0.186619 -1.03196 -1.45407 0.562708 -1.08534 1.28712 -0.88345 0.483091 0.264999 0.493221 0.618754 -0.281454 -0.667472 1.54826 -0.418756 -0.314516 -0.17744 0.880698 0.825432 0.820112 0.346053 -0.0387669 0.184015 -1.20136 -0.504062 1.19825 -0.26171 -0.366755 -1.30822 -0.701515 0.777182 -0.042798 0.258654 -0.727759 -0.25657 1.46725 0.932295 0.1115 -0.936648 -0.0704785 -0.101267 -0.434033 0.859097 1.00192 -0.632178 -0.538349 -0.19474 -0.221678 0.3443 0.265192 -0.318333 
0.0514996 0.729866 0.796915 0.571398 -0.295037 0.827657 0.408494 -1.37197 0.320833 -0.744001 0.656896 -0.130827 -0.65171 1.2492 -0.871207 -0.807431 -0.266344 -0.695895 0.524464 0.993509 -0.194752 0.323613 -0.13447 -0.302677 -0.983267 0.683682 0.621421 0.242007 0.358414 -0.71117 -1.28322 -0.608949 -1.11957 -1.06821 0.987352 0.918785 0.959128 -0.254562 0.118418 0.230338 0.662909 -0.43182 -0.0371582 -0.0594499 -0.24051 -0.873566 -0.829857 -1.03182 -0.673407 0.049126 -0.886338 -0.903734 -0.0812672 -0.0569757 0.272981 -0.570924 0.392456 0.67208 -0.31075 0.467068 -0.842174 0.0533907 0.246335 -0.920419 0.520215 0.249973 0.562279 0.361247 1.50928 -0.293312 0.193464 0.159695 0.751692 -0.930549 0.889271 -0.0127286 -1.29492 0.689877 -0.320831 -0.0202086 0.0174359 0.666235 -0.407595 0.787702 0.717144 0.0906495 -1.01588 0.5481 -0.278336 0.155002 0.39161 -0.0104413 0.0357056 -0.340054 -0.196329 -0.327796 0.0210006 -1.41818 0.0835973 0.315908 
-0.315901 0.03385 -0.643978 -0.0836625 0.371965 0.826848 0.0379605 -1.40226 0.505519 -0.355116 0.179776 -0.212915 -0.429843 0.374251 0.395494 0.790174 0.151019 -1.06165 0.570584 0.988652 0.358106 0.145342 -1.22877 -0.44295 0.715494 -0.101584 0.163724 -0.451788 0.159223 0.558715 -0.866989 0.572176 -0.449724 -0.230163 -0.132723 -0.374404 0.523801 0.237713 -0.83427 -0.108761 1.53283 -0.215858 -0.589107 0.0502066 -0.612862 -0.478535 -1.34967 -0.667297 -0.436604 -0.0124133 -0.722451 -2.21697 1.51777 -0.269779 0.604641 0.581075 0.677321 -1.07706 -0.5142 0.37629 0.800692 -1.07457 -0.959674 -0.85889 0.455495 -0.00715311 -0.629082 -0.555298 2.19645 -0.316511 0.581963 0.544684 0.939611 -1.23466 -0.535692 0.142188 -1.32365 -1.03967 -0.306065 0.505148 0.34227 0.874338 0.961004 0.353541 1.95382 0.123878 -1.48309 0.242641 -0.385584 1.03917 -0.482574 -0.0849571 -0.655573 0.608194 -0.105151 0.120103 0.782452 -0.293948 -0.736232 0.853324 
0.296996 0.205262 0.121579 0.648088 0.565848 0.336479 -1.12013 -1.19883 0.296239 0.523583 1.0367 0.137727 0.635809 0.451535 0.210777 0.911088 -1.27399 -0.855308 -0.238455 -0.1841 -0.958555 1.08915 -0.710404 -0.131616 0.359569 0.18341 0.652068 -0.321613 -0.651059 0.910021 -0.176461 0.562322 -0.0382299 -0.954975 0.650442 -0.755105 1.13214 -0.00393987 -0.359565 0.799035 0.0267253 -0.94063 0.386617 0.964016 -0.891115 0.449443 0.287856 -0.132346 0.493618 0.828898 0.158533 -2.49863 1.5449 1.69336 -0.0845837 0.143765 -0.0568462 -0.84577 -1.29988 0.762339 -0.562171 0.54041 -0.142932 0.251089 -0.824629 1.18037 0.325142 -0.977139 1.08288 -0.576375 0.592295 -0.377194 0.060818 -0.212608 0.0177608 0.955171 -0.856214 -0.757792 0.195838 -0.143213 -0.197071 0.110269 0.276879 -0.658519 0.934607 1.24499 -1.46437 0.642724 -1.39858 -0.816782 -1.44492 -0.208998 1.18399 0.39136 0.340402 0.292252 0.243312 -0.112634 -1.07814 -1.12026 
0.152961 0.684524 0.158427 -1.036 0.604773 -1.15552 0.249987 -0.895202 -0.665599 0.593505 1.01504 0.411974 -0.315667 -0.277266 0.21567 0.805637 -0.539031 -0.262019 -0.318575 -0.307542 -0.409131 0.0830234 -0.60663 0.566067 -0.689399 0.822391 -0.577595 0.292651 -0.111938 -0.169695 0.675454 0.947737 -0.591061 -0.259587 1.32692 -0.158766 -0.163737 0.201629 -0.856624 1.35002 1.92997 -1.41311 -0.811896 -0.649604 0.121869 -0.378557 0.867655 1.33799 -0.529506 -0.871057 -0.618852 -2.30384 1.27457 1.0581 0.341546 -0.726003 -0.311253 -0.0241747 -0.415395 0.722074 1.54676 0.105896 0.120368 -0.380428 -0.665354 0.286808 -1.34075 0.114817 0.0478895 -0.423869 -0.075026 0.369597 -0.643922 -1.54715 -0.64267 1.59673 -1.66503 -0.767192 0.304101 0.186173 0.229584 1.21859 0.613238 -0.430001 1.33954 0.011662 -2.9256 1.00154 -0.475175 -1.19653 -0.965989 0.884068 1.29991 -0.40083 0.272887 0.210445 0.533424 -0.820649 -0.0240732 -0.0172734 
-0.520324 -0.499145 0.265733 0.00708696 -0.189026 0.17316 -0.049981 -0.380506 -1.04814 0.489482 -0.0652057 0.3564 0.57128 -1.20057 0.567681 0.406382 -0.704717 -0.708286 -0.732975 1.08869 -0.698296 0.192892 0.170075 0.405316 0.0420995 0.389547 -1.02178 -0.97887 0.460232 0.824724 0.446422 1.12749 -1.06595 -0.508128 1.14627 -1.48143 -1.17743 -0.46388 0.61935 -0.051276 0.851954 -1.21809 0.0856715 -1.18324 -0.498577 0.969418 0.037846 0.444069 -0.0942302 -0.315812 -0.468993 -1.71346 -0.0185494 1.88265 0.182942 0.819438 -0.0923176 -0.513354 -0.256765 -0.154916 -0.292767 0.113563 -1.16311 0.0232186 -0.835847 0.692311 -0.66773 -1.08517 1.41402 -0.275919 -0.23676 -1.0769 -0.305201 -0.763336 -0.320952 1.57697 -1.53248 0.289207 -0.441935 -0.940788 -0.0472714 0.377075 -0.261552 0.438353 1.39012 1.22016 -2.87145 -0.109387 -1.99704 -1.08624 -1.06647 -0.279492 1.84164 0.394636 -1.58601 0.514541 -0.0122162 0.572995 -1.03057 -1.0032 
-0.643929 0.265076 -0.225204 -0.0568929 -0.790467 -0.0766687 0.117334 -0.521461 0.589157 1.96606 0.528853 -0.75488 -0.937668 0.594148 0.12465 1.56893 0.159096 -0.680739 1.21788 0.682881 -0.638842 -0.0629147 0.280514 0.414331 0.359851 1.04733 -1.06418 0.469834 0.350274 0.0159469 -0.841106 1.0284 0.296906 -0.277425 1.1164 -0.965895 -1.34729 -0.254227 -1.23348 0.651195 2.46369 -0.0548479 -1.05688 -0.950662 -0.15067 1.00056 -0.74613 -0.46931 0.117979 -1.45726 0.0494845 -1.52445 0.26242 0.700634 0.148922 -0.324551 -0.701139 -0.0850983 -1.80659 -0.486511 1.1352 -0.760414 -0.402413 0.302741 0.498137 -0.395667 -1.49819 -1.24493 0.612899 -1.24812 0.697164 -0.189108 -0.119209 -1.37729 0.512409 1.91894 0.0709653 -1.56804 -0.756984 0.75947 -0.68366 0.519812 -0.80228 0.819245 0.228129 1.02523 -1.59566 0.91323 -2.1143 0.158127 -0.346938 0.57012 0.29101 0.00521349 -0.572333 1.03577 0.750296 0.666287 0.603474 -0.431517 
0.997234 0.984877 0.824088 -0.738057 0.969688 0.402813 -0.439691 1.19828 1.63064 1.65855 1.59241 -1.23423 -1.49155 -0.283537 0.607969 0.611717 0.331608 0.474117 1.2435 0.81872 -0.387503 0.115828 -0.965056 0.698168 0.456413 -0.83086 -0.104709 -0.72198 1.02359 0.371912 0.458883 1.34123 -0.550992 -0.150403 0.653202 -1.95827 -0.841375 1.32116 -1.24193 -0.613734 1.24985 -0.111129 0.300899 -0.443943 -0.341348 -0.0293397 0.796788 -0.526548 0.81347 -0.609064 0.168495 -0.914862 -0.757526 0.379627 1.22731 0.467846 -0.100504 -0.382951 -1.57461 0.422025 2.08041 0.507058 -1.51215 -0.578065 0.450069 -0.0792845 -0.938458 -0.233415 1.13628 -0.659982 0.468348 -0.921606 -0.00417824 0.0602804 0.161093 1.78844 -1.51501 -0.302824 -0.162589 -0.577095 -0.465297 1.01154 -0.561339 1.14614 0.437355 0.840583 -1.69811 1.79538 -0.378009 -0.549931 0.020912 0.585491 0.444422 0.596428 -0.941319 0.24394 0.0676237 0.659702 -0.13176 -0.543459 
-0.630511 0.850582 -0.0541798 -0.210269 -0.255049 -0.605801 -0.278591 0.557735 0.179768 1.92683 0.951896 -0.811134 -0.699836 0.0855866 -0.431581 -0.0150019 0.146529 0.113056 1.58753 0.23348 0.516951 -0.0416841 -1.98412 -0.226839 -0.156327 -0.417422 -0.230776 -0.475711 0.136495 -0.83548 -1.0814 0.663959 0.289172 -0.491066 0.669276 -2.04223 -0.330462 -0.411533 -0.423495 -1.81931 1.86748 0.452486 -0.0968721 -0.59224 0.812424 0.247378 0.0802196 0.182068 0.901686 -0.809116 -2.27857 0.635287 0.513371 -0.13237 0.206566 -1.30712 0.529179 0.155712 0.0716683 0.445216 2.11621 0.24024 -1.98601 -0.00495324 -0.000193825 -0.812663 -0.12143 0.20294 1.4945 -1.22214 -0.2542 0.126335 -0.0482394 -1.45358 -1.18579 0.678287 0.0742698 -0.358901 1.63708 0.761722 -0.85128 1.12266 -0.877565 0.864339 -0.327477 1.45163 -1.28545 0.436299 -0.963347 -1.309 0.756107 -0.195484 -0.718974 0.137493 -0.598986 1.28263 -0.944301 -0.758096 -0.36093 -0.936893 
-0.896919 1.64129 0.537133 0.142271 1.29764 -0.596524 -1.78519 0.784671 0.0387962 1.88926 0.318946 -1.22775 -0.231884 -0.372836 0.555078 1.45973 0.139184 0.934088 1.34703 -0.220612 0.810399 -0.001118 -1.60648 -1.17846 -0.407358 -1.85654 -0.17096 -0.994357 -0.325128 0.465888 -0.421486 -0.0806531 0.110691 -0.76193 -0.337624 -0.194278 -0.657798 -0.699575 -0.339841 -0.686001 0.0189273 -0.242211 -1.02021 0.463336 -0.249962 0.063373 0.408969 0.982779 0.00290614 -0.496157 -2.67481 0.225177 -0.810122 0.176753 0.682975 -0.75743 0.150134 -0.99616 0.673347 1.60954 0.266963 -1.08792 -1.19337 1.01749 0.42327 -0.559111 0.562809 0.307007 -0.291796 -0.893564 -0.827227 -1.1456 0.0901208 -1.5312 -1.5616 1.21854 1.01931 -0.647314 0.984318 0.50095 -0.280949 0.943324 -2.07795 1.10564 -0.157688 0.834848 -0.911551 0.493676 0.0851279 0.251248 1.90882 1.31006 -0.508865 -0.616324 0.312812 0.602768 0.271978 0.194528 1.12936 0.731148 
-1.43097 0.274001 -1.07687 0.378263 0.157976 -0.332528 -1.67201 -0.0623554 0.104042 1.87172 0.77864 -1.0436 -0.628233 0.799647 -0.41211 0.93192 -0.904653 -0.100966 0.434974 -0.484991 -0.334583 -0.169563 -2.14773 -0.509973 0.673945 -1.86293 -1.54718 0.102248 0.662095 0.512396 -0.113296 0.427159 -1.32423 0.389413 -0.116005 0.0145653 -1.35431 -0.956472 0.35133 -1.55717 1.0755 0.641633 0.396889 -0.97094 0.133416 -0.877934 0.315293 0.583281 -0.115245 -0.530378 -1.3222 0.743555 -1.10806 -1.60346 0.388412 -1.09283 -0.669371 -0.251789 0.997553 1.19567 0.702403 -0.906849 0.0439397 0.150979 -0.605571 -1.17351 -0.874827 0.77671 0.299318 -1.44802 1.25381 -1.01296 1.21116 -0.795035 -0.854235 -0.145284 1.35027 -1.88087 1.76198 0.328205 -0.0985084 1.53629 -1.29981 0.448966 -0.82537 1.173 1.40991 0.549692 -0.593034 -0.225392 0.25451 -1.04467 -0.892537 1.13565 0.314511 1.85686 0.369201 0.600253 0.730732 -0.252004 
-1.7972 1.17615 0.0368013 1.21488 0.199081 -0.358208 0.323512 0.0271418 0.437124 2.069 0.509602 0.504472 0.755489 0.673645 0.476181 0.992266 0.123494 0.742327 -1.0515 -0.483 -0.0378707 -0.958124 -1.40733 -0.606082 -0.778024 0.122185 -0.162875 -0.860189 0.685186 -0.341099 -0.595991 0.434603 -1.15964 -0.786691 1.02555 0.942706 -1.2295 -0.470999 -1.27943 -1.08594 -0.411281 0.491239 -0.626285 -0.745131 0.170952 -1.0271 -0.987426 -0.0657774 0.254077 -0.366821 -1.17551 -1.22559 -0.290988 -0.412193 0.832118 -0.10953 0.988338 -0.115008 0.654051 0.553041 1.63117 -1.96588 0.0526261 -0.997511 -1.25862 -0.619575 0.134592 -0.506828 0.438235 0.124688 0.458447 -1.47433 0.721638 -0.719634 -0.773626 -0.204078 -0.570538 -1.46482 1.13923 1.05935 -0.705823 0.581982 0.400152 0.562706 -0.0400364 1.06969 0.719606 0.0123888 -0.892241 -0.727992 1.09234 -0.688664 -1.41782 0.324624 -0.0309125 0.823809 -0.430018 -0.742362 0.34478 -0.526523 
0.0989439 0.00627302 -0.493863 0.616741 -0.485242 0.352948 0.340082 -0.196263 1.53509 1.24213 -0.655681 -0.598923 -0.262387 0.324387 -0.0794713 -0.0109166 -0.0617447 0.672671 -0.318065 1.18689 1.17865 -0.320284 -1.19505 -1.71097 0.382159 -0.653149 -0.558503 -0.342608 0.239581 -0.887798 -0.838413 0.0114342 -0.545517 0.0587234 0.291321 1.08913 0.424048 0.686884 0.64175 -0.284757 -0.509042 0.714598 0.838268 0.406762 0.373903 -0.878957 -1.05029 0.614565 0.478301 0.533849 -1.5396 -0.344657 -0.104107 -1.37208 0.892665 -1.20073 1.18696 -0.685757 0.318283 0.488532 0.109371 -0.260469 -0.169478 -0.0555451 -0.605193 -0.467415 -0.474062 -1.0768 -0.571538 -0.493524 0.531195 -0.358372 0.197635 -0.793767 -0.80311 -0.842502 0.217457 -0.851683 0.69512 0.788578 -1.15466 1.08963 -0.379847 -0.0158695 -0.482795 -0.295387 0.501091 -0.108338 -0.68842 -0.749837 0.416535 1.06454 0.343641 1.2903 0.646458 -0.214545 -0.847686 -1.0472 -0.298901 -0.130334 
-0.346447 1.11589 1.12405 0.969316 -0.0146828 -0.282363 0.586536 -0.446182 0.863311 0.390802 0.349386 1.09746 0.444522 -0.954178 0.248174 0.379545 -0.701004 -1.1191 0.0997789 0.252022 -0.270172 0.139513 -0.796564 -0.0868937 -0.316482 0.5994 0.356059 0.486666 0.939747 -0.880973 0.0783949 -0.226814 -1.0583 0.765433 0.751356 0.804961 -1.23177 -1.11397 0.680753 0.0644765 -0.56962 0.174774 0.804689 0.732972 0.15618 -0.865284 0.144877 0.774864 -0.891501 -0.173109 -1.28676 -1.05451 -0.294063 -1.25945 -0.91037 0.38295 0.107258 0.47979 0.282917 0.226234 -0.751953 -0.561233 1.33434 -1.02356 -0.039585 0.609066 0.55111 -1.01421 0.696738 0.514306 -0.480518 -0.787184 0.471472 -0.162466 -0.821678 0.719175 0.0933657 -0.0708533 0.37487 1.60743 -0.209368 0.640748 -0.774935 0.330542 -0.621036 0.112057 -0.182015 0.170142 -0.894385 1.01955 0.141941 0.274528 0.585198 -0.0437864 0.143683 0.815841 -0.211851 -0.498384 -0.682071 0.128423 
-1.18976 -0.524543 0.936552 0.184778 1.01334 -0.104927 -0.947971 0.288369 -0.90905 0.657613 0.32536 0.460791 0.720498 0.735487 -0.688118 0.384893 -0.479189 -0.4828 -0.610861 -0.0779744 0.331108 -1.37607 0.112019 -0.351325 -0.24562 -0.582275 -0.796746 -0.608697 0.0646077 -0.125805 -1.03977 0.124457 -0.0766244 0.0934413 1.80476 0.430063 -0.199192 -1.04508 -0.421397 -0.0594146 0.375159 -0.512632 -1.01844 -0.0521128 -0.443396 -0.954406 -0.816305 -0.377144 -0.0488884 -0.58827 0.0103367 0.284877 -0.375843 -0.530349 0.169765 -1.17172 0.898881 0.956433 -0.708002 0.0361726 -0.452644 0.289335 1.2766 0.187835 -1.08851 0.450982 -0.14535 -0.370531 0.480409 0.504799 -0.0773696 -0.476749 1.81742 -1.29916 0.996381 -0.595075 -1.34876 0.189996 0.464997 1.2932 -0.29004 -0.357737 -0.134274 0.438718 0.738964 0.100936 0.192291 0.0275611 -0.950431 0.945697 0.265261 -0.0485202 0.254038 -0.131543 -0.237247 0.674033 -0.724938 0.382025 -1.04503 -0.831182 
-0.28335 -1.03921 -0.0636255 0.172817 -0.103165 0.631973 -0.0426073 -0.099448 -0.389822 -1.05962 -0.0418099 1.04674 0.232901 -1.26194 0.0612002 -0.95326 -0.539309 -0.9416 0.305209 -0.904911 1.16758 -0.910421 0.492521 -0.50817 0.479702 1.10318 0.480717 -0.564026 -0.155187 0.869341 -1.48555 -1.17716 -0.921838 0.545374 0.244283 -0.0129171 -0.686621 -0.750107 -0.879606 0.160759 -1.02592 0.155823 -0.442849 -0.0979717 0.496905 0.665745 0.064443 1.01525 0.82706 -0.649971 -0.973927 0.799865 -0.43087 0.412267 -0.376234 -0.54289 0.305466 -0.958469 0.0807045 -0.587394 0.878321 0.408924 -0.434426 0.522509 -0.383467 0.384003 -0.415618 -0.255411 -0.0073273 -0.133762 -0.143992 -0.0108699 -0.159779 -0.159699 -0.700165 0.59798 -0.754736 -0.16625 0.819576 0.155952 0.577499 0.851083 -0.430969 -0.694945 0.405377 0.163396 0.176084 -0.593868 0.0352689 1.6091 0.0139585 -0.300195 0.187626 -0.0356784 -0.500401 1.08268 -0.738768 -0.00857802 -0.267995 1.04801 
-0.976695 -0.211159 -0.311152 -0.271269 -0.702442 0.320708 -0.811356 -0.116448 -0.844742 0.564953 -0.664346 -0.772629 0.712002 -0.190323 -0.584539 -0.515165 0.83121 0.588881 -0.0103383 -0.262299 0.688353 0.60418 0.90497 -0.138863 -0.294767 -0.577682 -0.454293 0.420415 0.0482331 0.234978 -0.256661 0.394657 -0.545917 -1.01556 1.05146 -0.341237 0.515415 -0.705038 -0.904108 0.699187 0.731899 -0.958013 0.8194 0.0837532 -0.0549872 -0.580608 0.646859 0.108731 0.836471 -0.195176 0.694565 0.629257 -0.642288 0.37867 -0.735679 0.280515 0.29928 -0.508405 -0.223839 -0.343637 0.978819 0.849513 -0.693844 -0.877495 0.850829 -0.901487 -0.0288658 0.0414839 -0.825556 0.0923851 0.462223 0.770877 0.535961 -0.0218446 0.0920526 -0.640612 0.170572 -0.4958 0.333634 0.338166 0.475164 0.147898 -0.0877332 0.851646 -0.299244 -0.305581 0.299274 -0.957365 0.429254 -0.546426 -0.039036 0.0514779 -0.854534 -0.014341 0.437988 0.979046 -0.158275 -0.535659 0.193704 0.754287 
0.496873 -0.791707 -0.0355768 -0.100219 0.317215 -1.02295 0.310642 -0.171657 -0.267951 -0.387568 -0.732159 -0.79838 0.707365 0.113261 -0.838282 -0.823065 0.953752 0.547474 -0.757884 0.317431 0.789868 0.016009 -0.548428 0.80221 0.938576 0.784527 0.733149 -0.0510732 -0.903107 -0.158833 -0.962984 0.580464 0.10419 0.0429951 -0.456374 -0.556368 0.138178 0.873176 0.283267 0.839275 -0.51097 0.527381 -0.884739 -0.824754 -0.359057 -0.733186 -0.647142 -0.349153 0.827944 -0.374677 0.905199 0.629951 0.685944 -0.672971 0.421001 0.57683 -0.938474 0.138297 -0.462345 -0.81986 0.971954 -0.398087 0.777191 0.108181 0.661366 -0.643018 0.506494 -0.253123 -0.881959 -0.215937 -0.320352 -0.345557 -0.665558 -0.251887 -0.162164 -0.0443587 0.00903046 0.173022 0.541041 -0.145 0.847484 0.47569 -0.499484 0.464927 0.851647 0.915446 0.0657269 0.906295 0.0364255 0.536849 -0.921744 -0.00101613 -0.774793 0.873016 -0.863029 0.875544 -0.817212 0.644142 -0.364642 -0.61332 
-0.580285 0.276601 0.00304631 -0.321089 -0.969255 0.786175 0.709734 0.103507 0.00650257 0.272193 0.936503 -0.148368 -0.25548 -0.568497 -0.680881 -0.429322 -0.651361 0.361778 -0.536041 0.394088 0.000356481 -0.458126 -0.580392 0.223455 -0.596994 -0.482197 0.0836078 -0.421279 -0.853257 0.707155 -0.0797388 -0.449419 -0.0162004 0.925179 0.320469 0.012693 0.751579 0.0153867 -0.929273 -0.21322 -0.712433 -1.00633 0.637594 0.0328664 -0.553596 0.956086 0.60057 -0.190456 0.350933 -0.922667 -0.828013 -0.660076 -0.293557 -0.397737 0.592245 0.0162211 0.130859 -0.335883 0.595892 0.263051 -0.617874 -0.481048 0.822261 0.423824 -0.563548 0.19186 -0.623763 -0.800916 -0.907883 -0.549296 -0.0164 -0.569408 -0.538427 -0.377118 0.469697 -0.0945714 -0.420468 0.0792621 0.674015 0.935487 0.169509 0.879081 -0.700838 0.770646 -0.531253 0.890297 -0.212234 0.605282 -0.43501 -0.665466 -0.148624 -0.0487816 -0.0861686 -0.305374 -0.690074 0.357497 0.837353 -0.311219 0.557623 0.954361 
0.138235 -0.457217 -0.608207 0.599816 0.166227 0.861504 -0.495237 0.745757 -0.0592356 -0.798283 0.677355 -0.902332 -0.915357 0.976525 0.874089 -0.430707 0.866822 -0.327794 -0.825424 -0.567985 0.0670118 0.042911 0.379349 0.980842 0.733285 0.690427 0.338697 0.551351 -0.622057 -0.104374 0.512497 0.516178 0.43841 0.904289 0.115994 -0.395363 0.765793 0.620757 -0.649606 -0.293442 0.822474 -0.97225 -0.195774 0.907117 -0.995725 -0.321685 -0.52359 0.871097 0.35052 -0.349014 -0.696888 -0.582468 0.693897 0.682461 -0.601626 0.427182 0.372888 0.737071 -0.0214668 0.75083 -0.367303 -0.50897 0.267008 -0.928893 -0.604681 -0.616998 -0.324256 -0.838888 -0.996241 0.026138 -0.13233 0.826234 0.0538877 0.671896 0.73335 0.0581626 -0.649789 -0.790239 -0.0707405 0.700731 -0.139253 0.232372 -0.881737 -0.445357 -0.0851671 -0.483362 0.981825 -0.71228 -0.746291 -0.0396413 -0.961449 -0.113594 0.451389 0.305559 -0.0424877 0.846708 0.688562 0.633256 -0.99218 0.692321 
-0.336836 -0.129859 0.512641 0.721237 -0.449926 0.236812 -0.223617 -0.0785108 0.47484 0.689341 -0.404185 -0.667577 -0.0647539 -0.282377 -0.126922 0.844552 0.212462 -0.131419 -0.87523 0.493145 0.819697 -0.824055 -0.637663 0.247801 0.471998 0.320065 0.114194 0.165431 -0.0397857 0.127213 -0.146244 0.619422 -0.99807 -0.615945 0.337774 -0.433825 0.627043 -0.896628 0.457299 0.0968578 0.805216 -0.952635 0.416578 -0.255936 -0.244874 -0.714828 -0.396633 0.980052 0.152117 -0.270319 0.474561 -0.0393764 -0.124388 0.843783 -0.764886 -0.611756 0.190157 0.368807 0.55374 -0.849032 -0.527196 -0.588462 0.787283 -0.522186 -0.211692 0.122451 0.0303326 -0.589902 0.17719 -0.512594 0.499623 0.021796 -0.475698 -0.0793219 0.769731 0.287055 0.229959 -0.639191 0.289565 -0.618983 0.0877536 -0.241049 0.342063 0.989756 -0.389563 0.579797 -0.606393 0.793939 -0.0598754 0.926947 0.943114 0.433775 -0.670664 0.713302 0.902857 0.109883 -0.186207 -0.0690223 0.536816 -0.977468 
0.423694 -0.0684776 0.0630175 1.09165 0.778061 -0.329563 0.28924 0.194788 0.0589325 -0.69375 0.420793 -0.635547 0.322746 -0.0655583 -0.883349 0.782751 -0.736141 -0.13914 0.494563 0.402235 -0.389867 0.665463 -0.283894 -0.368205 0.175523 -0.302949 1.01337 -1.05506 0.699383 0.654778 -0.844549 0.0965545 -0.55014 0.382029 0.0422461 -0.386293 -0.974643 -0.925497 0.803968 0.318773 -0.448887 0.274638 0.590459 -0.997306 -0.785112 0.826812 1.10682 -0.512753 -0.397438 0.560626 -0.813038 -0.169627 -0.142875 -0.431017 0.989383 -0.375719 0.667619 0.914003 -0.330435 0.217804 0.142483 -0.173058 -0.480372 0.796473 -0.92488 0.432728 -0.655806 -0.924651 0.317143 -0.827918 0.309929 -0.620221 0.362177 -0.0136022 -0.527647 0.464181 0.0650779 -0.768335 1.07508 0.570735 0.860001 1.10086 -0.562956 -0.0336413 -0.143554 -0.857259 0.762884 -0.607437 -0.990136 -0.889816 0.577665 0.479848 -0.142256 -1.06453 0.252382 0.112217 0.300716 0.541808 0.164838 0.0104085 
0.644971 -0.653797 0.572549 0.226192 0.388735 0.935656 -0.527441 -0.674461 -1.05119 -1.06136 0.460493 -0.954754 -0.561957 -0.618247 -0.128462 -0.397591 -0.790933 0.211869 -0.0454117 -0.386544 -0.13443 -0.0517966 -0.963642 0.1127 -0.263164 0.469156 -0.455764 -1.07622 0.285433 0.778783 0.338658 -0.187777 0.888986 0.335857 0.569189 0.852981 0.0252157 0.410527 -0.570945 0.136116 -1.57419 1.13536 0.435524 -0.615863 -0.534058 -0.470104 0.692892 -0.401928 0.0203259 -0.46845 1.00758 -0.0817835 0.388066 -0.046856 -0.239589 0.0399567 0.238642 0.212988 0.264759 0.894871 -1.13874 0.185026 -0.14853 -1.03026 0.836863 -0.761795 1.11351 -0.195489 -1.08509 1.00771 -1.25714 -0.757294 1.32758 0.381988 -0.308678 -0.59867 1.1309 0.317675 -0.0140758 -0.106554 -0.16428 -0.169994 0.855117 -0.852107 -0.768787 -1.092 0.966393 0.149483 0.11489 -0.541563 -0.243929 0.787793 -0.0269949 0.240463 1.07965 1.03397 0.831051 0.559435 -0.815397 -0.848251 
0.67572 -1.22817 -0.746304 1.23707 0.292394 0.157956 0.620939 0.230664 -0.598343 -0.640076 -0.011448 0.324222 0.425502 0.606202 0.34287 -0.305847 0.472465 1.00112 -1.19148 -0.0222099 1.03621 -0.127358 -0.405771 -0.126451 -0.445482 -0.0232246 -0.406666 -0.979847 -0.243285 -0.190247 -0.73998 -0.480296 -0.276169 0.453925 0.633897 0.126678 -1.10265 0.00503677 0.971434 -0.474251 -1.94451 0.606623 -0.639322 0.808521 -0.201693 -0.466575 0.302948 -0.524802 0.592349 -0.438069 1.07699 -0.457481 -1.19361 -1.36955 1.00099 0.332804 0.221779 -0.205448 -1.01933 0.380229 -1.14767 0.430643 0.791608 -0.237681 -0.783577 0.386821 0.81741 -0.975798 -0.250298 -0.172651 -0.466047 0.403588 -0.447151 0.413722 0.265691 0.0304567 1.52664 -0.171287 0.155637 0.200649 -0.351062 0.499691 0.817799 -0.342646 0.694449 0.582988 0.346587 -0.447038 0.721018 -0.684119 0.657194 -0.519022 -0.531892 -0.300075 0.655056 1.15577 0.0255338 -0.423201 0.454697 1.24959 
0.582134 -1.18516 0.463145 2.05501 0.641843 -0.426723 -0.541415 0.776656 0.233418 -1.15242 -0.855884 -0.345182 0.398513 0.369421 0.0361865 -1.12898 -0.507213 0.238267 -0.884148 -1.02571 0.440645 -0.362587 -0.74879 1.37648 -1.03708 -0.399522 0.718711 -0.59285 0.459414 -0.0656411 -0.470406 0.130113 0.299199 -0.222138 -0.460316 1.29676 -0.687475 -0.304953 0.285938 -0.763303 -1.00872 1.18953 0.18749 0.0035369 -0.673396 0.18416 0.407422 0.335311 0.080272 -0.39607 1.33752 -0.046549 -1.21962 -1.54702 0.747487 -0.522904 0.263342 0.725003 1.11442 0.748313 0.119354 0.274904 0.14917 -0.339348 0.963393 0.377113 -0.432938 -1.13537 -0.743984 -0.180186 -0.96535 -0.941831 -0.0179289 0.489566 0.0515195 0.593793 0.58495 -0.0507093 -0.329403 0.711361 -0.340705 -0.0122138 0.148248 0.0277321 0.563826 0.570714 0.237766 0.86981 -0.87875 -0.883654 0.664552 1.01293 -0.945766 -1.63049 0.105328 0.567845 0.685953 -0.26403 -0.255648 -0.366486 
-0.865609 -0.447838 -0.21644 1.08111 0.195092 0.306645 -0.578688 0.388118 -0.961214 -0.0255584 0.0241076 1.70244 0.848928 1.08261 -0.121687 -0.835311 -0.472865 0.173817 -1.4971 -0.70025 0.0476052 -0.622903 -1.29795 0.841838 -0.730523 1.10967 1.38424 -1.69318 0.285843 -0.426895 -1.27395 0.286334 -0.830851 0.239927 0.903533 1.40163 0.368969 -1.76538 -0.238483 -0.657303 -1.05954 -0.44491 -0.376764 -0.200256 0.101513 1.62109 0.171756 -0.970779 -1.47434 -0.972847 0.647885 -2.14032 -0.770023 -0.711605 1.08742 0.483792 1.18261 0.858771 1.09475 -0.969748 -1.03679 -0.986042 1.05947 -0.918843 0.458174 0.215599 1.09052 -0.525735 -0.284386 -0.632705 -0.843352 -1.36821 -0.364666 -0.229156 -0.123466 -0.287677 0.899841 -0.0619744 -0.00837166 -0.134011 -0.702165 1.32941 -0.0741946 -1.56196 1.20315 0.645858 1.3029 -0.567884 -1.00478 0.223713 -0.231031 -0.138895 -0.518659 -1.57835 0.206516 -0.240249 -0.363166 -0.952493 -0.43669 1.09142 
-0.0258292 -0.0742131 0.914672 1.74728 0.280047 -0.538216 -0.38691 0.255945 0.664665 0.239045 -0.430917 0.807304 -0.434915 -0.214028 -0.519942 -1.50267 -0.34227 0.545993 -0.691276 -0.0929078 -0.166528 -0.70605 -0.790713 1.92129 -0.864758 -0.0335166 -0.289005 -0.742855 0.986671 -0.348225 -0.660452 -0.354814 -0.691544 -0.434177 1.37887 1.36661 -0.626703 -1.70033 -0.159304 -0.179583 -0.563165 1.04903 0.81198 0.891416 -1.46841 0.172253 0.851029 -0.476087 -0.272411 -1.36441 -0.835144 -0.918746 -1.22174 -1.03847 1.68112 -0.214925 0.521456 0.209667 -0.648718 0.190067 -0.490184 -0.675583 1.84046 -0.480313 0.635905 1.14823 0.0475158 1.47442 0.976954 0.096948 -1.40498 0.0802192 -0.178027 -1.30424 0.403954 0.971764 0.223281 -0.800559 0.304409 1.03303 0.332342 0.603391 -0.199393 -0.6311 0.520971 0.387073 0.830625 -0.516067 -1.25849 0.433704 -0.676771 0.44342 -0.751141 -0.991868 -0.385372 0.566091 0.255087 -1.11165 0.587136 0.727854 
-0.786544 -1.23787 -0.556677 2.09458 -0.106024 1.06959 0.480395 -0.15281 -0.694843 -0.321329 -0.0179639 1.43886 -0.691234 -0.0176931 -0.881713 -0.165434 -0.259696 -0.209405 -0.827695 0.645145 -0.749167 0.391805 -1.94357 0.710464 0.546985 -0.0493257 0.140375 -0.216889 1.13504 -0.861736 -0.585183 0.644028 -0.701919 0.245113 0.661092 1.83381 -0.541722 -1.11016 -0.376505 -0.138529 -0.516925 0.951594 -0.414795 0.484173 -0.989879 0.643797 -0.537696 0.414995 0.943079 -0.464007 -0.482536 -0.192991 -0.614987 -2.63503 1.5694 -1.0642 0.75105 0.49349 -0.588932 0.471171 -0.597118 -0.489355 1.17215 -0.422274 -0.417378 1.84714 0.646675 0.849226 0.579003 -0.150646 -0.197249 0.687976 -0.0772125 -0.908 0.731738 -0.765332 0.418963 0.194324 1.18802 0.619196 0.542213 1.02917 -0.885226 0.0621614 1.53996 1.15976 0.326542 -0.0735441 0.23823 -1.03032 0.349195 -0.412742 0.21386 -0.991107 0.553342 0.612336 -1.23052 -1.74468 0.183915 -0.209624 
0.471681 -0.330616 -0.741176 1.26983 -0.28942 1.18303 0.00920083 -0.864586 -0.240905 0.662146 0.838777 0.471528 -1.29847 0.524615 0.439982 0.69591 -0.886987 0.796741 0.939475 -0.1012 0.13212 0.29119 -1.59251 0.237736 0.618855 -0.410438 0.49711 -1.44947 -0.322571 -1.03589 -0.530709 0.553021 -0.252425 -0.172265 0.683463 0.982845 -0.514685 -1.12167 -0.0030371 0.140791 0.665814 -0.118516 0.470939 1.16175 -1.31805 0.528114 -0.410614 -0.183063 0.672216 -0.492696 0.145942 -1.71225 0.345241 -1.51126 3.04796 -1.40496 1.02266 -0.262179 0.353004 1.19848 0.415984 -1.29477 0.762475 -0.898295 0.471812 1.89622 0.770497 0.0276086 2.61077 -1.19738 -0.337104 0.813261 0.241304 -0.0537562 1.26336 1.0411 -1.18137 -0.339394 -0.893789 0.941208 -0.443082 0.729976 -1.65466 0.984695 2.20544 -0.453677 -1.27065 -1.5548 0.462312 0.918694 -0.719046 0.805852 -0.79964 -0.522933 0.738959 -0.51126 0.0664905 -1.13237 0.144761 0.317832 
-0.571075 -1.04307 -0.0368395 0.476351 -0.596731 0.170644 -1.11947 -0.487881 -0.507198 0.801008 0.405601 1.69177 -1.91905 0.543245 -0.228703 1.07711 -0.622265 0.736507 0.983655 -0.0245818 -0.261525 -0.285026 -0.658092 0.727375 -0.639933 0.553194 -0.416412 -1.79139 1.0266 0.32762 -0.540763 -0.725284 0.00471459 -0.929276 0.584062 1.2708 0.376758 0.417704 0.497186 1.06313 0.371704 -0.694786 -0.41196 0.81491 -1.11889 -0.270051 -1.84105 0.406263 1.42481 -1.34989 -0.733374 -1.76753 1.40457 -1.38101 2.25826 -0.416106 1.22695 0.436838 0.531328 1.24708 -0.104261 0.39403 1.85847 0.568713 -1.06438 1.63708 -0.602616 0.569113 1.66909 -0.998056 -0.0777776 0.858391 0.671063 -1.05709 0.433338 0.835656 -1.844 -0.11139 -1.05848 -0.346919 0.346329 1.91274 -0.0775728 1.03139 2.88851 0.0309979 -0.773005 0.184673 -0.404675 0.529083 -2.04791 1.27091 -0.3148 -1.21932 0.920395 0.436116 0.504512 -0.479944 0.354404 -0.425109 
-0.259945 0.286229 -0.799801 0.348239 0.274187 -0.0300862 -1.09973 -2.19584 -0.480083 1.28241 0.13003 2.08019 -0.437968 0.396924 0.33497 1.47639 -1.35463 -0.0461581 -0.305037 -0.0636015 -0.920353 0.15337 -0.194793 1.2693 0.643967 0.279213 0.895758 -1.00948 0.9924 -0.0371645 -0.538835 0.0847904 -0.810439 0.310304 1.59899 1.76936 0.00166521 -0.653613 -1.40029 1.14603 1.86425 -1.7179 -0.406057 0.481772 -1.16141 0.494833 -0.292518 -0.81458 -0.601097 -0.947122 0.701736 -2.48042 2.19444 0.302657 1.30289 -0.591297 1.32268 -0.808482 -2.2067 1.42858 0.475778 1.08791 0.764232 0.0424804 0.753234 1.76739 -0.507674 -1.05595 2.36172 0.0461779 0.68119 -0.0741889 0.433932 -0.280942 1.26638 1.15198 -2.66105 0.291324 -0.454988 -0.740938 1.34644 1.37973 0.0985231 -0.358005 3.15679 -0.239455 -1.65873 0.738399 -0.681321 0.469475 -1.2155 1.8136 0.320529 0.0164764 0.992999 -0.39023 -0.683639 0.651274 0.509163 0.371932 
-0.6349 -0.499963 1.06371 0.904017 -1.05451 0.746586 0.102416 -1.64411 -0.710505 1.27238 0.883771 0.0570358 0.705179 -1.47331 -0.68511 2.31006 -1.20516 -0.502642 0.86854 -0.0333903 -1.16497 0.727337 -1.23376 1.67631 -0.369312 0.91731 0.532431 -1.62025 -0.210953 0.692208 -0.294856 0.280052 -0.743238 -0.308664 1.48432 -1.30249 -0.149818 0.312161 -0.82837 1.31075 2.37766 -0.330716 -0.143643 0.631251 0.67215 -0.250593 -0.262829 1.22102 -0.315269 0.0807205 0.715702 -1.86565 1.50917 1.87704 0.826936 0.471713 0.127282 -0.409908 -1.15573 -0.170699 1.68718 0.361717 1.04856 1.05742 -0.561356 1.68738 -2.19569 -0.149508 2.33568 -0.27754 -0.586745 0.362176 -1.16161 -1.22516 0.326629 1.9123 -1.85451 -0.50684 -0.276008 -1.13599 0.13628 0.838528 0.549363 0.0607372 1.70211 1.02272 -3.91158 0.507967 -1.85266 -1.30848 -1.54593 1.98956 1.19691 0.0893501 1.46215 -2.01064 -0.128082 1.48982 -0.243288 0.70011 
0.464824 -1.0776 0.797984 -1.07949 -0.390709 -0.324508 -0.665243 0.326453 0.00103331 2.4846 0.295592 1.16667 -1.34924 -1.75325 -0.783487 0.550515 0.174581 -1.10688 0.627726 0.768149 -0.798297 0.284836 0.128144 1.9951 -0.893893 1.01916 -0.740042 -1.40065 0.38119 2.0759 -1.18683 -0.873988 -0.365627 -0.0976611 0.93925 -1.85704 0.232762 0.620296 -0.356343 1.56311 1.46797 -0.172107 -0.121811 -0.853557 0.426391 0.205464 -0.282291 0.354926 -1.33691 -0.682225 0.12741 -1.77104 0.376743 0.662794 0.37265 0.501639 -1.01219 0.427959 -2.83184 1.08744 1.43786 -0.384501 0.613952 0.743699 -1.50367 0.992988 -2.60339 -2.23007 1.66854 0.186542 0.0637656 -0.824298 -1.08392 -0.200629 0.194745 2.29057 -0.506273 -0.571261 -0.793515 -0.673621 1.49724 1.00621 -0.577275 0.807457 2.60511 1.63513 -5.05525 1.65029 -1.94402 -1.06686 -2.00898 -0.354012 1.83095 -0.253288 -0.510328 -0.0784535 1.10622 1.28907 -0.355451 -0.618894 
1.09029 0.0565663 0.721462 -0.890838 -0.694221 -0.81878 -0.129432 -0.70394 -0.376821 2.41476 1.24587 0.0153629 -1.42422 -0.450725 -1.45084 2.41089 0.339709 0.226683 0.526312 0.849569 -0.344183 -0.282306 0.60228 0.786319 -0.135859 0.619032 -0.649003 -1.48434 -0.311922 1.23283 -0.400827 0.91289 1.11169 0.687051 1.35662 -2.99615 -2.29233 -0.488598 -0.30649 1.52127 1.69175 -0.571439 -0.416218 -0.342275 0.795389 -0.19608 0.351437 0.747402 -0.777169 -0.382427 -0.156333 -2.60633 1.87256 0.740875 -0.644528 1.32565 0.653368 0.343784 -2.60854 0.145 1.69216 0.683415 -0.808347 0.742145 0.0785979 1.83158 -1.71054 -2.46082 1.42534 -1.1297 -1.00221 -0.011386 -0.23699 -0.0108081 -0.439686 1.03078 -0.824947 -0.793656 0.102444 -0.583199 -0.438169 1.62471 0.940176 1.24907 0.918826 0.494029 -4.12872 1.5529 -1.4514 -0.256948 -1.10754 -0.0271806 1.79572 -0.772615 -1.31964 0.457045 0.326868 0.256313 -1.95419 -1.38144 
1.78281 -1.14793 0.855441 -0.588598 0.542912 -0.951621 -0.835246 0.057323 0.467842 2.69723 1.39854 -0.0872833 -1.06556 -0.680609 -0.505422 0.700451 1.06592 -0.946281 -0.0890537 -0.584963 -0.871149 -0.330619 -0.659542 0.406973 -0.488317 -0.678024 0.995091 -1.34281 0.753849 2.92273 -0.0927352 0.0270607 -0.76219 -0.427254 0.823122 -2.0574 -1.84417 0.750215 -0.976178 0.34414 0.963434 -0.343354 -0.511685 -1.81888 0.070556 -0.670172 -1.015 0.557198 -1.97448 -0.769118 0.0339242 -2.02688 0.998525 0.37686 -0.844585 0.122883 -0.873329 -0.589696 -2.42373 -0.568749 1.44625 0.32254 -0.763195 0.711774 -1.34645 -0.763433 -2.7637 -2.15194 0.806178 -1.5338 -0.0922104 -1.18475 0.134302 0.940148 -1.06847 2.54155 -0.319981 -0.511778 -0.66682 -1.08425 -0.714594 1.30469 -0.0394318 1.41067 1.66158 1.3904 -2.44483 2.43794 -0.920835 -2.04471 -0.916555 -0.470687 0.0176762 0.181087 -2.65446 0.533087 1.295 -0.666384 -0.80202 -1.20949 
1.33604 -0.917391 0.317448 -0.780196 1.05414 0.683903 -0.0557647 1.51462 0.518663 2.94279 0.859364 -1.21869 -1.64717 -1.19537 -0.688199 2.35275 0.948813 1.36772 -0.289108 -0.652226 -0.678505 0.664843 -1.81163 0.446461 -0.306497 -0.33634 0.694463 -1.08074 -0.485086 1.29247 -0.782034 1.22299 -0.229419 0.726397 0.97038 -2.82375 -1.54406 0.24222 -1.43793 -0.0134812 0.182707 0.275722 0.521966 -0.439703 -0.801323 0.601554 -0.772414 0.995278 -0.42824 -0.93512 -1.65724 -2.29079 -0.530172 1.4355 -0.489458 0.572178 -0.924009 -0.525745 -2.44657 0.833817 2.79289 -0.831022 -1.11143 0.501608 -1.05774 -1.40835 -1.3872 -0.500835 0.902636 -0.313476 0.503345 -0.216466 -0.362373 0.299797 -0.685606 1.28011 -0.250714 -1.43771 1.63723 -0.16645 -0.504385 0.178971 -0.12924 1.92933 1.38188 1.8367 -2.28508 2.17754 -2.29294 -0.660811 -0.62676 0.669395 -0.102866 1.31934 -1.3356 0.347391 -0.106096 -0.28695 -0.49231 -0.301114 
0.750139 0.211657 -0.440848 -0.749818 1.0249 -0.526913 0.165212 0.620394 0.0841789 2.92527 0.298828 -1.03864 -3.19441 -0.948114 0.557539 3.46252 0.904487 1.33571 0.687257 0.0927037 0.67634 -0.0110507 -1.78042 -0.0134646 0.994511 -0.923149 -1.51559 -1.55244 -0.625423 0.777422 -0.423982 0.756603 0.45981 -1.22631 -0.187112 -1.97236 -2.59558 -0.73901 -1.83076 0.235167 1.00474 1.46927 -0.111855 0.116954 0.633301 -0.162993 -0.0669189 0.235973 -0.455011 -1.04339 -1.9885 -0.720182 -1.53733 -0.371557 -0.0538329 -0.0276924 -0.416597 -0.445631 -1.14657 1.42396 1.77065 -2.64181 -0.784797 -0.153116 -1.62833 -0.21928 -2.27503 0.00755554 0.00759503 -2.05758 -0.611763 -0.163445 1.84015 -0.283511 -1.13665 2.17244 0.205195 -0.30769 1.27175 -0.144538 0.183569 1.39273 -0.498195 2.03803 -0.167256 0.256904 -0.268426 2.33599 -0.401525 -1.26504 1.11849 0.88533 -0.835465 -0.42305 -2.59979 1.31304 -0.913267 -1.00592 0.82132 -1.32829 
-0.464416 0.144978 -2.11098 -0.469167 0.798292 0.657608 -1.24704 -0.265281 0.204137 1.8654 -0.148981 -2.55088 -1.66375 0.42816 -0.61909 1.56399 0.67644 1.22334 -0.19265 -0.443856 0.0466332 0.107768 -1.17007 -0.541576 1.41106 -0.328884 -0.923528 -2.0355 -0.3993 0.303328 -1.36956 0.197146 -0.603961 -1.08934 0.790829 -2.4127 -3.00427 -1.28042 -1.07144 -0.955978 0.0560599 0.888481 0.632345 -0.883274 -0.241652 -1.51004 -0.584505 -0.179266 0.435742 -0.760888 -3.07638 -0.945031 -0.351902 0.0690843 -0.844559 -0.562728 0.00960936 -0.336286 1.01075 0.252593 0.973978 -1.5074 -0.703588 1.29723 -1.91372 -1.08778 -1.61807 -0.437851 0.729825 -1.45731 0.348546 -1.83349 0.645628 -1.04576 -2.4049 1.40915 0.854244 -0.367472 2.61846 0.565259 -0.195997 -0.462171 -1.12318 -0.374187 -0.246633 1.08128 0.858697 3.83871 -0.449619 -0.245353 2.33573 0.429829 -1.04939 0.494559 -1.06935 1.38564 -1.50577 0.392172 0.0668504 -0.477662 
-0.374554 0.327183 -0.349715 0.544517 0.381652 1.33727 -0.846667 0.506956 1.14054 1.12944 1.64825 -2.36476 -0.693697 -0.938512 0.431063 0.859629 -0.0193803 -0.00376952 -0.34194 -1.32315 1.37343 -0.905253 -2.04703 -2.10861 0.68007 -1.24443 -0.732282 0.392572 0.712569 -0.781237 -0.951453 -0.964689 -1.82546 -1.65818 0.439588 -0.398453 -2.43207 -1.01075 -1.41468 -0.623178 -0.673784 -0.267187 -0.639501 1.05251 -0.111364 0.365095 -1.27382 -1.1368 -0.884721 -0.713038 -2.89069 -0.778563 -1.37986 -1.64318 -1.15943 0.102084 -0.575467 -0.0233679 1.90124 -0.545311 1.25917 -3.48627 -1.23118 -0.580149 -1.45644 -1.72034 -1.23749 -0.330514 0.0334554 -1.18785 -0.373016 -0.805133 2.15995 -1.48902 -1.06228 0.0912389 0.978447 -2.4153 1.25056 1.47592 -0.25805 0.385138 -0.134306 0.651441 -0.301486 1.28901 1.4975 3.71129 -0.31002 -0.260304 2.23443 -0.584723 -1.13604 0.00125651 -0.745001 1.68735 -1.33794 -1.41086 0.15222 0.214964 
-0.356237 2.1142 0.212124 0.0780511 -0.112246 0.00890133 -0.204405 0.212739 0.693577 2.20276 1.43241 -1.94746 1.10153 -1.00489 -0.62518 0.158544 -0.959025 1.46401 -1.68818 0.275693 0.550662 0.0387 -0.963022 -1.57275 1.13504 -0.991684 -0.612892 -0.467773 0.9762 -0.562767 -0.299992 -0.679664 -1.71832 -1.43573 -0.699397 1.31108 -0.866712 -0.392743 0.183658 -0.3756 -0.95091 0.491086 0.329355 0.182575 -0.0908886 -0.904586 -0.992143 -0.843353 0.426738 -0.0083082 -2.66393 -0.373243 -0.415195 -2.15742 -0.81217 -1.42477 0.493413 0.411845 1.3228 -0.508756 -1.30347 -3.10491 0.966799 -0.274127 -0.204027 -0.754929 -0.769627 -0.317007 0.504146 -0.84672 -0.297074 -2.14948 1.33168 -2.15465 -0.269765 0.0961617 0.607078 -2.40801 1.6863 1.10783 -0.725623 -0.879755 0.584506 -1.38883 -0.191279 0.997635 1.19636 1.60948 -0.252269 0.248396 1.16707 -0.731609 -0.623899 1.01938 0.317203 -0.118848 0.00809101 -0.170433 -0.500538 0.206846 
-0.215753 1.70618 1.78846 -0.61649 1.24968 0.629124 -0.858174 -0.00515296 1.65725 -0.0879022 0.028087 -0.628313 0.958322 -0.582333 0.407106 -0.546504 -0.240675 0.174155 -1.53026 -0.981674 0.464011 -1.74252 -0.538315 -1.62622 0.334928 -2.08604 0.202358 0.76401 0.346442 -0.566763 -1.8945 -1.16734 -1.48787 0.0870656 0.821908 0.926243 -0.685416 0.168834 -0.698528 0.384749 -2.73163 -0.0952838 -0.116163 0.756634 -0.279543 -0.341623 -1.15481 1.1628 -0.229667 -1.51007 -0.859371 -0.0959389 -0.550455 -2.74907 -0.42089 0.128311 0.66333 -0.0581576 1.22349 0.916916 -0.495044 -1.74985 0.164194 -0.00739457 -0.125518 0.469225 0.105474 -0.654549 -0.366532 0.88302 0.144106 -1.69985 1.70096 -2.1849 0.324057 0.428678 0.658771 -2.41908 0.436825 1.88688 -0.937947 -0.442214 0.3516 -0.580082 -0.587117 0.601251 0.257578 1.94324 0.950602 1.53654 0.622517 -0.875767 -0.204094 -0.545841 -0.861752 1.12309 0.870323 0.753292 -0.815545 -0.424916 
