Network weights:
7
784 100
0.235975 -0.195876 -0.782073 -0.681692 -0.569711 0.975367 -0.571636 0.280567 0.392511 0.127934 -0.467954 0.175437 -0.981532 0.308406 -0.849892 0.740902 0.32094 -0.323032 0.936867 -0.261361 -0.708255 -0.114574 -0.708076 0.175173 0.125986 -0.14711 -0.805002 0.565363 0.590379 -0.987747 -0.749971 -0.173646 -0.183623 -0.532044 0.144662 0.246666 -0.556677 0.573025 -0.472767 0.835835 -0.29904 0.0592789 0.0112711 -0.280572 -0.632315 0.161379 -0.539671 0.688624 0.838348 -0.602804 -0.572737 -0.869907 0.282623 -0.280814 0.305266 -0.591392 0.572076 0.500264 0.973971 0.162455 0.512517 -0.776 0.988809 -0.671106 -0.308043 0.133471 0.575559 0.13528 -0.293504 -0.897208 -0.0288854 0.407456 0.162071 0.982386 -0.873116 0.529756 0.143765 -0.412787 0.21838 -0.0178874 -0.0155907 0.645643 0.112206 -0.732968 -0.635171 -0.582529 -0.32436 0.936906 0.917735 -0.350389 0.0993607 0.430251 -0.126388 0.0881699 0.759145 0.565568 -0.778359 0.334704 -0.299152 -0.0718633 
0.437497 0.671963 -0.664408 -0.400432 0.654348 -0.537524 -0.870676 -0.201887 0.0496889 0.347704 0.780226 -0.965902 -0.00665278 -0.107568 -0.69887 0.358177 0.309903 -0.0232297 0.295082 0.227638 0.626382 -0.605557 -0.342111 -0.500007 0.482613 -0.582966 -0.934438 0.704254 0.751738 -0.23359 -0.36761 0.189235 -0.561627 -0.0320173 0.788804 -0.907279 0.430459 0.918128 -0.109166 -0.519853 0.265832 -0.32894 -0.485754 -0.740821 0.563492 -0.184624 0.617356 -0.126605 0.792146 -0.0875617 -0.898968 0.418528 0.306881 -0.241079 0.918521 -0.210506 0.175955 0.984083 -0.506252 -0.0723069 -0.249507 0.126138 -0.883072 0.188865 -0.905879 0.905732 0.281586 0.524579 0.82386 -0.827579 -0.995273 0.089692 -0.156519 -0.481028 0.348871 -0.593027 0.334348 -0.0337727 0.280368 0.126494 0.878666 0.3814 -0.454978 0.185547 -0.859679 -0.536457 0.975041 0.316276 -0.552374 -0.531211 -0.756031 0.198119 0.594927 -0.639103 -0.613016 0.689048 -0.733371 0.66857 0.213627 -0.909511 
0.840991 0.218354 0.180181 -0.315528 0.737326 -0.470948 0.0914454 0.0716745 0.49528 -0.628187 -0.801831 0.373945 0.753213 -0.256809 -0.440508 0.893534 0.206734 -0.465467 0.209809 0.65436 0.00332237 0.453778 -0.147521 -0.401751 0.814675 0.239463 -0.712703 -0.918696 -0.0919662 0.500924 -0.828207 -0.250975 -0.280722 0.351974 0.433497 -0.543395 0.881026 -0.475057 0.528279 0.376306 -0.103244 0.726448 -0.249748 -0.350032 -0.530361 0.309744 -0.456498 0.676373 0.844277 0.753311 0.330734 -0.1524 0.207089 -0.816787 0.445849 0.0217634 0.422676 0.733146 0.103067 -0.66929 0.234071 0.27486 0.0797348 0.953349 -0.373166 -0.486768 -0.590047 -0.49214 0.0381748 0.938232 0.884167 0.93493 0.66468 -0.365582 -0.415101 -0.865681 0.944162 0.128401 0.810692 0.788439 -0.118288 0.141426 -0.363961 -0.9112 0.324639 -0.918112 0.110564 -0.252685 0.815034 -0.786369 0.0780246 0.0491049 0.488491 -0.842241 0.00245365 -0.884675 -0.329008 0.412407 -0.376814 0.709166 
0.35064 -0.492653 0.644095 0.0153193 0.141775 -0.771004 0.149638 0.0859327 0.357396 -0.0396904 -0.125629 -0.760892 -0.898242 0.510411 -0.672091 0.426396 0.5923 0.438468 -0.826288 0.407333 0.652104 0.251736 -0.543562 0.140596 0.409495 0.458892 0.255919 -0.919514 -0.128701 0.879105 0.789652 -0.77806 -0.613546 0.433745 0.237258 0.52822 0.662746 -0.613108 -0.38584 0.0201409 0.347228 0.488569 0.259249 0.448985 -0.00105641 0.587114 -0.124628 -0.408753 0.0256299 0.0490908 0.998568 -0.322268 -0.699174 -0.544988 0.818372 0.71032 0.913907 0.0742474 0.790807 -0.214794 -0.0466467 0.580458 0.00714415 0.339868 0.0142178 -0.755598 -0.131961 -0.323051 -0.368697 0.4822 0.697093 0.978528 -0.0292474 -0.043662 0.427511 0.969677 -0.456501 -0.697107 -0.439092 0.569134 0.352003 -0.440484 -0.753142 0.65279 0.0145196 -0.934813 0.36313 -0.0715829 0.139438 0.153937 0.713623 -0.90721 -0.265604 -0.279243 0.432622 0.748602 -0.0348309 -0.699365 -0.574446 0.596469 
0.782852 -0.878552 0.578783 -0.241833 0.0543361 0.00167622 -0.275584 0.626567 0.30475 0.283256 0.189532 -0.342614 0.844078 0.437215 -0.689341 -0.141605 0.504813 0.67338 0.775498 -0.356962 -0.173086 0.497873 -0.25945 0.577333 -0.778987 -0.830324 0.310929 0.186128 -0.532936 0.735789 -0.217771 -0.751727 0.85804 -0.642614 0.00554561 -0.0623316 0.360931 0.727587 -0.431121 -0.335176 0.0129096 0.754828 0.329117 -0.143281 0.189992 0.628908 0.716581 -0.30761 0.308119 0.501331 0.336042 -0.864917 0.00155475 -0.927205 0.699617 0.22441 -0.762244 0.00410559 -0.589643 -0.287433 -0.25754 0.191377 -0.0376743 -0.393596 0.550549 0.970673 0.537977 -0.0793695 0.696615 -0.901904 0.576639 -0.291596 0.849712 -0.103209 0.566177 0.0390231 -0.469333 0.308606 0.731838 0.810281 -0.215354 0.0717509 0.972006 0.782398 0.140729 0.666023 0.0063651 0.379846 -0.33027 0.414989 -0.906236 0.413121 -0.394708 0.0568383 -0.98601 -0.844465 0.0238233 0.535053 0.052873 -0.279602 
0.644356 -0.363095 0.451037 0.494712 0.496507 -0.00608549 -0.453742 -0.927089 -0.726225 -0.703348 0.906801 0.0555772 0.33786 0.86888 -0.161487 -0.517202 0.517291 0.853613 0.839765 -0.788145 0.263539 0.953917 0.635002 0.88838 0.0139241 0.642258 -0.968793 -0.95962 0.182759 0.0987439 -0.244679 -0.189599 0.729178 -0.807303 -0.664264 0.256326 0.180039 -0.136452 0.349018 0.458424 0.117357 0.243912 -0.471957 -0.516701 0.115281 0.373608 -0.026102 -0.337204 0.222987 -0.186172 -0.12779 -0.518326 -0.226519 -0.480646 -0.639517 0.789309 -0.890598 -0.618943 0.817271 0.334619 0.482941 -0.416022 -0.839896 0.21147 -0.230138 -0.487151 -0.511049 0.964822 0.364656 0.819905 0.413774 -0.505231 0.0310372 0.931608 -0.0147322 -0.827336 0.294232 0.965256 -0.163788 -0.525749 -0.247965 0.709548 -0.00216372 0.532122 -0.796138 0.342571 0.306197 -0.66512 0.714722 0.120863 0.67201 0.213272 0.70624 0.835035 -0.568723 -0.503252 -0.670776 -0.121771 -0.586062 0.68418 
-0.296508 0.841988 -0.785569 0.773149 0.754637 0.187815 0.957111 0.0807837 0.115674 -0.166041 0.608952 0.862977 -0.514021 -0.417865 0.386041 -0.29785 0.906325 -0.287769 0.0144434 0.689149 0.834662 -0.309177 -0.0903383 0.554223 -0.477319 0.325501 -0.96378 -0.138957 -0.782446 -0.530153 -0.452994 -0.0832677 -0.688883 -0.250878 -0.277085 -0.938334 0.930776 -0.339563 0.177374 0.0457362 0.423451 -0.233914 -0.0737556 0.948703 0.35135 -0.675959 -0.364129 0.31111 0.0245486 0.654029 -0.00311169 -0.153126 -0.646543 0.918341 -0.587098 -0.115992 0.182089 -0.566632 0.728775 0.431089 -0.0756539 -0.703477 -0.634923 0.215745 0.0367885 0.10081 0.315859 -0.0272738 0.7661 -0.504071 -0.992635 0.186574 0.217483 -0.0753363 0.151282 -0.406733 0.227809 0.799468 0.917985 -0.763769 0.438877 -0.084216 0.0922687 0.801791 -0.211022 0.485985 -0.345522 1.01502 0.913371 -0.620538 0.439874 -0.159245 -0.326591 0.781626 -0.933041 0.750507 -0.121188 0.365943 -0.341335 -0.396278 
0.847425 -0.301726 0.840326 0.104514 0.622103 -0.0134233 0.716226 -0.130442 -0.25379 0.639645 0.133558 -0.820535 -0.466936 -0.789718 0.958541 0.321655 0.680015 -0.367227 0.304592 0.665295 0.0267252 -0.264866 -0.506335 0.699271 -0.481534 -0.438429 0.42769 0.398813 0.939335 -0.885499 -0.968866 0.770996 -0.193155 0.850332 -0.0968337 -0.595567 -0.16555 -0.383855 0.312906 0.574842 -0.774474 -0.569279 0.758211 -0.216774 -0.356177 0.730179 -0.909635 -0.629754 -0.630598 0.414906 -0.978808 0.385267 -0.851983 -0.460648 0.0961871 -0.329489 0.0908165 -0.482881 -0.947851 0.0295701 -0.364124 -0.919637 -0.17702 0.42866 0.93635 0.737663 0.878937 -0.240123 -0.660383 0.182403 -0.65982 -0.418507 0.599598 -0.901927 0.371303 -0.747263 0.822765 0.47294 -0.384877 -0.803389 -0.108212 -0.359315 0.569204 0.0368685 0.162945 -0.349331 0.690541 -0.749524 0.189929 0.754888 0.284228 0.82005 0.854489 -0.899704 0.252638 0.790492 0.825326 0.12573 -0.447515 -0.84943 
-0.697154 -0.102922 -0.235198 0.915017 -0.00712247 -0.859233 -0.836295 -0.166092 0.596657 -0.22762 0.0343012 -0.510482 0.41345 -0.410059 0.51777 -0.425856 0.248328 0.227378 -0.190953 -0.535231 -0.00250805 -0.895802 -0.741382 -0.154567 -0.803165 0.537729 -0.365537 -0.977472 -0.327575 0.211194 -0.814412 -0.0543214 -0.919963 -0.0634783 -0.111793 0.0672309 0.0697792 0.0517725 0.923712 -0.343611 0.805697 -0.0632529 0.147562 0.245477 0.530491 -0.32757 0.813625 -0.192981 0.922962 -0.358017 0.262548 -0.0945131 -0.259443 0.559191 0.75435 -0.0611971 0.0882641 -0.614304 -0.0532793 0.757516 0.579038 0.136206 -0.271411 0.645759 -0.917373 0.627811 -0.244651 0.136934 -0.333023 -0.34591 0.803915 -0.504527 0.582389 -0.0476452 0.747267 0.116939 0.628221 0.553056 0.919237 0.541674 -0.792568 0.179968 -0.554194 -0.0526739 -0.269263 -0.808083 0.874791 0.806358 -0.397075 -0.166029 0.573935 -0.822902 0.991095 -0.693971 0.836956 -0.936526 0.92194 -0.42888 0.210126 -0.418501 
0.229019 0.0116281 0.101083 -0.1886 0.963554 -0.148289 0.927911 0.605133 -0.597198 0.836698 0.154984 -0.387925 0.024095 0.595439 0.552773 0.753072 0.798779 0.436613 0.556197 -0.588285 -0.716454 0.144262 -0.435957 -0.732576 0.43797 -0.575035 -0.672829 0.358925 0.0068256 0.558136 0.947813 -0.789053 -0.460567 0.0416025 0.041028 -0.496966 0.888295 -0.0333234 -0.88397 -0.716384 -0.206107 0.26152 -0.103207 0.839962 -0.136307 -0.542439 0.585396 -0.32349 0.908332 0.157903 0.0839091 -0.820646 -0.703153 0.690239 -0.550798 0.735668 -0.891815 -0.222402 0.084106 0.104025 -0.687701 0.0403963 0.330948 -0.157831 -0.912613 -0.619557 0.377164 0.96563 0.342671 0.475596 -0.743519 -0.845277 -0.265985 0.156641 0.997818 0.597784 0.609082 0.585473 -0.728174 0.512727 -0.249101 0.35461 0.694252 0.0465978 0.031985 -0.857321 -0.222423 0.124775 -0.0641216 0.867202 -0.763959 0.245324 -0.0818486 0.56932 -0.898128 0.00389081 0.946044 0.459393 -0.0281754 0.279754 
-0.0608763 0.224802 0.449496 0.670316 -0.611391 0.449847 0.268321 0.996351 0.0342332 0.534587 0.510856 0.785028 -0.104903 0.213536 -0.168112 0.925129 0.366942 0.607689 0.0564835 -0.699754 0.483085 0.292761 0.535241 -0.601254 -0.142999 0.646023 0.396734 -0.199629 0.112213 -0.62926 -0.916781 -0.951433 0.585475 0.533786 0.718902 0.965805 -0.0176545 -0.0106237 0.961857 -0.985392 -0.473199 0.480031 0.800968 0.424005 -0.302458 -0.367162 0.345122 -0.938537 -0.753944 -0.59809 -0.635808 0.726343 0.695134 0.911468 -0.872413 -0.447337 0.562676 0.523253 0.351457 -0.331979 0.887397 0.437087 -0.283686 0.469692 -0.0267075 -0.566133 0.437527 0.953597 0.424324 0.407944 0.969878 0.952783 -0.107492 0.771298 0.376628 0.578861 -0.598399 -0.274035 0.649046 -0.35371 0.13506 -0.986351 -0.623474 -0.175343 0.929451 -0.49596 0.377539 0.481633 -0.968931 -0.269186 -0.849415 0.916096 -0.832025 -0.134354 0.390832 0.140595 0.302843 -0.168452 0.095403 -0.273597 
-0.759146 0.0621811 -0.319899 0.130188 -0.166959 -0.941816 -0.284466 0.237626 -0.218446 -0.636691 0.886892 0.91342 -0.621759 -0.737703 -0.261167 -0.697293 -0.233354 -0.882862 0.784721 -0.204841 -0.153697 0.934499 -0.288893 0.0130058 -0.20024 -0.899101 -0.848088 -0.898826 -0.0659325 0.244471 -0.172812 0.175195 -0.694766 0.507595 -0.694059 0.139087 0.564645 0.0206499 -0.622072 -0.652885 0.38544 -0.737523 -0.741032 0.763987 -0.475417 -0.00241375 -0.933352 0.291204 0.116859 0.85189 -0.913873 0.962104 0.78582 -0.203213 -0.0249271 -0.414242 -0.10088 0.127054 -0.313196 0.833466 -0.629053 0.514023 0.00863542 -0.323197 0.0234901 0.313881 0.81593 -0.41412 -0.66464 -0.807404 -0.0667707 0.721016 -0.545065 0.193036 0.485016 -0.0208222 -0.807234 0.550839 -0.729099 0.308776 0.40318 -0.643406 0.27105 0.18897 0.154698 -0.754808 0.774763 -0.946463 0.373172 -0.538415 0.88648 0.744139 0.977721 -0.104869 -0.578966 -0.0031216 -0.790186 -0.763291 0.583938 -0.454946 
-0.570229 -0.483043 -0.733895 -0.11548 0.710255 0.750762 0.864061 0.903327 0.302488 -0.865567 0.212159 -0.294044 -0.50873 -0.516725 0.894882 0.646004 -0.270669 0.669727 0.699436 -0.897747 -0.86871 0.586143 0.846994 -0.892703 -0.518358 -0.732658 0.104731 -0.308657 -0.495726 -0.311725 0.236345 -0.0658633 0.205485 0.502162 0.819318 -0.0840774 0.253386 0.682505 -0.180914 -0.443914 0.817003 -0.968942 0.262294 -0.691722 -0.485507 0.156795 0.95412 0.243698 -0.173636 0.653497 0.3458 -0.0421222 0.239895 0.192722 0.0647929 0.721636 0.459554 -0.830235 -0.586778 0.963715 -0.14169 0.649248 -0.101602 -0.936275 0.152124 -0.283049 -0.0205171 -0.595027 -0.600434 0.799189 -0.0390253 -0.783458 0.829733 -0.777396 -0.475259 -0.655532 0.379826 -0.521099 0.588095 -0.793632 -0.867538 -0.0657862 0.164062 0.37265 -0.873502 -0.770831 0.09381 0.586138 -0.601389 0.506724 0.55007 0.257115 0.156187 -0.551475 0.320653 -0.692361 0.165864 -0.6999 -0.287295 0.565462 
-0.901311 0.67401 0.784824 0.929974 0.896515 -0.693549 -0.727884 0.276718 -0.214722 0.862501 0.483095 -0.0812112 -0.204444 -0.353117 -0.709548 -0.0778801 -0.124012 0.38409 -0.491771 0.274737 -0.108738 -0.941346 -0.467323 -0.953089 -0.492355 0.852812 -0.645275 0.673581 -0.847366 0.0669083 0.238956 -0.748337 -0.258875 0.0206168 -0.819232 -0.36227 0.327366 -0.545975 0.915364 -0.887216 -0.68661 0.396246 0.0313418 0.109962 -0.95601 0.32059 -0.967947 -0.080084 -0.295042 -0.459734 -0.805169 0.595908 -0.400903 -0.270964 0.642738 0.106693 -0.420459 0.997525 -0.219581 -0.267594 0.0646209 -0.980987 -0.0159145 0.805925 0.039363 0.164232 -0.556342 -0.632799 0.617663 -0.641414 -0.520175 0.931656 0.754419 0.511074 0.0422694 0.798359 -0.168334 0.0744225 -0.282104 0.537184 0.61341 -0.0868666 0.13259 -0.787054 0.639952 -0.223383 0.320238 -0.780547 -0.227242 -0.899721 -0.0478167 0.837843 -0.8806 0.936222 0.643715 0.159104 0.100426 -0.911807 0.526337 -0.281973 
-0.558749 -0.994474 -0.3498 -0.800725 0.519119 0.696481 0.997382 -0.650092 -0.233747 -0.286252 0.892859 -0.618559 0.629356 0.0177024 -0.405653 0.268917 0.794701 0.912009 0.48839 -0.433532 -0.985166 -0.558348 -0.601846 -0.86551 -0.622466 -0.950556 0.293727 0.478807 -0.862893 -0.171785 -0.803919 -0.419979 -0.172851 -0.153824 -0.220238 -0.656151 -0.460187 -0.223778 -0.302407 0.303033 0.493452 -0.421915 0.687155 0.12512 0.593039 -0.725645 -0.604994 0.388652 -0.799085 0.887209 0.958456 -0.790347 -0.674601 -0.645002 -0.653022 -0.296409 -0.591444 0.637759 -0.819676 -0.457484 -0.540311 -0.624752 0.126353 0.282147 0.223672 0.904516 0.629306 0.762561 -0.315173 -0.677055 0.0660817 -0.821083 -0.101099 -0.246091 0.302882 -0.504143 0.0350637 0.698427 0.884885 0.22889 0.58405 0.839578 0.439913 0.90938 -0.801159 0.786976 -0.390077 -0.39159 0.428975 -0.204755 0.151927 0.886985 0.175097 -0.725654 0.171947 -0.60879 -0.819422 -0.195246 -0.840819 -0.135139 
0.108285 0.217707 0.038365 -0.976569 0.988226 -0.642216 -0.488542 0.0139818 -0.95379 -0.598978 -0.735768 0.627261 -0.755283 0.685261 0.534646 -0.556211 0.474664 -0.853787 0.0535048 -0.0990797 -0.065097 -0.795173 -0.210756 -0.890877 -0.518948 0.971596 -0.49619 -0.336045 -0.233123 -0.33699 0.528838 0.890938 0.885972 -0.433327 0.918058 0.862039 -0.0833249 -0.577937 -0.116799 -0.040256 -0.160766 0.118741 -0.39794 0.0886853 -0.214843 -0.891271 0.531935 -0.723412 -0.716376 -0.401474 0.193343 0.210721 -0.207929 0.950108 0.330362 0.273616 0.923795 0.821883 0.940513 -0.312856 -0.515461 0.458847 -0.40157 -0.63468 -0.966827 -0.496656 -0.768132 -0.051639 -0.0469076 0.11489 0.895735 0.78639 -0.774289 -0.50015 -0.127514 0.0310367 -0.374486 -0.590773 0.303406 -0.101299 0.00273064 -0.518833 -0.902394 0.795956 -0.557653 0.425249 0.0570281 -0.628899 0.247933 -0.00615757 0.0640509 0.731708 -0.532256 0.634314 -0.901582 -0.513019 -0.842687 -0.656744 0.440827 0.0966266 
0.426704 0.334774 -0.123672 0.668803 0.844383 0.764246 -0.316712 -0.509148 -0.843725 0.986652 0.39371 0.154094 -0.526321 0.475509 -0.0610304 -0.0796983 -0.095234 1.00204 0.290373 -0.845948 -0.0110839 -0.649388 0.890019 0.450091 -0.998938 1.00307 0.941202 -0.843977 -0.665157 0.377764 0.250727 0.772212 -0.267755 -0.874324 0.444917 -0.42178 0.885039 -0.878546 0.0691794 -0.960694 -0.870379 -0.574351 0.21161 -0.394305 0.883704 -0.886648 0.528329 -0.200714 -0.861945 -0.181868 -0.0214925 0.122823 0.160424 -0.153345 -0.415009 0.169255 -0.165768 -0.487198 0.319769 0.172183 0.909868 -0.439714 -0.0377897 -0.374358 -0.292213 -0.601215 0.21895 -0.420051 -0.451561 -0.716307 -0.392682 -0.332807 -0.306985 0.808535 0.269375 -0.394448 0.950647 -0.205486 0.399674 -0.913138 0.613755 -0.635022 0.188984 -0.222659 0.207478 0.775971 0.918874 -0.943046 -0.704976 0.24857 0.236117 -0.818063 0.832463 -0.82289 -0.191604 -0.484197 -0.404736 -0.964687 0.102963 0.123665 
-0.710291 0.687793 0.799977 -0.00290014 0.518425 0.0561469 0.577084 0.507 0.845244 -0.0322205 0.569551 0.465083 0.337187 -0.236019 -0.774042 -0.453025 -0.459514 -0.831336 -0.387339 -0.181384 0.410745 0.840907 0.0126119 0.23008 -0.965837 0.824069 0.749657 -0.375574 0.857196 -0.154694 0.746003 -0.869719 -0.426813 0.539039 0.128558 -0.890906 -0.393076 -0.301099 0.620703 -0.550259 0.68512 0.162692 0.917996 0.0192934 0.916374 -0.894703 0.578783 -0.546727 -0.710129 -0.828391 0.302075 0.704685 -0.988615 -0.671349 -0.0658729 -0.944031 -0.887632 -0.320391 -0.350028 0.983012 0.551766 -0.587278 -0.875268 -0.89316 0.99207 0.258593 -0.760733 -0.439169 0.967347 0.839525 0.00861879 0.644444 -0.0212773 -0.0905085 -0.344339 -0.0694033 0.0582066 -0.786299 0.370082 0.353232 -0.598035 -0.338037 0.0377196 -0.585545 -0.038642 0.990924 -0.554062 0.0922159 -0.326338 0.134168 0.080609 -0.806278 0.562163 0.213701 -0.698575 0.513392 -0.533788 -0.470901 -0.91863 -0.574584 
-0.657085 0.0653426 -0.923 0.334237 -0.999908 -0.276652 -0.770123 0.0781708 -0.0499066 0.59463 -0.586276 0.362763 -0.737617 0.461568 0.76953 0.22812 0.442419 -0.760389 -0.666184 -0.907303 0.367401 0.408987 -0.704436 -0.0752661 -0.378877 -0.404866 -0.556805 0.0872307 0.122508 -0.483036 0.511206 0.450347 0.610466 0.581669 -0.214874 0.620687 -0.685662 0.00958606 -0.296273 0.263077 -0.384915 0.102909 -0.375278 -0.125132 -0.442068 -0.629835 -0.888978 -1.00268 -0.379832 -0.570633 -0.887796 0.993777 0.837778 -0.580998 -0.0840401 -0.535503 -0.0168574 0.358127 0.531059 -0.883718 0.889719 0.057688 0.576546 0.490074 -0.334987 -0.635096 0.124662 -0.0470569 0.378976 0.814683 -0.78398 0.990075 -0.0969395 -0.169955 -0.140139 0.484261 0.228864 -0.0473104 0.471762 0.852636 0.395915 0.577176 0.834119 0.234282 0.974537 -0.238133 0.686851 -0.0307527 -0.881932 0.240844 0.0909662 0.992417 -0.695353 -0.324737 0.482986 -0.058155 0.03463 -0.401353 0.897489 -0.59099 
-0.60289 -0.887729 -0.606604 0.299785 -0.0516289 0.259432 -0.228839 -0.822622 -0.774275 -0.759589 -0.972424 0.621935 0.821159 0.867739 -0.145441 0.796756 -0.377199 -0.449803 -0.225794 -0.264736 0.789629 0.865627 -0.27228 -0.907147 -0.462657 -0.789275 0.0366234 0.570882 -0.193438 -0.0671925 0.983435 0.204298 0.0460031 -0.622238 -0.493149 0.994862 0.636717 0.275804 -0.827716 0.860633 0.519246 -0.800079 0.482108 0.336185 -0.932409 -0.662895 0.134186 -0.31137 -0.114525 0.90686 0.424544 -0.324649 0.773753 -0.847226 -0.232231 -0.690076 -0.636375 0.804663 0.881261 0.169697 -0.262155 0.861604 -0.625059 0.778222 -0.76101 -0.118859 0.778693 0.874494 -0.843157 0.950023 0.736185 0.674615 -0.850089 0.217085 0.0110571 -0.78233 0.552422 -0.853543 -0.0928764 -0.560062 -0.94663 -0.665511 0.115131 0.825894 -0.511818 0.882922 -0.864162 -0.150271 0.686706 -0.983048 -0.974331 -0.574277 0.876468 -0.606391 -0.791409 -0.8833 0.276442 0.98555 0.990023 0.435092 
0.935459 0.725512 0.10289 -0.91377 -0.0556007 -0.881115 -0.701453 -0.501466 -0.728114 0.217617 -0.0602041 -0.679196 0.545785 -0.944318 -0.854893 -0.968597 0.941662 -0.717213 -0.127624 0.623739 -0.702137 -0.100476 -0.946302 -0.822287 0.300006 -0.741054 -0.707729 -0.426549 -0.752507 -0.714691 -0.990659 -0.816989 -0.987261 0.114812 -0.730332 -0.0400463 0.237225 -0.426772 0.457731 0.499702 0.788435 -0.602112 0.823633 0.327764 -0.546206 0.969253 0.360517 -0.60989 -0.75577 -0.762331 -0.980758 -0.455458 0.140564 -0.934275 -0.280625 -0.563923 -0.669364 0.0124958 0.00395616 -0.419634 0.296818 0.0189033 -0.242743 0.30293 -0.871854 0.0297604 -0.733201 0.362535 0.602708 0.722962 -0.138917 0.388046 -0.879531 -0.318928 -0.282822 -0.42301 -0.355148 -0.922563 -0.0346127 -0.108863 -0.684582 -0.016981 0.438305 0.458005 0.0596778 -0.840359 0.895439 0.387609 0.170936 -0.0989867 0.97257 -0.526184 0.909315 -0.276515 0.7774 -0.961199 0.756196 -0.956434 0.398302 0.362066 
0.769144 -0.738108 -0.254525 0.885852 -0.0583354 0.464651 -0.538734 0.586997 0.543898 0.434885 -0.515637 0.852436 -0.579711 0.918991 0.308203 0.476941 -0.917835 0.201283 -0.137672 0.243931 -0.908276 -0.169077 0.728687 -0.987696 0.559706 0.500979 -0.950336 0.315004 0.545366 0.450207 -0.327848 0.312177 0.712321 0.423626 0.203516 -0.344558 -0.112835 0.670312 -0.757266 -0.572471 0.101377 -0.273833 -0.713795 0.5159 -0.347045 0.598384 0.00456359 -0.266928 -0.205559 0.851331 0.987268 -0.100814 -0.311858 0.71297 -0.0935702 -0.755832 0.213958 -0.0418823 0.559028 -0.241976 -0.582402 -0.759483 -0.930398 -0.885191 0.657491 0.275155 -0.224247 -0.455485 -0.063445 0.0205 -0.0281017 -0.960242 0.749642 0.256797 0.554358 -0.598033 -0.153028 -0.449279 0.134498 0.64247 -0.595986 0.1256 -0.451652 0.0922234 -0.157557 0.458235 0.337557 -0.950121 -0.586566 -0.1045 -0.181866 -0.173063 0.125989 -0.119256 -0.0546892 -0.214083 -0.843421 0.717943 0.320379 0.0938585 
-0.262267 -0.698097 0.132618 -0.511976 0.55875 -0.313727 -0.108413 -0.58863 0.232921 -0.970724 -0.938821 0.636365 0.156261 -0.391762 -0.273097 0.995363 -0.936008 -0.937865 -0.95174 -0.521523 -0.0439721 -0.139474 0.30157 -0.916041 0.743389 -0.755286 -0.131381 0.899778 0.962717 -0.801975 -0.00471209 -0.299549 -0.500504 -0.872574 0.188842 -0.941717 -0.186273 -0.919916 -0.530337 -0.953491 -0.8906 -0.469565 0.682866 0.265556 0.139112 -0.589839 0.261302 0.203073 -0.528217 0.309209 0.681565 0.427887 -0.830648 -0.0172451 0.511726 0.912775 0.22794 -0.619596 0.812598 0.190384 -0.421876 -0.192386 0.890932 0.0768697 -0.0652514 0.0796643 0.135919 0.748861 0.15969 0.605627 0.795357 0.269075 -0.863593 0.478125 -0.465416 0.275545 0.888031 0.795767 -0.521293 -0.640207 0.104766 -0.839808 0.787777 0.274117 0.143462 0.300724 0.186797 -0.628674 0.679752 -0.000512587 0.561834 -0.741967 0.807713 0.452405 0.335646 -0.257676 -0.467825 -0.528477 -0.508858 0.691973 
-0.922895 -0.713345 -0.0390114 -0.786446 0.764987 0.49564 0.489095 0.653112 0.291257 0.967752 -0.987019 -0.604066 -0.872024 0.800729 0.670038 0.271355 0.100225 -0.143065 0.642554 -0.219867 0.856424 0.20416 0.03816 0.663596 -0.343302 -0.626188 -0.594087 0.188872 -0.154633 -0.102911 -0.119151 -0.0775072 0.183748 0.841742 0.136045 -0.0512892 0.337377 -0.374859 -0.398155 -0.371433 -0.407115 -0.385194 0.0245038 -0.279136 -0.584409 -0.305457 0.992219 0.515835 0.551471 0.634788 -0.70405 0.407902 -0.161046 0.334118 0.0714963 0.495631 0.70793 0.477409 -0.315497 -0.446697 -0.625488 0.565286 0.47579 0.558315 0.40706 -0.388168 -0.493082 -0.255523 0.236944 0.108839 0.372976 0.829864 0.723697 -0.602472 -0.449285 -0.86071 0.0920694 -0.457055 0.655103 -0.35645 -0.822267 0.951059 -0.948552 0.0166815 0.28521 0.122945 -0.487687 -0.00678251 -0.399654 0.196815 0.546369 -0.0251333 -0.237934 0.0221913 -0.466873 -0.830839 0.634029 0.0401207 -0.0863844 -0.129007 
-0.851051 -0.713358 -0.299134 0.872657 -0.315836 0.251603 -0.988056 0.77623 0.794581 0.667053 -0.580239 0.972271 0.618108 -0.528775 -0.011047 -0.096716 0.594169 0.501265 0.896383 -0.805475 -0.301919 0.442794 0.169389 0.460182 -0.535004 0.702519 0.629342 -0.900983 -0.25736 -0.45705 -0.0299459 -0.1084 -0.170405 0.670872 -0.235744 0.513746 -0.077527 -0.2238 0.289988 -0.28298 -0.556751 0.70974 -0.310707 -0.938642 -0.819008 0.678246 -0.035358 0.775171 0.179508 -0.138968 0.969687 0.877593 -0.69617 0.13908 0.337774 -0.231185 -0.158402 -0.032884 -0.132169 0.584242 0.510073 0.837852 -0.524161 -0.660305 0.50874 0.240092 0.853388 -0.568767 -0.983722 0.143414 0.14822 -0.540455 -0.146821 0.837536 -0.479104 0.034172 0.515782 0.485544 -0.190668 -0.304705 -0.653423 -0.220978 -0.427114 -0.349597 0.918119 0.91066 0.419218 -0.240244 -0.122228 -0.712951 -0.656078 -0.61215 -0.875116 -0.180222 -0.272482 0.633642 -0.940127 -0.419056 -0.935136 -0.923839 
0.724358 0.213107 -0.464289 -0.422463 0.0506418 0.0566129 0.611708 -0.433577 -0.457843 -0.578958 0.261717 -0.111266 0.200064 0.834603 0.539137 0.118165 0.745264 -0.0416449 0.877866 -0.37696 0.245404 -0.778194 0.0108894 0.370306 0.0415851 0.738408 0.00394791 0.101458 -0.680648 0.068812 0.177625 -0.95629 -0.718081 0.713336 -0.378753 0.33256 -0.230051 -0.767045 0.898984 0.312106 -0.346003 0.160701 -0.79916 0.85406 -0.00469565 0.739977 -0.0277747 -0.259432 -0.301668 -0.149909 0.363608 0.943736 0.0718976 -0.625503 0.314042 -0.886517 -0.887095 -0.68201 0.214941 -0.567743 0.386802 -0.607434 -0.524034 0.668721 -0.894098 0.0972129 0.00128103 -0.124149 0.330168 -0.0997352 -0.812043 0.984164 -0.939034 -0.611204 0.838224 0.0562701 -0.871227 -0.18955 0.796838 -0.172895 0.660541 0.160446 -0.229159 -0.267561 0.534943 -0.915116 -0.154079 0.647847 -0.597126 -0.939138 -0.919896 0.789676 -0.546572 -0.44393 0.458397 -0.44067 0.653283 -0.540322 0.435181 -0.0165494 
0.359942 0.623137 -0.0323852 0.420908 -0.988066 -0.194161 -0.522822 -0.859293 0.616289 -0.725984 -0.0321881 0.27683 0.434462 0.738653 -0.990731 -0.0305955 0.823537 -0.14481 -0.382748 -0.773589 -0.0839478 -0.302644 -0.983913 0.36948 0.253426 0.474483 0.928811 -0.0932911 0.934161 0.363991 0.890159 0.294103 -0.0128714 -0.142226 -0.284989 -0.000937792 0.663613 0.19219 0.139769 0.279902 0.466206 -0.892419 -0.443268 -0.0993321 0.846234 -0.433999 0.870072 0.669771 0.42119 -0.512676 0.896182 -0.662757 0.18468 0.912269 0.706723 -0.561894 0.386752 0.635534 0.344815 0.320913 -0.000474914 0.234974 -0.384984 0.986654 -0.907252 0.330028 -0.0142841 0.756362 -0.477783 -0.874515 0.036264 0.988423 -0.766934 0.592996 -0.110909 -0.9207 -0.841003 -0.240836 0.749072 0.580187 0.246488 0.645254 0.91743 -0.568832 0.557523 0.624153 -0.130726 -0.055725 0.259687 -0.785912 -0.734812 -0.740788 0.449063 -0.119796 -0.754135 0.541811 -0.789768 0.231581 0.298173 -0.267551 
0.357066 -0.665563 -0.279127 0.590132 0.927433 0.609964 0.669432 -0.913571 -0.630873 0.418504 0.666616 0.615615 0.0637575 0.584046 -0.953217 -0.37872 0.208199 -0.0839434 0.565555 -0.532114 0.130145 0.830743 -0.272903 -0.420793 -0.289052 -0.0270371 -0.878982 -0.0788204 -0.795456 0.419191 0.653629 0.561611 0.753628 -0.625499 0.151743 0.68106 0.984465 -0.178825 0.76749 -0.646407 -0.760321 0.434106 0.969208 0.303436 0.0181518 -0.984009 0.924717 -0.773649 -0.0679527 0.490272 -0.305764 -0.937808 0.321015 0.421334 -0.3586 -0.968037 -0.605703 -0.237582 -0.0468575 -0.401159 -0.818391 -0.393229 -0.839549 0.935237 -0.0187271 0.312194 0.616298 -0.0342618 -0.866631 0.383787 0.319331 -0.626952 -0.182107 0.288539 0.676484 0.836045 0.304529 0.6012 -0.937604 -0.763423 0.0914723 -0.243368 -0.701231 -0.587513 -0.822034 -0.0598314 -0.55555 -0.427738 0.702587 0.397593 0.171103 0.884196 -0.995636 0.331555 0.819433 -0.0143628 -0.356251 0.435731 0.951375 -0.222882 
-0.180482 0.270706 0.150166 0.637411 -0.440755 -0.17335 0.473456 0.863774 -0.57215 0.535852 -0.899649 0.519322 -0.707516 -0.60088 0.93181 -0.529551 0.339289 -0.62374 0.0427119 0.0418754 0.773853 -0.786185 -0.0739286 0.778218 0.54537 -0.254495 -0.236145 -0.810881 -0.818765 -0.28477 -0.033763 0.000753019 0.985937 -0.883597 -0.361836 -0.454819 -0.0569476 -0.88838 -0.591044 0.370903 0.647472 -0.490693 -0.109775 0.939955 -0.0915732 -0.177965 -0.589595 -0.752285 0.198295 0.453117 0.289591 -0.0278515 0.666932 -0.784338 -0.249634 0.212302 -0.0388332 0.514221 0.401421 0.142402 -0.770549 -0.632342 -0.856845 -0.784612 -0.515939 -0.218681 -0.239431 0.427113 -0.107061 0.169525 -0.201984 -0.459589 0.678832 0.688241 -0.519634 -0.412742 -0.489724 -0.109229 -0.165026 0.708571 -0.656112 -0.875435 -0.319281 -0.98918 -0.659773 0.431085 0.223122 0.301394 -0.0546939 -0.375458 -0.556204 0.174757 -0.00779969 -0.413049 0.390145 0.476261 0.36827 -0.849286 -0.096626 -0.738792 
0.320276 0.70141 -0.198374 -0.000941469 0.389638 0.282006 0.586365 0.899922 -0.827256 -0.578698 0.608475 -0.483307 -0.454133 -0.710803 -0.472529 -0.113917 0.720279 0.750596 -0.812504 -0.334754 -0.62477 -0.3686 0.840311 0.367325 0.218234 0.230489 -0.156516 -0.413543 0.381159 0.746962 -0.152279 -0.298612 0.448357 0.649326 0.700294 -0.16204 -0.0687323 0.286758 -0.262081 0.104077 0.70811 -0.653627 0.620712 -0.746156 -0.364426 -0.851839 0.140038 -0.644179 0.898602 0.327592 0.0214104 -0.726283 0.958877 -0.13821 0.641282 0.177143 -0.907644 -0.51518 0.763608 0.473467 -0.768184 -0.388683 -0.825278 0.680105 -0.739279 0.875378 -0.481928 0.191975 0.162271 0.256251 -0.703955 -0.1296 0.602363 0.916754 0.124418 -0.761961 -0.935064 -0.735567 -0.406117 0.963662 0.592112 0.615159 -0.762447 0.551024 -0.523029 0.878847 -0.271906 -0.430788 -0.636329 -0.508283 -0.95729 -0.404658 0.103042 -0.782365 -0.724502 0.363714 -0.906974 -0.206421 -0.444322 0.255308 
-0.950574 -0.148357 -0.874046 0.65198 -0.231047 0.250138 0.890127 -0.167605 0.513581 -0.516432 -0.20278 0.1073 -0.901209 0.0347652 -0.342351 -0.425003 -0.0858623 0.386056 0.144648 0.277344 0.880505 0.189163 0.871376 -0.0193484 0.404881 -0.851882 -0.656816 0.498875 -0.0586938 -0.100083 -0.245783 -0.00901792 0.751832 -0.121346 -0.357025 -0.480887 -0.87049 -0.468424 0.356047 0.644192 0.0155313 -0.849608 -0.249271 0.114903 0.185279 0.408576 0.689158 -0.901391 -0.207089 -0.162519 0.375373 -0.328164 -0.975707 0.249165 0.65302 0.430709 0.398884 0.996887 -0.0726099 -0.66197 -0.101917 0.680943 0.328324 -0.351316 -0.436581 0.972637 0.168243 -0.309643 -0.493723 -0.477451 -0.665505 0.522411 -0.326988 0.0846658 -0.361356 0.859212 -0.506112 -0.670174 0.959274 0.285949 0.166346 0.33411 0.959638 0.190186 -0.416575 0.614545 -0.380898 0.979746 0.610872 0.547564 -0.682706 -0.494419 0.229336 0.647712 0.154672 0.791059 0.620609 -0.67632 -0.519513 -0.872976 
-0.156399 -0.186478 0.652595 0.521042 0.898679 -0.710343 0.384802 -0.607743 -0.386167 0.332429 0.682689 0.788074 -0.33468 0.644134 -0.0241187 0.245371 0.258989 0.598182 0.235399 -0.135956 0.146045 0.558816 0.370857 -0.627465 0.195055 -0.47392 -0.838562 -0.181791 -0.144977 -0.356933 -0.0533818 0.694357 0.454222 -0.405113 0.21555 0.360147 -0.11665 -0.407836 0.760082 0.499856 0.92504 0.430888 0.281826 -0.400654 0.0667933 -0.73904 0.849771 -0.677795 0.851792 0.0915064 0.190774 -0.015526 -0.360511 -0.435773 0.362961 0.840561 0.0970723 0.520883 -0.346868 0.944855 -0.837609 0.599694 0.641832 0.61414 -0.79919 -0.146394 -0.028644 0.0704292 0.454554 -0.286221 -0.424608 0.383017 -0.854983 0.847734 0.98232 0.219685 -0.884339 0.843989 0.548915 0.957586 -0.0715277 -0.261856 -0.0440871 0.559743 0.302361 -0.680433 0.391005 -0.610352 0.844805 -0.95157 -0.666696 -0.99753 0.650379 0.972036 0.61931 0.842243 -0.170392 -0.409745 -0.0735794 -0.714106 
0.308327 0.496428 0.67038 0.459902 0.329201 0.653616 -0.309384 0.454785 0.483889 -0.782125 0.428475 -0.57791 -0.0403822 -0.617457 0.983071 -0.739624 -0.292961 0.394852 -0.354656 -0.436754 0.430807 -0.0027932 -0.437304 0.0849998 -0.0453016 -0.811659 -0.0838522 0.784304 -0.217939 0.842464 -0.927345 -0.929247 0.316754 0.736589 0.54503 -0.326294 0.392416 -0.773099 -0.847437 -0.122921 -0.562309 0.566969 0.30229 0.407414 0.956267 0.276658 0.667288 -0.328436 -0.335611 -0.675491 0.230371 -0.920318 0.303704 0.798052 0.173573 -0.735153 0.989003 -0.920549 -0.950246 -0.21941 0.916311 -0.883242 -0.135661 0.239298 0.857062 -0.586054 0.908721 0.23117 -0.35381 -0.96546 -0.889543 0.0854709 0.603908 0.407888 -0.50807 0.569005 -0.31369 -0.819366 -0.756854 0.328451 -0.513256 0.474887 0.433941 0.791922 0.271086 -0.401073 -0.947784 0.256197 -0.321424 -0.890468 -0.971691 -0.405977 -0.773578 -0.123337 0.830996 -0.915048 0.305149 0.731619 0.318145 0.938614 
0.773817 0.42135 0.0696788 0.386097 -0.182344 0.524644 -0.0236489 0.519491 0.694716 0.19579 -0.136875 -0.810812 -0.343504 -0.716404 0.982362 0.92807 -0.103878 -0.945552 0.199805 0.584241 -0.840676 0.236955 -0.807818 -0.609744 -0.891959 -0.986235 -0.544162 0.421868 0.766522 0.793284 0.374033 0.517978 0.197257 -0.582484 -0.0668709 -0.959193 0.936806 0.8748 0.612526 0.633292 0.084385 -0.548031 0.836669 0.747476 -0.260961 0.822262 0.704173 0.646427 0.866682 -0.120683 0.235801 -0.992265 -0.911417 0.396884 -0.593992 -0.797903 0.415579 -0.147408 0.627406 0.211801 -0.366463 -0.037128 -0.257242 0.829896 0.390332 0.682972 0.895657 0.306776 0.55851 0.438531 -0.0453382 -0.358432 0.887698 -0.231356 -0.602706 -0.333043 -0.402041 -0.931654 -0.689622 -0.571259 -0.059718 0.560259 -0.534312 0.0487113 -0.0461886 -0.150446 0.241652 -0.626278 0.68735 -0.115201 0.580304 -0.666051 0.875591 -0.700687 -0.823143 0.25935 0.991956 -0.91825 -0.421969 0.539337 
0.519364 0.542764 -0.751112 0.469104 -0.662725 -0.397508 -0.881825 -0.103813 -0.301436 -0.619475 0.370731 0.641997 0.928129 0.776856 -0.309613 -0.0947053 -0.352181 0.995506 0.322618 -0.631762 -0.127479 -0.135101 -0.265578 -0.286934 0.136941 -0.100366 0.971486 0.196293 -0.00130134 -0.447752 -0.245145 -0.513002 -0.888443 -0.0279196 0.982983 -0.608295 0.55898 -0.909848 0.410735 -0.763948 -0.527872 -0.283102 0.903127 -0.55875 -0.499028 -0.423106 0.335709 0.169831 -0.432399 -0.372854 0.56343 0.39951 0.480786 -0.772303 -0.88272 -0.332047 0.165827 -0.875696 0.814241 -0.802413 -0.292192 -0.434619 -0.29672 -0.226725 0.51901 -0.297312 0.226365 0.0417582 -0.212001 -0.433633 0.297179 0.268071 0.277233 0.169071 0.687323 0.79981 0.793101 0.0197958 -0.0181232 -0.64924 0.64112 -0.442806 0.737387 0.12629 -0.214644 0.834815 0.808252 0.915354 0.960895 0.628739 -0.870591 -0.342526 -0.764446 -0.197211 0.442385 0.697117 0.524013 -0.273096 -0.224688 -0.757986 
0.27743 -0.899714 0.590392 -0.414108 0.304442 0.262614 -0.612278 0.0558583 -0.701257 0.291614 0.402953 0.961837 0.832584 0.0897199 0.106124 -0.382792 -0.0399482 -0.044807 -0.381136 -0.0470252 -0.414984 -0.276444 0.62481 -0.268001 0.48486 0.0873121 -0.510658 0.0734198 0.813225 0.248354 0.356583 0.0352381 0.344205 -0.0860719 0.681436 -0.407702 -0.845756 -0.93628 0.752202 -0.569867 0.312697 0.11832 -0.576759 0.203453 -0.799707 0.488078 0.832309 0.18949 -0.546296 -0.551513 -0.837906 -0.0313091 0.136948 0.757101 0.709581 -0.316667 -0.12945 -0.775587 0.683765 -0.285698 0.50191 0.0278279 0.775365 -0.199442 0.918298 0.474675 0.471828 -0.964465 0.536064 0.1767 -0.523369 -0.116695 -0.73205 -0.134696 -0.910601 -0.510636 -0.577534 0.933305 0.689832 -0.125098 -0.651835 0.829235 0.831463 0.44232 0.593642 0.545317 -0.863866 -0.592034 0.788029 0.828015 0.14419 0.281722 -0.0818527 -0.0978153 -0.91369 -0.220025 -0.614318 0.584869 -0.170441 0.860464 
-0.251712 0.317301 -0.181793 0.0492327 -0.727485 -0.0990708 0.567403 -0.345423 -0.209328 0.154702 0.526549 0.163466 0.0142637 0.34427 -0.362464 -0.413972 -0.102865 -0.19891 0.137991 -0.279448 -0.3853 -0.757052 0.948156 0.45194 0.095504 -0.900473 -0.76491 0.538076 0.730689 0.116013 0.439746 -0.579865 -0.599531 -0.779161 0.515796 -0.412032 0.112305 0.0628644 0.379586 0.885083 -0.820191 -0.17464 0.0595579 0.283907 -0.880609 0.652334 0.901877 0.0418045 -0.507634 0.0546423 0.780807 0.0475962 0.22215 0.729774 -0.440727 -0.618491 0.892357 -0.185565 0.848018 0.594214 0.902951 0.255861 -0.937551 -0.703397 0.511326 0.588529 -0.030544 -0.465608 -0.286893 -0.697719 -0.53705 -0.0845756 0.083003 0.483551 -0.730424 0.248186 0.22686 -0.812849 -0.686227 0.728641 0.183013 -0.943453 -0.271026 -0.627583 0.796511 0.287301 -0.286755 0.634596 -0.835077 -0.39259 0.285966 -0.931273 0.943964 0.284073 -0.636419 0.394152 -0.107009 0.361278 0.947284 0.580459 
0.678347 -0.610515 -0.41129 -0.236651 0.944851 -0.179628 -0.963427 0.180345 -0.105201 -0.738986 -0.0996495 -0.893028 -0.652603 0.626941 -0.519221 -0.853011 -0.0129747 0.263809 0.871425 0.123973 0.849749 0.086588 0.120921 0.758482 -0.652544 0.586871 0.0961921 0.33438 0.00902224 0.154532 -0.102161 -0.39779 0.435956 0.449029 0.394855 0.40697 -0.77036 0.440135 -0.359236 0.111048 0.690346 0.397987 0.227959 -0.905111 0.0229629 0.725225 -0.684477 0.973174 0.0134771 -0.820621 0.11428 -0.174027 0.205858 -0.752495 -0.385671 0.625177 0.864643 0.728242 -0.0952473 -0.179418 -0.21502 0.753489 0.506467 -0.783394 0.211555 -0.10677 0.668497 0.34766 -0.611924 -0.781181 -0.490967 -0.921695 0.616795 0.729077 -0.775264 -0.331644 0.502652 -0.475299 -0.344617 -0.475351 -0.366079 0.716143 0.326371 0.834545 0.945781 0.976689 0.418881 0.781562 0.766397 -0.65543 -0.342645 -0.488966 -0.829595 -0.931346 -0.229598 0.329818 -0.00222964 -0.549065 -0.304978 0.333931 
-0.321639 0.154081 0.540153 -0.695126 -0.0188195 0.718869 -0.00343803 -0.559555 -0.842461 0.575523 -0.0637049 -0.159319 0.318781 -0.710633 -0.319902 0.302352 -0.692351 -0.832172 0.158791 1.00491 -0.518868 0.7668 -0.516807 -0.391647 0.813181 0.28937 0.884143 -0.139831 0.758872 -0.348271 -0.820589 -0.643893 0.751794 0.706974 -0.296921 -0.258197 0.384096 0.711458 0.172738 0.562055 0.251163 -0.950126 -0.576269 -0.368889 -0.627066 0.124691 0.983038 -0.365079 0.313554 0.0848559 -0.38078 0.744612 -0.155919 0.109533 -0.631533 -0.27084 -0.597118 -0.7187 0.534156 -0.826661 -0.117185 0.727679 -0.406646 -0.387792 0.458865 0.283361 0.337064 -0.220849 0.0114549 -0.484072 -0.621148 -0.742788 -0.407772 -0.199546 -0.0513867 -0.0887745 0.946249 -0.121634 0.613785 0.242103 0.966626 -0.784855 0.0309433 -0.212025 0.35807 0.396186 0.477794 0.696053 0.702207 0.0206397 0.893611 -0.440654 -0.145642 -0.587668 0.19831 -0.744404 0.717446 -0.449414 0.0308696 -0.304948 
0.0836978 0.37597 0.0581635 0.685818 -0.790796 0.978402 -0.321818 -0.814942 -0.203614 -0.804013 0.4487 -0.194891 -0.523032 -0.561633 0.599692 0.759064 0.841955 0.133715 0.522383 0.515171 -0.826552 0.402585 -0.970173 -0.0493592 0.775302 0.250992 0.150596 0.527318 0.855517 -0.77247 -0.791172 -0.107214 0.544901 0.278516 -0.426189 0.825917 0.201621 0.320901 1.01902 -1.01316 0.497105 0.380395 -0.197107 0.980032 0.832639 -0.56607 0.789687 0.661612 0.596543 0.297888 0.095338 0.687792 -0.33932 0.155051 -0.342015 -0.505333 -0.547169 0.829878 0.950096 -0.709365 -0.968422 -0.822714 0.194772 0.57232 0.466026 0.83184 0.407385 -0.384578 0.148082 0.38302 -0.365746 -0.362325 -0.239074 0.457531 -0.344751 -0.428253 0.884738 -0.578111 -0.794145 0.449222 0.692392 0.322841 0.16892 -0.669724 -0.546175 0.846682 -0.200207 -0.138089 0.714896 -0.233092 0.149425 0.685032 0.0442688 -0.67354 0.26987 -0.521415 -0.829904 -0.34174 0.090475 0.262629 
-0.92921 0.669981 0.991591 -0.167735 0.1606 -0.390696 0.437282 0.113996 -0.00473677 0.572299 -0.431338 -0.248516 -0.0602768 0.728444 0.115623 0.395382 0.573269 0.957802 -0.705408 0.22127 -0.242576 0.444982 -0.114941 0.746751 0.753274 -0.817077 -0.824588 0.933255 -0.116496 0.260485 0.225241 -0.0754446 -0.0706627 0.22927 0.7659 -0.826273 0.809438 0.239975 0.256747 -0.160326 -0.203905 0.823702 0.57971 0.731111 0.550833 -0.306396 0.169087 0.118351 -0.318446 0.476446 -0.719653 0.369487 -0.123143 0.206655 0.115685 -0.327337 0.363185 0.304068 -0.451791 -0.734378 -0.43149 0.774866 0.239936 0.51083 0.01839 0.00900036 0.69972 -0.19957 -0.736407 -0.0465098 0.622674 0.0216623 -0.278883 0.215437 -0.222543 -0.734437 0.90846 0.955568 0.351107 -0.444007 0.362743 0.639254 0.946393 -0.74168 -0.172544 0.106869 -0.117882 -0.829696 -0.588395 0.419181 -0.529158 -0.0503408 0.277299 0.678244 -0.550365 -0.743932 -0.288793 -0.87732 0.042047 -0.106421 
0.0684713 -0.36957 1.0412 0.825408 0.856174 -0.237928 -0.91961 0.824266 -0.312465 0.395961 -0.61112 -0.885489 0.0586163 -0.673494 -0.633546 0.886743 0.432366 0.276876 -0.911213 0.778588 -0.258311 -0.445329 -0.262959 0.978299 -0.765573 0.205126 -0.78244 -0.0547006 0.362586 0.250492 0.880526 -0.594694 0.873273 0.862702 -0.786765 0.800845 -0.374893 -0.665514 0.610277 0.332601 0.684253 0.96073 0.419073 -0.243351 -0.712322 0.777923 -0.330141 0.710981 0.0674059 -0.236596 0.471348 0.750054 0.291877 -0.756525 0.737431 0.540983 0.394911 0.95149 -0.539463 -0.21245 0.201782 -0.674428 0.22217 0.086623 -0.781746 0.454273 -0.0888491 -0.178573 0.781808 -0.494683 -0.855464 0.438085 -0.564714 0.576419 -0.784234 -0.256084 0.35838 -0.121567 -0.568022 -0.59079 0.57976 0.904362 -0.810286 -0.104721 -0.883754 0.973552 -0.567165 0.522213 0.899803 -0.11085 -0.661197 0.0987423 0.250983 0.532045 -0.825245 0.460349 -0.0186741 0.0868204 -0.716335 -0.305511 
0.570215 -0.599458 -0.762933 -0.976531 0.972369 -0.580011 -0.224065 0.370756 0.280615 0.15842 0.7828 -0.0739246 0.0910471 0.980439 0.80893 0.231588 0.919761 -0.706643 -0.249388 0.780621 0.192499 0.0712748 -0.106673 -0.574421 -0.400897 0.0878785 0.875365 0.594604 -0.798542 -0.843018 -0.664943 0.709182 -0.480046 -0.472463 0.728754 -0.428265 -0.0522462 -0.481532 0.934665 -0.75328 0.698503 0.660927 0.162521 -0.216353 0.63186 0.0230491 -0.983273 0.557833 0.305704 -0.240931 0.339635 -0.581299 0.826166 -0.752116 -0.130147 -0.569056 0.311095 -0.260104 -0.97786 0.500888 -0.109244 -0.673318 0.258494 0.403025 -0.110933 0.032735 0.983884 0.812532 0.583295 0.903253 -0.931255 0.227981 0.524587 0.227476 -0.979111 0.214206 -0.746445 -0.955854 -0.276791 0.539538 -0.225373 -0.921979 0.971124 -0.386647 -0.707265 -0.098918 0.062739 0.623063 0.615698 0.0521332 0.157386 -0.498543 0.414904 -0.62734 0.913859 -0.697791 0.419851 0.902751 -0.86235 -0.073475 
0.789822 -0.860801 -0.759819 0.340666 0.405639 -0.723358 -0.445396 0.675446 -0.688449 0.260427 0.225945 0.116529 0.368266 0.241603 0.742752 0.714856 -0.896336 -0.166526 0.32807 0.697627 0.895603 -0.565545 -0.784194 0.285146 -0.17683 -0.824213 0.555769 -0.742831 -0.918681 0.67328 0.231501 0.821706 0.835319 0.459561 0.175264 0.304015 0.703023 0.72246 0.0198194 -0.972615 0.0425463 -0.806702 0.153818 -0.592961 0.427325 -0.0947529 -0.917711 0.536579 0.725843 0.391045 0.271521 0.55686 0.84702 0.501428 -0.12946 -0.345541 0.655172 -0.561528 -0.0936124 0.706506 -0.874375 -0.874916 0.599839 0.947903 0.60956 -0.17754 0.282977 0.274307 -0.406284 -0.745258 0.321793 0.568513 -0.584894 -0.525885 0.95785 0.905006 0.402903 -0.960653 0.426347 0.115887 0.464776 -0.330701 -0.34097 0.304012 -0.857349 0.594245 0.996333 0.829379 -1.03183 -0.135011 0.538258 -0.882831 0.0202629 0.112611 -0.915263 -0.378969 0.93561 0.359973 0.908272 -0.544658 
0.597536 0.178527 -0.918704 -0.938773 0.697304 -0.938415 0.937472 0.127267 -0.868103 0.30547 -0.761245 0.611095 -1.01009 -0.0699472 -0.0920768 -0.786407 -0.462856 -0.0845095 1.01449 -0.549021 0.782371 0.492832 -0.373551 -0.213839 -0.401405 -0.256173 0.375569 -0.45666 -0.934868 0.275469 0.0443228 0.665425 -0.495791 0.11873 0.73011 -0.760284 0.129794 0.630385 0.417048 0.277154 0.00202695 0.614418 -0.100404 0.0313109 -0.470603 0.736528 0.234887 0.0374295 -0.350084 0.185815 0.564039 -0.611296 -0.303467 -0.831696 0.177555 0.297825 -0.172256 -0.429453 0.86068 -0.0594962 0.861986 -0.0912291 -0.329079 -0.666006 1.0337 -0.583449 -0.337228 0.106605 -0.913807 1.01348 -0.577127 0.0598726 0.563272 0.310384 -0.924143 -0.812656 0.121351 0.244794 0.216494 0.769554 -0.515653 -0.270542 -0.877481 0.145312 -0.164992 0.395904 -0.483759 0.779055 0.894943 -0.662268 -0.274489 0.760595 0.255099 0.359582 -0.884692 0.258081 0.74765 -0.230709 -0.592964 0.787241 
-0.253144 -0.188646 -0.0925158 -0.650433 -0.847519 -0.0396675 -0.469431 0.273404 -0.768542 0.690977 0.0221222 -0.266981 -0.599987 0.160634 0.882462 0.326686 -0.448794 -0.583385 0.119631 -0.577258 -0.268038 0.759682 -0.796635 0.974651 0.0761446 -0.60679 0.199416 -0.132971 0.0795075 0.605844 -0.302978 0.823821 -0.552794 0.572167 -0.815706 -0.35154 -0.539517 -0.33055 0.920124 -0.277946 -0.652857 -0.0719395 0.483164 -0.171255 -0.904548 0.28842 -0.855675 -0.372601 0.710642 0.215123 0.0888022 -0.575151 -0.0125896 0.286896 -0.61977 -0.905524 0.57919 0.608268 -0.0262505 -0.287746 0.231458 0.686922 -0.394051 0.693253 0.20795 -0.214906 -0.611891 0.620939 0.462064 -0.75262 -0.618105 0.826304 0.116337 0.815265 -0.383449 0.288509 0.226814 -0.239731 0.927983 -0.11423 0.98985 -0.0270263 0.27933 -0.064403 -0.724938 0.722288 0.144042 0.917967 0.268319 -0.963127 -0.33361 -0.505614 0.74806 0.226943 -0.781893 -0.0516624 1.03388 -0.44921 -0.390665 0.45265 
-0.201725 -0.0293654 0.326642 0.965437 -0.133084 0.939449 0.241474 -0.997942 -0.305879 0.137984 -0.127568 -0.290972 -0.916608 -0.853016 0.638643 -0.626442 0.882283 -0.217813 -0.646375 0.103941 -0.21055 -0.0669137 0.609865 -0.45778 -0.889648 0.858942 0.430956 -0.840398 -0.646021 -0.98411 0.633251 0.130376 0.0427833 -0.0765862 0.0874102 0.876378 -0.213119 -0.68795 0.945326 0.515514 0.404785 -0.20636 -0.742798 0.5494 -0.0795721 0.781915 0.958707 -0.187308 -0.435512 -0.715275 0.945839 0.400209 0.214514 0.592693 0.884232 0.388303 0.347357 0.326585 0.50743 0.701547 0.374528 0.175661 -0.0797066 -0.611831 -0.929326 1.00377 -0.676901 -0.224308 -0.666863 -0.777745 -0.637591 0.739421 -0.0694326 -0.481516 0.290572 0.986587 -0.524988 0.260021 -0.246531 0.0417174 0.523007 -0.321629 -0.62304 -0.294856 -0.820094 -0.682769 -0.84207 0.600462 0.572128 0.614643 0.336124 -0.0444437 -0.206479 -0.803926 0.360769 -0.170686 -0.773411 0.650095 0.663373 -0.489832 
0.825522 -0.969789 -0.718637 -0.187872 -0.36883 0.580689 -0.25519 0.000955508 -0.138096 0.472997 -0.997578 -0.582007 -0.887114 -0.623938 0.124569 -0.655218 -0.287314 0.251309 0.991509 -0.726322 -0.13458 0.252223 0.222588 0.669352 0.449724 -0.402841 -0.543513 0.670216 -0.798064 -0.929944 -0.800955 -0.986436 -0.835812 -0.526174 -0.177975 -0.294799 -0.984955 0.571151 0.80786 -0.0805377 0.0249555 0.808897 0.353817 0.173678 -0.84438 -0.608341 0.568346 -0.0832302 0.617047 0.545202 0.192176 -0.455779 -0.206704 -0.591228 -0.855705 -0.711097 -0.0604519 -0.382174 0.918441 0.175983 -0.275651 -0.84489 0.252104 -0.130329 -0.410316 -0.935277 0.628392 -0.424475 0.631901 0.415946 0.581546 -0.33066 0.192422 -0.174414 0.846243 0.416158 0.307082 0.433118 -0.73309 -0.0241488 -0.0410014 0.455407 0.434874 0.734738 0.819289 0.640368 -0.958299 -0.192724 -0.819159 0.931853 0.995569 -0.0627882 -0.936775 0.189021 0.818915 -0.346702 0.276732 0.448711 0.265854 -0.0977963 
-0.188052 -0.190299 0.595678 0.999246 0.704408 0.437547 0.361441 -0.0833875 -0.0865426 0.613185 0.844494 0.892439 0.0347391 0.305031 0.611366 -0.112405 -0.0906275 0.64207 0.766626 0.116006 0.597365 0.724185 -0.950074 0.664342 -0.10118 0.868558 -0.698267 -0.832565 0.273023 0.532798 0.0583796 -0.926704 -0.619718 -0.368441 -0.971192 -1.01815 -0.922369 0.435087 0.00375783 0.00433078 0.0709304 -0.20611 -0.115663 -0.854769 -0.961594 -0.578924 0.075553 0.0104416 -0.937761 -0.137357 -0.87631 0.689525 -0.471156 -0.844996 0.304349 0.45713 0.943068 0.601619 0.601699 0.284982 0.152501 -0.292543 0.378925 0.530029 0.321062 0.43811 0.550683 0.338815 -0.101936 -0.503893 -0.563907 0.948671 0.292393 0.24275 -0.955331 0.380139 0.749575 0.161744 -0.653623 0.875695 0.958395 -0.537424 0.484624 -0.503089 -0.426184 -0.142762 0.961252 -0.43755 -0.604424 0.532793 0.856355 0.566515 -0.787651 0.253937 0.0757639 0.543355 -0.278358 -0.340308 -0.0530232 0.56404 
0.101923 0.281132 0.51088 -0.6243 -0.364152 0.590304 0.700788 -0.7035 -0.190804 -0.940489 -0.866111 -0.200001 -0.505198 0.639177 0.27398 0.109168 -0.52875 0.275145 0.789873 -0.146583 -0.182949 0.634925 -0.531368 0.0613149 -0.141295 0.536134 -0.410882 0.558129 -0.843565 0.498345 0.116574 0.247881 -0.153515 -0.40389 0.600216 0.385319 -0.782335 0.349743 0.767322 0.0197275 0.421557 0.836918 0.806537 0.9677 0.422734 0.0810525 0.15238 0.971581 -0.657262 -0.0552712 -0.166285 0.22011 -0.458913 0.285388 -0.749222 0.432018 -0.262283 -0.150858 -0.0335063 -0.0523887 -0.629961 -0.869537 -0.792148 0.180313 -0.266147 0.842505 -0.412328 -0.110401 0.203637 -0.722763 0.978952 -0.389678 -0.830381 0.756227 -0.45007 0.641594 -0.0862165 0.728448 0.57668 0.304901 -0.401519 -0.577527 -0.522438 0.176859 0.62297 -0.188166 -0.383779 -0.563948 0.587795 0.542862 0.378694 0.961622 0.661836 0.612356 0.0934918 -0.607788 0.463206 0.731495 0.321526 -0.389397 
0.982926 0.259063 0.256292 -0.880055 0.0535467 0.81403 0.733081 0.94261 0.555867 0.316469 0.220333 -0.784769 0.700378 0.736902 0.36405 0.381093 -0.493965 0.979597 0.891521 -0.922414 0.547357 0.262256 -0.920748 0.210751 -0.11731 0.199824 0.571879 -0.694654 -0.0984311 -0.101304 -0.0737455 -0.132849 -0.820656 -0.865667 0.0027291 0.213152 0.953131 -0.260801 0.199307 0.521104 -0.93948 -0.595272 0.71915 0.825806 -0.908822 0.0630345 0.243399 -0.395632 0.0505088 0.176079 -0.296254 -0.407758 -0.605423 -0.215396 0.805586 0.290851 0.881262 0.383536 0.565281 -0.153432 -0.712243 -0.511826 0.748324 -0.535473 -0.36136 -0.257982 0.677147 -0.437067 0.5316 -0.179458 -0.920045 0.579553 0.237078 0.773013 0.412554 0.339992 -0.0971696 -0.339534 0.927694 0.978184 0.754242 -0.382277 -0.45453 -0.854864 0.365803 -0.60192 0.411768 0.313216 0.76039 -0.0440069 -0.826961 -0.955154 0.466877 0.932142 -0.521389 -0.942103 -0.314191 -0.818367 -0.327959 -0.828783 
0.0236031 -0.284412 0.781269 -0.764142 -0.483145 0.17369 0.557085 0.448251 0.826727 0.452411 0.382983 0.625652 -0.93218 0.976597 0.773862 0.461852 -0.649418 0.204807 -0.187299 -0.913468 -0.799953 -0.0198598 -0.835821 0.649932 -0.100737 -0.330653 0.711271 0.563427 -0.144977 -0.620247 0.736691 0.862635 0.106996 0.504163 -0.919816 0.643481 -0.339864 0.635467 0.0837261 -0.48442 0.0950277 -0.525816 -0.884853 0.202657 -0.577915 0.885859 -0.309111 -0.224808 0.11185 0.495345 -0.123578 0.279557 -0.542785 0.0560575 -0.0383718 0.345056 0.678351 -0.33085 -0.101626 -0.441424 0.0309063 -0.386472 -0.581353 -0.862157 -0.857305 -0.50474 0.769474 -0.220846 -0.852355 -0.141651 0.26326 0.270954 0.342328 0.379543 -0.502483 0.773595 0.311775 0.152712 -0.438501 -0.585332 -0.367731 0.405266 0.705525 0.0918001 -0.52256 -0.347827 -0.577312 -0.832807 0.321468 0.32881 -0.275959 -0.649696 0.965775 0.132759 -0.526805 -0.934605 0.652422 -0.735635 -0.13764 0.804669 
0.116152 -0.881845 0.0740141 -0.550618 0.513714 0.563132 -0.781859 -0.145467 -0.28514 -0.247742 0.248693 0.373762 -0.829243 -0.0236223 -0.551078 -0.346868 0.615074 -0.0932881 -0.178208 -0.0638452 -0.767603 0.53577 0.294805 -0.788992 -0.342792 0.771294 -0.734797 -0.707933 -0.95183 0.139211 -0.885298 0.17447 0.271632 0.185856 0.597563 -0.207058 -0.27565 0.818368 0.639935 0.462732 -0.422649 -0.107514 -0.221861 -0.261162 0.835834 0.271683 0.407508 0.479461 -0.821197 -0.781957 -0.573454 -0.600244 0.75259 0.710787 -0.34556 -0.574125 0.484329 -0.0997185 -0.263537 0.546427 -0.973431 -0.186703 -0.296938 0.30598 -0.964146 -0.684817 -0.91755 -0.246545 -0.861642 0.728377 -0.81279 -0.268042 -0.366914 0.0200111 0.502943 -0.497798 -0.686645 -0.151161 0.983363 -0.507277 0.0756151 -0.61155 -0.0956106 -0.137366 -0.882869 0.519549 0.250244 0.627116 -0.567502 -0.987062 0.141569 -0.526738 -0.1598 0.863054 0.751811 -0.176407 -0.816782 0.873499 0.622075 -0.658795 
0.602598 0.810257 0.0667642 -0.76703 -0.162536 -0.443852 -0.255263 0.144657 0.461022 -0.293724 0.63112 -0.453644 0.106028 -0.442222 0.382628 0.221639 -0.913693 -0.312944 -0.172404 -0.474274 -0.307816 0.975903 -0.00804502 0.524765 0.803323 -0.238313 -0.616305 -0.984058 -0.359745 1.00258 -0.643851 -0.751798 0.811606 0.412075 -0.528848 -0.352137 0.968764 0.208028 0.818337 0.407499 0.911729 0.455772 0.90416 0.00916924 -0.988328 0.335462 -0.774179 -0.883713 -0.976191 0.081808 -0.369105 -0.307387 0.0365739 0.618103 -0.772543 -0.117405 -0.594653 -0.39145 -0.110866 0.0391132 -0.391804 0.239866 0.279045 -0.587257 -0.337862 0.764661 0.0701552 -0.362722 -0.0309971 -0.124622 -0.978232 -0.122413 -0.663666 0.982431 0.875498 -0.638963 0.333472 -0.890643 -0.552928 0.342956 0.182155 0.0530101 -0.948345 -0.773433 -0.297173 -0.727503 0.0922201 0.117265 -0.123706 0.981704 -0.871039 0.485732 0.227609 0.420441 0.888747 0.886239 0.186363 -0.0374884 -0.471307 -0.847539 
0.856139 -0.437654 0.0375803 -0.810595 -0.455382 -0.0733546 -0.464154 0.877349 0.055045 -0.0115004 0.225391 -0.75746 -0.933865 0.272184 -0.532084 -0.229449 0.540327 0.566059 0.869182 -0.581222 0.552781 -0.995122 0.902368 -0.217629 0.425291 0.807542 -0.324825 -0.387412 -0.216311 0.200339 -0.229091 -0.35994 0.761804 0.807591 -0.17089 -0.690336 -0.263221 0.36572 -0.81211 0.791147 -0.647805 0.413565 -0.968024 -0.581755 -0.3146 -0.495059 0.188598 -0.775772 -0.932448 0.0589884 -0.355291 0.619557 0.0632744 -0.452581 -0.598956 -0.510671 -0.644404 0.0766542 0.101427 0.139909 -0.722337 0.874066 0.780238 -0.960644 0.680595 -0.389644 -0.651252 -0.582502 0.975638 -0.462703 -0.793628 -0.672254 0.94875 -0.758303 -0.253799 -0.365301 -0.256948 0.936223 -0.139659 -0.188787 -0.00627624 0.504422 -0.569176 -0.942503 -0.949321 -0.167482 -0.453925 -0.590977 0.90732 0.647352 0.547689 -0.814794 0.515307 0.32867 -0.776653 0.202636 0.935479 -0.427095 0.619063 0.914113 
0.109121 0.827365 -0.757587 0.0582224 -0.930657 -0.0109813 0.692629 -0.186561 -0.0752644 -0.447029 0.624982 0.918777 -0.942266 -0.94419 0.976141 -0.889563 -0.112035 -0.477346 -0.481345 -0.203277 -0.828927 -0.933232 -0.0178093 0.692284 0.395241 0.206728 -0.105869 0.333837 0.779967 -0.486816 0.248194 -0.110913 -0.659453 0.490608 0.947308 -0.590087 -0.520353 0.639937 0.223354 0.404383 -0.807107 -0.151663 0.323161 -0.749373 -0.0958562 0.299332 -0.638936 0.792093 0.821951 -0.120281 -0.411168 0.993022 -0.0535112 0.571024 0.685301 -0.658272 -0.222251 -0.420568 0.675567 -0.442285 0.0926148 -0.0762381 0.446805 0.433165 -0.58563 0.394116 0.843075 -0.105983 0.0340495 0.0664415 -0.701613 0.226942 0.91476 0.621559 0.477569 -0.181093 -0.0791492 0.838636 -0.388984 -0.257189 -0.281648 0.199849 -0.264169 0.664841 -0.229145 -0.578867 -0.993426 0.548626 0.000550522 0.682136 -0.893662 -0.906821 -0.394148 0.553145 0.526339 0.020274 -0.0527709 0.369417 0.914287 0.981301 
-0.564157 -0.787314 0.208248 -0.649393 0.834245 -0.314183 0.169515 -0.244895 -0.475549 0.780532 0.497917 0.242803 -0.0196201 -0.766252 -0.0923561 0.751251 -0.345121 -0.0857851 0.299872 0.655443 -0.403647 0.40621 0.748622 0.202254 -0.0406474 0.274962 -0.777477 0.906608 -0.355623 -0.86319 0.887913 0.0802204 -0.650503 0.0961608 0.430827 -0.816258 0.781978 -0.399658 -0.0611535 -0.693572 -0.619126 -0.563237 0.549231 0.361254 -0.329489 -0.543125 0.112505 0.32539 0.37109 -0.587624 -0.019167 0.967443 0.818586 -0.270545 0.169697 -0.222062 -0.995584 0.39222 -0.315453 -0.351206 0.52903 -0.42754 0.729014 0.878527 0.668621 0.159842 -0.937731 0.450598 0.760184 0.00111525 0.757027 -0.858942 0.437878 0.306258 0.502312 -0.891611 0.763133 -0.385183 0.433779 0.134223 0.027193 -0.585388 0.101666 -0.154221 0.144066 -0.728637 0.623717 0.148483 0.663583 -0.691736 0.797277 0.192613 -0.119276 0.526291 0.0711402 -0.450656 -0.313867 0.133409 0.999943 -0.553683 
-0.86527 0.756764 -0.412239 0.572339 0.0650154 -0.909976 0.680686 -0.174216 -0.296883 0.113525 0.959973 0.732446 0.529219 0.0627095 -0.422638 -0.326641 0.33404 -0.797439 0.822585 -0.00489155 -0.485886 0.620185 -0.811128 0.389164 0.144502 0.260962 0.937958 0.831278 -0.604909 0.939604 -0.72126 -0.473456 0.695949 -0.135286 -0.903203 -0.243158 -0.046573 0.780659 0.589203 0.659473 -0.10465 0.546281 0.391426 -0.575329 -0.394286 0.968375 0.0976575 0.942368 -0.832269 -0.0784193 -0.0609884 -0.321717 -0.460155 0.129579 -0.929107 0.686286 -0.608042 -0.990923 0.515045 -0.215129 0.949384 0.793556 0.310764 0.645268 -0.338567 0.415222 -0.596085 0.613407 0.198104 0.990856 0.273556 -0.906753 0.536718 -0.335418 -0.479865 -0.853207 -0.366445 0.619034 -0.909845 -0.198383 -0.460604 0.0299249 0.480934 0.0779768 -0.842066 0.553897 -0.23622 -0.4522 0.561507 -0.719136 0.332388 0.507051 -0.925208 -0.353742 0.153424 -0.264276 -0.939127 0.556924 -0.650702 0.2589 
0.551119 0.614121 0.338786 0.0817938 -0.703529 0.88712 0.223722 -0.0842409 0.476349 0.31029 0.716572 -0.960448 -0.651644 0.213948 0.105687 -0.498573 -0.23897 0.877019 0.05377 -0.696436 -0.822133 -0.605931 0.801535 -0.788798 0.0380814 -0.0323687 -0.0539958 0.0994592 -0.455805 0.319617 -0.62112 -0.920716 -0.0770026 0.703851 0.130594 0.187174 0.585503 -0.617531 -0.818031 0.0660344 0.720793 0.853556 0.105295 -0.945242 0.0388128 -0.79562 -0.452178 0.830649 -0.954108 0.633224 -0.874214 -0.776866 -0.991801 0.94986 -0.515957 0.0471914 -0.0185151 0.421695 -0.87664 0.481018 -0.261861 -0.537666 0.530898 0.683723 -0.776293 -0.265127 -0.11046 0.758842 0.137574 0.0248273 -0.143082 -0.16093 -0.118486 0.901898 -0.0785575 0.970552 -0.857354 0.488339 0.815169 -0.814082 0.110446 0.957228 -0.572558 0.0925961 0.903016 -0.0954678 -0.862184 -0.150613 -0.677996 -0.721563 -0.709261 0.049235 -0.23411 0.851811 -0.282193 -0.0342613 -0.413514 0.602489 -0.257905 0.725242 
-0.367524 0.558191 -0.478653 0.523761 0.480914 0.521731 0.523261 0.626986 -0.0721915 0.25743 0.793175 -0.885607 0.22525 -0.698563 0.237079 0.108821 0.127981 0.305095 0.984987 0.435278 0.657897 -0.662858 -0.546049 -0.668359 -0.830933 0.179084 0.253334 -0.23678 -0.146364 -0.906881 -0.520389 0.475542 0.541799 0.0589583 -0.0427819 0.0615403 -0.447347 -0.551131 -0.319124 0.455482 0.824824 -0.548851 0.5176 0.0172897 -0.344232 -0.316115 -0.90861 0.782129 1.00552 -0.951757 0.194194 0.489601 -0.60607 0.673474 1.00927 -0.46128 0.101556 0.246336 0.253891 0.796258 0.270193 0.660905 0.225489 -0.101793 -0.158947 -0.814876 0.923834 0.185312 -0.249569 -0.428223 -0.230402 -0.467833 0.0189413 -0.837691 0.565781 0.705975 -0.109072 0.739492 0.616341 -0.184253 0.846665 -0.204688 -0.591031 -0.804231 -0.427931 -0.68259 -0.34254 0.467518 0.661842 0.923739 0.195383 -0.0970117 0.708891 -0.577153 0.801467 -0.548634 -0.338021 0.668792 0.801414 0.459218 
-0.703219 -0.585391 0.868147 0.31621 -0.406941 0.496031 0.0832528 0.510796 0.124017 -0.451605 -0.659702 0.0704458 0.357975 -0.0722858 0.284743 0.868653 0.206206 0.910072 0.353119 -0.129452 0.929909 -0.348026 0.70381 0.46246 -0.0190571 0.537095 0.82998 0.65946 0.424154 0.74095 0.0166496 0.664665 -1.01723 -0.00521182 -0.0413624 -0.315436 -0.558579 -1.00687 -0.823168 0.57587 -0.276082 -0.372709 -0.421435 -0.932323 0.401481 0.723774 0.811012 -0.394778 0.676412 0.156504 0.489805 0.318997 0.80938 0.215779 0.107545 -0.188871 0.0633926 -0.0492005 -0.592699 -0.685721 -0.441677 0.313367 0.939518 -0.25498 -0.558909 -0.0707301 0.396008 -0.397799 0.0717508 0.592975 -0.699813 0.691395 -0.799566 -0.214973 0.742682 0.643655 -0.408124 0.681572 -0.58338 -0.850355 -0.0470942 0.84492 0.620687 -0.236943 0.227753 -0.442902 0.444448 -0.965921 0.700998 0.801303 -0.67855 -0.781786 0.358284 -0.811268 -0.00137935 0.706408 0.264947 -0.679148 -0.425581 -0.702336 
-1.03486 -0.287714 0.962277 -0.851574 0.625039 0.67514 0.935942 -0.737253 0.283263 -1.0275 -0.597893 -0.604097 0.85433 -0.806448 0.142155 -0.0753827 -0.138664 -0.396148 0.129179 -0.590665 -0.448971 0.493049 -0.285053 0.641557 0.528898 0.726716 0.185243 -0.205944 -0.654786 0.99869 0.00480482 -0.780947 -0.448903 0.209379 -0.587942 -0.658331 -0.350323 -0.865418 -0.33664 1.00286 -0.52307 0.153887 -0.685488 -0.663917 0.105288 0.204461 0.23907 -1.01057 0.862941 -0.823346 -0.418653 -0.854194 0.754502 0.154042 -0.88572 0.34129 0.146824 0.500051 -0.979873 0.388262 0.336362 -0.147059 0.555457 -0.973303 1.13088 -0.896598 -0.503852 -0.599384 -0.567192 -0.0982653 -0.41556 -0.276838 -0.912136 -0.318526 0.157517 0.32146 -0.741835 -0.553188 0.458222 -1.01691 -0.158131 0.9672 -0.822145 -0.362021 0.279199 -0.825698 0.881215 -0.683188 0.894379 0.795051 0.760733 0.105835 0.0375831 0.207501 0.279659 0.00014947 0.540334 0.60701 0.76038 0.859213 
-0.404074 -0.803558 -0.405744 -0.378442 0.223309 0.731547 1.10174 0.385201 -0.725865 0.0689902 0.288554 0.254964 0.0578244 0.545393 0.775721 -0.69518 1.02162 0.805265 -0.144644 0.669984 0.833178 -0.460651 -0.100435 -0.49007 0.617463 -0.793192 0.387054 0.21789 1.04853 0.288628 -0.0543183 -0.546291 0.32064 0.981281 0.260287 -0.307648 0.340353 0.207671 -0.755007 0.615982 -0.501814 0.588007 -0.199771 0.749951 -0.0475027 -0.693354 -1.03266 0.0334099 -0.787282 -0.424157 -0.117426 0.595016 0.20712 0.615245 -0.684718 -0.00261577 -0.869085 1.04076 0.818001 -0.856013 0.248955 -0.300602 -0.29623 -0.311232 -0.509036 -0.897923 0.529482 0.463924 0.458947 0.349598 0.295294 0.821697 0.0360352 -1.16044 0.603348 0.985881 -0.347674 0.662844 0.216052 -0.20667 -0.459125 0.965002 -0.645444 0.60986 0.78114 -0.251684 -0.499627 0.529437 -0.0816215 -0.759455 0.904394 -0.952215 0.283708 -0.733224 -0.0945396 0.590791 -0.388692 -0.734337 0.5128 0.807133 
0.780334 -0.364866 0.735482 -0.258661 -0.0192122 0.390415 -0.12747 0.456442 0.241447 0.44469 -1.03738 0.768109 0.619686 -0.606954 0.364936 0.261259 0.356949 1.01485 0.355119 -0.927613 -0.563184 0.0124233 -0.870652 0.308185 0.157816 0.059516 -0.0955969 0.858501 0.490465 -0.689068 0.614487 0.061765 -0.201199 0.773885 -0.995486 0.804361 -0.232712 -0.325878 0.374037 -0.997215 -0.634911 0.49469 0.867972 -0.866728 0.592893 -0.129178 0.438277 0.0089055 -0.034597 -0.514245 0.247604 -0.0806358 0.475073 0.382805 -0.578657 -0.174925 -0.4197 0.510511 -0.776282 0.935404 0.853312 0.777738 0.221797 -0.247689 0.253603 0.347026 -0.262603 0.692957 -0.846095 0.860612 0.902916 -0.569711 0.304859 0.373592 -0.210247 -0.0836048 -0.0878213 -0.725211 1.19979 0.822591 -0.0259217 0.254188 -0.258038 -0.894434 -0.309242 0.332661 -0.0420485 -0.292206 -0.107155 0.11489 0.156815 -0.283913 0.212659 -1.06828 0.537404 -0.629173 0.423989 -0.888903 -0.559471 0.43833 
-0.96368 -0.935052 -0.87889 0.262241 1.40229 -0.224845 -0.739613 -0.0337699 0.158937 -1.3412 -0.429693 -0.919648 0.318101 0.257873 -0.750337 0.655813 -0.154414 0.389327 0.295353 0.545206 -0.538508 1.03656 -0.907499 0.438102 -1.02345 0.779872 0.624042 0.546396 -0.872098 -1.0484 -0.00305116 -1.07997 -1.06554 0.40659 0.330796 -0.835438 0.800058 0.389989 0.282975 -0.000285504 0.386353 0.81915 0.229569 -0.209469 -0.0890741 0.138873 -0.240115 0.671934 -0.487777 0.839942 0.364089 -0.173339 0.583575 0.545996 -0.648781 0.677681 0.371176 -0.836192 -0.166787 0.245563 -0.864417 0.64679 0.573348 -0.758031 -0.107209 0.0621131 -0.355211 -0.695559 -0.329075 0.740399 0.68196 -0.949667 0.504244 -0.769907 0.26322 -0.644199 -0.752444 -0.828257 -0.674351 -0.269126 0.845829 0.625138 0.483219 0.264438 0.036704 -0.882309 -0.148101 -1.02864 -0.74391 0.777066 0.871669 -0.564952 0.894478 -0.13392 -0.31504 -0.307226 -0.915007 0.191604 0.198252 -0.168973 
-0.0342477 -0.524801 0.10826 -0.736091 0.690963 -0.788957 -0.316996 0.553203 -0.723055 -0.664492 -0.852522 -0.885314 -0.697855 0.548278 0.309101 0.0203834 0.896119 -0.508162 0.914745 0.9626 -0.781815 0.374257 -0.902465 0.875804 -0.756566 0.06349 -0.710989 -0.205201 -0.487793 0.40569 0.253941 0.149226 -1.22518 -0.231459 0.50091 0.404945 -0.449645 -0.710248 0.183839 -0.152321 -0.211393 0.109973 0.0412668 0.220146 -0.318446 -0.798456 -0.164715 -0.57978 -0.245993 -0.541836 -0.702999 -0.113136 0.357456 -0.456041 -0.311582 0.866898 0.557934 0.129336 -0.903244 0.930138 -0.561659 0.377011 0.498109 -0.654469 0.816169 0.283624 0.92144 -0.974116 0.589081 -0.0923122 0.240247 -0.474428 1.04988 -1.16398 -0.879106 -0.53031 -0.253921 -0.125655 -0.0171327 0.379685 0.0444285 0.260253 -0.718195 -0.801389 0.58783 0.228412 -1.08575 -0.181341 -0.62845 -0.713803 0.411642 -0.194063 0.909815 -0.757015 0.276277 0.793337 0.606244 0.00776062 0.815163 0.196185 
-1.04262 -0.347603 1.16997 0.769632 0.0516645 -1.01862 -0.768188 0.660139 -0.374911 -0.373474 -0.0651567 0.658749 -0.830764 0.118423 0.851788 0.571001 -0.540267 1.21849 0.174045 -0.340773 -0.63381 -0.786545 0.13065 -0.986971 -0.603779 -0.456715 0.466711 -0.534057 0.795026 0.330461 0.443953 0.260219 -1.14788 0.918146 0.209979 0.216414 0.484427 0.710497 -0.0114585 -0.875101 -0.829495 0.784214 0.755906 -0.445986 0.00478903 0.638441 -0.283032 0.290914 0.808032 0.507402 0.573482 -1.08872 0.309847 -0.113597 -1.07595 1.07421 0.319969 0.521652 -0.930652 0.13659 -0.167061 0.624359 -0.134398 -0.339129 0.197301 -0.708613 -1.01591 -0.573524 0.84725 -0.16184 -0.159921 -0.747656 -0.322852 -0.580885 -0.0032798 0.326634 -0.528223 0.533179 -0.479219 -0.97232 -0.241067 -0.84588 -0.750634 -1.10319 -0.175892 -0.569273 -1.09254 -1.0737 0.934065 -0.777773 0.575437 -0.296803 -0.816572 0.708189 0.403154 0.471218 -0.864828 0.304352 0.861237 0.72482 
-0.798175 -0.567708 -0.392702 -0.212199 -0.0807409 0.370718 1.10473 0.599047 -0.283712 -1.01555 0.704251 0.595266 -0.441759 0.718555 0.663997 0.315918 1.08617 1.03104 0.601542 0.847663 -0.805776 0.0179762 -0.786627 -0.911055 -0.34582 0.739763 0.219974 -0.00421217 0.296672 0.0913269 -0.171439 0.125136 0.255016 0.640501 -0.925495 -0.190093 -0.365661 -0.553451 -0.608478 0.296905 -0.711945 0.928848 -0.196425 0.000462287 0.884322 -0.269309 -0.344414 0.795637 -0.450558 0.946343 0.176965 -0.606782 -0.49233 0.62664 -0.532999 0.441307 0.3524 0.831446 -0.885292 -0.188113 0.0105357 -0.00569086 -0.68714 -0.767414 -0.687884 -0.431975 0.197103 -0.339498 -0.263432 0.521089 -0.80036 0.233926 0.330529 0.0507673 -0.757396 -0.0654341 0.808061 -0.313809 -0.553399 -0.98945 -0.600642 0.715978 -0.21835 -0.298338 0.16521 0.694676 -0.724812 -0.563581 0.478181 -0.583042 0.515469 -0.733877 0.836531 0.29481 -0.559039 1.16369 -0.996192 0.653386 -0.104347 -0.679408 
0.230963 -0.0975103 -0.569944 -0.388141 -1.2755 -0.534504 0.661339 0.969906 0.0612175 0.476043 -0.843471 0.555135 0.669297 -0.269779 -0.296001 -0.0689083 -0.673357 0.323547 0.461251 0.409139 0.720035 0.0195074 0.584133 0.443339 -0.731316 -0.792685 0.324442 -0.66015 -0.910082 -0.796772 0.0722748 0.0604094 -0.269684 0.56618 0.892001 0.236394 0.720923 0.605117 -0.0160122 -0.264266 0.0284263 0.205103 -0.819462 -0.228111 1.25999 0.239559 1.03634 -0.599365 -0.753174 0.200132 0.465271 0.76781 0.819016 0.255144 0.164233 -0.795152 0.356992 -0.355745 -0.560424 0.634953 -0.0881444 0.496599 0.204916 0.720336 -0.277015 0.0510321 0.210612 -0.726778 -0.59171 -0.781009 0.086986 0.510793 0.0614074 0.444798 -0.784903 0.113038 -0.4499 1.01491 0.339939 -0.451674 -0.0247482 -0.195965 -0.23402 -0.259905 -0.931332 1.35237 0.168224 0.374212 -0.119464 0.522832 0.326184 0.626547 0.319554 -1.04769 0.180558 1.11348 0.14221 -0.640469 -0.545365 -0.00810915 
-0.439957 0.387445 0.46204 0.841313 -0.477228 0.458948 0.254641 0.558684 0.443108 -1.02881 -0.689431 -0.53409 0.282754 -0.208848 0.649023 0.36056 0.103428 0.0951093 -0.23082 0.484718 -0.448391 1.06027 0.2636 0.965583 -0.902275 -0.412817 0.88788 0.327644 0.216356 -0.783103 -0.159652 0.448601 0.333774 1.21917 0.593898 -0.342162 0.516355 -0.16374 -1.02646 -0.0510498 -0.302082 -0.829668 0.386707 -0.989834 0.440311 0.466527 0.735211 -0.584988 -0.906149 -0.944434 0.807532 -0.393391 -1.04699 0.0999414 -0.598 -0.929978 0.500827 -0.604289 0.432262 -0.11709 -0.274019 -0.854813 -0.0336845 -0.91223 -0.867459 -0.553625 0.0138642 0.566485 -0.150803 -0.0529495 -0.518645 0.629596 -0.00991123 -0.956556 0.487106 -0.667094 0.266738 -0.0569985 -0.362243 0.164009 -0.0499376 -0.713225 -0.648234 -0.0351094 0.409618 0.149562 0.353276 0.15786 0.304774 -0.358271 -0.746576 0.998195 -0.146377 -0.365432 -1.09721 0.23206 0.022247 -0.0791495 -0.199225 0.414025 
0.72981 0.12482 0.943194 -0.031378 -0.0867228 0.239592 0.647412 -0.357455 -0.708376 0.718463 -0.941021 0.118697 -0.531395 -0.913772 -0.566332 1.07452 0.0441466 0.996538 0.0143176 -0.971949 -0.667251 0.201803 -0.741279 0.58301 0.945799 -0.755384 -0.346489 0.174835 0.319649 0.197391 0.11453 -0.273087 -0.801564 -0.0368241 -0.834281 0.834917 -0.960534 0.85013 -0.691024 -0.658425 0.339215 -0.880761 0.624242 0.869702 -0.321228 -0.487591 1.19411 0.757872 -1.0552 -0.293802 0.927255 -0.521778 -1.05706 0.968972 -1.20103 -1.22531 -0.908726 -0.466291 0.0743121 0.509577 0.904161 -0.931937 -0.0817464 -0.853752 -0.218329 -0.0240172 -0.757735 -0.185381 -0.812153 -0.54712 0.0931142 0.571501 -0.472541 -0.188903 0.161757 0.285844 0.153903 0.192409 -0.111516 0.0414475 -1.0247 -0.541363 1.11117 -0.989365 -0.48975 1.27202 -0.731177 -0.0549811 -0.511252 0.205535 -0.430071 -0.659588 0.17913 -0.0654303 -0.591334 -0.648781 0.858473 -0.277283 0.135575 -1.30434 
-0.100304 -0.823746 1.06023 0.733686 -0.224356 0.223298 0.338502 -0.608763 -0.552536 0.733716 0.593785 -0.793986 -0.444945 0.225114 -0.404302 0.46299 0.283152 -0.0399213 -0.942435 0.500619 0.625361 -0.387512 -0.82676 0.351296 0.629109 -0.400858 0.36088 0.778989 0.221151 -0.673011 0.908633 -1.1314 -0.625027 0.896386 -0.801277 0.914082 -0.209797 0.437172 -0.820893 0.282721 -0.0758827 0.495189 0.703259 0.682433 0.0667816 -0.332768 0.241923 -0.628651 0.0610679 -0.270152 1.18004 0.0801855 0.449265 0.910996 -0.799066 -0.0755941 -0.545009 0.741726 -0.160636 0.771018 -0.817185 -0.232073 -0.630826 -0.324204 -0.7424 -0.515858 -0.147724 0.014707 0.263008 -0.205624 -0.7546 -0.809886 -0.988663 -0.892428 0.530794 0.40681 -0.198147 -0.390711 0.707349 0.859875 0.596909 0.28977 0.476105 0.0819523 0.313379 0.956357 -0.349779 -0.814358 0.327787 0.312714 1.01569 0.45012 -1.04139 -1.04986 -0.78901 -0.416894 -0.703769 0.204514 0.611229 0.215693 
0.634603 -1.02484 1.2401 -0.862218 -0.88629 0.75931 0.768905 0.170494 -0.504889 -0.118789 0.0176302 -1.00207 -0.61259 -1.01606 0.35838 -0.68942 0.849327 1.05737 -0.786299 -0.261543 -0.206726 -0.837515 -0.274844 0.224898 -1.09768 -0.060755 0.377639 -0.369382 0.840007 -0.0216152 -0.710973 0.326945 -0.0379142 -0.677253 0.864937 0.572744 0.669653 0.51816 -0.351146 -0.641163 -0.902722 0.533553 -0.415417 -0.0458633 0.595055 1.00427 0.301638 0.505955 0.611312 0.06109 -0.335101 -0.159305 0.206166 -0.293015 0.83572 0.202756 0.484253 0.467509 -1.06185 0.543375 -0.42615 -0.680815 0.410634 0.539278 -0.891652 0.255847 0.402116 -1.2059 -0.868932 0.898972 -0.838547 -0.675937 0.0361285 -0.153347 0.0380066 0.151354 0.15664 -0.811094 -0.508139 -0.267051 0.392576 -0.542123 0.922284 -0.404349 0.210352 1.03493 -0.531418 0.282367 0.0354067 -0.925709 -0.181311 0.541659 -0.703555 0.839648 0.192608 -0.290314 0.00158251 -0.0857091 -0.345497 -0.21027 
-0.638795 0.0185545 0.987059 0.692781 -0.761119 -0.194958 -0.0149509 0.295857 0.134468 -0.104801 0.794453 -0.495972 0.482007 0.297848 0.3094 0.36744 0.310218 0.759349 -0.376515 -1.06062 0.363087 0.30938 0.954418 0.937726 -0.34823 0.372677 -0.833028 -0.816762 0.727517 -0.0718177 0.400203 -1.00567 -0.965853 0.172368 0.914951 -0.553902 0.538675 -0.216593 0.623516 -0.132317 0.375968 0.526774 0.642411 0.522486 -0.244234 -0.310154 -0.0388278 -0.848047 -0.972445 0.218541 -0.493894 0.830644 -0.558087 0.79195 0.52921 0.350775 -0.160993 -0.975942 0.525391 -0.2051 0.098096 0.104015 0.275319 0.195405 0.681723 0.166538 0.869852 0.0952222 0.539056 0.36577 -0.878625 -0.0211097 -0.525971 0.616297 -0.732505 0.826855 -0.0554233 0.214114 0.757843 -0.0916674 -0.596794 0.615845 -0.244721 -0.46081 0.442811 -0.306207 -0.23504 -0.178312 -0.796222 0.712736 0.78328 0.145505 -0.130579 -0.450321 -0.5258 -0.23371 0.756093 -0.549711 -0.890304 -0.0699981 
0.502494 -0.627615 -0.428528 -0.821642 -0.417684 -0.373614 1.0275 -0.114847 -0.958497 0.295774 0.550684 -0.518126 0.0476532 -0.718626 0.213565 0.102532 -0.181625 0.799905 1.30194 -0.368186 0.325148 0.771119 -0.810484 -0.674648 -1.09093 -0.113369 -0.411434 -0.992028 -0.288201 -0.386452 0.253288 -0.681458 0.345929 0.659262 -0.481703 0.599418 -0.911857 -0.415454 -0.171725 -0.783014 -1.23451 -0.365193 -0.114828 0.420158 -0.528346 0.680171 -0.275078 0.524627 0.0604063 -0.260864 -0.512989 -0.0219425 -0.656074 -0.8048 -0.125426 -0.335171 -0.368949 0.825693 -0.601771 0.673694 -0.24682 1.01344 -0.506777 -0.91181 0.0844664 -0.105786 0.968332 -0.110333 0.352579 -0.396343 0.358607 0.086543 -0.100549 -1.02797 -0.607764 1.02804 -0.475254 0.279852 0.1864 0.626253 -0.973328 0.388893 -0.838038 -0.982299 0.431209 0.574453 0.485002 -0.516583 -0.200332 0.140082 -0.661708 0.43484 0.122242 -0.677359 0.567216 -0.621247 0.373197 0.648574 0.501161 -0.531242 
0.94849 -0.0509114 0.947294 -0.0186196 0.583852 -0.528619 -0.233203 -0.09749 -1.20998 -1.31968 -0.752205 -0.884181 0.189162 -0.102129 -0.905052 0.0716803 1.15948 0.302268 1.23055 -0.361376 -0.527797 -0.755493 -0.583384 0.837492 -0.776914 1.19154 0.681611 0.814878 0.300531 0.0759673 -0.577756 0.300916 -0.532206 -0.625144 -0.933226 0.358834 -0.239056 0.0231827 0.0738852 -0.209923 -0.138688 0.52835 -0.1395 -0.506026 -1.42282 -0.288571 0.903027 -0.802156 -1.18956 1.10032 -0.0140342 -0.0474309 1.02512 0.0873676 -0.722623 -0.253639 -0.224266 -0.728926 -0.860912 -0.564957 0.739631 -0.0093279 1.20538 -0.893485 -0.230875 0.954786 0.739237 0.239612 0.0704645 -0.601824 -0.62881 -1.0549 0.8985 -0.0667392 -0.637228 1.12705 -0.397007 -0.395054 0.759643 -0.416359 -0.418663 -0.300067 -0.135926 -0.616215 0.496626 0.627216 0.658576 -0.512974 0.247962 0.0681355 -0.064694 -0.11971 0.82187 -0.2921 -0.0407945 -0.187163 -0.0666331 -0.162505 -0.742844 0.922608 
0.0967942 -0.4681 0.959795 -0.0346234 1.08289 -0.162403 -0.354088 0.461748 0.490038 -0.725285 -1.25385 -0.659847 0.0942937 0.222503 -0.629082 -0.206965 -0.660516 0.89357 1.06772 0.365873 0.28764 -0.0104658 -0.510323 0.24916 0.312993 0.669224 0.643913 -0.622851 -0.909494 -1.08614 -0.78764 0.0985407 -0.335036 -0.758964 0.662724 -0.967893 -0.0113063 -0.351885 -0.62744 -0.356044 0.179627 -0.904274 -0.121274 -0.473822 -0.48448 0.453131 0.622812 0.285038 0.428309 0.944031 -0.358942 0.0155394 -0.552816 0.00320069 0.851954 1.144 -0.774095 0.58605 -1.00023 -0.526929 0.773748 -0.430445 1.07303 -0.73597 -0.548802 0.464943 -0.498434 0.151133 -0.655549 -0.670676 1.09192 0.508989 -0.155647 -0.212609 -1.13911 0.610928 -0.0528946 -1.07585 -0.652322 -0.536078 0.567934 0.0354224 -0.24956 -1.08917 0.679095 -0.0734238 1.16187 -1.04513 -0.842978 -1.19833 -0.717306 0.606985 -0.789603 -0.792556 0.783914 -0.185864 0.981841 -0.510739 -0.736026 -0.916862 
-0.0957885 -0.901518 0.608047 0.487614 0.379954 1.04109 -0.401217 0.48055 -0.956947 -0.202576 0.686338 0.854883 -1.15949 -0.120611 0.332966 0.57853 0.342768 0.689422 1.21266 0.101806 0.911882 -0.168957 0.154211 -0.712046 -0.338245 0.0848812 -0.13363 -0.480569 0.284604 -0.00541623 -0.363177 -0.997765 0.353052 -0.850246 0.18056 -0.661893 -0.81561 -1.20605 1.27261 -0.598899 -0.0209214 0.860339 -0.879811 0.0595569 -0.779364 -1.13691 -0.142046 0.80022 0.798761 0.349304 -0.0314063 0.903259 0.660574 1.00966 0.946871 -0.451435 -0.416906 -0.149711 -0.259081 0.872157 1.20729 0.552073 -0.657262 0.274651 0.785005 0.259247 0.424608 0.639813 0.431086 0.31818 -0.843112 -0.516132 0.646182 -0.747048 0.233246 0.810188 -0.356139 -0.568736 0.207326 -0.322593 0.446799 -0.745163 -1.13025 0.19469 0.992283 1.10603 0.609552 -0.499434 -0.175381 -0.886168 -0.585402 -0.379072 0.672812 -0.279968 0.661912 0.455393 -0.879514 0.585482 0.47766 0.314621 
0.0213333 0.407444 0.851379 -0.637043 0.996765 0.516287 0.76677 -0.654864 -1.13276 -0.14063 -0.317528 0.869622 0.0148713 0.125577 -0.246198 -0.0021311 -0.03108 -0.576641 1.07521 0.423335 -0.0714827 -0.165741 -0.571067 -0.217279 0.346254 -0.727307 -0.973036 0.269001 0.700399 0.405903 -0.312882 -0.592212 0.0741928 -0.550682 -0.312756 -0.00379763 0.79835 -0.660652 0.429426 -0.944592 0.642018 -0.727192 0.613548 0.00604891 -0.171869 -0.464978 -0.782061 0.898283 0.286197 -0.438516 0.341857 -0.776813 0.0409648 0.619877 0.139582 -0.53136 0.576036 0.197769 0.586212 0.114461 -0.110536 -0.758115 0.891739 0.838512 -0.0360049 -0.694511 -0.409885 -0.477198 0.132312 0.81742 -0.431405 -0.0910463 -0.679619 -0.842797 0.633348 0.0678977 0.166411 -1.00842 -0.201026 -0.378431 -0.581305 -0.893074 -0.640726 0.486908 0.699371 0.61009 0.647414 0.209233 -0.0931883 0.0390743 -0.432509 0.403235 0.605262 -0.598109 -0.0901737 -0.739219 -0.0432736 0.835959 0.31196 1.03986 
0.716896 0.586051 -0.25712 0.843137 -0.999618 -0.262454 -0.398336 0.353477 -0.455516 0.376798 0.67514 0.490101 0.383507 -0.263072 -0.192866 0.191247 -0.772576 -0.511161 -0.26715 -0.0341525 1.00934 0.46689 -0.379873 0.647568 0.694753 0.70915 -1.13469 -0.436205 0.583785 0.120516 -0.504668 0.112996 -0.0304631 0.334641 -0.18634 0.111407 0.880642 0.398924 -0.642227 -0.206583 0.0975706 -0.777905 -1.11689 -0.196361 -0.522494 -0.291916 -0.966437 -0.203035 0.442297 -0.00856799 0.893077 0.295021 -0.770045 -0.715239 0.394374 1.00309 0.846379 0.267636 -0.475721 0.438308 -0.53979 -0.109547 -0.290425 0.274119 -0.403029 0.299091 -0.663566 -0.726178 0.079223 -0.309707 0.00469957 -0.604277 0.0752634 -0.167178 0.000716379 0.60812 1.05129 -0.109339 -0.465351 0.516789 -1.00591 -0.910163 -0.314388 -0.755844 -0.485468 -1.06557 -1.07249 -0.486388 0.316223 -0.575854 -1.0394 0.537453 0.724282 -0.308983 -0.418931 -1.14521 -0.79634 0.224097 -0.454553 0.500845 
0.808215 0.197694 0.495308 -0.218739 -0.704603 -0.215736 -0.841552 -0.588464 0.702749 -0.261369 0.81297 0.999309 -0.113594 -0.048779 -0.834045 0.549749 -0.17617 -0.746998 -0.87757 -0.849876 0.139738 -0.795284 0.633975 -0.339008 -0.252462 -0.472151 -0.32155 0.0236948 0.926399 0.182872 -0.643638 0.714685 -0.450543 0.934364 -0.855434 -0.0811315 -0.335884 -0.467909 0.262982 -0.457158 0.491159 0.162636 -0.760995 -0.622399 0.843489 -0.57358 -1.04482 -0.340961 -0.19268 -0.652889 -0.0930474 0.652651 -0.560796 -0.517851 -0.200647 0.376864 0.168302 0.389595 -0.548424 0.0193985 -0.474152 -0.34289 -0.343188 -0.100443 -0.0785948 -0.17414 0.870797 0.476609 0.574439 0.156152 0.897217 0.164531 -0.465836 -0.824873 0.577875 -0.631148 -0.097059 0.248233 0.121298 0.667037 0.595229 0.837454 0.260219 -0.757847 -0.553935 0.847421 0.313055 0.841096 0.37244 0.796218 -0.384428 0.8003 -0.382318 0.377757 -0.350033 0.227967 -0.706053 -0.235484 -0.0827907 -0.867818 
0.926119 -0.367924 0.0128985 -0.711494 -0.037774 -0.440618 -0.471139 0.745046 0.898662 0.724492 0.358918 0.671306 0.616357 -0.132382 0.83164 -0.849749 -0.281781 0.307986 0.788222 -0.929242 0.268374 -0.438464 0.720619 0.718033 0.810375 -0.351059 0.122059 -0.714565 0.54665 0.960005 -0.747235 0.437131 -0.323169 0.227847 0.53808 0.574781 0.844748 -0.764594 0.472451 0.78907 0.999707 -0.15182 0.321379 0.545278 0.716059 0.212992 0.628196 -0.540944 -0.436703 0.716766 -0.474633 0.645215 -0.833277 -0.709801 0.567625 -0.869422 0.279824 -0.352216 -0.606689 -0.363714 -0.380321 -0.386606 -1.00223 0.135716 0.94118 0.618332 -0.175393 0.814305 0.936681 -0.796173 0.40863 0.938995 0.222072 -0.0863813 0.466432 -0.147039 -0.781131 0.0652941 0.262224 -0.298549 -0.240433 0.663901 -0.613965 -0.0243804 -0.858514 0.920302 -0.0596551 0.451357 -0.35315 0.314367 0.825338 0.180702 0.942153 0.915225 -0.665317 0.866398 0.616999 0.21651 0.650201 0.596517 
0.555831 0.105031 0.503302 -0.32201 -0.962288 -0.0581245 0.490636 -0.786479 -0.92689 -0.209667 -0.0624747 -0.183799 -0.427071 0.378422 0.724541 -0.235657 0.278984 -0.27897 -0.925007 0.870487 -0.924756 0.993504 0.0456568 -0.990135 0.932874 0.50433 0.888203 0.580528 -0.20639 0.492338 0.194539 -0.644787 -0.396432 -0.317042 0.022807 -0.364314 0.631471 -0.469893 -0.119538 0.712476 0.313832 0.824943 -0.47783 0.882569 0.203702 -0.73755 -0.364827 -0.512645 -0.0128437 -0.268964 -0.6356 0.0362573 -0.2762 0.422167 0.0568157 -0.336084 -0.0438008 -0.0565675 -0.7561 0.747051 -0.559466 0.447062 -0.903926 0.0332468 -0.871387 0.128661 0.676876 0.771782 0.658839 -0.451022 0.461172 -0.0270131 -0.622693 -0.994011 -0.145618 0.575017 -0.744644 0.49126 -0.941022 0.233359 -0.77469 -0.577678 -0.733763 -0.0503594 0.85096 0.323091 0.596066 -0.172146 -0.730864 0.837587 -0.455878 -0.299028 0.26276 -0.344905 0.727189 0.412097 0.780657 0.42332 0.175417 0.446736 
0.971136 -0.347587 -0.581162 -0.654539 -0.347213 0.263293 0.919111 -0.0840934 -0.237772 0.986512 -0.851441 -0.0168018 -0.588896 -0.580652 0.927365 -0.726901 0.741141 0.529872 0.080681 -0.993096 0.371987 0.633306 -0.289164 -0.352265 -0.712341 -0.54754 -0.943478 -0.924873 0.873586 0.231629 0.52558 0.844673 0.883582 0.944413 -0.810164 -0.459061 0.211845 -0.891164 0.457262 0.974118 -0.907666 0.605871 -0.0424364 -0.496551 -0.975404 -0.109085 -0.223453 0.762525 -0.586239 0.857267 0.772649 0.785183 0.490924 -0.516305 -0.568152 0.778241 -0.0643659 -0.511631 0.853978 -0.190933 0.71982 0.379539 -0.345686 0.604086 0.323946 -0.155358 -0.855673 -0.464168 -0.0471159 0.604067 -0.492622 0.0451317 0.206116 0.467203 0.548666 0.231546 -0.649929 -0.674361 -0.00264789 -0.234275 -0.81759 -0.229752 -0.449455 0.673442 0.250242 -0.0173526 0.452495 -0.80951 0.468099 0.30548 -0.00105808 0.190581 -0.324204 0.653518 -0.206214 -0.989723 -0.508165 -0.061309 -0.454726 0.449194 
-0.460461 0.0552187 -0.504693 0.746588 -0.477579 -0.956026 -0.0217674 -0.125764 -0.630814 0.975621 0.640075 -0.448393 -0.254344 -0.809376 -0.775019 0.999171 0.173021 0.676988 -0.811402 -0.356211 -0.0170555 0.187526 0.83437 0.668432 -0.159314 -0.371659 0.677865 0.337893 0.566637 -0.776868 -0.212018 -0.893824 0.278351 0.28329 0.852763 0.800773 0.327263 -0.169004 -0.324991 0.696449 -0.193383 -0.684916 -0.751943 0.552273 -0.494293 -0.526962 0.551444 0.678729 -0.849974 0.740042 -0.677482 0.13297 -0.0724315 -0.843112 -0.198598 0.768255 -0.214771 -0.520732 0.106147 -0.648134 -0.2976 0.89413 -0.541959 0.980751 0.177419 -0.689195 0.781524 -0.495318 0.1418 -0.543467 -0.798868 0.948417 -0.228384 -0.550811 0.50069 0.277324 -0.0777732 0.0521333 -0.0439476 0.0722525 -0.207825 0.27857 -0.794777 0.719744 0.435458 0.00662518 0.487998 -0.779313 0.485893 -0.405854 -0.427447 -0.811707 -0.511725 0.0305943 -0.830955 0.665694 0.341399 0.950569 -0.829623 -0.516801 
-0.593611 -0.629458 -0.570948 0.177989 -0.175751 0.933311 -0.543377 0.742451 -0.0168027 0.412234 -0.187269 0.778718 -0.30822 0.0226701 0.495521 -0.872801 -0.971803 -0.0162847 -0.653934 0.511919 0.587519 -0.0793304 0.698769 -0.937096 0.94944 0.869003 0.732004 0.293339 0.821842 0.904673 0.775927 -0.774504 -0.726197 -0.795309 0.401991 0.0868609 -0.859753 0.86176 -0.159814 0.122971 0.271456 0.651689 -0.0996038 0.964938 -0.329972 -0.606636 -0.910641 -0.299315 0.381069 -0.559117 -0.788142 -0.0433789 0.357696 0.912519 0.0281009 0.309285 0.787224 -0.240499 -0.403462 0.606531 -0.340076 -0.627098 0.831034 -0.0630566 -0.416453 0.241816 -0.969164 -0.282641 0.106293 -0.132972 0.8422 -0.621435 -0.477358 -0.258771 -0.656693 0.195821 0.138429 -0.563677 0.898452 -0.484558 -0.127299 -0.887613 0.474296 -0.773662 -0.976695 -0.497726 0.539726 0.80915 0.260971 -0.863749 0.414474 0.918676 -0.489235 0.247179 -0.143903 0.0932641 -0.511851 -0.116916 0.808735 0.592568 
0.750937 0.670088 0.91125 -0.730333 -0.598424 -0.635808 0.455743 0.549839 -0.248757 0.348223 -0.970423 0.653293 0.49833 0.607557 0.852302 0.520162 -0.940634 0.344467 0.313298 0.25676 0.570587 -0.242638 0.146336 -0.993881 1.00437 -0.96234 0.0999504 -0.513041 -0.0542233 -0.0369059 -0.893861 -0.307139 -0.426606 -0.986285 -0.0944438 -0.0786968 -0.608311 -0.593505 -0.470044 0.0738584 0.829332 -0.467182 -0.275695 0.281541 -0.98098 -0.497328 -0.273553 -0.895013 0.932981 -0.880257 0.347684 0.461924 -0.18706 -0.461654 0.553119 -0.22869 -0.258065 -0.342613 0.221914 0.581151 0.55586 0.279772 -0.773336 -0.78558 0.364973 0.24075 0.150368 0.617261 0.692238 0.65599 -0.233301 0.490232 -0.777204 0.395448 -0.197336 -0.700675 0.961267 0.558751 -0.571614 0.878987 0.633272 0.813243 0.330001 -0.5672 -0.660841 -0.1412 0.221529 -0.0185771 0.524864 -0.598292 -0.513839 0.0963077 0.704625 -0.219896 0.260621 0.0430513 -0.939641 -0.618776 -0.295748 0.7195 
-0.930738 0.404821 0.0584875 -0.736257 -0.194216 1.08717 -0.470093 -0.113441 0.546675 -0.0750641 -0.37748 0.221505 -0.244624 -0.671251 0.708483 0.0339299 0.0536595 -0.38408 -0.94141 -0.517069 0.230332 -0.286369 0.461287 -0.16739 0.463232 -0.213617 0.701978 0.449149 0.333482 -0.299897 0.117583 0.443256 0.878399 -0.663212 0.529003 -0.286327 -0.640013 -0.974853 0.517999 0.738883 0.248447 -0.790586 -0.101551 0.942101 -0.907947 -0.707392 -0.236733 0.137755 0.248037 -0.0554389 0.550584 -0.698127 0.581636 0.016134 0.431683 -0.130955 -0.719043 0.212417 -0.753748 0.258171 0.672574 0.322786 -0.389326 0.872156 0.854482 -0.821673 -0.507397 0.790747 -0.53453 -0.919344 0.748843 0.66191 -0.662897 -0.618932 0.598928 -0.539311 -0.142239 -0.451319 0.819583 -0.970816 0.518049 0.358173 -0.840654 0.0495128 -0.421497 0.461197 0.870436 -0.563053 -0.11032 -1.04685 0.646864 -0.466208 0.511015 -0.704337 -0.629153 0.173828 -0.281844 -0.230261 0.243326 0.236472 
-0.0208165 -0.278875 -0.480782 0.0942759 0.239781 -0.660271 0.560133 -0.604127 -0.2891 0.228379 -0.866068 -0.649034 -0.443943 -0.111279 0.528357 -0.13033 -0.573438 -0.082648 0.548245 0.113528 0.255264 0.262389 0.46101 -0.552689 0.473336 -1.06351 0.319043 0.942857 0.254166 0.0320752 -0.115394 -0.768262 0.394984 0.735393 0.164794 -0.206875 0.867752 -0.354923 -0.179502 -0.452599 -0.564186 0.300699 -0.239843 -0.0942459 0.639566 0.7563 0.472964 -1.00298 0.120838 -0.0764347 0.153773 -0.958071 -0.649582 -0.385973 0.0996855 0.717891 0.216596 -0.33871 0.527344 -0.920494 0.333574 -0.766059 -0.777138 0.291488 -0.647921 0.425501 0.948132 0.607423 -0.568406 0.0105953 -0.520663 -0.335702 -0.638825 -0.111132 0.637085 0.931521 0.0167604 0.342409 -0.580918 -0.930525 -0.473711 0.383575 -1.13784 -0.175915 -0.534899 -0.287743 -0.725324 0.261546 0.860333 0.575278 0.38857 0.0453389 -0.542968 0.567344 -0.570086 -0.523623 0.310951 -0.819679 -0.322491 0.793412 
0.347906 -0.172853 -0.890914 0.415668 -0.962451 0.815074 0.433123 0.402491 -0.0784013 0.466683 0.0976725 0.649544 -0.2076 0.670478 -0.48253 -0.140779 -0.349844 -0.533791 -0.568003 -0.775199 -0.381622 0.815342 0.124289 -0.438635 0.182368 0.706295 -0.349173 -0.756009 -0.383427 0.947302 0.624997 0.866065 -0.718863 1.38603 0.280011 -0.437262 0.662966 -0.474498 0.702807 -0.434492 -0.370388 0.213461 1.02927 0.425204 -0.748629 -1.1341 -1.02016 -0.0930012 -0.189562 -0.843849 0.268979 -0.12526 -0.692337 -0.643555 1.10911 0.599637 -0.193508 0.171683 0.452231 0.124639 -0.368819 -0.0974427 -0.0397549 0.409387 0.422602 -0.679887 -0.959592 -0.716203 0.344056 0.716404 0.310577 0.664963 0.00465958 -0.204942 0.334041 0.217875 0.339355 0.425226 -0.482753 -0.82447 1.05119 0.574834 -0.330659 -0.793079 -0.562137 -0.446378 0.340951 0.0707031 -0.740962 -0.349432 -0.763345 -0.300942 -0.648508 -0.0737494 -0.530017 0.411835 0.728763 -0.964175 -0.412981 0.0907517 
-1.07082 0.443045 -0.737608 -0.354298 -0.20211 0.645963 -1.08198 -0.622521 0.0241088 -1.113 -0.976255 0.22907 0.54522 0.203782 0.357787 0.86984 -0.706345 -0.510438 0.413278 -0.744218 0.825948 0.266341 -0.222491 0.706249 -0.915608 0.275068 -0.273341 0.586548 1.0058 0.689268 -0.910314 0.829605 -0.370599 0.395919 -0.455215 0.616189 -0.754948 -0.590384 0.79846 0.175602 -0.0396827 1.26586 -0.750751 -0.352011 0.00995523 -0.0424104 -0.979446 0.360575 1.00082 -0.0294125 0.654613 -0.0317897 -0.540673 -0.611851 0.175871 -0.300995 -0.590353 -0.556356 0.607736 -0.813513 0.650143 0.739939 -0.810477 -0.313098 -0.300038 -0.172018 -0.411176 -0.747974 0.633593 -0.766344 0.974305 -0.835532 -0.191727 -1.46453 -0.0140136 0.444679 0.115865 0.385309 0.113299 0.152221 -0.201183 -0.480048 -1.13221 -0.112129 0.548875 0.0387739 0.126365 0.352128 0.868809 -0.213109 0.776039 0.41061 0.117597 0.341021 -0.2967 0.630137 -0.368929 -0.296913 0.0269675 1.25593 
0.120668 -0.66259 -0.908721 0.424423 -0.235824 0.22207 -0.0906775 0.977728 -0.294211 0.332535 -0.516661 0.594863 -0.751813 -0.393955 -0.583954 0.497416 -0.895882 0.543912 0.961799 0.618243 -0.209013 0.0586579 -0.0687762 0.47248 -0.542516 0.458412 -0.120233 -0.0210545 -0.320025 0.808722 -0.307574 0.640744 -1.16734 0.80919 0.284439 -0.45438 -0.892434 -1.04131 -0.490003 -0.0763466 -0.930463 0.341774 -0.546903 -0.540888 0.516304 -0.748387 0.625069 0.679416 1.20661 -0.135222 0.36714 -0.694443 0.965681 -0.634963 -0.824711 -0.541265 -0.670123 0.541146 -0.238711 -0.255641 0.0651876 0.63547 -0.212898 0.222953 -0.24595 1.12536 -0.808779 -0.481532 -0.718053 -0.461427 1.04578 -0.924281 1.05124 -1.40341 -0.189658 0.0760821 -0.377408 0.00556453 0.276999 -0.141603 1.13677 -0.421411 0.0849248 0.607543 0.380975 0.453614 -1.00119 -0.247687 0.0487994 -0.102356 1.0687 -0.699528 0.0755942 -1.03596 1.00026 0.925095 -0.55266 0.533286 0.340671 0.0622674 
-0.817787 -0.361371 -0.0328962 0.725573 0.753056 0.833055 -0.229582 1.06215 -0.0928619 0.252736 -0.606088 0.163951 -0.688678 0.521567 -0.303335 0.0671764 0.339695 -0.0853536 0.321321 -0.89169 0.889903 -0.546335 -0.786233 -0.211439 -0.196045 -0.930932 -0.569706 0.266797 1.11997 0.525877 0.78955 -0.843232 -1.07379 0.619547 -1.019 0.398544 -0.417444 -0.261057 0.71196 0.688176 -0.29254 1.30762 -0.240457 0.0287326 0.717623 -0.0801814 -0.833696 -0.123105 1.0693 -0.103178 0.084433 0.77231 0.0169388 0.471082 -0.382745 0.763401 0.753603 0.384113 -0.530133 0.628839 -0.200694 -0.646225 -0.699864 0.107652 0.199504 -0.550778 -0.0973643 -1.49326 0.166585 -0.595778 1.00887 -1.17362 -0.158529 -1.47714 0.41786 0.753719 0.641271 1.10393 0.309669 0.635756 -0.36501 -0.357468 0.403428 0.31183 1.24632 -0.764 0.100848 0.156944 0.620172 -1.06083 0.718824 -0.249198 -0.329143 -0.0583523 1.10928 1.26036 0.776834 -0.609965 1.16008 0.49783 
-0.14741 0.456716 0.147025 0.0559978 1.37404 -0.489784 -0.267778 0.685984 -0.493997 -1.67152 -0.111678 0.229594 -0.674541 -0.840058 -0.451232 -0.905839 -0.132353 1.11271 1.60578 -0.678775 0.858994 0.513877 -0.309419 -0.682511 -0.306287 -0.334531 -0.768724 -0.10794 0.554684 -1.08335 0.499714 -0.852124 0.141066 0.547812 0.240745 0.474316 0.267238 -0.483325 0.575871 0.832137 -0.854785 -0.37532 -0.0814202 -0.339317 0.191032 0.206175 0.0349262 0.570521 0.360682 0.0294059 0.736249 0.138259 0.815507 -0.32744 0.201716 -0.347651 0.435213 0.60358 -0.0640477 -0.110211 0.517409 -0.336958 0.53177 0.0971601 0.235167 0.316824 -0.0811628 -0.807081 0.344816 -0.720224 -0.11293 -1.26636 -0.0971731 -0.16892 -0.094944 -0.022004 0.0239959 1.00791 0.0565774 -0.917329 -0.556692 0.164713 0.530073 -1.18918 0.74418 -0.105354 -0.381927 -0.598328 -0.349463 -0.91256 -0.561501 -0.491382 -0.270693 -0.245874 0.747878 -0.36983 -0.833387 -1.01537 -0.0332877 0.86299 
-0.739058 0.126283 0.790342 -0.424439 -0.342728 -0.491245 0.592552 0.732542 -0.778223 -1.20508 0.552355 -0.334262 0.245802 -0.0985622 -0.129729 -0.380741 -0.830262 1.14089 1.0183 -0.423634 0.740924 0.914289 -0.1677 -0.702716 -0.232604 -0.832625 -0.334165 0.653677 -0.264905 0.0168287 0.0469828 -0.395655 -1.00535 0.509433 0.428158 0.10756 0.317404 0.812765 0.0805216 0.587587 0.366484 -0.0156749 -0.940123 -0.196088 1.60314 -0.0173248 0.899133 1.17033 -0.354996 0.199602 -0.715885 -0.729528 -0.60665 0.171447 -0.759219 0.485415 0.532416 0.0425641 -0.35828 -0.799186 -0.921517 0.901288 0.203301 -0.602518 -0.46472 0.103838 0.807163 -1.42279 -0.871266 -0.18344 0.856284 0.796331 0.891016 0.543611 -0.153459 0.246605 -0.2179 -0.425005 0.451981 0.0263153 0.285548 1.01536 1.11825 0.246953 0.254055 -0.208831 0.119108 -0.864747 0.772922 -0.893837 0.0181247 1.20393 -0.941835 0.0294824 -0.389244 0.334214 -0.696922 -0.937577 -0.0242508 -0.712257 
-0.0260602 -0.655897 -0.240639 -0.553758 -1.39665 0.424173 0.770494 0.24322 0.721155 -0.827378 -0.590729 -0.0475696 -0.0650548 -0.841799 -0.11246 0.907863 -0.0449963 -0.308754 -0.755689 -0.483153 -0.673208 0.229698 -0.301806 -0.619313 -0.605743 -0.0186481 0.498386 0.268706 0.617524 0.837891 0.745943 -0.808987 -1.06893 -0.123468 0.0414348 -0.34369 0.704817 0.58751 0.797125 0.315526 0.55149 -0.651038 -0.99687 -0.381891 0.551609 0.468602 -0.0651387 0.916804 0.265242 -0.399569 -1.08915 0.629606 0.153214 -0.451754 -1.37701 -1.12059 0.835947 0.286806 0.0301281 0.377523 0.2752 -0.264363 1.23298 0.390464 -0.121089 0.259193 -0.524514 -0.626092 1.01139 -0.793912 -0.910543 0.824685 -0.329712 -0.759019 -0.779271 0.0698989 0.435063 -0.041462 -0.405281 -0.757001 0.149706 -0.386015 -0.120075 -0.962786 0.296416 0.241985 -0.428473 -0.280012 -0.517797 0.489966 -0.6503 0.76219 -0.448154 -1.38934 0.121378 0.97104 0.0792329 0.519064 -0.487576 -0.39836 
-1.12021 -0.718846 0.483804 -0.613324 -1.1499 0.500598 0.770148 -0.369466 -0.68195 -1.67997 0.167764 0.349282 0.104417 0.56492 -0.639393 -0.54103 -0.349068 0.51844 -0.256333 -0.372721 -0.347628 0.674524 -0.217807 0.557724 0.31405 0.697087 0.374466 -0.278687 0.707715 0.307588 0.854215 0.21633 0.246717 0.377598 -0.761577 -0.44978 -0.598273 1.47596 -0.360294 -0.332676 0.773902 0.689452 -1.06751 -0.200697 1.57963 0.231835 0.605201 -0.202305 0.616255 0.692281 0.206931 -0.322643 -0.14684 0.616136 -1.385 -0.697115 0.601354 0.308324 0.171499 0.400523 -0.370482 -0.138377 0.638348 -0.957047 0.596828 0.512982 0.180755 -1.03101 0.0579355 0.658656 -0.241982 0.0386994 0.507377 0.0578798 0.312157 0.145136 0.754278 -0.350955 0.653462 0.170588 -0.722486 -0.351098 -0.0636878 0.159956 -0.255526 0.236418 -0.861684 -0.851944 -0.534161 0.0498648 0.376101 0.0994197 -0.755175 -0.764477 0.152141 -0.610994 -1.1248 -0.504295 -0.284765 -0.698132 
-0.81807 0.161467 -0.367507 0.860732 -1.46311 0.496334 0.682924 -0.156571 -0.668302 -0.797105 -0.768552 -0.615992 0.965323 -0.587875 -0.668138 -0.0704342 0.49386 -0.054775 -0.76393 0.391219 0.498942 -0.532159 0.149427 -0.480706 -0.0429864 -1.01667 -0.0913415 -0.0121617 -0.29944 -0.245132 -0.864455 -0.446534 -1.28447 -0.437155 0.20653 -0.0828699 1.00892 -0.00444542 0.0115305 -0.743777 0.220924 -0.0677362 -0.333685 0.150805 1.73091 0.973302 1.29767 0.817902 -1.34695 -1.33229 0.380784 -0.936214 -1.01364 0.765527 -1.28616 -0.221964 -1.26263 -0.194174 -0.901072 -0.0832566 0.650588 -0.944785 -0.251571 0.380603 -0.880466 0.438665 -0.151645 -0.829475 0.277555 0.631582 -0.693088 -0.382339 -0.408592 0.350906 0.0959859 -0.389381 -0.0792133 -0.0623237 -0.651604 -0.390953 -0.00845413 0.267059 0.743051 0.134197 0.582756 1.01561 -0.0784342 0.556384 -0.572267 -0.335196 -0.64256 -0.709886 -0.166309 -0.743646 -1.34502 0.615959 0.570596 -0.129556 0.951316 -0.597958 
-0.839282 -0.878075 1.386 0.158362 0.000790932 0.0804096 -0.423628 0.252755 -0.580769 -1.04045 -0.882246 -0.0329145 -0.995996 -0.226564 -0.151598 1.11646 -0.3176 1.05482 -0.199868 -0.280585 -0.946165 0.744129 0.758246 1.06527 -0.551839 -0.0068004 0.574635 -0.735037 0.644589 -0.258455 0.653027 -1.43651 -0.178465 0.822865 0.870057 0.412931 -0.154676 1.24955 -1.00229 0.217468 -0.858022 -1.18583 -0.516558 -0.624999 0.698167 1.25625 1.58692 1.13401 -0.0271463 -0.749087 0.375415 -0.683767 -0.751529 -1.03746 0.338949 -0.747098 -0.130638 0.0421711 -0.0408243 0.300756 -1.13667 -0.565539 1.25859 -0.115541 0.596893 0.568504 -0.189089 -0.45433 -0.549745 -0.549181 0.632506 -0.271917 -0.863279 -0.718082 -0.794358 0.521493 -0.488255 -0.61957 0.596757 -1.32172 0.242211 -0.743593 -0.0239558 0.79865 -0.167342 -0.209701 0.246604 -1.00934 0.154683 0.833704 0.502003 0.326053 -0.804513 -0.21974 -0.712343 -0.350214 -0.893296 0.504955 0.207148 -0.784958 
0.448465 -0.0034555 1.24175 -0.804321 -0.0348121 -0.696875 1.44732 -0.617363 0.105214 0.229279 -0.742761 -1.17304 -1.01277 -1.08776 -0.545656 0.48851 -0.407709 0.695307 0.0307016 0.496934 -0.327405 -0.171883 0.608643 1.26133 -0.87949 0.467189 -0.445567 -0.507677 -0.573534 0.362348 0.643302 -1.2461 -0.716411 0.7391 0.116179 -0.333587 0.693016 0.0888708 -0.414232 -0.0749483 -0.807667 -0.447155 0.368304 -0.368 0.295425 -0.52391 1.25213 0.660319 -0.116364 -0.794832 0.967075 0.123405 0.234345 -0.953703 -0.596016 -0.0950943 -1.60768 0.23988 0.761902 -0.139102 -0.210438 0.343182 0.776834 0.22432 -0.807648 1.57309 -0.60983 -0.959758 -0.613415 -0.338387 -0.145727 -0.241379 -0.266856 -0.690724 -0.450671 -0.858241 -0.0245756 -0.71702 0.815319 -0.990603 0.104067 -0.234915 1.01498 -0.32695 0.500436 -0.128909 -0.26109 0.286963 0.270096 -0.856104 -0.488273 -0.881751 0.288553 0.38675 -1.35386 -0.665972 0.589697 -0.422648 -0.644147 -1.3786 
-0.436457 0.675131 0.782773 -0.934193 -1.00448 -0.951427 -0.0222891 0.343073 -0.0580366 -1.00691 0.463364 -1.36633 0.0374036 -0.806211 -0.0634921 0.415868 -0.0891703 0.52666 -0.41687 0.735823 -0.109491 0.0680867 -0.116687 0.281419 -0.344937 -0.681763 0.0624392 -0.276465 -0.949389 0.523346 0.276583 -0.436952 0.0563013 -0.242439 0.442383 1.0131 -0.577549 0.837064 0.0999518 0.608429 0.68528 -0.634877 0.968659 0.645142 -0.126062 0.213925 0.29105 0.723825 -1.40854 -0.159872 1.49854 0.856872 -0.927216 0.634943 -0.635569 -0.343351 -1.26893 0.778917 0.417526 -0.195206 0.49795 -0.182852 1.24408 -0.504722 -0.255473 0.591391 -0.0060842 0.304721 -0.59674 0.934163 -0.11231 -0.678736 -1.55347 -0.184321 0.261677 -0.0402216 -0.638447 -1.08218 -0.42598 -0.925237 0.243577 -1.21116 1.4665 0.446488 -0.96057 0.4263 0.163956 -0.708513 -0.765459 -0.843537 0.361568 0.561765 -0.11687 -0.239926 -0.644782 -0.679605 -0.992816 1.06681 0.595329 -0.980837 
0.265984 0.179279 0.651413 0.352542 -0.603154 -0.282648 -0.128627 -0.487857 -0.0458303 -0.441728 -0.627251 -0.900361 -0.175121 -0.880633 -0.749016 1.06262 0.182275 -0.221128 -0.564726 -0.145617 -0.414642 0.610552 0.389335 0.974683 -0.778174 0.801785 -1.3817 -0.11552 -0.13057 0.837458 0.686949 -0.945934 -0.259832 0.175235 0.941384 0.363043 0.458721 -0.711847 0.877215 -0.223712 -0.103062 -0.720135 0.74833 0.160447 -0.668653 0.554906 0.347874 0.27927 0.606812 -0.0507148 0.0406682 0.285456 -0.416243 -0.129826 -0.415259 0.050913 -0.598048 -0.252649 -1.45128 -0.819925 -0.217279 0.769807 -0.015925 0.373905 -0.989388 -0.0973525 0.334112 0.666388 -0.392699 -0.00634998 -0.643791 0.727021 -0.397118 -1.30142 -0.677085 0.448478 0.901595 0.0850695 -0.329003 0.481802 -0.576602 -0.220854 -0.322994 -0.203914 -0.893897 1.21074 -0.0959809 0.0612451 0.753427 -1.04075 0.528707 -0.821768 0.725673 -1.38462 -1.24046 -0.768571 -0.590069 0.656565 0.758703 -0.383939 
1.01234 -0.303851 0.266455 -0.141668 0.0780033 0.76068 -0.204555 -1.05816 -0.0531325 -0.272802 0.154649 0.353632 -0.868502 1.01702 -0.320708 0.638284 0.434979 -0.24691 -0.166996 -0.351324 -0.330387 -0.73283 0.641222 -0.493646 -1.3342 0.664749 -1.02877 -0.449703 -0.66934 -0.865439 0.623771 -0.630357 -0.196512 -0.135112 0.662139 0.349705 -0.776871 -0.843591 0.796376 0.661947 0.0968766 0.227777 0.870893 -0.394624 -0.235935 -0.978106 1.09193 -0.980124 -0.752934 -0.553283 0.175268 1.04865 -0.462539 -1.33372 0.667864 -0.555028 0.152196 -0.682332 -0.810499 -0.604842 -0.0850914 -0.35772 0.413056 0.577059 -0.531595 -0.031527 0.405987 -0.0727655 -0.31262 -0.109115 -0.590946 -1.09086 -0.964176 -1.07819 -0.842784 0.0200105 -0.312386 -1.02512 -0.259911 -0.192373 -0.190505 0.655031 -0.652486 0.0375528 -1.20008 2.06001 1.35558 0.21274 -0.830952 -0.959765 0.969192 -0.362835 -0.469165 -0.496058 -0.727733 0.286176 0.589382 1.15776 -0.909771 -0.846202 
-0.32191 0.179554 -0.583854 -0.228489 0.840125 0.157158 0.971007 -0.411861 -0.203668 -0.757033 0.280103 -1.16564 -0.558592 -0.291437 -0.20458 0.219107 1.72182 -0.573666 0.0819937 -0.926668 -0.360157 -0.353356 0.362124 0.318811 0.229109 1.06712 -1.18471 -0.072346 0.488108 -0.794159 0.183005 -0.823469 0.527566 0.578831 0.219794 -0.714427 -0.513021 -0.0139946 1.01569 -0.939233 -1.21829 0.715329 -0.456236 0.367852 0.214632 0.309041 -0.446139 0.854857 0.490306 0.441756 1.23232 0.206857 0.893523 -0.114495 0.750073 0.424038 -0.365062 -0.88117 0.2594 0.0590093 0.0990133 0.435758 0.74967 -0.650157 -0.922792 -0.435074 0.0247201 -0.412433 0.419653 -0.676215 -0.414607 0.372437 -0.384186 -0.0108543 -0.539998 -0.884509 0.156667 -0.057818 0.376168 -0.389433 -0.293372 0.936698 -0.256876 -0.617126 -0.0195315 0.465771 1.35397 -1.15328 -0.533351 0.145028 -0.0535641 -0.038751 -0.768989 -0.999698 0.324425 -0.468707 -0.0920956 -0.102448 0.317678 -0.644928 
0.303081 -0.704646 0.563393 0.929748 0.992468 -0.0385862 0.68565 0.0547883 -1.33814 -0.191777 -1.53065 -0.372318 0.0431584 0.836828 -0.237419 -0.451164 0.889905 -0.592227 0.337436 -1.27804 0.797637 0.942538 0.571874 -0.81006 -0.740624 0.261696 -1.01471 -0.231042 0.442035 0.333724 0.0935327 -0.387808 -0.869825 -0.21014 -0.653238 0.112706 0.531907 -1.06167 0.213505 0.948879 0.615004 0.212581 0.0368563 0.494735 -1.3121 -1.19257 -0.828138 0.729635 -0.743801 0.491091 0.860952 -0.0863105 0.0875452 -0.139068 -0.484922 0.626344 0.471068 0.0104688 -1.56424 0.59823 0.493296 0.289825 -0.178639 -0.0165799 0.520931 -0.408932 -0.559601 -0.0845812 -0.10764 -0.00342477 -0.13544 -0.292864 0.35438 0.70133 -1.21909 0.108413 1.46281 -1.13644 -0.514295 -0.120235 0.653679 -0.205739 -0.568424 -0.518975 0.623484 0.873286 1.3484 0.112043 -0.953628 0.48753 -0.495254 -0.234929 -0.45221 -0.181632 0.559704 -0.60357 0.654742 -0.443756 0.518228 -0.393152 
