Network weights:
4
784 100
-0.337374 -0.989611 0.546036 0.565244 0.148949 0.465733 -0.954655 0.157399 0.312936 -0.974174 -0.781886 -0.709496 0.117074 0.949946 -0.193386 0.45011 0.568178 0.912017 -0.00404815 0.206252 -0.0896091 0.242747 -0.46725 -0.333347 0.791344 -0.48577 -0.142338 -0.67906 0.852475 -0.502031 -0.198405 -0.484899 -0.491642 -0.652369 -0.919655 0.657307 0.813364 -0.87431 -0.185294 0.1263 -0.848484 0.0328207 0.416804 0.268591 -0.0172332 -0.776582 -0.281299 -0.449055 -0.864565 0.714653 0.757197 0.045826 -0.0426009 -0.710053 0.712479 -0.251257 -0.195824 -0.429859 0.0696833 -0.343349 0.0681104 0.871279 0.171752 0.576469 -0.781091 0.252097 0.233776 -0.967727 0.377787 -0.951518 0.158573 0.529303 0.0813031 -0.424622 -0.202106 -0.93593 -0.201204 0.516595 -0.384985 -0.0657693 0.231247 -0.627788 0.980057 -0.811354 -0.337841 0.692536 -0.0626105 0.466335 -0.737323 -0.992927 -0.877014 0.330787 0.878351 0.294739 -0.092744 -0.902739 -0.453164 -0.858968 -0.870466 0.924623 
-0.810486 0.288107 0.453926 0.270817 0.863485 -0.74818 0.334887 -0.33772 0.768415 0.949902 0.596511 -0.000338003 -0.677886 0.576568 0.188308 -0.0157269 0.269104 -0.874302 -0.549392 0.531781 -0.867229 -0.426405 -0.137432 -0.988878 0.868333 0.769824 -0.891617 -0.584831 0.910856 -0.762084 -0.660208 -0.89963 0.526024 0.793718 0.371188 0.389508 -0.954462 -0.293925 -0.948211 0.813953 -0.344022 0.6483 -0.186385 -0.0219081 0.224868 -0.998077 0.962365 -0.506029 -0.872379 -0.587027 -0.974248 -0.739609 -0.0134323 -0.11168 -0.728487 -0.145099 -0.341856 -0.620104 0.27007 -0.431 -0.382188 0.609862 -0.330629 -0.856164 0.40358 -0.959442 0.533344 0.449118 -0.253366 0.585133 0.26307 0.402611 0.233433 -0.923315 -0.619297 -0.5417 -0.921392 -0.656932 -0.0477283 -0.793771 -0.243959 -0.0219761 -0.53338 0.742609 0.866344 -0.261867 -0.40249 -0.475512 0.118029 0.86758 0.0934883 0.735841 0.477442 0.762859 0.879677 -0.118979 0.803417 0.413021 -0.669861 -0.449949 
-0.00184657 0.593209 0.952662 -0.768414 0.669894 -0.666635 -0.310114 0.748502 -0.323567 0.642158 0.954731 0.432474 -0.379818 -0.578649 0.175083 -0.513474 0.159484 0.772592 0.0110139 -0.722487 0.640172 -0.895498 -0.986646 0.117614 0.867361 0.89303 0.998635 0.670778 0.306051 -0.671226 -0.779171 -0.695795 0.921984 -0.826509 -0.464209 0.591878 -0.493144 0.225677 0.34038 0.183288 -0.132165 0.295111 -0.384238 0.488016 0.716461 0.790845 0.974542 -0.124055 0.563437 -0.0144441 0.153458 0.203609 0.0900582 0.166812 -0.678777 -0.0425808 0.0598422 -0.680141 -0.371803 -0.634107 -0.351367 -0.150974 -0.329902 -0.429383 0.0225171 0.205889 -0.837506 0.529373 -0.568435 0.502874 -0.287339 0.2994 -0.202015 0.328423 -0.212584 -0.485554 0.119268 -0.238042 0.390392 -0.317295 0.747514 -0.45615 0.886314 -0.162428 0.710661 -0.792463 0.794991 -0.229496 -0.472604 -0.576811 0.136397 0.176029 0.272215 0.806495 0.746646 -0.705268 0.0123838 0.90914 0.824105 0.443949 
0.412014 -0.463234 -0.256639 -0.790001 0.865184 0.530775 -0.275551 -0.0154939 -0.707277 -0.885171 0.667162 -0.95974 -0.341313 0.553476 -0.12219 -0.630634 0.761013 -0.32722 0.139867 -0.711591 0.0959726 -0.723752 0.464438 -0.631771 -0.917282 0.211073 -0.337072 0.0951273 0.120212 -0.512957 -0.460928 -0.467753 0.0238087 0.282426 -0.257715 -0.111005 -0.186812 0.466683 0.873468 0.105896 0.58152 0.540617 0.146152 -0.759794 0.0940936 -0.976047 -0.390445 -0.144891 -0.303237 0.749406 0.143515 0.792809 -0.974351 -0.392059 -0.839037 -0.891601 0.819037 -0.176185 0.203525 -0.06076 0.310946 0.742602 0.471525 -0.665252 0.025027 -0.786271 0.223746 0.838217 0.68041 0.0972304 -0.0558689 0.261931 -0.362183 -0.909716 0.502144 0.731922 -0.885755 -0.888297 -0.41298 -0.188993 0.861103 0.73051 -0.39624 0.886758 -0.661515 -0.235308 0.995156 -0.842478 0.588616 0.198675 0.0967823 -0.100445 -0.0587079 -0.431712 0.234303 0.966346 -0.217985 -0.541951 0.804528 -0.537565 
0.555185 -0.251076 0.726799 -0.806849 -0.161481 0.226832 0.921378 -0.0410135 0.338243 -0.487923 0.764986 0.199594 -0.75491 -0.632422 0.0902005 -0.418605 0.134019 0.0790588 -0.263286 -0.277785 -0.719355 0.83603 0.620713 0.222141 -0.59491 -0.14543 0.18709 0.186252 0.313385 -0.00970501 0.648012 -0.130437 0.747718 0.372586 0.0670559 -0.42229 -0.39929 -0.0134707 0.52823 0.937516 0.498339 0.297006 0.137004 0.74805 0.663436 -0.777148 -0.678463 -0.20311 0.303911 0.0598176 0.518673 0.585669 -0.104925 0.136526 -0.189855 0.302023 0.99688 0.984842 -0.515018 0.305768 -0.00878669 -0.868554 -0.81535 -0.274694 0.505551 0.238748 0.306069 -0.893142 -0.777203 -0.162577 -0.953457 0.721287 -0.864154 0.178604 0.462636 0.802489 0.400773 0.78934 -0.402837 -0.29511 -0.150368 -0.886652 -0.713132 0.742356 0.254428 0.0903886 0.0416631 0.250988 0.0868317 0.530644 -0.437469 -0.929227 0.661156 -0.267074 -0.205893 0.176304 0.975587 -0.900243 0.27443 -0.802842 
-0.064445 0.316963 0.929027 0.0627694 -0.510576 0.377848 -0.131266 0.895246 0.172742 0.474475 -0.405663 -0.980102 0.602224 -0.118613 0.775958 -0.158686 0.969349 -0.202108 -0.908293 0.0656709 -0.665007 -0.345092 0.119979 0.987922 0.385355 0.928792 0.162357 0.362306 -0.967362 -0.583977 0.56108 -0.035967 0.746181 0.478241 -0.960306 -0.785549 -0.130167 -0.092883 -0.899812 -0.957689 -0.623236 -0.287408 -0.940269 0.983598 0.596257 0.815517 -0.187093 0.565994 -0.375011 -0.108846 -0.374691 -0.0455085 0.540816 0.763545 -0.0477393 -0.0553798 0.703199 -0.896131 -0.699639 0.698463 -0.455772 0.850576 -0.292864 -0.729675 0.337275 -0.267259 -0.508823 -0.783337 0.624111 -0.388237 -0.753822 -0.997023 0.327585 -0.699877 0.962508 -0.0675253 -0.877427 -0.203091 -0.496409 -0.259389 0.676935 0.126333 0.675295 0.219195 -0.107402 -0.367163 -0.846509 -0.406114 -0.263123 -0.55318 -0.676136 0.263913 -0.694466 -0.00946331 0.513617 0.65782 0.72788 -0.990227 0.851672 0.353479 
-0.382216 -0.905176 0.355085 0.935463 -0.607746 0.322787 -0.136265 -0.483398 -0.888849 0.359899 0.240233 0.780662 -0.475375 -0.0574248 0.00917803 0.39713 0.554077 0.141886 0.998125 -0.702509 0.607393 -0.704126 0.551124 0.906586 0.297158 0.0895656 0.549091 0.0327616 0.113417 0.400671 -0.613027 0.719599 0.514049 0.745918 0.685903 0.869244 0.101958 -0.466256 -0.634738 0.185958 0.908901 0.623476 -0.0280214 -0.574054 -0.44697 0.978606 0.809847 -0.873571 0.131646 0.80207 -0.564671 -0.280968 -0.897597 -0.984034 -0.331209 0.415253 0.094866 -0.796724 -0.553374 -0.819153 0.598111 -0.151907 0.971798 0.0635027 -0.404743 0.613572 -0.0449765 0.681538 -0.853502 0.319689 -0.142218 -0.939852 -0.0453708 0.817062 -0.524169 0.528762 0.816557 -0.703768 0.67182 -0.0727951 -0.911439 -0.905665 0.655039 -0.821966 -0.89085 -0.710614 0.590723 0.219261 -0.508153 -0.968891 0.431923 -0.909944 -0.149918 0.35045 0.134779 0.440765 -0.03587 -0.912208 0.103632 0.0996392 
0.407485 0.957285 0.169881 -0.639924 0.758022 0.645615 0.871229 0.577863 0.930305 0.533841 -0.506119 -0.991121 0.659198 -0.844632 -0.803359 0.77811 -0.564612 0.776731 -0.0173547 -0.0598988 0.824039 -0.61097 0.0201518 -0.321449 0.742977 -0.82071 -0.895533 -0.276556 -0.731525 0.209924 0.834106 0.697502 0.158665 0.00783881 -0.923213 -0.0749564 -0.33334 0.942344 -0.511125 -0.406231 0.501907 -0.00834889 -0.410397 0.146892 0.139946 -0.214701 -0.0846257 0.603814 -0.435224 0.898 -0.454289 -0.612878 -0.707735 0.584117 0.0696186 -0.940607 0.759133 0.175393 -0.218288 -0.985078 -0.619065 -0.365863 0.731139 0.508986 0.627588 0.796071 -0.546038 -0.71915 0.745304 -0.0695357 -0.132984 0.235978 0.93411 0.448167 -0.60839 0.083207 -0.743025 0.300105 -0.292624 -0.185616 0.194614 0.231331 0.18178 0.492317 -0.179721 -0.751478 0.555085 -0.416388 0.423765 -0.665777 -0.385731 0.811509 -0.072754 -0.654551 0.31214 -0.439764 -0.857592 0.749351 -0.158303 0.867927 
-0.295638 0.708171 0.130332 -0.367507 0.149695 0.527588 0.724645 0.405466 -0.180773 -0.580537 -0.793332 -0.990539 0.671009 0.404739 0.51732 -0.500605 0.647376 0.0645886 0.0653407 0.0896999 0.398817 0.672392 -0.110856 -0.656604 -0.978999 -0.77822 -0.109516 -0.831219 0.991134 0.742226 -0.944927 -0.293007 0.441614 0.183333 0.347268 -0.394305 -0.296443 0.0637586 -0.984891 0.527896 0.491055 -0.780724 0.527036 0.140419 0.630013 0.0312699 0.642031 0.307947 -0.927403 -0.293181 -0.613449 0.481206 -0.617777 0.289913 0.811188 -0.574704 0.514064 -0.297173 -0.419475 0.480172 -0.543482 -0.354096 -0.810896 0.876835 0.830926 0.550015 -0.501938 -0.469114 -0.382234 -0.508613 -0.948769 -0.902411 -0.275369 0.574544 0.248901 -0.642253 -0.366251 -0.114448 0.671251 -0.281129 0.581168 -0.958497 -0.832495 0.98398 0.334982 0.987329 -0.58996 -0.154523 -0.297537 -0.00359643 -0.665901 0.163096 0.620452 -0.455783 0.0350112 0.461767 -0.907758 0.516535 -1.00458 -0.311396 
-0.963164 -0.942553 -0.186006 -0.242839 0.632496 -0.926686 0.128891 -0.741943 -0.05052 -0.212999 -0.0405902 -0.463396 -0.160329 0.149582 -0.464888 -0.81988 0.142926 -0.0686882 0.0142289 0.850142 0.930822 0.356859 0.000848604 0.576601 0.898707 -0.950257 0.0285975 0.989584 0.589153 0.0392659 -0.30439 0.632508 0.0934205 0.506146 -0.607551 -0.265788 0.56771 0.511634 0.00629827 -0.48172 -0.704786 0.955489 0.0532192 0.121432 0.108459 0.574843 0.303578 -0.737686 -0.512736 -0.68867 -0.89632 -0.569049 0.667314 0.114947 0.994529 0.577886 0.16856 0.0273537 0.557404 -0.263933 -0.922182 -0.739405 -0.631247 0.16082 0.770185 -0.223353 0.902786 0.337612 -0.709659 -0.107567 0.852328 -0.411793 -0.151338 -0.0873305 0.706457 0.959741 -0.502875 0.00747396 -0.77571 0.00454058 0.313433 -0.674423 0.412041 -0.0038607 0.438034 0.416955 -0.42378 -0.398252 -0.543552 -0.864357 0.345214 -0.464175 -0.600275 0.731909 0.694645 -0.832449 -0.489431 0.603203 0.506483 -0.210056 
-0.504896 0.36905 0.380374 0.345248 -0.723443 0.0926015 0.306555 -0.230755 -0.901046 0.52627 0.760254 0.417254 0.84784 0.189179 -0.58027 0.290834 -0.390867 -0.0113183 0.888707 0.0649661 0.131355 0.240843 0.597173 0.538657 -0.0275608 0.299326 0.702726 0.478081 -0.0992464 0.218347 -0.730571 0.397066 -0.413885 0.652413 -0.260585 -0.135029 -0.259797 -0.9569 0.647286 -0.163515 0.566525 0.39954 -0.744382 0.410121 -0.412501 -0.325444 -0.299165 0.200141 0.654954 -0.411482 -0.734681 -0.205919 0.834671 0.861923 -0.673669 -0.195502 0.161864 -0.97324 -0.723502 -0.939391 0.253917 -0.446214 0.452961 0.836406 -0.794366 -0.801046 -0.294352 -0.0544775 -0.753909 -0.659925 0.782197 0.814262 0.739391 -0.955728 0.223163 -0.671591 -0.279209 0.925539 0.525105 -0.610931 -0.487644 0.79293 0.179866 -0.653351 0.650362 0.504765 0.153915 -0.188163 0.539991 0.434338 -0.13081 -0.203987 0.987762 -0.669565 -0.36433 -0.808777 -0.464956 0.343483 0.138023 -0.228436 
0.681906 -0.0756544 -0.415155 0.419469 -0.031485 0.808613 0.747483 0.68791 0.735987 0.273902 -0.930331 -0.750721 0.0644155 0.247868 -0.397888 -0.283081 -0.246835 0.75199 0.528968 -0.705831 0.186459 -0.598589 0.0884207 0.177947 -0.268123 0.724029 0.368305 0.261174 0.0623788 -0.490068 -0.965236 -0.257787 0.434087 -0.381391 -0.837054 -0.597243 -0.571984 0.909927 -0.900896 -0.836634 0.184298 -0.837654 -0.58393 -0.751466 0.411049 0.0166028 -0.0349756 -0.833628 -0.23128 -0.505887 -0.540288 0.955518 -0.103435 0.548647 0.130438 0.628441 0.271985 -0.50032 -0.110415 -0.664514 0.00964344 -0.0762298 0.0770083 -0.556312 0.542583 0.241034 -0.151453 0.970449 0.151619 -0.0606769 -0.869023 -0.664034 0.101571 -0.449219 -0.415643 -0.48671 0.565963 0.549147 -0.322029 -0.665904 -0.957514 0.139862 -0.707315 -0.0593009 -0.314048 0.421404 -0.431346 0.957216 0.921327 0.456604 -0.707323 -0.068878 -0.617928 0.371633 0.37528 0.924859 -0.38465 -0.775398 0.894209 0.762749 
0.166215 -0.971651 -0.899775 -0.735586 -0.420091 -0.316033 -0.223889 -0.852884 -0.766436 0.454837 -0.516667 -0.723127 -0.407661 -0.225344 0.217553 0.278764 -0.804836 0.785639 0.236565 -0.8828 0.243724 0.529944 0.0480399 0.626081 -0.0994786 -0.574376 0.550162 0.513825 -0.352383 0.444826 0.277826 0.810854 0.474009 0.377548 -0.924442 -0.946912 -0.93842 -0.147329 -0.797775 -0.704881 -0.692579 -0.315483 -0.427821 -0.100022 0.459155 0.789822 -0.821834 0.65507 0.575417 0.414734 0.773086 -0.180866 -0.0549931 -0.178212 -0.555085 0.845021 0.246589 0.995131 0.359832 0.894298 0.440309 -0.362532 0.705769 -0.0854132 -0.984978 0.781436 -0.0319133 -0.923007 -0.365875 0.169234 -0.628817 -0.0584802 0.853796 -0.0554613 0.841226 0.312974 -0.265798 -0.981196 -0.0322013 -0.693183 0.434005 -0.259058 0.130499 -0.62032 0.563061 0.572926 -0.775488 -0.190354 0.568543 0.582027 -0.295979 0.00920842 -0.778177 -0.589491 0.922823 -0.763185 -0.807732 -0.108866 -0.687274 -0.175327 
-0.939273 -0.31473 0.76759 0.91313 0.629879 0.608504 0.227497 -0.63591 0.627981 -0.806082 -0.325877 0.0620635 -0.0635604 0.802852 0.439525 -0.500242 0.376583 0.664909 0.311382 -0.0545431 0.24676 -0.986056 0.954138 0.47098 -0.575307 0.877058 0.70766 -0.383612 -0.230528 -0.980026 0.442347 -0.170929 -0.293734 0.210114 -0.256504 -0.664028 -0.18136 0.970608 -0.299738 -0.553611 -0.834346 0.379247 0.50846 0.102493 0.177177 -0.0508429 0.602949 -0.446482 -0.384015 -0.0887468 0.499011 0.86363 -0.0748158 0.453255 0.334742 0.349431 0.331264 0.0422353 0.966113 -0.900328 0.0625524 0.408449 -0.0709748 0.76945 -0.381853 0.672484 -0.894541 0.436214 0.642634 -0.194297 0.882726 0.808657 -0.820231 0.39141 -0.0877271 0.356736 -0.659356 -0.487022 0.91006 -0.0462797 0.424179 0.409223 -0.181453 -0.650145 -0.138873 -0.847268 0.699094 -0.806446 0.19731 0.665024 -0.710751 -0.74144 0.0733865 0.221894 -0.972206 0.691764 -0.104147 -0.866537 0.128126 -0.462083 
-0.0571905 0.00660411 -0.652246 0.119951 -0.598267 0.261842 -0.531666 -0.256146 0.772591 -0.609851 0.696714 0.195056 0.798289 -0.485478 0.540009 -0.339235 -0.338584 0.252115 -0.148367 0.862882 -0.0917593 0.139263 -0.877104 0.984901 -0.63162 -0.846182 0.668215 0.263253 -0.716988 -0.195885 0.801345 0.22635 0.812451 -0.851581 -0.661282 -0.785932 0.407368 -0.182725 -0.0365618 0.179332 0.205261 -0.343212 -0.632652 -0.00996571 0.172561 0.917711 0.655555 0.846967 0.151731 -0.487875 0.709212 -0.936911 0.655924 0.833853 -0.951931 -0.973568 0.980082 0.716035 0.277436 -0.726709 -0.478575 0.085083 0.487729 -0.669559 0.234848 0.835103 -0.44663 -0.364181 -0.343736 0.501521 0.815724 0.854844 -0.835318 -0.823865 -0.140827 0.33681 -0.899521 -0.484391 0.180134 0.255547 0.0257734 -0.116686 0.320318 -0.315389 -0.281859 0.368283 -0.294683 -0.297794 0.0871816 0.988373 -0.0363021 0.616036 0.0612597 -0.539124 0.947021 -0.702515 -0.70185 -0.511336 -0.057728 -0.0620166 
-0.988781 -0.259932 -0.185619 -0.828909 -0.063433 0.674218 0.483325 0.0383293 -0.805841 -0.314023 -0.725653 0.218015 0.576129 0.603765 0.892108 -0.716994 -0.0405341 -0.377825 -0.0105058 -0.946545 -0.411406 0.951875 0.674376 0.662649 -0.582354 0.627976 0.944115 -0.279272 -0.875214 -0.0770796 0.668944 -0.874178 0.682595 -0.519993 -0.716673 -0.40722 -0.829141 0.793621 0.631766 -0.654903 -0.527815 0.910766 0.552491 -0.96291 0.517975 0.47107 -0.67265 -0.497797 -0.943766 0.334892 -0.43892 -0.384056 0.290382 -0.749725 -0.696222 0.717618 0.840297 -0.72994 -0.589687 0.997146 0.173761 -0.906089 -0.904443 -0.181756 -0.405101 -0.604312 0.445962 -0.280734 -0.80583 0.0446569 0.0626543 -0.334963 -0.0308405 -0.402778 -0.271025 -0.514548 -0.938761 0.0651507 -0.0149444 -0.893545 -0.603038 0.539616 -0.248294 0.688913 0.782772 0.0537965 0.388843 0.64774 0.317256 0.809938 0.618534 -0.495648 0.879952 0.724298 0.320403 -0.53552 -0.867755 -0.24684 0.187363 -0.711116 
0.821355 -0.763169 -0.0185974 -0.210387 -0.140007 0.726505 0.242256 -0.0916456 -0.212575 -0.746267 0.0190095 0.191934 0.802758 0.772893 -0.152655 0.569996 -0.189707 -0.732508 0.223386 -0.852336 -0.932171 -0.160462 -0.372152 0.966952 -0.429961 0.968513 -0.58576 -0.30223 -0.259043 0.633697 0.0119717 -0.450095 0.899061 -0.990833 0.32292 -0.283162 0.73866 -0.406027 0.630361 -0.465676 -0.155961 -0.346279 0.688379 -0.364698 -0.583448 -0.443793 -0.782756 0.259962 -0.190669 0.455962 0.413563 -0.161786 -0.688652 -0.930151 -0.171771 -0.130467 -0.987146 0.255533 0.551457 -0.219976 -0.104546 -0.422914 0.326104 -0.30381 -0.395283 -0.349936 0.471667 -0.693356 0.249383 0.0732337 -0.179789 -0.908049 0.739682 -0.508333 -0.242469 -0.829599 0.0668232 -0.0291522 0.448017 0.844668 -0.554047 -0.170417 -0.287325 -0.271901 -0.104959 0.519334 0.574859 -0.0516658 -0.220545 0.124579 0.71454 0.668716 0.680857 0.0478936 -0.621562 -0.713962 0.701183 0.833233 -0.416141 -0.0901895 
-0.0637714 0.410945 0.0187944 -0.303753 0.917019 0.785144 -0.174133 -0.0747567 -0.242393 -0.725434 -0.175066 0.195707 0.12042 0.5255 0.88999 -0.972732 0.0353327 0.488677 -0.0293039 0.870879 -0.367189 -0.314282 0.475302 -0.678448 0.743576 0.879277 -0.405491 0.392713 0.739838 0.179793 -0.673025 -0.331567 -0.395296 0.37395 0.330695 -0.497675 0.134828 -0.835165 0.448694 0.943376 -0.549174 -0.727815 0.0939458 0.56858 0.763643 -0.0563387 0.619932 -0.146127 -0.534056 -0.423676 -0.292537 0.07119 0.260917 -0.801296 0.383016 -0.0303785 -0.886869 0.967415 -0.634952 0.834427 0.186336 -0.292999 -0.478774 0.707649 -0.92875 0.845082 -0.759576 0.216615 -0.99612 0.678557 0.128843 -0.544551 0.968458 -0.784249 -0.955034 0.775061 0.232162 0.632006 -0.374709 0.668884 -0.772134 0.310093 -0.258425 0.464326 0.501445 -0.900808 -0.582926 0.643724 -0.922595 -0.215272 0.470129 0.226581 0.459403 1.00107 -0.0391758 0.561139 0.861523 0.163913 -0.230429 0.821582 
-0.103988 0.906711 -0.705614 -0.120831 -0.867037 -0.670134 -0.381133 0.320328 0.966544 0.252485 0.0255861 -0.831255 -0.410453 0.765509 0.622529 -0.870044 0.871574 -0.956502 0.768202 0.97977 -0.152279 0.250262 0.179829 -0.674544 0.255801 -0.857588 0.870343 0.050989 0.345758 -0.359448 -0.109735 -0.766404 -0.445891 0.197345 0.0833216 -0.31769 0.514139 0.701561 -0.979202 0.511721 -0.0381108 0.0519702 0.664771 0.558776 -0.207149 0.250413 0.698618 -0.304218 0.319856 0.443821 -0.339127 -0.844883 -0.303589 0.841137 -0.533659 0.927247 1.0158 -0.668316 -0.0217508 0.340348 0.000955888 0.878415 0.583042 0.512712 0.0696411 -0.333814 -0.791616 -0.402461 -0.636634 -0.767463 -0.910618 0.330996 0.286543 0.760836 -0.112817 -0.893693 0.0495406 -0.441308 -0.20547 -0.640795 -0.982423 0.457985 -0.487466 -0.297117 0.280824 -0.0291671 -0.373495 0.306738 0.309896 0.612373 -0.361594 -0.728456 0.481409 -0.768989 0.808124 -0.433359 -0.0924943 -0.990469 0.153087 0.25066 
-0.747491 0.254849 -0.411704 0.534079 0.0117623 0.471276 0.629747 -0.945016 -0.977671 -0.568854 -0.579842 -0.972883 0.894711 -0.0680725 -0.271854 0.212146 0.900415 0.35591 -0.488146 0.210706 -0.0325613 0.156386 0.491841 -0.543603 0.38593 0.301128 0.0208416 -0.736842 0.309595 -0.831171 0.513942 0.555834 0.421329 -0.900534 0.0846571 -0.57058 0.562547 -0.280928 -0.513084 0.587765 0.154643 -0.091629 0.614808 0.0516613 0.840305 -0.654531 -0.741141 0.746225 0.698069 -0.228192 -0.0413889 -0.332407 0.932371 -0.544287 0.121448 0.308437 0.753611 -0.875967 0.572512 0.0598225 -0.695335 0.0901314 -0.38159 0.725145 0.189695 0.702103 -0.840568 -0.247243 -0.578422 -0.352957 -0.65856 0.575179 0.556143 0.956842 -0.372039 0.3953 -0.699822 -0.115073 0.142954 0.992071 0.657674 -0.90031 -0.332121 0.589676 -0.447629 0.783768 -0.092382 -0.698384 0.919292 -0.533617 0.361385 -0.775693 0.560152 0.98214 0.94904 -0.251912 0.679353 -0.89605 0.503806 -0.909032 
-0.23656 0.856019 0.692033 -0.68612 0.80651 -0.69017 0.691643 -0.8948 0.192122 -0.16949 -0.885991 -0.148859 -0.052186 -0.231845 -0.556647 0.509585 -0.452226 0.333883 0.801145 -0.522047 0.797644 0.162032 -0.302192 0.365233 0.155152 -0.348334 -0.87658 -0.175097 -0.248216 0.61811 -0.0763953 0.508157 0.467427 -0.397571 0.81431 0.269266 -0.0942255 0.527821 0.377334 -0.898567 -0.628547 0.481912 -0.0490709 0.31955 -0.748929 0.390604 -0.179568 -0.192693 -0.28379 -0.348701 0.279556 -0.472809 0.791886 0.981493 0.89413 -0.0709063 -0.374862 -1.00658 0.757639 0.375568 0.624931 -0.316316 -0.109157 0.103871 0.286206 -0.298032 -0.633595 -0.807848 -0.775751 0.741707 -0.717397 -0.400683 0.22523 0.239044 0.91563 0.483274 -0.366322 -0.26387 -0.720944 0.351723 0.375163 0.558063 0.897928 0.164198 0.549364 0.770767 -0.906483 -0.843029 0.773834 0.841476 0.531682 0.399153 -0.477297 -0.581617 -0.508899 0.806695 0.110391 -0.150081 -0.985375 0.324538 
-0.39181 -0.692214 0.947502 0.822003 0.545107 0.855934 0.287015 -0.820019 -0.410698 0.555206 0.536985 0.941129 0.129205 0.415379 0.117589 -0.328311 0.192235 0.184557 -0.181412 -0.0374681 0.0192691 -0.641201 -0.641274 0.545452 -0.225426 -0.150475 0.363808 0.889718 0.694619 0.356994 0.227315 -0.704442 0.657129 0.168814 -0.884896 0.202389 0.013686 0.411428 0.386063 0.60177 -0.0170766 -0.07145 0.553848 -0.881742 -0.664555 -0.343666 -0.216278 0.518797 0.83579 0.62183 -0.523166 -0.138388 0.967269 -0.160543 -0.593503 -0.2611 0.681646 0.750703 -0.368682 0.383912 0.118846 0.855789 0.680988 -0.208894 0.0189866 0.791665 0.983717 -0.950711 0.196329 0.366706 0.630566 -0.810982 -0.710675 0.20131 -0.703528 -0.375329 0.845367 0.0800431 -0.863658 0.683298 -0.306662 -0.387023 -0.444293 -0.342591 0.45779 -0.0482938 0.395632 0.125533 -0.292794 -0.988339 -0.485789 0.828397 0.865916 -0.810618 -0.393757 -0.12379 0.97411 -0.412116 -0.0770487 0.167309 
0.955401 -0.440381 0.361885 -0.758629 0.75144 0.657948 -0.138585 0.59683 -0.262444 -0.000318665 0.278888 0.424016 0.613226 0.821294 -0.926295 0.062266 -0.231056 0.460068 -0.80887 0.477921 0.471303 -0.298542 0.306258 0.337573 -0.11274 0.912187 -0.776833 -0.133204 -0.501799 0.143698 -0.955862 -0.543952 0.703769 0.404305 -0.302368 0.45456 0.0619007 0.558986 0.0537455 0.800474 -0.441662 -0.669595 0.223642 -0.828548 -0.84854 0.297736 0.233093 -0.0801548 -0.242324 0.424194 -0.601749 -0.770815 -0.873098 0.704668 0.566653 0.0164316 0.616807 0.789291 0.880817 -0.882419 -0.0664764 0.925101 -0.426885 -0.360092 0.329584 0.270669 -0.908661 -0.60898 -0.170153 0.142653 -0.809038 0.387672 0.474426 0.414577 0.558806 0.624499 -0.287788 -0.207551 -0.454877 0.469866 -0.783402 -0.0568484 0.698996 -0.657933 -0.351927 0.265656 0.35685 -0.735778 0.0546156 0.237476 -0.61851 0.98908 0.162314 -0.0447073 -0.374501 -0.508353 -0.774812 -0.282912 -0.116856 0.0545893 
0.859646 0.0741438 -0.557423 0.332857 -0.511335 -0.998362 -0.042599 0.200949 -0.206224 0.502282 -0.329175 0.0100813 -0.554583 -0.630184 0.352116 0.0930286 0.635464 -0.291445 0.357286 -0.309138 0.945803 0.738716 -0.320262 0.108085 -0.306758 0.305266 0.599838 -0.0815281 -0.977901 -0.517041 0.973385 0.881742 0.557113 -0.584035 0.214787 -0.954141 -0.582397 -0.827994 0.246818 0.211377 0.674288 0.917633 -0.778542 -0.880307 -0.712462 0.573617 0.212744 0.922913 -0.717794 -0.429996 -0.386223 -0.772025 -0.691276 0.293514 0.336085 0.00199093 -0.40122 -0.0641033 0.920479 -0.379118 0.418904 0.893863 -0.497373 -0.0239385 -0.69017 0.717221 0.0218799 -0.272569 0.889238 -0.731314 0.938807 0.563525 -0.813681 -0.839735 0.683232 -0.526232 0.733877 -0.104082 -0.603314 -0.983956 0.465969 0.0104486 -0.755986 0.774681 -0.696029 0.580112 -0.223321 -0.0972472 -0.483979 -0.302842 0.523628 0.935004 -0.408977 -0.973737 -0.0890538 -0.0991389 0.743491 0.93283 0.628283 0.632764 
-0.798488 0.567095 0.196252 -0.61217 0.727317 -0.120513 -0.138401 0.461232 0.775446 0.25828 0.477276 0.241414 -0.731264 0.72129 0.0160858 -0.427289 0.301388 0.792784 0.475463 0.817408 -0.510057 -0.000907223 0.752333 0.0809503 0.0253408 -0.336721 0.981817 -0.231166 -0.403895 0.610089 -0.598427 -0.202385 0.177187 0.597827 0.185539 -0.0954552 -0.522686 -0.952954 -0.634218 -0.747241 0.305327 0.843052 0.494173 0.574058 0.564387 -0.48972 -0.85322 -0.13427 -0.696918 0.622231 -0.316861 -0.206993 -0.378674 -0.564528 0.87397 0.64668 0.098751 0.855775 -0.584478 0.694857 0.465887 -0.182905 -0.507528 -0.356903 -0.585078 0.677914 0.547621 -0.107766 0.724967 0.913397 0.144993 0.0302929 0.756449 -0.360834 -0.395642 0.320791 0.149443 -0.248892 -0.813477 0.452505 -0.626638 -0.130346 -0.75449 -0.00531771 0.305131 -0.880513 -0.358634 -0.596118 0.975266 0.0568881 -0.901265 0.441193 0.873983 -0.408787 -0.91577 -0.711091 -0.73087 0.631852 0.181139 0.994115 
0.545247 -0.673868 0.0243896 0.301696 -0.034702 0.628746 -0.377513 -0.885259 -0.620124 -0.190992 0.567247 -0.246762 0.678667 0.812757 0.747926 -0.016202 0.932236 -0.610708 0.38768 0.907502 0.44618 0.486418 0.348656 0.320163 -0.922372 0.432885 0.609067 -0.653242 0.0647355 -0.209793 -0.659145 -0.390017 0.116339 0.365244 0.911678 -0.918363 -0.00600952 -0.465835 -0.803622 0.373866 0.343173 0.763625 -0.872896 0.0218402 0.576381 0.875029 -0.994362 0.508617 -0.735679 0.393318 0.41612 0.710501 -0.120264 -0.235225 0.0306634 -0.0426368 -0.802339 -0.360269 0.304121 0.262396 0.429938 0.644976 0.872379 -0.453724 0.0102198 0.784057 -0.372087 -0.99579 -0.681778 -0.175708 0.378076 0.661396 -0.412083 0.50518 -0.316764 -0.835702 0.380209 -0.311126 0.672915 0.64453 -0.917808 0.0890352 0.355031 -0.0380724 0.85381 -0.614306 0.919291 -0.948529 0.0254252 0.223412 0.313867 -0.544637 -0.131612 0.186246 0.00163923 0.878607 -0.0296972 0.629553 0.882818 0.288525 
-0.546156 0.260894 -0.0500793 0.0417608 -0.233926 0.633157 0.206059 -0.853717 -0.677969 -0.121026 0.790814 -0.595777 0.96801 0.145845 0.36615 0.82182 0.531539 0.285441 0.873291 -0.443036 -0.491147 0.187158 0.0123269 0.377241 -0.626596 -0.986034 0.255848 0.343707 0.643519 0.138666 -0.367768 -0.902637 -0.60044 0.582153 0.139124 0.165634 0.215309 -0.654817 0.311917 0.53734 0.224157 0.102731 0.941562 0.192167 -0.751425 0.307713 0.0139869 0.780114 -0.406846 -0.112722 -0.662921 0.102007 -0.925564 0.349406 -0.520753 -0.55216 0.363372 0.735096 0.791547 0.00689044 -0.126239 -0.576221 0.104253 0.273321 -0.994069 -0.756623 -0.561045 0.22124 -0.41144 0.750872 -0.24142 0.812717 -0.146397 -0.299857 0.00488416 0.102178 -0.992145 -0.981129 -0.117707 -0.398991 -0.0938508 0.219371 0.703016 -0.0194146 -0.431223 -0.817737 0.428426 0.932148 0.917359 0.219972 -0.0609611 -0.20888 0.643751 -0.956708 -0.935559 0.649682 -0.71333 -0.496604 -0.129077 -0.12477 
-0.745732 0.629503 -0.312053 0.107871 -0.670354 0.692831 -0.789951 -0.662499 0.711702 0.0923418 -0.06149 -0.382149 -0.688287 -0.358474 0.598437 -0.11951 -0.176211 0.0268624 -0.187362 -0.258852 -0.753165 0.751677 0.532268 0.890586 0.794969 0.596709 0.540268 -0.918361 -0.899895 -0.588809 -0.0431315 -0.645627 -0.959305 0.644815 0.462244 -0.62966 0.337647 0.672293 -0.292159 0.0493487 -0.235365 0.646351 0.6672 0.0763478 -0.712123 0.265637 0.956838 0.111666 -0.707501 -0.230524 0.852814 -0.460666 -0.478847 0.385082 -0.57008 -0.683878 -0.0182084 0.970189 -0.602239 0.0818968 -0.61862 0.35463 0.43627 -0.577926 -0.000554981 -0.101486 -0.207585 -0.662908 -0.429193 0.500256 0.38644 0.335442 0.146607 0.0536403 -0.58821 0.434484 -0.680723 -0.631373 -0.45385 -0.388224 0.138103 -0.601035 0.15111 0.659256 0.784047 0.58103 0.975378 -0.234161 0.551219 -0.626861 0.847735 0.932599 0.727769 0.284005 -0.645327 -0.272786 -0.817481 0.147088 0.0643051 -0.246674 
-0.352657 -0.549255 -0.911232 0.79395 0.504386 -0.499442 0.228435 0.823663 -0.130815 0.774585 -0.564561 -0.992712 -0.82645 0.586549 0.666544 0.957597 0.167579 0.641922 -0.276565 -0.281202 -0.984939 -0.428829 -0.348603 0.742829 0.855176 0.00606984 -0.529957 -0.962304 -0.846842 0.534348 -0.208978 -0.199499 0.985093 -0.12021 -0.405549 0.489479 0.380348 0.822886 0.313142 -0.750467 0.597471 0.74858 -0.743179 0.771021 0.33513 0.923365 0.728617 -0.497291 0.565287 -0.547947 0.221507 0.580348 0.0232236 0.872904 0.323177 -0.1216 -0.121026 0.79322 -0.0839044 0.0321312 0.327568 0.707118 0.832632 0.312661 -0.413092 -0.572916 -0.19786 0.967256 -0.75003 -0.884719 -0.783211 0.84744 0.863862 -0.526389 0.618461 0.198991 -0.603024 0.347078 0.7017 0.962263 0.799131 -0.0767926 0.54261 -0.177646 -0.203889 -0.134212 0.700754 0.675085 -0.340993 -0.38315 -0.292784 0.986575 -0.676032 -0.460152 0.299236 -0.0891243 -0.0330682 -0.898624 -0.121868 0.216901 
-0.783171 0.0949305 0.0643052 -0.919347 0.568529 -0.317192 0.279594 0.965513 -0.970054 -0.0188717 0.927723 0.829061 0.904412 0.47044 -0.348592 -0.299763 -0.663872 -0.647902 -0.624261 -0.00484194 -0.0309162 0.0828724 -0.0182587 0.292946 0.622704 -0.719116 -0.796186 -0.410512 -0.617862 0.0819359 0.806527 -0.400929 -0.823122 -0.129038 -0.320477 0.745431 0.553747 0.959051 0.710856 0.583594 -0.0595543 0.638739 0.412385 -0.155218 0.108922 -0.936016 0.545215 0.445175 -0.584032 0.9208 -0.5596 0.385003 0.00364031 0.422135 -0.322035 -0.373584 0.70316 -0.118217 0.215976 -0.914493 0.963752 0.0224812 -0.315483 -0.859524 0.893338 0.364069 0.885935 0.447011 0.323108 0.596776 0.0305223 -0.736705 0.235133 -0.556976 0.108106 -0.655375 -0.493036 -0.346729 0.789805 -0.0769927 -0.425909 -0.769784 -0.692186 0.577537 0.652435 -0.0140934 -0.79572 0.355528 0.867774 0.420048 0.441056 0.831488 -0.557782 -0.874415 0.971933 -0.664083 0.489626 0.857996 0.782896 -0.18723 
0.45887 -0.185653 0.0768482 -0.307091 0.255941 -0.817027 0.0376221 0.763167 -0.161866 -0.176884 -0.313931 0.41265 0.0549611 -0.00433427 -0.0109175 -0.297743 0.979887 0.193986 -0.936949 0.847513 -0.384122 0.50444 0.679589 0.0563375 0.631087 0.64977 0.391913 0.116075 0.506831 0.17239 0.93173 -0.0366845 0.987958 0.010875 0.65434 0.243865 0.193976 -0.309463 0.00623322 -0.968212 0.515846 0.693366 0.441955 -0.427842 -0.311701 -0.568288 0.278012 -0.332428 0.625478 0.340169 -0.483733 -0.762303 -0.155817 -0.805258 0.294485 -0.525724 0.846841 -0.313678 0.594176 0.357025 0.860302 0.526645 -0.678047 0.845021 -0.466256 0.976955 0.0919941 0.727391 -0.33548 -0.900351 0.75555 -0.81995 0.79298 0.197575 -0.248112 -0.519305 0.62657 -0.97263 0.149738 0.250811 0.369221 0.666763 0.484414 -0.787378 0.86507 -0.218293 -0.311246 0.712142 0.468157 -0.718771 0.0703469 0.327964 0.805976 0.392447 0.175014 -0.658314 0.368614 -0.732368 -0.931364 -0.963116 
-0.632727 0.829518 -0.784796 -0.836717 0.0240646 -0.038544 -0.350816 -0.356644 0.0016946 0.789141 0.894387 -0.633345 0.465956 0.384895 -0.421354 0.324548 -0.830084 0.273256 0.0415334 0.631124 0.552331 -0.891479 -0.0364358 0.359559 0.504722 -0.859946 0.700992 -0.134298 -0.594933 0.747519 -0.100438 -0.22902 0.58784 0.120224 -0.0602223 -0.396556 -0.915241 0.581466 0.247086 0.0966159 0.379858 0.151823 0.451202 -0.162878 -0.462935 -0.970402 -0.834985 -0.295006 0.303528 0.204015 -0.65361 -0.148033 0.30953 0.303661 -0.790503 -0.186774 0.45506 0.905488 0.677249 0.849939 0.678531 -0.430478 -0.355164 0.254888 0.699588 0.571359 0.862868 0.79099 0.148766 0.117959 -0.124413 -0.476112 -0.729514 -0.66625 0.359228 -0.197889 -0.638383 0.520515 0.51647 0.668256 -0.269489 0.85992 -0.496243 -0.961503 0.177746 -0.284603 -0.146491 -0.37351 -0.371262 -0.484101 -0.504938 -0.705642 0.0980136 0.132519 0.562072 -0.188699 -0.306625 0.413243 -0.400648 0.861058 
-0.485048 0.473053 -0.591003 -0.1902 0.813763 0.766825 0.611552 -0.843978 0.298519 0.122905 0.81994 -0.980607 -0.0159725 -0.674526 -0.951143 -0.833914 0.0560284 -0.0869379 -0.215852 0.68388 0.44347 0.302923 0.97198 -0.456256 -0.607193 0.535259 0.33648 0.103625 -0.0455723 0.932504 -0.0209645 0.501761 0.420456 0.364839 -0.704789 0.223978 0.118343 0.897855 0.359004 -0.577614 0.0384878 0.188026 -0.588324 -0.995597 0.503662 -0.523918 -0.830087 -0.429439 0.388545 -0.0505704 -0.748592 -0.172684 -0.774581 -0.771763 0.356481 -0.355327 0.770038 -0.30114 0.742337 -0.293645 -0.354231 -0.285627 -0.781549 -0.941753 -0.903951 -0.506505 0.285721 0.182132 -0.598754 -0.360853 0.607699 0.408371 0.823224 -0.940957 0.434341 0.36272 -0.487062 0.609288 0.907948 0.907469 -0.449058 -0.833217 -0.278736 -0.220544 -0.593642 -0.912285 0.425105 -0.836213 -0.203843 0.170826 -0.107002 0.445463 0.892475 0.090674 0.476766 0.9771 0.588363 -0.231377 0.167603 0.984336 
0.351189 -0.251886 0.438603 0.217832 -0.206804 -0.139895 -0.437201 0.301157 -0.563665 -0.473034 0.209932 0.0337907 -0.338571 0.918731 0.782545 0.0810591 -0.974986 0.21723 0.197552 -0.157196 -0.589825 -0.885984 -0.716711 -0.716657 0.157436 0.772107 -0.769357 -0.196023 -0.438679 0.381615 -0.213443 0.99033 -0.850647 -0.798389 0.22808 -0.0811128 0.0495452 0.754158 -0.813087 0.532426 -0.722195 0.415193 -0.528751 -0.0702428 0.33035 -0.718955 0.99621 0.377056 0.506587 0.225305 -0.771175 0.942302 0.341743 -0.512932 -0.815003 -0.443633 -0.720697 -0.599049 0.319448 -0.210091 0.80812 -0.843241 -0.21376 0.957638 -0.614264 0.984663 -0.0973759 0.368229 0.736752 0.0983636 -0.126964 -1.01366 -0.487255 0.380559 -0.074707 0.887848 0.634078 -0.0387888 0.219758 0.204496 -0.849386 0.445496 0.0849985 0.511868 0.949867 0.303578 -0.92848 -0.789739 0.726824 0.416887 0.0323209 0.541792 0.559761 0.816586 0.44789 0.906261 0.768634 -0.600774 0.256798 0.487457 
0.375919 -0.865327 0.519846 0.966005 0.499752 -0.519039 0.78803 0.157516 0.371908 0.0384492 -0.618486 0.586806 -0.49674 0.435318 0.0694599 -0.509184 -0.242203 0.132434 -0.317842 -0.506234 -0.427639 0.653832 -0.974947 -0.838122 0.513372 0.488247 -0.920294 0.306636 0.8839 0.268532 -0.194793 0.395753 0.446341 -0.633421 0.335883 -0.097292 -0.200183 0.0846915 -0.912934 -0.760923 -0.833267 -0.581187 0.704404 -0.301689 0.871518 -0.181995 0.143103 -0.323221 0.947176 0.851842 0.208005 -0.428745 0.461344 0.205803 -0.345881 0.0149349 -0.247028 -0.320965 -0.686202 -0.385911 0.966261 0.190288 0.994124 0.375765 0.514201 0.247565 -0.647679 -0.725172 -0.639131 -0.650132 -0.571022 -0.472545 -0.20845 -0.774715 0.188278 -0.23077 0.0144086 -0.675051 0.388964 0.0394619 -0.860351 -0.455534 0.558656 0.661416 0.789571 -0.761663 -0.308456 -0.469529 -0.0635758 -0.0144412 0.127858 -0.156957 -0.922205 0.138267 -0.76474 0.60107 -0.633438 -0.443448 0.836655 -0.312546 
-0.146365 -0.700598 0.189821 0.694496 -0.491228 -0.558982 -0.62184 0.544007 -0.257222 0.744111 -0.402831 -0.103968 -0.657559 -0.887924 -0.487208 -0.8469 -0.622967 0.178835 -0.341436 0.278699 -0.806785 0.761593 -0.869781 -0.652264 -0.105184 -0.586631 0.955397 0.293372 -0.0593204 0.759137 0.977528 0.908578 -0.890711 0.267058 0.570066 -0.434502 0.635103 0.910333 -0.850312 -0.561358 0.739129 -0.267921 0.235189 -0.904078 -0.152099 0.812851 -0.776198 0.283354 0.014833 -0.115868 -0.388454 0.246926 -0.386729 -0.251884 0.536394 0.593138 0.196162 0.440624 -0.150408 -0.86621 0.204253 -0.106062 0.990424 0.233192 -0.918081 0.508642 0.929758 0.671766 0.440948 -1.0035 -0.929459 0.199046 -0.272083 0.351576 0.253264 0.677877 0.141766 0.431261 -0.151252 -0.776602 -0.661439 0.447571 0.414167 0.0168716 -0.776454 -0.0141511 -0.393688 0.410579 -0.559146 0.387411 0.512089 0.592942 -0.803424 0.529329 -0.0910501 -0.704016 0.0533273 -0.192878 0.940419 -0.556302 
-0.215242 -0.947098 0.608404 0.490934 0.375496 -0.0372399 0.1736 -0.455315 -0.578112 -0.993752 -0.256033 -0.247488 0.490926 -0.862683 0.727792 0.74204 0.1431 -0.698546 0.155363 0.587809 0.74039 -0.386638 0.212081 1.01523 -0.817266 -0.866105 -0.691504 0.226973 -0.0720324 -0.763089 0.657855 0.783527 -0.702395 0.380721 0.278161 0.644782 -0.74959 -0.600911 -0.755693 -0.290901 -0.489791 -0.0612366 0.394021 -0.980133 0.103046 0.131927 0.791912 -0.706099 0.465022 -0.0954411 0.900198 0.235836 0.495897 0.118681 0.183266 0.795254 0.287918 0.444491 -0.0426959 -0.776513 0.671982 -0.279646 1.01371 0.94579 1.03104 0.251551 0.70835 -0.776485 0.658058 0.837959 -0.0894134 -0.817633 -0.199133 -0.674295 -0.798523 1.00601 0.433163 0.948374 -0.781369 -0.0413421 -0.136551 -0.936631 -0.88908 -0.522912 0.210857 0.353816 -0.786086 -0.499759 -0.17968 0.0944107 -0.284826 -0.501011 0.738106 -0.276471 -0.490668 0.772511 0.967093 -0.790307 -0.954822 0.592154 
-1.01503 -0.016399 0.81057 -0.163134 0.300582 -0.900285 -0.117256 -0.240342 0.990782 -0.00638197 0.678308 -0.118841 0.108051 0.836095 0.329212 -0.610602 0.213283 0.49981 -0.109701 -0.953462 -0.358067 0.587337 -0.472643 -0.531206 -0.720401 0.101308 -0.763803 -0.777896 0.248757 -0.769949 0.806336 0.382049 0.254739 0.704763 -0.816136 -0.539885 0.683445 -0.0145012 0.281123 0.736626 -0.928586 -0.125456 -0.464943 0.187475 -0.307305 0.911947 0.614077 0.958708 0.36505 -0.568504 1.03841 -0.956189 0.947532 -0.440383 -0.527002 -0.70544 0.698037 -0.337793 -0.570569 -0.0751403 -0.0602863 -0.59726 -0.671894 -0.896594 1.03308 -0.514173 -0.297225 0.581715 0.437765 0.841806 0.387386 0.551359 -0.253245 0.948048 -0.222966 0.573023 0.756789 -0.694065 0.415831 0.181019 -0.231323 0.415246 0.21049 -0.224504 -0.976301 0.697127 0.0234106 0.700132 -0.597767 0.390513 -0.396383 0.381833 0.746744 -0.0245471 0.560326 0.756467 0.504426 -0.711967 0.447363 -0.133646 
-0.919493 -0.0806537 -0.5351 -0.140325 -0.201815 0.334074 -0.594556 -0.37449 0.573068 0.788705 0.798516 -0.633553 0.203977 -0.00182583 0.0796307 0.314313 -0.292891 -0.876851 -0.000150426 0.149684 0.563229 0.582717 -0.478593 0.356334 -0.451224 -0.881887 0.143829 0.956634 -0.706206 -0.387025 -0.155626 -0.534661 0.514981 0.416486 0.29518 -0.777618 -0.359778 0.721183 -0.130929 -0.715225 0.56615 -0.357185 -0.437529 -0.188381 0.646488 0.709517 -0.855631 -0.600755 0.798418 0.0791098 0.527922 0.422651 -0.36047 -0.984077 -0.264735 0.273841 -0.830753 0.838753 0.161511 -0.559515 -0.542378 -0.875858 -0.016873 0.828955 0.459183 -0.754175 -0.773376 -0.925526 0.914123 0.00149832 -0.593448 0.498875 0.636196 -0.0662192 -0.656672 0.41261 -0.391589 -0.610754 0.677988 -0.644039 0.496325 0.224286 0.774667 -0.814739 0.29662 -0.498073 0.449222 0.447114 -0.586977 -0.555851 0.845656 -0.106137 -0.436367 -0.0864603 -0.179544 -0.9483 0.169776 0.0136746 -0.849618 0.00211157 
-0.991673 -0.438026 -0.45597 0.685887 0.465751 -0.0331475 0.0435388 -0.92854 0.313246 -0.257218 -0.487659 -0.137249 -1.05717 -0.724499 -0.0622287 0.304592 -0.179905 -0.615919 -0.21613 0.253275 -0.122659 -0.375919 -0.871361 0.509328 0.529799 -0.099947 0.603419 -0.405266 0.921837 0.765907 0.678058 0.971167 -0.695969 -0.719814 0.656019 0.707239 0.104759 -0.268807 0.761948 -0.463881 0.480373 -0.744012 0.272452 0.440509 -0.422784 -0.6643 -0.219534 0.39785 -0.33985 0.540619 -0.353054 0.590868 -0.887499 -0.252377 0.0528339 0.775569 0.706097 -0.442389 -0.65939 0.577736 -0.681629 -0.936929 0.639754 -0.500648 -0.731003 0.227293 -0.638422 0.338948 0.898367 -0.898213 0.921229 0.361641 -0.638921 0.0942266 -0.132182 0.00059559 0.397335 0.602259 -0.67825 -1.00909 0.124242 -0.021487 0.528072 0.350914 0.780958 -0.349902 0.140908 0.474343 0.235023 0.341997 0.0733723 0.592986 0.356831 -0.264647 -0.783663 0.613055 0.952884 -0.494318 -0.0532271 0.819965 
-0.349383 -0.170606 0.198633 0.0430049 0.967305 -0.895987 -1.01897 0.288009 0.669113 -0.637604 0.390137 -0.121587 0.371221 -0.0502962 -0.84895 0.203163 0.582139 0.286986 -0.330188 -0.143778 -0.377496 0.718998 -0.577569 -0.979674 -0.551944 -0.378495 0.640149 -0.626344 0.148894 -0.37438 -0.803426 0.791836 0.456617 0.48776 -0.190597 0.340976 0.525911 -0.157719 -0.38432 0.32636 0.206705 -0.967117 -0.893381 -0.424535 0.00105981 -0.640022 0.798843 -0.414202 0.60483 -0.533383 0.456463 -0.754855 -0.851504 0.862178 -0.715165 -0.314844 -0.467341 0.852377 0.0266901 0.626287 -0.495657 0.283178 0.508408 0.890898 -0.281241 -0.739361 0.271014 -0.725594 0.044425 0.945347 0.646048 -0.729391 0.955309 0.686769 -0.126557 0.00414192 -0.976006 -0.373558 0.522231 0.574518 0.0720241 0.0126375 0.818186 0.30061 -0.0557415 -0.9235 0.933216 0.472341 -1.03458 -0.10724 0.143019 -0.480371 -0.840301 -0.41927 -0.521691 -0.0875237 -0.121499 0.730209 0.190135 0.877377 
0.73158 -0.222605 -0.82453 0.682726 -0.525424 0.0998448 -0.343952 -0.527477 0.672041 -0.746397 -0.862941 -0.16222 0.291397 0.953406 -0.967162 -0.713678 -0.941997 -0.977094 0.744277 -0.909241 -0.0892678 -0.185934 -0.374274 0.130261 0.432297 0.0685149 -0.943602 -0.739327 -0.149779 0.234321 -0.845315 -0.449525 -0.934893 -0.592788 -0.779742 -0.507488 0.445922 -0.058854 -0.041805 0.241414 0.205783 0.176661 0.978962 -0.508896 0.0733744 -0.896443 -0.200555 0.165542 -0.867704 -0.500175 0.286985 0.0245802 0.263543 0.859377 -0.790251 -0.239322 -0.018611 -0.833916 -0.0156822 0.771473 0.426594 0.195473 -0.611575 0.419453 0.563361 -0.425813 0.94615 0.0141889 0.479848 -0.0695801 -0.710768 -0.322514 -0.951676 -0.797985 0.208542 0.144911 -0.713756 0.951688 -0.735348 -0.6561 -0.585348 0.567508 0.402643 0.752027 0.451099 0.541476 -0.541923 -0.561191 0.764683 0.437979 -0.830249 0.216926 -0.395859 -0.459137 -0.299081 -0.783074 0.164289 -0.359803 0.209914 -0.395567 
0.642617 0.39595 0.30509 0.67196 0.642236 -0.409206 -0.286888 0.903091 -0.539716 0.124531 -0.66324 -0.0429159 -0.323332 0.705407 -0.360406 -0.771764 0.262786 0.15499 -0.40867 0.05628 -0.401182 -0.229035 -0.804982 0.2764 0.33187 -0.0246705 0.4049 -0.533714 0.575619 -0.416339 0.0974715 0.227443 -0.876168 -0.52824 -0.166584 0.672411 -0.0158096 0.667914 0.633492 0.59948 -0.230605 1.00563 -0.568324 0.379623 0.655755 0.1775 0.636903 -0.0137094 -0.718635 -0.825605 -0.841568 -0.178395 -0.12091 -0.746276 -0.901379 -0.68144 0.270561 0.399527 -0.236879 -0.085342 -0.912403 0.848926 -0.868309 -0.873839 -0.636594 -0.0747734 0.872775 0.32914 -0.437584 0.482794 -0.0723105 0.319579 0.456407 0.239596 -0.207295 0.189394 -0.644939 -0.700258 -0.887056 -0.458197 -0.600729 -0.816593 0.453473 0.322845 -0.537568 0.438197 0.683187 0.793505 -0.117584 -0.617751 -0.348492 -0.0276507 -0.74148 -0.331489 0.161018 -0.333729 0.683041 -0.0266676 -1.02968 -0.79286 
-0.462303 -0.213495 0.560647 1.03857 -0.880197 -0.630382 0.0498145 -0.55613 -0.399883 0.350749 0.141323 0.136317 0.491529 -0.464105 -0.4619 -0.933815 -1.01727 -0.777154 0.784424 -0.0414464 -0.312992 -0.568152 0.797357 0.0292915 0.134364 0.0810599 0.567619 -0.258561 -1.02797 0.549801 -0.00790443 -0.483794 -0.488032 -0.39319 -0.57633 -0.446684 -0.103232 0.60403 0.0683934 0.681939 -0.0783758 -0.81274 -0.271361 -0.663878 -0.303382 0.247251 -0.520839 -0.238568 0.451518 -0.779119 0.831542 -0.962732 -0.394054 0.539751 0.00655042 0.782583 -0.371998 -0.471011 -0.436345 -0.326136 -0.793237 0.548059 0.17013 -0.400568 -0.763459 0.586745 0.214915 0.108185 0.176664 -0.757003 -0.230336 -0.9153 -0.532899 0.359082 -0.482956 0.26755 -0.440311 -0.154123 -1.07989 -1.08244 0.0339054 0.649668 -0.991744 0.618225 0.216211 -0.0857025 0.472392 0.958973 0.46214 -1.04585 -0.419332 0.626177 0.530028 0.699299 -0.703328 0.772104 0.387581 0.448384 -0.16751 -0.509099 
0.791242 0.538605 -0.386914 -0.671521 -0.0721997 0.150713 0.454891 0.496632 0.923526 0.487148 0.58864 0.0930107 0.105406 0.521329 -0.225011 -0.519994 -0.536637 -0.721995 -0.622574 -0.857741 -0.687193 0.054215 0.567748 0.82739 -0.320564 0.952876 0.563118 -1.0745 0.377001 -0.580253 -0.486353 0.149923 -0.911767 0.183332 0.34208 -0.0304806 -0.823444 -0.148625 -0.491535 -0.682566 -0.717419 -0.926704 0.343864 0.379382 0.591313 -0.920333 0.99501 -0.870605 -0.67473 -0.681401 -0.749645 -0.44878 0.233214 0.762477 -0.5888 0.957478 0.817795 0.908051 0.980943 0.22538 -0.561626 -0.488398 -0.662801 -0.570464 0.642791 0.680798 0.490811 0.873343 -0.573627 0.939949 -0.828583 -0.220532 -0.922324 0.390237 -0.735765 0.799432 0.380295 -0.94669 0.810938 0.705839 -0.653647 -1.01005 -0.709795 0.637787 0.808692 -0.404126 0.619605 0.719263 -0.474245 0.508681 -0.221612 -0.0743392 -1.05326 0.278939 0.426523 0.621768 0.0375776 -0.161036 0.443817 0.503113 
-0.0874888 0.610831 -0.689115 0.025877 -0.0119167 -0.464634 -0.321842 -0.517339 -0.435925 -0.402385 -0.70519 0.00457995 -0.412717 -0.476892 -0.323083 -0.373913 0.133989 -0.751534 -0.740033 0.773533 0.803872 0.288674 -0.392621 0.676867 -0.616053 -0.841067 0.338452 0.309395 -0.0594104 -0.170327 -0.170009 0.800558 -0.512133 0.177293 -0.26094 0.443618 0.637229 0.441793 0.909046 -0.69753 0.982254 -0.830715 0.308123 -0.385417 -0.276668 0.929535 0.284681 0.887002 -0.834323 0.544606 0.682549 0.854277 -0.263857 -0.732349 0.662754 0.148029 -0.538712 -0.0648696 -0.399454 0.415946 0.826635 0.452569 0.230806 -0.768407 -0.414061 0.95814 0.725486 -0.774772 0.301381 0.589089 -0.496922 0.401922 0.862105 0.726974 -0.967858 -0.315451 0.5232 0.198432 -0.506657 0.677082 -0.219581 -0.915035 0.60488 0.506748 -0.58793 0.181949 -0.330932 -0.0720334 -0.892033 0.165092 -0.758855 0.907527 -0.444416 0.585746 -0.828052 0.163916 0.631869 0.842636 0.332427 -0.0650049 
0.572338 0.854686 -0.633088 0.472846 0.554407 -0.665771 1.02679 0.159231 0.525364 -0.534453 -0.012755 -0.660063 -0.3678 -0.463527 0.897743 0.161712 0.741096 -0.502762 -0.903229 0.825738 0.699712 -0.526429 0.725799 -0.726135 -1.00047 0.958231 0.378906 0.474358 0.771698 -0.318378 -0.521891 0.25137 -0.386589 -0.183218 -0.383633 -0.857343 0.0909266 -0.450135 0.268803 -0.356879 0.0343263 -0.741862 0.0344884 0.707694 -0.226565 -0.167697 -0.10644 -0.46942 0.329197 -0.0165637 -0.557375 -0.0509362 0.426077 -0.843266 0.259503 0.432538 -0.835491 -0.407421 0.0181296 0.92319 0.282704 0.526863 0.222015 0.875719 -0.73172 0.794658 1.00511 0.379672 -0.707836 0.296169 -0.980753 0.445865 0.620028 0.0807641 0.19145 -0.516487 0.832446 -1.04469 -0.0694857 0.154905 0.0107023 0.353437 -0.838299 -0.57394 0.527796 0.380228 0.847892 0.739681 0.959702 -0.204962 0.580028 0.26838 -0.731144 -0.135385 0.153643 -0.45478 -0.285651 0.160702 0.86189 0.0383006 
-0.48376 0.981536 -0.513956 -0.897267 -0.0265366 0.598787 -0.422931 -0.10124 0.577457 0.463733 -0.79161 -0.382452 -0.0914328 -0.662472 0.054309 -0.457819 0.770693 -0.0998275 -0.716745 0.645654 0.695861 0.954464 -0.0803113 -0.885001 -0.183409 -0.917327 -0.417014 0.394332 0.252708 -0.638357 -0.522426 0.666127 -0.569723 -0.097747 0.8012 0.406325 -0.538858 -0.695588 -0.682644 -0.953542 0.784755 -0.532078 -0.339559 -0.253301 -0.175409 0.752361 0.275053 -0.455425 -0.394556 0.605074 -0.715979 -0.686778 0.499544 0.207248 -0.625446 -0.6818 0.362246 -0.118514 0.771254 -0.39556 0.294476 -0.707271 -0.666641 0.701615 0.0682762 -0.934261 0.120434 0.591141 -0.689918 0.445625 0.611007 -0.835838 0.985497 -0.668337 -0.0965822 -0.128999 -0.986112 -0.872634 0.35414 -0.368157 0.779967 0.638222 -0.00410729 0.295822 -0.0585936 0.334726 0.598339 -0.789237 -0.767802 0.343191 -0.213294 0.542006 0.568017 0.0528501 0.256402 -0.266968 0.166926 -0.563893 -0.742098 0.503425 
0.934776 1.01894 0.685186 0.912953 -0.73616 -0.441434 -0.222997 -0.610188 -0.250483 -0.917029 0.139439 -0.520573 0.766406 -0.900908 0.774161 -0.328653 0.5285 0.408 -0.136123 0.646951 -0.272528 0.611245 0.116652 -0.534097 -0.288744 -0.548098 0.140625 0.794814 -0.151284 0.295008 0.373539 -0.246429 0.368751 -0.0328957 -0.319062 0.637838 0.497705 0.401886 -0.916583 -0.780896 0.523208 0.116514 -0.250518 0.322188 0.26039 -0.435886 0.972384 -0.31931 0.895487 -0.182659 -0.622415 -0.330513 -0.613155 0.545069 0.0421061 0.125316 -0.968129 -0.878419 -0.0225683 -0.0743124 0.442866 -0.621957 0.68156 -0.193717 0.244411 -0.672888 -0.52328 -0.137627 0.693318 -0.503809 0.0641374 0.260495 0.691743 0.842703 -0.469584 -0.0059953 -0.704943 -0.533897 0.619986 -0.739365 0.31037 -0.990861 -0.108551 0.691689 0.622456 0.973779 -0.148871 0.571561 -0.960869 0.816384 -0.536862 0.53153 -0.842441 -0.838771 -0.725707 0.511612 -0.406269 -0.176411 -0.702515 -0.659391 
0.398238 0.474383 0.640452 0.0685616 0.27059 -0.942014 1.05046 0.653783 -0.409707 0.608664 0.983403 0.777156 0.655427 -0.0966395 0.532621 0.249155 -0.0354691 -0.601084 -0.186064 -0.15209 -0.808601 0.284061 -0.723384 -0.559388 0.485594 -0.310593 0.929809 -1.01191 0.427093 -0.849052 -0.667152 -0.22383 0.673454 0.8384 0.867025 -0.108639 0.920741 0.862801 -0.339537 -0.524409 0.511132 -0.419513 -0.644392 0.17939 0.483372 0.874516 -0.606699 -0.698288 -0.809608 0.218954 0.252248 -0.561071 -0.543532 0.617368 -0.187108 0.971838 -0.646905 -0.310299 0.99361 0.79815 -0.147851 -0.708489 -0.450469 -0.476463 -0.843363 -0.615722 0.478176 -0.869669 -0.790864 -0.961258 -0.38611 0.789095 -0.33602 -0.0245031 -0.132579 -0.852541 -0.240902 0.253858 -0.553833 0.011789 -0.517199 0.676782 0.410231 -0.0731098 0.373706 -0.761872 -0.0928645 0.595132 -0.146999 -0.151657 0.360122 0.709094 0.175482 1.02815 -0.82116 0.344497 -0.532793 0.684095 0.445283 -0.308658 
0.750486 -0.90192 -0.516428 -0.574786 0.0043298 0.303571 -0.433635 0.832843 -0.416493 -0.0134922 -0.153742 -0.00324461 -0.339202 -0.696163 0.913044 1.00438 -0.450867 -0.151835 0.634749 0.364733 0.684281 0.0039274 -0.0343756 -0.0255989 -0.0255572 0.272993 -0.692749 0.365959 -0.0933492 0.658779 -0.923598 -0.33457 0.795952 -0.512419 0.124748 -0.267212 0.772624 0.651118 -0.349852 -0.596696 -0.37919 0.473759 0.41116 0.279612 0.808754 0.378094 0.27423 -0.704411 -0.840027 -0.131546 0.746819 0.925949 0.836777 -0.197433 -0.212552 -0.159019 -0.876544 0.00351373 -0.799891 0.00500316 -0.326251 -0.710873 0.674124 -0.60994 -0.226147 -0.259071 0.263643 -0.447906 -0.658044 0.82209 -0.00173685 -0.0582176 0.344768 -0.588015 -0.786853 0.150142 0.678234 0.446646 0.443445 0.905149 -0.690337 0.156929 0.761064 -0.8759 0.995242 -0.456447 0.0173168 -0.938081 0.500607 0.117377 0.0354632 -0.797607 0.488216 -0.221227 -0.352831 -0.680964 0.545051 0.852938 -0.125616 0.85736 
0.686287 0.877692 -0.137761 0.0799152 -0.768834 0.0317265 -0.7874 -0.993982 -0.470533 0.631667 0.901303 -0.191541 -0.213834 0.699978 -0.0154498 -0.222582 -0.740565 0.991894 -0.147903 0.759728 0.166688 0.921262 0.881236 -0.266676 -0.35004 -0.435124 0.00963863 -0.830547 -0.56711 0.817338 -0.928031 -0.860457 0.690844 -0.0767115 0.223237 0.912204 0.915982 0.383405 0.972368 -0.494582 0.0446244 0.878425 0.304243 0.818707 0.570334 -0.684399 -0.343563 0.822001 -0.735267 0.441159 0.611071 0.4596 0.335726 0.54443 -0.900649 -0.971068 -0.839878 0.0379512 -0.789188 -0.440178 -0.151315 -0.705552 -0.31643 -0.519125 0.207225 0.902721 -0.461971 0.133131 0.281579 -0.545838 0.661222 -0.720636 -0.649949 -0.0165662 -0.858289 0.955064 0.224978 -0.284433 0.762638 0.54002 -0.851267 0.344679 -0.0350155 0.49755 -0.0820131 0.0984031 0.582187 0.0522146 -0.905356 0.708093 0.583872 -0.0599242 -0.953759 -0.686562 0.50398 0.298973 -0.788726 0.997585 -0.571863 0.478609 
-0.555054 -0.921057 0.783051 -0.196803 0.0426885 0.879327 -0.245726 -0.690934 -0.406944 -0.477337 0.870441 -0.249411 0.889988 -0.14558 -0.723701 -0.197407 0.928947 0.822847 0.845109 -0.995201 0.602707 0.407144 -0.0601898 0.670113 0.727758 -0.565557 -0.0894472 0.959029 -0.564251 0.34217 0.45924 -0.0849797 0.432514 0.229557 0.733359 -0.528239 0.0806516 -0.529872 -0.183994 0.724819 0.0178909 -0.319454 -0.537938 -0.116243 0.556975 -0.268693 0.69092 0.475152 -0.45294 0.520789 0.489303 -0.860835 -0.045805 -0.553888 0.789682 -0.295941 -0.094114 -0.300101 -0.341958 0.32499 -0.949847 -0.920368 -0.773285 0.477201 0.339453 0.914444 0.977348 -0.5676 -0.582902 -0.212016 -0.878398 0.394177 0.4781 -0.361928 -0.713365 0.0399365 0.360413 0.977861 -0.500514 0.929223 0.496894 0.980564 -0.939127 -0.536777 -0.559571 0.845313 0.18505 0.326275 -0.432275 0.812085 -0.3587 -0.365793 0.93719 -0.117059 -0.871261 0.294235 -0.188316 -0.91271 0.71274 0.228647 
-0.115237 0.860303 -0.372893 -0.635177 -0.516579 -0.0802676 0.397862 0.837825 -0.0925088 0.900469 0.763169 -0.587835 0.887302 0.836133 -0.113653 -0.677623 0.699063 -0.949581 0.652948 -0.749944 0.883234 -0.713768 -0.119822 0.842326 0.174916 0.00472402 0.103989 0.991673 0.0956657 -0.188101 0.224509 1.00774 -0.313449 0.843503 -0.630406 0.163421 -0.245917 0.784741 -0.000830166 0.674442 0.675579 -0.224305 -0.917745 0.555873 -0.376869 -0.0277949 0.867815 -0.678274 0.0133752 0.519389 -0.409816 -0.099504 0.813477 0.470238 -0.26742 0.00350671 -0.525293 0.826303 -0.00180481 0.577091 -0.350341 -0.781908 0.571905 0.329494 -0.931912 0.930805 -0.493622 -0.171946 0.711872 0.507603 -0.504026 0.373731 -0.710507 -0.393721 -0.0630986 -0.0765996 0.57591 -0.189879 0.238157 -0.417379 -0.669437 0.815587 0.485961 -0.857256 0.29743 -0.784798 0.166781 0.769784 -0.941028 -0.848276 0.346482 -0.269684 -0.629083 -0.0801127 -0.93923 -0.551659 -0.133902 -0.439462 0.266574 -0.42765 
-0.913059 0.776224 0.948058 -0.613403 -0.624884 -0.115359 0.299084 0.944645 0.694619 -0.468432 -0.45908 -0.975093 -0.651326 -0.967968 -0.815899 0.638621 -0.743383 0.337846 0.410657 -0.688443 0.493785 -0.241878 0.0254873 0.871774 0.681849 0.0855815 -0.685654 -0.456389 0.653893 0.582223 0.119403 0.741386 0.358144 0.0681873 -0.876368 0.733494 0.95187 0.425263 0.680849 0.646482 0.952406 -0.776764 0.672213 -0.698081 -0.741366 0.8496 0.942324 -0.487582 0.184759 0.351541 -0.175122 -0.321319 -0.890253 0.851634 -0.447944 0.791651 -0.0632332 -0.138912 -0.663578 -0.408696 -0.554753 0.452827 -0.668406 0.802837 -0.479153 -0.543175 0.540488 -0.529157 0.876112 0.220782 -0.87723 0.828655 0.444252 0.79094 -0.868458 0.70319 0.638488 -0.927284 -0.784715 -0.175254 0.426348 0.0403361 0.503868 0.534456 -0.106695 -0.944304 0.327422 0.830707 -0.0821608 0.664132 -0.579279 0.361957 0.11501 -0.241318 0.167452 0.637716 0.210266 -0.301002 -0.890577 0.0872572 
0.926839 -0.771137 -0.084748 0.37088 -0.980263 0.0460918 0.0727362 0.66052 0.119479 0.288645 -0.513695 -0.455421 -0.669642 0.990516 -0.920162 0.223846 -0.955222 0.406622 0.0543494 -0.038444 0.069854 0.476086 -0.676135 -0.813535 -0.769835 0.490825 0.823688 0.440036 -0.803293 0.933455 -0.473465 -0.87646 -0.837692 0.441788 0.494387 -0.817951 -0.51212 -0.432871 0.842582 0.607359 0.855743 -0.671097 -0.848053 -0.813892 -0.680555 -0.768275 0.409972 -0.635796 0.638328 -0.535693 0.325767 -0.291825 0.940392 0.649642 -0.105338 -0.829451 0.140468 -0.281693 0.610595 0.33717 -0.348226 -0.862896 0.460718 -0.185925 0.578895 -0.0448952 -0.00384667 -0.933234 0.522192 -0.161255 0.674172 0.377935 0.167649 0.826076 0.564043 0.487092 -0.942209 -0.025988 0.851303 0.696123 0.438325 0.17707 -0.595688 0.378714 -0.173274 0.298974 0.549264 0.967194 -0.982716 0.159873 0.304355 -0.330954 0.296958 -0.234881 0.483143 -0.12413 0.720176 -0.520775 -0.0573547 0.242372 
0.318027 -0.383216 -0.379696 -0.514327 -0.55714 -0.815653 0.972761 -0.499337 0.158362 0.824068 -0.803206 -0.403316 0.00115104 -0.398895 0.975398 0.827877 0.90006 0.524663 0.79507 0.917333 -0.315476 0.0994363 -0.413619 0.981496 0.864519 -0.93048 -0.142635 0.584695 -0.451196 0.800012 -0.172937 0.866831 -0.583205 0.447367 -0.647495 -0.140345 0.631714 -0.674735 0.360318 -0.209924 -0.850667 0.557111 0.38676 0.150484 -0.841784 0.362158 -0.0216389 -0.941724 -0.113179 -0.226569 0.97561 0.571345 0.872868 -0.438009 0.552841 0.737386 -0.368488 -0.589794 0.322081 0.180316 -0.789783 -0.850856 0.0471475 -0.372987 0.596511 0.399652 0.486668 0.228225 0.724918 -0.153015 -0.981698 0.874251 -0.595903 0.405062 0.0247354 -0.437687 -0.23278 -0.996903 -0.379411 0.654041 -0.223472 -0.403801 0.225386 -0.350604 0.15819 -0.221773 -0.613218 0.789702 0.188433 0.708863 -0.0299824 0.39865 0.858007 -0.982835 -0.974338 0.454518 0.416817 0.51233 -0.317257 0.141735 
-0.636203 -0.29859 0.0176145 -0.234063 -0.895279 -0.960382 0.328162 -0.12652 -0.955683 0.94434 -0.473151 -0.179563 -0.457571 0.754757 0.470491 0.694808 -0.470064 0.857662 0.491688 0.717296 0.568564 -0.538743 0.116826 0.423868 -0.521418 0.141257 -0.122249 0.893132 -0.347943 0.558507 0.0360288 0.0132793 -0.739054 -0.943853 0.77867 -0.630723 -0.905676 0.104988 0.23953 -0.861387 0.0535912 0.768644 -0.0422355 0.595691 0.520399 -0.573452 0.295203 -0.949434 -0.716496 -0.215724 0.772489 0.84859 0.244116 -0.111628 0.273188 0.722687 -0.966977 -0.846423 0.617954 -0.311415 0.710865 -0.346338 0.7044 0.969935 -0.294881 0.483637 -0.659563 -0.199895 -0.412537 0.577836 -0.0664162 0.63801 0.346542 0.893189 0.234592 -0.129591 -0.682708 -0.473262 -0.0778973 -0.40003 0.310592 -0.306366 -0.553664 -0.446124 0.585996 0.720978 -0.72127 0.617851 0.872562 0.894947 -0.69222 0.583641 -0.454059 -0.987449 0.552121 0.254554 0.496251 0.895417 -0.947155 -0.91252 
0.495896 -0.00861316 0.737737 -0.137571 -0.148337 -0.0733833 0.731391 0.188095 0.466247 -0.382793 0.79823 -0.180197 0.317804 -0.749609 0.347767 -0.130909 0.951247 0.665263 -0.465855 0.832158 0.527839 -0.194176 0.412423 -0.910357 -0.148411 -0.0397139 0.329794 -0.671413 -0.160064 0.333827 -0.598783 -0.68261 -0.641614 -0.819435 0.17741 0.222036 0.0985447 -0.114439 -0.577925 -0.401151 0.543408 -0.763224 0.363983 -0.166146 -0.523725 -0.275796 0.722463 -0.554869 -0.669386 -0.754002 -0.712157 0.867582 0.0433395 0.679489 0.943391 0.910293 -0.29308 0.29309 -0.770389 0.590083 -0.378081 -0.343952 0.932374 -0.029414 -0.212455 0.107307 -0.733855 0.918779 0.965371 -0.370965 -0.549503 0.451372 -0.149237 0.86043 -0.678493 0.325983 -0.449589 -1.01412 0.821928 -0.108955 -0.751048 -0.911827 -0.273416 0.282708 0.830234 -0.304249 0.18947 -0.483476 0.977898 0.4049 -0.920859 -0.406173 -0.965261 -0.987881 0.600967 -0.125144 0.123603 0.826453 -0.261254 0.148366 
-0.5591 0.256767 -0.397439 0.495867 0.0404004 -0.194395 -0.15913 0.575388 -0.125012 -0.423907 -0.501421 0.172037 -0.272577 0.271581 -0.613264 -0.451466 0.978372 0.658246 0.0382322 0.980414 -0.020215 0.017395 -0.493337 0.135365 0.112714 -0.884788 0.94925 -0.801733 1.00457 -0.516772 0.259795 -0.618351 0.886091 0.947019 0.910699 -0.0679861 -0.282867 -0.395622 -0.473993 0.72884 0.256037 0.0747166 -0.342558 0.786123 -0.651922 0.12021 -0.700049 -0.692108 -0.332831 0.328082 -0.716332 0.72098 -0.678481 -0.23577 -0.269024 0.551778 0.0512888 -0.285447 0.691832 -0.0116726 0.396122 -0.015272 0.493445 0.237366 -0.0807639 0.268369 -0.78141 0.726039 0.850066 -0.264231 0.258648 -0.0665953 0.684922 1.09604 -0.147868 -0.980824 0.111878 0.0585944 -0.580655 0.834799 -0.55607 -0.377235 0.422173 -0.219993 0.560466 -0.722013 -0.712306 -0.494758 0.0552664 0.83382 0.490344 -0.666168 -0.135771 0.0213254 0.691464 0.893169 -0.752012 0.800622 0.481139 -0.79937 
-0.763151 -0.237045 0.20296 -0.650822 -0.1508 1.00487 -0.55808 0.865716 0.190608 -0.279108 0.711299 0.549941 0.482432 0.31145 -0.799545 -0.0275162 0.665957 -0.332833 0.376197 -0.401812 -0.463568 -0.281337 -0.0285719 0.602047 0.730864 -0.385091 0.293007 -0.973866 -0.495561 -0.448609 -0.839243 -0.0955093 0.62699 0.397765 0.362593 -0.610195 0.23516 0.587311 -0.804009 -0.449461 -0.575671 0.893569 0.736065 0.529298 0.14501 -0.821081 -0.500943 -0.242425 -0.307295 0.837155 0.326555 0.281099 -0.439982 -0.735826 -0.405213 -0.402669 0.0897141 -0.983672 -0.469829 0.382345 -0.209962 -0.227835 -0.535809 -0.637901 -0.772133 0.61859 -0.190346 0.431665 0.290425 -0.0749333 0.749067 0.422555 -0.199996 0.93404 0.175998 0.945759 0.894747 0.689569 -0.349542 -0.271417 0.491169 0.948546 -1.171 -0.874584 -0.543906 -0.366173 -0.279532 0.31342 -0.228039 0.207109 -0.196546 0.476317 -0.960814 0.305497 0.907931 -0.714611 -0.0512154 -0.327939 0.572066 -0.793004 
0.272107 0.344015 0.81448 -0.791225 0.0740169 -0.0882597 -0.757899 0.0323725 -0.513482 -0.113118 0.807133 1.01933 -0.0859003 0.804304 -1.00541 0.313057 -0.292494 0.027241 -0.442236 0.299648 -0.751341 0.0918809 -0.0823721 -0.442348 -0.561983 -0.289441 -0.428694 0.586445 0.511681 -1.21414 0.530821 0.0572292 0.494861 0.304339 0.470597 -0.594584 -0.940925 0.571965 0.401016 -0.192399 -0.440762 0.246251 -0.750379 0.274312 -0.0431923 -0.329674 -0.410961 0.428506 0.411877 0.0356358 -0.364625 0.91846 -0.773803 0.570918 -0.951526 0.0407541 -0.488002 -0.399027 -0.691674 0.696517 -0.427046 -0.853965 0.137881 -0.963415 0.555946 -0.660462 -0.251851 0.582986 0.800819 1.03821 0.974985 -0.679203 0.234751 -0.196788 0.720901 -0.787688 0.0867992 -0.48484 0.463698 -0.23718 0.280502 -0.822792 -0.497474 0.546528 0.998056 -0.19229 -0.380957 -0.694083 0.540469 -0.0709649 -0.752355 -0.92569 0.0492284 0.436314 -0.756133 -0.528749 0.677606 -0.161623 0.772037 0.570006 
-0.463316 0.825347 1.11255 0.652053 -0.801288 0.64594 0.941231 0.510182 0.965188 0.344587 -0.462802 0.395164 0.622982 0.130891 -0.154983 0.539339 -0.697827 0.79967 1.04045 0.682329 -0.366822 -1.11214 0.856556 1.07905 0.500902 -1.09902 -0.518097 0.353655 -0.148633 -1.25583 -0.316964 0.599096 1.02241 -0.0847196 0.512001 -0.875576 -0.63014 0.277802 0.606384 -0.373228 -0.215456 -0.852099 0.56508 -0.627719 0.320834 -0.307657 1.02983 0.250494 -0.818975 0.90701 -0.137338 0.219744 -1.20689 -0.194393 -0.0833585 0.739561 0.0272254 0.18987 -0.16402 0.633179 0.130001 1.05165 0.928141 -0.0330336 -0.249306 -0.0222615 0.469698 0.170203 -1.09615 -0.00549023 0.392158 -0.0888751 0.131384 0.396389 0.31576 -0.478131 0.738615 0.572916 0.458717 -0.833924 0.159302 -0.582233 0.399798 0.106229 0.533416 -0.441446 -0.195782 -0.497521 0.758328 0.529966 -0.722409 -0.195976 0.337044 -0.7955 -0.969423 0.885139 -0.0229189 0.332432 -0.274708 0.0992497 
-0.813889 -0.798499 -1.05025 -0.0595311 0.147604 0.201993 0.675358 0.178572 -0.407383 -0.171924 0.842212 0.770114 0.516441 0.227572 -0.360192 -0.01048 1.01057 0.807123 0.759624 0.492023 0.471794 -1.18575 -0.604782 0.06129 -0.828105 -0.593894 -0.0783591 0.164791 0.780808 0.293543 -0.831089 0.873891 0.947776 -0.393221 0.145911 0.00376254 0.535798 -0.646816 -0.875175 -0.800585 0.574749 0.939436 0.857199 -0.00583542 0.16251 -0.229739 -0.620824 -0.142031 -0.637278 0.863582 -0.311362 -0.814519 0.646928 0.278495 -0.0578401 -0.611702 0.969967 0.583723 0.276684 0.478604 0.0224623 1.14073 0.919765 -0.364312 1.16485 -0.244558 1.15153 0.612587 -0.317346 -0.906434 0.63497 -0.500001 -0.865357 0.76162 0.628949 0.477151 -0.806307 1.07082 -0.996502 -0.141861 0.801373 -0.202479 0.0688223 0.50383 -0.838318 -0.797265 0.584415 -0.782512 0.901406 -0.391565 0.735696 -0.102814 -0.673289 0.741605 0.924166 -0.770612 -0.45603 0.873458 0.663411 0.507071 
1.00745 0.563839 -0.952049 0.763542 -0.107804 0.756273 0.632588 0.396066 0.585088 0.220807 -0.22125 0.31294 -0.737063 0.79387 -0.505862 -0.421433 -0.792063 -0.599069 0.140954 0.7409 0.322114 -0.391461 -0.289982 0.962163 -0.184415 -0.187455 -0.543421 0.111001 -0.419662 0.779454 -0.456483 -0.420855 0.591474 0.0312761 -0.241819 -0.624532 -0.578983 0.760134 0.895449 -0.86752 0.480945 -0.52952 0.236663 0.919646 -0.712772 -0.905277 -0.177609 -0.796431 -0.764356 0.777381 -0.53632 1.05249 -0.742105 0.288816 0.61209 0.659403 -0.636496 0.483211 -0.469203 -0.148489 0.349133 0.897379 0.806922 -0.30455 -0.656691 -0.809046 0.815554 -0.36469 -1.41593 0.141675 -0.224736 0.118321 0.910019 -0.767711 0.356994 -0.616482 -1.09264 1.1098 -0.57472 -0.600436 0.804664 -0.466159 -0.526617 -0.735965 -1.03447 -0.730401 0.487859 -0.632856 0.922603 -1.34585 0.135771 0.357107 0.0418474 0.0451411 -0.445852 0.211253 0.288325 0.822807 -1.04171 0.194183 
0.0128893 0.0049196 -0.290452 -0.277512 -0.180098 1.14557 0.615754 -0.0204938 0.76948 0.244644 1.00742 0.652059 -0.9074 -0.546051 0.444455 -0.685235 -0.123118 0.303836 0.0568306 -0.238354 0.226608 -1.08403 -1.00968 -0.224484 0.387694 -0.29902 -0.591918 -0.464261 -0.575161 -1.00028 0.441652 0.79154 -0.0891259 -0.489906 -0.0573825 0.800743 -0.891933 1.00383 0.178613 -0.673398 0.688952 -0.180335 0.294128 -0.889121 0.410211 0.385548 -0.328246 -0.96499 -0.766192 0.500816 -0.163646 1.21938 0.164558 -0.00706089 -0.342477 0.0407082 1.06139 -0.671354 0.34473 -0.5465 -0.593556 0.619306 -0.423318 0.275412 0.521246 0.0354289 0.910877 0.593553 -0.242381 -0.888314 0.92864 -0.726945 0.30264 0.482014 -0.315369 -0.170034 -0.563881 0.193114 -0.484811 -0.215486 -0.351259 0.0588172 0.0791279 -0.953007 -0.572844 0.818931 -0.145811 -0.72316 -0.664 -1.18679 -0.503203 -0.0778354 -0.10322 0.219235 -0.288956 -0.522017 -0.575594 -1.11754 -0.788941 0.19466 
-0.667235 -0.45849 0.880761 0.20037 0.400971 -0.039669 -0.809142 -0.952887 0.479958 -0.775958 0.57715 -0.666374 0.426482 -0.382705 -1.22024 -0.951445 -0.468104 0.161241 -0.370869 0.156127 0.0712862 -0.0948293 -1.01707 -0.505777 -0.570218 -0.153701 0.501762 -0.391098 -0.488661 0.557698 0.447754 0.190365 0.576359 0.807378 -0.115492 0.221245 -1.09952 -0.048628 0.589577 0.759823 0.409477 0.0921774 0.485449 0.129734 0.827074 1.07127 0.435715 -0.744887 -0.183865 0.854842 0.101306 -0.356149 -0.32235 0.152593 0.0472793 0.507075 -0.978872 -1.28951 0.925935 -0.209347 0.332293 1.01287 -0.838501 -0.0429695 0.291924 -0.376237 -0.198101 0.376292 0.232363 0.658803 0.482816 -0.568491 -0.0317923 -0.278934 0.717573 -0.120215 -0.383544 -0.0690165 -0.434692 0.270548 -0.233458 0.512843 -1.06063 0.55166 -0.094918 -0.192489 0.0930466 -0.0595556 -0.0931441 -0.540601 0.400802 -0.66206 -0.861871 0.911692 0.780945 0.548359 -0.305729 -1.11958 -0.0452675 0.711371 
-0.897512 -0.417902 -0.425106 -0.466395 -0.217147 -0.277426 0.21732 0.549974 0.076098 0.770561 0.622535 1.16689 0.241056 0.474129 0.151669 -0.583806 -0.468363 -0.314662 0.744601 0.805873 0.245157 0.0919926 -1.0708 0.78039 0.16935 0.905553 0.849474 0.510412 0.67563 -0.242289 0.0869313 0.940823 -0.150764 1.18876 -0.118099 0.837248 -1.02151 -0.708771 0.710223 0.601668 -0.829785 0.336968 0.175333 0.585537 -0.108959 0.203233 -0.527197 0.340053 0.569571 1.04846 -0.0386277 0.320818 -0.0883736 -0.104007 -0.0103741 -0.469544 -0.349729 -1.12721 0.824833 -0.456452 -0.234725 0.352888 -0.542107 0.58262 0.284806 0.183309 0.940077 0.355658 0.0746167 0.254594 0.629513 0.241149 -0.455992 -0.968544 0.0357933 0.655698 0.0318952 0.124902 -0.611715 -0.712296 -0.0486221 0.377933 0.485123 -0.736915 -0.665147 -0.593259 -0.213201 0.0926652 -0.288636 -0.728853 0.41563 0.542738 0.287855 -1.08737 0.72345 -0.39615 0.434309 -0.0286127 -1.11535 -0.884761 
-0.158704 0.0954733 0.58099 -0.0674656 -0.0303664 0.0879571 -0.737528 -0.836495 0.745629 0.117055 0.242803 0.375683 -0.632736 -0.326634 -0.0826932 0.150896 0.223567 -0.820774 -0.571842 -0.828338 -0.581074 0.798371 0.83886 -0.984897 0.889881 0.725073 -0.0400748 0.103841 -0.270407 -0.0671043 0.137283 0.489445 1.0296 0.392648 -0.349181 -0.037813 0.654608 0.439756 0.231918 1.12011 -0.442243 -0.353166 -0.28031 -0.0420199 0.270731 -0.306971 -0.505851 -0.533364 -0.388655 -0.0999478 -0.111988 0.371997 -0.657317 -0.546032 0.398731 -0.320477 1.10126 0.333002 0.414141 -0.406899 -0.461413 -0.107949 -0.706558 -0.751732 -0.731714 -0.0650433 0.434522 -0.899941 -1.11054 -0.244387 0.125758 -0.450783 0.117777 -0.0619792 0.902725 -0.255513 0.420087 -1.15653 -0.304006 -1.17781 -0.544661 0.678806 0.0593705 0.197813 -0.893453 -0.931262 0.670049 -0.648113 -1.11222 0.0268322 -0.190498 -0.501397 -1.36445 -0.162406 0.478148 -0.88268 1.17906 -0.527475 -0.873438 -1.34031 
0.815749 -0.687858 -0.575374 -0.407079 0.415723 -0.235294 -0.0127305 0.117105 -0.656569 -0.503295 0.627642 0.624853 -0.960735 -0.45561 -0.966499 -0.240481 -0.272601 -0.83316 -0.114828 0.00169428 0.264394 0.875639 0.909191 0.140859 -0.0859807 0.434459 0.321535 -0.0829723 0.996283 0.631683 -0.313925 0.570941 -0.578267 0.692054 -0.6348 0.726895 -0.904188 1.00139 -0.198416 0.00814021 -0.629297 -0.10419 -1.26872 -0.828989 0.0867269 -0.115405 0.156241 -0.856968 -0.100703 1.26525 0.533084 1.18868 0.725844 -0.0896558 0.461622 0.0135709 -0.662502 -1.01225 0.556126 -1.19391 -1.10585 -0.516246 0.941038 -0.983463 -0.710904 -0.777906 -1.14689 -0.572517 0.69586 -0.0307647 1.40855 -0.830222 0.546097 0.100095 -0.118414 0.121437 -1.17858 0.523865 -0.216472 -0.560985 0.488733 -0.725045 -0.206612 0.523699 0.00423161 0.514329 -0.903134 0.537225 -0.974571 0.903984 0.310313 -1.13547 -1.00728 -0.282737 -0.346708 -0.433265 0.400181 -0.889808 -0.0403793 -0.315872 
0.705333 -0.841604 0.195801 -0.021112 0.572462 -0.379134 0.390284 0.688765 -0.939278 0.210496 -0.259415 -0.66694 0.365169 0.124701 0.246044 0.0686821 -0.351326 0.702047 -0.854195 0.00368833 0.717281 0.814526 0.143091 0.867448 -0.203944 0.978613 -0.85958 -1.1018 -0.935014 0.33904 -0.134948 0.51663 1.06068 -0.379973 -0.403971 0.513574 0.131686 -0.174976 -0.068154 0.692113 0.640415 1.29635 0.066283 -0.447015 -0.0369945 0.389173 0.78329 -0.92171 -0.0500681 1.33265 0.808225 -0.676466 0.641397 -0.747995 1.42056 -0.149432 -0.852126 -1.12201 -0.562779 -1.18823 0.486602 0.495532 1.00147 0.112862 -0.674365 -0.497093 -0.215567 0.264682 -0.407377 -0.853076 0.675007 -0.648157 -0.788115 0.611952 0.589452 0.698443 -0.208793 -0.0701614 0.315872 0.249667 -0.0179095 -0.332739 0.938553 -0.211327 -0.258888 0.470236 0.327246 0.278707 0.864882 0.918715 0.240752 0.111722 0.133332 -0.421587 0.0983819 0.715793 0.530222 0.46769 -0.116887 -1.30562 
1.16819 0.426684 -0.415123 -0.755082 0.403674 -0.329931 -0.057863 -0.511853 0.695425 0.346288 -0.672598 0.436853 0.9297 0.868193 -0.965154 0.522098 0.259376 0.518504 -0.892862 0.294749 0.634056 0.812135 -0.391817 -0.164977 -0.527932 0.87129 -1.02199 0.590118 0.254881 0.360108 0.63584 0.110795 0.399757 -0.387874 0.160874 -0.271846 0.15297 -0.0243033 -0.260922 0.488567 0.898161 0.789799 -0.875052 0.268986 0.220513 -0.153052 -0.0358183 -0.0708862 1.01566 0.375002 0.149524 0.283024 -0.117903 0.0667644 1.20394 0.528858 -0.0971553 -1.08093 0.0881234 -1.23089 0.470572 -0.210583 0.434082 -0.50115 0.569411 -0.313145 0.368332 -0.323011 0.0332421 -0.491117 1.54825 0.0480582 -0.851079 0.591819 -0.180472 0.907142 -0.987307 0.193083 -0.578787 -1.32405 -0.417395 -0.100708 0.125321 0.267305 -1.06707 -0.324439 -0.321843 0.401435 -0.0706958 0.632466 0.317536 -0.795638 -0.765174 -0.464487 0.228848 0.946627 0.503794 -0.762687 -0.635881 -0.932877 
0.152973 -0.943541 0.548858 0.254675 -1.16265 -0.296586 -0.771435 -0.784671 -0.882396 0.562427 -0.638873 0.468056 -0.634378 0.340749 -0.380692 0.267595 -1.02473 0.167695 -0.99222 0.0264263 -0.0792987 1.15969 0.340414 0.216662 -0.746944 -0.0981815 -0.364691 0.293178 -0.0666673 0.438692 0.794666 0.634394 1.31548 0.494336 -0.40093 1.11453 -0.878879 0.306484 -1.3895 -0.323213 -0.551265 -0.355447 0.512021 -0.344841 0.642082 1.46706 1.27609 -1.07056 0.179299 -0.535982 0.752324 0.903475 1.12068 -0.211224 0.266169 -0.405101 0.667362 0.713 1.10841 -0.713869 0.464128 0.945553 -0.444103 0.228589 0.23816 0.070496 0.618508 0.405871 -1.03253 0.523319 1.2956 -0.0657737 -0.85217 -0.114567 0.830604 -0.623729 -0.388127 0.272142 -1.06018 -1.20065 -1.06095 0.316908 0.767025 -0.98423 -0.835986 -0.405244 -0.405192 -0.566997 -0.454412 -0.730665 -0.288267 -0.988458 0.794653 0.45963 0.559393 0.226634 -0.30221 -0.140582 -0.873661 -0.521948 
-0.312629 -1.10514 0.554022 -0.040981 -0.025819 0.416588 -0.396998 -0.937537 0.0441258 0.184903 -0.730757 0.71559 -0.511994 -0.926934 0.737922 0.564304 -0.2687 0.929339 0.540998 0.20807 -0.800994 0.432607 0.159879 -0.863355 -1.0436 0.170034 -0.174763 -1.05686 0.794696 0.328542 -0.0831637 -0.991017 1.25712 -0.5471 -0.253833 0.249133 0.85198 0.377553 -0.733462 -0.118286 -0.81272 0.0963087 -0.701231 -0.113035 -0.213627 0.953566 -0.234059 -1.3428 0.563127 -0.492839 0.843233 0.417453 0.116376 -0.112666 0.693555 0.356969 -0.957196 -0.464169 0.967267 0.632656 -0.766815 0.023896 -0.716161 -1.21424 -0.0426621 -0.152102 0.314576 -0.123083 -1.14158 0.774897 0.752267 -0.0403301 -0.0246298 0.491389 0.902159 -0.452271 -0.550394 -1.15452 -1.07207 -0.919555 -0.516757 0.333849 0.665798 0.54259 -0.7511 0.136721 0.187587 -0.0478579 0.687579 -0.469437 -0.383575 -0.917004 -0.0668619 0.0778492 -0.820425 1.08062 1.29253 0.0494853 -0.767341 -0.787275 
0.058729 0.87162 0.0603235 1.21317 0.223067 -0.499664 -0.61338 -0.676451 -0.250095 -0.634926 -0.0185865 0.887701 -0.912904 -0.545426 0.8447 0.0880106 0.789174 -0.504227 -1.11339 0.226046 -0.106976 0.382323 0.158568 1.33234 0.779476 0.578886 0.50693 0.00361772 -0.350465 -1.24205 0.577554 0.22384 -0.314993 -0.664572 0.53511 1.09183 -0.0905036 0.409948 -1.52077 0.511078 0.668506 -0.394853 0.320348 -1.062 -0.261665 0.116355 0.487338 -0.51502 0.29585 0.48975 -0.259696 0.740557 -0.934903 0.835812 0.816149 0.934737 0.718536 0.610237 0.708372 -0.857569 0.931598 0.683729 0.872051 -1.07864 0.306166 0.127885 1.23778 -0.410296 -0.717617 0.819444 0.878399 -0.0523974 -0.35168 0.0740739 0.0692268 1.17465 0.00316269 0.482956 -0.616703 -0.524424 0.413227 -0.311839 -0.44224 -0.00363409 -0.213429 -0.780922 0.418519 -0.274407 0.801652 -0.336242 -0.172953 0.928642 0.757538 0.027575 0.920378 0.339924 -0.555216 0.976928 0.0120303 0.232632 
0.847985 0.285972 0.662863 -0.515822 -1.22462 -1.0058 -0.281097 0.894217 -0.971948 -0.306361 0.00808521 0.500595 -0.853606 0.15766 0.00509864 0.0347979 0.886362 -0.819221 0.805253 0.0101199 -0.359693 0.136817 -0.666315 0.538755 0.893479 -0.347835 0.856156 0.257889 -0.411581 -0.493561 -0.329958 -1.07857 -0.328826 0.812736 0.0377538 -0.260951 0.784894 0.0725296 -0.832319 0.646888 0.625059 -0.122714 0.365196 0.876415 -0.943131 -0.394569 0.505969 0.570165 -0.581341 0.243177 0.43198 -0.28302 0.874297 -0.791154 0.467088 0.472579 0.601632 0.551533 0.582116 -0.743524 -0.374135 -0.347892 -0.448075 -0.384282 0.796842 0.081235 0.643973 1.42161 -1.29098 -1.17981 0.594652 -0.677143 0.225676 0.223083 -0.727098 0.80794 -0.613308 -0.333992 0.112286 -0.0114698 -0.393688 -0.832739 -0.947766 -1.2501 -0.143458 0.690811 0.975589 0.841227 0.161428 0.245062 0.674818 0.92784 0.620327 -0.487871 -0.561983 0.808331 0.989374 -0.47909 0.0985859 1.49824 
-0.697565 0.499585 1.19492 0.43996 -1.15511 0.654863 0.331109 0.475649 0.193972 -1.17339 -0.0270964 0.216822 -0.187066 -0.0222242 0.581584 0.0770689 0.170031 0.497316 0.09848 0.170737 -0.466871 -0.0590559 -0.581364 0.515259 0.654355 0.584445 1.2254 -0.323718 0.670576 0.0956286 0.406564 -1.45193 0.0572589 -0.0502545 0.651195 0.0963917 -0.27559 -0.608788 -0.459726 -1.24649 -0.904267 0.290975 0.309928 -0.0623785 -0.628942 0.243075 -0.619371 -0.139933 -0.827985 0.32864 -0.0681586 -0.337283 -0.876594 -0.883601 0.173214 0.208762 -0.700286 0.607918 -0.283798 -0.540388 -0.17707 -0.680449 -0.979081 0.227452 -0.0633226 0.384612 -0.547473 -0.305464 0.2397 0.056428 -1.06468 -0.645249 -0.211746 0.751592 0.131864 0.632884 -1.33921 -0.208646 -0.831863 -0.834742 -0.224249 -0.115641 0.0186298 -0.852632 0.547688 -0.383748 -0.665521 0.0668065 0.831796 -0.160684 -0.0585803 -0.24541 0.292561 0.163183 0.621196 -0.517775 0.00129646 -0.17754 -0.954679 -0.0734893 
0.91641 -0.193333 -0.162625 -0.329462 -1.38733 0.171841 1.15818 -0.744241 -0.296254 -1.07202 -0.31245 -0.388152 0.515117 0.93458 0.209153 -0.678223 -0.0172854 0.65927 0.653225 -1.33307 -0.574423 -0.463107 -1.26912 1.82804 -0.681456 -0.786742 -0.289057 -0.506518 -0.311652 -0.643855 0.424889 -0.958344 0.568463 0.791591 0.192129 0.109121 0.0823009 -0.000828363 0.659076 0.574594 -0.177574 -0.588426 -0.491544 -0.638989 -0.581725 1.11478 -0.229127 -0.527814 0.263381 -0.667869 0.0924748 -0.942937 -0.108231 0.445349 0.985002 -0.342348 1.01652 -0.597295 0.658302 -0.262058 -0.182167 0.302379 -0.203701 0.956142 0.256008 1.06512 0.0273857 -0.0526109 -0.524804 -0.301598 -0.558499 0.932852 0.177938 0.225684 1.03121 0.858351 -0.631607 -0.471918 -0.808578 -0.682751 0.11781 0.11722 -0.818883 0.622644 0.123703 -0.406182 0.106327 -0.625316 -0.377369 -0.460426 -0.23893 0.524723 -0.762841 -1.13619 0.0642581 0.506575 1.15047 -0.479563 0.585434 -0.312359 
0.133614 -0.70369 -0.434612 -0.573835 -1.47003e-05 -0.696924 0.993924 -0.845951 -0.0224481 -0.774155 -0.645929 0.496634 0.73381 -0.140687 0.255206 -0.720329 0.688564 -0.514065 0.00147595 0.581302 -0.129526 0.800879 -0.429057 1.19898 0.998348 -0.80352 0.170639 0.660586 -0.271735 -0.42366 -0.618529 0.487257 0.0502452 -0.015379 -0.639348 -1.10188 0.0830933 -0.563659 -0.729758 -0.956728 -0.468457 -0.0981758 0.612594 -0.745145 0.816587 0.303257 -0.281748 -0.242714 0.327356 0.452375 -0.018146 0.220947 0.206401 0.898314 -0.65695 -0.166596 -0.668961 0.154185 -0.279272 -0.439689 0.680942 0.633702 -0.688636 -0.621633 -0.452647 -0.205778 -0.602623 0.655873 -0.0609745 -0.420837 1.0782 0.172046 0.367204 0.706636 0.54841 0.421619 -0.691425 0.894562 -0.8795 -0.373642 0.26357 -0.251868 0.0993673 -0.576954 0.225788 0.816494 1.0635 -0.139141 -0.296601 -0.633788 0.352415 -0.585905 -0.489003 -1.07636 -0.174223 -0.0168159 -0.28663 0.210798 -0.628016 0.0154299 
-1.22318 -0.596462 -0.274455 0.51975 -1.13128 -0.855065 -0.428309 -0.0921643 -0.935273 -0.392749 0.262395 0.218414 0.555851 -0.199267 0.769355 -0.726509 -0.187189 0.809466 0.548855 0.0879464 -0.794324 -0.18876 0.324696 0.555456 -0.223106 -0.794943 0.998028 0.456511 0.710889 -0.630605 -0.0292913 0.550989 -0.309851 0.803477 0.297956 -0.353512 0.747199 0.794443 0.862769 0.88478 -0.374448 0.243045 -0.0287415 -0.87973 0.953245 0.0446818 -0.202496 -0.670015 -0.491582 0.836295 0.785035 0.817082 -0.474395 0.247423 -0.864026 0.35115 0.520135 -1.00897 -0.0008615 -0.110111 -0.6346 -0.63257 -0.495837 -0.230417 1.05826 0.683906 0.765449 0.533848 0.738509 0.403458 0.74377 0.677254 -0.512966 -0.191186 -0.916992 -0.244735 0.320824 -0.459771 0.185262 -0.225663 -0.710363 -0.463521 -1.21661 0.0721933 1.06958 -0.596394 0.0456091 0.197941 -0.578009 0.567858 -1.02581 -0.39658 -0.699949 -0.350738 0.660443 -0.609636 -0.661728 0.421949 0.733311 0.389654 
-0.268793 0.455066 0.67641 0.564181 -0.950273 0.609048 -0.872886 -0.939266 -0.895748 0.110096 -0.213082 -0.484827 0.711671 -0.0659908 0.550095 0.530888 0.452915 -0.527899 -0.16277 0.565342 -0.60279 -0.409222 -0.812476 -0.122177 0.371837 -1.01367 -0.252524 0.895166 0.506811 -0.287464 0.776855 -0.326514 -0.906773 0.359124 -0.705226 -0.521946 -0.0955801 -0.620136 -0.400305 0.154675 0.664662 0.364699 0.599099 0.261316 -0.648368 0.261588 -0.170919 0.643229 0.505741 0.595096 0.320954 -0.510681 -0.711617 0.716893 -0.241117 0.872524 0.602605 0.497306 0.698136 -0.0216626 -0.729557 0.429326 0.481227 -0.851456 -0.130351 0.580938 -0.203169 0.663936 1.18711 0.142493 -0.0659782 0.286862 -0.397082 -0.312005 -0.274772 -0.00943292 -1.11231 0.634879 -0.285721 1.09077 0.189938 0.93554 -1.00183 0.758723 0.665401 -0.0902822 0.859779 0.114123 -0.373942 0.291491 -0.953274 -0.053423 0.064745 0.765112 0.315927 1.0698 0.422007 0.928031 0.455293 0.310897 
0.189846 -0.461279 -0.0188047 0.888058 0.169973 0.639226 -0.018228 0.358691 0.323272 0.667489 0.321826 -0.416069 0.508808 0.537976 -0.727478 0.0797487 -0.322985 0.985075 -0.795359 0.0950324 0.371559 -0.927311 -1.00806 -0.452232 -1.00642 0.311701 -0.824594 0.542707 0.174946 0.851812 -0.00676829 -0.20721 -0.561548 0.789841 -0.369099 0.684856 0.498476 0.698868 0.0194939 -0.147701 0.322173 -0.535542 0.498486 -0.199521 -0.958291 0.835369 0.772286 -0.292936 0.627642 -0.917217 0.946036 0.248774 -0.762115 1.05783 0.565251 -0.635088 0.259972 0.781815 0.783438 -0.411843 0.608799 -0.302178 0.164013 -0.99546 -0.320386 0.744466 0.721464 -0.830026 0.525324 -0.320886 -0.0105489 -0.432 0.143801 -0.319576 0.472181 0.167272 -0.471694 0.444392 0.875863 -0.625508 0.488341 0.771176 0.458403 0.811927 0.838854 0.157798 -0.690837 0.0981582 0.0467857 -1.04796 0.652061 -0.0346807 -0.174207 -0.0433857 -0.050441 0.528665 -0.270748 -0.48033 0.401258 -0.828077 
0.272737 -0.344192 -0.0898668 -0.55702 0.332009 -0.535418 0.653363 0.908327 0.905475 0.495758 -0.700231 0.381813 0.229532 0.906395 0.177605 -0.0327307 0.143963 0.359135 -0.966952 -0.80251 0.368623 0.67531 -0.0581418 -0.81668 -0.396401 0.763294 0.555549 0.360394 -0.724367 0.11664 0.56204 0.587182 0.771088 -0.534523 -0.988113 0.10789 -0.0718267 0.675869 0.0303781 -0.151021 0.152408 0.350933 -0.769291 -0.615535 0.247852 0.429243 0.363378 -0.611864 -0.236654 0.382454 -0.410281 -0.846144 0.0684972 0.551068 -0.699193 0.678405 0.299737 0.861257 0.0336549 0.589577 -0.0378752 -0.406385 0.153844 -0.243855 0.0768829 0.141428 0.871075 -0.999408 -0.167544 -0.110231 -0.160773 0.948625 -0.774802 0.0899947 -0.627811 0.475915 -0.482704 0.729187 0.862641 0.293349 0.120873 -0.562398 0.429094 -0.810874 0.992187 0.740412 0.88285 0.287094 0.602225 -0.0760306 -0.125969 -0.411018 0.516903 -0.968716 0.329617 -0.40491 0.176141 0.174809 -0.418895 -0.996311 
-0.936646 0.449769 0.979604 -0.703837 -0.4567 -0.645661 0.760477 0.0591079 -0.912065 0.610191 -0.637741 0.203059 -0.951162 0.801954 0.405721 -0.974406 0.553927 0.277576 0.311914 0.160147 -0.804998 -0.824122 0.736888 0.7166 -0.807593 0.0564796 -0.690378 0.367667 -0.767169 -0.097584 0.376271 -0.705163 -0.649894 0.356213 -0.415478 -0.105672 0.710688 -0.6541 0.955895 0.798368 0.950171 -0.678634 0.00346355 -0.999494 -0.871722 -0.602903 -0.970535 0.678481 0.670863 0.338498 -0.160064 0.864396 0.514213 -0.421032 0.585294 0.70514 0.63556 0.886475 0.0746937 0.867238 -0.208638 -0.554226 -0.836259 0.140086 0.802626 -0.251828 -0.959751 0.51127 0.0859441 0.998291 0.319376 0.0359768 -0.680299 -0.68596 0.0366173 -0.552144 -0.290917 0.0655009 -0.872371 -0.619128 -0.594664 -0.0321504 -0.752093 0.919013 0.549591 0.83365 0.624381 0.185243 0.720643 -0.298313 0.0506694 -0.490503 0.143626 0.223802 0.653982 -0.0503148 0.962353 0.679639 -0.537135 0.0490628 
0.689527 0.775379 -0.915561 -0.991265 -0.91058 0.121056 -0.544297 -0.199003 -0.812863 -0.415642 0.183398 -0.408257 0.554845 0.431305 -0.489243 0.104435 0.260943 -0.864738 -0.710385 -0.0205504 -0.165544 0.342603 0.489315 0.980803 -0.441029 0.142502 -0.0697195 -0.478701 -0.165738 0.393455 0.569586 -0.476211 0.168834 0.654025 -0.467476 0.258254 -0.224919 -0.0117727 -0.940749 -0.0377828 0.572586 0.242649 0.55396 0.127431 -0.326047 -0.935283 -0.768134 0.934897 -0.800021 -0.478519 -0.0856536 0.0344353 0.864084 -0.596339 0.0152384 -0.576945 0.546163 0.945519 -0.0556458 -0.619575 0.338974 -0.486059 -0.095786 -0.492191 -0.832034 0.436738 0.766063 -0.0569537 -0.575035 0.825314 0.905264 0.997551 0.0679625 0.459223 0.124982 0.741916 0.52394 0.356849 0.676813 0.723919 0.87833 -0.408841 -0.241646 0.742414 -0.00517988 0.773593 -0.83453 -0.459017 0.719112 0.109824 -0.0785922 0.0580858 0.623764 0.825622 0.565894 0.79173 0.26236 0.331957 -0.265224 0.687325 
0.155864 -0.362445 0.687283 -0.769471 -0.906436 -0.194996 0.969358 0.622219 -0.83379 0.638155 0.351005 -0.95586 -0.766224 -0.892053 0.789959 0.220924 0.87344 0.949914 0.780025 0.589555 0.0680165 -0.308127 -0.345873 -0.310721 -0.484635 -0.783093 -0.521149 0.779625 0.549092 0.209178 0.466334 -0.287158 0.853032 0.157487 -0.0646769 0.954811 0.962507 -0.10003 0.576359 -0.869924 -0.447213 -0.0792482 -0.82591 -0.210786 0.0305147 0.960748 -0.98408 -0.0926245 0.912629 0.791391 -0.493008 -0.0243502 -0.524704 0.161696 0.661461 -0.00879535 0.380221 -0.846136 -0.226474 -0.0607194 0.356253 -0.757064 0.64837 0.206188 0.401071 -0.414152 0.161437 0.359855 0.492413 -0.268075 0.48235 -0.965903 0.65088 0.665678 -0.175224 -0.316594 0.618868 -0.16678 0.595554 0.535212 -0.383069 -0.904895 -0.496983 0.0880905 0.265477 -0.827552 -0.908116 -0.355345 -0.681935 -0.134896 0.58216 0.673405 0.103378 0.233581 -0.120513 -0.500818 0.815847 -0.958832 0.853065 0.312158 
-0.27395 0.28763 0.36816 -0.523708 -0.0872086 -0.897282 0.154871 -0.37722 -0.0587949 -0.332108 -0.854959 0.60436 -0.174701 -0.30037 -0.305529 -0.915344 -0.186277 -0.192356 -0.169023 0.0808235 0.587605 -0.78363 -0.156232 -0.178762 0.520637 0.669247 0.237467 0.377501 0.779785 0.100033 -0.382032 -0.480272 -0.501059 -0.93607 -0.0089754 0.483524 -0.845244 -0.928395 -0.897555 0.192666 -0.117513 -0.689145 -0.274059 0.696089 -0.0368384 0.506725 0.724397 0.748328 -0.754295 -0.46854 -0.0860497 0.92654 -0.302735 0.745328 -0.338742 -0.699056 0.479409 1.0529 0.593302 0.317579 0.0974776 -0.703109 0.790951 0.516019 -0.641318 -0.216201 0.0278846 -0.464205 -0.103518 0.0954047 0.6328 0.588624 0.198825 -0.46086 0.434938 -0.934417 0.908994 0.0944316 1.01458 -0.814551 0.518003 -0.170695 -0.962228 -0.777627 -0.305037 -0.190621 -0.452215 -0.883025 -0.201837 -0.854615 0.332924 0.854645 -0.572884 0.196472 0.412084 -0.195376 0.923868 -0.573256 0.201733 -0.117197 
0.263565 -0.203719 -0.396754 -0.0920316 0.24412 0.742767 0.224412 0.269826 -0.122768 -0.150602 0.372027 -0.599298 0.901045 0.664299 -0.362451 -0.607143 -0.417185 0.238462 -0.311861 0.212957 0.212262 0.572241 0.234555 1.05115 -0.04337 -0.451319 -0.408098 -0.162391 0.181526 0.651503 0.658072 -0.751988 -0.169895 -0.597583 0.353382 -0.935388 -0.848842 -0.878092 0.407314 0.147857 0.196037 0.00674741 0.36532 -0.126297 -0.464456 -0.831028 0.17255 -0.175315 0.218166 0.760723 -0.896337 -0.219082 0.180393 0.286178 -0.550855 -0.523493 -0.969994 0.269394 0.144507 0.132349 0.0999179 0.042996 0.510337 0.827116 0.478377 -0.246206 0.952213 0.667677 -0.0467039 0.315248 -0.393524 0.744334 0.743293 -0.557731 -0.208589 -0.948287 -0.732539 0.876952 0.230588 0.73029 0.436443 0.135644 -0.769713 -0.24561 -0.165915 0.0912511 0.221448 -0.381277 -0.552109 -0.691177 0.567869 0.327207 0.42192 0.373271 0.267122 0.0168128 -0.981776 0.257441 -0.686778 0.171268 
-1.2876 -0.247365 0.07844 -0.972975 0.0869411 0.522682 -0.340526 0.416347 0.500703 0.311596 0.0686041 -0.0997479 -0.15581 0.835028 0.394382 0.132368 0.165449 -0.131965 0.969563 0.238042 0.0638306 -0.0297572 0.0133102 0.0752742 -0.456241 -0.990322 0.586016 -0.388568 0.29696 0.645967 0.514349 0.108398 0.0268079 -0.356768 0.610786 0.919475 -0.870793 0.638385 0.317951 0.636153 0.175147 -0.393906 -0.844112 0.679908 -0.743502 0.850653 -0.308621 -0.0911944 -0.617208 -0.507099 -0.91837 0.999841 0.432516 0.0973709 -0.709562 -0.348183 0.365513 -0.692734 -0.117895 -0.609273 -0.791563 -0.139864 0.93283 0.0682317 0.618272 0.353971 0.0926133 0.726662 0.303992 -0.577047 0.0890162 -0.917954 -0.443903 0.89456 0.679062 -0.45891 0.36581 -0.272861 0.742484 -0.870999 -0.135122 0.639547 -1.24459 -0.518359 0.254995 -0.330681 0.0701759 -0.788809 0.174899 -0.937954 -0.449107 0.0481656 0.0354357 -0.107827 -0.619425 -0.368869 -0.843049 0.54948 0.932892 0.613225 
0.0928702 -0.19524 0.732628 0.605344 -0.713998 0.110124 -0.210065 0.931252 0.647458 0.889971 -0.803075 -0.527158 0.934944 -0.556248 -0.407948 -0.47339 0.581628 -0.660835 0.110319 -0.561602 -0.933875 0.119202 1.00704 0.9402 -0.695729 -1.05087 0.980627 -0.336803 0.520702 0.491414 0.729368 -0.212199 0.0278692 0.420546 -0.0557174 0.319665 -0.645513 0.302135 0.276943 -0.705307 0.528869 0.769876 -0.899788 0.283807 0.939767 0.106702 0.699114 -0.182364 -0.267466 -0.407024 -0.0702463 0.764311 -1.30721 0.155946 -0.280311 -0.0970962 0.38954 0.299401 -0.154249 -0.335084 -0.204819 0.256684 1.0893 0.561834 -0.11349 -0.234776 0.457806 0.275898 -0.716467 -0.480618 -0.0606633 0.555186 0.753137 0.762092 -0.56325 0.421207 -0.624115 -0.0510515 -0.533346 0.65812 0.126018 0.357057 0.0325888 -0.0649016 0.187284 -0.536669 0.838554 -0.995277 0.585287 -0.19536 -0.319572 -0.858329 -0.904361 0.222942 -0.852183 -0.298901 0.799071 0.503149 0.588716 -0.659049 
0.299018 -0.476838 1.05838 -0.532182 0.263362 -0.902183 -0.449472 -0.650409 -0.286526 -0.922087 -0.469381 0.710338 0.754159 0.938261 -0.758313 -0.843508 0.0384616 -0.028202 -0.250893 -0.594481 0.279539 -0.210243 -0.0056005 1.30309 -0.61692 0.00796746 -0.362348 -0.555648 -0.711069 -1.34303 -0.670569 0.526027 -0.224113 -0.734669 -0.544463 -0.518359 -1.03217 -0.403194 0.0207647 0.106908 0.0778485 0.67674 -0.663004 -0.171376 0.564435 0.044369 0.0555294 0.789234 0.0990994 0.563457 -1.01291 0.541348 -0.637521 0.263197 -0.145476 0.752188 -0.419877 0.908329 0.698238 -0.487314 0.624857 -0.17377 0.0125881 -0.935484 -0.0397074 0.161058 0.473182 0.238018 0.481538 0.995892 0.743409 -0.452254 0.555035 -0.374763 0.179297 -0.215502 0.25707 0.0541483 -0.483816 -0.305044 1.01445 -0.487459 -0.804968 -0.466214 -0.495448 0.626215 -0.777165 -0.37487 0.419535 -1.218 0.0151853 0.0497347 -0.657308 -0.382641 0.560291 -0.119073 0.455722 0.0132849 0.816905 0.604559 
-0.298564 0.575053 1.21898 0.327406 0.196469 0.0771854 -0.0881165 0.145269 0.557592 -0.792781 -0.131116 0.42117 0.108353 0.193662 -1.52078 0.0256579 0.549057 -0.354017 -0.627977 -0.29532 -0.722268 -0.0209795 -1.08452 0.205355 0.943073 0.906989 1.24502 0.316081 -0.533865 0.476187 -0.327251 -0.225453 0.511184 0.0503881 -0.347839 0.112798 0.459397 -0.366697 -0.640728 0.22129 0.476802 0.0848894 -0.58671 -0.208742 -0.659469 -0.436006 1.2351 0.0892088 -0.736583 -0.770405 -1.03533 0.756065 0.0100943 -0.790864 -0.772949 1.01137 -0.811356 -0.638212 0.110159 -0.69283 -0.993522 1.82644 1.2143 0.163929 0.151659 -0.545114 0.40671 -0.0890545 -0.411935 -0.141212 0.692551 -0.719386 1.29915 -0.255028 0.102033 -0.662654 -0.13346 0.909367 0.269994 -1.5467 0.639777 0.250778 0.394088 -0.312378 1.08528 -0.804515 -0.581042 -0.796065 -0.255046 -0.0297138 -0.667163 -0.182954 0.378942 0.217729 -0.503155 -1.26125 0.600481 0.522801 -0.548927 0.126579 
-0.348683 -0.521566 0.638576 -1.20122 -0.609972 -0.400783 0.412336 -1.19031 0.850341 0.501349 -0.496786 0.140537 0.270186 0.937056 0.280673 0.25848 -0.426785 -0.471434 1.15761 -0.0269845 -1.0355 -0.663279 -0.935582 0.621275 0.947023 0.256701 0.91998 0.169915 -0.831326 -0.977154 -0.943113 -0.560977 -0.294202 0.643384 0.0344757 0.41902 -1.44854 0.273023 0.441371 0.48402 0.415833 0.466858 -0.673166 0.254438 0.541832 -0.704109 -0.235194 0.485306 -0.880099 -0.253668 -0.155637 0.227112 -0.338127 0.0199958 -0.471671 0.605262 -0.712727 -1.28333 -0.302913 -0.700199 -1.1021 0.768354 0.531791 -0.513724 -0.248079 -1.03002 1.92955 -0.498346 -0.013346 -0.00640717 0.763868 -0.285483 0.182721 -0.228658 -0.748754 -0.538818 -0.323429 0.517455 0.746221 -0.0801353 0.768295 -0.707652 -0.484083 -0.394386 0.932359 0.15575 -1.00693 -0.920503 0.29633 -1.00225 -1.06863 0.256866 0.175294 -0.791913 -0.713052 0.269172 -0.452069 -0.750853 0.899212 -0.589991 
0.940029 1.05327 0.539295 -1.17743 -0.965407 0.900768 0.625407 -0.0288689 -0.606713 -0.828579 0.404224 1.10431 -0.188239 0.686014 -1.0388 0.0736279 0.110509 -0.0308561 0.670696 -0.45153 0.333461 -1.21419 -1.18701 -0.0453047 -0.704447 -0.319086 -0.0248995 -0.513772 -0.459756 -0.490378 -0.692796 -0.610744 -0.573902 0.891164 0.0744043 -0.222249 -0.135457 0.843798 1.07804 0.5815 -0.56935 -0.0147716 -0.114603 1.05739 -0.267854 1.00627 0.178441 0.32567 -0.859908 -0.257719 0.798249 -0.2616 -1.08808 0.646642 0.705079 0.151247 -0.412448 -1.48428 0.451127 -0.193057 -0.684572 1.82719 0.935913 -0.131522 1.1272 -0.731978 1.46457 0.0338877 -1.24825 0.0886136 -0.373299 -0.602708 -0.307672 1.08918 -0.33999 0.162188 0.566693 0.881591 -0.956405 -1.22908 -0.643416 -1.29802 -0.118668 -0.405913 -0.693769 -0.707213 0.586951 -0.595121 -0.618742 -0.56073 -0.394194 -0.189903 -0.513158 0.144579 -0.650933 -0.537015 1.1932 -1.37584 0.583155 -0.611064 
0.691772 -0.442511 0.28043 -0.073915 -1.17529 1.37567 -0.159948 0.70582 0.38726 -0.232406 -0.10816 1.25176 -0.582693 0.567242 -1.17264 0.163485 -1.018 -0.54871 0.861079 0.294308 0.121451 -0.0653215 -0.884997 -0.861951 -0.63115 0.0344708 0.393901 -0.740016 -0.7504 -0.117456 -1.14611 1.1686 -0.115272 0.620869 0.945304 0.301177 -0.229558 -0.224361 0.395975 -0.187338 0.42553 1.03069 -1.01568 -0.53073 0.581571 0.224446 0.770452 0.58898 0.136175 0.719709 -0.763202 0.417606 -0.913982 -0.814081 0.98849 0.304925 -0.00875247 -1.26538 0.310799 0.173841 -0.0985633 0.836143 0.686956 -0.575703 0.322959 -0.026224 0.974766 -0.783108 0.282078 -0.647829 0.660896 -0.251402 -0.187675 0.148237 0.441173 1.30392 -0.689822 0.221452 -0.0799785 -1.80314 -0.624959 0.383499 0.150213 -0.0839554 -0.859413 -0.905849 -0.956157 0.0429795 -0.284072 0.0320125 -1.27107 -1.25622 -0.546758 0.640032 -0.225242 0.726239 0.549012 -1.4073 -1.06933 -0.584492 
0.0525684 0.188735 0.976545 -0.622683 -1.19028 1.01279 -0.349986 -0.180525 -0.498336 -0.402296 0.221182 0.712958 -1.49005 -1.07575 -1.72924 -0.672227 -0.747964 -0.474983 0.671729 1.06659 0.510058 0.655686 0.805678 -0.477972 0.936906 0.0991277 -0.120425 0.122894 -0.72319 -0.082161 0.247753 0.693369 0.84014 1.03803 0.0448999 -0.517163 -0.384503 1.19169 0.59991 1.04711 -0.457984 -0.345615 -0.556656 -0.594948 -0.57434 0.559105 0.0735859 0.219756 0.540166 -0.0543962 -0.285206 1.19523 -0.82622 -0.816042 0.114837 -0.119921 -0.306201 -0.942982 0.375509 0.301617 0.161671 0.0308481 -0.0376427 0.423037 0.404316 0.547507 0.875878 -0.993308 0.116069 -0.236238 2.20403 -1.18417 0.549534 -0.593217 -0.322873 1.20389 -1.03565 0.450644 -0.715668 -1.80279 -1.13353 0.25855 0.791156 -0.404517 0.61346 0.67125 0.117287 -0.488496 -0.43989 -0.449751 0.387601 -1.2696 0.438817 -0.790425 0.957921 -0.427641 -0.409012 -0.309717 -0.306464 0.049574 
-0.290241 -0.296203 0.57271 -0.17708 0.109005 -0.0937287 -0.473536 0.845428 -0.962461 -0.392996 -0.832695 0.00785236 0.0430907 0.405993 -0.982339 0.581639 -0.0112888 -0.719159 1.07521 -0.451859 -0.123539 0.734213 -0.432553 -0.485513 -0.573368 0.0131917 0.493493 -0.163914 0.317008 -0.0414726 -1.13422 1.01345 0.670431 -0.340404 0.679707 0.488265 -0.537992 0.0836998 0.115667 0.683593 0.139529 0.659876 0.00955302 -0.775206 -0.469198 0.196611 -0.866408 -0.629986 0.0842663 -0.402138 -0.206741 -0.268101 1.02018 -0.31815 0.834706 0.0334341 0.0103011 -1.24748 0.0199215 -0.64382 -0.467862 0.19842 -0.457648 -0.686978 -0.679834 1.108 0.47471 -0.386446 -0.735995 -0.514974 2.67907 -1.25819 0.944989 -0.089037 -0.236376 -0.0736465 -0.94836 -0.433008 -0.811481 -0.180239 -0.29724 0.134841 1.00296 0.0771463 -1.32652 -0.544907 0.419015 0.147127 -0.0507498 -0.223083 0.233115 -1.56644 -0.953261 -1.4684 -0.181788 -0.985215 1.32919 0.267734 -0.235095 -1.08698 
0.162695 -0.224582 -0.788036 -1.41445 -0.825965 0.761104 -1.04622 0.0247391 -0.538996 0.959991 0.0348322 1.40553 -0.625578 -0.582651 -1.13118 -0.084368 -0.545353 -0.774416 0.611841 -0.608231 0.172406 0.6535 -0.311658 0.0207809 0.285968 0.534626 0.161622 0.286318 -0.192661 0.239061 -1.60918 0.370426 -0.659392 0.152581 0.633148 0.296445 -0.40047 -0.404848 -1.43588 1.04343 0.715505 0.596551 -0.341285 -1.38569 0.0598836 -0.331557 0.106151 -0.354897 -0.291547 0.423384 0.304824 1.27152 -0.368393 0.0235527 0.922149 1.32616 -0.708559 -0.883108 -0.0804934 -0.634623 0.0978077 -0.411967 -0.434134 0.642795 -0.989349 1.39329 -0.81251 -0.585887 -1.41175 -0.776175 0.834289 -1.04082 0.418739 -0.427062 -0.458732 0.15705 -0.00150706 0.238946 -0.235858 0.0404971 -0.740843 -0.916699 0.935178 0.0920064 -0.0113723 -0.682279 -0.74467 0.750778 0.148405 0.493622 -0.753574 -1.10614 -0.793264 -0.521838 -0.336399 -0.907315 0.117209 -1.10526 -0.463702 -0.688556 
0.670443 -0.480939 -0.136484 -1.4021 -1.30407 -0.441555 -1.1778 0.448398 -0.605841 1.55467 0.709306 0.811576 -0.760405 -0.146489 -1.57293 0.895709 -0.42743 -0.628434 0.0545485 -0.417286 0.959833 1.55256 0.565716 -1.13166 -0.158988 0.950871 -1.27625 0.538651 1.10505 0.569172 -0.760162 -0.273953 -0.443832 -0.547246 -0.0395675 0.0410314 0.0940019 0.967429 -1.68969 1.10507 0.535235 1.21784 -0.730801 -0.0456983 -0.828219 0.398216 0.452914 -1.22764 0.573434 0.492436 -0.0614402 0.670774 0.587385 0.533816 0.922983 1.65409 0.527374 0.158327 0.922403 -0.500021 -0.587491 -0.768061 -0.365406 0.158381 -0.217702 0.903107 0.493282 -1.21023 -0.95307 0.620935 2.26891 -0.692822 0.519994 -1.3478 -1.08073 1.3609 -0.521592 -1.88196 0.587897 -1.74589 -0.403755 -0.832573 0.562754 1.20999 -1.10877 -0.835746 0.583499 0.917315 0.836909 0.365729 -0.0986102 -1.15564 0.701571 0.116999 1.20178 -0.422945 -0.255023 -0.253894 -0.65673 -0.405132 
0.602569 -1.31697 -1.54638 -0.982507 -1.31998 -0.0242862 -1.70714 -0.127237 -0.105973 -0.221998 0.199421 1.5651 -0.123723 -0.88204 0.449383 0.510372 -1.50368 0.400425 -0.438117 -0.915197 -0.265188 0.147965 0.253988 -0.845764 0.67796 -0.209988 -0.652651 -0.601344 0.803189 0.624799 0.326258 -0.779151 1.19873 -1.00266 -0.233069 -0.50641 -0.264701 0.140559 -1.07621 1.37111 -0.00792828 -0.408731 0.64 -0.110086 -0.976473 0.961955 0.121549 -0.624304 0.121148 -0.301563 0.427557 0.939438 0.410605 -1.32714 1.23898 0.155561 -0.334842 -0.595764 0.467522 -0.114628 -1.1384 -0.427927 -0.167954 0.690887 -0.61334 0.868784 1.013 0.518869 -1.65171 -0.0904098 2.16271 0.0407836 0.295464 -0.246426 -0.814755 0.707792 -0.657277 -0.256873 -0.830797 -0.282229 -1.29266 0.0480372 0.279516 -0.0918412 0.108737 -0.424225 0.309273 -0.83773 0.11894 1.09139 -1.20433 -0.408154 -0.322371 -0.58805 0.66905 0.505955 0.78906 -0.353786 -0.225427 0.0968259 
1.77889 -0.82108 -0.610987 0.160395 0.363906 1.06055 -1.09697 -0.722502 0.81196 0.804091 1.05143 1.58612 -0.225487 -0.115737 -0.321865 -0.0640034 -0.270424 0.585714 -1.1746 -0.690775 0.532584 0.82755 -0.85535 -0.828692 0.338126 0.392504 0.156026 0.0499273 -0.560938 -0.284375 -0.889898 -1.27106 1.34084 0.412873 0.438834 0.911191 0.143377 -0.919268 -2.28746 0.390681 0.0781341 -0.878127 -0.166778 -1.45233 -0.520214 0.706718 0.114821 -0.968784 -0.0390336 1.03524 0.676845 -0.663629 -0.0100351 0.350709 -0.245082 1.29917 -0.0375283 0.905684 0.448548 -1.08075 -0.270375 0.40675 0.440247 -1.10352 -0.619991 0.110167 1.223 -0.895245 -1.02026 0.822329 1.11248 -0.663824 0.945731 0.184692 -1.09444 -0.0600779 -0.511282 -1.22524 0.096561 -0.24547 -0.77277 -0.752914 0.847143 -0.0771722 -0.997113 -0.93995 0.124726 0.415088 0.652934 0.430793 -0.705898 -0.906665 -0.463189 0.836252 0.488302 0.788805 -0.431298 -0.331347 -0.0585399 -0.0951309 
0.376754 -0.743652 -0.0149375 0.11597 -1.39982 0.550534 0.202165 -0.497078 -0.585005 0.618825 -0.523821 0.709729 -0.971142 1.01741 1.6 0.0884102 0.419815 -0.290331 -1.50822 0.385342 1.01422 0.896931 -0.651769 -0.156199 -0.475839 0.368548 -1.22435 -0.425913 -0.38719 0.530884 -0.0139998 -0.235604 0.252574 -0.37281 -0.679323 0.0937256 0.781305 0.668818 -1.02052 -0.48746 -0.303939 0.439721 0.27232 -0.016275 -0.0258768 0.435538 -0.0744788 -0.0875924 0.83738 0.115826 0.743617 0.363432 0.760125 -1.05896 -0.835587 1.0876 0.828915 -0.57548 0.00163879 -1.71447 -0.665746 -0.684994 0.14008 -1.04326 -0.768418 0.800898 0.698112 -0.149989 -0.17634 -0.639078 0.0817887 0.21363 -1.06198 0.357137 -0.85133 0.79115 -0.834257 -1.75746 -0.397201 -1.45797 -0.0851186 -1.16525 0.885291 -0.549617 -0.730483 0.932297 0.128412 -0.53036 -1.08252 -0.00582747 -0.408916 -0.623648 -0.100677 -0.330369 0.00998368 1.12134 0.85212 -0.901715 -1.49456 0.505049 
0.0410123 -0.184376 0.856747 0.169186 -1.47812 0.719788 -0.828096 -0.625776 -0.899637 0.554058 0.279052 1.31292 -0.658171 -0.202406 0.326573 0.438595 -0.784587 0.237723 0.0444066 -0.573358 -0.531445 0.428583 -0.319381 1.01233 -0.196431 -1.03026 -0.524279 -1.28133 -0.577149 -0.281721 -0.606839 -0.641646 1.52677 -0.428101 0.960898 -0.358343 -0.548537 -1.14823 -1.55979 -0.177678 0.300185 0.341276 -0.50062 -1.1074 -1.32022 0.308899 1.49803 -0.937769 1.11748 0.839833 0.784268 -1.10364 1.09669 -0.360607 0.173142 -1.07305 0.508606 -0.162512 -0.514374 0.051194 1.31265 0.688351 -1.02087 0.210069 0.555368 -0.829938 1.34817 0.019792 -1.19701 -0.875887 0.0719718 -0.128464 -1.09342 0.252678 -0.374198 -0.50364 -1.57727 -2.00808 -0.541525 0.475943 0.625714 -1.3204 -0.586425 0.120624 0.49622 0.478892 1.30027 -0.514677 -0.811969 -1.0578 -1.13482 -0.296688 0.502989 0.135136 0.739913 1.11173 -0.277961 1.11042 0.37641 0.725754 
-0.490407 0.237363 0.272514 -0.529133 0.221119 0.114264 -0.0318625 -1.22645 0.307091 0.326951 -0.708754 0.719756 -0.453019 -0.671918 0.599118 0.724163 1.04718 -0.210591 -1.21383 -0.887549 -0.148933 0.147678 -1.38551 0.608134 -0.11179 -0.686801 -1.27401 -0.0640072 -0.782527 0.357456 -0.961009 -1.3841 0.221677 -0.0318804 0.242774 0.298424 -0.379995 0.0621249 -1.11733 -1.10107 -0.642956 -0.682025 0.203795 0.00513304 -0.370664 -0.205326 1.07328 -0.805617 0.200461 0.719002 0.486636 0.521242 1.16081 0.546251 -1.22527 -1.50767 -0.0912781 -0.09712 -1.2849 -0.302841 -0.106739 -0.772063 -0.17094 0.0100291 0.0220033 0.849156 1.10534 1.80982 -0.220498 -0.726701 0.728444 0.0024744 0.282947 0.429988 0.89091 -0.507443 -0.266796 -1.32073 -0.326552 -0.994262 -0.307484 -1.34691 -0.752732 -1.42592 -0.292909 -0.600275 0.136607 -0.734887 0.222989 -0.906477 -0.288514 1.54548 -0.0258317 -0.313519 -0.34334 -0.0763704 -0.718189 0.503687 -1.45471 1.48948 
0.44029 -0.312151 0.893531 -0.0794389 -0.456677 -0.608204 0.813478 -0.470557 0.461779 -1.09731 0.0338303 -0.867694 0.168623 0.295746 -0.266289 -0.444542 1.25996 0.0814041 -0.0923362 -0.0685698 0.0827587 -0.262821 -1.27569 0.705426 -0.360406 0.412415 -0.0601034 -0.835048 -0.375397 -0.475077 -0.865932 -0.018729 0.462587 0.706911 0.266487 -0.220204 -0.0278306 0.39637 -0.150716 -0.577099 0.211755 -0.902341 -0.495631 -0.854183 0.632162 0.53748 0.550114 0.104857 0.969481 -0.834289 -0.149232 0.160272 -0.44482 0.413824 0.21758 -1.36394 0.734513 -0.0444629 -0.0176276 1.42704 0.86861 0.641801 0.443958 -0.455933 0.354197 -0.47088 -0.494829 0.889472 0.473721 0.660238 0.267534 1.30206 -0.674845 -0.401731 1.21791 -0.812682 0.0491046 -0.755294 0.293605 0.475372 0.732418 -0.854949 0.0354991 -0.151885 -0.0153121 0.148551 -0.524214 0.187831 0.950935 0.141836 -0.0992786 1.32987 1.04257 0.181458 0.472878 1.04979 0.131216 0.203438 -1.28414 1.14326 
