Network weights:
4
784 100
-0.337374 -0.989611 0.546036 0.565244 0.148949 0.465733 -0.954655 0.157399 0.312936 -0.974174 -0.781886 -0.709496 0.117074 0.949946 -0.193386 0.45011 0.568178 0.912017 -0.00404815 0.206252 -0.0896091 0.242747 -0.46725 -0.333347 0.791344 -0.48577 -0.142338 -0.67906 0.852475 -0.502031 -0.198405 -0.484899 -0.491642 -0.652369 -0.919655 0.657307 0.813364 -0.87431 -0.185294 0.1263 -0.848484 0.0328207 0.416804 0.268591 -0.0172332 -0.776582 -0.281299 -0.449055 -0.864565 0.714653 0.757197 0.045826 -0.0426009 -0.710053 0.712479 -0.251257 -0.195824 -0.429859 0.0696833 -0.343349 0.0681104 0.871279 0.171752 0.576469 -0.781091 0.252097 0.233776 -0.967727 0.377787 -0.951518 0.158573 0.529303 0.0813031 -0.424622 -0.202106 -0.93593 -0.201204 0.516595 -0.384985 -0.0657693 0.231247 -0.627788 0.980057 -0.811354 -0.337841 0.692536 -0.0626105 0.466335 -0.737323 -0.992927 -0.877014 0.330787 0.878351 0.294739 -0.092744 -0.902739 -0.453164 -0.858968 -0.870466 0.924623 
-0.810486 0.288107 0.453926 0.270817 0.863485 -0.74818 0.334887 -0.33772 0.768415 0.949902 0.596511 -0.000338003 -0.677886 0.576568 0.188308 -0.0157269 0.269104 -0.874302 -0.549392 0.531781 -0.867229 -0.426405 -0.137432 -0.988878 0.868333 0.769824 -0.891617 -0.584831 0.910856 -0.762084 -0.660208 -0.89963 0.526024 0.793718 0.371188 0.389508 -0.954462 -0.293925 -0.948211 0.813953 -0.344022 0.6483 -0.186385 -0.0219081 0.224868 -0.998077 0.962365 -0.506029 -0.872379 -0.587027 -0.974248 -0.739609 -0.0134323 -0.11168 -0.728487 -0.145099 -0.341856 -0.620104 0.27007 -0.431 -0.382188 0.609862 -0.330629 -0.856164 0.40358 -0.959442 0.533344 0.449118 -0.253366 0.585133 0.26307 0.402611 0.233433 -0.923315 -0.619297 -0.5417 -0.921392 -0.656932 -0.0477283 -0.793771 -0.243959 -0.0219761 -0.53338 0.742609 0.866344 -0.261867 -0.40249 -0.475512 0.118029 0.86758 0.0934883 0.735841 0.477442 0.762859 0.879677 -0.118979 0.803417 0.413021 -0.669861 -0.449949 
-0.00184657 0.593209 0.952662 -0.768414 0.669894 -0.666635 -0.310114 0.748502 -0.323567 0.642158 0.954731 0.432474 -0.379818 -0.578649 0.175083 -0.513474 0.159484 0.772592 0.0110139 -0.722487 0.640172 -0.895498 -0.986646 0.117614 0.867361 0.89303 0.998635 0.670778 0.306051 -0.671226 -0.779171 -0.695795 0.921984 -0.826509 -0.464209 0.591878 -0.493144 0.225677 0.34038 0.183288 -0.132165 0.295111 -0.384238 0.488016 0.716461 0.790845 0.974542 -0.124055 0.563437 -0.0144441 0.153458 0.203609 0.0900582 0.166812 -0.678777 -0.0425808 0.0598422 -0.680141 -0.371803 -0.634107 -0.351367 -0.150974 -0.329902 -0.429383 0.0225171 0.205889 -0.837506 0.529373 -0.568435 0.502874 -0.287339 0.2994 -0.202015 0.328423 -0.212584 -0.485554 0.119268 -0.238042 0.390392 -0.317295 0.747514 -0.45615 0.886314 -0.162428 0.710661 -0.792463 0.794991 -0.229496 -0.472604 -0.576811 0.136397 0.176029 0.272215 0.806495 0.746646 -0.705268 0.0123838 0.90914 0.824105 0.443949 
0.412014 -0.463234 -0.256646 -0.790001 0.865184 0.530775 -0.275552 -0.0155443 -0.707277 -0.885207 0.667162 -0.959762 -0.341313 0.553476 -0.12219 -0.630647 0.761013 -0.327221 0.139861 -0.711591 0.0959771 -0.723752 0.464438 -0.631791 -0.917266 0.211075 -0.337062 0.0951273 0.120211 -0.512957 -0.460928 -0.467762 0.0238087 0.282426 -0.257763 -0.111005 -0.186812 0.466683 0.873469 0.105894 0.58152 0.540617 0.146152 -0.759794 0.094093 -0.976047 -0.390445 -0.144894 -0.303237 0.749406 0.143515 0.792754 -0.974351 -0.392057 -0.839041 -0.891602 0.819036 -0.176104 0.203525 -0.0607598 0.310947 0.742602 0.471525 -0.665251 0.025027 -0.786271 0.223746 0.838217 0.68042 0.0972005 -0.0558689 0.261938 -0.362183 -0.909716 0.502144 0.731921 -0.885755 -0.888301 -0.412984 -0.188993 0.861103 0.730531 -0.39624 0.886758 -0.661515 -0.23528 0.995156 -0.842478 0.588617 0.198672 0.0967827 -0.100445 -0.0587237 -0.431712 0.234303 0.966291 -0.217982 -0.541951 0.804527 -0.537564 
0.555104 -0.251258 0.72534 -0.806638 -0.16151 0.226838 0.925747 -0.0477097 0.33822 -0.491966 0.765022 0.199267 -0.757037 -0.632175 0.0891866 -0.419236 0.135026 0.0790637 -0.263564 -0.277882 -0.719131 0.836552 0.620774 0.220266 -0.594785 -0.145699 0.187583 0.185523 0.312485 -0.00928222 0.64797 -0.131192 0.743613 0.372772 0.0619231 -0.420663 -0.400806 -0.0135039 0.530193 0.935332 0.498348 0.29703 0.13706 0.746018 0.663807 -0.779488 -0.676833 -0.203815 0.303818 0.0606171 0.518673 0.583016 -0.105033 0.136788 -0.191913 0.299342 0.996713 0.992597 -0.514804 0.305693 -0.0123678 -0.867137 -0.815993 -0.275115 0.505501 0.238537 0.304739 -0.896097 -0.775649 -0.165663 -0.959732 0.723218 -0.864198 0.17849 0.46401 0.80149 0.400672 0.788111 -0.403228 -0.295405 -0.153682 -0.883867 -0.712694 0.742589 0.255507 0.0929434 0.0411413 0.251005 0.0872437 0.52653 -0.440934 -0.929957 0.659646 -0.267334 -0.20575 0.166218 0.975253 -0.900087 0.270162 -0.801765 
-0.0644801 0.311354 0.926488 0.0657048 -0.509842 0.383255 -0.119285 0.893423 0.173286 0.468152 -0.403705 -0.978898 0.588885 -0.11753 0.77643 -0.158722 0.978794 -0.199481 -0.917139 0.0708756 -0.665575 -0.342714 0.125415 0.98709 0.388574 0.926215 0.157522 0.357455 -0.969745 -0.580017 0.560717 -0.0320299 0.741234 0.479067 -0.964257 -0.775771 -0.131449 -0.091745 -0.891013 -0.968698 -0.623203 -0.285898 -0.939109 0.976847 0.594944 0.814105 -0.184806 0.566471 -0.378397 -0.103692 -0.374585 -0.0478195 0.538577 0.764377 -0.0534381 -0.0651707 0.701355 -0.89066 -0.699821 0.709109 -0.470395 0.854215 -0.300115 -0.739946 0.338084 -0.273558 -0.508362 -0.799258 0.629336 -0.390196 -0.761641 -0.99141 0.330662 -0.697369 0.969486 -0.0733414 -0.881085 -0.207643 -0.502524 -0.259343 0.669935 0.129534 0.684654 0.218374 -0.103088 -0.366144 -0.851261 -0.406043 -0.26116 -0.551745 -0.686294 0.258639 -0.69441 -0.0111914 0.513255 0.647698 0.72467 -0.985596 0.846025 0.354725 
-0.372554 -0.916843 0.357702 0.9387 -0.606011 0.331054 -0.128419 -0.482505 -0.888976 0.36196 0.246753 0.784614 -0.495152 -0.0611031 0.00864334 0.397357 0.57506 0.14327 0.983197 -0.688861 0.606382 -0.690978 0.556918 0.905853 0.301234 0.0884858 0.542394 0.0267593 0.112797 0.392349 -0.617937 0.723889 0.495121 0.74238 0.673284 0.869168 0.0930002 -0.454869 -0.632534 0.186642 0.910346 0.626375 -0.0261174 -0.573572 -0.449119 0.975057 0.814715 -0.87408 0.127909 0.800077 -0.563626 -0.276827 -0.899666 -0.986005 -0.346978 0.410407 0.0946688 -0.797257 -0.554941 -0.807611 0.594455 -0.173421 0.952535 0.0550663 -0.418827 0.608501 -0.0529975 0.664631 -0.848081 0.324856 -0.150649 -0.936593 -0.0413475 0.826221 -0.524048 0.520409 0.802322 -0.704187 0.66401 -0.07215 -0.922362 -0.898237 0.654934 -0.823384 -0.889022 -0.705459 0.588189 0.218986 -0.505039 -0.960837 0.425725 -0.922241 -0.139993 0.349698 0.138328 0.440607 -0.0384233 -0.898164 0.0999045 0.105613 
0.41844 0.943153 0.17081 -0.635577 0.771032 0.647043 0.886365 0.577809 0.93125 0.535232 -0.501496 -0.989402 0.651848 -0.845225 -0.79959 0.768877 -0.543113 0.774691 -0.0201588 -0.0473858 0.821692 -0.595318 0.0223519 -0.322173 0.749471 -0.822896 -0.901419 -0.283041 -0.725429 0.199765 0.831801 0.693321 0.151754 0.00259314 -0.936075 -0.0775713 -0.341472 0.952193 -0.508023 -0.412563 0.497759 -0.00759413 -0.405376 0.154023 0.136978 -0.216177 -0.0820779 0.601193 -0.4357 0.894509 -0.455544 -0.613551 -0.709091 0.580795 0.0685946 -0.939239 0.759069 0.175111 -0.216881 -0.97369 -0.622184 -0.389052 0.731827 0.512632 0.621897 0.795683 -0.553084 -0.718779 0.748507 -0.0582948 -0.139824 0.243745 0.937467 0.457448 -0.607624 0.0833725 -0.75377 0.308468 -0.300488 -0.187186 0.188148 0.244716 0.190164 0.491342 -0.177537 -0.74996 0.550926 -0.416556 0.431499 -0.661406 -0.382699 0.799213 -0.0535433 -0.657508 0.315057 -0.431654 -0.860639 0.777369 -0.157164 0.881389 
-0.292505 0.700258 0.125424 -0.361516 0.15788 0.524825 0.726322 0.404227 -0.179681 -0.587399 -0.785979 -0.9885 0.661899 0.40706 0.517831 -0.507131 0.667055 0.0521118 0.0667303 0.0987769 0.394598 0.676396 -0.109197 -0.657722 -0.975181 -0.781291 -0.107597 -0.834954 0.990301 0.739504 -0.945277 -0.295396 0.442657 0.177566 0.344027 -0.39611 -0.298848 0.0694935 -0.989896 0.52892 0.485738 -0.778051 0.525648 0.145525 0.628497 0.0308614 0.644243 0.302743 -0.924826 -0.297106 -0.614561 0.480652 -0.61891 0.289037 0.81178 -0.576901 0.512678 -0.296051 -0.411139 0.490735 -0.550903 -0.356834 -0.800676 0.875382 0.829401 0.549255 -0.503918 -0.468489 -0.379683 -0.495817 -0.949977 -0.896045 -0.27265 0.585316 0.251683 -0.642822 -0.37489 -0.106813 0.665191 -0.286761 0.585192 -0.947226 -0.822509 0.983257 0.338341 0.991979 -0.595304 -0.154245 -0.290131 -0.00297549 -0.662101 0.151002 0.643989 -0.459268 0.034955 0.476226 -0.90966 0.54448 -0.99836 -0.296985 
-0.962509 -0.947187 -0.194487 -0.239785 0.63873 -0.930055 0.124864 -0.74297 -0.0498371 -0.221075 -0.0337136 -0.460359 -0.168572 0.151107 -0.469033 -0.824163 0.147599 -0.0729912 0.0151158 0.856479 0.927256 0.351862 0.00220926 0.575651 0.901271 -0.951422 0.0370495 0.987786 0.588305 0.0417338 -0.303655 0.632312 0.0940142 0.501301 -0.607509 -0.267487 0.566759 0.514668 -0.00796276 -0.474374 -0.705288 0.957488 0.0490505 0.117549 0.108457 0.575877 0.304604 -0.741373 -0.510366 -0.687425 -0.897286 -0.568938 0.665103 0.115557 0.996589 0.57668 0.165145 0.02889 0.563256 -0.25495 -0.925614 -0.73716 -0.620517 0.158945 0.770103 -0.224622 0.902613 0.33714 -0.707943 -0.105313 0.856108 -0.416004 -0.148837 -0.0871247 0.709362 0.95946 -0.504332 0.012282 -0.779006 -0.0001109 0.319866 -0.674406 0.419434 -0.00389885 0.440311 0.419625 -0.427191 -0.398205 -0.541373 -0.861663 0.348482 -0.469999 -0.594865 0.730911 0.694986 -0.823548 -0.492956 0.604424 0.512139 -0.207515 
-0.504918 0.369095 0.376178 0.34482 -0.720053 0.0932522 0.304455 -0.231106 -0.901015 0.522963 0.763977 0.420417 0.846627 0.18927 -0.584548 0.288464 -0.39086 -0.0123206 0.888901 0.0658845 0.129572 0.237276 0.597442 0.537506 -0.0271171 0.298377 0.707097 0.47823 -0.0990689 0.220509 -0.728663 0.397879 -0.413544 0.650084 -0.258674 -0.135116 -0.260305 -0.954552 0.63551 -0.157109 0.566971 0.399643 -0.745988 0.407997 -0.411609 -0.325075 -0.299794 0.198617 0.65721 -0.410481 -0.73443 -0.205759 0.83111 0.862193 -0.672232 -0.195807 0.159769 -0.972514 -0.721227 -0.939119 0.253255 -0.445244 0.458738 0.83591 -0.794223 -0.801089 -0.294691 -0.0545222 -0.754166 -0.659609 0.786178 0.813074 0.739383 -0.956255 0.224572 -0.671852 -0.278254 0.928482 0.525969 -0.614172 -0.483701 0.790771 0.178859 -0.652036 0.652217 0.505223 0.152021 -0.187979 0.54051 0.434786 -0.127621 -0.205708 0.988814 -0.669707 -0.364497 -0.805847 -0.470552 0.339877 0.140674 -0.228239 
0.681018 -0.0752703 -0.415444 0.419668 -0.0313274 0.80966 0.746011 0.6877 0.735988 0.273905 -0.929051 -0.747598 0.0639297 0.248044 -0.399836 -0.283598 -0.245974 0.752159 0.5289 -0.705402 0.186439 -0.598775 0.0885049 0.175324 -0.26816 0.724221 0.369086 0.261186 0.0625914 -0.490078 -0.965512 -0.256873 0.434797 -0.381587 -0.837106 -0.59664 -0.572013 0.910116 -0.90791 -0.835923 0.184058 -0.837648 -0.583549 -0.75136 0.411045 0.0165901 -0.034833 -0.833839 -0.231281 -0.505883 -0.540287 0.955585 -0.103641 0.548647 0.130427 0.628533 0.271985 -0.500269 -0.110265 -0.664792 0.00964086 -0.0762813 0.0781602 -0.556594 0.542527 0.241034 -0.151641 0.970279 0.151498 -0.060792 -0.865333 -0.66407 0.101632 -0.449219 -0.415644 -0.48736 0.567317 0.549615 -0.321982 -0.663772 -0.956736 0.137878 -0.70936 -0.0596221 -0.314007 0.421593 -0.431426 0.957941 0.921309 0.457353 -0.707343 -0.0687771 -0.617933 0.371487 0.375133 0.924358 -0.387177 -0.775782 0.894753 0.763616 
0.16398 -0.9709 -0.899984 -0.735547 -0.42011 -0.315873 -0.224029 -0.852761 -0.766431 0.454837 -0.516674 -0.722655 -0.407704 -0.225422 0.217189 0.278461 -0.80385 0.785601 0.236588 -0.882229 0.243714 0.529832 0.0484407 0.625751 -0.0987114 -0.574379 0.550208 0.513831 -0.351926 0.445007 0.277826 0.811118 0.474064 0.377548 -0.924446 -0.946259 -0.938389 -0.147408 -0.798757 -0.704736 -0.692575 -0.315483 -0.427393 -0.100268 0.459085 0.789822 -0.821834 0.655303 0.575413 0.414737 0.77304 -0.180868 -0.0552253 -0.17801 -0.555091 0.845838 0.246586 0.995089 0.359673 0.894859 0.440064 -0.362503 0.705817 -0.0858588 -0.98493 0.781438 -0.0318772 -0.923364 -0.365966 0.169234 -0.628049 -0.0584868 0.853797 -0.0554613 0.841191 0.312868 -0.265652 -0.980696 -0.0318574 -0.690255 0.434121 -0.258731 0.128911 -0.621204 0.563175 0.573742 -0.775539 -0.190263 0.568633 0.583399 -0.295452 0.00900315 -0.778345 -0.589512 0.923101 -0.763315 -0.80803 -0.108817 -0.686664 -0.174248 
-0.939346 -0.314724 0.767438 0.914291 0.629857 0.608687 0.227126 -0.635849 0.627978 -0.804754 -0.326076 0.0620692 -0.0635616 0.802875 0.440681 -0.500377 0.37659 0.665169 0.309344 -0.0545174 0.249621 -0.986078 0.954455 0.47095 -0.575559 0.877562 0.707635 -0.383617 -0.231255 -0.979007 0.442353 -0.170791 -0.293729 0.2098 -0.256519 -0.663955 -0.181561 0.970561 -0.299797 -0.553607 -0.834214 0.374029 0.50846 0.102251 0.17692 -0.0508417 0.601823 -0.446484 -0.38559 -0.0887601 0.499051 0.863632 -0.0748097 0.453456 0.334783 0.34964 0.331216 0.0422118 0.966021 -0.900244 0.0631959 0.408392 -0.0710115 0.769158 -0.381838 0.672434 -0.8945 0.436566 0.642878 -0.194307 0.882974 0.808826 -0.820197 0.391413 -0.0888986 0.356733 -0.659407 -0.487064 0.910226 -0.0451187 0.424183 0.409228 -0.181444 -0.650725 -0.137412 -0.846842 0.699003 -0.806283 0.19535 0.665023 -0.706536 -0.741435 0.0733647 0.22236 -0.97191 0.691601 -0.1051 -0.866513 0.128127 -0.462109 
-0.0598076 0.00959498 -0.654476 0.118303 -0.598459 0.260706 -0.52906 -0.256344 0.772261 -0.612652 0.697067 0.195057 0.793722 -0.485185 0.543086 -0.340255 -0.330208 0.243185 -0.148206 0.864978 -0.09178 0.139022 -0.876804 0.985235 -0.635451 -0.847636 0.670111 0.262721 -0.714989 -0.195242 0.801348 0.225984 0.81483 -0.85348 -0.656745 -0.785244 0.406696 -0.182098 -0.0386525 0.178765 0.20393 -0.343814 -0.632776 -0.00479801 0.172719 0.916032 0.656157 0.84656 0.153453 -0.49047 0.708762 -0.934767 0.65514 0.832727 -0.952221 -0.977111 0.980057 0.716287 0.281404 -0.730725 -0.47831 0.0849266 0.49156 -0.672803 0.233019 0.835659 -0.449106 -0.363783 -0.343702 0.507841 0.813816 0.859843 -0.836162 -0.817855 -0.140563 0.336307 -0.902191 -0.482587 0.180306 0.256507 0.0249892 -0.111775 0.318879 -0.316903 -0.281844 0.36766 -0.295733 -0.298853 0.0891995 0.987538 -0.03384 0.611905 0.073583 -0.539084 0.945215 -0.695008 -0.702522 -0.500568 -0.0581286 -0.0502353 
-0.99408 -0.249451 -0.187543 -0.833972 -0.0652167 0.673606 0.489399 0.036913 -0.808001 -0.315807 -0.716984 0.21618 0.568077 0.603548 0.896185 -0.713419 -0.0237273 -0.399983 -0.0102792 -0.935154 -0.411113 0.951546 0.676041 0.662947 -0.585644 0.624838 0.956323 -0.28315 -0.873583 -0.0832441 0.669393 -0.87481 0.676428 -0.520501 -0.707741 -0.405858 -0.832318 0.794787 0.633069 -0.660263 -0.52395 0.913044 0.554408 -0.949738 0.51971 0.460267 -0.666577 -0.497687 -0.944134 0.329018 -0.439036 -0.373267 0.288095 -0.756081 -0.698136 0.708212 0.841373 -0.730725 -0.578421 0.984688 0.173787 -0.906288 -0.898934 -0.181869 -0.424392 -0.603166 0.43489 -0.281235 -0.805494 0.0554462 0.0591959 -0.325035 -0.0323515 -0.390709 -0.272958 -0.515443 -0.941295 0.0652262 -0.0147613 -0.887901 -0.608186 0.547594 -0.251278 0.684638 0.7797 0.054997 0.389446 0.644719 0.320462 0.810323 0.619917 -0.503935 0.902772 0.723778 0.319504 -0.525531 -0.870377 -0.230267 0.190668 -0.690107 
0.815004 -0.75659 -0.0100081 -0.220389 -0.144623 0.721292 0.249509 -0.0822918 -0.213521 -0.74732 0.0219764 0.180017 0.794407 0.773069 -0.137814 0.575431 -0.169243 -0.751887 0.222246 -0.848782 -0.936387 -0.160083 -0.355845 0.961981 -0.430506 0.97497 -0.575715 -0.306864 -0.259173 0.627654 0.0158717 -0.450444 0.881048 -0.991191 0.325895 -0.282062 0.739269 -0.401567 0.635707 -0.488563 -0.152077 -0.343998 0.689965 -0.351581 -0.572347 -0.44253 -0.77498 0.262464 -0.196598 0.444872 0.41361 -0.152272 -0.712966 -0.93248 -0.173325 -0.137966 -0.979581 0.254516 0.5579 -0.225437 -0.128426 -0.422414 0.317506 -0.28057 -0.41363 -0.349778 0.462546 -0.693742 0.249968 0.0842112 -0.183256 -0.897886 0.739023 -0.496263 -0.248135 -0.831341 0.0526729 -0.0273167 0.435793 0.85413 -0.576794 -0.150705 -0.29029 -0.285191 -0.0989736 0.535322 0.575027 -0.0585836 -0.213403 0.134346 0.709913 0.655741 0.705358 0.0310132 -0.61702 -0.707706 0.690687 0.852497 -0.407305 -0.0754604 
-0.0699175 0.406192 0.0288682 -0.329167 0.910877 0.780404 -0.170555 -0.0407156 -0.239854 -0.725795 -0.18491 0.184071 0.120347 0.525764 0.904581 -0.971766 0.0556361 0.476273 -0.0279863 0.849599 -0.382101 -0.313411 0.494828 -0.692569 0.717839 0.885798 -0.40607 0.394217 0.735667 0.181577 -0.666615 -0.331697 -0.408984 0.372182 0.329667 -0.500378 0.142564 -0.82344 0.458248 0.912528 -0.551206 -0.725859 0.0963265 0.576343 0.792911 -0.0163187 0.612202 -0.14566 -0.538463 -0.435709 -0.293109 0.0685124 0.240147 -0.788524 0.382416 -0.0325668 -0.884539 0.965846 -0.631187 0.838128 0.150435 -0.291678 -0.494272 0.730741 -0.930831 0.841797 -0.762056 0.217962 -0.989149 0.692467 0.126925 -0.536123 0.966879 -0.774191 -0.96356 0.769484 0.215447 0.631153 -0.375213 0.677661 -0.797189 0.334445 -0.260285 0.451761 0.531518 -0.885485 -0.582441 0.637089 -0.910786 -0.209762 0.471303 0.224346 0.484695 0.979682 -0.0355037 0.563824 0.831943 0.192499 -0.226846 0.837249 
-0.109492 0.905941 -0.701298 -0.142909 -0.867946 -0.669724 -0.382255 0.343473 0.967077 0.252236 0.0245401 -0.832016 -0.412907 0.765844 0.626945 -0.87011 0.876358 -0.957442 0.770333 0.963973 -0.163038 0.250825 0.18283 -0.686113 0.233677 -0.854077 0.871373 0.0529909 0.342729 -0.357499 -0.107185 -0.766159 -0.449877 0.196914 0.0837941 -0.318013 0.521575 0.710358 -0.974063 0.497112 -0.0386416 0.0516341 0.665624 0.554123 -0.186611 0.277634 0.688221 -0.30462 0.321709 0.444746 -0.339586 -0.848397 -0.310444 0.849782 -0.533562 0.92789 1.01132 -0.668678 -0.0161945 0.341692 -0.0208151 0.88131 0.574768 0.524251 0.0704194 -0.3368 -0.791975 -0.402268 -0.631897 -0.76685 -0.908198 0.331837 0.285467 0.760509 -0.118169 -0.896169 0.0428366 -0.44149 -0.201699 -0.635147 -0.994215 0.461918 -0.4895 -0.299316 0.302257 -0.0259203 -0.373162 0.303184 0.31281 0.612248 -0.358818 -0.720763 0.485215 -0.782192 0.807933 -0.43723 -0.111484 -0.989889 0.154546 0.253114 
-0.75268 0.256116 -0.415289 0.531464 0.0120227 0.466786 0.630911 -0.945009 -0.977671 -0.564488 -0.580036 -0.97294 0.895765 -0.0678037 -0.272397 0.209625 0.90113 0.35591 -0.488092 0.211733 -0.0324074 0.156384 0.491519 -0.543584 0.383259 0.30108 0.0179557 -0.736851 0.310506 -0.831141 0.514066 0.555827 0.421337 -0.899592 0.0856794 -0.568833 0.563265 -0.281197 -0.513089 0.587814 0.154643 -0.0917435 0.614911 0.0488621 0.840709 -0.654511 -0.741045 0.74681 0.698067 -0.228904 -0.0416018 -0.334052 0.930329 -0.544176 0.120099 0.310343 0.753653 -0.871559 0.572443 0.0608986 -0.694177 0.0901311 -0.383048 0.724523 0.189717 0.702211 -0.840573 -0.247445 -0.578932 -0.352953 -0.657012 0.574846 0.556357 0.957098 -0.372059 0.396245 -0.699772 -0.11382 0.142902 0.997646 0.657275 -0.897501 -0.335356 0.58754 -0.447628 0.785556 -0.0970096 -0.698366 0.919384 -0.530741 0.360789 -0.776577 0.560112 0.982429 0.948981 -0.24873 0.68012 -0.896217 0.504805 -0.90713 
-0.244587 0.853508 0.676829 -0.688694 0.806625 -0.695103 0.703259 -0.894189 0.192121 -0.1528 -0.894615 -0.150916 -0.0527292 -0.231547 -0.56488 0.505339 -0.453289 0.333907 0.805204 -0.525961 0.802626 0.16162 -0.303055 0.365817 0.144817 -0.349538 -0.880636 -0.175104 -0.246861 0.618029 -0.0761105 0.507781 0.466838 -0.396547 0.815193 0.270299 -0.0935875 0.520939 0.376587 -0.898686 -0.628548 0.482295 -0.0495279 0.316392 -0.749025 0.39054 -0.179667 -0.192659 -0.283655 -0.369817 0.279304 -0.474596 0.789714 0.981608 0.890245 -0.0707396 -0.373708 -1.00174 0.753453 0.375962 0.626371 -0.316475 -0.110588 0.100393 0.286218 -0.295098 -0.635667 -0.807654 -0.776081 0.741775 -0.708426 -0.411808 0.22505 0.239316 0.915696 0.479521 -0.366247 -0.263414 -0.719826 0.353191 0.360803 0.560166 0.884615 0.156565 0.548439 0.768771 -0.91156 -0.842942 0.77423 0.839338 0.531108 0.398551 -0.477306 -0.578472 -0.50977 0.809972 0.113189 -0.150502 -0.99738 0.33091 
-0.405002 -0.695092 0.933765 0.819789 0.547669 0.85143 0.293477 -0.820009 -0.411142 0.572888 0.535087 0.949366 0.13027 0.414531 0.100807 -0.330636 0.178665 0.183342 -0.174661 -0.040987 0.0222356 -0.645626 -0.642399 0.546757 -0.224455 -0.151183 0.360098 0.889945 0.700356 0.35699 0.227564 -0.704303 0.658489 0.164763 -0.887376 0.202757 0.0134002 0.40764 0.38395 0.604483 -0.016749 -0.0802506 0.553143 -0.889002 -0.666737 -0.343575 -0.217366 0.518838 0.83427 0.609956 -0.523192 -0.139999 0.964232 -0.161036 -0.594918 -0.265239 0.684672 0.755172 -0.376722 0.381519 0.121596 0.855545 0.679968 -0.216305 0.0188489 0.79325 0.983587 -0.967537 0.20004 0.366972 0.636141 -0.821171 -0.712512 0.188976 -0.702456 -0.376988 0.845369 0.0790534 -0.862019 0.681236 -0.312962 -0.384285 -0.455684 -0.346297 0.456095 -0.0513232 0.391332 0.128525 -0.291067 -0.988653 -0.490617 0.82814 0.86594 -0.807932 -0.393741 -0.113062 0.976014 -0.415049 -0.0800754 0.16898 
0.9554 -0.440391 0.360289 -0.758631 0.751482 0.657765 -0.138584 0.596837 -0.262444 -0.000972897 0.278888 0.424107 0.613269 0.821033 -0.926025 0.0619334 -0.231238 0.460061 -0.808878 0.477921 0.471441 -0.298545 0.30621 0.337584 -0.111335 0.912187 -0.776758 -0.1332 -0.49949 0.143708 -0.955855 -0.543861 0.703384 0.404345 -0.302574 0.454575 0.0619298 0.558986 0.0519366 0.799981 -0.441665 -0.669601 0.223601 -0.829139 -0.848647 0.297734 0.233095 -0.0795518 -0.242343 0.424179 -0.601751 -0.770886 -0.873803 0.70467 0.566604 0.0143348 0.616811 0.789547 0.88066 -0.882627 -0.06643 0.925099 -0.426867 -0.363094 0.329542 0.270672 -0.908661 -0.608851 -0.169952 0.142807 -0.80899 0.387669 0.473461 0.414589 0.559038 0.624552 -0.287788 -0.208059 -0.455062 0.469846 -0.783573 -0.0568059 0.698994 -0.657928 -0.351922 0.265648 0.356649 -0.735696 0.0553587 0.237317 -0.618544 0.989139 0.162313 -0.0447638 -0.374499 -0.508219 -0.774791 -0.283308 -0.116856 0.0545433 
0.859646 0.0741331 -0.55742 0.332866 -0.511259 -0.998364 -0.042599 0.200949 -0.206224 0.502282 -0.329175 0.0100813 -0.554581 -0.630184 0.352166 0.0930277 0.635464 -0.291445 0.357279 -0.309138 0.945805 0.738716 -0.320262 0.108107 -0.306738 0.305266 0.599838 -0.0815104 -0.9779 -0.517022 0.973385 0.881742 0.557113 -0.584035 0.214605 -0.954141 -0.582399 -0.827994 0.246811 0.211377 0.674288 0.917633 -0.778542 -0.880293 -0.712551 0.573612 0.212732 0.922913 -0.717833 -0.429993 -0.386224 -0.772031 -0.691276 0.293514 0.336085 0.00198985 -0.40122 -0.0640752 0.920479 -0.379118 0.418904 0.893864 -0.497373 -0.023972 -0.69017 0.717226 0.0218799 -0.27257 0.889238 -0.731314 0.938807 0.563525 -0.813681 -0.839735 0.683233 -0.526232 0.733877 -0.104039 -0.603319 -0.983956 0.465968 0.0104572 -0.755986 0.774691 -0.696029 0.580093 -0.223321 -0.0972482 -0.483979 -0.302842 0.523632 0.934928 -0.408977 -0.97374 -0.0890538 -0.0991459 0.743491 0.93283 0.628283 0.632734 
-0.798488 0.567089 0.196254 -0.612165 0.727355 -0.120514 -0.138401 0.461232 0.775446 0.25828 0.477276 0.241414 -0.731263 0.72129 0.0161112 -0.427289 0.301388 0.792784 0.47546 0.817408 -0.510056 -0.000907166 0.752333 0.0809611 0.0253512 -0.336721 0.981817 -0.231157 -0.403895 0.610098 -0.598427 -0.202385 0.177187 0.597827 0.185448 -0.0954552 -0.522687 -0.952954 -0.634222 -0.747241 0.305327 0.843052 0.494173 0.574064 0.564342 -0.489722 -0.853226 -0.13427 -0.696938 0.622233 -0.316862 -0.206996 -0.378674 -0.564528 0.87397 0.646679 0.098751 0.855788 -0.584478 0.694856 0.465887 -0.182905 -0.507528 -0.35692 -0.585078 0.677917 0.547621 -0.107766 0.724967 0.913397 0.144993 0.0302929 0.756449 -0.360834 -0.395642 0.320791 0.149443 -0.24887 -0.813479 0.452505 -0.626638 -0.130341 -0.75449 -0.00531248 0.305131 -0.880523 -0.358634 -0.596118 0.975266 0.0568881 -0.901262 0.441155 0.873983 -0.40879 -0.91577 -0.711094 -0.73087 0.631852 0.181139 0.994099 
0.545247 -0.673868 0.0243896 0.301696 -0.034702 0.628746 -0.377513 -0.885259 -0.620124 -0.190992 0.567247 -0.246762 0.678667 0.812757 0.747926 -0.016202 0.932236 -0.610708 0.38768 0.907502 0.44618 0.486418 0.348656 0.320163 -0.922372 0.432885 0.609067 -0.653242 0.0647355 -0.209793 -0.659145 -0.390017 0.116339 0.365244 0.911678 -0.918363 -0.00600952 -0.465835 -0.803622 0.373866 0.343173 0.763625 -0.872896 0.0218402 0.576381 0.875029 -0.994362 0.508617 -0.735679 0.393318 0.41612 0.710501 -0.120264 -0.235225 0.0306634 -0.0426368 -0.802339 -0.360269 0.304121 0.262396 0.429938 0.644976 0.872379 -0.453724 0.0102198 0.784057 -0.372087 -0.99579 -0.681778 -0.175708 0.378076 0.661396 -0.412083 0.50518 -0.316764 -0.835702 0.380209 -0.311126 0.672915 0.64453 -0.917808 0.0890352 0.355031 -0.0380724 0.85381 -0.614306 0.919291 -0.948529 0.0254252 0.223412 0.313867 -0.544637 -0.131612 0.186246 0.00163923 0.878607 -0.0296972 0.629553 0.882818 0.288525 
-0.546156 0.260894 -0.0500793 0.0417608 -0.233926 0.633157 0.206059 -0.853717 -0.677969 -0.121026 0.790814 -0.595777 0.96801 0.145845 0.36615 0.82182 0.531539 0.285441 0.873291 -0.443036 -0.491147 0.187158 0.0123269 0.377241 -0.626596 -0.986034 0.255848 0.343707 0.643519 0.138666 -0.367768 -0.902637 -0.60044 0.582153 0.139124 0.165634 0.215309 -0.654817 0.311917 0.53734 0.224157 0.102731 0.941562 0.192167 -0.751425 0.307713 0.0139869 0.780114 -0.406846 -0.112722 -0.662921 0.102007 -0.925564 0.349406 -0.520753 -0.55216 0.363372 0.735096 0.791547 0.00689044 -0.126239 -0.576221 0.104253 0.273321 -0.994069 -0.756623 -0.561045 0.22124 -0.41144 0.750872 -0.24142 0.812717 -0.146397 -0.299857 0.00488416 0.102178 -0.992145 -0.981129 -0.117707 -0.398991 -0.0938508 0.219371 0.703016 -0.0194146 -0.431223 -0.817737 0.428426 0.932148 0.917359 0.219972 -0.0609611 -0.20888 0.643751 -0.956708 -0.935559 0.649682 -0.71333 -0.496604 -0.129077 -0.12477 
-0.745732 0.629503 -0.312053 0.107871 -0.670354 0.692831 -0.789951 -0.662499 0.711702 0.0923418 -0.06149 -0.382149 -0.688287 -0.358474 0.598437 -0.11951 -0.176211 0.0268624 -0.187362 -0.258852 -0.753165 0.751677 0.532268 0.890586 0.794969 0.596709 0.540268 -0.918361 -0.899895 -0.588809 -0.0431315 -0.645627 -0.959305 0.644815 0.462244 -0.62966 0.337647 0.672293 -0.292159 0.0493487 -0.235365 0.646351 0.6672 0.0763478 -0.712123 0.265637 0.956838 0.111666 -0.707501 -0.230524 0.852814 -0.460666 -0.478847 0.385082 -0.57008 -0.683878 -0.0182084 0.970189 -0.602239 0.0818968 -0.61862 0.35463 0.43627 -0.577926 -0.000554981 -0.101486 -0.207585 -0.662908 -0.429193 0.500256 0.38644 0.335442 0.146607 0.0536403 -0.58821 0.434484 -0.680723 -0.631373 -0.45385 -0.388224 0.138103 -0.601035 0.15111 0.659256 0.784047 0.58103 0.975378 -0.234161 0.551219 -0.626861 0.847735 0.932599 0.727769 0.284005 -0.645327 -0.272786 -0.817481 0.147088 0.0643051 -0.246674 
-0.352657 -0.549255 -0.911232 0.79395 0.504386 -0.499442 0.228435 0.823663 -0.130815 0.774585 -0.564561 -0.992712 -0.82645 0.586549 0.666544 0.957597 0.167579 0.641922 -0.276565 -0.281202 -0.984939 -0.428829 -0.348603 0.742829 0.855176 0.00606984 -0.529957 -0.962304 -0.846842 0.534348 -0.208978 -0.199499 0.985093 -0.12021 -0.405549 0.489479 0.380348 0.822886 0.313142 -0.750467 0.597471 0.74858 -0.743179 0.771021 0.33513 0.923365 0.728617 -0.497291 0.565287 -0.547947 0.221507 0.580348 0.0232236 0.872904 0.323177 -0.1216 -0.121026 0.79322 -0.0839044 0.0321312 0.327568 0.707118 0.832632 0.312661 -0.413092 -0.572916 -0.19786 0.967256 -0.75003 -0.884719 -0.783211 0.84744 0.863862 -0.526389 0.618461 0.198991 -0.603024 0.347078 0.7017 0.962263 0.799131 -0.0767926 0.54261 -0.177646 -0.203889 -0.134212 0.700754 0.675085 -0.340993 -0.38315 -0.292784 0.986575 -0.676032 -0.460152 0.299236 -0.0891243 -0.0330682 -0.898624 -0.121868 0.216901 
-0.783338 0.0949297 0.0643412 -0.919476 0.568523 -0.3172 0.279508 0.965509 -0.970118 -0.0187875 0.927736 0.829064 0.904411 0.470378 -0.348591 -0.299472 -0.663838 -0.647895 -0.624381 -0.00482531 -0.0309932 0.0828556 -0.018253 0.292934 0.62268 -0.719047 -0.796186 -0.410422 -0.617632 0.0819358 0.806537 -0.400976 -0.823112 -0.12914 -0.320428 0.745447 0.553685 0.95905 0.710908 0.583542 -0.0597394 0.6387 0.41256 -0.155329 0.109042 -0.936068 0.545213 0.445219 -0.583995 0.920823 -0.559604 0.385006 0.00360545 0.422152 -0.322037 -0.373708 0.703084 -0.118229 0.215951 -0.914498 0.963707 0.0225001 -0.315471 -0.859425 0.893324 0.364079 0.885979 0.44698 0.323098 0.596912 0.0305306 -0.736614 0.23554 -0.556889 0.108092 -0.655372 -0.493008 -0.346713 0.789828 -0.0769861 -0.425908 -0.769755 -0.691965 0.577725 0.652378 -0.0140338 -0.795883 0.355524 0.867718 0.420058 0.441023 0.831442 -0.557488 -0.874427 0.972005 -0.664143 0.489611 0.857996 0.782827 -0.187304 
0.455021 -0.186215 0.0758513 -0.309142 0.256119 -0.816786 0.0351601 0.763311 -0.16248 -0.175793 -0.31367 0.412363 0.0548349 -0.0058974 -0.0107854 -0.292456 0.98053 0.193306 -0.936991 0.847898 -0.385703 0.503999 0.679304 0.0560335 0.630153 0.651018 0.392114 0.118295 0.50924 0.173488 0.93271 -0.0361684 0.988357 0.00762587 0.655278 0.244717 0.192558 -0.309827 0.00777864 -0.969875 0.515354 0.693373 0.441343 -0.430069 -0.311884 -0.568997 0.277616 -0.331197 0.623376 0.340466 -0.483159 -0.762468 -0.156614 -0.804533 0.29403 -0.526529 0.847418 -0.314463 0.59343 0.357884 0.859476 0.526362 -0.677663 0.847891 -0.466474 0.977392 0.0924614 0.725959 -0.334614 -0.900316 0.75594 -0.818737 0.79379 0.197135 -0.247321 -0.517629 0.627632 -0.971808 0.150228 0.251453 0.369188 0.667845 0.488603 -0.786658 0.863837 -0.217311 -0.311923 0.711951 0.467996 -0.718542 0.0695801 0.327722 0.806324 0.392299 0.175968 -0.658556 0.368205 -0.732201 -0.93305 -0.965026 
-0.631923 0.824014 -0.787946 -0.837357 0.023048 -0.0379545 -0.356882 -0.356634 -0.000551427 0.785792 0.898464 -0.635352 0.460876 0.386196 -0.419572 0.326628 -0.829169 0.272217 0.0404774 0.638069 0.549475 -0.89287 -0.0380504 0.359102 0.501195 -0.859089 0.703161 -0.132682 -0.591421 0.760795 -0.100945 -0.225134 0.589716 0.116206 -0.0635245 -0.396193 -0.913268 0.580701 0.251787 0.0877125 0.37785 0.149814 0.450762 -0.164366 -0.462944 -0.966793 -0.832811 -0.292931 0.29986 0.199717 -0.652421 -0.148654 0.308353 0.307439 -0.791687 -0.189917 0.451911 0.906554 0.675442 0.861478 0.670694 -0.421087 -0.355871 0.258237 0.699365 0.57589 0.86426 0.788681 0.151758 0.117732 -0.12324 -0.475333 -0.732922 -0.667098 0.369778 -0.191865 -0.639942 0.523334 0.517088 0.661026 -0.269202 0.859999 -0.492164 -0.960317 0.175214 -0.280468 -0.150702 -0.373137 -0.370885 -0.479009 -0.508177 -0.703737 0.100646 0.130715 0.562378 -0.189604 -0.298306 0.414777 -0.405054 0.860153 
-0.465429 0.472541 -0.606928 -0.197765 0.805287 0.75542 0.611016 -0.846919 0.291613 0.11405 0.820989 -0.979457 -0.014667 -0.672583 -0.940541 -0.842472 0.0537198 -0.0902978 -0.214268 0.683175 0.438778 0.275813 0.978242 -0.461028 -0.596793 0.530348 0.348754 0.10455 -0.0472198 0.93243 -0.0360924 0.489847 0.413518 0.362804 -0.707578 0.211314 0.119227 0.900303 0.36477 -0.592048 0.029157 0.187786 -0.569702 -0.990569 0.51953 -0.517813 -0.828335 -0.432226 0.390954 -0.0471934 -0.745011 -0.17533 -0.772985 -0.774258 0.365122 -0.36266 0.7639 -0.291449 0.743435 -0.288784 -0.357411 -0.284211 -0.781727 -0.947584 -0.925432 -0.502723 0.273978 0.192016 -0.599429 -0.361549 0.602899 0.412094 0.823355 -0.964175 0.436319 0.350719 -0.486991 0.609405 0.917818 0.906127 -0.442548 -0.831284 -0.27674 -0.211389 -0.59878 -0.909631 0.427142 -0.83318 -0.197 0.166815 -0.113928 0.438784 0.878708 0.0893566 0.506478 0.961566 0.584823 -0.232872 0.149875 0.985632 
0.399717 -0.245634 0.421091 0.223538 -0.218891 -0.157221 -0.415333 0.296418 -0.554788 -0.50997 0.207877 0.0125425 -0.330315 0.927925 0.807096 0.0650006 -0.967759 0.220747 0.221968 -0.15627 -0.592943 -0.893865 -0.725726 -0.723515 0.19928 0.77333 -0.759722 -0.206483 -0.45037 0.380813 -0.217564 0.957406 -0.860657 -0.796337 0.199129 -0.0820391 0.0476994 0.769758 -0.794137 0.491753 -0.726705 0.416554 -0.4951 -0.0595035 0.352681 -0.711816 1.00474 0.374645 0.518761 0.232298 -0.786048 0.915217 0.346721 -0.517386 -0.801494 -0.442527 -0.730039 -0.572814 0.354219 -0.191863 0.806247 -0.853478 -0.209837 0.944835 -0.65801 0.971177 -0.11614 0.38227 0.736662 0.0882548 -0.130018 -1.00881 -0.48707 0.379978 -0.0597932 0.86874 0.663987 -0.0422427 0.235998 0.191756 -0.838114 0.457357 0.0961321 0.511746 0.945201 0.300052 -0.929475 -0.78696 0.733776 0.41923 0.0267572 0.527256 0.548681 0.801152 0.494605 0.903016 0.769804 -0.629511 0.258421 0.51485 
0.442545 -0.873376 0.522061 0.948273 0.496637 -0.541847 0.811567 0.163208 0.389902 0.0388715 -0.631665 0.564468 -0.488762 0.455975 0.0869285 -0.537408 -0.223684 0.139667 -0.33086 -0.501083 -0.422793 0.675724 -0.973013 -0.868559 0.495986 0.524979 -0.978736 0.294274 0.877461 0.267082 -0.193338 0.325997 0.42181 -0.652579 0.289989 -0.0974362 -0.199096 0.107159 -0.9142 -0.808539 -0.843294 -0.568332 0.758713 -0.297462 0.889817 -0.175538 0.162781 -0.326059 0.969831 0.811553 0.192687 -0.454087 0.504129 0.211592 -0.322416 0.0247843 -0.254134 -0.315335 -0.676078 -0.379385 0.954876 0.143622 0.980274 0.363175 0.48462 0.252589 -0.701696 -0.717478 -0.643434 -0.64329 -0.54715 -0.48898 -0.191548 -0.776687 0.195785 -0.278248 0.0432812 -0.651448 0.384803 0.0158435 -0.873266 -0.433693 0.558357 0.648313 0.779052 -0.765288 -0.330389 -0.481425 -0.0777803 -0.00373031 0.138386 -0.138887 -0.902757 0.109714 -0.756318 0.596911 -0.646942 -0.444365 0.84419 -0.29159 
-0.111498 -0.70492 0.221679 0.690333 -0.490969 -0.582864 -0.597014 0.552287 -0.251519 0.766418 -0.405205 -0.111475 -0.659319 -0.864645 -0.45778 -0.870569 -0.602689 0.205105 -0.349406 0.299354 -0.793574 0.763829 -0.847897 -0.67034 -0.103517 -0.581522 0.922847 0.276437 -0.0633409 0.74728 0.979915 0.838883 -0.927078 0.240296 0.542113 -0.437411 0.63892 0.946819 -0.838856 -0.612208 0.725062 -0.277999 0.276155 -0.901111 -0.116059 0.812882 -0.767409 0.279731 0.0244676 -0.135081 -0.40613 0.235243 -0.348675 -0.254476 0.550829 0.583701 0.178625 0.442587 -0.147932 -0.86918 0.199738 -0.157289 0.995382 0.246551 -0.940043 0.515598 0.88342 0.688142 0.458138 -0.994652 -0.930775 0.186587 -0.258947 0.352003 0.264285 0.637598 0.154282 0.491634 -0.12306 -0.825085 -0.662438 0.471438 0.414591 0.00344291 -0.784049 -0.0155919 -0.424543 0.396239 -0.560741 0.41784 0.514106 0.625823 -0.778742 0.504277 -0.0718869 -0.714031 0.0282761 -0.189817 0.957029 -0.529866 
-0.208254 -0.949208 0.644309 0.529225 0.375382 -0.0665462 0.173604 -0.454101 -0.599161 -0.973118 -0.24408 -0.258297 0.486912 -0.843141 0.734804 0.712464 0.164767 -0.688503 0.149438 0.608566 0.747429 -0.381141 0.216496 1.00719 -0.807295 -0.854339 -0.700643 0.205989 -0.0573394 -0.753265 0.672872 0.743632 -0.711005 0.363842 0.283105 0.652459 -0.733537 -0.563902 -0.774395 -0.319131 -0.507965 -0.0591617 0.405094 -0.984886 0.137005 0.142437 0.78393 -0.707562 0.456924 -0.101577 0.873977 0.235376 0.532757 0.116183 0.198436 0.76705 0.262807 0.451977 -0.0377274 -0.768261 0.68065 -0.326023 1.01171 0.943794 0.988378 0.250812 0.676014 -0.752959 0.688804 0.85118 -0.0706074 -0.820093 -0.186716 -0.675839 -0.790405 0.963105 0.459723 0.954572 -0.791658 -0.0805643 -0.126325 -0.901399 -0.875517 -0.55157 0.202302 0.371968 -0.797036 -0.508463 -0.179089 0.14912 -0.306746 -0.488271 0.766994 -0.301176 -0.468604 0.784446 0.939279 -0.812781 -0.968849 0.629593 
-0.965502 -0.0424719 0.815421 -0.136127 0.261173 -0.938439 -0.167329 -0.266499 0.98723 0.0146239 0.691918 -0.127958 0.103069 0.840219 0.284313 -0.668813 0.224579 0.507896 -0.114588 -0.957295 -0.348972 0.526827 -0.445032 -0.532625 -0.71407 0.0992594 -0.730585 -0.791904 0.27232 -0.724362 0.852618 0.33561 0.243876 0.698159 -0.791421 -0.555862 0.698219 0.015853 0.230739 0.737661 -0.937712 -0.117165 -0.458128 0.19146 -0.249964 0.869332 0.580863 0.955213 0.352548 -0.577311 0.99516 -0.960886 0.92504 -0.43464 -0.518185 -0.72932 0.661092 -0.310406 -0.550489 -0.0216772 -0.0567938 -0.648354 -0.677443 -0.868002 0.996198 -0.509985 -0.316094 0.68101 0.507142 0.857017 0.403412 0.54839 -0.244722 0.941234 -0.22957 0.531946 0.805116 -0.667998 0.432851 0.174625 -0.232628 0.433449 0.201454 -0.229148 -0.996859 0.717683 0.0248395 0.680192 -0.599179 0.468314 -0.395177 0.363066 0.770854 -0.0646022 0.577733 0.776366 0.419501 -0.749605 0.462466 -0.0866917 
-0.900611 -0.132364 -0.519039 -0.131486 -0.230441 0.302096 -0.605857 -0.40181 0.583357 0.81765 0.800573 -0.643173 0.221046 0.00385566 0.0644375 0.270763 -0.275966 -0.892091 -0.0188394 0.145377 0.578937 0.546329 -0.476616 0.373438 -0.45305 -0.899166 0.159992 0.965295 -0.690697 -0.369441 -0.0973197 -0.557232 0.490272 0.417775 0.336125 -0.794252 -0.360701 0.714581 -0.1257 -0.724328 0.551594 -0.351215 -0.439228 -0.185795 0.667003 0.694807 -0.892526 -0.600435 0.792617 0.0686128 0.544464 0.389521 -0.396016 -0.962014 -0.255119 0.24423 -0.863721 0.863822 0.160229 -0.510597 -0.550054 -0.905767 -0.0478713 0.875311 0.46619 -0.756904 -0.807337 -0.90505 0.957235 0.0154642 -0.628318 0.499866 0.651902 -0.0710965 -0.663843 0.374163 -0.381985 -0.562227 0.69235 -0.606741 0.501635 0.250216 0.770282 -0.808728 0.290229 -0.456456 0.388437 0.446266 -0.586872 -0.472558 0.889186 -0.124549 -0.405646 -0.146415 -0.171567 -0.933512 0.102834 0.00532153 -0.831852 0.0398938 
-0.988439 -0.472345 -0.445626 0.69901 0.430208 -0.0696674 0.0517535 -0.937084 0.320317 -0.251724 -0.495423 -0.156118 -1.03108 -0.718101 -0.0411903 0.299092 -0.17808 -0.614844 -0.229073 0.249576 -0.107762 -0.37349 -0.884811 0.492166 0.527386 -0.0751974 0.592733 -0.389449 0.910152 0.766385 0.699895 0.958507 -0.719539 -0.742086 0.672392 0.704916 0.120476 -0.293151 0.78326 -0.514232 0.456757 -0.718031 0.275584 0.452717 -0.41342 -0.704426 -0.221756 0.420318 -0.350334 0.531252 -0.339496 0.561762 -0.875355 -0.248099 0.0645475 0.74994 0.705027 -0.400137 -0.672513 0.633952 -0.678998 -0.971859 0.603682 -0.435927 -0.76326 0.223303 -0.657717 0.35525 0.925469 -0.893097 0.848007 0.355707 -0.618156 0.094395 -0.14498 -0.00204985 0.397965 0.618509 -0.661434 -0.973574 0.147962 -0.00319727 0.551628 0.354436 0.771465 -0.35201 0.07471 0.48091 0.248381 0.372899 0.0794906 0.585086 0.373225 -0.30362 -0.793251 0.621184 0.937089 -0.487954 -0.0180012 0.840439 
-0.370674 -0.189362 0.227776 0.0330837 0.912228 -0.891285 -0.999718 0.298535 0.696545 -0.625287 0.37631 -0.134721 0.37666 -0.0353104 -0.825875 0.173131 0.600473 0.272379 -0.331386 -0.133764 -0.368103 0.72784 -0.568018 -0.983278 -0.5441 -0.371181 0.656461 -0.622365 0.144188 -0.35541 -0.774488 0.789112 0.444188 0.497048 -0.182668 0.341131 0.554084 -0.171995 -0.340046 0.307667 0.199227 -0.960976 -0.871975 -0.408554 0.00841954 -0.660077 0.7793 -0.39473 0.590586 -0.547498 0.458594 -0.763491 -0.853839 0.889955 -0.729371 -0.334278 -0.471404 0.88652 0.0138541 0.686432 -0.498859 0.275846 0.469981 0.911448 -0.271885 -0.743797 0.29987 -0.721074 0.0757987 0.952025 0.574138 -0.745083 0.973058 0.68364 -0.123831 -0.00466628 -0.973208 -0.357366 0.55731 0.605021 0.0889114 0.0232611 0.830077 0.280243 -0.0640972 -0.883406 0.925785 0.462345 -1.00069 -0.0798263 0.126956 -0.478836 -0.8205 -0.413555 -0.526298 -0.0814651 -0.154914 0.741518 0.206004 0.905226 
0.708891 -0.223737 -0.811249 0.696342 -0.539372 0.0895636 -0.321499 -0.517948 0.711783 -0.729098 -0.875291 -0.181277 0.30103 0.975511 -0.935579 -0.746682 -0.916736 -0.985812 0.7169 -0.890571 -0.0614343 -0.188001 -0.390914 0.123575 0.428137 0.0779399 -0.942835 -0.73345 -0.164522 0.269588 -0.819554 -0.446724 -0.95645 -0.590245 -0.754957 -0.506028 0.453525 -0.0675443 -0.0193244 0.220423 0.196536 0.112512 0.99521 -0.495991 0.083033 -0.918462 -0.239499 0.173203 -0.907661 -0.511366 0.27483 0.0283791 0.266142 0.885827 -0.827139 -0.252454 -0.0324813 -0.805072 -0.0108113 0.816236 0.443326 0.191607 -0.652837 0.446374 0.564834 -0.426574 0.975212 0.0179655 0.497878 -0.0560309 -0.776607 -0.322119 -0.952253 -0.800386 0.203412 0.141282 -0.711531 0.964541 -0.723089 -0.635579 -0.570322 0.567403 0.39732 0.734618 0.460424 0.571488 -0.532108 -0.569078 0.758954 0.440831 -0.784903 0.207658 -0.372214 -0.439455 -0.304243 -0.796056 0.135383 -0.353485 0.220285 -0.378471 
0.613391 0.398118 0.311904 0.654006 0.640631 -0.43209 -0.230532 0.9237 -0.496871 0.121939 -0.681139 -0.0550654 -0.319933 0.727357 -0.345132 -0.839031 0.297928 0.144651 -0.421168 0.0622431 -0.421528 -0.236607 -0.76891 0.255261 0.351842 -0.0350162 0.423089 -0.51503 0.593239 -0.35289 0.11351 0.223338 -0.904401 -0.515212 -0.11869 0.701182 -0.0106703 0.667465 0.64763 0.560011 -0.250108 0.979584 -0.567212 0.407127 0.69364 0.134233 0.573786 -0.012149 -0.765293 -0.839799 -0.917868 -0.17281 -0.112387 -0.689945 -0.942494 -0.696394 0.258893 0.42867 -0.239942 -0.0863742 -0.91728 0.884467 -0.921426 -0.877112 -0.646046 -0.0694005 0.886911 0.332512 -0.420496 0.505012 -0.137245 0.321602 0.469374 0.264668 -0.232905 0.181681 -0.654098 -0.670303 -0.870787 -0.407324 -0.543141 -0.806867 0.425521 0.328973 -0.494439 0.468834 0.677685 0.78136 -0.101302 -0.58839 -0.356806 -0.0313573 -0.674719 -0.29165 0.140786 -0.329645 0.667979 -0.0216754 -1.00363 -0.781635 
-0.487506 -0.210098 0.561444 0.970262 -0.878207 -0.644417 0.0919299 -0.520504 -0.342094 0.32989 0.116393 0.129275 0.500215 -0.444255 -0.483123 -0.974459 -0.984696 -0.800809 0.803844 -0.060472 -0.360253 -0.579086 0.857454 -0.00807402 0.148127 0.0555436 0.600137 -0.218694 -1.00793 0.612053 0.0160816 -0.481133 -0.507314 -0.384005 -0.513721 -0.426167 -0.0919115 0.611413 0.0718409 0.63198 -0.108193 -0.806307 -0.288853 -0.63149 -0.251671 0.224639 -0.589374 -0.220836 0.398196 -0.799707 0.735373 -0.977368 -0.387355 0.602587 -0.0367339 0.771552 -0.368216 -0.455667 -0.437936 -0.333265 -0.812144 0.569466 0.142384 -0.407818 -0.803293 0.595209 0.212049 0.0997365 0.19132 -0.71891 -0.288662 -0.900485 -0.526168 0.384201 -0.502191 0.241321 -0.448688 -0.108913 -1.03206 -1.01911 0.0604405 0.683412 -1.00353 0.606527 0.285503 -0.0719085 0.470999 0.93964 0.492494 -1.00998 -0.435068 0.640979 0.602853 0.723842 -0.712385 0.780805 0.356746 0.467386 -0.133388 -0.481353 
0.770599 0.545966 -0.376516 -0.756294 -0.0499625 0.126366 0.419885 0.529002 0.996879 0.457166 0.551101 0.0768405 0.144162 0.56201 -0.239365 -0.534547 -0.49703 -0.763969 -0.596537 -0.958676 -0.725255 -0.0266369 0.645009 0.826721 -0.312391 0.93637 0.602268 -1.00999 0.403362 -0.521009 -0.484515 0.165256 -0.938888 0.179179 0.386076 -0.0166498 -0.76352 -0.163047 -0.473349 -0.727584 -0.740081 -0.913292 0.317452 0.406414 0.649704 -0.941545 0.89552 -0.841511 -0.723836 -0.717162 -0.800318 -0.484266 0.250299 0.836993 -0.641244 0.942625 0.787733 0.947972 0.957513 0.194803 -0.578252 -0.514882 -0.658838 -0.57219 0.629656 0.712536 0.46067 0.86103 -0.483798 0.996669 -0.870682 -0.194027 -0.917221 0.405762 -0.76567 0.755809 0.444196 -0.902409 0.878969 0.759495 -0.634238 -0.94575 -0.727137 0.611735 0.892802 -0.395845 0.600393 0.70966 -0.436661 0.523616 -0.110247 -0.0528174 -0.992771 0.252424 0.432589 0.626568 -0.022023 -0.133636 0.480543 0.481852 
-0.123231 0.602386 -0.701707 -0.0506698 0.00725307 -0.475478 -0.356394 -0.50873 -0.381467 -0.430866 -0.733658 0.00424176 -0.349428 -0.452814 -0.355071 -0.417017 0.176141 -0.781164 -0.707448 0.728626 0.791184 0.200782 -0.341466 0.721601 -0.583421 -0.888977 0.366836 0.379696 -0.0373642 -0.149611 -0.143204 0.822008 -0.527622 0.171646 -0.235213 0.461464 0.656362 0.427762 0.928693 -0.726974 0.97565 -0.785904 0.27484 -0.375454 -0.253818 0.894384 0.235244 0.908375 -0.892805 0.518458 0.646855 0.829835 -0.271222 -0.682004 0.599165 0.147716 -0.568231 -0.0494012 -0.435937 0.392137 0.792869 0.420264 0.238228 -0.78627 -0.43232 0.989938 0.710672 -0.78854 0.365542 0.645022 -0.501351 0.384341 0.867179 0.726056 -0.975506 -0.36392 0.594336 0.228031 -0.471115 0.723134 -0.230684 -0.845901 0.589131 0.476004 -0.535067 0.175186 -0.353861 -0.070145 -0.862888 0.183514 -0.656219 0.921662 -0.408775 0.568462 -0.835935 0.158236 0.560166 0.849971 0.350607 -0.073024 
0.528998 0.837153 -0.663215 0.375847 0.564805 -0.696398 0.972399 0.19963 0.569194 -0.533264 -0.0385731 -0.654633 -0.335146 -0.452448 0.845581 0.149307 0.746607 -0.515515 -0.892313 0.846938 0.688985 -0.557084 0.74547 -0.763213 -1.00653 0.927593 0.398354 0.547018 0.772362 -0.305673 -0.503102 0.253939 -0.403684 -0.183393 -0.357858 -0.859734 0.100189 -0.431902 0.305859 -0.344138 0.0510001 -0.708748 0.0259206 0.707697 -0.189939 -0.158066 -0.11905 -0.45356 0.316276 -0.0180223 -0.580116 -0.067054 0.41117 -0.814215 0.208339 0.42258 -0.856633 -0.413448 -0.00277309 0.898151 0.313203 0.504807 0.201712 0.85173 -0.731421 0.812038 1.00205 0.391017 -0.661421 0.327077 -0.962184 0.447259 0.618848 0.0661323 0.17217 -0.537873 0.879552 -0.983251 -0.0244428 0.196533 0.0146847 0.411499 -0.828981 -0.591842 0.586973 0.387489 0.846027 0.741438 0.978617 -0.178716 0.660248 0.283428 -0.719141 -0.174163 0.147613 -0.453998 -0.32743 0.144766 0.897081 0.0175293 
-0.514634 0.960991 -0.549255 -0.897965 0.0164257 0.555575 -0.453173 -0.0811647 0.609264 0.494457 -0.834579 -0.389406 -0.0591497 -0.652317 0.0446617 -0.456029 0.73081 -0.0926931 -0.702604 0.67242 0.718908 0.946391 -0.0630319 -0.961348 -0.195802 -0.894317 -0.42237 0.426887 0.251577 -0.607378 -0.517883 0.692091 -0.563965 -0.0901743 0.797265 0.408513 -0.529418 -0.721078 -0.668187 -0.934453 0.797893 -0.497687 -0.319793 -0.262436 -0.167614 0.720432 0.288081 -0.448552 -0.391214 0.586892 -0.735005 -0.709133 0.514444 0.220425 -0.661949 -0.685091 0.359177 -0.11584 0.762731 -0.409639 0.33893 -0.741943 -0.706626 0.704943 0.110649 -0.928089 0.127451 0.622919 -0.670002 0.475519 0.652477 -0.835487 0.996424 -0.66324 -0.0810821 -0.148904 -0.954731 -0.829214 0.363691 -0.338466 0.768435 0.661441 0.000349943 0.286419 -0.117926 0.35244 0.61035 -0.789182 -0.758407 0.36477 -0.208601 0.543152 0.56701 0.0563914 0.27794 -0.268991 0.148592 -0.583381 -0.711881 0.477171 
0.913549 0.994498 0.654222 0.912057 -0.677134 -0.459697 -0.246603 -0.604046 -0.276489 -0.896712 0.0937435 -0.515078 0.787568 -0.897812 0.779949 -0.352962 0.443756 0.398007 -0.126291 0.634883 -0.236939 0.637921 0.166109 -0.596914 -0.27036 -0.529619 0.103365 0.820997 -0.13415 0.321079 0.363701 -0.23548 0.370028 -0.0129823 -0.317218 0.663356 0.520258 0.38163 -0.927647 -0.753421 0.510486 0.144432 -0.254327 0.291525 0.255614 -0.480699 0.956298 -0.316789 0.890403 -0.208679 -0.641632 -0.36539 -0.587009 0.552205 0.0396523 0.119487 -0.95795 -0.901521 -0.00968631 -0.0808044 0.470839 -0.635382 0.704786 -0.208982 0.310507 -0.637567 -0.525654 -0.1163 0.724846 -0.461606 0.100432 0.255321 0.714834 0.836932 -0.448659 -0.0180494 -0.656787 -0.539155 0.635196 -0.731482 0.283638 -0.981878 -0.0677612 0.689907 0.57959 0.974534 -0.154216 0.588558 -0.942697 0.829367 -0.51452 0.508574 -0.856439 -0.812994 -0.69338 0.506456 -0.457541 -0.207379 -0.673481 -0.701249 
0.338831 0.452362 0.552258 0.0509953 0.30684 -0.917736 1.01876 0.654498 -0.44757 0.640673 0.953611 0.812762 0.665509 -0.104673 0.523159 0.214659 -0.144275 -0.62434 -0.173354 -0.125253 -0.798863 0.286164 -0.63447 -0.586207 0.510779 -0.296798 0.888967 -0.98083 0.458254 -0.825922 -0.682613 -0.207445 0.668518 0.855322 0.844377 -0.053437 0.92728 0.828996 -0.3657 -0.487996 0.497989 -0.430398 -0.672428 0.146648 0.468707 0.857894 -0.624656 -0.680338 -0.794762 0.193955 0.223793 -0.592706 -0.540893 0.626614 -0.202919 0.959034 -0.664901 -0.349426 0.977548 0.798878 -0.136017 -0.681567 -0.406264 -0.5188 -0.853564 -0.576867 0.455873 -0.879479 -0.752524 -0.93447 -0.377076 0.750844 -0.331278 -0.0496038 -0.112441 -0.855326 -0.207906 0.250349 -0.546149 0.0275126 -0.540161 0.684594 0.439653 -0.0828447 0.339882 -0.759184 -0.109557 0.613529 -0.138838 -0.137368 0.382633 0.706126 0.176266 1.00715 -0.800509 0.366604 -0.581475 0.651016 0.443905 -0.329677 
0.7438 -0.919536 -0.564315 -0.592639 0.0240762 0.322125 -0.468374 0.822848 -0.4393 -0.0113173 -0.143479 0.00410591 -0.331042 -0.693619 0.929922 0.972995 -0.48726 -0.160233 0.608806 0.372989 0.694554 -0.0163748 0.0668305 -0.0832006 -0.011575 0.28836 -0.735384 0.392006 -0.0662424 0.680492 -0.93622 -0.348598 0.77958 -0.517252 0.0659528 -0.218123 0.794805 0.595961 -0.374362 -0.612305 -0.40446 0.48147 0.414165 0.272004 0.792368 0.357784 0.247714 -0.689153 -0.83049 -0.14673 0.715331 0.887537 0.833364 -0.186247 -0.227212 -0.167847 -0.887723 -0.0160852 -0.790157 0.0175934 -0.312397 -0.685377 0.686627 -0.600344 -0.213159 -0.25201 0.229115 -0.411049 -0.64522 0.844367 -0.0138385 -0.0557649 0.345516 -0.588881 -0.783619 0.136057 0.716214 0.466084 0.438712 0.907959 -0.680919 0.162878 0.778367 -0.858139 0.971572 -0.465682 -0.0198348 -0.944568 0.514082 0.178144 0.0606363 -0.803934 0.499535 -0.223724 -0.366242 -0.691875 0.521749 0.853141 -0.118682 0.858572 
0.705105 0.866697 -0.165524 0.0576599 -0.744208 0.0547879 -0.812983 -0.995902 -0.481931 0.638489 0.916094 -0.178539 -0.206984 0.703714 -0.0137566 -0.225545 -0.751948 0.978383 -0.159871 0.746881 0.152945 0.89787 0.94325 -0.329954 -0.331273 -0.414089 -0.0327744 -0.813622 -0.555193 0.820792 -0.940177 -0.873473 0.700541 -0.0944748 0.182645 0.951977 0.938065 0.365075 0.959144 -0.525181 0.0133085 0.8913 0.324204 0.827926 0.580972 -0.696381 -0.390065 0.825041 -0.740438 0.443383 0.588316 0.439945 0.340712 0.551725 -0.901462 -0.970022 -0.852722 0.027694 -0.781839 -0.433446 -0.141526 -0.694625 -0.29671 -0.472451 0.203693 0.904632 -0.494802 0.155404 0.277403 -0.538643 0.635893 -0.714759 -0.6411 -0.0182181 -0.884706 0.946068 0.256219 -0.278979 0.772317 0.548141 -0.833057 0.361024 -0.021937 0.517808 -0.0908288 0.0663023 0.549901 0.035946 -0.904617 0.756923 0.594299 -0.0644631 -0.937964 -0.68164 0.492903 0.277652 -0.788147 0.992723 -0.565292 0.484508 
-0.547069 -0.920755 0.771865 -0.181643 0.0470053 0.880796 -0.240144 -0.682596 -0.400921 -0.474987 0.875818 -0.241708 0.88109 -0.14182 -0.727491 -0.200738 0.922827 0.82581 0.836228 -0.989797 0.582345 0.424653 -0.0478189 0.655523 0.746587 -0.554081 -0.0740266 0.959736 -0.567935 0.354847 0.44089 -0.0990644 0.439852 0.222768 0.710478 -0.523627 0.0909052 -0.526349 -0.183909 0.714068 0.00779068 -0.308476 -0.530417 -0.112155 0.549991 -0.256696 0.686205 0.47445 -0.447068 0.527431 0.484613 -0.850581 -0.048876 -0.55235 0.794335 -0.293367 -0.0946642 -0.298253 -0.337943 0.330951 -0.941704 -0.90853 -0.772852 0.489908 0.331138 0.926452 0.983768 -0.567502 -0.588682 -0.219879 -0.859965 0.399167 0.484162 -0.38525 -0.703892 0.0305451 0.358672 0.98353 -0.494618 0.918068 0.505498 0.986216 -0.930264 -0.533153 -0.561082 0.853462 0.174651 0.327582 -0.431744 0.824334 -0.344743 -0.381418 0.943619 -0.120632 -0.874475 0.281512 -0.1855 -0.907247 0.709011 0.22004 
-0.113021 0.865207 -0.372558 -0.625912 -0.524399 -0.0797798 0.401719 0.83532 -0.0901957 0.899627 0.768496 -0.584676 0.885615 0.842147 -0.118814 -0.683113 0.701471 -0.949401 0.647615 -0.735655 0.881271 -0.701478 -0.114529 0.830053 0.178642 0.00254273 0.113679 0.995412 0.0944349 -0.179371 0.217919 0.99637 -0.313848 0.841015 -0.62735 0.165972 -0.238239 0.777548 0.00536168 0.67687 0.673044 -0.221488 -0.906764 0.557039 -0.378378 -0.0232956 0.875992 -0.679819 0.0199713 0.523032 -0.413934 -0.0954715 0.817445 0.472932 -0.273475 0.00199235 -0.521423 0.82715 0.00119269 0.581274 -0.346372 -0.785827 0.57211 0.338775 -0.936243 0.932572 -0.487585 -0.168793 0.710846 0.510008 -0.495555 0.378403 -0.703797 -0.403962 -0.0614557 -0.0830362 0.569126 -0.18757 0.234176 -0.409401 -0.671291 0.8187 0.491631 -0.849491 0.293265 -0.782806 0.160782 0.769958 -0.944066 -0.84354 0.350536 -0.280969 -0.624804 -0.0797329 -0.938134 -0.558798 -0.133197 -0.431481 0.26763 -0.426149 
-0.91336 0.776333 0.949158 -0.615813 -0.624959 -0.11546 0.298806 0.945537 0.69464 -0.468542 -0.459111 -0.97497 -0.651161 -0.965714 -0.821848 0.640276 -0.743775 0.336374 0.409697 -0.688254 0.493754 -0.24248 0.0257042 0.871525 0.682239 0.0851521 -0.68633 -0.455296 0.654808 0.582798 0.119149 0.740809 0.358048 0.0672705 -0.875061 0.73367 0.951996 0.424678 0.680207 0.646534 0.952188 -0.777051 0.672677 -0.697845 -0.741789 0.849825 0.942457 -0.487838 0.18491 0.351817 -0.174274 -0.321155 -0.890134 0.851798 -0.448414 0.791561 -0.0632679 -0.13906 -0.663472 -0.408839 -0.554838 0.453357 -0.667844 0.802807 -0.479044 -0.543409 0.539311 -0.527957 0.876565 0.220873 -0.877341 0.828771 0.444293 0.79063 -0.86916 0.702456 0.639374 -0.926986 -0.78432 -0.175236 0.425505 0.0406348 0.504145 0.535074 -0.106393 -0.944895 0.326734 0.830495 -0.0830622 0.664576 -0.57962 0.362208 0.115183 -0.246045 0.167196 0.637195 0.209995 -0.298658 -0.890328 0.086506 
0.926839 -0.771137 -0.0847392 0.370852 -0.980263 0.0460918 0.0727351 0.660527 0.119479 0.288645 -0.513695 -0.455423 -0.669642 0.990532 -0.920211 0.223862 -0.955222 0.406612 0.0543401 -0.038444 0.069854 0.476077 -0.676134 -0.813537 -0.769835 0.490825 0.823685 0.440044 -0.803288 0.933455 -0.473466 -0.87646 -0.837692 0.441788 0.494389 -0.817951 -0.51212 -0.432875 0.842582 0.607359 0.855743 -0.671097 -0.848053 -0.813891 -0.680558 -0.768275 0.409972 -0.635796 0.638328 -0.535693 0.325775 -0.291821 0.940392 0.649642 -0.105343 -0.829449 0.140468 -0.281692 0.610595 0.33717 -0.348226 -0.862889 0.460717 -0.185925 0.578898 -0.0448983 -0.00385384 -0.933228 0.522192 -0.161256 0.674169 0.377935 0.167649 0.826076 0.564043 0.487093 -0.942206 -0.0259851 0.851307 0.696123 0.438325 0.177072 -0.595688 0.378714 -0.173274 0.298963 0.549264 0.967194 -0.982724 0.159872 0.304354 -0.330954 0.296958 -0.234918 0.483139 -0.124129 0.720176 -0.520755 -0.0573548 0.242368 
0.318027 -0.383216 -0.379696 -0.514327 -0.55714 -0.815653 0.972761 -0.499337 0.158362 0.824068 -0.803206 -0.403316 0.00115104 -0.398895 0.975398 0.827877 0.90006 0.524663 0.79507 0.917333 -0.315476 0.0994363 -0.413619 0.981496 0.864519 -0.93048 -0.142635 0.584695 -0.451196 0.800012 -0.172937 0.866831 -0.583205 0.447367 -0.647495 -0.140345 0.631714 -0.674735 0.360318 -0.209924 -0.850667 0.557111 0.38676 0.150484 -0.841784 0.362158 -0.0216389 -0.941724 -0.113179 -0.226569 0.97561 0.571345 0.872868 -0.438009 0.552841 0.737386 -0.368488 -0.589794 0.322081 0.180316 -0.789783 -0.850856 0.0471475 -0.372987 0.596511 0.399652 0.486668 0.228225 0.724918 -0.153015 -0.981698 0.874251 -0.595903 0.405062 0.0247354 -0.437687 -0.23278 -0.996903 -0.379411 0.654041 -0.223472 -0.403801 0.225386 -0.350604 0.15819 -0.221773 -0.613218 0.789702 0.188433 0.708863 -0.0299824 0.39865 0.858007 -0.982835 -0.974338 0.454518 0.416817 0.51233 -0.317257 0.141735 
-0.640172 -0.298788 0.0169101 -0.236477 -0.894399 -0.959817 0.325916 -0.126267 -0.956144 0.946445 -0.47297 -0.179444 -0.457724 0.752752 0.47055 0.700156 -0.468928 0.856745 0.490425 0.719134 0.566539 -0.538994 0.117465 0.422808 -0.522349 0.142954 -0.121893 0.893143 -0.344026 0.55955 0.0367155 0.0135157 -0.738351 -0.946918 0.779946 -0.630313 -0.90714 0.104879 0.241474 -0.863274 0.0511688 0.768391 -0.0426887 0.593518 0.521003 -0.57354 0.293703 -0.948126 -0.717383 -0.2156 0.772435 0.848159 0.243382 -0.11063 0.272582 0.721433 -0.967199 -0.848766 0.617023 -0.310544 0.709921 -0.346411 0.704956 0.972314 -0.294866 0.483985 -0.659629 -0.20174 -0.412742 0.580912 -0.0659676 0.639771 0.349929 0.893527 0.234319 -0.128942 -0.681773 -0.473058 -0.0774898 -0.398575 0.310497 -0.305035 -0.54921 -0.444698 0.584935 0.722522 -0.722715 0.617797 0.872245 0.895077 -0.692732 0.583136 -0.452271 -0.98737 0.554844 0.25351 0.495891 0.89566 -0.948638 -0.915767 
0.476728 -0.0110567 0.721036 -0.160927 -0.126515 -0.0474697 0.712774 0.191991 0.478463 -0.385705 0.798494 -0.20578 0.31109 -0.755085 0.356891 -0.100533 0.967378 0.657664 -0.476007 0.833381 0.528656 -0.179782 0.414052 -0.927048 -0.160139 -0.0265039 0.331439 -0.679406 -0.126136 0.352129 -0.58781 -0.664079 -0.636125 -0.852288 0.186021 0.241477 0.089168 -0.114439 -0.56696 -0.418621 0.517449 -0.775138 0.37008 -0.179938 -0.524516 -0.279677 0.719385 -0.55248 -0.657364 -0.764395 -0.704815 0.869736 0.0381096 0.707706 0.939868 0.895827 -0.304227 0.269179 -0.772301 0.571701 -0.366459 -0.343768 0.93034 -0.00388034 -0.222877 0.104758 -0.770168 0.896374 0.965513 -0.34535 -0.53837 0.475014 -0.110652 0.853758 -0.684915 0.367935 -0.448728 -0.998285 0.803697 -0.0971593 -0.760842 -0.894631 -0.22774 0.288385 0.824221 -0.287053 0.177615 -0.486123 0.975405 0.408044 -0.917238 -0.397664 -0.950508 -0.989928 0.609467 -0.138289 0.117163 0.824062 -0.266379 0.102632 
-0.522645 0.232849 -0.458265 0.410174 0.0606127 -0.151863 -0.223991 0.563707 -0.114477 -0.479059 -0.482597 0.115002 -0.345836 0.26774 -0.578903 -0.493553 0.991096 0.636085 0.0248422 0.963114 0.0136396 0.0539004 -0.496246 0.0933477 0.0808697 -0.868332 0.949038 -0.822925 0.995968 -0.371713 0.258836 -0.547631 0.890792 0.884245 0.854728 -0.0755158 -0.268496 -0.399216 -0.472344 0.620341 0.197821 0.0149384 -0.295201 0.794017 -0.669605 0.134846 -0.665489 -0.695854 -0.29002 0.282157 -0.712164 0.720429 -0.67044 -0.183594 -0.251308 0.494907 0.000704121 -0.25497 0.693956 -0.0413078 0.382441 0.0165963 0.473702 0.26777 -0.124771 0.279699 -0.824518 0.681548 0.838812 -0.267854 0.280944 -0.0439651 0.734274 1.05636 -0.127703 -0.918569 0.118964 0.0983079 -0.606083 0.81698 -0.574778 -0.344446 0.508554 -0.222211 0.522027 -0.681796 -0.734553 -0.495879 0.0457481 0.897749 0.488464 -0.617859 -0.103769 -0.0418659 0.696522 0.866031 -0.757571 0.791616 0.468023 -0.857026 
-0.498059 -0.211018 0.128715 -0.741734 -0.196411 0.963293 -0.628544 0.818535 0.164872 -0.38623 0.714355 0.548983 0.353972 0.23605 -0.68013 -0.135789 0.597255 -0.405493 0.395302 -0.396863 -0.464268 -0.235666 -0.0454948 0.4999 0.756751 -0.389073 0.309456 -1.02398 -0.527784 -0.270371 -0.887029 -0.0279361 0.569985 0.345856 0.268436 -0.673109 0.291213 0.551041 -0.79795 -0.602566 -0.689126 0.865574 0.913232 0.590042 0.18863 -0.785936 -0.49483 -0.264907 -0.245162 0.829117 0.33334 0.283524 -0.34968 -0.677228 -0.320384 -0.449413 -0.0106343 -0.891421 -0.409609 0.390322 -0.196725 -0.206572 -0.528217 -0.643371 -0.896403 0.668447 -0.279215 0.434248 0.242098 -0.0585411 0.811607 0.42856 -0.247274 0.826379 0.178081 0.965211 0.945479 0.673385 -0.292233 -0.279988 0.543908 0.987068 -1.08414 -0.805637 -0.652629 -0.285889 -0.215407 0.335525 -0.207552 0.244116 -0.21679 0.512275 -0.969683 0.273556 0.990451 -0.796536 -0.101857 -0.348837 0.534626 -0.845438 
0.528783 0.377895 0.721043 -0.7814 0.0626969 -0.193012 -0.673327 -0.0353216 -0.525509 -0.22014 0.775752 1.01389 -0.183168 0.727387 -0.803163 0.163915 -0.424893 -0.0134989 -0.438738 0.287988 -0.745773 0.151305 -0.177704 -0.567474 -0.522528 -0.209182 -0.501764 0.435674 0.471166 -1.07987 0.548729 -0.000290063 0.400593 0.340673 0.361807 -0.600657 -0.901623 0.573622 0.434202 -0.441725 -0.52248 0.18982 -0.513191 0.342143 0.0190165 -0.344063 -0.4152 0.460322 0.592429 0.0463259 -0.297445 0.903977 -0.678945 0.61204 -0.881811 -0.052081 -0.53447 -0.285221 -0.573349 0.82739 -0.383078 -0.872605 0.0933473 -0.987235 0.386645 -0.675983 -0.42388 0.541662 0.881343 1.00502 1.01213 -0.612116 0.140877 -0.34874 0.744102 -0.816901 0.211961 -0.581263 0.596138 -0.201382 0.365923 -0.744288 -0.351004 0.647463 0.885604 -0.108345 -0.280185 -0.664373 0.58927 -0.0272353 -0.76465 -0.885898 0.0144063 0.401775 -0.698832 -0.561995 0.625059 -0.17777 0.787128 0.567358 
-0.282848 0.859473 1.01627 0.714073 -0.751673 0.650246 1.02412 0.469945 0.96225 0.264577 -0.50963 0.35572 0.579865 0.103452 0.0308587 0.471769 -0.812228 0.75085 0.925305 0.633199 -0.232931 -0.982535 0.784808 0.923902 0.471084 -0.894789 -0.687846 0.183263 -0.182789 -1.09716 -0.263823 0.480666 0.913533 -0.127883 0.380108 -0.927644 -0.55466 0.332702 0.635921 -0.636742 -0.329691 -0.904366 0.75671 -0.550831 0.33467 -0.251655 1.09141 0.34375 -0.588305 0.861332 -0.019335 0.217632 -1.02249 -0.167734 -0.0750959 0.689447 0.0585475 0.284937 -0.0837367 0.795225 0.153693 0.817082 0.699175 -0.0367558 -0.435858 -0.0974756 0.359661 0.107118 -0.893351 -0.0550313 0.42025 -0.0661516 0.0624366 0.276618 0.307174 -0.561785 0.887249 0.452693 0.62145 -0.734399 0.158873 -0.483295 0.536631 0.146301 0.459347 -0.376397 -0.103078 -0.490474 0.779036 0.645771 -0.644785 -0.16569 0.298563 -0.830572 -0.971406 0.85319 -0.0877914 0.285147 -0.236234 0.128217 
-0.842569 -0.774078 -0.972674 0.100567 0.219386 0.23669 0.589064 0.194921 -0.465774 -0.187868 0.744081 0.733348 0.485482 0.210651 -0.130129 -0.0272852 0.954437 0.814957 0.680331 0.593633 0.567013 -1.06862 -0.565727 -0.026627 -0.844946 -0.417959 -0.1607 0.092074 0.751098 0.363109 -0.776818 0.763734 0.780307 -0.535411 0.0143199 -0.0957046 0.598162 -0.51933 -0.763103 -0.896172 0.448941 0.893779 0.944311 0.120267 0.235714 -0.149577 -0.660005 0.0176104 -0.433547 0.785288 -0.315813 -0.813426 0.804615 0.265448 -0.0770918 -0.744219 0.958542 0.672311 0.29271 0.713386 0.0892074 0.689964 0.847293 -0.310172 0.935678 -0.300358 1.04744 0.56465 0.0413192 -0.852636 0.713165 -0.421531 -0.883741 0.75427 0.637246 0.443801 -0.701864 0.985378 -0.77807 -0.0780778 0.694465 -0.132138 0.143224 0.515163 -0.836323 -0.705153 0.684872 -0.793073 0.923021 -0.134345 0.849816 -0.0827168 -0.637322 0.773952 0.920597 -0.743625 -0.554963 0.822928 0.754487 0.526851 
0.964412 0.583744 -0.885293 0.960759 -0.0216014 0.739709 0.423664 0.463954 0.48992 0.26231 -0.268246 0.224754 -0.698452 0.772716 -0.320809 -0.423717 -0.861503 -0.612948 0.105115 0.917326 0.391857 -0.247569 -0.201067 0.917299 -0.236578 -0.0717414 -0.704058 0.106671 -0.376013 0.78504 -0.336775 -0.484987 0.482571 -0.0119743 -0.353675 -0.694654 -0.487616 0.891416 0.961914 -0.874952 0.406791 -0.553028 0.317542 0.941009 -0.616077 -0.86443 -0.18694 -0.689124 -0.538183 0.639293 -0.685847 1.00052 -0.588707 0.297608 0.607605 0.508969 -0.747168 0.660522 -0.445377 -0.021512 0.481315 0.39884 0.827079 -0.255895 -0.916349 -0.845844 0.619546 -0.326732 -1.05899 0.265058 -0.152212 0.305517 0.865829 -0.712542 0.313552 -0.648124 -0.943616 1.01626 -0.519779 -0.485046 0.681823 -0.36492 -0.493132 -0.778361 -1.06953 -0.640763 0.635413 -0.642402 0.948702 -0.996617 0.18098 0.371583 0.166539 0.033612 -0.490183 0.302653 0.251989 0.847778 -0.999495 0.203906 
0.207058 -0.0496405 -0.352354 -0.0305105 -0.088137 0.969176 0.352199 0.0249023 0.766005 0.361695 1.04129 0.512835 -0.822903 -0.546948 0.616063 -0.70803 -0.179732 0.288809 -0.00208034 -0.210959 0.354783 -1.03197 -0.904664 -0.194672 0.357014 -0.201107 -0.737375 -0.560299 -0.487142 -1.00779 0.675412 0.728766 -0.0235768 -0.486461 -0.133423 0.748107 -0.823891 1.03673 0.0309597 -0.82437 0.626329 -0.26244 0.457571 -0.92829 0.401024 0.30999 -0.350684 -1.00998 -0.496574 0.383649 -0.170191 1.09711 0.328016 0.0422352 -0.373957 -0.050414 0.903843 -0.41246 0.333761 -0.47619 -0.437167 0.221421 -0.462693 0.375531 0.396144 0.0398605 0.647543 0.66808 -0.0241784 -0.733268 0.931627 -0.466513 0.201733 0.460658 -0.357325 -0.286586 -0.468822 0.165785 -0.440659 0.0395814 -0.419686 0.135406 0.107005 -0.939605 -0.742853 0.91642 0.0100838 -0.750646 -0.630346 -0.888942 -0.447809 -0.0791556 0.100549 0.0809198 -0.282248 -0.388729 -0.72289 -0.97953 -0.678395 0.149525 
-0.598462 -0.691088 0.810144 0.465658 0.517035 -0.326829 -0.833119 -0.929327 0.502729 -0.679713 0.615635 -0.837333 0.557535 -0.343944 -0.937585 -0.923512 -0.466737 0.130785 -0.441887 0.044082 0.266494 0.00700167 -1.02984 -0.447197 -0.53933 -0.158683 0.373568 -0.420059 -0.354378 0.544617 0.756569 0.143451 0.782929 0.790964 -0.198478 0.165784 -1.03332 -0.15092 0.489335 0.73567 0.277994 -0.0858614 0.570373 0.0943759 0.700898 0.97077 0.354859 -0.888603 -0.011518 0.783613 0.193407 -0.513013 -0.239745 0.203284 -0.0472648 0.407771 -0.985785 -1.02348 0.86422 -0.13782 0.451284 0.761611 -0.859388 0.0570128 0.308232 -0.393407 -0.390019 0.3296 0.381024 0.820848 0.264136 -0.39219 -0.124027 -0.274154 0.697659 -0.282835 -0.353176 -0.0133246 -0.350704 0.597199 -0.257067 0.578175 -1.00239 0.641057 -0.145938 -0.00733781 0.0574362 -0.0587925 -0.0801971 -0.306025 0.52531 -0.670571 -0.632149 0.727401 0.790653 0.706693 -0.471757 -0.942993 0.147143 0.726581 
-0.929919 -0.684281 -0.50905 -0.203707 -0.0652536 -0.507632 0.389213 0.607033 0.174452 0.812389 0.627505 1.06166 0.434109 0.588454 0.467523 -0.446539 -0.448676 -0.370276 0.674416 0.650877 0.360215 0.146351 -1.09207 0.744726 0.138411 0.831543 0.714953 0.56784 0.718337 -0.291027 0.334219 0.925128 -0.00384613 1.06816 -0.130753 0.804878 -0.939274 -0.7743 0.599767 0.55884 -0.952436 0.18023 0.244028 0.62808 -0.185737 0.0964369 -0.6469 0.303054 0.570725 0.944568 0.00158625 0.0932996 0.0118398 -0.0819585 -0.067198 -0.6504 -0.312067 -0.782314 0.814752 -0.436892 -0.0820988 0.277223 -0.485066 0.70712 0.249949 0.0696072 0.895177 0.304348 0.237382 0.341317 0.0563551 0.225326 -0.432723 -0.953716 -0.0742778 0.559927 0.135613 0.219265 -0.384776 -0.362959 0.108709 0.371736 0.625349 -0.728418 -0.63493 -0.508105 -0.308137 0.101073 -0.264219 -0.679051 0.464485 0.607127 0.491086 -1.05167 0.676662 -0.264787 0.232245 0.191033 -0.849291 -0.77224 
-0.228222 -0.000918291 0.617776 0.186833 0.0884516 -0.0804598 -0.52827 -0.783915 0.902659 0.163643 0.224861 0.251902 -0.4428 -0.164769 0.303873 0.196089 0.24423 -0.907961 -0.649993 -0.795077 -0.486279 0.776313 0.784069 -1.08919 0.906195 0.551757 -0.142738 0.137385 -0.298706 -0.0392718 0.349388 0.53063 0.988309 0.31885 -0.238188 -0.12903 0.830743 0.375193 0.194154 1.10268 -0.537644 -0.504082 -0.0513235 0.064776 0.248798 -0.409156 -0.643656 -0.480388 -0.442585 -0.273073 -0.165189 0.0938472 -0.591211 -0.426785 0.231196 -0.537421 1.01284 0.722556 0.497054 -0.335166 -0.298417 -0.0175753 -0.714688 -0.612821 -0.728267 -0.196959 0.61862 -0.926773 -0.91014 -0.195519 -0.592405 -0.456812 0.238548 -0.0105505 0.743163 -0.29461 0.586818 -1.00795 0.0303643 -0.911717 -0.365811 0.640373 0.145292 0.138697 -0.787792 -0.779308 0.681349 -0.706157 -1.00705 -0.0290394 -0.108015 -0.339751 -1.14387 0.0611743 0.421984 -0.794201 0.966991 -0.305257 -0.638074 -1.14728 
0.719706 -0.566767 -0.433424 -0.172127 0.580349 -0.371378 0.193277 0.183654 -0.482129 -0.486976 0.604571 0.435611 -0.829065 -0.291059 -0.610595 -0.335141 -0.188761 -0.870828 -0.151238 0.0881217 0.294021 0.794814 0.778578 0.0250223 -0.0630093 0.204567 0.335231 0.00788428 0.948773 0.742507 -0.137468 0.655018 -0.672669 0.729268 -0.473475 0.690047 -0.842086 0.9538 -0.115736 -0.0168136 -0.689878 -0.316622 -0.990293 -0.653009 0.207802 -0.303004 0.0549327 -0.8309 -0.233552 1.0561 0.388023 0.995042 0.735079 0.0628533 0.257957 -0.221858 -0.835703 -0.691278 0.659865 -1.06608 -0.942337 -0.446901 0.731897 -0.875112 -0.689199 -0.888551 -0.946514 -0.598742 0.935535 0.0548511 0.63641 -0.732411 0.622153 0.205692 -0.197015 0.0771867 -1.05179 0.754774 0.041374 -0.368022 0.664556 -0.807576 -0.3764 0.458603 0.186568 0.670984 -0.785309 0.477867 -0.928723 0.686362 0.395291 -0.957961 -0.820929 0.0381505 -0.454182 -0.403323 0.217221 -0.696116 0.0622979 -0.0647568 
0.60089 -0.695933 0.373784 0.0649513 0.722382 -0.523183 0.727838 0.737461 -0.771873 0.193999 -0.322384 -0.854296 0.392673 0.258139 0.464954 -0.113675 -0.242951 0.743787 -0.832047 0.0858734 0.675559 0.677683 0.152834 0.703493 -0.186884 0.713146 -0.730658 -0.897508 -0.966509 0.463286 0.046199 0.606304 0.957685 -0.298839 -0.250888 0.44326 0.0944801 -0.27995 0.139572 0.602792 0.643382 1.11128 0.278966 -0.218362 0.131738 0.104377 0.713661 -0.879049 -0.240647 1.07574 0.40927 -0.763913 0.661728 -0.568544 1.14217 -0.392488 -0.932601 -0.851072 -0.479141 -1.04462 0.601377 0.564888 0.675753 0.245015 -0.649235 -0.645896 -0.0802109 0.278178 -0.158169 -0.731763 -0.0290623 -0.428813 -0.762351 0.802424 0.63138 0.613031 -0.192554 0.220643 0.506872 0.451842 0.181064 -0.362121 0.710662 -0.227391 0.0320032 0.612796 0.408192 0.244649 0.841543 0.761372 0.225379 0.30463 0.310161 -0.141205 -0.0711771 0.705778 0.357187 0.576597 -0.00827638 -1.08788 
1.019 0.58175 -0.301821 -0.842713 0.615255 -0.423743 0.237673 -0.462121 0.864321 0.274189 -0.711368 0.254206 0.933208 0.983571 -0.913016 0.223068 0.366575 0.513621 -0.71568 0.392515 0.562581 0.655611 -0.281912 -0.343539 -0.459543 0.621861 -0.727783 0.83991 0.20994 0.493931 0.782419 0.22589 0.300734 -0.258562 0.386767 -0.359254 0.183194 -0.133987 0.0657288 0.344737 0.828525 0.676444 -0.895643 0.470185 0.39979 -0.481917 -0.232014 0.042092 0.86283 0.143159 -0.305127 0.147726 -0.182278 0.287858 0.991102 0.323437 -0.150411 -0.901113 0.0449157 -1.07667 0.527208 -0.21958 0.238415 -0.519764 0.601475 -0.427477 0.283967 -0.352302 0.184208 -0.388284 0.986026 0.224221 -0.847222 0.72345 -0.0867132 0.810276 -0.981994 0.502998 -0.363213 -1.18462 -0.295895 0.0281379 0.0690644 0.310116 -0.708573 -0.165172 -0.298754 0.357923 -0.0306809 0.554132 0.329572 -0.65649 -0.647894 -0.38386 0.147031 0.934652 0.335171 -0.795794 -0.461636 -0.77942 
-0.0134339 -0.786129 0.597698 0.0677709 -0.936193 -0.324785 -0.671155 -0.761683 -0.654461 0.47046 -0.66473 0.214622 -0.442106 0.410784 -0.470895 0.0475875 -0.918133 0.177636 -0.737224 0.107965 -0.0159131 0.835504 0.522403 0.0442948 -0.652807 -0.34678 -0.109841 0.563846 -0.0736793 0.56475 0.873647 0.810852 1.12759 0.584066 -0.183105 1.00518 -0.871491 0.314231 -0.955297 -0.364173 -0.561614 -0.354784 0.339893 -0.205042 0.855754 1.06155 0.975538 -0.903176 0.0739039 -0.703065 0.53227 0.711877 1.17076 0.00480794 0.109764 -0.58869 0.661961 0.913706 0.905784 -0.613372 0.482688 0.655337 -0.671288 0.264474 0.296303 0.0595777 0.365137 0.324069 -0.860386 0.636694 0.876397 0.0466071 -0.780095 -0.0588399 0.892761 -0.729826 -0.173117 0.560828 -0.751726 -1.07929 -0.941062 0.494622 0.81991 -0.922425 -0.507373 -0.271526 -0.457144 -0.586715 -0.368068 -0.74377 -0.080765 -0.937102 0.948071 0.305103 0.563379 0.231163 -0.472759 -0.238956 -0.607357 -0.52089 
-0.455795 -0.958187 0.475913 -0.309363 0.0826851 0.352647 -0.320551 -0.8737 0.268612 0.125136 -0.784214 0.455618 -0.19778 -0.916578 0.475071 0.371523 -0.204928 0.97202 0.759274 0.356866 -0.613018 -0.0968279 0.358238 -0.983726 -0.946272 -0.000390603 0.114039 -0.674252 0.857888 0.433753 0.0053421 -0.813612 0.991354 -0.519132 -0.0573177 0.0308363 0.750031 0.498855 -0.239443 0.00846356 -0.720162 0.195325 -0.921071 -0.0323824 0.117372 0.612486 -0.467783 -1.09391 0.380094 -0.691828 0.645367 0.232638 0.169974 0.0403741 0.625375 0.229602 -0.892312 -0.291524 0.628045 0.736717 -0.705283 -0.409938 -0.924899 -1.17637 -0.0225512 -0.108997 -0.0425609 -0.287433 -0.953665 0.853967 0.548887 -0.0259259 0.0777743 0.438341 0.973477 -0.623081 -0.268757 -0.897302 -0.820977 -0.804654 -0.366094 0.620017 0.67456 0.699102 -0.428735 0.172071 0.0401369 -0.0353866 0.8686 -0.455453 -0.185705 -0.896916 0.0282078 -0.111992 -0.787543 1.06955 1.02089 -0.0022683 -0.547301 -0.956962 
0.000750569 0.889514 -0.171708 1.07133 0.365635 -0.611118 -0.638852 -0.618189 -0.0116811 -0.583992 -0.211547 0.691607 -0.620346 -0.513738 0.517806 -0.0108093 0.761419 -0.483764 -1.00048 0.341684 0.152778 -0.0409931 0.308668 0.961258 0.788164 0.601283 0.839971 0.446 -0.29258 -1.10033 0.650176 0.357887 -0.502338 -0.569631 0.63513 0.868563 -0.164896 0.509346 -1.11465 0.667599 0.794178 -0.274264 0.238859 -0.928002 0.135052 -0.258421 0.274581 -0.287668 0.0485594 0.221334 -0.504205 0.611176 -0.926909 0.875799 0.859921 0.896708 0.720595 0.674817 0.515792 -0.759572 1.01225 0.289647 0.746048 -1.09631 0.346581 0.230647 0.885596 -0.613212 -0.559167 0.843963 0.830034 -0.0920194 -0.306308 0.0131923 0.0636787 0.986319 0.42379 0.821992 -0.454225 -0.401587 0.299894 0.0207792 -0.461093 0.247924 -0.0498691 -0.679382 0.30016 -0.250697 0.958179 -0.156205 -0.0116072 0.830347 0.780136 -0.243146 0.981385 0.328235 -0.722101 0.850665 0.232856 -0.181785 
0.778809 0.192281 0.464395 -0.464053 -0.874467 -1.07128 -0.468866 0.890918 -0.861722 -0.20932 -0.272277 0.352899 -0.744301 0.19186 -0.178054 0.0766721 0.59091 -0.776711 0.961629 0.144 -0.0395953 -0.0139731 -0.266222 -0.0823223 0.832314 -0.0359818 1.01647 0.621134 -0.2172 -0.283703 -0.276499 -0.816711 -0.442864 0.988998 0.010182 -0.327982 0.854305 -0.0113894 -0.617104 0.837391 0.742198 0.0847925 0.208535 0.909766 -0.715314 -0.874356 0.210782 0.649971 -0.850343 -0.00752208 0.219776 -0.32436 0.862668 -0.831319 0.563618 0.612098 0.478285 0.477805 0.602244 -0.855233 -0.229678 -0.620322 -0.517296 -0.390133 0.878836 0.248882 0.453272 1.16673 -1.04899 -1.00145 0.782956 -0.715367 0.229727 0.0568411 -0.632459 0.640925 -0.0725337 0.0441029 0.147854 0.17094 -0.723362 -0.599651 -0.842325 -0.9658 -0.297593 0.79179 0.911544 0.899167 0.23742 0.534865 0.858525 0.697743 0.534863 -0.702682 -0.45322 0.747053 0.866376 -0.767097 0.331358 1.01734 
-0.740475 0.392561 1.09614 0.455958 -0.700211 0.865436 0.0356003 0.493298 0.0955353 -1.03892 -0.206864 0.192973 -0.275668 -0.0377186 0.469172 0.115713 -0.282525 0.460219 0.185567 0.462444 -0.17558 -0.000742255 -0.0134276 -0.154121 0.581295 0.873963 1.21453 -0.0323004 0.957106 0.141433 0.283377 -1.16849 -0.0430032 0.100518 0.612373 0.123948 -0.121743 -0.758792 -0.39575 -0.987419 -0.778285 0.410624 0.174867 -0.145571 -0.56893 -0.224776 -0.781883 -0.0421413 -0.936328 0.169328 -0.186703 -0.292441 -0.875894 -0.869604 0.308093 0.433431 -0.782143 0.339957 -0.102645 -0.849849 -0.0860791 -0.767099 -0.891197 0.163893 -0.0277331 0.527499 -0.497307 -0.620702 0.542522 0.266498 -0.853034 -0.750318 -0.135134 0.540923 0.194601 0.379306 -0.856105 0.0155086 -0.801447 -0.693784 -0.610438 0.0660711 0.207871 -0.561265 0.36531 -0.388059 -0.764486 0.17559 0.804373 0.120706 0.0637531 -0.521245 0.136157 0.128833 0.757076 -0.513194 -0.195607 -0.420142 -0.713053 -0.462247 
0.847454 -0.365162 -0.326736 -0.343771 -1.00919 0.389114 0.941984 -0.723352 -0.539832 -0.95801 -0.327226 -0.343895 0.386417 0.979789 0.267846 -0.659494 -0.502105 0.622018 0.691307 -1.02343 -0.382808 -0.34231 -0.72803 1.29038 -0.813772 -0.642933 -0.592274 -0.319536 -0.253042 -0.615407 0.330304 -0.781466 0.354278 0.834944 0.0685262 0.2072 0.176025 -0.312334 0.58099 0.837017 -0.114308 -0.630735 -0.519213 -0.808122 -0.6823 0.887563 -0.331498 -0.333912 0.290667 -0.768278 -0.0502261 -0.906747 -0.0450622 0.483367 1.0309 -0.114163 0.95091 -0.783664 0.835709 -0.392471 -0.0708635 0.337516 -0.0201562 0.693053 0.0820886 1.00181 0.145313 -0.249054 -0.300735 -0.226855 -0.658219 0.796682 0.252812 0.0570989 1.04859 0.655079 -0.203564 -0.450425 -0.758757 -0.67979 -0.098703 0.209077 -0.553435 0.810383 0.000990956 -0.511048 -0.0698061 -0.515049 -0.481241 -0.281808 -0.0825128 0.324805 -0.829499 -1.05828 0.169938 0.511461 0.938902 -0.503632 0.714706 -0.389912 
0.19919 -0.782734 -0.535902 -0.553404 0.13941 -0.740569 0.96252 -0.876246 -0.16885 -0.704789 -0.574743 0.53777 0.692225 -0.0593831 0.329741 -0.706264 0.349768 -0.464301 -0.0969312 0.661149 0.065663 0.730127 -0.101521 0.758307 0.907573 -0.713368 -0.105165 0.753377 -0.335486 -0.392236 -0.676277 0.539616 -0.0474865 -0.107852 -0.885987 -1.0255 0.147487 -0.953741 -0.825527 -0.879024 -0.516867 -0.179747 0.659509 -0.845224 0.632335 0.287627 -0.429008 -0.0945284 0.431012 0.425662 -0.18478 0.0734487 0.252477 0.936775 -0.664847 0.0621189 -0.731678 0.0642175 -0.114374 -0.308712 0.754513 0.60928 -0.579905 -0.663029 -0.52404 -0.401577 -0.488356 0.769614 -0.143911 -0.308077 0.776372 0.163293 0.477388 0.677165 0.462647 0.211511 -0.324397 0.956594 -0.936756 -0.538691 0.362982 -0.22256 0.395216 -0.430524 0.0301091 0.66548 0.873809 -0.134015 -0.353203 -0.35779 0.530367 -0.706894 -0.589643 -0.913544 -0.1615 -0.0277665 -0.398689 0.343467 -0.53744 0.224692 
-1.05944 -0.630395 -0.345868 0.57251 -1.01357 -0.957308 -0.399808 -0.0612587 -0.997968 -0.30047 0.363981 0.250442 0.546044 -0.155557 0.781172 -0.709686 -0.414956 0.840884 0.354398 0.0239132 -0.636794 -0.288581 0.424747 0.133979 -0.101566 -0.71654 0.832143 0.546119 0.660039 -0.633438 -0.15506 0.433398 -0.159466 0.659597 0.0459366 -0.266723 0.711448 0.656639 0.705821 0.822495 -0.514621 0.237201 0.0962496 -0.883783 0.931044 0.105652 -0.391705 -0.570587 -0.372178 0.829356 0.623856 0.502247 -0.385451 0.208543 -0.773729 0.510382 0.465095 -0.993121 0.111489 -0.0446039 -0.599315 -0.721281 -0.481795 -0.0209616 0.966917 0.635366 0.810553 0.694564 0.542961 0.452675 0.483036 0.768733 -0.38468 -0.18098 -0.960723 -0.385696 0.622172 -0.426162 0.087945 -0.34081 -0.58127 -0.441951 -0.926148 0.0516305 0.971241 -0.679783 -0.119011 0.149381 -0.641993 0.838393 -0.873009 -0.411258 -0.765559 -0.205321 0.734045 -0.720081 -0.680398 0.544882 0.823258 0.641437 
-0.156822 0.471769 0.592784 0.675855 -0.81201 0.572536 -0.788612 -0.913332 -0.810819 0.163329 -0.172713 -0.455995 0.727475 -0.044941 0.584529 0.50063 0.36998 -0.490572 -0.239142 0.594095 -0.65794 -0.292487 -0.738879 -0.316525 0.499365 -1.00582 -0.175618 0.869034 0.477877 -0.267537 0.628161 -0.51834 -0.800819 0.312174 -0.834771 -0.590759 -0.147364 -0.671845 -0.429937 0.17196 0.559578 0.421203 0.726678 0.285838 -0.63932 0.381995 -0.145391 0.669467 0.690039 0.592776 0.286277 -0.694744 -0.694709 0.657145 -0.190282 0.856701 0.602471 0.554797 0.78616 0.0638002 -0.75871 0.444923 0.497982 -0.652643 -0.181995 0.636122 -0.203856 0.76537 1.06124 0.261589 -0.106855 0.342724 -0.327395 -0.297174 -0.214266 0.0114302 -1.00745 0.639666 -0.307709 0.94316 0.242738 0.90468 -0.816251 0.66737 0.605478 -0.00554665 0.764353 0.0804015 -0.361222 0.431829 -0.82355 -0.126352 0.00764194 0.765501 0.221353 0.911545 0.409521 1.02717 0.513782 0.41566 
0.237444 -0.413558 -0.0752136 1.0024 0.199398 0.67514 0.0168057 0.336093 0.394511 0.644638 0.355165 -0.362998 0.554078 0.596902 -0.704126 0.0311364 -0.339765 0.963591 -0.833151 0.191988 0.387812 -0.761596 -0.935438 -0.58278 -0.982825 0.287504 -0.748549 0.469334 0.231518 0.874413 -0.0714251 -0.3692 -0.596878 0.81814 -0.352946 0.668572 0.50407 0.661659 0.0551433 -0.0729577 0.318378 -0.528159 0.587136 -0.168235 -0.959685 0.886443 0.846 -0.341372 0.759336 -0.950157 0.921201 0.272171 -0.746429 1.04131 0.574777 -0.672723 0.295707 0.815586 0.83638 -0.374026 0.625639 -0.276641 0.15795 -0.915259 -0.390047 0.810309 0.724284 -0.814299 0.47979 -0.257725 0.0724601 -0.341529 0.171522 -0.333726 0.546028 0.1967 -0.485561 0.450682 0.866689 -0.63487 0.462609 0.762522 0.596252 0.809873 0.785174 0.193744 -0.768572 0.0685094 0.0745142 -0.989204 0.685232 -0.161736 -0.211438 -0.111883 -0.172045 0.424108 -0.25462 -0.431354 0.500019 -0.791305 
0.272967 -0.336038 -0.0865363 -0.545599 0.336777 -0.53512 0.651158 0.909461 0.915036 0.492728 -0.697614 0.386823 0.233183 0.913248 0.186384 -0.0363534 0.135742 0.353225 -0.978523 -0.799844 0.366109 0.692894 -0.051524 -0.837895 -0.39066 0.757296 0.553742 0.356937 -0.718505 0.113381 0.56184 0.569355 0.769695 -0.535291 -0.978165 0.114047 -0.0670281 0.672624 0.0269803 -0.150366 0.151148 0.343765 -0.759329 -0.611866 0.249432 0.427565 0.359243 -0.618307 -0.225515 0.384036 -0.412491 -0.849031 0.0710968 0.539491 -0.698248 0.679218 0.29536 0.854057 0.0419351 0.585791 -0.0334676 -0.401922 0.150277 -0.257592 0.0740251 0.163214 0.858166 -0.995087 -0.17087 -0.114624 -0.142936 0.976938 -0.774255 0.0908071 -0.628878 0.467817 -0.482651 0.731457 0.856611 0.291739 0.112395 -0.561727 0.444025 -0.808274 0.98556 0.743763 0.877658 0.282636 0.60527 -0.0785071 -0.131655 -0.415104 0.518115 -0.98217 0.320757 -0.408152 0.176363 0.173515 -0.408465 -0.99598 
-0.936646 0.449769 0.981375 -0.709357 -0.456702 -0.64566 0.760263 0.0605734 -0.912065 0.610191 -0.637741 0.202767 -0.951162 0.805166 0.395796 -0.9713 0.553927 0.275559 0.310042 0.160147 -0.80501 -0.82579 0.737074 0.716257 -0.807673 0.0564796 -0.690933 0.369189 -0.766265 -0.0975842 0.376111 -0.705163 -0.649894 0.356212 -0.415019 -0.105672 0.710599 -0.654686 0.955919 0.798369 0.950165 -0.678658 0.00346369 -0.999232 -0.872186 -0.602829 -0.970535 0.678486 0.670863 0.338502 -0.158341 0.865185 0.514214 -0.421031 0.58446 0.705488 0.63556 0.886671 0.0746907 0.867312 -0.208631 -0.552832 -0.83651 0.140102 0.803192 -0.252448 -0.961199 0.512663 0.0859443 0.998034 0.318632 0.0360263 -0.680293 -0.68596 0.0366173 -0.55201 -0.290274 0.0660941 -0.871379 -0.619146 -0.594637 -0.0317529 -0.752093 0.919015 0.549596 0.831416 0.624289 0.18518 0.719035 -0.298427 0.0505614 -0.490425 0.143625 0.216364 0.653193 -0.0502645 0.962353 0.683794 -0.537147 0.0482715 
0.689527 0.775379 -0.915561 -0.991265 -0.91058 0.121056 -0.544297 -0.199003 -0.812863 -0.415642 0.183398 -0.408257 0.554845 0.431305 -0.489243 0.104435 0.260943 -0.864738 -0.710385 -0.0205504 -0.165544 0.342603 0.489315 0.980803 -0.441029 0.142502 -0.0697195 -0.478701 -0.165738 0.393455 0.569586 -0.476211 0.168834 0.654025 -0.467476 0.258254 -0.224919 -0.0117727 -0.940749 -0.0377828 0.572586 0.242649 0.55396 0.127431 -0.326047 -0.935283 -0.768134 0.934897 -0.800021 -0.478519 -0.0856536 0.0344353 0.864084 -0.596339 0.0152384 -0.576945 0.546163 0.945519 -0.0556458 -0.619575 0.338974 -0.486059 -0.095786 -0.492191 -0.832034 0.436738 0.766063 -0.0569537 -0.575035 0.825314 0.905264 0.997551 0.0679625 0.459223 0.124982 0.741916 0.52394 0.356849 0.676813 0.723919 0.87833 -0.408841 -0.241646 0.742414 -0.00517988 0.773593 -0.83453 -0.459017 0.719112 0.109824 -0.0785922 0.0580858 0.623764 0.825622 0.565894 0.79173 0.26236 0.331957 -0.265224 0.687325 
0.15757 -0.361898 0.686199 -0.772603 -0.901244 -0.192529 0.970214 0.622004 -0.834109 0.642493 0.350906 -0.95402 -0.766198 -0.894779 0.789652 0.232442 0.878175 0.954186 0.776069 0.596855 0.0646246 -0.306239 -0.34476 -0.313075 -0.483052 -0.779285 -0.519807 0.778136 0.554379 0.209837 0.467183 -0.290336 0.853153 0.155029 -0.0628646 0.953551 0.95877 -0.0946654 0.576978 -0.872477 -0.450891 -0.0789083 -0.827233 -0.216063 0.028715 0.959701 -0.987303 -0.0928996 0.912225 0.790659 -0.493694 -0.0243983 -0.525747 0.163873 0.664119 -0.00620043 0.383073 -0.856701 -0.225978 -0.0615195 0.355102 -0.757594 0.649531 0.207483 0.397528 -0.415681 0.159203 0.357109 0.488705 -0.264931 0.485929 -0.96423 0.655361 0.661399 -0.175119 -0.313589 0.622198 -0.166283 0.593544 0.535415 -0.383803 -0.902125 -0.486082 0.0908365 0.262239 -0.822886 -0.912379 -0.35545 -0.681103 -0.138894 0.58115 0.673999 0.102841 0.231514 -0.116523 -0.502508 0.817594 -0.958287 0.854621 0.307745 
-0.231255 0.322214 0.333641 -0.525827 -0.0172599 -0.864131 0.163729 -0.404997 -0.0298555 -0.311365 -0.831964 0.602351 -0.206661 -0.340802 -0.271099 -0.899754 -0.166583 -0.154197 -0.240683 0.134773 0.649945 -0.727006 -0.151188 -0.218575 0.521544 0.705326 0.255898 0.342513 0.769324 0.112212 -0.367611 -0.468133 -0.534063 -0.960125 -0.0106777 0.483769 -0.868149 -0.901988 -0.900064 0.158407 -0.145392 -0.752165 -0.241195 0.667678 -0.0743592 0.488074 0.735668 0.739952 -0.734893 -0.503245 -0.0581433 0.949071 -0.296897 0.793578 -0.308951 -0.706165 0.475031 0.989533 0.619605 0.272462 0.0892131 -0.695066 0.803646 0.528328 -0.697676 -0.251384 -0.0367754 -0.519954 -0.122464 0.0652246 0.639325 0.659466 0.263189 -0.549059 0.406499 -0.814978 0.928667 0.0612124 0.943054 -0.779498 0.494722 -0.142259 -0.86513 -0.763541 -0.343473 -0.13062 -0.472443 -0.894383 -0.174443 -0.866239 0.330995 0.888573 -0.565338 0.138968 0.43112 -0.241683 0.956015 -0.598033 0.207952 -0.186783 
0.409423 -0.136825 -0.492439 -0.201264 0.256703 0.827961 0.0368135 0.159 -0.0651382 -0.222674 0.457484 -0.570323 0.683039 0.58716 -0.260923 -0.608736 -0.468633 0.28705 -0.420655 0.240471 0.364937 0.709106 0.217999 0.938112 -0.0945362 -0.415231 -0.39571 -0.142417 0.0883139 0.821244 0.660679 -0.527545 -0.247343 -0.675577 0.273191 -0.906394 -0.911325 -0.894878 0.353467 0.0563066 0.0715031 -0.223161 0.466354 -0.193837 -0.56652 -0.789622 0.210695 -0.215739 0.349389 0.629558 -0.807165 -0.17686 0.241592 0.413194 -0.475679 -0.605877 -1.03555 0.339678 0.268319 0.0535437 0.100533 0.0836591 0.549518 0.80524 0.346885 -0.279193 0.78143 0.540015 -0.0716271 0.200227 -0.388108 0.823549 0.808152 -0.7635 -0.192857 -0.765764 -0.655518 0.840786 0.143661 0.764442 0.425092 0.215863 -0.569083 -0.210245 -0.286449 0.202535 0.202124 -0.383268 -0.557161 -0.638899 0.589222 0.439627 0.438863 0.237188 0.258361 -0.146923 -0.967615 0.140702 -0.711841 -0.0400983 
-0.883366 -0.10243 -0.101431 -1.0131 -0.0187104 0.5236 -0.600282 0.251157 0.503705 0.142842 0.140348 -0.134725 -0.526687 0.664806 0.639806 0.0821922 0.0415979 -0.203269 0.892203 0.243143 0.199587 0.276806 -0.139903 -0.101214 -0.446121 -0.961163 0.594355 -0.40916 0.236118 0.855421 0.54265 0.424377 -0.129866 -0.415947 0.522452 0.934081 -0.87615 0.602687 0.266497 0.4864 0.0164778 -0.58865 -0.636788 0.60369 -0.824748 0.970113 -0.252763 -0.124982 -0.367059 -0.560844 -0.738327 1.01911 0.616689 0.216097 -0.499841 -0.521756 0.188142 -0.557568 0.12966 -0.596114 -0.776425 -0.114944 1.01469 0.0282408 0.410075 0.366731 -0.136956 0.637556 0.18806 -0.691115 0.133092 -0.886171 -0.529891 0.681611 0.763314 -0.396816 0.46725 -0.429188 0.670857 -0.813567 -0.0821093 0.791877 -1.00306 -0.385576 0.051453 -0.170307 0.177051 -0.753806 0.213709 -0.885307 -0.363012 0.193033 0.0755163 -0.227307 -0.626874 -0.542116 -0.855418 0.413673 0.93483 0.344371 
0.405739 0.0293956 0.525575 0.706065 -0.688367 0.0810113 -0.319859 0.798045 0.542939 0.758231 -0.779962 -0.60685 0.633634 -0.727935 -0.0578239 -0.471235 0.400389 -0.842224 -0.00965006 -0.647273 -0.697009 0.407288 0.803451 0.723329 -0.659785 -0.907482 0.941569 -0.47248 0.444842 0.727185 0.790886 -0.0639966 -0.120243 0.424061 -0.0676561 0.268062 -0.567093 0.265137 0.212991 -1.06824 0.327603 0.488664 -0.692628 0.137079 0.892425 0.228973 0.83711 -0.101873 0.156872 -0.409993 0.254272 0.777809 -0.966705 0.225434 -0.125245 -0.377553 0.31679 0.187623 0.166154 -0.262804 -0.167203 0.257275 1.11187 0.652785 -0.434043 -0.229568 0.0406798 0.128856 -0.758614 -0.644469 0.0288155 0.619725 0.605405 0.539441 -0.393241 0.394931 -0.455652 -0.306499 -0.584248 0.801373 0.0944592 0.52885 0.387283 0.144453 -0.154802 -0.354333 0.913991 -0.931383 0.758704 -0.131829 -0.20613 -0.683239 -0.815508 0.108039 -0.856715 -0.351674 0.805117 0.377439 0.567026 -0.902516 
0.376944 -0.328922 0.744402 -0.358704 0.540909 -0.839551 -0.607753 -0.731696 -0.419588 -1.04072 -0.475657 0.575706 0.592657 0.876408 -0.38645 -0.757991 -0.128592 -0.291251 -0.481224 -0.682023 0.589706 0.175898 -0.129495 1.11677 -0.540363 0.129788 -0.371403 -0.784729 -0.844559 -1.08618 -0.591154 0.477479 -0.27929 -0.764892 -0.482084 -0.630777 -0.780335 -0.35865 -0.0795672 -0.248111 -0.136094 0.38971 -0.523143 -0.26077 0.495781 0.160139 0.195958 0.951773 0.584738 0.497726 -0.721027 0.539916 -0.284886 0.265494 -0.0653548 0.518109 -0.431644 0.885664 0.888375 -0.307039 0.665732 -0.441406 -0.0809942 -0.64279 -0.415779 0.140343 0.208899 0.0305173 0.676855 0.940235 0.823442 -0.24347 0.316396 -0.488956 0.27526 -0.266462 0.364166 -0.304751 -0.437592 0.0418968 0.93079 -0.324302 -0.436861 -0.271944 -0.795405 0.910372 -0.651065 -0.360483 0.587813 -1.02814 0.299338 0.185421 -0.559325 -0.523777 0.607571 -0.104208 0.445133 -0.172303 0.723087 0.357973 
-0.40422 0.673095 1.01096 0.477097 0.485756 0.0624074 -0.449554 0.155378 0.426416 -0.892584 -0.249404 0.313873 0.0500522 0.159639 -1.14791 0.205727 0.363488 -0.59104 -0.806582 -0.315727 -0.428871 0.350563 -1.08607 0.220783 0.977622 0.93454 1.1755 0.263599 -0.678296 0.52618 -0.257944 -0.27778 0.401196 -0.0915665 -0.389447 -0.0529021 0.779954 -0.134707 -0.602982 0.112316 0.326442 -0.0689128 -0.383372 -0.185727 -0.616268 -0.264802 1.19748 0.34404 -0.192261 -0.911133 -0.95802 0.743775 0.363628 -0.770373 -0.719855 0.767727 -0.700846 -0.392448 0.141969 -0.380089 -0.921013 1.19836 1.2344 0.427521 -0.298353 -0.518689 0.0937564 -0.399727 0.110883 0.0141031 0.892311 -0.42389 1.10031 -0.242455 0.158807 -0.494983 -0.0981877 0.574204 0.603336 -1.15531 0.446943 0.509743 0.686812 -0.149936 0.926697 -0.610861 -0.381788 -0.779675 -0.167217 0.428593 -0.318528 -0.0852199 0.463038 0.139416 -0.476649 -1.10901 0.495999 0.43618 -0.542204 -0.132258 
-0.477711 -0.536026 0.422823 -0.960419 -0.413052 -0.576737 -0.11782 -1.13825 0.635544 0.496929 -0.585282 -0.00608859 0.339859 0.848226 0.625803 0.475098 -0.550313 -0.619995 1.03606 0.0791259 -0.852357 -0.376932 -0.940716 0.727475 0.983504 0.154044 0.793335 0.189162 -0.896606 -1.09315 -0.908759 -0.547233 -0.389181 0.661541 -0.0267351 0.216467 -1.19797 0.537416 0.414342 0.496243 0.44553 0.400314 -0.511824 0.272055 0.626393 -0.482519 -0.158527 0.585418 -0.295122 -0.37689 -0.234973 0.186453 0.0189361 0.0516208 -0.639005 0.412178 -0.671707 -0.884092 -0.296878 -0.502933 -0.951453 0.0752781 0.673411 -0.434647 -0.701974 -0.812133 1.56882 -0.77558 0.510198 0.283071 0.949859 -0.00232956 -0.0677338 -0.201703 -0.793656 -0.376596 -0.350573 0.23886 0.973076 0.376999 0.643309 -0.479091 -0.33202 -0.222917 0.729511 0.281982 -0.728668 -0.882337 0.289186 -0.469139 -0.687647 0.305947 0.364145 -0.837527 -0.728246 0.464458 -0.554114 -0.617643 0.863574 -0.920606 
0.941487 0.798866 0.174202 -0.74106 -0.850284 0.448813 0.122928 0.0382274 -0.710767 -0.788443 0.304329 0.862443 0.035604 0.629189 -0.565503 0.112426 0.0432413 -0.128304 0.533726 -0.524799 0.532589 -1.09476 -1.15236 0.083916 -0.581657 -0.470277 -0.141595 -0.513154 -0.429749 -0.620067 -0.516423 -0.58898 -0.516579 0.970607 0.0205088 -0.371165 -0.027308 0.932306 0.953374 0.454218 -0.566956 -0.24533 0.102596 0.982295 -0.245123 1.05533 0.245417 0.302637 -0.254728 -0.358066 0.867947 -0.290743 -0.720525 0.814356 0.424299 0.0104964 -0.478326 -0.95518 0.402374 0.0375713 -0.443308 1.24919 0.984864 -0.16988 0.794198 -0.485789 1.17501 -0.135113 -0.79904 0.454554 -0.346271 -0.285201 -0.584043 1.00594 -0.335525 0.228793 0.509432 0.913492 -0.650663 -0.660972 -0.626566 -1.09823 0.00125403 -0.184815 -1.13582 -0.538776 0.828706 -0.562034 -0.536421 -0.197676 0.0882404 -0.1332 -0.171115 0.119052 -0.575626 -0.379934 0.978784 -1.07633 0.69201 -0.904828 
0.7143 -0.743283 -0.121439 0.508469 -0.951465 0.912453 -0.22227 0.79276 0.454031 -0.341516 -0.102787 0.908231 -0.267445 0.588977 -0.584933 0.134168 -0.972157 -0.546289 0.792537 -0.0255385 0.335285 0.075068 -0.918548 -0.735425 -0.397194 -0.351549 0.217561 -0.717243 -0.665159 -0.166272 -0.825356 1.12945 0.165683 0.617082 0.87108 0.18665 -0.0610307 -0.403747 0.208256 -0.241362 0.347625 0.778118 -0.855381 -0.467854 0.531607 0.246064 0.735285 0.429752 0.496398 0.534155 -0.600385 0.319885 -0.585126 -0.616858 0.607625 0.220916 0.0498602 -0.627034 0.199915 0.356216 0.21862 0.693801 0.724415 -0.772319 0.0935809 0.0911295 0.80926 -0.908934 0.573118 -0.31204 0.305389 -0.0583195 -0.423929 0.242828 0.46132 1.24853 -0.768836 0.169566 0.36253 -1.15047 -0.449697 0.411968 0.0810571 0.118978 -1.12118 -0.620704 -0.751444 0.0869693 -0.151126 0.105565 -0.888323 -1.18809 -0.212127 0.721967 -0.158171 0.928739 0.28519 -1.03068 -0.849863 -0.517051 
0.0607144 0.0103468 0.69898 -0.0115781 -0.669475 0.705049 0.0469907 -0.160694 -0.38758 -0.562539 0.299525 0.427142 -1.10748 -0.913401 -1.01323 -0.604922 -0.659964 -0.461082 0.60215 0.678302 0.777363 0.874577 0.780409 -0.521358 0.992372 -0.377336 -0.309023 0.221244 -0.585154 -0.12733 0.573607 0.725629 0.998184 0.832437 -0.0323365 -0.684667 -0.15161 1.11018 0.257887 0.969034 -0.568718 -0.555335 -0.345025 -0.441121 -0.505872 0.535497 0.043385 0.0313924 0.754294 -0.294465 -0.238462 0.910258 -0.523554 -0.648319 -0.305144 -0.348012 -0.195829 -0.312338 0.403685 0.290717 0.539153 0.172517 0.00240093 0.279345 0.135582 0.519504 0.783388 -1.0019 0.489097 -0.0863461 1.41476 -1.09662 0.470436 -0.351345 -0.426931 1.16246 -1.04138 0.46254 -0.202685 -1.17344 -0.920586 0.150222 0.631433 -0.260931 0.561773 0.77156 0.257065 -0.453998 -0.348638 -0.560029 0.545052 -1.0962 0.726069 -0.573516 0.960913 -0.194905 -0.655577 0.10067 0.00739933 0.32635 
-0.46542 -0.278731 0.616815 0.324214 0.651711 -0.218206 0.0831617 0.853128 -0.804674 -0.627578 -0.785453 -0.216845 0.43568 0.578563 -0.168654 0.54051 0.103831 -0.618147 1.00911 -0.685599 0.127812 0.783496 -0.481 -0.487093 -0.531077 -0.583866 0.562174 -0.0162045 0.477865 -0.230811 -0.798729 1.15017 0.619208 -0.669461 0.708124 0.152326 -0.333077 0.0819226 -0.0554488 0.464665 0.106275 0.381394 0.341903 -0.510209 -0.309604 0.0320727 -0.870318 -0.816659 0.194274 -0.653309 -0.359209 -0.607727 1.16295 -0.0844909 0.347996 -0.295949 0.000594351 -0.729032 0.202318 -0.645201 -0.0535302 0.426218 -0.416598 -0.792671 -0.880993 0.972441 0.510256 -0.334609 -0.179798 -0.449943 1.63548 -1.05774 0.924508 0.268188 -0.336859 -0.161044 -0.823784 -0.371045 -0.311797 0.397548 -0.120693 -0.126232 0.762525 0.096023 -1.20612 -0.51466 0.614037 0.099468 0.0758751 -0.393149 0.370733 -1.22817 -0.850001 -1.17733 -0.221412 -0.743141 1.08449 0.664843 0.156547 -0.716704 
-0.250821 0.0113792 -0.439466 -0.977776 -0.342842 0.738528 -0.618458 0.104645 -0.35317 0.760769 0.032429 1.1212 -0.399764 -0.465391 -0.402797 -0.197048 -0.3332 -0.564861 0.652737 -0.608486 0.401097 0.474617 -0.525799 0.0744367 0.338287 0.0116985 0.500703 0.59622 -0.149402 0.0899453 -1.17563 0.542391 -0.728975 -0.0567029 0.799497 -0.175548 -0.339608 -0.404248 -1.28278 0.709783 0.865449 0.212614 -0.0153472 -0.989946 0.339395 -0.661233 0.081433 -0.46492 -0.369882 0.0829426 0.0700727 0.896735 -0.427905 0.352174 0.423333 0.925126 -0.863396 -0.550412 0.0244548 -0.423706 0.450843 -0.240199 -0.599861 0.456127 -0.959518 1.13149 -0.691414 -0.537033 -0.719524 -0.644344 -0.184183 -0.726555 0.417161 -0.161501 -0.324621 -0.0480925 0.104847 0.414283 0.213698 0.638836 -0.569146 -1.10486 0.532085 -0.0590015 0.205416 -0.639543 -0.478266 0.702154 0.213739 0.295637 -0.621284 -0.633532 -0.861776 -0.27504 -0.427324 -0.760744 0.038646 -0.788141 -0.163174 -0.273566 
0.101102 -0.154972 0.280669 -1.12801 -0.914889 -0.532004 -0.68549 0.516677 -0.54826 1.3977 0.628318 0.424522 -0.690036 -0.0534327 -1.0858 0.826589 -0.153322 -0.452339 0.236839 -0.335937 1.24848 1.20869 0.349921 -1.21477 -0.154495 0.499015 -0.879368 1.00168 1.04191 0.502831 -0.377181 -0.0491803 -0.441448 -0.492511 0.103421 -0.449052 0.13043 0.89504 -1.29047 0.746451 0.693892 0.93454 -0.520193 0.291013 -0.559926 -0.0174273 0.559551 -1.17978 0.427689 0.118385 -0.3023 0.312411 0.497222 0.910532 0.550297 1.21431 0.434832 0.351134 0.771365 -0.135704 -0.27603 -0.683396 -0.7139 -0.0342912 0.0659594 0.496108 0.579707 -1.10066 -0.288505 0.780404 1.29714 -0.321941 0.536192 -1.25688 -0.637175 1.21224 -0.409629 -1.51179 0.875822 -1.22829 -0.324591 -0.735124 0.194083 0.899716 -0.83343 -0.746586 0.742521 0.904622 0.88613 0.203948 0.0403796 -0.697044 0.501293 0.318132 1.01335 -0.321656 -0.0955326 -0.0958922 -0.482284 0.0168129 
0.137463 -0.943517 -1.10066 -0.913782 -0.931102 -0.187008 -1.23942 -0.00137818 -0.0169377 -0.382843 0.174941 1.11281 -0.0278949 -0.794357 0.745315 0.395809 -1.11171 0.383346 -0.0438948 -0.729399 0.0128712 -0.297186 -0.012507 -1.06322 0.810626 -0.594848 -0.355489 -0.294193 0.645239 0.677267 0.540445 -0.513415 1.10163 -0.909294 -0.16951 -0.928208 -0.0209232 0.0540547 -0.419477 1.05188 0.000270202 -0.569894 0.582597 0.17866 -0.735582 0.670303 0.141306 -0.407319 0.0101414 -0.675726 0.166725 0.571721 0.353185 -0.962016 1.01741 -0.234841 -0.447321 -0.502898 0.161955 0.377709 -0.904668 -0.434108 -0.470993 0.761335 -0.154171 0.45434 0.890438 0.697376 -1.21441 0.0728499 1.29738 0.287186 0.335941 -0.119774 -0.27291 0.73257 -0.594672 0.265302 -0.580612 0.156466 -1.12636 0.330962 0.0730828 -0.267181 0.393648 -0.33308 0.215571 -0.868694 0.290554 0.924815 -1.00131 0.00449365 -0.463873 -0.470563 0.519874 0.593377 1.03766 -0.189902 0.0296416 0.348663 
1.3131 -0.344248 -0.342967 0.152309 0.755406 0.787062 -0.656777 -0.518 0.831825 0.701646 1.03455 1.06229 0.112971 -0.0577987 -0.376921 -0.28271 0.132823 0.5679 -0.60713 -0.300613 0.856729 0.212612 -0.896767 -1.15547 0.336818 0.190929 0.432126 0.178998 -0.708562 -0.240786 -0.648508 -0.884321 1.02418 0.466169 0.522107 0.657943 0.231783 -0.780519 -1.49385 0.172282 0.166898 -0.861703 -0.407995 -1.25588 -0.142895 0.36974 -0.0421194 -0.730507 -0.163436 0.634768 0.449861 -0.895973 -0.0531898 0.583517 -0.357396 0.956926 -0.0419514 0.925246 0.0771713 -0.545918 -0.182131 0.20085 0.283793 -0.816444 -0.174891 -0.144895 0.863928 -0.862644 -0.662425 0.978956 0.598256 -0.620881 1.11468 0.306095 -0.701474 0.0289741 -0.465091 -0.68987 0.379237 0.185549 -0.606567 -0.349381 0.793396 -0.00625595 -0.634782 -1.01075 -0.182644 0.404765 0.96897 0.333694 -0.584884 -0.532246 -0.413453 0.739743 0.417728 0.783971 -0.337175 -0.277641 0.394007 -0.199403 
0.150658 -0.452847 0.0602787 -0.0232507 -0.961564 0.267152 0.513061 -0.20376 -0.474592 0.682922 -0.687888 0.184216 -0.485702 0.975135 1.21306 -0.0177003 0.676758 -0.310111 -0.997496 0.672215 1.3442 0.0803133 -0.694127 -0.570128 -0.562508 0.456715 -0.849696 -0.297364 -0.526276 0.570206 0.318694 0.127066 -0.188393 -0.39375 -0.612452 -0.177475 0.773841 0.976532 -0.120793 -0.62769 -0.10814 0.632068 -0.0990688 0.159562 0.500145 0.218582 -0.439255 0.252685 0.735502 -0.233845 0.462142 0.274093 0.722512 -0.985907 -0.676418 0.927033 0.804091 -0.559911 -0.173479 -1.27342 -0.671111 -0.934378 0.317281 -0.822019 -0.515791 0.705591 0.0879404 -0.460333 0.0139878 -0.512977 -0.0625787 0.11076 -0.780952 0.338492 -0.610361 0.803413 -0.613234 -1.07741 -0.0399601 -0.989127 0.0738861 -0.606794 0.824725 -0.262136 -0.354734 0.89458 -0.197354 -0.486005 -0.667847 0.109969 -0.363925 -0.51925 0.0460565 -0.819388 0.278939 1.04518 0.94056 -1.00333 -1.12901 0.0335593 
-0.125504 -0.340436 0.861847 0.0105306 -0.924324 0.647965 -0.631546 -0.386014 -0.592696 0.865203 -0.0789336 0.794914 -0.288804 -0.295652 -0.188396 0.323527 -0.633371 0.276803 0.579057 -0.466664 -0.295082 -0.373041 -0.190387 0.403844 -0.4379 -0.867631 0.1899 -1.08153 -0.652616 -0.190919 -0.180642 -0.345249 1.13465 -0.330045 1.03817 -0.537343 -0.596435 -0.757389 -0.588603 -0.26518 0.498445 0.517513 -0.965232 -0.936981 -0.838397 0.00654042 0.867256 -0.515533 1.08345 0.488607 0.551468 -1.13795 0.982182 -0.346828 0.5185 -0.809575 0.29834 -0.216803 -0.369684 0.210487 1.20342 0.47703 -0.766979 0.33461 0.731155 -0.834952 0.700754 -0.452914 -1.05999 -0.623972 0.068444 -0.351685 -0.873006 0.134075 -0.192584 -0.627702 -1.08941 -1.29975 -0.249037 0.85964 0.509919 -0.693142 -0.670809 0.475171 0.494286 0.697009 1.02451 -0.422394 -0.547457 -0.766852 -0.957195 -0.512266 0.627876 -0.436081 1.04219 0.849923 -0.159037 0.704467 0.585661 -0.0117394 
-0.609759 -0.0746768 0.321152 -0.504243 0.781462 0.144115 -0.273931 -1.10909 0.501512 0.581097 -1.00153 0.241589 -0.390125 -0.688538 0.170623 0.749156 0.905645 -0.138235 -0.722551 -0.897369 0.190985 -0.560895 -0.940034 -0.14462 -0.159215 -0.471774 -0.593091 0.200045 -0.700921 0.538992 -0.819681 -1.0303 -0.177547 0.224495 0.0833605 0.0486116 -0.383997 0.278306 -0.467368 -1.02301 -0.368145 -0.455608 -0.0257903 0.124715 -0.0879911 -0.724743 0.326601 -0.344835 0.0298452 0.468402 0.191609 0.542951 0.904902 0.579922 -0.771204 -0.77778 -0.326092 -0.343858 -0.885088 -0.504544 -0.125254 -0.716165 0.00453479 -0.0229898 0.0750986 0.89916 0.683213 1.28746 -0.0123287 -0.456132 0.905189 -0.228389 0.349934 0.347746 0.978242 -0.722469 0.375659 -0.563167 -0.103875 -0.741964 -0.740498 -0.81319 -0.648237 -0.985739 -0.595022 -0.350521 -0.201035 -0.518887 0.25473 -0.362069 0.130581 1.0257 0.0692883 -0.721569 -0.155087 -0.454447 -0.693872 -0.108644 -1.19139 0.700846 
0.505764 -0.672653 0.961563 -0.140659 0.152742 -0.150412 0.253446 -0.340896 0.652415 -0.961417 0.0395114 -1.08742 -0.0996009 0.442321 -0.606806 -0.4409 0.954524 0.0452243 0.207516 -0.0435741 0.519291 -0.766242 -0.585874 0.0469569 -0.384772 0.687225 0.156901 -0.510584 -0.3515 -0.426193 -0.83476 0.34091 0.0558672 0.873664 -0.153832 -0.475664 0.0156252 0.38643 0.0496213 -0.339586 0.503561 -0.812279 -0.468667 -0.867195 0.665892 0.0223449 0.0692804 0.487392 0.901467 -0.992918 -0.234331 0.32917 -0.661868 0.497489 0.772011 -0.672932 0.734275 -0.213253 0.569763 0.927877 0.885649 0.805346 0.725586 -0.576878 0.510807 -0.618378 -0.513453 0.258212 0.844799 0.922002 0.414088 1.05984 -0.657793 -0.315812 1.3067 -0.969651 0.580608 -0.23758 0.44118 0.603404 0.0967121 -0.554157 0.204226 0.27599 -0.460894 0.101428 -0.763323 0.421049 0.810767 0.696488 0.198718 0.695569 0.957275 -0.0604318 0.687762 0.794999 0.316779 -0.148394 -1.00263 0.562358 
