Network weights:
4
784 100
-0.651479 0.0485624 0.726478 -0.955301 -0.0383384 -0.863461 -0.36569 0.197838 -0.293648 -0.973562 0.461906 -0.404097 -0.0745474 0.884262 -0.951031 -0.164966 0.364366 0.511603 0.636041 0.135421 -0.10006 -0.291974 0.486738 -0.245246 0.999942 -0.266696 -0.00205233 -0.260462 0.16577 -0.669058 -0.405389 0.514291 0.379505 -0.678911 0.55899 -0.658834 -0.542372 -0.8067 0.539004 0.16398 -0.780262 0.000909994 0.759883 0.14519 -0.114828 0.808852 0.980224 -0.750462 0.320455 0.616265 0.384959 -0.779605 -0.675709 -0.128303 -0.0248513 -0.675767 0.605 0.973096 0.0637717 -0.229229 -0.695961 0.658383 -0.714938 0.683544 0.979472 0.844052 -0.97529 -0.5629 -0.962648 0.563714 0.601079 -0.74291 -0.435376 0.360962 0.40228 0.449796 0.169814 0.382504 0.699334 -0.50973 -0.00123053 0.0842927 -0.289335 0.32306 0.955989 0.685813 0.647293 0.56099 0.65891 -0.288935 -0.668239 0.962949 -0.630552 -0.383177 0.646492 -0.65108 -0.539125 0.671202 -0.213981 -0.501773 
0.234916 -0.612902 -0.244683 0.79954 0.74806 -0.842403 0.249336 -0.0821253 0.540101 -0.0513299 0.408144 -0.461129 -0.967037 -0.881191 0.861931 0.988952 0.804623 0.509224 0.549942 0.463532 -0.77971 0.881702 0.426481 -0.410262 -0.501475 0.0729733 -0.0613427 -0.0406001 -0.255824 0.724677 0.457627 0.979092 -0.888225 -0.787056 0.778632 0.859835 -0.62946 0.0279686 -0.22229 0.910642 0.976639 -0.814146 -0.550488 -0.990399 -0.695336 -0.688557 0.998554 -0.890714 0.820667 0.548495 0.572819 -0.959043 0.430198 -0.000700374 -0.369305 0.928723 -0.927727 0.569352 -0.111877 -0.183551 0.294028 -0.65425 -0.204459 0.405803 -0.441307 -0.425827 0.265639 -0.0707663 0.602142 -0.956651 -0.160125 0.57878 -0.770797 0.289387 0.588382 -0.466133 0.60083 0.586935 -0.356847 0.421498 0.135431 -0.784028 0.462455 -0.434372 0.215271 -0.906851 -0.505649 0.287544 0.662501 0.382474 -0.896007 -0.0434704 0.728224 -0.100467 -0.637667 -0.713083 0.473706 0.627972 0.216151 0.075848 
0.671321 -0.943974 -0.345372 0.900524 0.345413 -0.75699 -0.565609 -0.0537562 0.829945 0.0775444 -0.632258 -0.0346243 0.293516 0.830197 0.531004 -0.491213 0.923346 -0.974644 0.796332 0.585847 0.40783 0.900325 -0.457623 0.136054 -0.200142 -0.0952903 0.422971 -0.726436 -0.467318 -0.360878 0.349412 -0.795998 -0.304852 -0.995959 -0.895473 -0.959438 -0.752949 -0.461082 -0.0131945 -0.923004 0.616462 0.354547 0.0423714 -0.0900214 0.184744 -0.426624 0.418766 0.10809 -0.401269 0.215098 -0.306063 -0.993439 0.115422 0.236314 0.142615 0.91528 -0.858977 -0.434414 -0.811155 -0.326295 0.204708 0.538257 -0.122293 0.899856 0.542298 -0.017766 0.940418 0.789348 0.521152 -0.072777 0.866344 0.137615 -0.71823 -0.0912844 -0.952407 0.466514 0.482091 0.466359 -0.425396 -0.919178 -0.318543 0.26854 -0.912617 0.796879 -0.495146 0.229998 0.71216 -0.354123 0.795584 0.901004 0.319582 0.000291781 0.439262 -0.802711 -0.0998523 -0.0184405 0.179523 -0.159435 -0.229092 -0.299325 
0.767789 -0.362748 0.83829 -0.950443 0.545971 0.885852 0.516072 0.028059 0.352213 -0.909324 0.108881 -0.966334 0.359175 0.196265 0.830578 0.864064 -0.573732 0.542738 -0.49013 -0.778133 0.443742 0.829494 0.222138 -0.116969 -0.973181 -0.877714 0.864564 0.206299 -0.0370855 -0.364529 0.907004 -0.269294 0.272675 0.745307 -0.219808 -0.181287 0.63119 -0.703726 0.84675 -0.0165678 -0.613053 -0.0443767 0.0171314 0.746164 -0.848086 -0.152291 0.610282 -0.42184 -0.60955 -0.880008 -0.199993 0.834204 0.949692 -0.977854 -0.282746 0.97654 -0.855567 -0.418283 0.182892 0.107284 0.217188 0.0900022 0.837925 -0.510047 -0.164832 -0.381881 0.308637 -0.533613 -0.0856055 0.15532 0.449818 0.301342 -0.888973 -0.533041 0.0475333 -0.73706 0.314701 -0.342259 -0.158917 0.705109 -0.22208 0.64109 0.539208 -0.272387 0.663311 -0.743512 -0.29584 0.807757 -0.161814 0.886963 -0.0849927 -0.944515 -0.0230576 -0.247128 -0.454567 0.812064 0.371013 0.854075 -0.7215 -0.714583 
0.00955472 0.728276 0.589564 0.118164 -0.804433 -0.375716 0.380605 0.502275 0.28065 -0.708575 0.214941 -0.934831 0.873669 -0.219578 -0.192268 0.522743 0.0190832 0.50149 0.321667 0.85744 0.388709 -0.749644 0.899885 -0.620119 0.00431547 -0.531115 -0.8187 -0.617485 -0.689166 -0.543564 -0.323132 0.316492 -0.769502 -0.749908 -0.564352 -0.642179 -0.120192 0.811439 0.859886 -0.822447 -0.958006 0.103737 -0.755958 0.906085 0.872209 0.0447588 0.456252 -0.130063 -0.456067 -0.243534 -0.274161 0.939448 0.0468447 -0.376091 -0.685966 -0.965503 0.089027 -0.538489 -0.600543 0.376589 -0.0717701 0.0758069 -0.296007 0.110466 0.309464 0.12695 0.490876 -0.81837 -0.0482268 0.390151 -0.641532 -0.014948 -0.509961 -0.387469 -0.148837 -0.649509 0.64945 -0.671417 0.214207 -0.820777 0.100754 0.93776 -0.878089 -0.876637 -0.458396 -0.581879 -0.851136 0.644818 -0.0999856 -0.448935 0.0127421 0.818666 0.645907 0.702148 -0.0595941 -0.0694696 -0.155862 -0.55726 0.134464 0.783005 
0.830331 0.486061 -0.235919 -0.750359 -0.896846 0.577984 -0.351006 0.727558 0.941576 0.970379 0.945507 -0.00910042 0.912286 -0.880613 0.253638 -0.672853 -0.556072 0.357539 -1.04874 0.408096 0.913162 -0.0257136 0.151777 0.653062 -0.261328 -0.807321 -0.52282 0.571415 -0.349367 0.60236 0.358672 -0.53365 0.126279 -0.858014 -0.2148 0.153902 0.725962 0.383861 -0.0721093 0.73797 0.313377 -0.0785045 -0.203293 0.109307 0.00904823 -0.978975 0.524155 0.503954 0.35884 0.542165 -0.0731165 0.304458 -0.388883 -0.859259 -0.169328 0.31813 -0.682411 0.143326 -0.134423 -0.0716219 -0.157211 -0.703351 0.424153 0.947351 -0.682598 -0.838873 0.254336 -1.01857 0.657774 -0.821789 0.73159 -0.106947 0.0808147 -0.414134 -0.96819 -0.913999 -0.48922 0.593015 0.59309 0.845218 0.125979 -0.50975 0.26905 0.7063 -0.326921 -0.970746 -0.00105253 0.0191012 0.334303 0.903324 0.954544 -0.801695 -0.726453 0.325514 -0.795646 -0.552642 0.518779 0.352481 -0.416972 0.116676 
0.552 -0.704051 0.953841 -0.494625 -0.105732 -1.00082 -0.295559 0.451606 0.661707 -0.642689 0.405942 -0.336696 -0.0987995 -0.346418 -0.530106 0.437018 -0.368703 0.507913 -0.575836 0.961259 0.403421 -0.67897 -0.894237 0.653859 0.737379 -0.626319 -1.07381 0.207933 0.791032 -0.471084 -0.709619 0.290647 -0.127338 -0.708292 0.953788 0.700216 -0.681541 -0.343976 0.280982 0.99386 -0.00593356 -0.371661 -0.269705 0.769327 0.296738 0.218185 0.302754 0.907255 -0.320664 0.774915 0.902772 -0.878207 -0.927442 -0.974124 0.65106 0.864801 -0.545411 0.559303 0.0731665 -0.805391 -0.86773 0.448858 0.553729 -0.0114091 0.708739 0.474734 -0.169677 -1.00199 -0.823642 0.987463 -1.0089 0.126658 -0.397798 -0.258808 -0.0605567 0.867831 0.847434 -0.740173 0.801282 -0.434614 -1.01546 0.650889 -0.246017 -0.868142 0.850906 -0.609545 -0.977613 -0.78649 0.995448 0.0824676 -0.540675 -0.807166 -0.496949 0.965008 0.193525 -0.871317 0.497485 0.874029 -0.791235 0.574966 
0.915281 -0.821128 -0.303249 -0.59986 -0.0878753 0.703281 -0.665378 -0.207511 0.999384 -0.85793 0.444677 0.936146 0.832282 -0.845691 -0.861182 0.522494 -0.534985 -0.852593 0.739518 -0.578745 0.23369 -0.837238 -0.401552 0.780535 -0.824594 0.785128 0.882424 0.592945 0.712685 -0.93981 0.188766 0.610978 -0.753878 0.976319 -0.845253 0.175277 0.719397 -0.48589 -0.962339 0.698717 -0.358594 0.459979 0.665646 -0.583128 0.64176 0.801978 -0.977782 -0.894248 0.918546 0.785634 -0.472368 0.164992 0.860365 0.0839457 -0.0999986 -0.903373 -0.0776857 -0.2787 0.700959 -0.334902 -0.16917 -0.0424797 -0.666278 0.0106363 -0.0643571 -0.51884 -0.745735 -0.40504 0.0628573 -0.70707 -0.714568 0.673342 0.737797 0.97254 -0.867481 0.350419 0.682569 -0.875533 0.44694 0.667884 0.882214 0.925899 -0.137629 0.837798 0.290691 0.664656 0.947608 -0.981423 -0.576327 0.630638 -0.281165 0.261294 -0.434975 0.0525872 -0.642189 0.440275 0.590792 -0.509048 -0.890549 -0.45583 
-0.153321 -0.604893 -0.77755 -0.512155 -0.622423 -0.618349 0.879721 -0.904806 -0.424078 0.328928 0.803193 -0.556853 0.276459 -0.353623 -0.681578 -0.642154 -0.701698 -0.730805 -0.575559 -0.268749 0.915832 0.125842 -1.00337 -0.487056 -0.778107 -0.680771 0.951712 0.760524 -0.123015 -0.96353 -0.661319 0.772923 -0.582926 -0.368927 -0.691305 -0.172141 0.0448286 -0.780278 -0.0815102 0.590017 0.554382 -0.248026 -0.956867 -0.206101 0.404229 -0.625413 0.200866 0.705158 -0.361521 0.649291 -0.545947 -0.4633 -0.261425 -0.552505 0.0316405 -0.00245024 -0.232504 -0.0544917 -0.236433 0.676514 -0.000200464 0.240562 0.439042 0.390711 0.747214 0.738115 -0.744995 -0.243211 1.04856 0.237683 -0.665762 0.535963 0.972196 -0.611074 -0.586453 0.351587 -0.307159 0.584669 0.0555223 0.360963 0.206546 0.496269 0.954814 -0.970796 1.22379 -0.10827 0.0245526 -0.234787 0.87349 0.779903 -0.54153 -0.123088 -0.0860556 0.904027 -0.583726 -0.371453 0.678628 -0.475302 0.436698 0.685848 
0.785628 0.778492 0.199779 0.691825 -0.846165 0.546281 0.0823232 -0.0988312 0.197348 -0.837204 -0.70887 -0.61986 0.676137 -0.772009 -0.599192 0.658481 0.140135 0.442565 -0.536028 0.0173316 0.22907 -0.093338 0.90583 -0.85756 -0.170596 -0.781844 -0.210974 -0.506268 -0.225305 -0.782953 -0.857701 -0.396758 0.950774 0.341477 -0.68553 -0.84808 -0.0904435 0.411993 0.0326417 -0.928355 0.577022 0.335061 -0.544659 0.224411 0.565136 -0.116593 -0.0803148 -0.303997 -0.678156 0.380748 0.710784 0.520528 -0.745172 0.646146 0.654197 0.133966 0.83996 -0.542249 0.621341 -0.357494 -0.335367 0.876894 0.218854 -0.389612 0.10354 0.509358 -0.2163 -0.983484 -0.0155465 0.850986 -0.92072 -0.471833 0.175201 -0.463857 0.838684 -0.27081 0.378616 -0.271733 0.434477 0.709108 -0.915259 0.156308 0.296901 -0.577642 0.0537541 -0.0954764 0.52297 -0.320543 0.376372 0.161555 0.319869 -0.946404 -0.0519645 -0.448882 -0.207355 -0.945566 -0.919737 0.458323 -0.915366 0.0772895 
0.304222 -0.840311 0.56764 -0.521444 -0.314454 0.359003 0.199386 -0.899144 -0.895283 -0.354071 0.81795 -0.800209 0.814629 0.0822826 -0.396915 -0.368125 -1.00088 -0.844501 0.319413 0.374246 0.31938 -0.366395 0.427744 -0.744623 0.194921 -0.880698 -0.689087 0.275587 0.583886 -0.613644 -0.693821 -0.0858499 -0.468266 0.867334 0.369602 0.233921 0.226176 -0.41896 0.328993 0.318081 0.221139 0.144266 0.514821 0.0379681 -0.765772 -0.865852 0.674265 -0.776518 -0.719361 -0.0173143 0.596091 0.595756 0.605384 0.0383403 0.851301 -0.179644 0.141483 -0.823939 -0.9 -0.261463 -0.447975 -0.550888 0.638065 0.0745477 -0.730687 -0.00160641 -0.686425 0.497627 0.595427 0.644135 -0.187974 -0.186048 -0.206469 -0.67309 0.876466 0.0223161 -0.54233 0.533113 0.254994 -0.267391 -0.492864 -0.133809 -0.664847 -0.846749 1.00947 -0.820544 -0.0367147 0.0557059 -0.646395 0.0622117 0.800653 -0.0999416 0.469045 0.434943 1.04239 0.735476 -0.558993 -0.69651 0.23047 -0.943555 
0.952829 -0.962339 -0.15087 -0.254921 -0.637419 -0.286933 0.767972 -0.179346 -0.752331 0.0208294 0.55577 -0.23235 0.885374 0.887879 -0.0836808 0.788194 -0.925753 0.883062 -0.148808 -0.573118 -0.0532379 -0.355477 0.331254 -0.590034 -0.91784 0.32771 -0.856166 -0.477414 0.636559 0.372059 -0.444674 0.588358 0.408846 0.406213 -0.667323 0.771881 -0.88408 -0.897923 -0.402629 -0.63541 0.122764 -0.845376 0.130386 0.00651691 -0.957018 -0.954413 -0.205396 -0.88408 0.926058 0.639374 -0.455835 -0.126046 -0.71532 0.875967 0.283286 -0.635045 0.20205 0.428734 -0.11208 -0.164388 -0.201086 0.446554 -0.5775 -0.790188 -0.150496 -0.246579 0.983379 -0.0346524 -0.143531 -0.418396 0.328168 0.978307 -0.262395 -0.540823 -0.0172852 -0.218918 -0.496024 0.77296 -0.101417 -0.567554 0.418199 0.441887 0.30919 0.702039 0.317585 -0.408534 -0.935954 -0.479275 -0.981818 -0.0379852 0.352929 -0.183095 -0.589096 0.777109 0.0276273 0.253804 -0.465664 0.0141291 -0.782379 0.387025 
0.597965 0.545481 0.364689 -0.666139 -0.997889 -0.649205 0.116407 -0.491284 -0.87105 -0.985932 -0.0578417 0.547914 0.45609 -0.751031 0.252897 -0.225698 -0.160601 0.322285 0.293898 -0.142332 -0.719099 -0.353118 0.675247 -0.313665 -0.576363 -0.294006 0.93786 -0.0455541 0.719299 -0.843651 -0.656608 0.316763 0.701305 0.710048 0.651511 0.703509 -0.940744 -0.232745 -0.782937 -0.810066 -0.218033 0.159975 0.736125 -0.762858 0.409303 -0.011482 0.0111732 -0.751643 -0.691923 -0.695886 0.104977 -0.408058 -0.0487769 -0.218292 0.277052 0.375497 0.48507 0.213973 -0.67111 0.201808 0.371603 -0.32549 -0.482191 0.0733353 -0.616145 -0.83137 -0.218144 -0.558045 -0.0647988 -0.000432073 -0.369018 0.716879 -0.839967 -0.632042 0.953113 0.569761 0.35598 -0.0403696 0.818368 0.666365 0.268994 -0.0760293 -0.737961 -0.781887 0.704047 0.53438 0.591956 0.190596 -0.250373 0.924231 -0.607514 -0.878987 -0.398397 -0.087157 0.19513 -0.0160436 0.0824328 0.976962 0.426587 -0.984535 
-0.02302 -0.942205 0.731904 0.136705 -0.574928 0.685481 -0.294098 0.780843 -0.349867 -0.477045 0.447877 0.919327 0.445931 0.706585 -0.860637 0.151125 0.240557 0.736027 -0.658392 0.990711 0.660973 -0.265427 -0.88832 -0.738115 0.6462 0.306545 0.245968 -0.273687 0.284579 -0.326843 -0.257914 -0.738871 -0.269145 -0.526662 0.397972 0.156156 -0.840644 -0.897223 -0.0639038 -0.190374 -0.373156 -0.614897 -0.271137 -0.927109 -0.909908 -0.131531 0.224267 0.332352 -0.396466 0.56574 0.320035 -0.735177 -0.699733 0.432392 -0.47378 0.946657 -0.261082 0.771597 -0.326814 -0.975837 -0.554179 0.414967 -0.716652 0.176846 0.889191 0.681151 -0.666855 -0.951958 0.784804 0.269797 -0.142215 -0.58851 0.655684 0.586945 -0.515755 0.744073 -0.54441 0.709163 0.0749864 0.0589549 0.274323 -0.603974 0.323629 0.574948 0.827298 0.850442 0.521673 -0.433597 0.622968 -0.806911 -0.410332 -0.93115 0.609524 -0.126995 0.245622 0.498989 -0.44698 0.577934 0.547166 -0.662283 
-0.151223 -0.600297 -0.273491 -0.503284 0.989307 0.229648 -0.767953 -0.556525 -0.0744209 0.313705 0.504402 -0.781752 0.723089 -0.165846 0.793601 0.556971 -0.322276 0.315311 -0.897372 -0.686652 0.511211 -0.298189 -0.627532 0.130052 0.572764 0.621835 -0.37739 -0.87837 0.188603 -0.836818 -0.535578 -0.936497 -0.438203 0.246287 -0.461626 -0.448487 -0.539836 -0.204755 0.0118277 0.39692 -0.880166 -0.496944 0.612934 0.827799 0.355403 0.406246 0.372254 -0.976671 -0.276949 0.482087 -0.658482 -0.768793 -0.832251 -0.295644 0.342351 0.747737 -0.679323 0.965141 0.875699 0.510336 -0.869264 -0.595508 0.569346 -0.299754 0.563992 -0.899917 0.257655 -0.984148 -0.0884524 -0.735001 0.407422 0.0168022 -0.221059 0.0216862 -0.135838 -0.875988 -0.581725 -0.788516 -0.863951 0.135322 0.687186 -0.525754 0.366501 0.882055 0.193608 -0.293519 0.656156 0.496391 -0.313685 0.518415 0.0191787 -0.188176 0.862511 -0.422001 0.553814 0.418923 -0.30505 -0.215997 0.436152 0.608642 
0.0387263 -0.16709 -0.439846 0.810331 0.857254 0.45631 0.920717 -0.718361 0.650518 -0.9272 0.426921 0.376468 -0.414883 -0.16967 0.260526 0.796049 0.533963 -0.100201 0.238924 -0.76258 -0.587381 -0.719126 0.0378572 -0.703512 -0.144334 -0.44809 0.707383 0.532664 0.307 0.12819 0.125211 -0.627999 0.969051 0.801791 -0.847751 0.827218 0.210902 -0.884362 -0.828296 -0.130808 -0.779439 0.550584 -0.757066 -0.219811 -0.613217 0.498705 -0.465741 0.903626 -0.599791 0.783431 -0.845376 -0.1799 -1.00039 0.172818 0.0726455 -0.0895394 0.726144 -0.214953 -0.540562 0.023941 0.910174 0.667796 0.395256 0.890017 0.3573 0.538244 0.715685 -0.464085 0.69683 0.831497 0.390234 0.890163 0.394407 0.634327 -0.321742 0.767364 0.112837 0.15757 0.646845 0.518453 -0.0285833 0.796433 -0.676439 0.0605214 -0.0648471 0.398761 1.0634 -0.312999 -0.803695 -0.534536 0.740066 -0.904707 -0.937296 0.110259 1.01203 0.390911 -0.306712 0.755133 0.923102 -0.634616 
0.527987 0.312399 -0.793957 -0.105736 -0.0504975 -0.0823214 -0.312747 -0.939517 -0.89796 -0.616035 0.652384 0.135833 -0.783938 0.957989 -0.814807 0.192966 0.38919 -0.774046 0.891417 0.598312 -0.364588 0.571909 0.685722 -0.254332 -0.299855 0.677076 -0.956174 0.361634 0.361095 -1.00733 0.729122 -0.142591 0.344192 1.00001 0.848323 -0.738375 -0.105844 -0.464071 -0.565869 0.0121717 -0.0564054 0.981707 -0.869049 0.117801 0.99031 -0.702329 -0.667297 0.330226 -0.524562 -0.813476 -0.0441574 0.126382 0.631732 -0.396323 0.81397 -0.583318 -0.729228 0.931119 0.79099 0.670822 0.901814 0.556423 -0.450367 0.22252 0.50852 -0.618434 0.500155 -0.579302 -0.0342059 0.847859 0.432622 0.890694 0.859792 0.535277 -0.01316 0.800898 0.838011 0.23804 0.101691 -0.652585 0.404816 -0.951548 0.477379 0.139245 -0.378392 0.314099 0.618988 -0.0774034 0.194645 0.352915 -0.428994 0.127485 -0.120986 0.0776369 -0.715003 -0.588999 0.490655 0.865769 -0.158175 -0.587281 
0.625482 -0.738258 -0.707256 0.501027 0.82056 0.314355 0.338133 0.656553 -0.418391 -0.475071 -0.827039 -0.922324 -0.453977 0.52391 0.169533 0.122657 -0.137331 -0.233133 -0.894297 -0.92186 -0.946736 -0.361272 0.151813 0.00977584 0.661271 0.499383 0.332429 0.177613 0.312471 -0.832644 0.659592 -0.137922 -0.532674 0.992817 -0.436025 -0.759285 0.318086 0.858665 0.955466 0.906539 -0.656536 -0.98304 0.930775 -0.187 0.639521 0.0612235 1.04364 -0.531453 0.766676 -0.911629 -0.438195 0.804198 -0.431083 0.679637 -0.190176 -0.687508 0.15693 -0.852212 0.506136 -0.493185 -0.682262 0.136396 0.483901 -0.238918 0.0618518 -0.973567 0.025989 -0.523855 0.978382 -0.00950433 -0.609004 -0.76841 0.0938564 -0.738038 0.0436419 -0.316706 0.341505 0.0119292 0.13456 0.155663 0.0276081 0.658247 -0.00657987 0.626943 0.292884 0.751361 0.943159 -0.484833 0.897472 0.421477 -0.0331739 -0.724089 -0.368991 -0.555739 -0.0953999 0.782391 -0.580683 -0.995042 -0.683392 -0.721486 
-0.0254562 -0.356223 -0.419546 -0.924633 -0.0463993 0.636757 -0.235842 -0.67105 -0.35257 0.924367 0.603645 0.696608 0.553577 -0.472268 0.296424 -0.167816 -0.674864 0.231194 0.342804 -0.776077 -0.370606 -0.662497 -0.576411 0.26652 -0.286055 0.414173 0.00230105 0.202592 0.417801 0.250388 0.577509 -0.640368 0.905038 -0.841459 -0.45308 -0.160093 0.790247 0.287621 0.19237 -0.563687 0.175441 -0.25725 -0.897027 -0.307093 0.320392 0.3794 0.594605 0.625933 -0.432129 -0.0710989 0.867112 0.187168 0.167091 -0.723638 -0.524197 0.94523 0.677402 0.455625 0.147111 0.0899414 -0.282901 -0.311685 0.538223 -0.37543 -0.193273 -0.924153 0.463194 -0.332724 0.390454 -0.323215 0.110971 -0.470095 0.469598 0.197051 0.225369 -0.246555 -0.431803 -0.231414 -0.612132 0.161578 0.657995 -0.782895 -0.620735 -0.162048 -0.518747 -0.210546 -0.217037 -0.806295 -0.73155 0.921184 0.278382 0.0164776 -0.307062 -0.166893 0.555763 0.548621 -0.149018 0.053436 -0.739984 -0.802065 
0.754381 0.318503 -0.235748 0.199473 -0.482528 0.984285 0.949343 0.11197 -0.232579 -0.679071 -0.718743 -0.579199 -0.465434 -0.342266 0.265991 0.0334916 0.477863 -0.951444 0.212562 0.731476 0.986838 -0.51861 -0.280255 -0.352153 0.301586 -0.686433 -0.81699 -0.820136 0.370782 -0.609467 -0.575999 0.127072 0.711347 0.192412 -0.678638 -0.784313 0.162173 -0.722313 0.340639 0.954687 -0.40289 0.612465 -0.638233 0.132062 -0.717273 0.627331 -0.833172 0.755762 0.668418 0.374261 0.497481 0.669761 0.851821 -0.782238 -0.697533 0.163342 -0.462743 -0.512308 0.343873 0.890514 -0.116007 0.771759 0.0178486 -0.415323 -0.0403014 0.342948 -0.194807 -0.856306 0.611044 -0.850723 -0.912386 -0.785965 0.773751 -0.55353 0.345127 -0.94339 -0.926001 0.495251 0.812741 0.747125 -0.122694 0.305708 0.411146 -0.266022 0.525512 0.707683 0.89288 -0.947305 -0.788835 0.246493 0.951233 0.0719053 0.0459367 -0.0311269 0.657007 0.975576 -0.683511 -0.536377 -0.876397 0.927053 
-0.387304 -0.783659 -0.861547 -0.617894 -0.350514 0.444868 -0.55979 -0.281965 -0.0170137 -0.854871 -0.533956 0.867591 0.576686 0.874097 -0.418246 0.122105 0.659025 -0.497011 0.18101 0.784093 0.81207 0.0269419 -0.138649 -0.230855 -0.957716 -0.480874 -0.246783 -0.638459 -0.0159324 -0.11073 -0.706363 0.601857 0.0832263 -0.565186 0.937193 0.705743 0.892324 -0.581637 -0.566748 -0.022234 -0.328237 -0.115146 -0.218312 -0.730064 -0.215173 0.383666 0.330636 -0.642211 0.876358 -0.527964 -0.838211 0.620145 0.520889 0.0207879 -0.601168 0.618887 0.486298 0.171901 0.984244 -0.516961 -0.993917 -0.719578 -0.88691 0.0933485 -0.323348 -0.909335 -0.198801 -0.299404 -0.502216 0.254274 0.640144 0.171507 -0.827365 -0.692599 0.420187 -0.0522387 0.683823 -0.236975 0.314009 0.550788 0.208862 0.476206 0.189955 -0.184999 -0.548798 0.604525 -0.605268 -0.96284 -0.231397 -0.648598 -0.435758 -0.212387 -0.314426 -0.329595 0.841404 0.3545 -0.235564 -0.347163 0.989795 0.270732 
0.896563 0.548671 -0.553252 -0.954821 0.87737 0.853769 -0.00782718 0.521828 -0.31289 -0.727953 0.0898761 0.83157 0.798961 -0.7412 -0.414054 -0.688451 0.890642 -0.00821493 -0.633924 -0.418863 0.402642 -0.138915 0.348691 -0.97092 0.549065 0.150137 0.401481 -0.680383 0.825088 0.409062 0.598031 0.713685 -0.0462163 -0.94761 0.740693 -0.219563 0.882664 -0.229944 -0.722758 -0.422802 0.0985963 0.355411 -0.624869 -0.0768815 0.644211 -0.0129371 0.221094 0.482863 1.00323 0.545593 -0.923119 0.343005 -0.599654 0.415421 0.387567 -0.954025 -0.442869 -0.194993 -0.671633 -0.613073 -0.836247 0.94566 -0.895666 0.0849839 0.972505 0.880298 0.83363 0.954424 -0.352591 -0.852539 -0.484952 0.750893 0.522502 -0.175934 -0.365311 0.147247 0.808148 0.861898 -0.356891 0.766013 0.403016 -0.284542 0.108766 0.868028 -0.866561 -0.508972 0.858774 -0.252661 0.263528 -0.821095 0.112628 0.46753 -0.836466 0.233575 -0.462771 -0.884093 0.125051 -0.63829 -0.969653 0.767246 
-0.482098 -0.499779 0.506044 -0.970499 0.324388 -0.844568 0.176367 0.118399 -0.990427 0.809751 -0.111455 0.403542 -0.469056 0.9977 0.244826 -0.333877 -0.52059 0.101655 0.38549 0.731139 0.297205 -0.495329 0.151043 0.437693 0.733315 0.660305 0.569012 -0.158572 -0.963129 0.612339 -0.396044 -0.445722 -0.887225 -0.887684 -0.419653 0.436836 -0.733951 0.758733 -0.442792 -0.726486 0.573272 0.446377 0.676554 -0.894231 0.445148 -0.077753 -0.22953 0.924505 -0.974595 -0.84514 0.657263 0.324294 -0.353672 -0.193833 -0.238878 -0.610611 -0.530471 -0.664725 0.233134 -0.496691 0.94146 0.83959 0.0564469 -0.947227 0.948518 0.638787 0.489282 -0.784329 0.399058 -0.951083 -0.510547 -0.0283631 0.496298 -0.834933 0.0763927 -0.0585415 0.0867102 0.846618 -0.133987 0.111278 -0.999872 -0.477881 -0.565035 -0.343911 0.328608 0.195712 0.0455884 0.796902 0.526029 -0.721688 -0.699196 0.466183 -0.884347 0.357492 0.524361 -0.936547 -0.00510382 0.0102957 -0.720967 -0.603345 
0.0592891 -0.232349 0.364286 -0.444396 -0.0669712 -0.559376 0.496984 -0.97936 -0.712755 -0.63716 0.132141 -0.712992 -0.11497 0.567276 -0.0564263 -0.786807 -0.23625 0.989165 -0.990028 -0.711031 -0.733083 -0.689299 0.755357 -0.617863 0.667863 0.275251 -0.55456 -0.336225 -0.714353 -0.275737 0.0572103 0.344936 0.491914 -0.578572 0.900544 -0.575207 -0.137875 0.397605 -0.554479 0.149362 0.760637 0.577456 0.436741 -0.354323 0.14494 -0.619684 -0.141155 0.908662 -0.630519 -0.131342 -0.802405 -0.363161 0.179632 0.952954 0.0189642 -0.152409 0.228327 0.464362 0.511499 0.513951 -0.811368 -0.431424 -0.141304 0.680662 -0.00992762 -0.240573 -0.894532 0.852188 -0.843053 -0.449048 0.00173324 0.917675 -0.871449 -0.561647 -0.436826 0.273579 -0.181509 0.422226 0.182241 0.188088 -0.708782 0.379837 0.82472 0.470946 0.332774 -0.156126 -0.681463 -0.438906 -0.691717 0.829897 -0.924942 -0.503166 -0.601522 -0.0655539 -0.822574 0.38859 0.693474 -0.717111 0.240744 0.850492 
-0.166127 -0.757702 0.768062 -0.0374871 -0.319399 -0.668588 -0.763949 0.499223 0.75364 0.418238 -0.312711 -0.955328 -0.201837 -0.487794 0.515801 -0.869041 0.356097 0.834339 -0.308017 0.664344 0.664025 -0.232917 -0.838799 -0.937274 0.701035 -0.661427 0.451283 0.394395 -0.378488 -0.307987 0.244788 0.455385 -0.0656891 0.0128161 -0.5821 0.614837 0.344265 -0.34601 0.114104 0.0979008 -0.927677 0.80129 0.142758 -0.129509 -0.6864 -0.341441 0.00143832 0.669683 -0.507102 0.693341 0.334009 -0.842857 -0.539439 0.49521 -0.780138 -0.838356 0.833844 0.671124 0.556106 -0.544656 -0.636859 -0.199172 0.910635 0.29751 0.813678 -0.671373 -0.0876461 0.157939 -0.0174249 -0.973561 -0.744068 0.0549447 0.827801 0.398627 0.925348 -0.858555 -0.942902 -0.0731106 0.811128 -0.449946 -0.379602 0.145136 -0.292907 0.0810076 -0.359662 -0.0729486 0.242652 -0.525822 -0.4018 -0.201311 -0.070471 -0.0386995 0.599519 -0.159492 -0.741224 0.413217 0.168937 0.171127 -0.428862 -0.848454 
0.197582 -0.173021 0.206439 0.0254277 -0.774422 0.131874 0.166873 -0.717265 -0.941236 -0.0219995 -0.16721 -0.320838 -0.876863 0.539983 0.76017 -0.236517 -0.532965 0.00282159 0.237662 0.0652143 0.801513 -0.832816 -0.973465 0.401032 0.00743647 -0.714691 -0.185771 -0.823684 0.456436 0.385366 -0.672186 -0.345982 -0.787654 0.534252 0.679446 -0.562076 -0.333873 -0.153681 -0.279341 -0.27511 0.824319 0.553449 0.404052 0.947456 0.0934318 0.164222 -0.289061 0.560467 -0.832957 0.948601 -0.374319 0.968556 -0.884215 -0.347784 0.369588 0.123222 -0.0624753 -0.816184 0.299538 -0.606039 0.569182 0.627351 0.0479786 0.781528 0.161604 -0.272576 -0.780548 0.82773 0.573743 -0.0598895 -0.447379 0.398062 -0.506441 0.956672 0.345518 0.586991 0.120894 -0.943543 0.147457 0.287937 -0.994942 0.773138 0.256493 -0.879157 -0.574646 -0.373919 0.244065 0.362879 -0.190103 -0.456397 0.75684 -0.62092 -0.829046 -0.195182 -0.839392 0.332558 0.532243 -0.61994 0.160288 0.105986 
0.32017 0.712908 -0.495952 0.813729 0.669581 0.849565 0.40072 -0.209525 0.906022 -0.451822 -0.921588 0.91108 -0.678684 0.334906 -0.968077 -0.25333 0.960987 0.275988 -0.890451 -0.229116 0.819591 0.866388 0.149964 0.990545 -0.328793 0.310572 0.323102 -0.796551 0.690632 -0.51661 0.309435 0.010802 -0.803701 0.813482 -0.175469 0.86588 0.663048 -0.774748 -0.343645 0.56907 -0.226571 -0.265233 0.480151 0.0947449 -0.930327 0.512074 0.841415 -0.96934 -0.211938 0.950964 -0.198455 -0.392347 0.817352 0.951508 -0.401802 -0.511441 0.26208 0.921301 -0.307992 -0.0472881 -0.595309 -0.998557 0.963514 -0.39901 0.814926 -0.211955 -0.53313 0.477973 0.0132967 0.123225 0.0470437 0.786726 0.857992 -0.472806 -0.118529 0.927666 -0.960732 -0.277114 0.958326 -0.172669 -0.32615 -0.24013 0.434984 -0.508798 -0.288621 -0.966818 -0.0202391 0.973459 0.954483 0.671769 -0.0738291 -0.640826 0.673212 -0.110315 -0.0398364 0.488138 0.67773 0.427033 -0.0338885 -0.308973 
-0.449742 -0.986845 -0.522247 -0.59175 -0.45965 0.359223 -0.664084 -0.420382 -0.917891 -0.705758 0.406949 -0.244041 0.0541124 -0.158067 0.24716 0.765491 -0.124885 -0.773079 0.73895 -0.170403 0.89869 -0.334879 0.188771 0.571903 0.554806 -0.851066 0.0600409 0.232536 0.575968 -0.973848 0.923562 -0.873774 -0.960692 -0.598685 -0.465524 -0.420343 0.760538 -0.129607 0.159275 0.842647 0.164635 -0.433776 -0.401394 -0.781253 0.408156 0.845766 0.984238 -0.716729 -0.927313 0.723188 0.112868 0.971378 -0.61169 -0.698361 0.543281 0.943116 -0.549426 -0.396678 0.175651 -0.973459 -0.370526 0.0992138 -0.847233 -0.331219 0.500529 -0.312756 0.248439 0.261067 0.557636 -0.592286 0.103714 -0.277729 -0.0260626 0.70232 -0.0589822 -0.617906 0.548086 -0.074744 -0.334635 0.620774 -0.351556 0.778233 0.592152 0.0367541 -0.920128 0.135432 -0.0201303 -0.469554 0.738754 -0.844479 -0.443013 -0.631772 0.254735 -0.290245 0.0370091 -0.244736 0.396999 -0.714552 -0.983669 -0.045365 
-0.306839 0.120045 0.676906 0.667099 -0.177635 -0.382076 -0.950807 -0.629549 0.54318 -0.285443 0.991225 -0.808376 -0.50721 0.583377 0.228378 -0.427337 -0.281191 -0.791752 0.103108 -0.542437 -0.636231 0.660096 -0.17421 0.618504 -0.63015 0.862799 -0.626232 0.766849 -0.851753 -0.609902 -0.278516 -0.158591 0.510143 -0.60161 -0.491493 -0.667491 0.0163133 -0.4423 -0.29704 -0.440507 0.272257 -0.305815 -0.248883 0.765048 -0.722438 0.979496 -0.66229 -0.0036292 -0.812256 0.440819 0.453934 -0.448487 0.100914 -0.720276 -0.829983 0.470765 -0.857477 -0.456215 0.237613 -0.70923 -0.0661166 0.959097 0.132179 -0.555973 -0.642513 0.640686 -0.223465 0.3738 -0.801614 0.479495 0.933293 0.470644 -0.82632 -0.31559 0.235691 -0.548758 -0.336094 0.573402 0.447613 -0.14835 0.0142205 -0.0984536 0.403163 -0.884865 0.18127 0.57318 0.585899 0.323794 -0.883035 -0.176487 0.614564 0.0508479 -0.21739 -0.253257 0.494875 0.140096 -0.612571 -0.72859 -0.486104 -0.414184 
0.750859 -0.552848 -0.943265 0.924375 0.131625 0.291822 -0.624022 0.795506 -0.134483 0.823499 -0.352915 0.879776 -0.274883 -0.949641 0.994996 0.906009 0.623322 0.580791 0.230118 0.740438 -0.59565 -0.15529 -0.2087 0.186954 0.591355 -0.713776 -0.672943 0.978785 -0.442507 -0.159107 -0.435398 -0.691432 0.288049 -0.378929 -0.766859 -0.580281 0.913286 -0.391086 -0.78479 -0.221217 -0.567448 -0.137619 -0.341467 0.157344 -0.0873807 -0.346408 0.0637263 -0.463829 -0.765749 -0.706246 -0.723417 -0.361398 0.138264 0.0678298 0.8255 -0.270263 0.354121 -0.847979 -0.291596 0.911904 -0.00653972 0.272913 -0.779732 -0.71846 0.894165 -0.546434 -0.298689 0.807292 0.062297 -0.0835715 -0.414037 0.494577 0.778827 0.244602 -0.348022 -0.308453 0.898028 0.715518 0.227853 -0.867694 -0.990876 0.504383 -0.229102 0.147422 -0.427701 -0.403586 0.877188 0.926455 -0.251091 -0.414524 0.838089 0.742282 0.858919 -0.941592 -0.976056 0.752408 -0.488245 -0.274803 0.559826 0.574026 
0.642145 -0.855777 0.0753706 0.41261 0.390671 0.714671 -0.881201 0.283778 0.435202 0.342954 0.419098 0.445386 -0.155358 -0.809156 -0.405313 0.417782 -0.215085 -0.528581 0.345455 0.5347 0.0551036 0.18747 0.278682 -0.0866218 0.238401 0.302698 -0.33345 0.750301 -0.970825 -0.773547 0.324198 0.671672 -0.630504 -0.605313 0.0940847 0.762867 -0.883002 0.202624 0.0497541 0.55291 -0.454391 -0.527845 -0.00207831 0.384778 -0.339575 0.591504 -0.193916 0.450372 -0.945623 -0.849605 -0.010217 0.109549 0.334464 -0.736157 -0.970846 -0.43262 0.575607 -0.315518 -0.683643 0.607521 -0.0806463 0.639853 0.268057 0.293286 -0.959444 -0.64415 0.0568851 -0.846835 0.56381 -0.898431 0.695818 -0.894336 -0.424289 -0.300259 0.493342 0.242323 -0.715359 -0.706359 -0.305446 -0.652411 -0.558035 0.678685 0.458697 0.770419 0.947631 0.483281 -0.659292 0.520019 -0.824422 -0.341737 0.112933 0.0999777 -0.692562 -0.61497 -0.614353 -0.66261 -0.254529 0.44165 -0.506992 -0.696947 
0.549622 -0.818034 -0.580418 -0.888197 -0.100498 0.905455 0.40149 0.142388 -0.81203 -0.92766 0.512947 -0.370286 0.702922 -0.034835 -0.589857 0.663242 -0.539733 -0.247484 0.20493 -0.344328 0.395748 -0.672478 0.758474 0.712366 -0.307571 -0.867176 -0.95666 0.416591 0.582436 -0.482945 0.743746 0.131936 -0.269835 -0.865125 0.261071 0.623728 -0.893599 -0.404515 -0.216842 -0.714539 -0.331545 -0.672984 -0.0747621 -0.635369 0.318126 0.330428 -0.93693 0.78663 -0.958017 0.26387 -0.547205 0.456684 0.589861 -0.821988 0.183556 -0.756161 -0.644672 0.205398 0.688366 0.96185 0.747914 0.423192 0.0182248 -0.504926 0.610035 -0.749505 -0.891675 0.676507 -0.0894828 -0.0788098 0.896 0.559873 0.258026 -0.157555 0.944788 -0.424993 -0.818323 0.995676 -0.659279 -0.747571 0.297545 -0.204764 0.726386 -0.164709 -0.0125266 -0.126035 0.0667937 0.305955 -0.893691 -0.234773 0.201554 0.907377 -0.772629 -0.746954 -0.644319 0.847119 -0.475818 -0.523711 0.490172 0.374801 
0.38359 0.416085 -0.0682882 -0.370372 -0.706066 -0.114252 0.205459 -0.627888 -0.177031 0.559252 -0.300149 -0.87271 -0.682765 -0.589668 -0.0267672 0.340717 0.275756 -0.931643 -0.412789 0.438502 -0.185798 0.81278 0.2941 0.109465 -0.96326 0.704993 -0.161867 -0.416179 -0.87033 -0.664104 0.991183 0.517863 0.799253 -0.0491607 -0.835232 -1.02401 0.828647 0.290721 -0.543905 -0.238269 -0.227185 0.106596 -0.100656 0.0992503 0.52907 0.894193 -0.558782 -0.171973 0.877316 -0.00528664 -0.789279 -0.271421 -0.130735 0.534358 0.839258 -0.155061 0.189974 -0.412902 0.422025 0.349485 -0.0235682 0.471264 -0.167966 -0.295784 -0.61713 -0.0968401 -0.193614 -0.79877 -0.779464 0.232336 -0.064944 0.0498177 -0.629228 0.899884 -0.763336 0.887053 0.764445 -0.416567 -0.283344 0.772091 0.654391 -0.00908299 -0.514166 -0.628684 -0.440511 -0.65097 0.233264 0.694083 -0.100043 -0.362906 -0.0483295 0.940992 -0.831111 0.778096 -0.321412 -0.4619 -0.290381 0.383166 -0.226585 -0.0654247 
-0.394007 0.70636 -1.05055 0.00744944 0.66788 -0.83933 -0.00904957 0.358503 -0.345041 0.62714 0.218527 -0.596578 -0.356701 0.676806 -0.112871 0.155074 0.909414 -0.879369 -0.298092 -0.16479 -0.173275 0.689713 -0.27582 0.149654 0.55472 0.461744 0.399889 -0.781302 -0.1676 -0.787302 0.20228 0.506125 0.955711 0.131621 -0.507867 0.477233 0.424591 0.235346 -0.132547 -0.774498 -0.0450501 -0.957074 -0.534902 0.460237 0.69093 0.409982 -0.374788 0.714879 0.449768 0.347777 -0.350468 -0.670584 0.187103 0.372335 0.418397 -0.413629 -0.245745 -0.385404 -0.110774 0.624101 -0.0340237 -0.952937 0.076391 -0.160505 0.271518 0.415316 -0.582631 -0.423911 -0.204336 0.355132 -0.286874 0.633657 0.494671 0.373139 0.2417 0.329039 -0.206743 0.721659 0.0451448 -0.666273 0.0760738 0.765495 -0.287749 -0.846747 0.143526 0.951501 -0.34163 0.863662 -0.297284 0.473218 0.46383 0.720955 0.860971 -0.502614 -0.448479 -0.0624252 0.929604 -0.111614 0.673308 -0.332525 
-0.877249 -0.57993 -0.794165 0.697351 0.938749 0.47276 0.0354645 -0.499323 0.262411 -0.80189 0.0194224 -0.627523 0.960979 0.648993 -0.414769 0.0035119 0.638093 0.333211 -0.104805 -0.711704 -0.00554757 -0.689356 0.809432 -0.346471 -0.0922909 -0.502335 0.318646 -0.253656 0.482396 0.110165 0.436266 0.548449 0.614451 0.642975 0.450369 0.360814 0.212842 -0.595848 -1.05874 -0.398822 -0.137863 -0.0733845 -0.281312 -0.30441 -0.313078 0.271049 0.871389 -0.66091 -0.560236 -0.160681 -0.37139 0.343472 0.0126399 -0.513143 -0.718674 0.899439 0.0638744 0.481584 -0.169742 -0.583939 -0.191266 -0.910744 0.898345 -0.595158 -0.949311 0.24466 0.903607 0.308297 0.863488 0.911238 0.870015 -0.440291 -0.00245001 -0.351831 0.518519 0.78899 -0.935442 0.151461 -0.784498 -0.398229 0.766238 -0.277742 -0.875916 -0.1264 0.235559 -0.755359 -0.280001 -0.9086 0.807978 0.600501 -0.490414 -0.20173 0.951998 -0.612009 0.17795 0.813433 0.538794 -0.15609 0.34899 0.301876 
-0.0984919 0.197122 -0.980248 0.893865 1.10489 0.420462 0.582161 0.867993 -0.44954 0.686445 -0.428625 -0.597913 -0.674446 -0.345536 0.293128 0.541021 -0.328016 -0.91501 0.779798 -0.514673 0.711883 -0.798238 0.0299398 0.468569 -0.349659 -0.808411 0.372597 -0.852537 0.367464 -0.25231 0.645718 -0.853248 0.92111 0.732841 -0.835195 0.889354 0.107729 0.742427 0.699798 0.771861 0.589893 -0.656789 -0.916916 0.920755 0.0405754 0.272495 0.595256 0.782237 0.213195 0.354017 -0.629439 -0.232616 0.397528 0.436758 -0.237678 -0.987706 0.750789 0.690669 -0.665065 0.013655 -0.359358 0.909895 0.144288 -0.389598 0.728557 0.234047 -0.423273 -0.128801 0.288804 -0.566614 -0.359153 -0.387292 -0.102025 -0.339396 -0.356908 1.00235 -0.930255 -0.867948 0.960859 0.332643 0.286714 -0.863729 -0.691384 -0.160644 0.631835 -0.200709 -0.194699 0.282906 -0.46374 0.131408 -0.714671 0.336656 0.111626 0.363565 1.01991 -0.212087 -0.465746 -0.663347 0.828478 0.693586 
0.00870522 -0.480007 -0.698768 0.925913 0.505189 -0.0318838 0.886161 0.318345 0.193467 0.713834 -0.139874 -0.609726 0.779915 0.0825997 0.195967 0.268587 0.800944 -0.934677 -0.287072 -0.686691 0.291788 -0.080734 0.619711 -0.713875 -0.667257 0.622522 0.242386 -0.215001 -0.694989 0.0667268 -0.448967 0.157909 0.532047 0.0501352 0.201951 0.0302666 0.868414 -0.00713157 -0.745372 -0.0940018 -0.227639 0.163738 0.367107 -0.469271 -0.685922 -0.445838 1.0405 -0.885247 -0.549602 -0.245067 -0.486955 0.605133 0.574596 -0.882631 -0.671283 0.854437 0.871231 0.19494 -0.206217 1.03335 -0.572377 0.429124 0.166037 -0.951244 -0.647398 -0.812927 0.0990476 -0.762712 0.510202 0.535637 0.0593793 -0.945317 -0.292102 -0.457652 -0.295674 0.103499 0.101436 -0.443489 0.316292 0.74386 0.252535 0.717255 0.53317 -0.0971973 1.09285 0.55967 -0.288299 0.799684 -0.118274 0.522539 0.623153 0.399226 -0.0183642 -0.110599 0.621797 0.289918 0.0667464 -0.52646 0.663244 -0.645272 
-0.883858 0.0617223 -0.718201 -0.0642702 0.629716 0.192488 0.890601 -0.38438 0.611325 0.106049 -0.630274 -0.204299 -0.207492 0.930653 0.443507 -0.387047 0.59932 -0.469201 -0.4518 -0.679166 1.03489 -0.962889 0.782384 -0.204863 -0.0466077 0.3505 -0.687301 0.838947 0.970154 0.954296 -0.888067 -0.93411 -0.234789 -0.330025 -0.0509766 -0.500076 0.532277 -0.30738 0.0430634 0.0351573 0.90461 0.530727 0.875186 -0.484598 0.456517 0.672377 0.349508 -0.0280824 0.875361 1.04151 0.196933 0.807145 0.807548 0.18218 -0.115203 -0.336156 -0.3598 0.0511824 -0.457724 -0.396641 0.0398698 -0.261852 -0.590133 0.974085 0.316099 0.305161 -0.485835 -0.281783 -0.555226 0.672329 0.92174 -0.806074 0.170432 0.695078 -0.234354 -0.262946 0.215233 -1.16302 0.854671 0.2641 0.673095 0.222758 0.279879 0.633557 -0.231642 -0.864059 -0.868167 0.0529796 0.030977 -0.327665 0.538539 -0.689033 0.710207 1.01685 -0.697851 0.0561012 0.290931 -0.560915 0.987146 0.36502 
-0.757843 0.965568 0.36467 0.391485 0.70626 -0.692315 -0.951002 -0.0808028 -0.756727 0.93799 -0.66002 -0.93653 -0.126291 0.608923 0.423544 0.371017 0.552468 0.880936 -0.3728 -0.315972 -0.368331 0.901105 -0.0806266 -0.894272 0.936223 0.180022 0.127812 0.120939 0.920928 0.0611858 -0.406069 1.01766 -0.0738879 -0.833936 0.502688 -0.407308 -0.415962 0.285721 0.634956 -0.292854 0.207711 -1.07385 -0.248106 -0.957029 0.588758 -0.553322 0.641301 0.230161 -1.0654 1.11394 -1.07759 -0.598621 0.914413 -0.0902725 -0.193009 0.720265 -0.75851 0.817654 -0.0714482 -0.831129 0.0992303 0.539508 0.905725 -1.01768 0.906331 0.321764 -0.139861 -0.672215 -0.0436665 -0.561426 0.267826 0.997018 -0.418817 -0.946138 -0.906137 -0.725944 -0.862126 0.518302 0.740045 -0.626686 0.519647 0.467831 0.0331659 0.540933 -0.257731 0.945685 -0.0189939 -0.170616 0.81816 -1.02042 -0.301092 0.0152301 0.914655 -0.303796 -0.0572096 0.882468 -1.02394 0.579347 -0.690178 -0.328616 
-0.876336 0.529704 -0.34007 -0.197863 0.622949 -0.218347 -0.0884726 0.807572 -0.565691 -0.361036 -0.631976 -0.908055 0.779892 0.401675 0.429107 -0.677138 0.103383 -0.393856 0.16291 -0.0682796 -0.0828852 0.849535 0.726891 -0.18844 -0.451621 -0.220851 -0.388485 -0.589417 -0.322984 -0.102314 0.217772 -0.272022 -0.543309 -1.00313 0.588137 -0.91428 0.0295947 -0.68647 -1.02792 0.34011 -0.104514 -0.76323 0.448979 -0.374051 0.5681 -0.0917187 -0.00175974 -0.196843 0.504108 -0.879125 0.795008 -0.795371 0.898457 0.5769 0.247 -0.636691 -0.428008 0.644385 -0.184556 0.184546 -0.162024 -0.836082 0.66143 0.382901 -0.65125 0.161401 0.591892 0.289984 0.855163 0.564811 -0.262285 -0.601148 0.892376 -0.861633 -0.0348595 0.651294 -0.124365 0.90675 -0.356229 -0.304283 -0.925114 -0.741075 0.0449164 1.01005 1.1228 -0.512663 -1.01535 -0.619508 -0.826901 0.231961 0.192325 0.207254 0.488386 -0.066719 -0.52798 0.835229 -0.901371 0.928213 0.130509 0.488756 
0.426161 0.849916 0.878146 0.434799 -0.862879 -0.0661509 0.0261804 0.092803 -0.182533 0.610021 0.905447 -0.0614674 0.697375 0.0542327 -0.274146 0.601694 0.270625 0.112008 0.858321 0.595997 -0.619415 0.219745 -0.429979 0.904735 -0.866625 0.0792999 0.677262 -0.806603 0.17143 -0.187449 0.768863 -0.449889 -0.288378 0.781876 -0.945891 -0.294242 -0.236234 0.00915941 -1.0952 0.63278 -0.304449 0.770777 -0.47589 -0.677945 -0.176548 0.497152 0.940617 -0.684234 -0.451063 0.929607 0.773506 -0.262487 0.126936 -0.597748 -0.168835 0.214473 0.515827 -0.616205 0.403117 -0.327376 0.438055 0.266712 0.142407 -0.818002 0.158566 0.130183 -0.0395621 0.927693 -0.568599 -0.0239879 0.588841 -0.227743 -0.132985 -0.921593 0.0934988 0.675526 0.537337 0.0875593 0.981865 -0.806386 -0.0176783 0.68511 0.17751 -0.969286 -0.862229 1.03976 -0.0433064 0.566831 -0.499808 -0.316912 -0.933668 1.00312 -0.810611 0.325617 0.944594 0.312913 -0.595715 -0.0947461 0.258555 -0.531679 
0.777789 -0.212226 0.396518 -0.355509 0.030508 -0.442245 -0.722869 -0.495384 0.56593 -0.631787 -0.146927 -0.457634 0.77362 0.997393 -0.440718 0.857999 0.858831 0.873992 0.322646 -0.64237 -0.402077 0.598659 -0.737305 -0.0596829 -0.227432 -0.770383 -0.870776 0.198542 0.284948 0.342886 0.842906 0.0653716 -0.779378 0.238659 0.800229 0.161179 0.841952 -0.923764 0.751614 0.524444 -0.534418 -0.47784 -1.09525 -1.01855 -0.443725 -0.333009 0.885492 -0.365097 -0.593944 0.239615 -0.169517 -0.0993432 -0.168178 0.128443 0.968327 0.526446 0.328259 -1.1864 -0.254476 -0.402234 0.569895 -0.426473 0.532825 0.837159 0.993326 0.269162 -0.0107278 0.815232 0.606785 -0.180733 0.317846 0.636968 0.481411 0.250961 0.689715 0.894954 0.804059 0.520998 -0.578675 -0.745951 -0.149378 0.179322 0.348058 0.63712 -0.6047 0.305461 -0.154026 0.594099 0.202004 0.911967 -0.917844 -0.156749 -0.278158 0.756815 -0.583579 -0.396986 -0.057656 0.453596 -0.531575 -0.67445 
-0.760161 0.654948 -0.989402 0.674722 0.125502 0.831837 0.572758 -0.100972 0.40687 1.18859 0.326874 -0.691785 0.0378951 -0.368008 0.986989 0.340373 0.815214 0.0629056 -0.0738521 0.165472 -0.0420092 0.058721 0.887472 0.838844 -0.292753 -0.514102 -0.8032 0.677961 1.00409 -0.36801 -0.824056 -0.713798 -0.614346 -0.696771 -0.847093 0.367825 -0.853733 0.679746 -0.499598 0.667748 0.929706 0.511688 0.797049 -0.459366 -0.715056 0.785908 -0.955612 -0.714123 -0.363359 0.0180435 0.357546 0.631262 -0.898149 0.286862 0.500856 -0.291447 0.59944 0.453616 -0.519281 0.663358 -0.568484 -0.269456 0.724117 -0.0480916 0.165201 0.74474 -0.731163 0.220519 0.657519 -0.235747 -0.15078 0.12639 -0.513646 -0.294429 0.87428 -0.162265 -0.60569 0.737151 0.0428922 0.287464 -0.122284 -0.690864 0.0286466 -0.0352498 0.771856 -0.404328 0.357328 0.13453 -0.980596 -0.81991 -0.310411 -0.310965 0.067808 -0.363931 0.278631 0.966633 -0.604135 0.681236 0.310324 0.911822 
-0.499922 -0.85519 -0.00494341 -0.0813371 -0.0800976 0.0216864 0.699816 0.422944 -0.0728627 -0.0519864 -0.0748576 0.890674 -0.153195 0.900371 -0.13818 -0.536702 -0.669433 -0.531274 0.668964 -0.257275 -0.486016 -0.633269 0.197115 0.562989 -0.204616 -0.234903 0.365585 0.260627 -0.577628 -0.24861 0.265187 -0.0348066 -0.144854 -0.614672 0.983259 0.638582 0.312131 0.697245 0.433816 -0.705038 -0.343615 -1.01409 -0.960786 0.155425 -1.01413 -0.203621 0.735084 -0.395555 0.0410525 0.340339 0.185958 0.629018 0.74392 -0.496916 0.289915 -0.519023 0.0302296 -0.443238 0.863807 0.618563 0.510462 0.213684 -0.734427 -0.534428 0.582318 -0.771497 -0.852 -0.0588848 1.09146 0.410029 0.228628 -0.632094 0.775324 0.27127 0.56566 0.802822 -0.9737 0.237867 -0.734205 0.440976 -0.29995 0.43764 0.127658 -0.426112 1.11306 -0.542519 -0.301666 0.0014748 -0.115199 -0.152263 -0.531169 -0.372452 -0.865806 -0.0467463 -0.306648 0.621081 0.15843 0.0391172 -0.313938 0.152792 
-0.459384 0.829969 0.512695 -0.975088 0.215169 0.399149 0.8753 0.367342 -0.107861 -0.489103 0.121697 0.561337 0.49999 -0.927386 1.13969 0.425908 -0.715498 0.0410304 -0.353717 0.74082 0.810563 -0.0559796 -0.909403 0.835084 0.770462 0.0625891 0.331777 0.05314 -0.838359 -0.827951 -0.66671 -0.392348 0.932503 0.802942 -0.148209 -0.0347112 0.0363161 -0.243917 -0.430775 0.803956 0.20658 0.536065 0.312549 -0.649404 0.401461 0.318885 1.01224 -0.899547 -0.694649 -0.574125 0.50997 -0.866245 0.401616 0.811527 -0.870541 0.0964116 -0.187095 0.529514 -0.682251 0.00520267 0.928219 -0.441496 0.223851 0.8541 -0.551953 -0.865167 0.0168219 0.726331 0.180824 0.506622 0.586299 0.939267 0.159501 -0.0417329 -0.591567 -0.258329 -0.866148 -0.651717 -0.229647 -0.0679896 -0.215514 -0.693116 -0.0224838 -0.420971 -0.858453 0.236695 0.344315 -0.0461302 -0.333088 0.789253 0.8974 -0.211891 -0.595717 0.197264 -0.776872 0.164494 0.455643 0.36851 -0.144673 -0.722812 
0.0872222 -0.451834 -0.561821 -1.10676 0.47197 0.0702837 -0.277601 0.91298 0.792001 0.591292 -0.115485 -0.58169 0.572065 0.92592 0.0264329 0.697334 -0.217635 -0.688795 -0.0211502 0.917083 -0.918087 -0.472115 -0.708195 -0.485434 0.810152 -0.191512 0.536063 0.127113 -0.446603 -0.603918 0.770061 0.491473 -0.243168 -0.899066 0.714936 -0.935384 0.188133 -0.50249 -0.930429 -0.270481 1.01258 -0.0364492 0.274701 0.46583 -0.305393 -0.996923 0.380347 0.659368 -0.722844 -0.986437 0.172633 -0.600468 -0.650973 -0.97982 0.0579761 -0.789525 0.0580023 -0.545063 0.601057 0.490338 0.111725 0.302152 -0.411436 0.720671 0.921627 -0.63572 -0.963221 0.152703 0.189069 -0.805326 0.882807 -0.0929049 0.12184 0.158166 -0.563183 1.08464 0.0502429 0.6634 0.772869 0.678624 0.919295 0.231579 0.85835 -0.137987 0.211348 0.00457665 -0.226564 -0.723649 0.440869 -0.611024 0.618788 -0.298306 0.790823 -0.673093 -0.863005 0.742524 -0.128469 -0.670695 -0.252486 0.740011 
-0.490118 -0.203799 -0.151996 0.676279 0.890263 0.346925 0.654891 0.177327 0.408968 0.40918 -0.174206 0.0174317 -0.676319 -0.193699 0.864482 0.492416 0.599125 -0.624827 0.856852 0.314551 -0.214759 0.318207 0.61698 -0.40551 0.66518 -0.953686 -0.822071 -0.483604 -0.195721 -0.26958 -0.452483 0.165083 0.285381 0.17843 0.125032 0.310359 -0.42518 -0.175892 -0.623186 0.740854 -0.903449 0.308687 0.00378981 -0.632686 -0.964427 -0.603534 0.953293 0.604389 -0.00190355 0.540216 -0.314441 0.75968 -0.155646 -0.178262 -0.580548 -0.454694 0.275328 -0.569179 0.302475 0.901558 0.586378 0.730071 -0.102723 -0.142777 0.281925 -0.894789 -0.632574 1.05432 -0.0115193 -0.148964 0.777294 -0.101169 -0.814645 -0.351928 0.274141 -0.532483 0.221371 0.0401856 1.12096 -0.685187 -0.0924302 0.0218078 0.812955 1.12087 0.879271 -0.590506 -0.434461 0.178644 -0.0888802 0.761665 -0.19821 -0.382139 0.645064 0.831629 0.363116 0.130897 -1.04004 0.735719 -0.0412636 -0.207815 
-0.312119 -0.193645 0.857537 -0.0517072 0.452552 0.145841 0.12417 -0.238148 -0.517186 0.177298 0.0635808 0.206483 -1.02109 -0.125713 0.169568 0.929057 0.255456 0.607711 -0.202668 -0.65932 0.516829 0.608156 -0.431422 0.156857 0.48114 -0.945884 -0.926782 0.464829 1.12271 0.00642787 -0.54306 -0.255198 0.695053 -0.903051 0.801248 0.212021 0.275423 -0.16097 0.831784 0.806265 0.95556 -0.045568 0.0613602 0.930169 0.78669 -0.810722 0.699348 -0.0039306 1.01037 -0.444815 0.0771761 0.44422 -0.688912 -1.03179 -0.265089 0.78302 -0.779597 -0.222231 0.351354 -0.821691 1.01987 0.695029 -0.173724 0.562627 -1.03208 -0.488356 -0.0902478 0.526394 0.484148 -0.222702 0.332424 0.222886 0.764395 -0.82528 0.0599548 0.605824 -0.404979 -0.282062 -0.383227 -0.396581 0.478137 0.992139 -1.12838 0.799069 0.966795 -0.120937 0.674074 -0.76768 0.517287 -0.203671 -0.67432 0.656552 -0.306219 0.315186 0.240957 -0.10922 0.941835 -0.987387 -0.736586 0.156852 
-0.13995 0.489419 -0.446851 -0.495985 0.818126 0.824624 -0.89479 -0.598326 -0.45095 -0.284214 -0.0806633 -0.922028 -0.562131 -0.0992277 0.785703 -0.649882 0.602973 0.427151 -0.238879 0.390203 -0.554317 -0.116161 -0.14533 -0.0482688 -0.744884 -0.932797 0.808476 -0.880634 -0.5891 -0.838081 0.384902 -0.0191225 0.654472 -1.08626 0.782886 0.402772 0.568613 0.69445 0.728043 -0.838931 -0.631572 -0.274246 -0.931362 -0.122433 0.506646 0.922115 0.500865 0.594444 0.437626 1.0756 -0.447612 0.614901 -0.155182 0.537647 -0.195976 0.171728 0.873741 -0.260764 0.420498 1.03449 0.0779377 -0.241906 0.066311 -0.658638 -0.472073 -0.34239 0.904732 -0.451234 -0.506725 0.616814 -0.132522 -0.212897 -0.49082 -0.281135 0.752748 -0.818445 -0.223947 -0.0717197 0.558189 -0.62601 -0.126625 -0.581907 0.784387 0.958695 0.948647 0.000942227 0.0590898 0.750103 0.4709 -0.592508 0.615673 -0.448681 0.124706 -0.172465 -0.0671706 -0.768782 0.462544 -0.289835 -0.244198 0.86109 
-0.543414 0.331328 -0.281403 0.0819673 -0.680586 -0.307483 0.0944423 0.0911542 0.729447 -0.288113 0.402969 -0.562009 -0.207871 0.311353 -0.811637 -0.362602 -0.894834 0.110845 -0.508217 0.812959 0.629634 -1.062 -0.889647 -0.390959 -0.167091 -0.0639493 -0.178243 -0.84883 0.96417 0.463215 -1.00012 -0.561538 -0.156358 -0.22732 0.511027 0.190755 0.154517 -0.509068 -0.93655 -0.286957 0.115152 0.53856 0.0597454 0.942362 -0.361831 0.264069 -0.344328 0.254211 -0.478175 0.00231115 -0.42936 0.86856 -0.164682 -0.152293 -0.27064 0.740835 1.09553 0.640641 -0.861328 1.02028 0.224572 -0.8999 -0.556201 0.818341 -0.0353897 0.839298 -0.122384 -0.585785 -0.458899 0.0350198 0.0372026 0.513815 -0.344387 0.937017 0.394031 0.368577 0.0371729 -0.908384 -0.454795 0.769057 0.103739 0.205709 0.463206 -0.774334 -0.822659 -0.556721 1.04285 -0.840843 0.927038 -0.953335 1.00201 0.308452 -0.879753 -0.538992 0.142255 0.221827 -0.738014 -1.1261 0.542645 -0.328614 
-0.000276923 -0.658681 -0.845948 0.84624 -0.580092 0.779973 0.193686 0.518409 0.769813 0.771776 0.230504 -0.167561 -0.172147 -0.309654 -0.023669 -0.219004 0.114122 -0.0959857 -0.174143 0.0534366 -0.0610133 -0.190991 -0.959478 0.0617343 0.085639 0.0782196 -0.72018 0.410562 0.244767 0.687852 -1.08195 -0.757439 -0.813425 -0.822713 -0.812379 -0.243854 0.743449 0.276569 -0.843211 0.515868 -0.121447 0.437192 -0.64623 0.573972 -0.791785 0.383868 -0.506923 0.389564 -0.738957 0.260824 -0.786504 0.238073 -0.901466 -0.534061 -0.649287 0.190304 0.881036 -0.344616 -0.270707 -0.0113134 -0.508926 -0.273768 0.249049 -0.371597 -0.0680206 0.226097 0.263223 -0.242818 -0.482809 0.476482 -0.608572 0.314607 -0.101818 -0.508532 -0.00554063 0.0407605 0.676895 0.376215 -0.563474 -0.774937 -0.208297 -0.328388 0.275348 -0.0315691 0.355617 0.841365 -0.85765 0.0286959 -0.625559 -0.0634998 0.809571 -0.0839975 0.76635 0.146084 0.68554 -0.333829 -0.59483 -0.225373 0.497792 -0.033727 
-0.841186 0.521309 -0.662793 0.27455 -0.757772 0.404234 -0.833691 -1.03761 -0.231253 -0.477966 -0.830443 0.555115 0.300998 0.380492 -0.598338 -0.492035 0.250525 -0.413455 0.528735 0.637309 0.600561 0.39314 -0.482305 0.238037 -0.572771 -0.906581 0.855589 -0.0880236 0.084623 0.279454 0.702333 0.288048 -0.119298 -0.737744 -0.446252 0.286574 0.392034 -0.285483 0.134223 -0.750438 0.281868 0.306371 0.799612 -0.451539 -0.0741441 -0.701901 0.195095 -0.989553 -0.0757609 -0.371604 0.571267 -0.50546 -0.877874 -0.694718 0.765445 -0.45114 -0.459229 0.668026 0.53364 0.505488 -0.126946 0.39115 -0.163398 0.81904 0.443277 0.313293 -0.0141401 -0.0710121 -1.02942 -0.926834 0.343008 0.205648 0.552587 -0.17886 0.874426 -0.819846 0.0051741 -0.0963757 -0.686133 -0.798618 0.631399 0.899693 -0.419233 0.77587 -0.726289 -0.499873 -0.579665 -0.281771 -1.01916 0.917385 -0.808913 -0.0921915 0.35032 0.0660061 -0.107416 -0.0898195 -0.69014 0.654564 0.883404 -0.678529 
0.776214 -0.125151 0.566182 0.291418 0.904358 0.536477 0.431591 0.0221048 -0.680549 0.658475 0.248776 -0.902211 0.7686 0.718654 0.847768 0.977374 -0.807847 -0.790333 -0.326048 -0.86944 -0.74412 -0.109795 0.175505 0.545215 0.876685 0.885026 -0.562711 -0.689806 0.594254 -0.744042 -0.471892 0.327765 0.229388 -0.705561 -0.410309 0.191495 0.587432 -0.955548 -0.741911 -0.971188 0.727385 0.486663 -0.846378 0.490238 0.469836 0.955383 0.467596 0.572801 -0.752148 -0.822937 0.602331 -0.604914 0.130284 -0.170639 -0.975027 0.0630261 -0.27003 -0.616531 0.378535 -0.677142 -0.330916 0.900906 0.641317 0.963974 -1.02209 -0.730138 0.151085 0.721648 -0.835025 0.368624 0.853782 0.91963 -0.0154198 0.904117 0.383945 -0.83659 0.880067 -0.196048 0.698945 -0.751995 -0.010206 0.293039 -0.392639 -0.991727 -0.740884 -0.399771 0.247529 -0.141452 0.0389064 -0.465925 0.191566 0.728596 -0.610923 -0.233314 0.642121 -0.48055 0.0313068 -0.309112 -0.734628 0.258387 
-0.920243 -1.00508 0.139076 -0.00985583 -1.01019 -0.404336 0.162014 0.872005 0.412882 -0.18292 -0.855068 -0.537524 -0.819206 -0.313971 -0.459272 -0.653945 0.291246 0.706138 0.188231 -0.733213 -0.781844 -0.654195 -0.963709 -0.360264 0.105541 0.673737 0.160092 -0.836973 -0.624672 0.389414 0.339564 -0.547297 0.432102 -0.422429 0.436854 0.460189 0.164116 -0.409021 0.371361 -0.485761 0.401319 0.466616 0.0494973 0.515124 -0.818911 0.517277 0.878496 0.497108 0.282 0.0891862 0.75627 0.501949 0.422674 0.8048 -0.863736 -0.433719 0.458915 0.240742 -0.238472 0.818006 -0.311616 -0.893762 -0.705301 -0.880079 -0.262716 0.736506 0.53751 0.836073 -0.681493 -0.0787125 -0.561734 0.689437 -0.60012 0.456998 0.241037 -0.442992 -0.0310986 0.0952121 -0.961175 -0.670385 -0.806068 0.790744 0.875204 0.608538 0.609166 0.901151 -0.776526 0.0800735 0.237024 -0.0902456 -0.0577847 0.857257 0.107656 0.222514 0.947712 0.70843 -0.0567105 0.486345 0.571415 0.293881 
-0.593634 0.977478 -0.0670917 -0.23371 0.440798 -0.860672 0.357967 -0.486443 0.267693 0.377701 -0.180193 0.483087 0.166368 -0.350197 0.106179 -0.22414 -0.398989 0.282798 0.848712 0.804389 -0.775946 -0.238417 0.656118 0.272721 0.969879 0.597359 -0.0121254 -0.0860491 0.0836382 -0.461929 -0.849805 0.480136 -0.48074 0.0883397 -0.703801 0.963304 0.263945 0.645747 -0.554483 -0.446538 0.0192011 0.255716 -0.957983 -0.817906 0.919178 0.138811 -0.0404308 -0.471272 -0.555224 -0.185284 -0.680553 -0.341669 0.624952 0.979672 0.963105 0.54329 0.581539 -0.0672076 -0.54067 -0.341708 0.478376 -0.385569 -0.856771 1.02946 0.722825 -0.534891 0.954803 -0.0302582 -0.950132 -0.597682 0.527254 0.0945525 0.664646 0.56585 0.282473 0.582509 -0.295252 -0.754737 -0.911142 0.155645 0.0709564 -0.578001 0.837734 -0.366517 -0.633643 0.78538 -0.820148 0.981036 -0.275235 -0.390425 -0.371708 -0.795182 0.261599 -0.212973 -0.80184 -0.0354684 0.226435 -0.843972 0.936823 0.288436 
-0.442353 0.462457 -0.615371 -0.776377 0.0284303 0.666653 0.805663 0.738142 0.91382 0.905054 -0.105906 -0.0237152 -0.671366 -0.270402 0.615024 -0.267927 -0.483714 0.801725 -0.287524 0.241789 -0.552095 0.350819 0.444684 0.708295 -0.866243 0.643366 -0.326597 0.34798 0.798811 -0.391015 -0.361833 -0.643621 -0.928557 0.0228222 -0.419576 0.099864 -0.310221 -0.613991 -0.162285 -0.396194 -0.708937 0.731746 0.580087 -0.380298 -0.53855 0.195104 0.35176 -0.0221929 -0.00300804 -0.935701 -0.780526 0.444794 0.415543 0.664175 0.153361 0.548848 0.307596 0.826623 -0.103167 0.106334 -0.564338 0.535031 0.462756 -0.492615 -0.442032 -0.95658 0.606957 0.247646 -0.571125 -0.55531 0.851441 -0.279829 -0.823483 0.431536 0.339904 -0.362046 -0.373357 -0.308292 0.615557 0.623644 -0.243926 0.83516 0.0686179 -0.828917 0.499009 -0.77811 0.71993 -0.193104 -0.951435 -0.383483 0.913131 -0.515752 -0.848128 0.376006 -0.00868347 -0.290277 0.419193 -0.401714 0.957371 0.848161 
0.0429705 0.808823 -0.431634 0.219488 0.240362 0.90827 0.857439 0.867006 -0.400021 0.47311 0.490646 0.355988 0.308289 -0.440736 0.527116 -0.192359 -0.218845 0.24712 0.614537 -0.170279 0.863961 0.527767 0.31395 -0.984167 -0.0962475 -0.694728 -0.274442 -0.677162 -0.0964481 -0.317072 -0.828968 0.946522 -0.508249 -0.260601 0.16601 0.732114 -0.352331 0.0234487 0.599119 0.247647 -0.503441 0.0897657 -0.396365 0.804847 0.64903 -0.869249 -0.387512 -0.569815 0.377872 -0.772975 0.259906 0.241833 0.754792 -0.426145 0.257666 -0.341455 -0.120873 0.983223 -0.0186169 0.782679 -0.333848 0.152416 0.729202 0.157903 0.891814 -0.104789 -0.109983 -0.460517 0.91866 -0.510864 0.78713 -0.584781 0.578902 -0.609235 -0.779934 0.227932 -0.478483 -0.167446 0.658117 0.899388 0.0595795 -0.0819774 0.141221 -0.185628 0.491878 -0.601113 0.472917 -0.628995 -0.61789 -0.5457 -0.846316 0.0482617 0.606716 0.882886 -0.793835 0.49853 -0.221903 0.0961818 -0.961987 -0.303242 
0.585213 0.823833 0.117485 0.164993 -0.78345 0.325124 -0.603631 -0.24397 -0.832575 -0.94675 -0.364066 0.225367 -0.0304876 0.780557 -0.961051 -0.544861 -0.828138 0.51124 -0.169355 -0.444223 0.967533 -0.0123524 0.601538 0.561296 -0.133782 0.815499 0.0708041 0.644703 -0.0905706 0.109219 -0.659479 -0.503923 -0.067217 0.453609 0.661055 0.150691 -0.214597 -0.947596 0.888581 -0.0463103 -0.894563 -0.475307 -0.824669 0.0682499 -0.701719 -0.78209 0.535363 -0.520003 0.724814 -0.635276 0.0382118 0.691459 0.343226 -0.357644 0.264099 -0.782107 -0.539407 -0.669293 0.860003 0.371283 0.442898 -0.802376 0.865169 -0.623736 0.65855 0.527108 0.530152 -0.558089 0.547144 0.41775 0.387814 0.675912 0.938162 0.570207 -0.253251 -0.753559 0.785176 -0.723721 -0.270969 0.515318 -0.365111 0.759413 0.200395 0.984394 -0.592886 -0.535225 -0.786893 -0.133697 -0.20051 -0.934369 -0.769472 -0.75627 -0.732208 -0.903127 -0.380289 0.912898 0.618237 -0.853311 -0.633445 0.191728 
0.555627 0.70237 -0.0890008 0.475586 0.289807 0.541239 0.815239 0.186578 0.817327 -0.581643 -0.4367 -0.411389 -0.743849 0.800753 -0.490556 -0.39898 -0.785635 -0.185287 0.47356 0.00391007 -0.249835 0.755214 0.291491 -0.0718484 0.759789 0.970324 -0.00528458 0.35014 -0.885969 0.365681 -0.414792 0.680647 0.0203232 0.561973 0.190658 -0.540267 0.150426 -0.149715 0.523987 0.043836 0.294283 -0.906076 0.539649 0.553081 0.91365 -0.894565 -0.672596 -0.818993 -0.277852 0.785559 0.343355 0.428378 0.387026 -0.502371 -0.388395 0.286264 -0.4588 0.515421 -0.292033 -0.331991 -0.210407 0.339684 -0.645647 0.822356 -0.0951048 0.416578 -0.758128 0.974386 -0.799994 0.737797 -0.054715 0.731105 0.817298 -0.435342 0.380515 0.760679 -0.405802 0.545436 1.06076 0.439003 0.296391 0.221864 -0.116789 -0.247793 0.879936 0.402337 -0.747651 -0.629762 -0.0843229 -0.241185 -0.0436987 0.701571 -0.872797 0.314499 0.526726 0.023992 -0.293356 0.683039 0.0285457 0.0992753 
0.479855 -1.07374 -0.239156 0.321928 -0.502096 -0.736742 0.170181 -0.187301 0.477106 -0.194939 -0.689665 0.111501 -0.963311 0.315051 0.672197 0.587222 -0.348359 1.23617 -0.821194 0.799341 -0.438288 0.215912 0.516267 -0.365859 -0.637226 0.02051 0.853373 0.0827904 -0.0967771 -0.138922 -0.763235 -0.727145 -0.358674 0.415066 0.593527 0.364502 0.435805 -0.806727 -0.371707 0.0493943 -0.112181 -0.101918 -0.774452 0.162807 -0.598761 1.05435 0.306914 0.191018 0.694302 0.333196 0.234012 -0.867881 -0.536565 -0.701615 0.21287 -0.102943 0.517074 -0.258761 -0.864059 -0.494284 0.422974 -0.385172 -0.541282 -0.849522 0.601099 0.692946 0.620848 0.0878281 -0.809519 1.0412 -1.14193 0.399378 0.152937 -0.594697 -0.219417 0.41702 -0.739782 0.541586 -0.378484 -0.629934 0.375387 0.80207 -0.547127 0.605034 -0.625617 0.362832 -0.24062 0.688043 -0.749501 -0.462747 0.678818 1.05158 0.196724 -0.677347 -0.934912 0.351129 -0.847654 0.602392 -0.742541 -0.634043 
0.648947 -0.881035 0.423068 -0.0989967 -0.330631 -0.143038 0.882256 -0.330251 -1.24955 -0.9314 -0.105724 0.352886 -0.932234 0.57962 -0.122897 -1.38347 -0.0177406 1.20129 0.574789 0.623653 -0.408288 0.537986 0.375688 0.923775 0.767123 0.709682 -0.120223 -1.08106 0.389996 0.128136 -0.810562 -0.0144018 0.203041 -0.39228 0.529643 1.30394 -0.315155 -0.0789294 0.094857 -0.0238422 -0.0426519 -0.780341 -0.321984 0.606653 0.672073 0.896419 1.0925 0.049579 0.554342 0.274059 -0.283341 -1.05704 -0.238336 -0.93168 1.2691 -0.402227 0.837981 -0.349405 -0.0342196 0.30225 0.639638 0.837059 1.00312 -0.118572 0.621612 -0.0220183 0.547696 -0.476367 -0.68993 -0.876179 0.274857 -1.07176 -0.523007 -0.214072 1.00504 -0.995475 -0.422912 -0.0865419 0.118934 -0.305149 -0.146966 1.13406 -0.613192 0.483206 -0.521968 -0.518253 -0.387438 1.04834 0.404396 0.0989544 -0.226806 0.260563 -0.418846 -0.269113 -0.844168 0.0476554 -0.790322 0.00704181 0.75576 -0.170371 
0.0136764 -0.0643861 -0.511722 1.04099 -0.861684 -0.565155 0.252778 -0.228752 -0.150682 -0.597287 0.0427829 -0.893388 -0.582908 0.751289 -1.21196 -0.913027 -0.701006 0.223493 -1.01639 0.654383 -0.511034 0.353009 -0.921961 0.554243 -0.944022 -0.0422771 0.951278 -0.637656 1.49426 0.47861 -0.219969 0.242266 -0.441461 0.934084 -0.175202 0.347921 -1.12306 0.467238 0.602249 0.833616 -1.35107 -0.208607 -0.767806 -0.268699 -0.698357 -0.982159 0.581588 -0.0777596 -0.410492 -0.211724 -0.227535 -0.141015 -0.467165 0.114504 -0.104822 -0.482603 -0.716772 -1.13243 0.46709 -0.499951 0.307656 -0.552916 0.542664 -0.917343 -0.650906 0.559571 0.351602 -0.850375 -0.0147996 -0.87801 -1.38229 0.654962 0.271226 -0.741982 -0.388325 0.991326 -0.194754 -0.0483436 -0.086067 0.631258 -0.465274 0.775922 -0.205475 0.201974 0.405658 0.647397 -0.949594 0.425991 1.32055 0.241341 0.115417 0.453486 -0.896363 -0.552695 0.770336 -0.0332389 -0.820897 -0.618516 0.519922 1.18647 
-0.610007 -0.0312324 0.33983 1.52443 -0.280923 1.2441 0.644419 -0.42038 -0.16851 -0.387013 -0.711903 0.962323 -0.831516 0.619353 0.210878 -0.0675238 0.195392 1.23099 -0.918292 -0.183564 0.810498 0.704097 -1.86472 0.804543 -0.942895 0.732423 -0.803761 -0.573336 1.80212 0.355485 -0.996559 -0.249819 0.0643055 0.863343 0.170735 1.18362 0.474787 -1.1301 0.501861 -0.11103 -0.765866 -0.568116 0.326298 0.584843 -0.891133 -0.919166 -0.180209 0.22102 0.407972 -0.741004 -0.723916 -0.366404 -0.723816 -1.0918 0.81438 -0.61508 -0.662401 -0.0528153 0.214596 -0.239887 -0.188421 0.333773 0.216955 -1.13248 0.323589 0.500466 0.323219 -0.0471097 0.374405 -0.137158 0.387006 -0.719624 0.466165 -0.559842 1.04012 1.39537 0.531206 -1.10752 0.703401 -0.0973913 -0.373712 0.930425 -0.551532 0.318638 1.45347 1.17644 -1.36661 -0.88009 0.290745 0.182131 -1.20432 1.00664 -0.0354504 0.0365232 1.47042 -0.663047 -1.15205 0.0955511 0.550088 0.90139 
-1.01714 -0.215176 -0.626111 -0.492163 0.0681794 -0.176404 1.00346 -0.149769 -0.484807 0.188651 -0.821483 0.892601 -0.326811 -0.0336184 -0.00731881 -0.543978 -0.873115 0.736878 0.195597 0.250231 -0.121693 -0.0887067 -0.934367 0.610052 0.849624 0.220034 1.0448 0.795863 0.0394163 -0.0514696 0.637762 -0.180467 -0.629479 -0.669862 0.293047 0.564265 -0.737205 -0.79399 0.608119 0.222379 0.381051 -0.739831 0.309133 0.176134 0.148225 -0.896865 0.747065 0.311421 -0.219065 -0.977902 -0.311335 -0.221946 0.244583 -1.71331 1.21777 0.0106728 0.784364 -0.760567 0.350539 1.28863 -0.744128 0.0278111 -0.187421 -0.821174 0.440309 0.224187 0.615747 -0.725958 0.908827 0.185776 -0.401638 0.826602 0.302626 -1.43376 -0.32627 0.315223 -0.465998 0.673076 0.101959 0.765277 -0.623138 0.459667 0.143102 -1.0073 0.777942 0.193742 0.0867212 -0.302155 0.533767 -0.190214 -1.02041 0.987913 -0.986885 -0.112615 0.254065 0.322024 0.310404 -1.20604 0.198327 0.772162 
0.52469 -0.60214 0.203554 1.19555 0.655361 1.09149 -0.617767 0.0243793 0.610296 0.0998477 -0.0187839 1.00502 -1.04447 -0.447204 0.361857 0.0912272 -0.309033 0.771282 -0.262851 -0.316485 -0.514902 -0.669062 -1.6947 -0.525347 0.354126 0.00416794 0.953948 -0.089782 0.67714 -0.0514503 -0.826542 -0.0575294 0.677801 0.976455 -0.2488 0.981493 -0.257472 -0.988782 -0.947168 -0.987249 0.389131 0.693975 -0.886327 1.15256 1.04989 0.965641 0.0394817 -0.314286 0.0916413 0.286587 -0.193596 -0.65008 -0.945403 -0.156006 1.74318 -0.0157269 0.694876 -0.270006 -0.253511 1.42036 -0.484066 -0.132103 0.0589377 -1.05393 -0.440418 0.0846678 0.817309 0.698625 0.417577 0.820881 -0.0836711 -0.00328661 0.0449615 -0.085783 -0.588409 0.781081 0.351717 -0.223995 -0.253365 0.356293 -0.0887704 0.831381 -1.07907 0.0768603 1.18059 1.37992 -0.884118 -0.833137 -0.0387564 0.572776 -1.07099 0.706133 -0.218723 -0.250238 -0.419311 0.344446 -0.161223 0.128937 0.0441247 -0.109098 
0.58384 -0.175461 0.124309 1.04316 -0.457827 0.811876 -0.57156 -0.994439 -0.987308 0.143721 0.184995 0.0339412 -0.700744 0.971819 -0.0773528 -1.50569 0.149556 -0.0670173 0.235313 -0.474649 0.855282 -0.95225 -1.38571 -0.521933 0.0871174 -0.456473 -0.517686 -0.505849 0.679408 0.0892087 -0.553624 0.475561 -1.15368 -0.660078 0.0334267 1.15033 0.28501 -0.783619 0.155937 -0.00414253 1.24434 -0.435026 -1.24266 0.315392 -0.570467 0.811509 -0.950046 0.537197 -0.447248 -0.128615 -1.07386 -1.45446 0.610742 -1.38457 1.52337 -1.08623 0.711632 0.166601 0.622885 0.568377 -0.33156 -0.670625 1.66494 -0.535173 -0.388535 0.142184 0.948287 0.754763 1.01476 0.180649 0.0416922 0.50119 -1.23622 -0.555577 1.1943 -0.30306 -0.693856 -1.26975 -0.795751 0.614982 0.173768 0.274853 -0.700903 -0.0516419 1.6362 1.02984 -0.0583753 -0.851552 0.13214 -0.0843882 -0.441625 0.802799 1.12009 -0.781111 -0.395618 -0.351161 -0.255719 0.29196 0.259785 -0.282938 
0.0515211 0.753036 0.850133 0.85085 -0.470866 0.840692 0.423115 -1.70816 0.00761486 -0.573597 0.747227 -0.149465 -0.85555 1.34706 -1.0444 -1.15836 -0.397547 -0.673426 0.712564 0.851075 -0.249956 0.283501 -0.26081 -0.272639 -0.957846 0.701687 0.651827 0.218888 0.321005 -0.924454 -1.51106 -0.517821 -1.05321 -0.979358 1.0836 1.10874 0.953812 -0.480803 0.119098 0.19747 1.00478 -0.482139 -0.107605 0.279819 -0.274925 -0.668613 -0.841573 -1.23278 -0.796341 0.0668961 -0.834112 -1.00785 -0.00304486 -0.215334 0.355626 -0.808539 0.508636 0.500458 -0.276252 0.272102 -0.893081 0.0946512 0.36321 -1.00068 0.550501 0.446239 0.503826 0.178494 1.84216 -0.373842 0.301607 0.36139 0.625244 -0.986169 1.03672 -0.0715836 -1.65215 0.735793 -0.471301 -0.200727 0.170081 0.636441 -0.467782 1.03257 0.898582 0.083932 -1.31383 0.596186 -0.0666842 0.0723166 0.340493 -0.0785817 0.033275 -0.481622 -0.213719 -0.487557 -0.117198 -1.50985 0.0386993 0.210279 
-0.390632 0.0636162 -0.676203 0.0897416 0.234116 0.733351 -0.0107638 -1.70721 0.301999 -0.0975869 0.315303 -0.259872 -0.67204 0.514566 0.260101 0.474994 -0.0760104 -1.08898 0.622094 0.885076 0.363458 0.181789 -1.38244 -0.395 0.738778 -0.0950452 0.219865 -0.50991 0.192415 0.384725 -1.00598 0.735229 -0.466305 -0.186957 -0.0483796 -0.281983 0.527982 -0.00574238 -0.786728 -0.17283 1.87325 -0.306572 -0.657499 0.238851 -0.827099 -0.331704 -1.41986 -0.937084 -0.452683 0.0694905 -0.631878 -2.48021 1.69833 -0.238521 0.557982 0.383054 0.829616 -1.17602 -0.568217 0.20165 0.85421 -0.998315 -0.892089 -0.924803 0.497639 0.0639693 -0.734227 -0.597273 2.60205 -0.31908 0.577004 0.737866 0.82195 -1.36485 -0.381019 0.105622 -1.77765 -1.12259 -0.469129 0.331009 0.453579 0.943744 0.831245 0.544805 2.02258 -0.000418938 -1.7862 0.128611 -0.192593 0.976606 -0.519005 -0.0997006 -0.660989 0.482663 -0.209407 0.044745 0.688785 -0.479438 -0.745811 0.682951 
0.121152 0.320808 0.107052 0.736116 0.455045 0.285502 -1.18508 -1.53196 0.0606816 0.760394 1.17587 0.0506108 0.49938 0.432488 0.161611 0.625586 -1.49743 -0.827307 -0.408663 -0.337402 -1.00704 1.13414 -0.931261 -0.123787 0.390433 0.168836 0.693359 -0.391216 -0.435002 0.639317 -0.267911 0.654256 -0.114569 -0.910908 0.872353 -0.782717 1.18094 -0.211281 -0.352474 0.724944 0.223258 -1.10471 0.262052 0.941054 -1.05005 0.58335 0.156342 -0.182937 0.498758 1.04309 0.211187 -2.70875 1.67157 1.68772 -0.139238 -0.0420399 -0.127835 -1.09821 -1.22278 0.414948 -0.512223 0.563679 -0.103909 0.139768 -0.799951 1.20697 0.226471 -1.02926 1.33102 -0.613288 0.47424 -0.3417 -0.0112265 -0.393914 0.12435 0.900866 -1.17325 -0.767991 0.191955 -0.215522 -0.122185 0.183992 0.224778 -0.38808 1.03139 1.10732 -1.86118 0.494378 -1.34587 -0.895175 -1.49284 -0.194452 1.31775 0.415557 0.212264 0.272053 0.217473 -0.327622 -0.997636 -1.20561 
-0.0279767 0.859434 0.127205 -1.12879 0.565128 -1.1889 0.100959 -1.24434 -0.836451 0.885805 1.03025 0.345146 -0.320714 -0.313468 0.200392 0.433314 -0.634879 -0.401977 -0.449545 -0.409704 -0.508994 0.147169 -0.753398 0.602248 -0.636197 0.901058 -0.57891 0.212751 0.235811 -0.385927 0.646831 0.974484 -0.690497 -0.227206 1.44992 -0.286813 -0.219928 -0.0175398 -0.876651 1.43519 2.12187 -1.66027 -0.893355 -0.766837 0.118789 -0.169903 0.714287 1.38673 -0.633 -0.764726 -0.60515 -2.50291 1.42785 1.00511 0.256632 -0.870089 -0.623047 -0.391194 -0.549988 0.499481 1.41677 0.0267966 0.217324 -0.418728 -0.53003 0.274513 -1.41992 -0.00555939 0.276707 -0.466295 -0.192079 0.321884 -0.737007 -1.70904 -0.712542 1.55574 -1.77661 -0.741951 0.297534 0.0892915 0.320682 1.26396 0.746043 -0.236148 1.54022 -0.00627411 -3.34622 0.931065 -0.527085 -1.32817 -1.00898 0.916549 1.54918 -0.291319 0.153364 0.161454 0.464303 -1.07076 0.094314 0.0330664 
-0.633727 -0.343899 0.233166 -0.0969944 -0.190392 0.0891641 -0.14155 -0.650963 -1.23842 0.877312 -0.0983037 0.318388 0.541772 -1.21983 0.650804 0.0782751 -0.729742 -0.894372 -0.741254 0.974263 -0.745845 0.195493 0.137347 0.480388 0.0112996 0.562418 -1.03043 -1.06476 0.725947 0.682278 0.460808 1.23085 -1.258 -0.385217 1.14739 -1.62463 -1.25929 -0.693954 0.684636 -0.0109667 1.05695 -1.52396 0.0388793 -1.33096 -0.349719 1.13359 -0.0532224 0.455332 -0.424823 -0.333184 -0.474722 -1.86897 0.270749 1.76819 0.163638 0.687649 -0.368898 -1.00869 -0.412774 -0.271071 -0.477143 -0.00115695 -1.04951 0.195653 -0.586284 0.619089 -0.763868 -1.32329 1.58537 -0.28148 -0.205973 -1.11872 -0.291328 -0.979623 -0.458506 1.59862 -1.60895 0.229799 -0.45879 -1.15622 -0.0299822 0.35995 -0.182617 0.52005 1.60584 1.05725 -3.22606 -0.138277 -2.02695 -1.186 -1.04921 -0.245496 2.17553 0.438938 -1.6675 0.501613 -0.143333 0.45855 -0.900198 -0.879389 
-0.640147 0.36575 -0.348691 -0.138367 -0.787422 -0.282516 0.177548 -0.66356 0.460672 2.3762 0.487519 -0.804009 -1.0774 0.451769 0.23664 1.40173 0.0427025 -0.782841 1.05447 0.736364 -0.647961 -0.212942 0.364089 0.668324 0.290631 1.12796 -1.09456 0.374995 0.497556 -0.0562104 -0.833244 1.20904 0.0478367 -0.174321 1.05402 -1.15155 -1.48831 -0.503484 -1.18992 0.579562 2.82348 -0.134637 -0.996055 -1.05667 0.0229836 1.17823 -0.857007 -0.545586 -0.196918 -1.63195 0.00874567 -1.63498 0.318373 0.662826 0.186079 -0.509832 -1.0744 -0.580976 -1.89164 -0.593062 1.15628 -0.918846 -0.339812 0.528367 0.789059 -0.385751 -1.67949 -1.45316 0.63579 -1.30653 0.762228 -0.132939 0.0212269 -1.58367 0.266395 2.01372 -0.047887 -1.72649 -0.847981 0.571087 -0.68669 0.50492 -0.842321 0.860592 0.431226 0.773842 -1.94405 0.876579 -2.13125 -0.0625838 -0.280805 0.588831 0.463623 0.0940171 -0.53942 1.11606 0.550158 0.510663 0.691834 -0.200724 
0.968454 1.05962 0.654281 -0.925876 0.917652 0.270455 -0.392221 1.03355 1.57636 2.04182 1.54207 -1.40956 -1.76363 -0.311743 0.707592 0.45365 0.0991574 0.488962 1.29469 1.01336 -0.329837 -0.152113 -0.934515 0.968657 0.480918 -0.937103 -0.174637 -0.815971 1.17307 0.328916 0.485966 1.48367 -0.757742 -0.154245 0.587415 -2.17545 -1.05725 1.16318 -1.37397 -0.834513 1.67957 -0.0014578 0.398664 -0.513218 -0.205846 0.0495577 0.69999 -0.776979 0.68236 -0.687437 -0.0685905 -0.853315 -0.79376 0.263684 1.1877 0.192873 -0.439907 -0.69253 -1.60225 0.415671 2.19889 0.322864 -1.61481 -0.437333 0.560459 -0.00959196 -1.10352 -0.422201 1.23324 -0.782544 0.418323 -0.822172 0.0910993 -0.0699535 -0.220292 2.01841 -1.64382 -0.422367 -0.108696 -0.735793 -0.671839 1.09874 -0.654348 1.22993 0.58245 0.77937 -1.98572 1.78979 -0.332621 -0.808542 0.0945919 0.609298 0.518926 0.713246 -0.954068 0.344208 -0.0130859 0.485458 -0.0646792 -0.351131 
-0.69722 0.893091 -0.0927762 -0.321717 -0.30359 -0.739541 -0.195813 0.47951 0.365842 2.00751 0.92953 -1.03339 -1.02066 0.17941 -0.223188 -0.378701 0.0316078 0.134768 1.74538 0.29401 0.616578 -0.399534 -2.1947 0.024868 -0.128558 -0.756071 -0.420012 -0.549923 0.271157 -0.973828 -1.11042 0.858416 0.043904 -0.589425 0.520904 -2.22399 -0.472326 -0.517403 -0.581134 -2.00325 2.11853 0.498309 -0.0038906 -0.490437 0.881463 0.3868 0.00918879 -0.125012 0.891357 -0.49972 -2.55334 0.844106 0.252766 -0.394344 0.0979963 -1.57437 0.15821 -0.232273 0.0730454 0.488897 2.21436 0.0372192 -2.18091 0.0868657 -0.0357723 -0.842727 -0.281087 0.194525 1.64035 -1.31808 -0.227184 0.190219 0.00268961 -1.57697 -1.66646 0.921176 0.137232 -0.460081 1.79342 0.576114 -1.08941 1.28784 -1.00169 1.00718 -0.267331 1.45408 -1.42887 0.519882 -0.925021 -1.517 0.803251 -0.178374 -0.588497 0.249582 -0.651992 1.37963 -0.999045 -0.905784 -0.11415 -0.890363 
-0.965463 1.66856 0.592385 0.232381 1.27034 -0.651772 -1.70697 0.778929 0.169794 1.83534 0.313789 -1.29409 -0.445185 -0.359397 0.774818 0.946016 0.0332803 0.897951 1.28419 -0.287087 0.868573 -0.309329 -1.89726 -1.01723 -0.557426 -2.06612 -0.347377 -0.992343 -0.282527 0.367907 -0.562695 0.146618 -0.110515 -0.758293 -0.349244 -0.328583 -0.789632 -0.705357 -0.433309 -0.818192 -0.0410953 -0.13237 -1.05278 0.816423 -0.163893 -0.0286286 0.361285 0.670295 0.115519 -0.163154 -2.82304 0.383888 -0.8462 -0.10812 0.611698 -0.964792 -0.204194 -1.31412 0.749976 1.74929 0.448644 -1.40445 -1.21376 1.25552 0.156581 -0.610782 0.376101 0.402509 -0.345698 -0.988438 -0.84967 -1.23187 0.272605 -1.47957 -1.97084 1.40946 1.16163 -0.838152 1.11041 0.431337 -0.415588 1.21937 -2.31743 1.14485 -0.154614 0.921025 -0.940263 0.650422 0.155214 0.307829 1.95718 1.32145 -0.357344 -0.397291 0.265374 0.807511 0.315149 -0.111223 1.33633 0.704958 
-1.46918 0.380911 -1.01667 0.744313 0.229885 -0.256656 -1.5811 -0.00342431 0.177975 1.96965 0.746193 -1.07466 -0.727829 0.691515 -0.254162 0.511743 -1.05538 -0.17367 0.309294 -0.427679 -0.41271 -0.40471 -2.29654 -0.593211 0.52264 -2.03993 -1.55696 0.317989 0.611459 0.586627 -0.319516 0.504617 -1.5979 0.340625 -0.035329 0.102846 -1.44161 -0.792988 0.182811 -1.75767 0.865478 0.668672 0.48661 -0.581087 0.101986 -1.07322 0.194025 0.34193 0.115077 -0.320396 -1.44055 0.859938 -0.932541 -1.93264 0.222825 -1.24328 -0.79428 -0.309787 1.02005 1.37324 0.791547 -1.21068 0.0771793 0.152578 -1.03583 -1.15159 -0.941894 0.845651 0.318781 -1.57624 1.26132 -1.19522 1.54344 -0.770519 -1.01978 0.0446092 1.68751 -2.10015 1.85776 0.443126 -0.251202 2.0108 -1.50924 0.288657 -0.835923 1.28505 1.36777 0.63423 -0.562493 -0.0354697 0.269118 -1.03511 -0.912033 1.4762 0.434472 2.17809 0.504352 0.277376 0.80453 -0.332055 
-1.84542 1.30601 0.121962 1.46715 0.224731 -0.00776828 0.298279 0.0457851 0.444048 2.26244 0.422649 0.593464 0.647905 0.442391 0.666873 0.744651 0.00044759 0.634832 -1.14635 -0.305187 -0.0347463 -1.11184 -1.43643 -0.675856 -0.880202 0.0863156 -0.105678 -0.580781 0.634342 -0.372055 -0.911422 0.399745 -1.23376 -0.921536 1.12881 1.08142 -1.30655 -0.178598 -1.35871 -1.29736 -0.665264 0.406704 -0.370729 -0.707876 -0.0503976 -1.38421 -1.02002 0.167905 0.50439 -0.333569 -1.11225 -0.994082 -0.239339 -0.74877 0.608012 -0.319565 1.07663 0.0532876 0.695884 0.926512 1.56768 -2.17728 0.0450225 -1.33939 -1.74492 -0.666468 0.149063 -0.41462 0.299979 0.0591198 0.485996 -1.57273 0.913601 -0.881304 -0.867474 0.266755 -0.454809 -1.75701 1.11071 1.20369 -0.848948 0.935063 0.244698 0.527901 -0.0199102 1.27088 0.480899 0.0386284 -0.940318 -0.443225 1.18819 -0.679815 -1.46224 0.47524 0.232768 1.08718 -0.303474 -0.910634 0.193455 -0.49806 
-0.113082 0.185092 -0.277248 0.653041 -0.559789 0.539457 0.398357 -0.129974 1.68802 1.44394 -0.578967 -0.518017 -0.305714 0.019153 0.0156187 -0.0371057 -0.0522925 0.616078 -0.336128 1.2011 1.40311 -0.491478 -1.29009 -1.7856 0.287944 -0.696561 -0.560442 -0.285591 0.368279 -1.12106 -1.00324 -0.245756 -0.556892 0.0161034 0.355792 1.32101 0.352921 0.94787 0.645378 -0.377903 -0.715104 0.551359 1.1225 0.144829 0.23534 -1.1671 -1.16699 0.817497 0.551071 0.341428 -1.37663 -0.172573 -0.0184409 -1.52437 0.690475 -1.34058 1.32629 -0.64032 0.405596 0.840275 -0.093752 -0.387148 -0.273296 -0.391225 -0.595913 -0.50833 -0.498215 -0.95846 -0.731276 -0.425786 0.62061 -0.416519 0.340725 -1.07391 -1.00731 -0.188085 -0.00245069 -1.04683 0.700477 0.649188 -1.10591 1.10078 -0.417383 -0.0194791 -0.490471 -0.214512 0.184656 0.0223372 -0.815068 -0.497573 0.472384 1.2335 0.289688 1.43217 1.00183 -0.144915 -0.690979 -1.27858 -0.676835 -0.00176939 
-0.429072 1.08892 1.28862 1.20215 -0.147904 -0.470909 0.727291 -0.497562 0.999509 0.28997 0.427389 1.23215 0.510753 -1.15063 0.216592 0.438033 -0.694871 -1.01725 -0.0163838 0.195171 -0.00868997 0.0575021 -0.849785 -0.0444222 -0.461657 0.475109 0.187666 0.579548 1.05372 -1.16964 -0.031549 -0.435318 -1.12168 0.796388 1.01993 0.946683 -1.36705 -0.975337 0.634022 0.0206817 -0.662104 0.202226 0.979011 0.551993 0.315263 -1.07516 0.108479 0.609073 -0.9178 -0.451074 -1.10456 -1.20195 -0.196302 -1.43475 -1.16556 0.379931 0.365348 0.411688 0.387499 0.353597 -1.14824 -0.536489 1.36837 -1.11528 0.176886 0.625219 0.693268 -1.06915 0.665739 0.620582 -0.566521 -0.781807 0.649835 -0.447421 -1.03724 1.18818 -0.296882 -0.239367 0.390133 1.33141 -0.20161 0.540441 -0.803717 0.0338352 -0.832782 0.159252 -0.375513 0.297764 -1.00996 0.954443 0.0970713 0.555928 0.617494 -0.133453 0.370481 0.782125 -0.270161 -0.70201 -0.846206 0.185607 
-1.1578 -0.696126 0.8183 0.437156 0.954268 -0.164544 -0.875337 0.0289595 -0.872962 0.548525 0.379467 0.502661 0.87907 0.742514 -0.800594 0.388854 -0.551345 -0.27225 -0.774242 -0.119206 0.577757 -1.39498 0.170455 -0.290086 -0.293248 -0.669204 -0.983753 -0.43763 0.0645948 -0.16313 -1.21864 0.0362058 -0.212655 0.241263 2.10784 0.589564 -0.374723 -1.00195 -0.525832 -0.103118 0.315935 -0.317774 -1.01707 -0.185348 -0.236195 -1.05989 -0.777312 -0.635309 -0.101527 -0.673605 -0.097392 0.0883246 -0.194063 -0.602291 -0.134265 -1.13143 1.14194 0.853409 -0.629538 0.0484296 -0.729775 0.375962 1.36117 0.192858 -0.974099 0.540077 0.039977 -0.554611 0.655757 0.525215 -0.315161 -0.479704 1.98629 -1.49052 0.833317 -0.415561 -1.72839 0.0688467 0.510008 1.18236 -0.458654 -0.35082 -0.158451 0.240855 0.656011 0.185676 0.0669573 -0.0413432 -1.2757 0.822435 0.171402 0.179898 0.264267 -0.162446 -0.0519289 0.627299 -0.834743 0.387314 -1.09577 -0.779571 
-0.24532 -1.34772 -0.313901 0.301622 -0.0847505 0.711916 0.166545 -0.369669 -0.518119 -0.968219 -0.0472982 0.980668 0.300592 -1.19192 0.153769 -1.02583 -0.504765 -0.846458 0.0783739 -0.92 1.32248 -1.03828 0.493594 -0.524389 0.374132 1.02005 0.388783 -0.46306 -0.13137 0.901288 -1.64639 -1.33564 -1.06539 0.624164 0.383481 0.0153501 -0.768549 -0.724627 -0.924081 0.011233 -0.974388 0.231842 -0.505776 -0.211125 0.719804 0.579452 0.0475603 1.14412 0.87539 -0.368152 -1.17614 0.494125 -0.333927 0.346818 -0.584131 -0.612567 0.466461 -0.998616 0.170925 -0.582791 0.761164 0.450017 -0.574855 0.467971 -0.327262 0.504522 -0.323248 -0.378995 0.36379 -0.258548 -0.487898 -0.0261429 -0.0769739 -0.296578 -0.751326 0.712976 -0.836271 -0.219964 0.956636 0.20508 0.348311 0.939385 -0.352547 -0.714152 0.497097 0.151408 0.280741 -0.752296 -0.0843344 1.58211 0.0133157 -0.150327 0.181457 0.0194429 -0.375348 0.99789 -0.744718 0.117006 -0.176237 1.10151 
-0.978516 -0.306238 -0.471684 -0.188052 -0.721928 0.470758 -0.682433 -0.387499 -1.05891 0.655018 -0.648985 -0.762549 0.738981 -0.158671 -0.519338 -0.506816 0.821745 0.659137 -0.163578 -0.282699 0.732634 0.456726 0.904755 -0.136169 -0.423331 -0.557299 -0.487764 0.475655 0.0399663 0.305523 -0.320699 0.244486 -0.649598 -0.948883 1.09107 -0.333744 0.498554 -0.734856 -0.820593 0.454841 0.788761 -0.965127 0.675301 -0.0116628 -0.0622342 -0.659159 0.644749 0.172876 0.792182 -0.0157128 0.600344 0.532905 -0.711348 0.369411 -0.888406 0.193687 0.402495 -0.433047 -0.0994649 -0.363586 1.06557 0.911352 -0.743306 -0.808829 0.93768 -0.833798 -0.015416 -0.0195565 -0.635524 0.0367832 0.335823 0.753623 0.592469 -0.067756 0.106828 -0.588063 0.114004 -0.550333 0.429851 0.324255 0.301258 0.132071 0.0579397 0.872989 -0.261161 -0.377681 0.358463 -0.977716 0.489218 -0.519245 0.0572206 0.0530975 -0.81662 0.0636586 0.423387 0.856628 -0.13772 -0.446002 0.247749 0.78677 
0.49479 -0.804379 -0.035205 -0.0880431 0.307831 -1.02247 0.327699 -0.176015 -0.294152 -0.392554 -0.730577 -0.798652 0.703165 0.107283 -0.820699 -0.821184 0.95379 0.556851 -0.767098 0.320546 0.79231 -0.00312735 -0.55033 0.799363 0.932161 0.787795 0.741972 -0.0317706 -0.906778 -0.148263 -0.970225 0.55486 0.0930303 0.0359987 -0.45707 -0.562795 0.116072 0.887445 0.3343 0.825331 -0.516763 0.517711 -0.928435 -0.829842 -0.360785 -0.748509 -0.649497 -0.343708 0.825126 -0.364197 0.912838 0.622072 0.683047 -0.679698 0.413065 0.565102 -0.928687 0.143243 -0.451539 -0.812371 0.979688 -0.390583 0.770133 0.107551 0.688711 -0.643916 0.506801 -0.25591 -0.891289 -0.214146 -0.327613 -0.348177 -0.65966 -0.255161 -0.161737 -0.0379147 0.00446025 0.166768 0.542676 -0.150613 0.852148 0.475441 -0.478872 0.461325 0.813351 0.916543 0.0692243 0.907683 0.0471307 0.527278 -0.914952 -0.011167 -0.777907 0.884927 -0.865371 0.869247 -0.802664 0.640281 -0.35595 -0.613309 
-0.580285 0.276601 0.00304631 -0.31417 -0.969255 0.765229 0.709734 0.116934 -0.00734445 0.272193 0.936503 -0.148368 -0.255426 -0.56951 -0.680258 -0.429322 -0.651361 0.362007 -0.536027 0.394085 0.00035621 -0.458126 -0.580392 0.223455 -0.597615 -0.482197 0.0836078 -0.421279 -0.853257 0.707155 -0.0834407 -0.449419 -0.0161438 0.925179 0.321599 0.0126949 0.75212 0.0153867 -0.929354 -0.21322 -0.712433 -1.00551 0.637594 0.0328595 -0.553596 0.956086 0.60057 -0.190368 0.350933 -0.922667 -0.820678 -0.669536 -0.294784 -0.397737 0.608963 0.0162211 0.130859 -0.335883 0.595892 0.263051 -0.617874 -0.481048 0.822261 0.422368 -0.532889 0.192273 -0.623765 -0.800916 -0.904038 -0.549303 -0.0164001 -0.569443 -0.538427 -0.377118 0.469697 -0.094529 -0.420469 0.0792621 0.674013 0.932238 0.170114 0.879067 -0.700838 0.767594 -0.584554 0.890297 -0.216793 0.605282 -0.43501 -0.670785 -0.151438 -0.0487816 -0.0861686 -0.305374 -0.690074 0.357487 0.839746 -0.311219 0.556954 0.954361 
0.138235 -0.457217 -0.608207 0.599816 0.166227 0.861504 -0.495237 0.745757 -0.0592356 -0.798283 0.677355 -0.902332 -0.915357 0.976525 0.874089 -0.430707 0.866822 -0.327794 -0.825424 -0.567985 0.0670118 0.042911 0.379349 0.980842 0.733285 0.690427 0.338697 0.551351 -0.622057 -0.104374 0.512497 0.516178 0.43841 0.904289 0.115994 -0.395363 0.765793 0.620757 -0.649606 -0.293442 0.822474 -0.97225 -0.195774 0.907117 -0.995725 -0.321685 -0.52359 0.871097 0.35052 -0.349014 -0.696888 -0.582468 0.693897 0.682461 -0.601626 0.427182 0.372888 0.737071 -0.0214668 0.75083 -0.367303 -0.50897 0.267008 -0.928893 -0.604681 -0.616998 -0.324256 -0.838888 -0.996241 0.026138 -0.13233 0.826234 0.0538877 0.671896 0.73335 0.0581626 -0.649789 -0.790239 -0.0707405 0.700731 -0.139253 0.232372 -0.881737 -0.445357 -0.0851671 -0.483362 0.981825 -0.71228 -0.746291 -0.0396413 -0.961449 -0.113594 0.451389 0.305559 -0.0424877 0.846708 0.688562 0.633256 -0.99218 0.692321 
-0.331964 -0.131671 0.512784 0.719926 -0.447595 0.235702 -0.224601 -0.0630926 0.474759 0.676658 -0.403872 -0.670226 -0.0630499 -0.280846 -0.122011 0.841855 0.213543 -0.131787 -0.878833 0.496261 0.821804 -0.823915 -0.638819 0.24343 0.465416 0.319323 0.113883 0.162327 -0.0414906 0.127797 -0.150647 0.619052 -0.996591 -0.617092 0.339641 -0.434169 0.629593 -0.896764 0.455784 0.0991193 0.807888 -0.953419 0.41756 -0.253118 -0.246781 -0.717316 -0.393201 0.978255 0.1449 -0.275774 0.476984 -0.0400535 -0.122296 0.84222 -0.765009 -0.608598 0.190383 0.374973 0.553899 -0.84798 -0.527532 -0.590923 0.787756 -0.522509 -0.21249 0.125156 0.0327928 -0.59276 0.172951 -0.512123 0.492301 0.0173879 -0.473247 -0.0756558 0.769254 0.287848 0.231341 -0.642554 0.287817 -0.618602 0.0862475 -0.240672 0.341748 0.991675 -0.385012 0.585019 -0.584855 0.791229 -0.0589619 0.924314 0.941822 0.434463 -0.675161 0.715565 0.899967 0.113889 -0.186084 -0.0757106 0.539591 -0.979411 
0.511838 -0.0864607 0.0140192 1.03336 0.78901 -0.376968 0.26588 0.324679 0.0296596 -0.869291 0.44203 -0.637779 0.367094 -0.0457137 -0.796141 0.739871 -0.767087 -0.124692 0.380728 0.401953 -0.378801 0.658424 -0.345486 -0.355521 0.0917619 -0.334587 1.02789 -1.12177 0.703266 0.716272 -0.836917 0.0923953 -0.565241 0.389007 0.114972 -0.379963 -0.980755 -0.934183 0.817524 0.303416 -0.442949 0.329202 0.645213 -1.04589 -0.833866 0.755242 1.21818 -0.556284 -0.332651 0.498314 -0.743555 -0.209839 -0.197864 -0.437125 1.03376 -0.366876 0.624537 0.994528 -0.249044 0.216438 0.141009 -0.186433 -0.497819 0.774217 -0.905359 0.408755 -0.651573 -0.9194 0.253816 -0.855179 0.256969 -0.696746 0.45407 0.0449513 -0.546664 0.497886 0.0375446 -0.816599 1.08414 0.58224 0.877648 1.12473 -0.577281 -0.0387463 -0.0877133 -0.852626 0.92844 -0.554544 -0.946465 -1.01475 0.563734 0.512303 -0.187485 -1.08786 0.214527 0.169191 0.302605 0.509573 0.192736 0.0159965 
0.849931 -0.689549 0.415554 0.110775 0.348405 0.889665 -0.481306 -0.639674 -1.1672 -1.33491 0.433327 -0.949373 -0.443794 -0.600467 -0.050972 -0.508407 -0.884616 0.253567 -0.166927 -0.508162 -0.116264 -0.107122 -1.03613 0.160796 -0.464164 0.324313 -0.411419 -1.1587 0.311851 0.922875 0.350379 -0.232763 0.893565 0.407851 0.752497 0.904867 -0.00165603 0.375832 -0.460156 -0.0105589 -1.6738 1.33039 0.60676 -0.7329 -0.642994 -0.513916 0.989993 -0.467126 0.105613 -0.566101 1.08966 -0.0938511 0.172093 -0.0116494 -0.0126247 -0.0152807 0.177885 0.19224 0.391116 1.02699 -1.15877 0.163338 -0.0587193 -1.06704 0.760232 -0.970626 1.19318 -0.0815107 -1.26435 1.02515 -1.32776 -1.00331 1.52122 0.464179 -0.443514 -0.496743 1.13568 0.126924 0.0129997 0.03592 -0.0629752 -0.172724 0.789758 -0.859857 -0.625219 -1.08134 1.17766 0.343701 0.223907 -0.817634 -0.279616 0.978639 -0.282712 0.158034 1.03641 1.06296 0.82785 0.410398 -0.854558 -0.76438 
0.817898 -1.22995 -0.792884 1.31903 0.218267 0.219725 0.694939 0.337169 -0.819462 -0.920587 -0.176056 0.28612 0.463175 0.56657 0.36873 -0.67824 0.380261 1.00286 -1.18513 -0.124735 1.14956 -0.151748 -0.490738 0.00134846 -0.594244 -0.23881 -0.296771 -1.02037 -0.216669 -0.155693 -0.778345 -0.563986 -0.29224 0.563254 0.785681 0.303881 -1.1647 -0.0486438 1.15569 -0.741308 -2.12469 0.788392 -0.274387 0.703291 -0.328309 -0.451267 0.714882 -0.5916 0.471737 -0.574414 1.12014 -0.453495 -1.52666 -1.39861 1.35582 0.156778 0.175965 -0.427887 -0.8743 0.699356 -1.28665 0.351573 0.916386 -0.271853 -0.829231 0.0962094 1.04042 -0.929398 -0.477848 -0.170725 -0.715444 0.147622 -0.197354 0.393052 0.232754 0.136826 1.6699 -0.332352 0.14731 0.399406 -0.281363 0.440876 0.705321 -0.342248 0.819497 0.617066 0.311498 -0.238312 0.901264 -0.775661 0.632388 -0.323426 -0.750306 -0.418377 0.566388 1.15836 0.0572689 -0.522106 0.63938 1.43083 
0.607072 -1.23797 0.516639 2.29329 0.484133 -0.417744 -0.279397 1.08794 -0.129409 -1.39253 -1.1572 -0.445647 0.349132 0.296339 0.0347434 -1.5471 -0.466832 0.448815 -0.692929 -1.00392 0.608089 -0.45356 -0.834811 1.52136 -1.12025 -0.733851 0.994569 -0.573074 0.616307 -0.101914 -0.48663 0.0125539 0.339588 -0.0629349 -0.1561 1.5182 -0.837543 -0.282684 0.408401 -1.12842 -1.32276 1.42705 0.772487 0.0725718 -0.716112 0.0849435 1.02976 0.357551 -0.112737 -0.566069 1.3053 -0.0502075 -1.31592 -1.83935 1.08953 -0.866548 0.223312 0.415671 1.23903 1.35011 -0.0706145 -0.0258977 0.283558 -0.322681 1.04838 0.336691 -0.169123 -1.16737 -1.00441 -0.24573 -1.44604 -1.06375 0.30157 0.305283 0.00191326 0.715696 0.883937 -0.103061 -0.557297 0.483953 -0.372022 -0.0351008 0.116824 -0.013328 0.733546 0.67738 -0.12099 0.986889 -0.713605 -0.782601 0.551558 0.988205 -0.939858 -1.57937 0.223218 0.571758 0.777496 -0.116919 0.0170808 -0.109588 
-0.975131 -0.607136 -0.0978712 1.28289 -0.00117253 0.354651 -0.190947 0.448888 -1.43578 -0.194816 -0.198959 1.64572 0.768678 0.901007 -0.252648 -1.19593 -0.357287 0.506418 -1.34721 -0.600687 0.268286 -0.841182 -1.51155 0.988787 -0.890898 0.765261 1.68141 -1.61379 0.416983 -0.474769 -1.19193 0.197958 -0.734575 0.509795 1.40236 1.64755 0.0829367 -1.72654 -0.167249 -0.945598 -1.5882 -0.187719 0.0844462 -0.0110454 0.156375 1.44646 0.792438 -0.797479 -1.65424 -1.08801 0.606598 -2.09758 -0.682739 -1.29149 1.3908 0.148182 1.14502 0.712058 1.1743 -0.408698 -1.22705 -1.37345 1.32053 -0.942105 0.517016 0.458309 1.1393 -0.561032 -0.506694 -0.832393 -1.31924 -1.31069 0.00312911 -0.487668 -0.310965 -0.148312 1.14697 -0.163727 -0.278362 -0.408688 -0.78194 1.32702 -0.0610966 -1.62859 1.33234 0.880362 0.915904 -0.522478 -0.879746 0.239924 -0.403347 -0.234785 -0.511302 -1.35171 0.411034 -0.263405 -0.353851 -0.563941 -0.117743 1.31618 
-0.223719 -0.170907 1.08257 1.87527 0.0263744 -0.443203 -0.161718 0.184797 0.290225 -0.00587747 -0.405464 0.822784 -0.517412 -0.350214 -0.650458 -1.96017 -0.121236 0.766573 -0.392716 -0.128711 0.00593614 -0.837325 -1.09507 2.20289 -1.01103 -0.240633 -0.149694 -0.68772 1.08312 -0.394326 -0.593135 -0.617238 -0.621664 -0.0804454 1.87301 1.57347 -0.871564 -1.62257 -0.256905 -0.218137 -1.08311 1.33563 0.936839 1.32635 -1.54001 0.10632 1.24434 -0.263872 -0.301781 -1.41814 -0.604004 -0.7898 -1.10777 -1.68633 2.05017 -0.546219 0.629102 0.0717059 -0.636953 0.473103 -0.70194 -1.08836 2.1293 -0.636649 0.681612 1.65268 -0.0536005 1.59703 0.746539 -0.277606 -1.83459 0.440687 -0.0551852 -1.57725 0.327835 1.0858 0.161987 -0.843747 0.243449 0.987673 0.338478 0.648257 -0.114369 -0.667878 0.629872 0.575113 0.582633 -0.378631 -1.14721 0.337466 -0.754726 0.36709 -0.746048 -0.638457 -0.213773 0.549439 0.242337 -0.614779 0.847977 0.947043 
-0.890106 -1.15398 -0.411183 2.30022 -0.395321 1.24218 0.767574 -0.241105 -1.1635 -0.470826 0.019533 1.43165 -0.841045 0.00986271 -1.1925 -0.565986 -0.169157 -0.180402 -0.534538 0.571139 -0.554617 0.270183 -2.23329 1.08076 0.480118 -0.223842 0.159944 -0.182709 1.03813 -1.10801 -0.595529 0.48092 -0.67216 0.620748 1.04454 2.22202 -0.676357 -1.13969 -0.464486 -0.127792 -0.708949 0.945791 -0.396965 1.04071 -1.14296 0.913105 -0.48633 0.424414 0.931132 -0.551501 -0.300805 0.090485 -0.334121 -3.04409 2.06177 -1.39825 0.978172 0.265692 -0.445522 0.315358 -0.80401 -0.68927 1.38215 -0.486554 -0.479211 2.53983 0.94923 1.07011 0.728578 -0.631531 -0.373693 1.17799 -0.222832 -0.920112 0.852594 -0.92615 0.0786185 0.202517 1.26238 0.658123 0.827611 1.04638 -0.663039 0.106623 1.66779 1.07831 0.0989572 0.133428 0.482167 -1.00239 0.433313 -0.451602 0.342366 -0.705147 0.68081 0.396517 -1.26277 -1.49794 0.322661 -0.0982589 
0.558295 -0.210995 -0.602906 1.49552 -0.791268 1.48655 0.368548 -0.87101 -0.765449 0.821614 0.850919 0.511842 -1.45876 0.675201 0.0474591 0.36597 -1.14456 0.607061 1.15532 -0.030061 0.287882 0.458974 -2.00499 0.458013 0.686771 -0.339168 0.689965 -1.45885 -0.526265 -1.35383 -0.705011 0.46241 -0.207166 0.0452301 1.0174 1.65144 -0.495802 -1.23945 -0.0307641 0.165212 0.831115 -0.338059 0.495591 1.66324 -1.59815 0.964723 -0.551515 -0.356889 0.450054 -0.646182 0.176259 -1.45599 0.750452 -1.78904 3.57303 -1.83436 1.28089 -0.339256 0.708321 0.872103 0.156834 -1.22544 1.00805 -0.94733 0.369504 2.3199 1.03516 0.121006 3.18835 -1.43205 -0.204588 1.17746 0.025321 -0.121943 1.3994 0.600732 -1.58291 -0.331609 -1.03815 1.00802 0.0476666 0.751885 -1.47379 1.16494 2.33292 -0.403048 -1.71921 -1.54485 0.701904 1.02903 -0.723119 0.824338 -0.670581 -0.368117 0.739718 -0.831957 0.0337413 -1.01668 0.0967955 0.209994 
-0.436363 -0.878134 0.0251695 0.721847 -1.24542 0.676588 -0.876939 -0.675744 -1.15697 1.00788 0.552176 1.926 -2.09432 0.654886 -0.579779 0.806724 -1.11413 0.543975 1.07684 -0.0235177 -0.386116 -0.0586141 -1.0559 0.695362 -0.632347 0.714983 -0.291334 -1.82625 1.00822 0.115355 -0.86385 -0.579425 -0.053128 -0.796726 0.696024 2.01119 0.563005 0.185768 0.480415 1.13092 0.79561 -0.909159 -0.488624 1.31384 -1.37636 0.307184 -1.98342 0.0934244 1.16628 -1.37738 -0.563051 -1.69677 1.97047 -1.56179 2.7126 -0.88684 1.31382 0.328232 0.881844 0.581722 -0.426072 0.580656 2.08375 0.472753 -0.971004 1.84811 -0.576539 0.470658 2.47132 -1.12966 0.103632 1.12717 0.532351 -1.25089 0.67464 0.516542 -2.31917 -0.00891472 -1.37974 -0.344238 0.783684 1.80118 -0.0209408 1.17981 2.956 -0.0455264 -1.14112 -0.0490166 -0.0593401 0.600619 -2.19249 1.39643 -0.266891 -0.741158 0.958337 0.0376588 0.445007 -0.479529 0.139279 -0.654909 
-0.10259 0.415024 -0.799818 0.449602 -0.192912 0.227384 -0.988529 -2.44414 -1.14252 1.46438 0.360356 2.37127 -0.402014 0.50563 0.0792813 1.23716 -1.78937 -0.190182 -0.298415 -0.0200296 -1.10231 0.248731 -0.566286 1.2487 0.590082 0.449229 0.960881 -1.08689 1.08102 -0.109921 -0.934637 0.20294 -1.036 0.36271 1.61824 2.16615 0.237453 -0.963391 -1.32589 1.14342 2.23097 -1.97116 -0.523015 0.606872 -1.39213 1.08183 -0.480926 -1.11665 -0.750877 -0.907619 1.11069 -2.46801 2.87628 0.196832 1.57111 -1.05155 1.46455 -0.929365 -1.97488 0.748553 0.164171 1.43162 1.0336 -0.209583 0.998057 1.72153 -0.554373 -1.12365 3.16825 -0.0198479 0.591729 0.267732 0.301378 -0.59941 1.55504 1.09371 -3.24089 0.39374 -0.75664 -0.879974 1.80303 1.29781 0.0553112 -0.411191 3.29917 -0.33121 -1.92769 0.375764 -0.386908 0.478832 -1.37591 2.04572 0.414338 0.383524 1.08502 -0.664984 -0.712602 0.654736 0.302174 0.0861575 
-0.370351 -0.305276 1.01816 0.833613 -1.424 0.745632 -0.0590085 -1.97943 -1.19236 1.41911 1.12064 0.311171 0.924642 -1.34349 -0.937405 1.984 -1.56355 -0.613305 0.758858 -0.0242374 -1.29492 0.723826 -1.56295 1.64844 -0.454589 1.15952 0.5665 -1.69825 -0.15634 0.579337 -0.554179 0.369469 -1.04532 -0.157349 1.52624 -1.25356 0.00755316 0.037567 -0.638824 1.20143 2.69186 -0.574583 -0.192426 0.439179 0.589967 0.326785 -0.420582 1.15019 -0.369968 0.214673 1.14775 -1.85538 1.75745 1.88187 0.846593 -0.0287526 0.223754 -0.787782 -0.986069 -0.560087 1.51299 0.606349 1.35272 0.609069 -0.319114 1.68061 -2.35041 -0.250787 2.81264 -0.334996 -0.887962 0.614077 -1.39549 -1.49123 0.635704 1.96659 -2.26136 -0.353787 -0.477855 -1.19012 0.554507 0.79228 0.543568 0.11082 2.03654 0.970773 -4.32513 0.227962 -1.83754 -1.18393 -1.69971 2.22416 1.45217 0.442102 1.45285 -2.17952 -0.162136 1.43257 -0.363256 0.682925 
0.802542 -0.845291 0.771952 -1.17476 -0.829866 -0.504345 -0.879762 0.00729487 -0.291081 2.82208 0.400948 1.26619 -1.03539 -1.6965 -1.13299 0.269993 0.191583 -1.25401 0.564155 0.954725 -0.819376 0.218959 0.0246666 2.00915 -1.05665 1.40231 -0.719843 -1.50978 0.450238 2.12392 -1.16078 -0.75831 -0.552769 0.093255 0.899786 -2.09568 0.186139 0.472928 -0.190907 1.5564 1.79763 -0.323353 -0.108077 -1.14499 0.345034 0.630081 -0.482785 0.225877 -1.63903 -0.535589 0.488202 -1.88125 0.48563 0.627617 0.363417 0.0899016 -1.2936 0.128011 -2.90826 0.869347 1.2519 -0.397686 1.12486 0.480815 -1.21179 1.00093 -2.98643 -2.34675 1.86439 0.0595182 -0.335734 -0.839775 -1.30399 -0.264457 0.318325 2.50231 -0.558632 -0.498743 -0.852442 -0.772766 1.69234 0.966659 -0.337876 0.924257 2.96288 1.76467 -5.50867 1.44747 -2.15025 -0.844745 -2.08536 -0.266835 2.09451 0.165553 -0.768705 -0.230072 1.12434 1.22474 -0.385427 -0.483335 
1.33907 0.32301 0.758765 -0.762846 -1.02058 -1.16003 -0.169916 -0.92034 -0.664632 2.92093 1.17085 0.00837869 -1.19184 -0.569529 -1.83184 2.3327 0.767647 0.0734089 0.509235 0.926203 -0.353866 -0.364261 0.629968 0.857659 -0.504634 0.897064 -0.712216 -1.65744 -0.273443 1.21647 -0.266225 1.15329 1.0242 1.02323 1.27872 -3.30856 -2.5467 -0.560663 -0.113135 1.48914 1.99779 -0.616619 -0.586324 -0.433202 0.618638 0.32434 0.180857 0.544605 -1.15866 -0.600449 0.0451443 -2.70877 1.95195 0.681736 -0.502962 0.986503 0.223227 0.111313 -2.87033 -0.073593 1.62098 0.471699 -0.173834 0.729504 0.233793 1.79558 -2.21676 -2.62442 1.52195 -1.3151 -1.28001 -0.149188 -0.29168 -0.131633 -0.419158 1.44808 -0.849519 -0.812914 0.212255 -0.81244 -0.366001 1.59976 1.14305 1.49164 1.17001 0.461374 -4.49303 1.33487 -1.5794 -0.000415725 -1.12422 -0.0632249 1.95054 -0.611619 -1.75811 0.430356 0.370623 0.164125 -1.91533 -1.26854 
1.82747 -0.940972 0.774967 -0.552703 0.407698 -1.27707 -0.624674 0.0333117 0.267806 3.20771 1.24612 -0.275601 -1.11384 -0.879324 -0.706468 0.62717 1.52978 -0.993179 -0.0456358 -0.553326 -1.07682 -0.506562 -0.499703 0.811193 -0.901905 -0.612907 0.89457 -1.49593 0.869255 2.88772 -0.0345024 0.0950517 -0.887665 -0.22763 0.734479 -2.41258 -2.23987 0.706008 -0.737765 0.26062 1.16709 0.0685592 -0.76635 -1.59398 -0.0250951 -0.236068 -1.13016 0.471072 -2.21429 -1.18349 0.104019 -2.0066 0.924973 0.298889 -0.734239 -0.307151 -1.26644 -0.971878 -2.6262 -0.835354 1.60158 -0.145106 -0.120697 0.69336 -1.41619 -0.704206 -3.34494 -2.19828 0.868845 -1.94656 -0.400803 -1.30153 0.306043 0.987814 -1.14063 2.89865 -0.451196 -0.589294 -0.471969 -1.28267 -0.752321 1.21976 -0.09484 1.62819 1.8685 1.37901 -2.76923 2.20147 -0.855445 -2.00754 -0.811754 -0.445531 -0.0877009 0.32951 -3.09926 0.861502 1.37451 -0.907522 -0.744882 -1.2493 
1.24747 -0.665485 0.428656 -0.860824 0.835687 0.302786 0.112879 1.41577 0.332673 3.21091 0.492183 -1.50507 -1.94787 -0.997032 -0.89919 2.18489 1.32854 1.47877 -0.00464185 -0.669769 -0.911261 0.324305 -1.6223 0.804292 -0.643807 -0.59937 0.649742 -1.30516 -0.502883 1.33813 -0.849971 1.29292 -0.345151 0.732642 0.850359 -3.14885 -1.93948 0.320389 -1.5569 -0.166643 0.273373 0.704441 0.362391 -0.217687 -0.662424 0.744738 -0.912524 0.982645 -0.715847 -0.991841 -1.8225 -2.12862 -0.71286 1.21271 -0.359509 0.0876501 -1.31866 -0.877201 -2.5829 0.690151 3.05837 -1.37632 -0.552897 0.571741 -1.23932 -1.33001 -1.88934 -0.427036 0.973898 -0.755519 0.341943 -0.319343 -0.308056 0.398802 -0.979225 1.61354 -0.319684 -1.36486 1.79787 -0.334394 -0.674081 0.175814 -0.406506 2.26634 1.34577 2.0082 -2.45964 2.06391 -1.918 -0.889475 -0.456065 0.616017 -0.287965 1.52756 -1.78767 0.675963 -0.0153548 -0.511215 -0.459297 -0.447473 
0.793042 0.325474 -0.326151 -0.827935 0.948947 -0.892819 0.112829 0.470871 0.0129985 3.23763 -0.130352 -1.28414 -3.62928 -0.542516 0.491365 3.32363 1.04482 1.49239 0.870425 0.118744 0.621688 -0.656258 -1.81708 0.383344 0.888515 -1.46524 -1.51337 -1.70969 -0.819935 0.774307 -0.878354 1.20408 0.227038 -1.36049 -0.598929 -2.1779 -2.87451 -0.603044 -2.16004 0.0809803 1.00914 1.83169 -0.136656 0.352273 0.722343 -0.191561 -0.102291 0.203068 -0.942329 -0.737828 -2.16854 -0.429066 -2.01029 -0.757193 -0.0800431 -0.555452 -0.870589 -0.804946 -1.26927 1.54679 2.05797 -3.07784 -0.446589 0.0413353 -2.01137 -0.108218 -2.51461 0.252739 0.0696802 -2.49378 -0.536284 -0.262773 1.93018 -0.111324 -1.7197 2.52978 0.13467 -0.134738 1.30757 -0.148221 -0.0786822 1.71089 -0.926533 2.70144 -0.272764 0.403486 -0.28183 2.28904 0.123064 -1.65699 1.1455 0.78933 -1.12451 -0.034745 -2.93091 1.59633 -0.854034 -1.1948 0.820662 -1.39488 
-0.444063 0.185484 -2.03219 -0.296116 0.804047 0.339792 -1.10639 -0.258077 0.30194 2.38335 -0.384523 -2.63347 -2.0349 0.669603 -0.567119 1.29275 0.419005 1.73316 -0.213683 -0.300602 0.210884 -0.512238 -1.40781 -0.512283 1.28013 -1.08408 -0.906165 -1.94673 -0.529876 0.399516 -1.88069 0.77609 -0.841334 -1.25354 0.561277 -2.47711 -3.40446 -1.02647 -1.44679 -1.05659 0.16794 1.26578 0.72515 -0.578739 -0.275113 -1.55438 -0.585425 -0.254324 0.108913 -0.481882 -3.16975 -0.851291 -0.711088 -0.671762 -1.07983 -1.04519 -0.503517 -0.429806 0.920864 0.517994 1.15376 -1.91898 -0.429217 1.97112 -2.46542 -0.91024 -1.62329 -0.0808592 0.650292 -1.84846 0.416033 -2.07472 1.05012 -0.636526 -3.13417 1.8688 0.796748 -0.297163 2.49625 0.568224 -0.459122 0.0565539 -1.42919 0.0689641 -0.353292 1.27568 0.864665 3.89673 0.164238 -0.489044 2.23831 0.37088 -1.28849 0.90416 -1.15322 1.74535 -1.48204 -0.10985 -0.00675461 -0.533238 
-0.222681 0.447988 -0.336311 0.576608 0.340474 1.21787 -0.542187 0.504612 1.37384 1.74187 1.53694 -2.44157 -1.06258 -1.15602 0.547265 1.01739 -0.35174 0.439123 -0.590538 -1.34855 1.26665 -1.26952 -2.04469 -2.39705 0.544486 -1.96587 -0.628019 0.758202 0.75752 -0.573576 -1.50431 -0.720865 -2.10562 -1.65277 0.427975 -0.245446 -2.8649 -0.656527 -1.9341 -0.745681 -0.810724 0.0298337 -0.650412 1.12584 -0.129162 0.16391 -1.47726 -1.30226 -0.867161 -0.279798 -3.10728 -0.768727 -1.54075 -2.46819 -1.61051 -0.215492 -1.04953 0.092218 1.69372 -0.143133 1.19141 -3.83912 -1.13302 -0.165607 -1.74168 -1.3879 -1.11946 -0.0459658 0.0882435 -1.50763 -0.431019 -1.20062 2.75633 -1.10652 -1.7171 0.585716 1.13144 -2.60779 1.22878 1.71274 -0.700382 0.7635 -0.100828 0.407432 -0.389517 1.43783 1.09399 3.7255 -0.0134866 -0.0591344 2.26622 -0.574463 -1.16476 0.460813 -0.546208 1.9556 -1.26319 -2.04994 0.0917319 0.0217535 
-0.0743743 2.36438 0.343921 -0.0558056 -0.303551 0.197692 0.085046 0.109322 1.11273 2.51761 1.40305 -1.59993 0.83895 -1.37284 -0.540239 0.525377 -0.867225 1.67422 -1.74898 0.357862 0.433903 0.196601 -0.788493 -1.61033 1.145 -1.62639 -0.434653 -0.0950406 1.17387 -0.572129 -0.940039 -0.636879 -1.83391 -1.05579 -0.800642 1.57771 -1.28834 -0.0990842 -0.0136499 -0.256648 -1.31813 0.782809 0.413785 -0.182124 -0.142165 -1.21393 -1.28781 -0.779257 0.689627 0.273811 -2.52526 -0.210256 -0.413983 -2.88776 -1.26148 -1.66513 0.3494 0.671021 1.17854 0.0562199 -1.48487 -3.35008 0.935365 -0.180978 -0.225635 -0.327134 -0.713861 -0.190293 0.559063 -0.912532 -0.354453 -2.38768 1.94268 -2.16573 -0.77113 0.538337 0.777091 -2.60042 1.62896 1.24265 -1.22151 -0.812938 0.773722 -2.02068 -0.325254 1.29708 0.629447 1.5063 0.0140719 0.330115 1.28034 -0.659207 -0.634643 1.32732 0.881768 0.112113 -0.00535262 -0.549748 -0.810538 0.0171404 
-0.0144707 1.70685 2.13803 -0.77194 0.893276 0.7832 -0.764576 -0.037167 2.1751 -0.103211 0.0896006 -0.104893 0.82286 -1.02541 0.46578 -0.492693 0.113355 0.32843 -1.51386 -0.858417 0.634441 -1.6285 -0.578082 -1.63353 0.365273 -2.62035 0.242115 0.97935 0.570921 -0.735292 -2.38316 -1.36688 -1.44904 -0.0100975 0.550857 1.13827 -0.979778 0.61426 -0.68134 0.425856 -3.25826 0.239149 0.200163 0.367284 -0.400966 -0.698727 -1.49671 1.33904 0.00538813 -1.76641 -0.333977 0.107892 -0.361388 -3.19541 -1.08175 0.0929765 0.867225 0.113152 1.23194 1.66212 -1.03458 -1.86298 0.137762 0.0310366 0.0393701 0.721007 0.0207083 -0.580537 -0.478561 1.05156 0.228875 -1.8206 1.99094 -2.66862 -0.116728 0.834416 0.753095 -2.79141 0.349179 1.80623 -1.22263 -0.403922 0.475465 -0.863041 -0.651793 0.883943 -0.360752 1.83645 1.07504 1.75542 0.792108 -0.598529 -0.0867501 -0.406386 -0.413184 1.35103 0.900104 0.575089 -1.36 -0.579259 
