Network weights:
4
784 100
-0.651479 0.0485624 0.726478 -0.955301 -0.0383384 -0.863461 -0.36569 0.197838 -0.293648 -0.973562 0.461906 -0.404097 -0.0745474 0.884262 -0.951031 -0.164966 0.364366 0.511603 0.636041 0.135421 -0.10006 -0.291974 0.486738 -0.245246 0.999942 -0.266696 -0.00205233 -0.260462 0.16577 -0.669058 -0.405389 0.514291 0.379505 -0.678911 0.55899 -0.658834 -0.542372 -0.8067 0.539004 0.16398 -0.780262 0.000909994 0.759883 0.14519 -0.114828 0.808852 0.980224 -0.750462 0.320455 0.616265 0.384959 -0.779605 -0.675709 -0.128303 -0.0248513 -0.675767 0.605 0.973096 0.0637717 -0.229229 -0.695961 0.658383 -0.714938 0.683544 0.979472 0.844052 -0.97529 -0.5629 -0.962648 0.563714 0.601079 -0.74291 -0.435376 0.360962 0.40228 0.449796 0.169814 0.382504 0.699334 -0.50973 -0.00123053 0.0842927 -0.289335 0.32306 0.955989 0.685813 0.647293 0.56099 0.65891 -0.288935 -0.668239 0.962949 -0.630552 -0.383177 0.646492 -0.65108 -0.539125 0.671202 -0.213981 -0.501773 
0.234916 -0.612902 -0.244683 0.79954 0.74806 -0.842403 0.249336 -0.0821253 0.540101 -0.0513299 0.408144 -0.461129 -0.967037 -0.881191 0.861931 0.988952 0.804623 0.509224 0.549942 0.463532 -0.77971 0.881702 0.426481 -0.410262 -0.501475 0.0729733 -0.0613427 -0.0406001 -0.255824 0.724677 0.457627 0.979092 -0.888225 -0.787056 0.778632 0.859835 -0.62946 0.0279686 -0.22229 0.910642 0.976639 -0.814146 -0.550488 -0.990399 -0.695336 -0.688557 0.998554 -0.890714 0.820667 0.548495 0.572819 -0.959043 0.430198 -0.000700374 -0.369305 0.928723 -0.927727 0.569352 -0.111877 -0.183551 0.294028 -0.65425 -0.204459 0.405803 -0.441307 -0.425827 0.265639 -0.0707663 0.602142 -0.956651 -0.160125 0.57878 -0.770797 0.289387 0.588382 -0.466133 0.60083 0.586935 -0.356847 0.421498 0.135431 -0.784028 0.462455 -0.434372 0.215271 -0.906851 -0.505649 0.287544 0.662501 0.382474 -0.896007 -0.0434704 0.728224 -0.100467 -0.637667 -0.713083 0.473706 0.627972 0.216151 0.075848 
0.671321 -0.943974 -0.345372 0.900524 0.345413 -0.75699 -0.565609 -0.0537562 0.829945 0.0775444 -0.632258 -0.0346243 0.293516 0.830197 0.531004 -0.491213 0.923346 -0.974644 0.796332 0.585847 0.40783 0.900325 -0.457623 0.136054 -0.200142 -0.0952903 0.422971 -0.726436 -0.467318 -0.360878 0.349412 -0.795998 -0.304852 -0.995959 -0.895473 -0.959438 -0.752949 -0.461082 -0.0131945 -0.923004 0.616462 0.354547 0.0423714 -0.0900214 0.184744 -0.426624 0.418766 0.10809 -0.401269 0.215098 -0.306063 -0.993439 0.115422 0.236314 0.142615 0.91528 -0.858977 -0.434414 -0.811155 -0.326295 0.204708 0.538257 -0.122293 0.899856 0.542298 -0.017766 0.940418 0.789348 0.521152 -0.072777 0.866344 0.137615 -0.71823 -0.0912844 -0.952407 0.466514 0.482091 0.466359 -0.425396 -0.919178 -0.318543 0.26854 -0.912617 0.796879 -0.495146 0.229998 0.71216 -0.354123 0.795584 0.901004 0.319582 0.000291781 0.439262 -0.802711 -0.0998523 -0.0184405 0.179523 -0.159435 -0.229092 -0.299325 
0.767789 -0.362748 0.83829 -0.950443 0.545971 0.885852 0.516072 0.028059 0.352257 -0.909324 0.108881 -0.966323 0.359196 0.196265 0.830578 0.864064 -0.573737 0.542738 -0.490124 -0.778149 0.443742 0.829495 0.222138 -0.116973 -0.973181 -0.877714 0.864564 0.206301 -0.0371248 -0.364529 0.906987 -0.269353 0.27268 0.745307 -0.219796 -0.181283 0.63119 -0.703727 0.84675 -0.0165678 -0.613053 -0.0443758 0.0171314 0.746164 -0.848105 -0.152291 0.610226 -0.42184 -0.60955 -0.879939 -0.199993 0.834195 0.949707 -0.977854 -0.282746 0.97654 -0.855567 -0.418281 0.182892 0.107284 0.217189 0.0900022 0.837925 -0.510047 -0.164832 -0.381881 0.308638 -0.533613 -0.0856055 0.155391 0.449818 0.301334 -0.888973 -0.533043 0.0475381 -0.73706 0.314697 -0.342259 -0.158917 0.705109 -0.22208 0.641091 0.539314 -0.272379 0.663266 -0.743512 -0.29584 0.807735 -0.161813 0.886997 -0.0850437 -0.944514 -0.0230576 -0.247128 -0.454566 0.812064 0.37101 0.854075 -0.7215 -0.714585 
0.00952531 0.728276 0.587721 0.118699 -0.804301 -0.369124 0.381763 0.505118 0.293043 -0.742017 0.215051 -0.934904 0.87779 -0.230635 -0.201275 0.523125 0.0147975 0.501516 0.327916 0.857756 0.388709 -0.749592 0.902645 -0.631514 0.00431551 -0.548464 -0.819722 -0.623224 -0.69243 -0.543732 -0.325522 0.31501 -0.781615 -0.752171 -0.566872 -0.62887 -0.119186 0.818159 0.889467 -0.822583 -0.957535 0.104081 -0.755941 0.905974 0.867476 0.0448121 0.432326 -0.130063 -0.457341 -0.236589 -0.272731 0.931861 0.0281792 -0.376957 -0.695437 -0.965637 0.0830911 -0.537046 -0.600524 0.377565 -0.0722979 0.0766043 -0.296565 0.111764 0.309464 0.126051 0.494593 -0.811038 -0.0554094 0.393025 -0.634457 -0.0165179 -0.509905 -0.387833 -0.122123 -0.649473 0.65476 -0.671536 0.213714 -0.820627 0.102591 0.93766 -0.868952 -0.875247 -0.454309 -0.575018 -0.850965 0.643232 -0.100963 -0.446077 0.00996666 0.822763 0.631457 0.703902 -0.0562297 -0.0709329 -0.165216 -0.558807 0.128892 0.778877 
0.829584 0.484618 -0.241761 -0.719367 -0.888291 0.610422 -0.343769 0.757505 0.986837 0.935405 0.960534 0.00146721 0.863169 -0.899124 0.212602 -0.650168 -0.535041 0.357085 -1.00692 0.411913 0.913802 0.0222932 0.180182 0.555525 -0.261449 -0.818676 -0.51826 0.564828 -0.373179 0.603939 0.354858 -0.534716 0.115084 -0.897805 -0.216953 0.186205 0.723475 0.430255 -0.0320878 0.738044 0.318456 -0.0762026 -0.201768 0.101154 -0.00489201 -0.979002 0.514329 0.506641 0.354203 0.548926 -0.0726199 0.275371 -0.419633 -0.864222 -0.199444 0.332811 -0.665631 0.237248 -0.139157 -0.0673539 -0.151772 -0.729119 0.442729 0.955332 -0.682882 -0.84013 0.238788 -0.969046 0.608338 -0.837285 0.77384 -0.0996213 0.0837056 -0.416146 -0.932864 -0.913872 -0.432142 0.580451 0.594054 0.854772 0.132751 -0.498646 0.229536 0.708134 -0.323673 -0.954607 0.000319554 -0.00134827 0.336535 0.902907 0.943284 -0.798143 -0.818636 0.331406 -0.798312 -0.550318 0.499194 0.359244 -0.456915 0.0901204 
0.558486 -0.707613 0.993841 -0.433627 -0.0987787 -1.00047 -0.28574 0.482573 0.650782 -0.658772 0.418824 -0.319094 -0.14056 -0.390418 -0.531881 0.460883 -0.370711 0.484237 -0.554204 0.969562 0.402174 -0.610579 -0.871337 0.568657 0.727692 -0.613028 -1.01301 0.202901 0.767848 -0.461815 -0.7065 0.287949 -0.13055 -0.6876 0.968722 0.706233 -0.658903 -0.331663 0.248547 0.980224 -0.00880809 -0.377252 -0.269547 0.762326 0.23597 0.215448 0.301493 0.915122 -0.326993 0.757729 0.914021 -0.896892 -0.898298 -0.974525 0.627714 0.878658 -0.533397 0.639896 0.0583819 -0.804221 -0.858543 0.410208 0.568732 -0.0133382 0.708377 0.484175 -0.194934 -0.992849 -0.828767 0.978486 -1.00161 0.129466 -0.399793 -0.265114 -0.0278878 0.872337 0.902364 -0.748666 0.800964 -0.440612 -0.997022 0.667019 -0.289209 -0.829012 0.842865 -0.646576 -1.00647 -0.805561 1.00615 0.0880887 -0.553351 -0.825644 -0.509438 0.967306 0.190617 -0.85451 0.468849 0.897967 -0.796401 0.623006 
0.915727 -0.824906 -0.243957 -0.564317 -0.0797355 0.692094 -0.639286 -0.173542 0.98354 -0.861301 0.446448 0.934066 0.817026 -0.887807 -0.871972 0.533445 -0.527349 -0.872258 0.749376 -0.571716 0.237262 -0.82108 -0.387022 0.733348 -0.848254 0.815157 0.879711 0.591816 0.730656 -0.931476 0.205544 0.623477 -0.739642 1.00203 -0.824716 0.171649 0.725362 -0.476716 -0.95807 0.690098 -0.34701 0.452694 0.665125 -0.58487 0.586094 0.801828 -0.981292 -0.888318 0.913023 0.770424 -0.446482 0.164397 0.891247 0.0893926 -0.142724 -0.906886 -0.0539926 -0.254833 0.679239 -0.328248 -0.174203 -0.0572252 -0.661721 0.0264573 -0.063997 -0.497022 -0.745275 -0.403091 0.0475886 -0.722609 -0.692595 0.66101 0.739024 0.975184 -0.848898 0.356241 0.734256 -0.858626 0.451839 0.657816 0.9106 0.947036 -0.163125 0.871236 0.23048 0.694146 0.922345 -0.96682 -0.560521 0.634701 -0.271556 0.262656 -0.427972 0.0546993 -0.670913 0.451329 0.576882 -0.461031 -0.890102 -0.39522 
-0.156009 -0.608896 -0.733671 -0.475962 -0.619395 -0.627881 0.885085 -0.877892 -0.437828 0.330574 0.803706 -0.563156 0.273937 -0.375556 -0.68309 -0.635344 -0.69622 -0.734399 -0.570342 -0.261761 0.917927 0.131549 -0.996573 -0.5087 -0.790568 -0.657532 0.947834 0.76176 -0.108357 -0.959819 -0.653288 0.771892 -0.568892 -0.368799 -0.676382 -0.178576 0.0547163 -0.771783 -0.0378745 0.58641 0.554581 -0.261121 -0.957487 -0.205781 0.361231 -0.62526 0.209549 0.71569 -0.370922 0.644896 -0.54046 -0.461348 -0.253425 -0.550646 -0.0104649 -0.00587644 -0.218393 -0.0463502 -0.253534 0.689172 -0.00172124 0.20519 0.449266 0.394663 0.747227 0.756045 -0.739845 -0.241978 1.02603 0.216646 -0.654534 0.518668 0.971875 -0.609931 -0.581532 0.353192 -0.265156 0.586218 0.0734384 0.357973 0.219225 0.514542 0.931769 -0.971263 1.15867 -0.0642762 -0.00380711 -0.231841 0.886676 0.780237 -0.531722 -0.118772 -0.0859584 0.90728 -0.643312 -0.362827 0.669502 -0.454799 0.440197 0.696756 
0.781954 0.773946 0.196632 0.717399 -0.839386 0.538397 0.0793437 -0.0832335 0.183406 -0.832959 -0.70718 -0.621313 0.676242 -0.78008 -0.593259 0.660721 0.133124 0.440463 -0.539224 0.0253285 0.228666 -0.0982321 0.90932 -0.864774 -0.172656 -0.773188 -0.211199 -0.506408 -0.217802 -0.783613 -0.854135 -0.396092 0.966203 0.338859 -0.681283 -0.850429 -0.0893244 0.41915 0.0526151 -0.930281 0.575403 0.333295 -0.544003 0.225328 0.533394 -0.117666 -0.0709813 -0.296109 -0.687982 0.382887 0.713476 0.523975 -0.734911 0.645542 0.641919 0.131019 0.849986 -0.54057 0.605719 -0.349574 -0.333557 0.855589 0.230299 -0.384057 0.104194 0.526616 -0.216432 -0.983444 -0.0277482 0.834381 -0.916486 -0.474379 0.174399 -0.463562 0.836004 -0.271098 0.402581 -0.270349 0.436095 0.707105 -0.906549 0.168876 0.258339 -0.586752 -0.0135211 -0.0693323 0.518259 -0.320682 0.378782 0.159326 0.328033 -0.949065 -0.058279 -0.448819 -0.260592 -0.942467 -0.921874 0.460599 -0.915168 0.0724264 
0.304188 -0.843745 0.562825 -0.521422 -0.31053 0.35473 0.199186 -0.898887 -0.901083 -0.353864 0.821261 -0.798493 0.814633 0.0806001 -0.391203 -0.36716 -1.00195 -0.846215 0.314743 0.378465 0.318948 -0.364344 0.42776 -0.742553 0.192574 -0.880011 -0.688144 0.275022 0.587136 -0.613301 -0.694338 -0.0866215 -0.462747 0.867132 0.372232 0.233719 0.226128 -0.416986 0.329213 0.316346 0.224334 0.143707 0.514817 0.0384114 -0.780278 -0.868701 0.674547 -0.773386 -0.719553 -0.0148544 0.600439 0.59578 0.610594 0.037414 0.851889 -0.180124 0.146692 -0.830653 -0.907152 -0.259985 -0.446816 -0.559142 0.641024 0.0799378 -0.731114 0.00668174 -0.684714 0.497669 0.594817 0.646078 -0.18602 -0.18533 -0.206425 -0.672897 0.877588 0.0220524 -0.54363 0.535247 0.253608 -0.268425 -0.488584 -0.133771 -0.667798 -0.851399 0.977372 -0.813213 -0.0351232 0.0555525 -0.647882 0.0607881 0.801172 -0.0968613 0.464284 0.435535 1.01906 0.735881 -0.558371 -0.694659 0.231313 -0.945552 
0.952479 -0.962675 -0.151199 -0.254945 -0.635075 -0.287886 0.767972 -0.179348 -0.752499 0.0208154 0.55656 -0.232437 0.885374 0.888389 -0.0840461 0.788034 -0.925753 0.883173 -0.153767 -0.573102 -0.0537442 -0.355442 0.33211 -0.588556 -0.919562 0.325502 -0.855534 -0.477525 0.634537 0.372059 -0.444689 0.588474 0.409841 0.406529 -0.6669 0.774816 -0.884207 -0.898197 -0.402629 -0.635398 0.121918 -0.845499 0.130386 0.00642783 -0.957017 -0.954257 -0.205156 -0.882997 0.926268 0.63989 -0.455179 -0.126043 -0.715315 0.875602 0.283499 -0.635139 0.200778 0.426883 -0.11053 -0.165109 -0.200785 0.44483 -0.577553 -0.79011 -0.150651 -0.245633 0.985894 -0.0346744 -0.143545 -0.416422 0.328169 0.977582 -0.262215 -0.541551 -0.0157776 -0.219779 -0.496004 0.776136 -0.101719 -0.567305 0.418392 0.442063 0.307208 0.70382 0.317258 -0.409813 -0.932632 -0.479703 -0.981805 -0.040921 0.353366 -0.182313 -0.596175 0.775946 0.0276273 0.253632 -0.46781 0.0141287 -0.78151 0.387933 
0.597572 0.54575 0.364817 -0.666008 -0.995309 -0.6493 0.116235 -0.491288 -0.870611 -0.985766 -0.0577255 0.5478 0.456446 -0.75096 0.25318 -0.225812 -0.159956 0.322301 0.292955 -0.142331 -0.719099 -0.352854 0.675997 -0.313933 -0.576354 -0.296475 0.937992 -0.0456764 0.718484 -0.843651 -0.656445 0.31621 0.702453 0.711268 0.650605 0.706759 -0.940733 -0.232202 -0.782834 -0.810129 -0.21827 0.159977 0.736125 -0.762855 0.409067 -0.011482 0.0112075 -0.751605 -0.691685 -0.695809 0.10652 -0.408058 -0.0485691 -0.218346 0.277532 0.375497 0.485166 0.215217 -0.669379 0.201824 0.371068 -0.325693 -0.482175 0.0738275 -0.616154 -0.831397 -0.217776 -0.557454 -0.0647859 -7.84691e-05 -0.369016 0.716067 -0.839965 -0.633025 0.953224 0.569075 0.35605 -0.0371428 0.817445 0.666363 0.269016 -0.0767754 -0.74033 -0.779881 0.704002 0.53419 0.592528 0.190264 -0.250373 0.925961 -0.607585 -0.878967 -0.399715 -0.0885517 0.195412 -0.0158801 0.0801126 0.977287 0.426986 -0.984185 
-0.023017 -0.942048 0.731904 0.136769 -0.574928 0.685489 -0.294183 0.780843 -0.349649 -0.476961 0.447471 0.919205 0.446287 0.705616 -0.8605 0.15113 0.241184 0.735137 -0.658419 0.990564 0.660977 -0.265275 -0.88854 -0.738117 0.646004 0.306551 0.245966 -0.273678 0.284185 -0.326877 -0.258001 -0.739127 -0.268885 -0.525796 0.39777 0.156114 -0.840644 -0.896431 -0.0631244 -0.190374 -0.373293 -0.615299 -0.271137 -0.927143 -0.910144 -0.131531 0.22425 0.33053 -0.396466 0.565755 0.320732 -0.735177 -0.699481 0.432392 -0.473237 0.946657 -0.26108 0.773 -0.326966 -0.97708 -0.554321 0.414991 -0.716933 0.176932 0.889164 0.681275 -0.666431 -0.951661 0.784649 0.269861 -0.142274 -0.58851 0.65492 0.586945 -0.515811 0.743989 -0.544349 0.708428 0.0744973 0.0589518 0.274323 -0.605152 0.323673 0.574944 0.827297 0.850442 0.521674 -0.4336 0.622968 -0.805859 -0.410527 -0.931125 0.609524 -0.12704 0.245984 0.498599 -0.446022 0.578571 0.547004 -0.66124 
-0.151617 -0.600365 -0.252806 -0.500458 0.991347 0.23391 -0.767205 -0.555565 -0.0666624 0.315503 0.504946 -0.78103 0.716911 -0.167126 0.792205 0.550026 -0.32252 0.315332 -0.88687 -0.690707 0.511214 -0.301261 -0.627617 0.129899 0.571652 0.618958 -0.381557 -0.878082 0.191751 -0.836206 -0.534697 -0.938171 -0.435173 0.225071 -0.460566 -0.442053 -0.53381 -0.205521 0.0121693 0.396777 -0.878847 -0.50033 0.612045 0.828885 0.343695 0.406226 0.373086 -0.974994 -0.280562 0.481938 -0.663255 -0.77017 -0.830056 -0.295662 0.342831 0.748146 -0.684858 0.971475 0.877237 0.512424 -0.870362 -0.620802 0.566138 -0.306611 0.562491 -0.894372 0.257531 -0.983595 -0.0810461 -0.73314 0.408487 0.0143398 -0.22107 0.0206348 -0.135147 -0.877369 -0.575155 -0.789953 -0.847336 0.136958 0.694906 -0.523683 0.376405 0.883138 0.205672 -0.278389 0.636362 0.495195 -0.308584 0.523342 0.0175649 -0.186043 0.86197 -0.423312 0.536389 0.420136 -0.311953 -0.22517 0.436546 0.610708 
0.0363655 -0.166539 -0.398187 0.815741 0.861392 0.457563 0.92462 -0.716342 0.66348 -0.916874 0.430436 0.377831 -0.423812 -0.179629 0.257823 0.772673 0.53532 -0.100524 0.264206 -0.767638 -0.587373 -0.72411 0.0379249 -0.703864 -0.145922 -0.453962 0.700558 0.534027 0.309835 0.12952 0.134811 -0.634574 0.970734 0.755696 -0.846001 0.826529 0.221951 -0.885545 -0.855477 -0.131103 -0.777374 0.542223 -0.758852 -0.218453 -0.630698 0.50051 -0.460604 0.906621 -0.607041 0.783164 -0.848378 -0.191237 -0.951495 0.172788 0.0731287 -0.0869629 0.717524 -0.208029 -0.536814 0.0276687 0.908021 0.609789 0.392734 0.877793 0.347276 0.548112 0.715588 -0.462041 0.703239 0.835938 0.39156 0.880502 0.394225 0.631968 -0.319261 0.76475 0.128344 0.17082 0.679315 0.518791 -0.00149951 0.800615 -0.656891 0.0673607 -0.0176853 0.417914 0.99394 -0.315538 -0.794172 -0.527196 0.726997 -0.901183 -0.939481 0.111647 1.002 0.390977 -0.320576 0.716887 0.923088 -0.63669 
0.53609 0.313541 -0.758696 -0.0793163 -0.0487195 -0.0940692 -0.307136 -0.915199 -0.892848 -0.608731 0.632974 0.134304 -0.7964 0.939237 -0.816267 0.177102 0.376681 -0.819744 0.871148 0.599513 -0.364278 0.550666 0.688125 -0.286259 -0.30726 0.674217 -0.931662 0.363835 0.370503 -0.998264 0.742021 -0.115841 0.33819 0.990727 0.83321 -0.735491 -0.0818966 -0.462412 -0.611052 0.00730579 -0.0603993 0.969403 -0.870827 0.117852 0.945995 -0.689133 -0.694356 0.332321 -0.530385 -0.864051 -0.0672132 0.113549 0.671928 -0.395693 0.811304 -0.58288 -0.727333 0.922791 0.796899 0.662925 0.901999 0.517156 -0.45968 0.208078 0.520369 -0.612472 0.504181 -0.576493 -0.0347162 0.855791 0.427663 0.867694 0.851435 0.53045 -0.00206917 0.80025 0.866532 0.25721 0.129341 -0.655 0.432676 -0.949543 0.495654 0.157973 -0.366377 0.306456 0.553449 -0.0866569 0.199483 0.35842 -0.442633 0.115271 -0.123097 0.0980569 -0.668714 -0.590141 0.486894 0.833723 -0.169514 -0.550884 
0.677401 -0.737353 -0.676476 0.517531 0.8243 0.312298 0.336813 0.685517 -0.412224 -0.487782 -0.874607 -0.938616 -0.488362 0.50377 0.156595 0.12185 -0.145086 -0.294249 -0.93693 -0.921848 -0.94565 -0.397981 0.159707 -0.0354915 0.687981 0.491328 0.343336 0.187193 0.321544 -0.82041 0.662984 -0.0550503 -0.536129 0.996944 -0.455258 -0.74392 0.337133 0.860057 0.975387 0.903752 -0.666585 -0.985736 0.929358 -0.183401 0.591181 0.0728483 0.993104 -0.535449 0.758172 -0.975319 -0.464942 0.812467 -0.442997 0.679422 -0.219582 -0.686605 0.163581 -0.860572 0.511528 -0.496325 -0.685833 0.126048 0.470126 -0.248148 0.126405 -0.974337 0.0468852 -0.523073 0.939562 -0.000217836 -0.620656 -0.788067 0.0790135 -0.731666 0.0545349 -0.320076 0.375877 0.0188688 0.146406 0.155228 0.0357221 0.658169 0.0137806 0.655556 0.305561 0.776713 0.915466 -0.50557 0.900747 0.4396 -0.0349785 -0.750159 -0.404909 -0.557414 -0.0367986 0.775368 -0.558695 -1.00358 -0.74243 -0.646751 
0.0149377 -0.358545 -0.419811 -0.915352 -0.0411674 0.636943 -0.23802 -0.656085 -0.35231 0.919737 0.574982 0.684829 0.530963 -0.485132 0.284106 -0.166697 -0.675486 0.201878 0.340749 -0.77384 -0.368694 -0.68084 -0.567853 0.240778 -0.262402 0.407257 0.00629827 0.206865 0.41528 0.257501 0.574785 -0.587966 0.903124 -0.839396 -0.46299 -0.148914 0.794517 0.287219 0.221387 -0.563704 0.165884 -0.254184 -0.897013 -0.305291 0.294728 0.379085 0.566815 0.627596 -0.434678 -0.102612 0.854851 0.199147 0.168709 -0.723504 -0.549959 0.945273 0.682 0.452443 0.152647 0.0960645 -0.287133 -0.303754 0.532866 -0.381873 -0.149154 -0.926631 0.480315 -0.332097 0.36836 -0.31926 0.102982 -0.473892 0.457284 0.197511 0.226386 -0.24812 -0.421277 -0.225285 -0.61593 0.162019 0.658655 -0.782536 -0.623515 -0.141752 -0.517496 -0.187415 -0.220565 -0.821915 -0.732476 0.933301 0.277757 -4.40881e-05 -0.34348 -0.182633 0.58328 0.543833 -0.126584 0.0509801 -0.783797 -0.765229 
0.753571 0.310263 -0.235761 0.199538 -0.477254 0.98596 0.950296 0.112115 -0.23889 -0.685603 -0.718942 -0.581051 -0.463825 -0.342173 0.266289 0.0324488 0.476811 -0.951424 0.210511 0.737169 0.984403 -0.510757 -0.278886 -0.35335 0.30228 -0.691622 -0.817096 -0.821934 0.369718 -0.610297 -0.576019 0.125799 0.711364 0.19325 -0.668877 -0.775853 0.178858 -0.722936 0.342062 0.952106 -0.403719 0.611826 -0.638213 0.131505 -0.717949 0.626886 -0.83832 0.755936 0.668776 0.372232 0.499468 0.670727 0.866501 -0.782478 -0.698553 0.163096 -0.477848 -0.510279 0.347403 0.892228 -0.123974 0.771579 0.0178458 -0.421186 -0.038585 0.342896 -0.193453 -0.858909 0.618785 -0.85098 -0.915263 -0.787488 0.773381 -0.55555 0.342097 -0.943982 -0.924893 0.501857 0.812905 0.74712 -0.123385 0.304365 0.416734 -0.262434 0.526029 0.709777 0.893098 -0.946398 -0.800524 0.247435 0.946459 0.0683493 0.0271171 -0.0337355 0.656141 0.974966 -0.686354 -0.5366 -0.87307 0.926865 
-0.387677 -0.792621 -0.861679 -0.615991 -0.348325 0.458137 -0.558756 -0.281279 -0.0148462 -0.758814 -0.534055 0.86588 0.56833 0.873882 -0.418511 0.119532 0.59602 -0.496997 0.145132 0.783582 0.75 0.0747294 -0.138723 -0.231419 -0.942467 -0.483377 -0.250886 -0.640292 -0.0175075 -0.132127 -0.706391 0.597472 0.0747159 -0.564813 0.970892 0.719897 0.910425 -0.581706 -0.558779 -0.0855104 -0.328604 -0.113042 -0.218283 -0.746638 -0.215713 0.372185 0.324961 -0.637705 0.876409 -0.530139 -0.834912 0.64414 0.56116 0.0206203 -0.601453 0.618722 0.522856 0.170077 0.984438 -0.482021 -0.999902 -0.719946 -0.887183 0.0883708 -0.279099 -0.909324 -0.194938 -0.366359 -0.484667 0.254161 0.567503 0.184833 -0.836878 -0.693488 0.416882 -0.0540558 0.684886 -0.242801 0.317856 0.553024 0.208143 0.47156 0.197135 -0.215574 -0.497261 0.582085 -0.60509 -0.961439 -0.24396 -0.612101 -0.444316 -0.25826 -0.334481 -0.330833 0.83983 0.371322 -0.235723 -0.351156 1.00405 0.275781 
0.896559 0.537418 -0.551898 -0.943797 0.871311 0.853082 0.00140504 0.516073 -0.347004 -0.693614 0.0870842 0.830683 0.80336 -0.741402 -0.415669 -0.684429 0.856807 -0.00811189 -0.656407 -0.413359 0.368367 -0.111371 0.337049 -0.970922 0.557853 0.152174 0.397407 -0.684632 0.816368 0.395907 0.597803 0.710412 -0.0627274 -0.947781 0.766227 -0.216899 0.901642 -0.229852 -0.71616 -0.457075 0.0951053 0.354147 -0.624869 -0.0867984 0.643287 -0.0293303 0.203932 0.48531 0.990524 0.544146 -0.919185 0.356208 -0.566165 0.415381 0.387528 -0.969467 -0.425259 -0.203365 -0.66055 -0.601245 -0.841835 0.947293 -0.894837 0.0840634 0.996536 0.880298 0.841887 0.918994 -0.341589 -0.852435 -0.525477 0.750889 0.514467 -0.175731 -0.368291 0.14669 0.8053 0.859656 -0.357945 0.766054 0.401027 -0.288209 0.117531 0.84854 -0.865633 -0.51991 0.857892 -0.282359 0.256497 -0.804949 0.116987 0.425183 -0.853427 0.233572 -0.476102 -0.877941 0.127292 -0.638054 -0.958129 0.767784 
-0.482099 -0.500123 0.505956 -0.970475 0.324388 -0.846058 0.176449 0.119663 -0.991335 0.809614 -0.111451 0.404054 -0.468469 0.9977 0.243854 -0.333839 -0.52059 0.101655 0.385681 0.73139 0.297389 -0.496288 0.150104 0.437694 0.733315 0.660337 0.567029 -0.158637 -0.965908 0.612374 -0.396038 -0.447314 -0.887288 -0.887732 -0.41762 0.436948 -0.733003 0.758733 -0.440698 -0.726486 0.573273 0.447175 0.676554 -0.894209 0.445148 -0.077753 -0.229672 0.924505 -0.974597 -0.845036 0.657263 0.324293 -0.348923 -0.193853 -0.238882 -0.610611 -0.531182 -0.666318 0.232513 -0.496484 0.941186 0.839528 0.0565569 -0.947029 0.948518 0.638787 0.489329 -0.783819 0.39927 -0.951026 -0.51062 -0.0283656 0.496328 -0.83484 0.0763278 -0.058514 0.0864174 0.846618 -0.133987 0.111278 -0.999897 -0.47797 -0.564615 -0.342968 0.328945 0.195833 0.0455884 0.796966 0.525543 -0.72168 -0.699376 0.466117 -0.885101 0.357223 0.524568 -0.936618 -0.00508176 0.0102956 -0.720884 -0.603181 
0.0592891 -0.232349 0.364286 -0.444396 -0.0669712 -0.559376 0.497083 -0.97936 -0.712755 -0.637121 0.132141 -0.712642 -0.114897 0.567276 -0.0564263 -0.786807 -0.236371 0.989165 -0.98995 -0.711009 -0.732718 -0.689299 0.755357 -0.617863 0.667863 0.275333 -0.55456 -0.336225 -0.714353 -0.275737 0.0572103 0.344936 0.491914 -0.578502 0.900544 -0.575203 -0.137875 0.397605 -0.554485 0.149362 0.760637 0.577686 0.436741 -0.354281 0.14494 -0.619684 -0.141049 0.908662 -0.630519 -0.13115 -0.802405 -0.363161 0.179729 0.952954 0.0189537 -0.152409 0.228326 0.464362 0.511492 0.513951 -0.811368 -0.431424 -0.141082 0.68063 -0.00992762 -0.240573 -0.894532 0.852188 -0.843053 -0.449037 0.0015543 0.917675 -0.871371 -0.561659 -0.436667 0.273579 -0.181486 0.422226 0.182241 0.188088 -0.708782 0.379837 0.824851 0.470946 0.332789 -0.156126 -0.681463 -0.438906 -0.691717 0.829913 -0.924942 -0.503142 -0.601522 -0.0660929 -0.822574 0.38859 0.693333 -0.717111 0.240746 0.850347 
-0.166127 -0.757702 0.768062 -0.0374871 -0.319399 -0.668588 -0.763899 0.499223 0.75364 0.418257 -0.312711 -0.955154 -0.2018 -0.487794 0.515801 -0.869041 0.356036 0.834339 -0.307978 0.664355 0.664208 -0.232917 -0.838799 -0.937274 0.701035 -0.661387 0.451283 0.394395 -0.378488 -0.307987 0.244788 0.455385 -0.0656891 0.0128515 -0.5821 0.614839 0.344265 -0.34601 0.114101 0.0979008 -0.927677 0.801405 0.142758 -0.129487 -0.6864 -0.341441 0.00149164 0.669683 -0.507102 0.693438 0.334009 -0.842857 -0.53939 0.49521 -0.780142 -0.838356 0.833843 0.671124 0.556103 -0.544656 -0.636859 -0.199172 0.910745 0.297494 0.813678 -0.671373 -0.0876461 0.157939 -0.0174249 -0.973555 -0.744158 0.0549445 0.82784 0.398622 0.925427 -0.858555 -0.94289 -0.0731106 0.811128 -0.449946 -0.379602 0.145136 -0.292841 0.0810076 -0.359654 -0.0729486 0.242652 -0.525822 -0.4018 -0.201303 -0.0704711 -0.0386875 0.599519 -0.159761 -0.741224 0.413217 0.168866 0.171127 -0.428861 -0.848526 
0.197582 -0.173021 0.206439 0.0254277 -0.774422 0.131874 0.166873 -0.717265 -0.941236 -0.0219995 -0.16721 -0.320838 -0.876863 0.539983 0.76017 -0.236517 -0.532965 0.00282159 0.237662 0.0652143 0.801513 -0.832816 -0.973465 0.401032 0.00743647 -0.714691 -0.185771 -0.823684 0.456436 0.385366 -0.672186 -0.345982 -0.787654 0.534252 0.679446 -0.562076 -0.333873 -0.153681 -0.279341 -0.27511 0.824319 0.553449 0.404052 0.947456 0.0934318 0.164222 -0.289061 0.560467 -0.832957 0.948601 -0.374319 0.968556 -0.884215 -0.347784 0.369588 0.123222 -0.0624753 -0.816184 0.299538 -0.606039 0.569182 0.627351 0.0479786 0.781528 0.161604 -0.272576 -0.780548 0.82773 0.573743 -0.0598895 -0.447379 0.398062 -0.506441 0.956672 0.345518 0.586991 0.120894 -0.943543 0.147457 0.287937 -0.994942 0.773138 0.256493 -0.879157 -0.574646 -0.373919 0.244065 0.362879 -0.190103 -0.456397 0.75684 -0.62092 -0.829046 -0.195182 -0.839392 0.332558 0.532243 -0.61994 0.160288 0.105986 
0.32017 0.712908 -0.495952 0.813729 0.669581 0.849565 0.40072 -0.209525 0.906022 -0.451822 -0.921588 0.91108 -0.678684 0.334906 -0.968077 -0.25333 0.960987 0.275988 -0.890451 -0.229116 0.819591 0.866388 0.149964 0.990545 -0.328793 0.310572 0.323102 -0.796551 0.690632 -0.51661 0.309435 0.010802 -0.803701 0.813482 -0.175469 0.86588 0.663048 -0.774748 -0.343645 0.56907 -0.226571 -0.265233 0.480151 0.0947449 -0.930327 0.512074 0.841415 -0.96934 -0.211938 0.950964 -0.198455 -0.392347 0.817352 0.951508 -0.401802 -0.511441 0.26208 0.921301 -0.307992 -0.0472881 -0.595309 -0.998557 0.963514 -0.39901 0.814926 -0.211955 -0.53313 0.477973 0.0132967 0.123225 0.0470437 0.786726 0.857992 -0.472806 -0.118529 0.927666 -0.960732 -0.277114 0.958326 -0.172669 -0.32615 -0.24013 0.434984 -0.508798 -0.288621 -0.966818 -0.0202391 0.973459 0.954483 0.671769 -0.0738291 -0.640826 0.673212 -0.110315 -0.0398364 0.488138 0.67773 0.427033 -0.0338885 -0.308973 
-0.449742 -0.986845 -0.522247 -0.59175 -0.45965 0.359223 -0.664084 -0.420382 -0.917891 -0.705758 0.406949 -0.244041 0.0541124 -0.158067 0.24716 0.765491 -0.124885 -0.773079 0.73895 -0.170403 0.89869 -0.334879 0.188771 0.571903 0.554806 -0.851066 0.0600409 0.232536 0.575968 -0.973848 0.923562 -0.873774 -0.960692 -0.598685 -0.465524 -0.420343 0.760538 -0.129607 0.159275 0.842647 0.164635 -0.433776 -0.401394 -0.781253 0.408156 0.845766 0.984238 -0.716729 -0.927313 0.723188 0.112868 0.971378 -0.61169 -0.698361 0.543281 0.943116 -0.549426 -0.396678 0.175651 -0.973459 -0.370526 0.0992138 -0.847233 -0.331219 0.500529 -0.312756 0.248439 0.261067 0.557636 -0.592286 0.103714 -0.277729 -0.0260626 0.70232 -0.0589822 -0.617906 0.548086 -0.074744 -0.334635 0.620774 -0.351556 0.778233 0.592152 0.0367541 -0.920128 0.135432 -0.0201303 -0.469554 0.738754 -0.844479 -0.443013 -0.631772 0.254735 -0.290245 0.0370091 -0.244736 0.396999 -0.714552 -0.983669 -0.045365 
-0.306839 0.120045 0.676906 0.667099 -0.177635 -0.382076 -0.950807 -0.629549 0.54318 -0.285443 0.991225 -0.808376 -0.50721 0.583377 0.228378 -0.427337 -0.281191 -0.791752 0.103108 -0.542437 -0.636231 0.660096 -0.17421 0.618504 -0.63015 0.862799 -0.626232 0.766849 -0.851753 -0.609902 -0.278516 -0.158591 0.510143 -0.60161 -0.491493 -0.667491 0.0163133 -0.4423 -0.29704 -0.440507 0.272257 -0.305815 -0.248883 0.765048 -0.722438 0.979496 -0.66229 -0.0036292 -0.812256 0.440819 0.453934 -0.448487 0.100914 -0.720276 -0.829983 0.470765 -0.857477 -0.456215 0.237613 -0.70923 -0.0661166 0.959097 0.132179 -0.555973 -0.642513 0.640686 -0.223465 0.3738 -0.801614 0.479495 0.933293 0.470644 -0.82632 -0.31559 0.235691 -0.548758 -0.336094 0.573402 0.447613 -0.14835 0.0142205 -0.0984536 0.403163 -0.884865 0.18127 0.57318 0.585899 0.323794 -0.883035 -0.176487 0.614564 0.0508479 -0.21739 -0.253257 0.494875 0.140096 -0.612571 -0.72859 -0.486104 -0.414184 
0.750853 -0.552848 -0.94354 0.924577 0.131625 0.291897 -0.624191 0.795503 -0.134453 0.823503 -0.352922 0.879768 -0.274974 -0.949667 0.994928 0.9061 0.623388 0.580805 0.230042 0.740449 -0.595696 -0.15529 -0.208696 0.186943 0.591351 -0.713799 -0.672943 0.978781 -0.442474 -0.159107 -0.435398 -0.691432 0.288046 -0.378929 -0.766859 -0.580285 0.913287 -0.391086 -0.78479 -0.221217 -0.567651 -0.137619 -0.341433 0.157344 -0.0873742 -0.346554 0.0636406 -0.463829 -0.765749 -0.706328 -0.723323 -0.361375 0.138264 0.0678851 0.825501 -0.27042 0.354121 -0.847951 -0.291603 0.911839 -0.00654211 0.272967 -0.779732 -0.71846 0.894165 -0.546587 -0.298734 0.807281 0.0622826 -0.083544 -0.414043 0.494579 0.778823 0.244602 -0.348022 -0.308453 0.89803 0.715521 0.227852 -0.867677 -0.990807 0.504383 -0.229104 0.147437 -0.427661 -0.403633 0.877134 0.926468 -0.251098 -0.414527 0.838181 0.742281 0.85885 -0.941587 -0.976057 0.752449 -0.488253 -0.274805 0.559827 0.574004 
0.643107 -0.855359 0.0692435 0.418297 0.391234 0.715647 -0.887401 0.285406 0.434859 0.34119 0.418691 0.444456 -0.157867 -0.808373 -0.407281 0.412166 -0.212422 -0.529636 0.344063 0.536576 0.0558163 0.184612 0.278877 -0.0862667 0.239323 0.30392 -0.333434 0.750414 -0.970663 -0.775269 0.324875 0.671433 -0.630764 -0.60565 0.092987 0.762311 -0.883971 0.202851 0.050245 0.552812 -0.457395 -0.528739 -0.00356172 0.385458 -0.33869 0.588462 -0.19682 0.450582 -0.944437 -0.852564 -0.0086261 0.112605 0.333857 -0.7307 -0.972813 -0.435582 0.573362 -0.315374 -0.683708 0.603931 -0.0807119 0.641836 0.26993 0.293067 -0.958701 -0.641294 0.0552168 -0.847046 0.56308 -0.896409 0.701642 -0.894316 -0.426728 -0.300736 0.493544 0.241723 -0.714334 -0.706262 -0.307067 -0.652852 -0.55859 0.678507 0.457007 0.769959 0.948386 0.482586 -0.660841 0.517566 -0.821615 -0.344205 0.115237 0.0962726 -0.692348 -0.61486 -0.613618 -0.662957 -0.255595 0.441428 -0.50701 -0.696747 
0.553715 -0.814638 -0.585813 -0.885333 -0.0944533 0.907846 0.378697 0.170851 -0.813698 -0.939674 0.518777 -0.362645 0.704827 -0.023311 -0.573966 0.657576 -0.522201 -0.249942 0.197693 -0.324841 0.404003 -0.678324 0.748762 0.714886 -0.30904 -0.860267 -0.95528 0.423288 0.58239 -0.483258 0.748524 0.133889 -0.275231 -0.85095 0.253627 0.619154 -0.909434 -0.396732 -0.21573 -0.720665 -0.32673 -0.677231 -0.0902313 -0.618784 0.317495 0.331055 -0.939203 0.786003 -0.948506 0.25858 -0.545683 0.471134 0.5943 -0.79284 0.179528 -0.750616 -0.657421 0.210831 0.68305 0.928211 0.745037 0.42645 0.0226445 -0.50313 0.612878 -0.730223 -0.889851 0.670509 -0.110178 -0.0930736 0.928487 0.555775 0.240186 -0.155223 0.934788 -0.428306 -0.82759 1.00192 -0.664054 -0.763593 0.271094 -0.208493 0.70794 -0.17073 -0.0147766 -0.113844 0.0693479 0.306858 -0.883114 -0.233805 0.208222 0.8854 -0.77833 -0.743676 -0.649285 0.833859 -0.473207 -0.529642 0.493294 0.383521 
0.380372 0.409623 -0.0513563 -0.367645 -0.731709 -0.101716 0.19282 -0.574288 -0.126194 0.537217 -0.322542 -0.854755 -0.70036 -0.602307 -0.0194934 0.277225 0.282847 -0.939725 -0.417623 0.452426 -0.1953 0.799106 0.286875 0.0649343 -0.958776 0.687657 -0.153739 -0.413218 -0.869921 -0.667216 1.00034 0.517266 0.760935 -0.0538337 -0.848503 -0.98617 0.84016 0.30164 -0.557105 -0.229316 -0.202988 0.116919 -0.0893729 0.128444 0.507978 0.902979 -0.575506 -0.177082 0.907537 0.0148547 -0.777127 -0.246754 -0.139766 0.526155 0.805297 -0.149436 0.200446 -0.389348 0.425944 0.319414 -0.0225131 0.418657 -0.185474 -0.269757 -0.623887 -0.0853026 -0.224612 -0.785955 -0.773827 0.216686 -0.0230704 0.0511086 -0.634401 0.91008 -0.785 0.890563 0.778182 -0.40306 -0.285243 0.715705 0.621547 -0.0215213 -0.524771 -0.589792 -0.45456 -0.681497 0.254198 0.690057 -0.0752444 -0.312257 -0.0173827 0.914205 -0.848708 0.794094 -0.364353 -0.477266 -0.288667 0.400659 -0.24484 -0.0886712 
-0.374361 0.692562 -1.02959 0.0246797 0.62151 -0.810948 -0.0599233 0.402301 -0.226548 0.623629 0.192954 -0.59948 -0.413613 0.659971 -0.110392 0.0696489 0.92782 -0.891007 -0.272569 -0.0947321 -0.175065 0.733154 -0.269406 0.00888645 0.541133 0.464696 0.437932 -0.745525 -0.188973 -0.795193 0.190671 0.493377 0.879473 0.165079 -0.53839 0.545531 0.443079 0.268679 -0.0699801 -0.784832 -0.0684655 -0.892658 -0.463345 0.482535 0.708079 0.439847 -0.406309 0.705013 0.493347 0.334375 -0.341738 -0.660262 0.137652 0.361451 0.334475 -0.41373 -0.198068 -0.305364 -0.123755 0.590683 -0.0684639 -0.932291 0.0684556 -0.157474 0.265631 0.431346 -0.568114 -0.38918 -0.210918 0.361275 -0.222108 0.652196 0.504752 0.401883 0.217794 0.317916 -0.19958 0.736393 0.0814319 -0.716472 0.0669662 0.725721 -0.315428 -0.805858 0.128516 0.998585 -0.274101 0.881224 -0.289448 0.59687 0.491796 0.674635 0.755196 -0.491056 -0.509699 -0.0138595 0.912658 -0.121299 0.652296 -0.315222 
-0.717974 -0.610631 -0.708385 0.742151 0.891152 0.474663 0.158201 -0.4353 0.21309 -0.738149 -0.0197294 -0.702972 0.953526 0.596966 -0.420823 -0.00768433 0.605362 0.252995 -0.094978 -0.673704 -0.0492981 -0.623775 0.863638 -0.35207 -0.126987 -0.470044 0.481808 -0.1862 0.375711 0.180737 0.496434 0.569448 0.592613 0.805346 0.435899 0.413985 0.274926 -0.532268 -0.928702 -0.480577 -0.215984 0.00186608 -0.203872 -0.288516 -0.336858 0.30006 0.819456 -0.676297 -0.506949 -0.295606 -0.348776 0.447292 0.0387595 -0.493554 -0.811796 0.89689 0.0289513 0.583933 -0.191265 -0.648382 -0.198078 -0.754737 0.882782 -0.547511 -0.915342 0.276448 0.93262 0.282146 0.853245 0.933935 0.83404 -0.426831 -0.0102475 -0.294036 0.43787 0.75373 -0.997937 0.136886 -0.888959 -0.437752 0.76847 -0.300479 -0.930164 -0.0746168 0.182918 -0.809247 -0.22894 -0.85431 0.806755 0.647141 -0.459743 -0.316351 0.963569 -0.644968 0.0711013 0.943199 0.600527 -0.070396 0.353161 0.459541 
-0.0263184 0.172688 -0.923737 0.907775 1.04463 0.428221 0.680536 0.880735 -0.482808 0.744489 -0.449242 -0.653886 -0.651542 -0.393679 0.296797 0.526324 -0.270498 -0.942938 0.758273 -0.44575 0.682831 -0.751154 0.103467 0.553591 -0.429395 -0.69818 0.422606 -0.779964 0.274673 -0.202497 0.715049 -0.824813 0.956355 0.798106 -0.815626 0.931375 0.147314 0.77242 0.88148 0.745228 0.580198 -0.596609 -0.933671 0.924847 0.0273883 0.261155 0.54986 0.798552 0.222877 0.257187 -0.653983 -0.114397 0.416762 0.467607 -0.413758 -0.98294 0.763517 0.786259 -0.687706 -0.024622 -0.343765 1.00309 0.108155 -0.330743 0.732917 0.245245 -0.395252 -0.129326 0.152267 -0.547702 -0.380312 -0.371055 -0.108662 -0.249977 -0.371294 1.0039 -0.973434 -0.902199 0.853266 0.321514 0.317083 -0.846636 -0.718067 -0.137252 0.599187 -0.192563 -0.17223 0.292286 -0.406115 0.172035 -0.687825 0.272692 0.184849 0.360265 0.918322 -0.101744 -0.431709 -0.572033 0.874311 0.723033 
0.0522721 -0.49758 -0.652305 0.894011 0.455569 -0.0205056 0.937342 0.359827 0.0325705 0.750303 -0.169294 -0.613073 0.810798 0.0960792 0.227284 0.310126 0.769642 -0.926029 -0.318421 -0.549822 0.242752 -0.0181283 0.65587 -0.613743 -0.721843 0.623556 0.239879 -0.132464 -0.808985 0.103725 -0.38712 0.194445 0.575061 -0.0179684 0.167518 0.0696119 0.878464 0.0017575 -0.585367 -0.0345293 -0.251406 0.170996 0.349421 -0.451119 -0.70123 -0.479197 1.01466 -0.863687 -0.511418 -0.320305 -0.48394 0.685772 0.578356 -0.814948 -0.720476 0.864082 0.839447 0.275295 -0.231209 0.965942 -0.568444 0.491103 0.120695 -0.928124 -0.633846 -0.811258 0.075716 -0.765353 0.342163 0.537637 0.169793 -0.977469 -0.293461 -0.42808 -0.345616 0.0921923 0.093999 -0.428605 0.211466 0.739934 0.225302 0.74402 0.458575 -0.0955356 1.00554 0.639136 -0.245452 0.749877 -0.0748039 0.549402 0.668597 0.40479 -0.0234837 -0.138601 0.52954 0.371631 0.0500039 -0.49776 0.658224 -0.656205 
-0.832049 0.037026 -0.668177 -0.143028 0.634674 0.0233875 0.92777 -0.34222 0.599188 0.0808986 -0.5659 -0.147839 -0.248274 0.982675 0.61894 -0.358992 0.518051 -0.529538 -0.502517 -0.56507 0.994304 -0.915278 0.776413 -0.115653 -0.147684 0.314219 -0.7255 0.87596 0.897894 0.977913 -0.828868 -0.932459 -0.206435 -0.415892 -0.107722 -0.471994 0.553392 -0.247761 0.14466 0.0608462 0.895444 0.569276 0.880263 -0.438279 0.442057 0.588133 0.33419 -0.0330426 0.901359 0.806623 0.379182 0.83767 0.78238 0.267249 -0.0499461 -0.365738 -0.384601 0.0978019 -0.431109 -0.46118 0.015126 -0.157208 -0.553785 0.948044 0.319756 0.331197 -0.580815 -0.200637 -0.755509 0.665099 0.950845 -0.892341 0.168179 0.741138 -0.225052 -0.25767 0.25746 -0.959062 0.73856 0.313058 0.677208 0.203233 0.208595 0.576418 -0.40402 -0.899669 -0.768861 0.0518049 0.0970442 -0.270433 0.542433 -0.701938 0.627038 1.03214 -0.748549 0.14881 0.291285 -0.509044 0.966009 0.411359 
-0.744176 0.948267 0.481273 0.363043 0.714554 -0.733589 -0.943277 0.0132807 -0.729878 0.795764 -0.640449 -0.958592 -0.0896552 0.626236 0.555636 0.42567 0.535646 0.816807 -0.41365 -0.240445 -0.415218 0.909322 -0.0252104 -0.829838 0.835338 0.183344 0.16257 0.161796 0.834886 0.120308 -0.349823 0.98749 -0.0680311 -0.770171 0.409847 -0.334404 -0.453852 0.384956 0.712407 -0.262576 0.211465 -1.01396 -0.240154 -0.931548 0.582666 -0.631333 0.579484 0.209067 -0.983053 1.03449 -1.03174 -0.514263 0.882873 -0.0300889 -0.117046 0.737311 -0.766349 0.891024 -0.0299272 -0.928001 0.113634 0.655812 0.96523 -0.974196 0.910135 0.353407 -0.253297 -0.591125 -0.191555 -0.53608 0.283409 0.884082 -0.397828 -0.969374 -0.906146 -0.744691 -0.76839 0.608669 0.51732 -0.5696 0.52989 0.478051 0.0355902 0.487175 -0.402402 0.839626 0.151021 -0.267749 0.809218 -0.890841 -0.250539 -0.0174374 0.898855 -0.256823 -0.0390107 0.940848 -0.97929 0.642274 -0.606489 -0.257703 
-0.797156 0.536975 -0.298834 -0.210812 0.603967 -0.164755 -0.0641351 0.889348 -0.537696 -0.543631 -0.668261 -0.922186 0.821219 0.38796 0.516832 -0.629259 0.106744 -0.391055 0.182046 -0.0410688 -0.116132 0.812081 0.819157 -0.207084 -0.541773 -0.229517 -0.387745 -0.517702 -0.436831 -0.037795 0.255249 -0.315339 -0.506783 -0.943725 0.488213 -0.878175 -0.000507916 -0.634502 -0.971918 0.391882 -0.155618 -0.73341 0.465355 -0.365776 0.653328 -0.0935409 -0.00807872 -0.156128 0.548327 -0.883507 0.773582 -0.681629 0.888487 0.617231 0.301809 -0.652205 -0.511807 0.751097 -0.137534 0.0232597 -0.155737 -0.753206 0.665592 0.347753 -0.642436 0.155537 0.537831 0.317021 0.644316 0.549942 -0.23112 -0.733133 0.906628 -0.837971 -0.039862 0.607987 0.00928775 0.967001 -0.490983 -0.276612 -0.958009 -0.735514 0.103622 0.964974 0.987705 -0.610884 -0.801695 -0.671074 -0.800676 0.256298 0.23065 0.162704 0.479445 -0.0250501 -0.520818 0.852818 -0.904753 0.954795 0.20653 0.571836 
0.521187 0.857015 0.903365 0.436059 -0.862923 -0.0908888 0.040919 0.156706 -0.143957 0.550499 0.872381 -0.0295717 0.726113 0.0355689 -0.156346 0.639343 0.327773 0.109959 0.913053 0.623894 -0.620236 0.26188 -0.399675 0.88339 -0.895846 0.0724617 0.665635 -0.769991 0.108155 -0.128608 0.824852 -0.45035 -0.267915 0.824154 -0.992506 -0.229334 -0.257569 0.0336268 -1.05193 0.636895 -0.360139 0.782374 -0.435559 -0.693047 -0.165494 0.44763 0.929513 -0.78132 -0.436956 0.896254 0.77512 -0.166365 0.112295 -0.566523 -0.115849 0.236213 0.528962 -0.54412 0.460784 -0.364415 0.380187 0.345712 0.122734 -0.838755 0.170972 0.149194 -0.0448164 0.928023 -0.721055 -0.0489335 0.543812 -0.22262 -0.194567 -0.903425 0.104596 0.658152 0.54623 0.0731632 0.881081 -0.777006 -0.054196 0.63496 0.161811 -0.987514 -0.864413 1.01908 0.166164 0.550927 -0.515457 -0.221769 -0.908905 0.903809 -0.839017 0.315557 0.998515 0.326515 -0.563624 -0.0667537 0.254377 -0.442676 
0.866462 -0.212809 0.405271 -0.331764 0.0220411 -0.446255 -0.676341 -0.458636 0.562092 -0.767411 -0.207431 -0.430801 0.774417 0.943697 -0.410063 0.869678 0.889361 0.845601 0.354677 -0.564893 -0.343306 0.576509 -0.752087 -0.121155 -0.265517 -0.759454 -0.868547 0.218043 0.219803 0.448895 0.859592 0.0641571 -0.732627 0.274092 0.757208 0.193918 0.839755 -0.923178 0.785014 0.48396 -0.701311 -0.448127 -1.03113 -0.987312 -0.460592 -0.423332 0.894725 -0.531895 -0.593044 0.258151 -0.176365 -0.0316534 -0.1851 0.136701 0.969433 0.574631 0.339784 -1.04918 -0.227155 -0.419215 0.514964 -0.363321 0.536736 0.830448 0.953028 0.322533 0.00888016 0.843982 0.466572 -0.183998 0.2675 0.632185 0.44073 0.28164 0.709628 0.925608 0.834971 0.545879 -0.613114 -0.686396 -0.167183 0.144816 0.355382 0.611379 -0.66995 0.277896 0.050777 0.607441 0.232368 0.942622 -0.924495 -0.221648 -0.361172 0.720812 -0.52602 -0.408207 0.0346208 0.493353 -0.573235 -0.618223 
-0.682679 0.670825 -0.940855 0.700258 0.120763 0.873841 0.609685 -0.113071 0.346685 1.0374 0.284192 -0.672499 0.0490086 -0.386296 0.946817 0.367466 0.827085 0.0565831 -0.0687607 0.219 0.0228379 0.0568409 0.861744 0.78794 -0.299001 -0.556484 -0.803313 0.718326 0.956193 -0.288892 -0.77832 -0.698895 -0.584847 -0.707409 -0.952656 0.434287 -0.809938 0.674047 -0.56948 0.646056 0.705376 0.582132 0.834354 -0.353806 -0.713829 0.723478 -0.925231 -0.769782 -0.321937 0.00187844 0.339609 0.70907 -0.912458 0.294967 0.522255 -0.239767 0.659216 0.580006 -0.538332 0.692316 -0.579355 -0.260003 0.786424 -0.126262 0.0968129 0.826746 -0.703914 0.263869 0.57919 -0.252444 -0.151035 0.063509 -0.520931 -0.273306 0.877785 -0.159375 -0.537028 0.870525 0.0327511 0.324577 -0.1154 -0.719238 0.100842 -0.0374732 0.60839 -0.392753 0.482141 0.143814 -0.878174 -0.844713 -0.343476 -0.359223 -0.0662202 -0.41509 0.36665 0.983838 -0.541331 0.688566 0.281246 0.945411 
-0.464368 -0.850324 0.094131 -0.0735054 0.002368 0.0471205 0.73836 0.427184 -0.133463 -0.202754 -0.124383 0.908 -0.117669 0.888149 -0.202597 -0.535943 -0.582663 -0.573966 0.643535 -0.237742 -0.443275 -0.652135 0.197935 0.562601 -0.15352 -0.309242 0.382215 0.28294 -0.576224 -0.200386 0.300332 -0.0418836 -0.0908851 -0.640209 0.880865 0.767485 0.377909 0.682095 0.314778 -0.704088 -0.529002 -0.940434 -0.925336 0.23817 -0.969194 -0.214542 0.777729 -0.433991 0.0977138 0.359992 0.178491 0.709528 0.732183 -0.504633 0.294273 -0.451468 0.153358 -0.352115 0.842718 0.608539 0.447696 0.125196 -0.661166 -0.671458 0.568597 -0.734697 -0.821707 -0.0361698 1.05896 0.449896 0.194493 -0.747373 0.69236 0.266891 0.638726 0.779929 -0.890028 0.352375 -0.718038 0.453409 -0.232929 0.430301 0.178685 -0.480613 0.939387 -0.510946 -0.188799 -0.0108325 0.0195314 -0.107271 -0.583948 -0.426603 -0.947271 -0.0885534 -0.233385 0.611613 0.240839 0.00898376 -0.388183 0.139664 
-0.369728 0.901926 0.608871 -0.904407 0.258171 0.332138 0.93329 0.377223 -0.203596 -0.663296 -0.00970003 0.577888 0.51909 -0.983167 1.14433 0.453293 -0.537154 0.00677066 -0.463624 0.716239 0.833767 -0.0591023 -0.875829 0.914176 0.829613 0.00999367 0.451839 0.0836835 -0.873331 -0.809563 -0.635839 -0.416146 0.958547 0.856966 -0.227343 0.104403 0.161305 -0.240571 -0.434857 0.857616 0.0157181 0.488535 0.36903 -0.55382 0.455983 0.32475 1.03094 -0.930073 -0.709423 -0.590013 0.579496 -0.835934 0.371069 0.830192 -0.836703 0.186109 -0.103928 0.615019 -0.686359 -0.00669279 0.883299 -0.476432 0.334134 0.772118 -0.474311 -0.803581 0.0227252 0.724621 0.102272 0.564255 0.521022 0.886022 0.0994401 -0.0396288 -0.544782 -0.334503 -0.706222 -0.597002 -0.265119 -0.0617393 -0.109562 -0.729166 -0.0167609 -0.596498 -0.908368 0.215018 0.419518 -0.0208604 -0.255743 0.850189 0.775191 -0.284558 -0.585361 0.220682 -0.645585 0.106162 0.486726 0.40923 -0.208237 -0.667478 
0.161282 -0.463005 -0.50111 -1.03255 0.48377 0.0446569 -0.261117 0.903715 0.650702 0.514248 -0.19582 -0.571682 0.61732 0.809317 -0.0831244 0.794245 -0.0290006 -0.728873 -0.176652 0.910751 -0.895726 -0.48387 -0.589654 -0.471668 0.759362 -0.156195 0.616824 0.190324 -0.52068 -0.606884 0.810152 0.488278 -0.206639 -0.717567 0.651206 -0.814778 0.321529 -0.522165 -0.874989 -0.195177 0.906911 -0.0640678 0.280385 0.524847 -0.307947 -1.00264 0.39608 0.697416 -0.752631 -1.03435 0.375444 -0.616247 -0.501737 -0.940365 0.0400239 -0.718088 0.0497118 -0.464692 0.570021 0.475658 0.0869547 0.321892 -0.259494 0.702402 0.83137 -0.556934 -0.932808 0.127226 0.0944402 -0.795574 0.900208 -0.14752 0.123424 0.178347 -0.565248 0.97546 0.14363 0.740457 0.689656 0.661052 0.951299 0.121572 0.931507 -0.328442 0.14132 -0.00950741 -0.233294 -0.744018 0.502482 -0.574172 0.502964 -0.344865 0.76783 -0.64542 -0.697005 0.646298 -0.14521 -0.614123 -0.292707 0.854367 
-0.373412 -0.216925 -0.167066 0.671297 0.905173 0.30566 0.630669 0.162655 0.331156 0.324323 -0.194673 0.049136 -0.648959 -0.256304 0.710399 0.566322 0.69327 -0.594683 0.769246 0.353487 -0.175464 0.352163 0.73548 -0.452288 0.677624 -0.91219 -0.790467 -0.445033 -0.26694 -0.200844 -0.441737 0.274866 0.402797 0.370494 0.103912 0.332882 -0.379502 -0.225389 -0.536169 0.804654 -0.953459 0.261593 -0.0123472 -0.650565 -1.00998 -0.554098 0.961192 0.736326 -0.0293243 0.61605 -0.183272 0.736994 -0.0550081 -0.11864 -0.554766 -0.382734 0.245435 -0.44883 0.276138 0.873974 0.533988 0.767946 -0.00221129 -0.0895082 0.28437 -0.891055 -0.590269 0.999812 -0.0025239 -0.138742 0.804518 -0.107298 -0.806825 -0.332235 0.24729 -0.642839 0.199893 0.152964 1.02758 -0.735697 -0.0550869 -0.0108518 0.902731 1.03439 0.824012 -0.622451 -0.436235 0.0646962 -0.058152 0.795501 -0.243219 -0.420501 0.586135 0.81365 0.413956 0.00673557 -1.04599 0.768121 -0.103315 -0.134338 
-0.252937 -0.194812 0.826821 -0.149793 0.465107 0.146971 0.085586 -0.250235 -0.531744 0.114604 -0.0140806 0.240809 -1.0213 -0.110953 0.189049 0.937532 0.217913 0.678879 -0.164077 -0.702169 0.524102 0.655921 -0.373165 0.122081 0.491287 -0.926513 -0.861643 0.47588 1.07573 0.00488611 -0.588921 -0.247898 0.738606 -0.783973 0.716612 0.202156 0.30613 -0.22387 0.889012 0.785027 0.919256 -0.0907665 0.0886266 0.853048 0.808814 -0.782032 0.713022 0.0815637 0.979858 -0.338991 0.13822 0.454324 -0.659634 -0.985741 -0.25209 0.789249 -0.752884 -0.134474 0.324051 -0.801783 0.939694 0.73558 -0.126855 0.589333 -0.953244 -0.451642 -0.121443 0.483839 0.431138 -0.240347 0.262613 0.231581 0.731443 -0.748303 0.0814145 0.586628 -0.476676 -0.191916 -0.388947 -0.435595 0.521127 0.934505 -1.01873 0.792073 0.930733 -0.210051 0.66531 -0.780917 0.575014 -0.0964952 -0.680874 0.625639 -0.339893 0.306665 0.193682 -0.185575 0.922834 -0.96012 -0.771822 0.200844 
-0.0759379 0.533201 -0.457918 -0.514226 0.812402 0.747548 -0.95913 -0.602211 -0.385419 -0.320542 -0.128614 -0.988155 -0.518945 -0.0646033 0.810572 -0.525198 0.682366 0.425762 -0.297566 0.360889 -0.635467 -0.0207711 -0.123155 0.0062219 -0.744272 -0.94346 0.86062 -0.849277 -0.752564 -0.867637 0.401265 0.0272298 0.628494 -1.0314 0.712733 0.439555 0.606388 0.652547 0.779772 -0.84026 -0.614505 -0.267388 -0.856166 -0.182845 0.617483 0.956492 0.326278 0.387245 0.396717 1.03158 -0.410846 0.65957 -0.0706376 0.590955 -0.162742 0.169684 0.832256 -0.265045 0.361994 1.01392 -0.0156415 -0.201235 0.0404474 -0.557348 -0.207334 -0.331089 0.882786 -0.446696 -0.475991 0.65197 -0.245727 -0.187655 -0.525801 -0.190202 0.710716 -0.861799 -0.229191 -0.0586104 0.591118 -0.701207 -0.0465282 -0.678359 0.898613 0.8669 0.885047 -0.135727 0.0653474 0.719557 0.52252 -0.56938 0.636172 -0.521855 0.136418 -0.204013 -0.0922643 -0.832816 0.452016 -0.232368 -0.280654 0.868922 
-0.471865 0.363765 -0.287008 0.0172357 -0.687836 -0.461894 0.0700192 0.0975887 0.630061 -0.345526 0.342613 -0.590732 -0.171155 0.266228 -0.819843 -0.286795 -0.848317 0.159617 -0.58592 0.783679 0.525794 -0.954036 -0.873688 -0.319656 -0.241001 -0.0211466 -0.167077 -0.853572 0.879176 0.495593 -0.964345 -0.594993 -0.188203 -0.192613 0.50969 0.134016 0.193914 -0.514292 -0.880851 -0.334218 0.119232 0.536761 0.0452434 0.925606 -0.219527 0.212305 -0.387099 0.0169766 -0.539015 0.00858441 -0.399645 0.895149 -0.0775731 -0.146396 -0.193662 0.782049 1.03829 0.654775 -0.962236 1.00728 0.177514 -0.861129 -0.589792 0.92947 0.00328782 0.823634 -0.101345 -0.714329 -0.524153 0.0289355 -0.0512395 0.51337 -0.350647 0.931627 0.41879 0.332029 0.11864 -0.937563 -0.471782 0.70688 0.129243 0.203378 0.51963 -0.825157 -0.939732 -0.633371 1.05208 -0.947395 0.931221 -0.942944 0.989431 0.156497 -0.851857 -0.577739 0.0882936 0.228535 -0.781016 -1.06282 0.56003 -0.355096 
0.0743083 -0.607992 -0.856008 0.77076 -0.574161 0.709856 0.159292 0.581476 0.719537 0.669548 0.206646 -0.142438 -0.190359 -0.26574 0.0117611 -0.214659 0.105026 -0.0725677 -0.143898 0.130756 -0.0716311 -0.188351 -0.914358 0.0874403 0.131098 0.135673 -0.68847 0.41391 0.186637 0.770913 -1.02014 -0.712179 -0.816099 -0.82025 -0.839463 -0.395402 0.772925 0.272322 -0.822709 0.498927 -0.1063 0.454003 -0.67471 0.615552 -0.820109 0.310553 -0.508676 0.421188 -0.765134 0.293153 -0.683757 0.25156 -0.857263 -0.486429 -0.613309 0.244609 0.774841 -0.28352 -0.298853 -0.038007 -0.487912 -0.263044 0.252717 -0.327746 -0.137327 0.259963 0.230251 -0.277103 -0.482012 0.438343 -0.723298 0.317922 -0.0908956 -0.488885 0.0182974 -0.00534813 0.817904 0.406583 -0.591983 -0.803502 -0.212419 -0.264552 0.331887 -0.0610517 0.297232 0.794563 -0.793646 -0.021333 -0.636687 -0.0817039 0.851109 -0.0630676 0.703079 0.0760214 0.662119 -0.342441 -0.615815 -0.166613 0.454541 -0.0516198 
-0.766851 0.584137 -0.690385 0.190856 -0.757863 0.358875 -0.820175 -0.997387 -0.226375 -0.455932 -0.820101 0.614855 0.308607 0.418431 -0.536354 -0.485048 0.202514 -0.372375 0.579841 0.703409 0.575705 0.385401 -0.450209 0.242271 -0.5245 -0.863894 0.887367 -0.0682518 0.0329248 0.295859 0.767289 0.306996 -0.0986235 -0.828034 -0.457848 0.131158 0.423777 -0.280729 0.153994 -0.775493 0.29887 0.350971 0.776162 -0.434117 -0.16441 -0.748427 0.177261 -0.92152 -0.107595 -0.360313 0.656236 -0.526855 -0.88568 -0.677014 0.784199 -0.416321 -0.510203 0.686271 0.559303 0.511862 -0.0892147 0.386539 -0.134376 0.822643 0.462015 0.306142 -0.0720597 -0.0826066 -1.01128 -0.909673 0.213929 0.226533 0.514078 -0.133173 0.880418 -0.782345 0.135182 -0.0791404 -0.69568 -0.834558 0.650669 0.996754 -0.406754 0.745262 -0.718284 -0.550545 -0.591622 -0.291638 -1.00193 0.931356 -0.791199 -0.0762998 0.349289 -0.0202502 -0.158818 -0.0911893 -0.704288 0.661443 0.875913 -0.685386 
0.773535 -0.0582732 0.610199 0.243034 0.924906 0.474595 0.433986 0.0548616 -0.589067 0.663815 0.248321 -0.865982 0.761665 0.757203 0.841721 0.96168 -0.829426 -0.780375 -0.281299 -0.784652 -0.768956 -0.116129 0.161713 0.543446 0.910342 0.904172 -0.563769 -0.695745 0.558502 -0.713743 -0.442861 0.342139 0.234424 -0.782762 -0.407304 0.161804 0.612329 -0.98063 -0.716381 -0.927611 0.725941 0.505054 -0.846654 0.451091 0.317428 0.986307 0.481715 0.515003 -0.7905 -0.853974 0.665101 -0.590514 0.128215 -0.180014 -0.992585 0.0731137 -0.272721 -0.56703 0.360648 -0.681579 -0.348308 0.91917 0.681754 0.959662 -0.941607 -0.753164 0.0902097 0.724376 -0.838761 0.374621 0.819444 0.929133 -0.027516 0.937019 0.412332 -0.834176 0.919748 -0.18078 0.667925 -0.784519 -0.0025644 0.341253 -0.390286 -0.946627 -0.798318 -0.384709 0.177432 -0.134035 0.0293573 -0.478607 0.15754 0.701472 -0.583785 -0.278385 0.606157 -0.454779 0.00792469 -0.315316 -0.749671 0.211814 
-0.915681 -0.965961 0.168152 -0.0519561 -1.00221 -0.423069 0.155962 0.903961 0.435757 -0.197918 -0.88165 -0.542676 -0.829932 -0.299809 -0.451152 -0.678602 0.294541 0.688591 0.202635 -0.66395 -0.792364 -0.664698 -0.959878 -0.374597 0.124784 0.673877 0.146669 -0.841527 -0.638683 0.377025 0.348755 -0.541541 0.44576 -0.426961 0.436418 0.442343 0.154792 -0.419636 0.373268 -0.416513 0.382476 0.464957 0.0482763 0.526132 -0.846187 0.58008 0.875999 0.477718 0.282303 0.0753223 0.777386 0.497306 0.447451 0.807473 -0.869602 -0.417602 0.465105 0.25426 -0.267732 0.838407 -0.347596 -0.901921 -0.697387 -0.90259 -0.322892 0.735985 0.525842 0.829643 -0.685591 -0.0881721 -0.556763 0.687589 -0.594603 0.457308 0.233239 -0.441412 0.0379148 0.105479 -0.985188 -0.662115 -0.802749 0.7919 0.834011 0.626806 0.593068 0.952702 -0.808347 0.076711 0.21302 -0.089243 -0.0850178 0.844717 0.0580623 0.211824 0.944438 0.717505 -0.0654217 0.485533 0.551381 0.258019 
-0.592697 0.98042 -0.0641649 -0.223847 0.441427 -0.838818 0.358515 -0.515359 0.278312 0.374445 -0.180237 0.483651 0.16623 -0.348422 0.105218 -0.224579 -0.398027 0.291087 0.848012 0.80721 -0.76281 -0.239756 0.657272 0.271228 0.970829 0.597356 -0.0124643 -0.0866875 0.0826378 -0.461983 -0.84762 0.481044 -0.480399 0.0908676 -0.712493 0.961221 0.263535 0.644808 -0.554861 -0.443436 0.0187724 0.256579 -0.959971 -0.815343 0.9161 0.143334 -0.0407122 -0.48007 -0.554257 -0.185613 -0.683373 -0.32868 0.617871 0.980447 0.946726 0.544859 0.582422 -0.0669628 -0.541115 -0.341513 0.477928 -0.386243 -0.85655 1.00347 0.707051 -0.537794 0.955515 -0.0300431 -0.924643 -0.598005 0.527014 0.0944718 0.665178 0.565234 0.282066 0.581826 -0.291863 -0.753411 -0.912215 0.159135 0.069705 -0.578091 0.835284 -0.367736 -0.602014 0.786225 -0.817562 0.980382 -0.274627 -0.376733 -0.367678 -0.795725 0.260738 -0.213343 -0.802239 -0.0344007 0.224516 -0.843655 0.936113 0.287062 
-0.442353 0.462457 -0.615371 -0.776279 0.0284303 0.66685 0.805663 0.737876 0.913905 0.905054 -0.105906 -0.0237152 -0.671361 -0.270397 0.61502 -0.267927 -0.483714 0.801794 -0.287531 0.241789 -0.551978 0.350819 0.444684 0.708295 -0.866237 0.643366 -0.326597 0.347982 0.798811 -0.391015 -0.361814 -0.643621 -0.928557 0.0228222 -0.41965 0.099864 -0.310224 -0.613991 -0.162268 -0.396194 -0.708937 0.731754 0.580087 -0.380291 -0.538563 0.195104 0.35176 -0.0222726 -0.00300804 -0.935701 -0.780551 0.444913 0.415478 0.664175 0.153232 0.548848 0.307595 0.826623 -0.103167 0.106334 -0.564338 0.535031 0.462756 -0.492841 -0.442137 -0.956618 0.606957 0.247646 -0.5709 -0.55531 0.851441 -0.279829 -0.823483 0.431536 0.339904 -0.362047 -0.373357 -0.308292 0.615562 0.623662 -0.243928 0.83516 0.0686179 -0.828929 0.499309 -0.77811 0.719967 -0.193104 -0.951435 -0.383359 0.913176 -0.515755 -0.848128 0.376007 -0.00868347 -0.290276 0.419181 -0.401714 0.95737 0.848161 
0.0429705 0.808823 -0.431634 0.219488 0.240362 0.90827 0.857439 0.867006 -0.400021 0.47311 0.490646 0.355988 0.308289 -0.440736 0.527116 -0.192359 -0.218845 0.24712 0.614537 -0.170279 0.863961 0.527767 0.31395 -0.984167 -0.0962475 -0.694728 -0.274442 -0.677162 -0.0964481 -0.317072 -0.828968 0.946522 -0.508249 -0.260601 0.16601 0.732114 -0.352331 0.0234487 0.599119 0.247647 -0.503441 0.0897657 -0.396365 0.804847 0.64903 -0.869249 -0.387512 -0.569815 0.377872 -0.772975 0.259906 0.241833 0.754792 -0.426145 0.257666 -0.341455 -0.120873 0.983223 -0.0186169 0.782679 -0.333848 0.152416 0.729202 0.157903 0.891814 -0.104789 -0.109983 -0.460517 0.91866 -0.510864 0.78713 -0.584781 0.578902 -0.609235 -0.779934 0.227932 -0.478483 -0.167446 0.658117 0.899388 0.0595795 -0.0819774 0.141221 -0.185628 0.491878 -0.601113 0.472917 -0.628995 -0.61789 -0.5457 -0.846316 0.0482617 0.606716 0.882886 -0.793835 0.49853 -0.221903 0.0961818 -0.961987 -0.303242 
0.58515 0.824305 0.112375 0.16721 -0.783468 0.32702 -0.60817 -0.254518 -0.834218 -0.947515 -0.364548 0.224473 -0.0323811 0.778717 -0.962653 -0.542495 -0.825871 0.511588 -0.16972 -0.441761 0.966934 -0.0126004 0.60103 0.563659 -0.132775 0.81423 0.071517 0.645637 -0.0911185 0.108344 -0.65806 -0.503974 -0.067527 0.455184 0.660795 0.150065 -0.213163 -0.948203 0.886422 -0.0476958 -0.897755 -0.474804 -0.82397 0.069081 -0.70044 -0.785833 0.532542 -0.520602 0.726303 -0.637147 0.0399646 0.69415 0.344128 -0.356015 0.263877 -0.786207 -0.540788 -0.673358 0.858898 0.370214 0.442994 -0.797771 0.865257 -0.623661 0.658443 0.525833 0.528422 -0.556806 0.5691 0.416689 0.392378 0.675643 0.937818 0.570159 -0.252858 -0.756138 0.785456 -0.723723 -0.275162 0.514732 -0.363285 0.759209 0.201106 0.984483 -0.592144 -0.536599 -0.797036 -0.133228 -0.200801 -0.943302 -0.767919 -0.75654 -0.733025 -0.903343 -0.379869 0.913728 0.618245 -0.852162 -0.635491 0.192687 
0.554777 0.734719 -0.122206 0.512763 0.322931 0.583135 0.74127 0.119133 0.851193 -0.551941 -0.408647 -0.464857 -0.802576 0.804058 -0.513025 -0.417987 -0.727406 -0.219889 0.482359 0.0938125 -0.23747 0.759707 0.290605 -0.028552 0.803261 0.97091 -0.0585629 0.413249 -0.910399 0.310668 -0.377409 0.674735 0.0279824 0.556105 0.165606 -0.599721 0.140518 -0.130015 0.497247 0.0200398 0.345093 -0.917149 0.543574 0.586711 0.914618 -0.921792 -0.750978 -0.804761 -0.271255 0.774903 0.321303 0.504899 0.473053 -0.447577 -0.424255 0.250401 -0.444593 0.467467 -0.307115 -0.331247 -0.222147 0.370262 -0.637509 0.830937 -0.100124 0.450466 -0.767979 0.986804 -0.688829 0.711769 0.00575709 0.734318 0.770667 -0.456141 0.380731 0.734476 -0.393685 0.546131 0.939837 0.430671 0.305654 0.205587 -0.110967 -0.22462 0.869503 0.399633 -0.86196 -0.645034 -0.0880341 -0.267898 -0.0292001 0.682576 -0.83454 0.303357 0.550588 0.0177761 -0.265859 0.742147 -0.00307013 0.0362089 
0.446109 -1.05514 -0.186562 0.2692 -0.403873 -0.735919 0.00865549 0.0860786 0.547091 -0.161847 -0.506019 0.0604093 -1.10465 0.360992 0.777447 0.661787 -0.194016 1.05042 -0.839144 0.955661 -0.424311 0.219598 0.481565 -0.288096 -0.584651 0.0516858 0.727991 0.157885 -0.183264 -0.269503 -0.669639 -0.715636 -0.315396 0.287447 0.448279 0.262766 0.415523 -0.71619 -0.534913 0.135429 0.145121 -0.100282 -0.790625 0.331002 -0.581118 1.07002 0.162127 0.208348 0.697625 0.39115 0.139391 -0.711412 -0.33154 -0.564803 0.137582 -0.094449 0.557747 -0.21667 -0.912335 -0.648751 0.434305 -0.432525 -0.527557 -0.735697 0.727863 0.789743 0.61446 0.0579028 -0.80604 0.979044 -0.863871 0.4417 -0.0110969 -0.601211 -0.225521 0.384796 -0.690236 0.712629 -0.479565 -0.806757 0.219669 0.71276 -0.541761 0.606234 -0.753668 0.482257 -0.277637 0.637801 -0.663358 -0.357564 0.781088 0.914913 0.306036 -0.636556 -0.877968 0.207373 -0.799403 0.691488 -0.810872 -0.790999 
0.665683 -0.865504 0.622113 -0.26997 -0.343372 -0.319277 0.875869 -0.0761098 -0.939913 -0.75296 0.092516 0.444628 -1.11212 0.625715 0.0968066 -1.19661 0.0317735 0.992151 0.548475 0.804551 -0.480404 0.401861 0.451281 0.879333 0.818746 0.802392 -0.171075 -0.947527 0.310816 -0.0159252 -0.592852 -0.00236211 0.254339 -0.551625 0.385081 1.07832 -0.215649 0.0432461 -0.0267515 0.193758 0.237726 -0.890276 -0.210753 0.848829 0.674785 0.948517 0.839753 0.0450092 0.525403 0.410394 -0.300144 -0.835177 0.109254 -0.88161 1.1289 -0.225053 0.930753 -0.205409 -0.0788542 0.0691429 0.745331 0.543238 0.954557 0.0767288 0.670515 0.207403 0.254069 -0.442372 -0.60872 -0.996018 0.757681 -0.978982 -0.770025 -0.170117 0.904003 -1.02743 -0.307711 0.11628 0.0618974 -0.64493 -0.29935 1.01771 -0.574659 0.540605 -0.63522 -0.502082 -0.343763 0.9648 0.369357 0.34254 -0.0304551 0.100176 -0.194624 -0.0423093 -0.749495 -0.0830442 -0.76039 0.152438 0.515858 -0.486782 
0.235325 -0.0117578 -0.47444 0.734834 -0.891901 -0.615897 0.303741 -0.155195 0.366517 -0.502895 0.181255 -0.725585 -0.692122 0.767429 -0.998017 -0.892809 -0.8438 0.0241486 -0.934767 0.877278 -0.609062 0.161257 -0.66029 0.402483 -0.821111 0.0514155 0.88906 -0.499048 1.13021 0.381636 0.0223366 0.228526 -0.423036 1.01856 -0.458295 -0.042592 -0.994446 0.579127 0.525671 0.819739 -1.10982 -0.275385 -0.881968 -0.177163 -0.698932 -0.788837 0.178766 -0.144133 -0.22567 0.0233381 -0.242903 0.143278 -0.33522 0.311516 -0.338914 -0.174946 -0.570846 -0.803147 0.425184 -0.911601 0.392174 -0.310252 0.348953 -0.868671 -0.727802 0.64367 0.155701 -0.670715 0.314878 -0.723902 -0.788367 0.690208 0.0460334 -0.541159 -0.404514 0.771246 -0.170999 0.179393 -0.0982409 0.558038 -0.45045 0.722664 -0.158174 0.37591 0.158264 0.543865 -0.781286 0.221639 0.864115 0.554667 0.393153 0.417225 -0.8955 -0.383541 0.743665 -0.0387084 -0.793952 -0.777943 0.33456 0.753391 
-0.161011 0.0220711 0.413015 1.2357 -0.493266 1.04813 0.715999 -0.332196 0.131628 -0.241841 -0.557863 1.07359 -0.837488 0.613183 0.550504 -0.247385 0.051522 0.951486 -0.901886 0.0697228 0.595004 0.618144 -1.35013 0.906483 -0.847333 0.887669 -0.82783 -0.436605 1.37991 0.523431 -0.742103 -0.282601 0.0134447 0.947704 -0.219501 0.678651 0.563014 -0.930006 0.866081 -0.213234 -0.193999 -0.566656 -0.161947 0.418862 -0.948033 -0.87181 -0.565954 0.243318 0.615075 -0.614385 -0.773717 -0.00231549 -0.615481 -0.717585 0.617854 -0.438317 -0.64487 0.042659 0.258307 -0.941229 -0.173985 0.808125 -0.0761297 -1.0374 0.142927 0.256994 0.393739 -0.206387 0.610093 0.0536497 0.797319 -0.53509 0.275587 -0.310018 1.21833 1.08815 0.125521 -0.887935 0.533467 -0.127726 -0.280657 0.808048 -0.711597 0.396547 1.1543 0.708634 -1.14352 -0.945781 -0.0836795 0.366783 -0.904993 0.973701 -0.0558311 -0.0635442 1.25734 -0.501444 -1.09601 0.0299311 0.513398 0.795121 
-0.525939 -0.238877 -0.673583 -0.840964 -0.149028 -0.349857 0.900805 0.0472243 -0.366872 0.454473 -0.794949 0.839639 -0.334502 -0.0674446 0.357782 -0.65546 -0.836042 0.442948 -0.121948 0.608587 -0.321098 -0.00908281 -0.350681 0.735202 0.763525 0.315448 0.827554 0.97214 -0.184278 0.156572 0.71221 -0.262176 -0.629362 -0.799225 -0.0666407 0.310693 -0.592261 -0.635042 0.922335 0.181183 0.742139 -0.740224 0.0401653 -0.00634285 0.0401181 -1.11297 0.525576 0.334695 -0.200742 -0.881604 -0.386413 0.33816 0.340923 -1.27273 0.98321 0.222159 0.622101 -0.49066 0.384561 0.703664 -0.728124 0.49614 -0.499815 -0.433683 0.235939 -0.13384 0.702745 -1.05814 0.801718 0.420944 -0.0457937 0.560518 0.324496 -1.07342 -0.226342 0.188954 -0.65119 0.89995 -0.1245 0.56258 -0.72248 0.490926 0.0346365 -0.904399 0.650428 -0.227515 0.217704 -0.370085 0.477034 -0.093525 -0.765785 0.857634 -0.999835 -0.226558 -0.0846377 0.502591 0.414697 -1.19071 0.537182 0.567012 
0.847798 -0.681741 0.0332405 0.568949 0.60406 0.739095 -0.680392 0.256456 0.453449 0.178629 -0.0527999 1.05779 -1.07817 -0.444358 0.933642 -0.0364791 -0.274848 0.397834 -0.551388 -0.0848489 -0.74517 -0.421361 -1.14526 -0.631246 0.229751 0.0336072 0.806856 0.0196849 0.457365 0.156584 -0.656774 -0.235738 0.833821 0.544759 -0.677856 0.749772 -0.228513 -0.833308 -0.677424 -0.726945 0.0979991 0.52839 -0.8766 0.795453 0.945629 0.817531 0.0655089 -0.147024 -0.108665 0.27118 -0.0338243 -0.280947 -0.855686 0.294391 1.41021 0.181037 0.28593 -0.0453704 -0.351288 1.01752 -0.556502 0.408449 -0.262821 -0.869067 -0.287819 -0.513902 0.61471 0.595475 0.321408 1.11292 0.347408 -0.462549 0.138531 0.252621 -0.632523 0.759068 0.496167 0.253622 -0.314326 0.19221 -0.409103 0.872174 -1.02636 0.12672 1.04654 1.11817 -0.662069 -0.849804 -0.0927727 0.475398 -0.983734 0.699427 -0.414187 -0.303938 -0.61053 0.650522 0.0449324 0.170997 0.24209 -0.433299 
0.880917 -0.216247 0.0138558 0.278596 0.0775516 0.294151 -0.538064 -0.691092 -0.852931 -0.108575 0.373071 0.377531 -0.774188 1.00237 0.725236 -1.46275 0.0935385 -0.424067 -0.118303 -0.239853 0.771688 -0.77627 -1.25978 -0.438341 0.050181 -0.660081 -0.71414 -0.431707 0.783792 0.237218 -0.133489 0.338161 -0.959142 -0.891865 -0.459036 0.766892 0.19436 -0.497238 0.300864 0.0893439 0.89381 -0.377528 -1.00739 -0.236085 -0.64637 0.872897 -0.671797 0.71301 -0.659857 -0.258994 -0.883342 -1.25246 0.558103 -0.818858 1.18826 -0.817227 0.341872 0.16322 0.572427 0.188208 -0.595165 -0.183362 1.35028 -0.342523 -0.0867579 -0.43694 0.749881 0.98124 0.552542 0.383548 0.034675 0.24632 -1.09896 -0.294975 1.00435 -0.246391 -0.251648 -0.904625 -0.455763 0.811384 -0.172937 0.156906 -0.875968 -0.315484 1.25885 0.720293 0.323829 -0.852863 -0.214034 -0.0527484 -0.219906 0.679289 0.897344 -0.338438 -0.521816 0.00118229 -0.0769031 0.500625 0.245416 -0.408421 
0.308164 0.713991 0.827882 0.277713 0.149562 0.703012 0.479584 -1.14423 0.321807 -0.955727 0.795718 -0.0834969 -0.59957 1.12211 -0.484051 -0.814644 -0.248007 -0.945035 0.356404 1.16266 -0.175687 0.300167 -0.0422162 -0.158389 -0.870162 0.635139 0.552159 0.428086 0.300697 -0.713945 -0.944074 -0.695978 -0.904282 -0.765734 0.697368 0.839643 1.0502 -0.118039 0.139215 0.211991 0.629921 -0.405896 0.225934 -0.422785 -0.263289 -0.708613 -0.737767 -1.07622 -0.860978 -0.0466776 -0.946921 -0.640924 -0.13996 0.219884 0.146197 -0.521714 0.425521 0.535297 -0.254672 0.0106741 -1.01819 0.447253 0.187938 -0.794834 0.641319 -0.0208475 0.296822 0.638166 1.17306 -0.195957 0.109828 0.0687491 0.854897 -0.917359 0.640793 -0.0468682 -0.986978 0.733143 -0.0663778 0.0400892 -0.160974 0.381937 -0.793703 0.65567 0.370233 -0.27941 -0.699878 0.405397 -0.473361 0.446738 0.661992 -0.207391 0.00942609 -0.142288 -0.242096 -0.103455 0.162745 -1.19246 -0.0302969 0.357941 
-0.117574 -0.134994 -0.597508 -0.335127 0.552203 0.840063 0.0133052 -1.15755 0.439442 -0.58642 0.172438 -0.117237 -0.403551 0.446546 0.560456 0.672366 0.273387 -1.13285 0.512787 1.22154 0.474073 0.163493 -1.11275 -0.306233 0.73957 -0.0380399 0.0938587 -0.0676311 -0.0771076 0.539551 -0.611404 0.486315 -0.323843 0.0627455 -0.46287 -0.404782 0.514072 0.278633 -0.865447 -0.137163 1.1903 -0.140893 -0.374296 -0.137484 -0.621602 -0.297058 -1.2647 -0.780417 -0.540206 0.0222564 -0.807105 -1.87796 1.27544 -0.242884 0.636301 0.537308 0.708399 -1.10984 -0.33118 -0.011476 0.616095 -0.799275 -0.959708 -0.585907 0.379178 -0.161711 -0.851141 -0.414154 1.66812 -0.22825 0.426822 0.316332 0.981126 -1.1865 -0.765796 -0.0689679 -0.933419 -1.03337 -0.268584 0.607052 0.178215 0.494147 0.620006 0.266319 1.4689 -0.133256 -1.00774 0.0883433 -0.322179 1.17983 -0.171489 -0.304015 -0.833667 0.739673 -0.348215 0.319678 0.810347 -0.158093 -0.788272 0.836074 
0.509879 -0.0968347 0.207149 0.436864 0.623635 0.337201 -1.05548 -0.917359 0.228176 0.356183 0.989574 0.263156 0.594832 0.491184 0.484628 0.85908 -1.213 -0.898906 -0.129981 0.0596821 -0.811147 1.23708 -0.603204 -0.226074 0.365503 0.322503 0.580727 -0.0337678 -0.877473 0.92984 -0.00276597 0.372427 0.128641 -0.791365 0.358947 -0.594091 1.12358 0.0451866 -0.438443 0.688095 -0.442079 -0.848148 0.611085 0.999875 -0.895941 0.656476 0.327263 -0.542781 0.481951 0.947535 0.0808997 -2.11702 1.29697 1.4867 0.115784 0.137208 0.171028 -0.846504 -1.066 0.812691 -0.795017 0.823681 -0.336404 0.612597 -0.860157 1.11429 0.230554 -0.892362 0.629257 -0.524589 0.457347 -0.320923 -0.049229 -0.0186561 0.0248068 0.645663 -0.502783 -0.744985 0.31883 0.022888 -0.366639 -0.274325 0.0337143 -0.638764 0.26327 1.02757 -0.890465 0.54527 -1.16585 -0.951952 -1.12023 -0.45454 0.837374 0.464506 0.0955136 0.561505 0.246161 -0.164263 -1.05315 -1.02456 
0.27863 0.419645 0.0816484 -1.14499 0.599302 -0.976767 0.298782 -0.65968 -0.723018 0.182796 0.989127 0.605316 -0.279708 -0.379418 0.442589 0.592844 -0.536284 -0.221765 -0.344323 -0.119395 -0.252045 0.304774 -0.634639 0.374708 -0.679862 0.961611 -0.659844 0.466129 -0.332008 -0.0754804 0.772505 0.616651 -0.469729 -0.271976 1.19735 0.165569 0.0249033 0.204176 -0.895371 1.19999 1.21522 -1.21059 -0.538635 -0.516426 0.194569 -0.453169 0.873706 0.928681 -0.399549 -0.668214 -0.632183 -2.04895 1.13342 0.792189 0.326556 -0.704293 -0.215052 0.0814428 -0.128152 0.8934 1.39034 0.394305 -0.0648886 -0.141098 -0.782573 0.124067 -1.28242 0.305363 -0.292323 -0.398227 -0.0436555 0.49105 -0.530183 -1.40099 -0.478634 1.27575 -1.27645 -0.836685 0.407148 0.421666 0.127222 0.900467 0.383242 -0.383127 0.739032 -0.324115 -2.21774 0.878916 -0.115268 -1.17007 -0.579771 0.823252 0.876275 -0.565751 0.325246 0.516405 0.407032 -0.941999 0.0280006 0.0643956 
-0.256131 -0.672788 0.119812 -0.097874 -0.073586 0.586126 0.0475971 -0.289216 -1.03968 0.109083 -0.180896 0.599295 0.642017 -1.35283 0.715204 -0.0781431 -0.656846 -0.696456 -0.825018 1.16455 -0.576489 0.222251 0.0616612 0.20614 0.0470409 0.520753 -1.10781 -0.810107 0.259072 0.82127 0.578747 0.916484 -0.871882 -0.455782 0.838044 -1.01376 -0.851709 -0.464929 0.534368 -0.0266605 0.0785366 -0.974869 0.411957 -0.985361 -0.406517 0.812692 0.00598064 0.167582 0.231097 -0.174755 -0.413787 -1.42128 -0.222023 1.56496 0.14256 0.839679 0.0720139 -0.434916 -0.10121 -0.128361 -0.343015 0.248221 -1.063 -0.185766 -0.998217 0.467172 -0.531049 -0.810778 1.27333 -0.321444 -0.241985 -1.00332 -0.0821676 -0.634902 -0.16671 1.18538 -1.10353 0.258294 -0.378589 -0.75778 0.0237406 0.201597 -0.304656 0.376809 0.873413 0.879955 -2.18652 -0.332743 -1.69906 -1.09104 -0.6717 -0.384669 1.19523 0.298283 -1.21366 0.60817 -0.10491 0.368671 -1.02563 -0.933587 
-0.394681 0.223609 -0.253181 -0.113516 -0.665623 0.387138 0.265306 -0.646131 0.487741 1.4953 0.298301 -0.489298 -0.751974 0.418135 0.303695 1.20024 0.285371 -0.669735 1.09131 0.694911 -0.516701 -0.331261 0.199576 0.263403 0.375218 1.17185 -1.14651 0.688857 0.356279 -0.227587 -0.745877 0.840015 0.487123 -0.132439 0.748806 -0.40395 -0.939909 -0.349775 -1.31299 1.0077 1.56948 -0.075133 -0.891894 -0.920212 0.0518925 0.964241 -0.73143 -0.634848 0.382034 -1.26782 0.201053 -1.15004 0.222036 0.332061 0.271366 -0.319692 -0.515907 -0.0498507 -1.58712 -0.565097 0.865656 -0.68621 -0.0564767 -0.0424752 0.496886 -0.49567 -1.32863 -1.14465 0.706828 -1.18843 0.56271 -0.131793 -0.188865 -1.35806 0.735379 1.45903 0.341761 -1.56847 -0.739209 0.907668 -0.56019 0.410042 -0.660651 0.576078 -0.127593 0.691596 -1.04991 0.697028 -1.74583 0.275396 -0.11525 0.506141 -0.350536 0.0212491 -0.136685 0.831124 0.736419 0.497596 0.556892 -0.544896 
1.18642 1.08117 0.892008 -0.683077 1.12428 0.619389 -0.166387 0.876018 1.42892 0.989728 1.37974 -0.976662 -1.21597 -0.847112 0.521012 0.276751 0.677988 0.331259 0.99478 0.92608 -0.386182 -0.0823054 -0.79781 0.789032 0.313816 -0.67892 -0.126654 -0.442932 1.2773 0.177033 0.504478 1.07027 -0.436138 0.165228 0.378105 -1.4351 -0.328945 1.1397 -1.11291 -0.0315414 0.336852 -0.491354 0.441487 -0.468007 -0.174029 -0.037742 0.874141 -0.517099 0.6392 -0.122629 0.441638 -0.711692 -0.615823 0.0988644 1.26633 0.617279 -0.112559 -0.304324 -1.4432 0.405452 1.61282 0.567928 -1.09266 -0.820355 0.463258 0.0251718 -0.767964 -0.349498 1.08003 -0.49434 0.472909 -0.931897 -0.350817 -0.012348 0.460804 1.19536 -1.3243 -0.194228 -0.397597 -0.438494 -0.215869 0.872779 -0.274907 0.817506 0.270554 0.45237 -1.34797 1.67091 -0.0668868 -0.37908 -0.13523 0.563623 -0.0369802 0.818544 -0.640577 -0.235128 0.118524 0.548212 -0.0682205 -0.614881 
-0.365671 0.922238 -0.0843228 -0.193984 -0.080647 -0.487005 -0.0496627 0.227649 -0.0532875 1.20662 0.867977 -0.607725 -0.390662 -0.326224 -0.521867 -0.260576 0.504173 -0.0650674 1.36019 0.487105 0.530356 -0.0423989 -1.61944 -0.101597 -0.431443 -0.194821 -0.00833792 -0.0352917 0.420219 -0.730097 -0.970166 0.650201 0.321071 -0.0965233 0.493945 -1.61008 0.164379 -0.434545 -0.240778 -1.43815 1.19046 0.104179 0.161946 -0.584045 0.715938 0.138484 0.167643 0.151222 0.789766 -0.457272 -1.77879 0.578096 0.734488 -0.194644 0.0249268 -1.11414 0.691468 0.276227 -0.0194978 0.384498 1.63927 0.419543 -1.57456 -0.294634 0.219353 -0.517397 -0.0661116 0.0609565 1.32081 -1.08904 -0.249534 0.211391 -0.324397 -1.33655 -0.840428 0.0226601 -0.00312007 -0.113497 1.18306 0.760723 -0.49761 0.756119 -0.385984 0.421679 -0.306117 1.03738 -1.0294 0.256792 -0.703279 -1.05198 0.25514 -0.272158 -1.14482 0.346867 -0.315233 0.796901 -0.750834 -0.725587 -0.462492 -0.833487 
-0.519854 1.73273 0.478162 -0.0179665 1.39292 -0.675187 -1.51197 0.641865 -0.0477924 1.20317 0.270109 -0.985482 0.0127827 -0.679549 0.657383 1.33733 0.340592 0.747447 1.00929 -0.116394 0.760084 0.144652 -1.21734 -1.24524 -0.573347 -1.66047 0.298909 -0.636349 -0.170004 0.537364 -0.262697 0.11611 0.287581 -0.277006 -0.469881 0.147022 -0.402606 -0.283562 -0.247415 -0.347613 -0.352307 -0.48372 -0.654339 0.359483 -0.446219 0.0988342 0.452933 0.930131 0.0434593 -0.0993753 -2.10995 0.119939 -0.555088 0.228232 0.707879 -0.582936 0.386846 -0.766899 0.332374 1.32934 -0.0895656 -0.798007 -0.945351 0.654914 0.741951 -0.329797 0.622664 0.181178 -0.426354 -0.71686 -0.940746 -0.909984 -0.160869 -1.21309 -1.1993 0.618908 0.772272 -0.243574 0.623448 0.456463 -0.0674586 0.597694 -1.43368 0.897381 -0.0626802 0.5372 -0.82201 0.203778 0.107314 0.504255 1.25964 1.20944 -0.792249 -0.520943 0.427065 0.267807 0.628701 0.345449 1.05109 0.90469 
-1.03555 0.296102 -1.03555 -0.140655 0.113233 -0.295548 -1.6358 -0.205568 0.111277 0.940498 0.659184 -0.655278 -0.600997 0.574365 0.0816948 0.755867 -0.834771 -0.282818 0.220763 -0.531741 -0.446177 -0.0192681 -1.74469 -0.312406 0.62535 -1.59199 -1.01247 0.341147 0.838286 0.608186 -0.194777 0.568664 -1.1158 0.810305 -0.400327 -0.0401263 -1.27684 -0.457821 0.471913 -1.23379 0.976247 0.703221 0.824441 -1.06711 0.134106 -0.997431 0.368636 0.466721 -0.0860309 -0.178244 -0.772118 0.645848 -0.915956 -1.24952 0.570113 -1.13184 -0.378684 -0.0830509 0.623194 1.13247 0.472671 -0.472208 0.0822808 0.0496509 -0.16491 -1.17067 -0.789713 0.759084 0.237891 -1.26251 0.768531 -0.76779 0.785886 -0.305134 -0.536975 -0.286555 0.845571 -1.45775 1.74086 0.306661 0.285661 1.13701 -0.908094 0.530428 -0.957616 0.967851 1.28846 0.272995 -0.758176 0.025318 -0.188982 -1.10415 -0.845867 1.09935 0.183058 1.50021 0.84471 0.651342 0.732452 -0.370674 
-1.2726 1.31236 0.0564823 0.702686 0.0987289 -0.433067 0.312119 -0.144825 0.362182 1.46649 0.226048 0.615981 0.817908 0.708991 1.01721 1.08892 0.167682 0.466561 -1.03465 -0.53632 -0.246069 -0.906287 -1.23111 -0.232586 -0.879771 0.428029 0.213104 -0.92536 0.812132 -0.178813 -0.773227 0.502795 -1.04556 -0.665747 0.698669 0.608455 -1.23989 -0.274394 -1.10506 -0.797201 -0.208805 0.656441 -0.420761 -0.781625 0.499193 -1.01847 -0.981149 -0.29708 0.465335 -0.220741 -0.847177 -1.2603 -0.428117 0.0368043 0.999909 -0.0318371 0.987231 -0.00556312 0.15513 0.508653 1.33881 -1.49287 -0.0398078 -0.892121 -0.844969 -0.932011 0.131408 -0.351253 0.49726 0.219746 0.0337896 -1.32623 0.519956 -0.155087 -0.659165 -0.176995 -0.890777 -1.1244 1.33897 0.964006 -0.10344 0.473044 0.640216 0.57058 -0.264398 0.731681 0.551309 -0.198791 -1.02283 -0.720052 1.04208 -0.779102 -1.19908 0.184723 -0.278686 0.446236 -0.213791 -0.905411 0.755925 -0.778614 
0.57223 0.0525554 -0.72422 0.28257 -0.487375 0.397997 0.451178 -0.432784 1.2805 0.874882 -1.03805 -0.385165 -0.186855 0.460372 0.0888125 0.175819 -0.111616 0.705592 -0.0114354 1.21027 0.772606 -0.209962 -1.23747 -1.31259 0.571354 -0.276459 -0.276652 -0.556613 0.19065 -0.509314 -0.673148 -0.0919358 -0.51199 0.106512 0.127185 0.563484 0.45081 0.623021 0.720178 -0.0622491 -0.228643 0.857334 0.738299 0.371634 0.660488 -0.920304 -0.977054 0.0383039 0.657324 0.576997 -1.34536 -0.130296 -0.50724 -1.01093 1.00878 -0.876387 1.08613 -0.324719 -0.365659 0.530783 0.0946401 0.106739 -0.421524 0.322267 -0.502443 -0.690632 -0.5774 -0.916104 -0.563484 -0.603689 0.178785 -0.177902 0.13014 -0.48678 -0.510595 -0.941503 0.454129 -0.729319 0.753861 0.528339 -0.796836 1.24962 -0.287032 -0.106766 -0.410656 -0.56457 0.404549 -0.41533 -0.834099 -0.781196 0.393895 0.731112 0.240816 1.11756 0.500727 -0.506153 -0.865075 -1.13772 -0.0922084 -0.267093 
-0.268413 0.946004 1.03422 0.731949 0.0317876 -0.202064 0.794267 -0.610441 0.681025 0.333406 0.284394 1.18816 0.374823 -1.03474 0.209908 0.414158 -0.808128 -0.867116 0.51988 0.440479 -0.741892 0.0981359 -0.837349 0.175774 -0.201722 0.855816 0.631907 0.419051 0.916977 -0.633986 0.520614 -0.255392 -1.00763 0.757618 0.335724 0.323002 -1.12661 -1.06563 0.675167 0.309785 -0.346971 0.202638 0.446969 0.779887 0.288453 -0.841543 0.27484 0.762599 -0.929376 -0.126424 -1.17468 -0.826316 -0.584078 -0.883196 -0.796954 0.580191 -0.127533 0.73276 -0.240364 0.15102 -0.660143 -0.390152 0.911917 -0.904025 -0.253768 0.705188 0.320353 -0.579658 0.737179 0.371375 -0.800605 -0.701822 0.132287 -0.032837 -0.630031 0.603567 0.718137 0.124154 0.379653 1.38484 -0.286715 0.694338 -0.508715 0.27642 -0.480098 -0.0929712 -0.22278 0.0578922 -1.15899 1.08364 0.252993 0.0726826 -0.0900698 -0.162508 0.178975 0.560703 -0.0418504 -0.494266 -0.756372 0.10783 
-1.17583 -0.831446 0.873976 -0.114248 1.0475 -0.210386 -0.535373 0.292296 -0.760283 0.469611 0.489611 0.324996 0.491153 0.665984 -0.85377 0.337429 -0.590475 -0.149814 -0.398421 0.0592784 0.0194028 -1.38404 0.240577 -0.143177 -0.262655 -0.468341 -0.504573 -0.596322 -0.0734745 -0.145632 -0.531767 0.0497621 0.0356153 -0.105537 1.4074 0.0974468 -0.034655 -0.975295 -0.332487 0.0894881 0.462384 -0.388224 -1.02293 -0.170369 -0.597117 -0.92779 -0.656192 -0.142827 -0.135438 -0.609251 0.293208 0.553221 -0.429998 -0.340256 0.106057 -1.06331 0.593922 0.839086 -0.910298 -0.0780107 -0.530029 0.295737 1.00315 0.257806 -0.98378 0.399398 -0.285553 -0.0498905 0.351845 0.56806 -0.476681 -0.396164 1.3409 -1.17109 0.899609 -0.702287 -0.814355 0.365992 0.22634 1.05216 -0.377754 -0.269247 0.161793 0.437354 0.764385 -0.238403 0.257158 -0.0934047 -1.17792 0.83967 0.331236 -0.033104 -0.0548323 -0.327942 -0.256602 0.349298 -0.581677 0.357756 -1.11336 -0.857947 
-0.244415 -0.883402 0.0395571 -0.0164305 -0.106171 0.269208 0.230325 0.0395995 -0.155399 -1.14686 -0.0505123 0.857869 -0.0143234 -1.3011 -0.0848804 -0.893803 -0.596807 -0.81177 0.436058 -0.499369 1.02907 -0.801593 0.353503 -0.624904 0.426866 1.04518 0.536594 -0.506477 -0.165867 0.763398 -1.28763 -1.07035 -0.912131 0.459466 0.207837 -0.0674613 -0.635206 -0.841621 -0.714895 0.256795 -0.98817 0.404806 -0.324522 -0.1513 0.311961 0.692791 0.226475 1.02914 0.795931 -0.799728 -0.843949 0.805362 -0.324163 0.430008 -0.712561 -0.350053 0.188422 -0.991262 -0.0243013 -0.427555 0.611994 0.412811 -0.595054 0.447294 -0.402687 0.28485 -0.47928 -0.117513 0.00911004 -0.0419017 -0.425609 0.0107976 -0.381358 -0.115648 -0.612817 0.674025 -0.497969 -0.0723383 0.691399 0.106233 0.537197 0.920516 -0.386692 -0.64048 0.314106 0.0193419 0.0253554 -0.610061 -0.0392484 1.31922 -0.0963016 -0.264918 0.223219 -0.171626 -0.543456 1.03042 -0.716528 -0.00907213 -0.207295 0.814686 
-0.919573 -0.0721023 -0.149501 -0.503612 -0.703035 0.240166 -0.659988 -0.00152104 -0.618338 0.473369 -0.774575 -0.796888 0.508808 -0.256316 -0.553275 -0.444979 0.865882 0.516019 0.118725 -0.075746 0.547258 0.620734 0.803094 -0.311378 -0.249471 -0.678144 -0.484364 0.409679 0.0919498 0.256335 -0.277961 0.39762 -0.536872 -0.999393 1.03648 -0.3098 0.429913 -0.760948 -0.900268 0.711174 0.704581 -0.770122 0.9328 -0.00160883 -0.109739 -0.554788 0.706524 0.167292 0.792772 -0.240454 0.787064 0.521921 -0.572214 0.398102 -1.00663 0.412135 0.404343 -0.501026 -0.255583 -0.206771 0.81719 0.868452 -0.808712 -0.885827 0.817499 -0.950286 -0.0173894 0.0716526 -0.844138 0.101909 0.240063 0.755366 0.513205 -0.0504706 0.145767 -0.550226 0.385103 -0.443016 0.328953 0.404315 0.440522 0.140299 -0.166569 0.939652 -0.414323 -0.202155 0.222418 -0.979995 0.346488 -0.632946 -0.137549 0.0407163 -0.855399 -0.0699808 0.347411 0.932897 -0.126141 -0.558039 0.223624 0.448513 
0.505455 -0.775409 -0.0202237 -0.113319 0.323851 -0.987214 0.332948 -0.189721 -0.255555 -0.394112 -0.740331 -0.780393 0.692043 0.101923 -0.834659 -0.81141 0.953475 0.564766 -0.753836 0.318228 0.791262 0.00949838 -0.565495 0.797473 0.948848 0.769778 0.717126 -0.0673518 -0.908887 -0.152616 -0.962461 0.595728 0.102786 0.0425026 -0.464315 -0.560997 0.111699 0.864668 0.280643 0.834367 -0.517633 0.540879 -0.884826 -0.834586 -0.36596 -0.729095 -0.637575 -0.357062 0.826491 -0.385834 0.908178 0.626857 0.696896 -0.67041 0.400489 0.595933 -0.924388 0.126784 -0.460034 -0.812465 0.965711 -0.395793 0.782385 0.0894383 0.659763 -0.65029 0.519795 -0.25009 -0.831575 -0.211494 -0.341769 -0.348315 -0.665761 -0.254854 -0.16217 -0.0376181 0.0208673 0.175917 0.552099 -0.131962 0.84015 0.481355 -0.51031 0.462282 0.822674 0.916307 0.0572551 0.901737 0.033829 0.578861 -0.933611 0.010749 -0.774161 0.877234 -0.886235 0.866492 -0.821914 0.632966 -0.370526 -0.631587 
-0.580285 0.276601 0.00304618 -0.294441 -0.969255 0.805361 0.709734 0.0631745 0.00998874 0.272193 0.936503 -0.14837 -0.254603 -0.568401 -0.681047 -0.429302 -0.651361 0.375923 -0.53747 0.394097 0.0241233 -0.458126 -0.580338 0.223455 -0.596464 -0.482197 0.0836115 -0.420826 -0.853257 0.707155 -0.0793678 -0.449439 -0.0161896 0.925179 0.306506 0.0126929 0.751517 0.0153867 -0.925812 -0.21322 -0.712433 -1.00393 0.637594 0.0344296 -0.556135 0.956086 0.60057 -0.206472 0.350933 -0.922667 -0.825866 -0.645449 -0.307987 -0.397737 0.582913 0.0162211 0.130793 -0.335884 0.595892 0.263051 -0.617874 -0.481048 0.822261 0.376942 -0.553921 0.184525 -0.623751 -0.800916 -0.858657 -0.54931 -0.0164 -0.569416 -0.538427 -0.377118 0.469697 -0.0947433 -0.420468 0.0792621 0.674976 0.935835 0.169583 0.8791 -0.700838 0.764851 -0.523997 0.890297 -0.20941 0.605282 -0.43501 -0.645508 -0.142562 -0.049383 -0.0861686 -0.30527 -0.690075 0.35768 0.83735 -0.311216 0.556715 0.954366 
0.138235 -0.457217 -0.608207 0.599816 0.166227 0.861504 -0.495237 0.745757 -0.0592356 -0.798283 0.677355 -0.902332 -0.915357 0.976525 0.874089 -0.430707 0.866822 -0.327794 -0.825424 -0.567985 0.0670118 0.042911 0.379349 0.980842 0.733285 0.690427 0.338697 0.551351 -0.622057 -0.104374 0.512497 0.516178 0.43841 0.904289 0.115994 -0.395363 0.765793 0.620757 -0.649606 -0.293442 0.822474 -0.97225 -0.195774 0.907117 -0.995725 -0.321685 -0.52359 0.871097 0.35052 -0.349014 -0.696888 -0.582468 0.693897 0.682461 -0.601626 0.427182 0.372888 0.737071 -0.0214668 0.75083 -0.367303 -0.50897 0.267008 -0.928893 -0.604681 -0.616998 -0.324256 -0.838888 -0.996241 0.026138 -0.13233 0.826234 0.0538877 0.671896 0.73335 0.0581626 -0.649789 -0.790239 -0.0707405 0.700731 -0.139253 0.232372 -0.881737 -0.445357 -0.0851671 -0.483362 0.981825 -0.71228 -0.746291 -0.0396413 -0.961449 -0.113594 0.451389 0.305559 -0.0424877 0.846708 0.688562 0.633256 -0.99218 0.692321 
-0.342881 -0.12776 0.519545 0.720516 -0.453652 0.245199 -0.228708 -0.0924321 0.472085 0.691855 -0.407025 -0.672613 -0.0633232 -0.28438 -0.131892 0.843009 0.227225 -0.131149 -0.869353 0.492316 0.820024 -0.825446 -0.638205 0.255017 0.473708 0.323081 0.115132 0.165023 -0.045166 0.127785 -0.14409 0.627193 -1.00181 -0.61306 0.337708 -0.4455 0.632324 -0.89598 0.452473 0.0944794 0.806085 -0.954067 0.419468 -0.253828 -0.25032 -0.709535 -0.406234 0.983797 0.15309 -0.269639 0.484344 -0.0310156 -0.117843 0.845661 -0.762502 -0.615185 0.183664 0.354918 0.547283 -0.850255 -0.525073 -0.585067 0.784972 -0.5194 -0.208848 0.1211 0.0304013 -0.582757 0.201279 -0.514841 0.502676 0.0225633 -0.481923 -0.0762973 0.771934 0.282496 0.229127 -0.639992 0.284449 -0.622743 0.0877108 -0.24346 0.345282 0.985368 -0.386936 0.58197 -0.622063 0.797381 -0.0609223 0.911229 0.944513 0.428766 -0.672034 0.715814 0.907704 0.106741 -0.177515 -0.0634421 0.531017 -0.965447 
0.356796 -0.017581 0.0872479 1.05666 0.855314 -0.20386 0.216268 0.147223 0.097428 -0.658307 0.503643 -0.703347 0.281826 -0.0714137 -0.863561 0.763264 -0.606133 -0.179878 0.549334 0.50511 -0.401649 0.623565 -0.243948 -0.318181 0.250932 -0.290472 0.938538 -0.963321 0.634722 0.592298 -0.84727 0.16278 -0.567666 0.36813 0.0636873 -0.43629 -0.904154 -0.851811 0.766306 0.228258 -0.361792 0.229493 0.616688 -0.925331 -0.91656 0.82285 0.941391 -0.490222 -0.490615 0.594181 -0.856788 -0.0598659 -0.0281937 -0.313877 0.929155 -0.472638 0.578796 0.86276 -0.390132 0.249016 0.163067 -0.146018 -0.477352 0.828175 -0.923529 0.452605 -0.643275 -0.876993 0.495516 -0.900735 0.417148 -0.612378 0.223295 0.0222249 -0.502926 0.385784 -0.00758815 -0.767189 0.982539 0.501467 0.877429 1.02136 -0.603742 -0.02948 -0.158743 -0.774241 0.633605 -0.617456 -0.955989 -0.970966 0.618103 0.484014 -0.139716 -1.03135 0.291447 0.0273252 0.36901 0.644803 0.086105 -0.0442155 
0.608697 -0.63454 0.46745 0.112226 0.421116 1.03504 -0.631626 -0.578966 -1.05597 -1.06598 0.813029 -0.996016 -0.799277 -0.652797 -0.197393 -0.387893 -0.684482 -0.026458 0.0912455 -0.148851 -0.181538 -0.0181032 -1.03595 0.230518 -0.107273 0.560949 -0.660503 -0.841601 0.146167 0.594833 0.459668 -0.119093 0.849955 0.196731 0.58748 0.736412 0.0113203 0.612414 -0.708769 -0.0112066 -1.30478 1.05292 0.498223 -0.482797 -0.74487 -0.58012 0.582694 -0.374791 -0.212483 -0.349735 0.852231 0.114338 0.710896 0.188659 -0.282849 -0.152706 0.041445 0.0683945 0.221307 0.840613 -0.971628 0.0551334 -0.0958778 -0.92231 0.837023 -0.676651 1.10204 -0.238201 -1.04002 1.00001 -0.952775 -0.771999 0.939454 0.424336 -0.27158 -0.70852 0.909468 0.573457 -0.116413 -0.343967 -0.198461 -0.305865 0.673161 -0.798726 -0.795978 -0.73784 0.713053 -0.0582769 0.280699 -0.619175 -0.114444 0.718411 0.168444 0.461918 1.06101 0.723381 0.881655 0.82612 -0.844408 -1.0462 
0.693215 -1.16029 -0.816137 1.00925 0.269413 0.151133 0.848941 0.280262 -0.598743 -0.525623 0.497993 0.385152 0.181355 0.613302 0.542848 -0.247027 0.491565 0.732135 -1.08363 0.181828 1.02773 -0.0977336 -0.424513 -0.197615 -0.282079 -0.0120344 -0.695421 -0.700808 -0.333672 -0.37909 -0.436163 -0.522481 -0.319837 0.338557 0.664118 -0.215858 -1.03691 0.209199 0.776894 -0.444099 -1.48943 0.372075 -0.437958 0.811297 -0.484009 -0.568359 0.236705 -0.575652 0.280408 -0.139901 0.887576 -0.195768 -0.800081 -1.11807 1.04221 0.116669 0.0248588 -0.569791 -1.03892 0.132134 -0.928945 0.208745 0.892978 -0.194225 -0.83796 0.550412 0.858671 -1.04589 -0.258814 -0.0874194 -0.0200266 0.359025 -0.835823 0.521815 0.21788 -0.172112 1.1901 0.25585 0.125013 0.0975127 -0.306618 0.352942 0.779975 -0.142754 0.6404 0.712868 0.00413453 -0.795011 0.929169 -0.65349 0.877736 -0.593298 -0.2793 0.23011 0.70756 0.891207 0.0124877 -0.220432 0.572313 0.966328 
0.749216 -1.13411 0.320895 1.68443 0.606557 -0.393054 -0.280578 0.770146 0.393886 -1.07697 -0.515907 -0.263645 0.170424 0.213992 0.367457 -1.21495 -0.585894 0.0353061 -0.619704 -0.716811 0.260058 -0.490289 -0.563157 0.989372 -0.870596 -0.450723 0.314157 -0.37751 0.327559 -0.125487 -0.178948 0.144878 0.208778 -0.123253 -0.47636 0.925203 -0.592592 -0.163314 0.120993 -0.807326 -0.408814 0.884983 0.0757282 -0.309131 -0.811393 0.0319858 0.255973 0.184129 0.0437566 0.192512 1.07039 0.362073 -0.994999 -1.11597 0.997606 -0.6188 -0.0747761 0.331113 0.928558 0.453849 0.277601 0.297388 0.21704 -0.387571 0.713778 0.431203 -0.347596 -1.11577 -0.605188 0.0309151 -0.370164 -0.842845 -0.294169 0.754732 0.0943897 0.33644 0.0551212 0.222178 -0.29271 0.557541 -0.100242 -0.147744 0.207112 0.405426 0.374448 0.411587 -0.243124 0.515643 -0.779852 -0.81998 0.974523 1.07566 -0.563177 -1.02129 0.213718 0.378249 0.499498 -0.129066 0.0252679 -0.656024 
-0.633208 -0.656446 -0.513603 0.857351 0.157702 0.462014 -0.587682 0.629778 -0.835902 -0.184097 0.135019 1.49389 0.575884 0.739763 0.380779 -1.13845 -0.456424 -0.0966349 -1.17177 -0.309211 -0.260777 -0.824677 -0.806806 0.554319 -0.558028 1.05302 0.979 -1.52068 0.261355 -0.199698 -1.01271 0.223771 -0.947656 0.3288 0.73217 1.14078 0.427277 -1.53793 -0.165894 -0.864168 -0.490099 -0.74833 -0.710082 -0.530134 0.0715365 1.19412 0.203026 -1.06163 -1.31979 -0.46974 0.325131 -1.66473 -0.411277 -0.343565 1.24718 0.472064 0.807532 0.53688 0.931833 -1.18121 -1.00239 -0.61214 0.972896 -0.820226 -0.0456664 -0.0286269 1.0996 -0.669678 -0.373523 -0.48871 -0.169955 -1.18752 -0.501557 0.0288559 0.179085 -0.489451 0.254248 0.259219 0.032422 -0.351976 -0.657431 1.20515 -0.148709 -1.29431 0.889568 0.113209 0.994437 -0.744676 -0.913033 0.4103 0.060658 -0.312455 -0.104062 -1.3985 0.244044 -0.235927 -0.47673 -0.799915 -0.0196598 0.790289 
0.252887 -0.363341 0.645273 1.58365 0.134719 -0.247433 -0.646792 0.642771 0.563231 0.0913736 -0.400192 0.520398 -0.547931 -0.383229 -0.0468065 -1.68535 -0.157766 0.350452 -0.492383 0.338964 -0.465143 -0.838589 -0.11757 1.54957 -0.88838 -0.135315 -0.734634 -0.501988 0.904811 -0.099998 -0.609134 -0.535458 -0.572826 -0.257896 1.02217 1.22988 -0.593327 -1.41606 -0.0502658 -0.279982 -0.310736 0.694516 0.67812 0.870183 -1.34152 -0.268672 0.904927 -0.490373 -0.0305854 -0.994646 -0.868388 -0.333285 -0.775164 -0.570925 1.59051 -0.254243 -0.00503835 0.328887 -0.66256 0.0802837 -0.482518 0.000515625 1.4701 -0.21021 0.320311 0.621722 -0.0766663 1.23513 0.587746 0.514425 -0.692806 -0.0259866 0.0252493 -1.02492 0.518328 0.781167 -0.1795 -0.291246 0.398575 0.572432 0.331554 0.427023 -0.14411 -0.508309 0.265994 0.0323962 0.809553 -0.517729 -0.939662 0.775909 -0.39755 0.157092 -0.694506 -1.17648 -0.546957 0.803832 0.282477 -0.903452 0.961223 0.564053 
-0.381376 -1.22284 -0.681318 1.56772 -0.132664 0.864054 0.446445 0.019508 -1.11662 -0.599801 0.158916 1.46329 -0.699873 0.0181037 -0.559021 -0.40146 0.195636 -0.409258 -0.6952 0.92565 -0.840144 0.362633 -1.43152 0.589722 0.467715 -0.160442 -0.0937602 -0.00447184 0.987014 -0.57046 -0.529344 0.423259 -0.297674 0.382712 0.324616 1.55262 -0.641052 -1.01771 -0.367719 -0.0610759 -0.597699 0.763512 -0.263361 0.583244 -0.637694 0.386407 -0.18773 0.399305 0.820747 -0.0176157 -0.104698 0.203503 -0.352992 -2.14675 1.38941 -1.00733 0.218464 0.526692 -0.565741 0.1178 -0.844679 0.287844 0.69855 -0.277327 -0.335296 1.24818 0.272543 0.803039 -0.0244833 0.248994 0.324283 0.525324 0.211242 -0.791418 0.526017 -0.749196 0.323336 0.809357 1.60116 0.20759 0.394869 0.904926 -0.561587 0.158226 1.35205 1.13993 0.579331 0.153948 0.563219 -0.808327 0.561933 -0.631835 0.208887 -1.00896 0.674922 0.938595 -1.10133 -1.46291 0.273671 -0.297523 
1.03249 -0.375336 -0.855255 0.68192 0.125805 0.694257 0.0576105 -0.636558 -0.45538 0.350427 1.10316 0.510133 -1.14292 0.488356 0.483758 0.365093 -0.568042 0.548801 0.810492 -0.044778 0.249962 0.183402 -1.18682 0.557075 0.678724 -0.629025 0.302069 -1.25014 -0.433622 -0.870951 -0.288736 0.575028 0.140856 0.11134 0.322346 0.583765 -0.720797 -1.23029 0.0801087 0.214202 0.690406 -0.129886 0.811296 1.12254 -0.976897 0.53938 0.243447 -0.438087 0.326167 -0.110299 0.452192 -1.28684 0.198536 -1.04518 2.9362 -1.28149 0.562133 -0.260195 0.199434 0.0637168 0.18756 -0.420676 0.385938 -0.673593 0.897855 1.42653 0.369478 -0.115115 1.81227 -0.906864 -0.0556403 0.608186 0.442471 -0.0930728 0.924239 1.00484 -1.10836 -0.0422539 0.0924665 0.545904 -0.610988 0.44048 -1.48617 0.891136 1.86594 -0.496637 -1.02617 -1.45507 0.544443 1.02462 -0.263205 0.459337 -0.656728 0.0207759 0.979322 -0.357431 -0.0536916 -0.875321 0.119086 0.292828 
0.0846951 -1.21348 -0.192497 -0.14441 0.043257 -0.223749 -1.03814 -0.129199 -0.522921 0.469184 0.622476 1.504 -1.62033 0.300005 -0.225394 0.687316 -0.347272 0.558242 0.85566 0.181837 -0.0440273 -0.544731 -0.142945 1.21188 -0.530744 0.573597 -0.613521 -1.49946 0.699901 0.166202 -0.0257522 -0.561842 0.375076 -0.410516 0.308377 0.721333 0.0680562 0.262152 0.694591 1.03168 0.409468 -0.588672 0.00801049 0.603812 -0.813987 -0.390823 -1.19536 0.175349 1.09214 -1.31893 -0.609988 -1.21359 0.958603 -1.02574 2.36478 -0.280327 1.04706 0.332303 0.460454 0.448636 -0.0419247 1.06426 1.60959 0.800409 -0.784107 1.29075 -0.971998 0.475892 0.702663 -0.757455 -0.233029 0.606366 0.407612 -1.30181 0.0222196 0.700185 -1.63397 -0.22241 -0.186258 -0.797795 -0.00235555 1.48347 -0.113745 0.812253 2.38518 -0.0364292 -0.464813 -0.148199 -0.326926 0.625368 -1.26486 0.830446 -0.139776 -0.777272 0.727996 0.64813 0.40043 -0.0928135 0.278334 -0.398331 
0.258663 0.197188 -0.964862 -0.296856 0.70247 -0.290066 -1.05958 -1.72228 -0.499623 0.896301 0.0985846 1.88154 -0.292254 0.405149 0.320729 0.766894 -1.20685 0.0468061 -0.399218 0.261881 -0.644503 -0.0121639 0.283918 1.45162 0.610815 0.352898 0.607138 -0.519096 0.650211 -0.272516 0.0624465 0.147494 -0.523556 0.846457 1.17283 1.65503 -0.112698 -0.92067 -1.21014 1.04364 1.54967 -1.46222 0.0820918 0.371207 -0.965147 0.647788 0.202618 -1.02875 -0.839631 -0.960857 0.429278 -1.94013 1.48493 0.463751 1.79955 -0.55146 1.28779 -0.72 -1.92166 1.06013 0.42282 1.41398 0.548461 0.34556 0.812381 1.30953 -0.636642 -0.939775 1.26173 0.302843 0.411322 -0.379575 0.257908 -0.556025 0.790618 0.681581 -2.16897 0.0909952 -0.0745702 -0.793377 0.978114 0.707528 0.0771771 -0.283358 2.42444 -0.314401 -0.968518 0.406259 -0.280352 0.531568 -0.313005 1.38478 0.327115 0.250497 0.346457 -0.0720877 -0.826818 0.753732 0.382819 0.413934 
-0.311754 -0.446548 0.975067 0.500224 -0.763909 0.467253 0.237274 -1.34764 -0.907566 0.842441 0.726319 0.114697 0.788301 -1.39659 -0.448652 1.55112 -1.04146 -0.425609 1.01392 0.415032 -1.00991 0.897965 -0.81405 1.66348 -0.408527 0.931815 0.233988 -1.2228 -0.35635 0.554302 0.128917 0.329113 -0.506134 0.169403 1.04992 -0.916536 0.0286342 0.0393531 -0.698417 0.974759 1.86203 -0.0053961 0.224974 0.903033 0.753379 0.119272 0.100699 0.788506 -0.352335 0.175765 0.355282 -1.38393 1.02721 1.88471 1.82033 0.549381 0.28299 -0.366853 -0.743627 -0.256608 1.48873 0.67903 0.756797 1.44037 -0.611166 1.00355 -1.908 0.0555066 1.70721 0.0448231 -0.747832 0.193288 -1.2192 -1.40315 0.245049 1.23748 -1.20253 -0.645783 -0.0021012 -1.01958 -0.0418442 0.164308 0.547834 0.294579 0.88303 0.772905 -2.93825 0.252818 -1.26333 -1.16 -0.581814 1.66696 0.855989 0.348255 0.723764 -1.56994 -0.349958 1.28417 0.0102295 0.853848 
0.429605 -1.05923 0.449335 -1.12434 -0.0598875 -0.398802 -0.540498 0.34048 -0.0348417 1.90141 0.231433 1.70727 -1.05453 -1.73652 -0.316646 -0.121644 0.343803 -0.963811 0.784817 1.04736 -0.738693 0.579033 0.396355 2.07425 -0.72393 1.07461 -1.05471 -1.08526 0.246307 1.83456 -0.908449 -1.01259 -0.31872 0.19946 0.687188 -1.18893 0.702103 0.577532 -0.383203 1.27108 0.76117 0.173328 0.198836 -0.447148 0.449668 0.536087 -0.117614 0.106253 -1.08013 -0.279626 -0.105719 -1.53762 0.0941982 0.651127 1.33037 0.350893 -0.979126 0.33437 -2.24055 1.28745 1.06533 -0.0435646 0.560468 0.923479 -1.59118 0.108457 -2.1026 -1.72946 1.49163 0.425498 0.100963 -0.815288 -1.07838 -0.645291 0.316114 1.50868 0.0148962 -0.942014 -0.684873 -0.493855 1.29552 0.650345 -0.873041 1.14547 1.94516 1.08562 -3.86198 1.1517 -1.32345 -0.951901 -1.03956 -0.377211 1.37614 -0.161269 -0.750851 0.372958 0.890501 1.03552 -0.101077 -0.516261 
1.1087 0.109407 0.171845 -0.822269 -0.423058 -0.537289 -0.10503 -1.00684 -0.238215 1.8451 1.2176 0.630331 -1.08795 -0.437448 -0.888678 1.41953 0.19021 0.407774 0.638824 1.12169 -0.371039 -0.0934815 0.625306 0.761903 0.132844 0.78211 -0.858478 -1.08059 -0.236283 0.580927 -0.159604 0.816118 1.23826 0.904994 1.12668 -2.25881 -1.47395 -0.356482 -0.468421 1.34566 0.955728 -0.481257 -0.0971287 -0.028816 0.762451 -0.217759 0.290393 0.383242 -0.344272 -0.135259 -0.165053 -2.18934 1.56879 0.746734 0.325105 1.02491 0.599368 -0.0717675 -2.10016 0.483565 1.39696 0.760622 -0.492137 0.639223 0.0959101 1.29066 -1.08695 -1.69529 1.73956 -0.90526 -1.2467 0.172267 -0.53841 -0.532376 -0.00699752 0.0825872 -0.271959 -1.15401 0.187486 -0.377089 -0.59269 1.37689 0.63997 1.36415 0.621004 -0.210968 -3.10949 0.769035 -0.968694 -0.238464 -0.103519 0.024884 1.31555 -0.381787 -0.869971 0.648863 0.1599 0.0726483 -1.91303 -1.29507 
1.71878 -0.946715 0.459816 -0.431815 0.46014 -0.60669 -0.772819 -0.487389 0.314696 1.93186 1.45017 0.396631 -0.548212 -0.674732 -0.267875 -0.140012 0.807203 -0.853202 0.0403783 -0.199581 -0.826941 -0.318233 -0.596132 0.420136 -0.465408 -0.316511 0.953981 -0.605573 0.746801 2.07447 0.0661092 0.0323529 -0.605611 -0.231368 0.884197 -1.34401 -0.928376 0.974623 -1.19341 0.192388 0.195295 -0.707814 -0.36027 -1.76631 0.123112 -0.632891 -1.05502 0.357456 -1.61164 -0.542642 0.251483 -1.50556 0.904543 0.0868705 0.0354684 -0.02733 -0.81536 -0.830305 -2.01536 -0.276209 0.975371 0.381008 -0.182944 0.378334 -1.21049 -0.732535 -2.1737 -1.70324 1.41616 -1.20304 -0.373576 -0.889629 -0.325057 0.275627 -0.58396 1.40803 0.103619 -0.742378 -0.573486 -1.07897 -0.843617 0.997013 -0.233765 1.24149 1.69586 0.615111 -1.62817 1.51502 -0.288186 -1.93095 -0.0783663 -0.400009 -0.531941 0.403749 -1.87145 0.283879 1.01762 -0.627441 -0.600128 -1.01696 
1.38309 -0.55231 -0.027626 -0.620255 0.988601 0.708798 0.0838838 0.855759 0.25444 1.91908 1.14843 -0.972225 -1.05949 -1.47231 -0.553562 1.51783 0.854662 1.04233 -0.34771 -0.247141 -0.631285 0.849717 -1.38345 0.75572 -0.518445 0.220009 0.915002 -0.0354547 -0.212328 0.56271 -0.616572 0.959953 -0.158384 1.02513 1.27762 -2.04984 -0.682834 0.513321 -1.19834 -0.362106 -0.514959 -0.443898 0.542055 -0.606432 -0.844881 0.752196 -0.609916 1.03085 -0.104348 -0.589195 -1.20402 -1.77015 -0.327937 1.0465 0.158329 0.668493 -0.834552 -0.76601 -1.97901 0.748139 2.19171 -0.542838 -0.711261 0.112175 -0.769311 -0.962435 -0.810247 -0.503822 1.25252 0.121311 0.463573 0.065167 -0.78932 -0.168901 -0.159837 0.0951504 -0.338587 -1.43303 1.45765 -0.125172 -0.34166 -0.180318 -0.196824 1.61077 1.3845 1.04638 -1.65333 1.59284 -1.6274 -0.427426 -0.347332 0.807926 -0.38181 1.31121 -0.531188 -0.173126 -0.222423 -0.277337 -0.0937763 -0.180257 
0.870346 0.576913 -0.599466 -0.738512 0.983589 -0.561927 0.347044 0.0877983 0.240133 1.98345 0.833838 -0.803923 -2.32665 -1.01757 0.649702 2.20846 0.939053 0.807407 0.405914 0.524741 0.716095 0.621349 -1.19494 0.094481 0.572985 -0.569574 -1.01789 -0.327995 -0.317967 0.216675 -0.351564 0.647902 0.521524 -0.663179 0.0583377 -1.16306 -1.8019 -0.325873 -1.51128 -0.212951 0.564453 0.928277 -0.122396 -0.261917 0.581138 0.156105 0.249916 0.302356 -0.142647 -0.597373 -1.31268 -0.478792 -1.17389 -0.605089 0.278648 0.146025 -0.221856 -0.241867 -1.21109 1.07721 1.09375 -2.01389 -0.566545 -0.359432 -1.49666 0.190843 -1.84287 -0.267639 0.0573857 -1.52506 -0.86599 0.154258 1.44095 -0.389458 -0.487023 1.09412 -0.187323 -0.160475 0.615724 -0.194387 0.548549 1.07257 -0.205572 1.64001 -0.537083 -0.26376 -0.0119148 2.12212 0.0533734 -1.23205 0.89072 1.09647 -1.28834 -0.207505 -1.90006 0.815732 -0.719786 -0.926695 1.17182 -1.29267 
-0.0481134 0.50875 -1.97356 -0.662124 0.692533 0.779372 -1.00948 -0.698895 0.755136 1.17791 -0.0662092 -2.11419 -0.858602 0.633819 -0.250508 0.81382 0.922944 0.712792 -0.58788 0.0304008 -0.237956 0.516284 -0.761321 -0.428909 1.17649 -0.170591 -0.269153 -1.23827 -0.283165 -0.294493 -1.49349 0.184679 -0.288789 -0.533968 0.717418 -1.78872 -2.43313 -0.701808 -0.88404 -0.997632 -0.210154 0.526751 0.838518 -1.4781 -0.198603 -1.40293 -0.337469 -0.556379 0.591588 0.0203118 -2.27194 -0.87298 0.0493862 0.305081 -0.410498 -0.371416 0.184306 0.0496819 0.15353 -0.354491 0.612758 -0.721777 -0.460938 0.9644 -1.52745 -0.611251 -1.25793 -0.785373 0.759965 -0.727458 -0.0634726 -1.41754 0.331776 -1.04675 -1.83118 0.59118 0.138149 -0.109806 1.88765 0.338172 0.131418 -0.756194 -0.731315 -0.54244 -0.669071 0.812043 0.884333 3.14854 -0.307055 -0.438371 1.85141 0.362691 -1.27039 0.530473 -0.482333 0.782966 -1.01867 0.453338 0.486553 -0.124594 
-0.199024 0.463608 -0.199465 0.534971 0.139317 1.54864 -0.699149 0.268343 1.73021 0.325754 1.18581 -1.84548 -0.161167 -0.704632 0.667856 0.580562 0.325615 -0.331547 -0.653044 -1.02617 1.03355 -0.68464 -1.894 -1.52896 0.433656 -0.878768 -0.151032 0.39843 0.950364 -1.14494 -1.23906 -1.01536 -1.29982 -0.834323 0.401897 -0.502183 -2.06813 -0.565972 -1.26006 -0.274841 -0.673 -0.443772 -0.132486 0.709189 -0.010264 0.252725 -0.961412 -1.08428 -0.784649 0.0336558 -1.91024 -0.849338 -1.11757 -0.916776 -0.512672 0.442846 -0.45113 0.179876 0.813776 -0.618495 0.991587 -2.55721 -0.755104 -0.908967 -1.18371 -1.24266 -0.965745 -0.54601 0.0103848 -0.591131 -1.10499 -0.276726 1.73664 -1.15887 -0.69017 -0.478182 0.304823 -2.01268 0.75436 1.03785 0.335758 0.611413 0.18225 0.629555 -0.37164 1.25222 1.56183 2.63251 -0.438923 -0.451952 1.6197 -0.591951 -0.980226 -0.170795 -0.323581 1.1098 -0.763662 -1.46712 0.743458 0.161142 
-0.193666 2.02636 0.117099 0.125448 -0.287359 0.318369 0.150488 -0.200408 0.846087 1.64706 0.86591 -1.57981 1.23892 -0.691148 -0.409091 0.0384732 -0.9738 1.10904 -1.70252 0.433895 0.0951016 0.152603 -1.03039 -0.600641 0.702583 -0.321396 -0.246099 -0.946086 1.144 -0.483198 -0.569465 -0.580685 -1.41615 -0.732775 -0.682345 0.385453 -0.890991 -0.0881284 0.243473 -0.192593 -0.574393 0.570034 0.777053 -0.0687329 -0.0561639 -1.31524 -0.531049 -0.666705 0.4963 0.407322 -2.12547 -0.422756 -0.464514 -1.32695 -0.25174 -0.786364 0.485166 0.441351 0.287737 -0.143882 -1.31232 -2.35839 1.18325 -0.556418 -0.548171 -0.914761 -0.677273 -0.0946955 0.544135 -0.724753 -0.746841 -1.5967 0.728322 -1.62838 -0.21571 -0.0727572 0.252602 -1.78031 1.5875 0.488046 -0.0980338 -0.447844 0.811562 -1.30438 -0.0697802 0.962557 1.03131 0.507552 -0.690164 0.298889 0.914251 -0.686589 -0.265278 0.890234 0.415007 -0.406029 0.26614 -0.603464 0.318204 -0.0254512 
