Network weights:
4
784 100
-0.651479 0.0485624 0.726478 -0.955301 -0.0383384 -0.863461 -0.36569 0.197838 -0.293648 -0.973562 0.461906 -0.404097 -0.0745474 0.884262 -0.951031 -0.164966 0.364366 0.511603 0.636041 0.135421 -0.10006 -0.291974 0.486738 -0.245246 0.999942 -0.266696 -0.00205233 -0.260462 0.16577 -0.669058 -0.405389 0.514291 0.379505 -0.678911 0.55899 -0.658834 -0.542372 -0.8067 0.539004 0.16398 -0.780262 0.000909994 0.759883 0.14519 -0.114828 0.808852 0.980224 -0.750462 0.320455 0.616265 0.384959 -0.779605 -0.675709 -0.128303 -0.0248513 -0.675767 0.605 0.973096 0.0637717 -0.229229 -0.695961 0.658383 -0.714938 0.683544 0.979472 0.844052 -0.97529 -0.5629 -0.962648 0.563714 0.601079 -0.74291 -0.435376 0.360962 0.40228 0.449796 0.169814 0.382504 0.699334 -0.50973 -0.00123053 0.0842927 -0.289335 0.32306 0.955989 0.685813 0.647293 0.56099 0.65891 -0.288935 -0.668239 0.962949 -0.630552 -0.383177 0.646492 -0.65108 -0.539125 0.671202 -0.213981 -0.501773 
0.234916 -0.612902 -0.244683 0.79954 0.74806 -0.842403 0.249336 -0.0821253 0.540101 -0.0513299 0.408144 -0.461129 -0.967037 -0.881191 0.861931 0.988952 0.804623 0.509224 0.549942 0.463532 -0.77971 0.881702 0.426481 -0.410262 -0.501475 0.0729733 -0.0613427 -0.0406001 -0.255824 0.724677 0.457627 0.979092 -0.888225 -0.787056 0.778632 0.859835 -0.62946 0.0279686 -0.22229 0.910642 0.976639 -0.814146 -0.550488 -0.990399 -0.695336 -0.688557 0.998554 -0.890714 0.820667 0.548495 0.572819 -0.959043 0.430198 -0.000700374 -0.369305 0.928723 -0.927727 0.569352 -0.111877 -0.183551 0.294028 -0.65425 -0.204459 0.405803 -0.441307 -0.425827 0.265639 -0.0707663 0.602142 -0.956651 -0.160125 0.57878 -0.770797 0.289387 0.588382 -0.466133 0.60083 0.586935 -0.356847 0.421498 0.135431 -0.784028 0.462455 -0.434372 0.215271 -0.906851 -0.505649 0.287544 0.662501 0.382474 -0.896007 -0.0434704 0.728224 -0.100467 -0.637667 -0.713083 0.473706 0.627972 0.216151 0.075848 
0.671321 -0.943974 -0.345372 0.900524 0.345413 -0.75699 -0.565609 -0.0537562 0.829945 0.0775444 -0.632258 -0.0346243 0.293516 0.830197 0.531004 -0.491213 0.923346 -0.974644 0.796332 0.585847 0.40783 0.900325 -0.457623 0.136054 -0.200142 -0.0952903 0.422971 -0.726436 -0.467318 -0.360878 0.349412 -0.795998 -0.304852 -0.995959 -0.895473 -0.959438 -0.752949 -0.461082 -0.0131945 -0.923004 0.616462 0.354547 0.0423714 -0.0900214 0.184744 -0.426624 0.418766 0.10809 -0.401269 0.215098 -0.306063 -0.993439 0.115422 0.236314 0.142615 0.91528 -0.858977 -0.434414 -0.811155 -0.326295 0.204708 0.538257 -0.122293 0.899856 0.542298 -0.017766 0.940418 0.789348 0.521152 -0.072777 0.866344 0.137615 -0.71823 -0.0912844 -0.952407 0.466514 0.482091 0.466359 -0.425396 -0.919178 -0.318543 0.26854 -0.912617 0.796879 -0.495146 0.229998 0.71216 -0.354123 0.795584 0.901004 0.319582 0.000291781 0.439262 -0.802711 -0.0998523 -0.0184405 0.179523 -0.159435 -0.229092 -0.299325 
0.767789 -0.362748 0.83829 -0.950443 0.545971 0.885852 0.516072 0.028059 0.352231 -0.909324 0.108881 -0.966324 0.359195 0.196265 0.830578 0.864064 -0.573737 0.542738 -0.490135 -0.778133 0.443742 0.829495 0.222138 -0.116969 -0.973181 -0.877714 0.864564 0.2063 -0.0370874 -0.364529 0.906987 -0.269331 0.272676 0.745307 -0.219802 -0.181285 0.63119 -0.703726 0.84675 -0.0165678 -0.613053 -0.0443767 0.0171314 0.746164 -0.848094 -0.152291 0.610239 -0.42184 -0.60955 -0.879997 -0.199993 0.834195 0.949703 -0.977854 -0.282746 0.97654 -0.855567 -0.418283 0.182892 0.107284 0.217188 0.0900022 0.837925 -0.510047 -0.164832 -0.381881 0.308638 -0.533613 -0.0856055 0.155316 0.449818 0.301343 -0.888973 -0.533043 0.0475333 -0.73706 0.314697 -0.342259 -0.158917 0.705109 -0.22208 0.641091 0.539208 -0.272384 0.663266 -0.743512 -0.29584 0.807756 -0.161813 0.886968 -0.0849941 -0.944515 -0.0230576 -0.247128 -0.454567 0.812064 0.371011 0.854075 -0.7215 -0.714585 
0.00955647 0.728276 0.590125 0.117422 -0.804249 -0.373774 0.382978 0.504778 0.286582 -0.735984 0.21502 -0.934854 0.872787 -0.226442 -0.195991 0.52129 0.0190259 0.501478 0.324945 0.859832 0.388709 -0.749773 0.900989 -0.630175 0.00431547 -0.544528 -0.817458 -0.621487 -0.688987 -0.543549 -0.324658 0.314426 -0.768877 -0.75038 -0.567401 -0.631197 -0.120177 0.818143 0.881572 -0.822267 -0.957054 0.103984 -0.755963 0.90598 0.869331 0.0447713 0.431979 -0.130063 -0.45661 -0.241957 -0.275736 0.932385 0.0334668 -0.376455 -0.695233 -0.965307 0.0916269 -0.53809 -0.600545 0.378916 -0.0718057 0.076268 -0.294384 0.111499 0.309464 0.127548 0.493621 -0.813879 -0.0560517 0.386321 -0.635691 -0.0153137 -0.509928 -0.387855 -0.148683 -0.649496 0.654464 -0.671461 0.213995 -0.820812 0.102645 0.937828 -0.878169 -0.875759 -0.455318 -0.57545 -0.851678 0.645354 -0.100975 -0.448405 0.0126504 0.822539 0.63652 0.703869 -0.0523819 -0.0723357 -0.15559 -0.557823 0.131431 0.779127 
0.832182 0.484618 -0.234583 -0.752874 -0.884795 0.601516 -0.337098 0.745368 0.96348 0.938418 0.95855 0.000552085 0.897962 -0.893641 0.245546 -0.655003 -0.537016 0.357022 -1.01762 0.413557 0.913787 -0.00661899 0.163029 0.593697 -0.261582 -0.822608 -0.510346 0.568547 -0.368439 0.604679 0.357736 -0.537194 0.137232 -0.885003 -0.217341 0.175983 0.727276 0.422215 -0.0262986 0.739577 0.321141 -0.0767337 -0.203997 0.100969 -0.00241929 -0.979219 0.503875 0.50628 0.355086 0.545976 -0.0764468 0.297326 -0.418304 -0.861783 -0.198103 0.336283 -0.666063 0.181242 -0.135031 -0.069893 -0.156834 -0.730322 0.431851 0.953773 -0.682616 -0.835618 0.25345 -0.992258 0.600246 -0.842308 0.766768 -0.109077 0.0811585 -0.415215 -0.967289 -0.913887 -0.449319 0.591964 0.592338 0.847456 0.134542 -0.508807 0.250325 0.708071 -0.330607 -0.952314 -0.00351848 -0.00746323 0.335218 0.90502 0.95002 -0.797729 -0.784449 0.33138 -0.79317 -0.553464 0.511068 0.354512 -0.439641 0.110576 
0.565636 -0.707622 0.970119 -0.484436 -0.0916033 -0.985243 -0.286869 0.46585 0.646232 -0.662229 0.417028 -0.321035 -0.107148 -0.373313 -0.520436 0.451596 -0.355095 0.481272 -0.550097 0.9701 0.405386 -0.653977 -0.878024 0.602326 0.727022 -0.624507 -1.0377 0.204295 0.771113 -0.456641 -0.698073 0.286986 -0.112546 -0.688643 0.957376 0.712358 -0.670431 -0.341236 0.277342 0.987623 -0.00333788 -0.375635 -0.270968 0.762088 0.269266 0.21615 0.287879 0.915079 -0.332104 0.771668 0.912274 -0.880486 -0.901251 -0.97299 0.63251 0.884344 -0.534519 0.593345 0.0692889 -0.808031 -0.866973 0.417424 0.562962 -0.0130301 0.710175 0.483517 -0.180816 -1.00195 -0.832068 0.979051 -1.00251 0.120389 -0.397303 -0.257274 -0.0573858 0.871926 0.879806 -0.733103 0.795932 -0.435252 -1.00128 0.654682 -0.264426 -0.845842 0.842987 -0.623635 -0.993105 -0.817628 0.998789 0.0863906 -0.553838 -0.822624 -0.502786 0.967736 0.197284 -0.85796 0.481937 0.882721 -0.798086 0.638257 
0.917616 -0.824926 -0.275885 -0.603921 -0.0803002 0.710943 -0.639617 -0.193131 0.97779 -0.862148 0.446179 0.932871 0.826494 -0.873635 -0.863615 0.52047 -0.5211 -0.877407 0.749067 -0.571908 0.236298 -0.830871 -0.386828 0.739355 -0.848637 0.792693 0.879267 0.59269 0.729716 -0.93092 0.210673 0.624899 -0.73289 1.01025 -0.842064 0.178321 0.7163 -0.486349 -0.952676 0.695047 -0.351575 0.456195 0.664346 -0.584788 0.612245 0.801826 -0.989461 -0.884576 0.912405 0.783621 -0.451834 0.16638 0.887785 0.0893022 -0.133983 -0.903319 -0.0623784 -0.25931 0.69184 -0.332873 -0.169411 -0.0539052 -0.664507 0.029892 -0.0638394 -0.499249 -0.744728 -0.404219 0.0496112 -0.713649 -0.706812 0.662578 0.739408 0.974322 -0.859922 0.355384 0.711981 -0.86367 0.43696 0.671989 0.908105 0.932164 -0.140372 0.851531 0.245886 0.68701 0.936735 -0.971983 -0.571147 0.633731 -0.283768 0.257164 -0.432185 0.0552121 -0.669195 0.449209 0.579908 -0.477884 -0.899872 -0.3955 
-0.152989 -0.608822 -0.765917 -0.51302 -0.619273 -0.617712 0.885212 -0.895799 -0.44008 0.330209 0.80342 -0.562729 0.275585 -0.372279 -0.682419 -0.641622 -0.694246 -0.73673 -0.568316 -0.261963 0.917094 0.125647 -0.996951 -0.508453 -0.791494 -0.674201 0.94964 0.763779 -0.108801 -0.959461 -0.650949 0.775483 -0.567354 -0.371398 -0.685106 -0.174294 0.0424657 -0.781033 -0.038836 0.588675 0.552649 -0.257327 -0.958151 -0.205963 0.367449 -0.62538 0.200591 0.715493 -0.37078 0.648492 -0.54321 -0.462074 -0.246977 -0.550932 -0.00472858 -0.00261829 -0.225761 -0.0451191 -0.240374 0.683408 0.00067403 0.206203 0.440639 0.395189 0.747729 0.751507 -0.74024 -0.242295 1.02781 0.226939 -0.66109 0.521713 0.972618 -0.609893 -0.584778 0.35323 -0.285555 0.586495 0.0504684 0.365785 0.218527 0.499969 0.953958 -0.975807 1.16901 -0.0691666 0.0144936 -0.232836 0.874658 0.78063 -0.542568 -0.120176 -0.0870225 0.907637 -0.640399 -0.364812 0.673793 -0.462558 0.434766 0.698105 
0.785445 0.774527 0.19757 0.691903 -0.841328 0.544625 0.080296 -0.0954907 0.185563 -0.833575 -0.708076 -0.621939 0.676557 -0.781959 -0.597486 0.660433 0.136194 0.441448 -0.532142 0.0238366 0.229044 -0.101438 0.90558 -0.866117 -0.171432 -0.78163 -0.211436 -0.505414 -0.217267 -0.781532 -0.853807 -0.396088 0.966013 0.335815 -0.683067 -0.848497 -0.091504 0.411309 0.0508889 -0.928973 0.573166 0.334109 -0.545723 0.224678 0.533988 -0.117225 -0.0789744 -0.297067 -0.686407 0.382115 0.70772 0.522386 -0.745653 0.645919 0.642029 0.133744 0.842654 -0.53815 0.6192 -0.355414 -0.333658 0.856317 0.220315 -0.38417 0.10454 0.519355 -0.215185 -0.983812 -0.0252663 0.841989 -0.916969 -0.473604 0.175131 -0.463549 0.837039 -0.27022 0.386081 -0.272494 0.433344 0.714392 -0.910247 0.157166 0.280811 -0.58714 -0.00196451 -0.0697379 0.517159 -0.320561 0.377399 0.160388 0.319636 -0.944662 -0.056825 -0.450173 -0.261156 -0.942133 -0.920328 0.458136 -0.915183 0.0759098 
0.304219 -0.842362 0.565977 -0.521463 -0.313853 0.35667 0.199564 -0.899087 -0.9002 -0.35394 0.819562 -0.800241 0.814794 0.0785226 -0.393405 -0.366949 -1.00294 -0.845048 0.318711 0.376335 0.319234 -0.365873 0.427715 -0.74414 0.1945 -0.880063 -0.689151 0.275042 0.587137 -0.61325 -0.693823 -0.0853043 -0.462806 0.865747 0.370964 0.233897 0.226107 -0.418145 0.329194 0.317374 0.221958 0.144144 0.514804 0.0380043 -0.780244 -0.867318 0.674195 -0.773658 -0.719552 -0.015785 0.596715 0.59576 0.605191 0.0377628 0.851137 -0.180081 0.142878 -0.827994 -0.901202 -0.261807 -0.447832 -0.558454 0.637832 0.0800207 -0.730895 0.00274979 -0.686636 0.497192 0.595173 0.644532 -0.186346 -0.185612 -0.206483 -0.672941 0.878576 0.0222945 -0.544102 0.532602 0.254602 -0.265916 -0.490943 -0.133708 -0.665323 -0.851418 0.982471 -0.812844 -0.0385011 0.0556349 -0.647431 0.0618581 0.800474 -0.0986565 0.464217 0.434384 1.01783 0.736336 -0.559197 -0.696158 0.231568 -0.944647 
0.952479 -0.96252 -0.1507 -0.254935 -0.6352 -0.287745 0.767972 -0.179348 -0.752365 0.0208177 0.556128 -0.232379 0.885374 0.88787 -0.0837628 0.788176 -0.925753 0.883275 -0.1518 -0.573105 -0.053608 -0.355533 0.331227 -0.59004 -0.919166 0.325296 -0.856387 -0.47752 0.636153 0.372059 -0.444677 0.589095 0.409633 0.406317 -0.666949 0.774634 -0.884183 -0.89793 -0.402629 -0.635342 0.122815 -0.845458 0.130386 0.00639526 -0.957017 -0.95433 -0.205479 -0.883071 0.925949 0.639847 -0.456045 -0.126046 -0.715319 0.875954 0.283268 -0.634911 0.201587 0.428329 -0.110829 -0.164697 -0.201557 0.445324 -0.577543 -0.790007 -0.150664 -0.245615 0.984083 -0.0346575 -0.143529 -0.417499 0.328168 0.977579 -0.262223 -0.541454 -0.0148386 -0.219097 -0.496004 0.775015 -0.101627 -0.567453 0.418301 0.441666 0.307112 0.70247 0.317506 -0.409045 -0.935958 -0.479341 -0.981808 -0.0392272 0.35253 -0.182441 -0.593971 0.77732 0.0276273 0.253629 -0.465875 0.0141286 -0.781858 0.387368 
0.597572 0.545751 0.364881 -0.666011 -0.995415 -0.649307 0.116458 -0.491288 -0.870513 -0.985766 -0.057789 0.547911 0.45644 -0.751013 0.253104 -0.225711 -0.160163 0.322316 0.293512 -0.142331 -0.719097 -0.352971 0.674999 -0.314118 -0.576362 -0.296721 0.937852 -0.0456724 0.718909 -0.843651 -0.65653 0.316977 0.702197 0.710503 0.650682 0.706575 -0.940711 -0.232284 -0.782918 -0.810066 -0.218088 0.159977 0.736125 -0.762855 0.409332 -0.011482 0.0111604 -0.751605 -0.692046 -0.695817 0.105255 -0.408058 -0.0486127 -0.218294 0.277865 0.375497 0.485102 0.214297 -0.669589 0.202133 0.371013 -0.325648 -0.482232 0.0736976 -0.616271 -0.831487 -0.218044 -0.557588 -0.0649277 -0.000225957 -0.36902 0.716063 -0.839967 -0.632636 0.953425 0.569835 0.356169 -0.0381045 0.817643 0.666363 0.269014 -0.0761998 -0.740295 -0.7814 0.70404 0.534304 0.591956 0.190592 -0.250373 0.925966 -0.607789 -0.878956 -0.399391 -0.0869815 0.195291 -0.015881 0.0822435 0.976866 0.426588 -0.984351 
-0.0230201 -0.942058 0.731904 0.136768 -0.574928 0.685481 -0.294074 0.780843 -0.3496 -0.476961 0.447436 0.919324 0.446281 0.705852 -0.860577 0.151125 0.240991 0.73553 -0.658419 0.99069 0.660975 -0.265336 -0.888551 -0.738115 0.645985 0.306549 0.245966 -0.273685 0.284582 -0.326846 -0.258043 -0.738885 -0.269249 -0.526323 0.397784 0.156122 -0.840644 -0.89676 -0.0631598 -0.190374 -0.373447 -0.615106 -0.271137 -0.927181 -0.909879 -0.131531 0.224265 0.331692 -0.396466 0.565741 0.320362 -0.735177 -0.699524 0.432392 -0.472947 0.946657 -0.261114 0.772791 -0.326868 -0.97687 -0.55418 0.414977 -0.716926 0.176938 0.889105 0.681164 -0.666547 -0.951729 0.784569 0.269872 -0.14228 -0.58851 0.654925 0.586945 -0.515781 0.744147 -0.544343 0.708401 0.0746188 0.058953 0.274323 -0.604149 0.323501 0.574947 0.8273 0.850442 0.521673 -0.433634 0.622968 -0.806014 -0.410226 -0.931119 0.609524 -0.127022 0.245977 0.498921 -0.446122 0.57815 0.547018 -0.662172 
-0.151618 -0.600362 -0.273059 -0.503294 0.991246 0.229385 -0.767757 -0.555679 -0.0680546 0.31484 0.504896 -0.781601 0.720877 -0.167183 0.793597 0.554197 -0.324692 0.315331 -0.894811 -0.688651 0.511211 -0.300091 -0.628517 0.12966 0.571735 0.61877 -0.378323 -0.878438 0.194102 -0.836079 -0.533893 -0.934002 -0.433943 0.221617 -0.461984 -0.442368 -0.539903 -0.20514 0.0120777 0.396847 -0.880083 -0.501424 0.61296 0.828731 0.346055 0.406219 0.372356 -0.975234 -0.281051 0.482285 -0.66387 -0.77029 -0.819946 -0.295644 0.342405 0.747949 -0.680852 0.962728 0.877678 0.510824 -0.869866 -0.616704 0.568195 -0.307804 0.563626 -0.895777 0.257577 -0.983825 -0.0871156 -0.733093 0.407287 0.01181 -0.22106 0.0210319 -0.135844 -0.876539 -0.57564 -0.790034 -0.860813 0.135628 0.688388 -0.52412 0.375327 0.879597 0.19638 -0.274428 0.653359 0.496294 -0.314745 0.520321 0.0176915 -0.18637 0.861963 -0.421765 0.536829 0.421427 -0.308589 -0.224903 0.436152 0.610855 
0.0388567 -0.166544 -0.438972 0.810194 0.861195 0.450341 0.920718 -0.716693 0.661748 -0.921794 0.430257 0.376762 -0.418433 -0.17896 0.260403 0.778569 0.532629 -0.100219 0.252807 -0.763922 -0.58738 -0.722011 0.0360526 -0.704351 -0.145897 -0.45436 0.70574 0.532511 0.314042 0.129799 0.136975 -0.628779 0.982441 0.753527 -0.848395 0.827438 0.210882 -0.884745 -0.832528 -0.130959 -0.77954 0.541374 -0.757014 -0.218802 -0.614665 0.500356 -0.465042 0.906171 -0.608041 0.783761 -0.851403 -0.191336 -0.935358 0.172831 0.0725946 -0.088197 0.723862 -0.221869 -0.536085 0.0235922 0.908933 0.62933 0.396526 0.875018 0.354814 0.546774 0.71565 -0.462357 0.696653 0.835101 0.390052 0.877765 0.394675 0.632774 -0.321756 0.76634 0.127857 0.16426 0.65214 0.51919 -0.0272232 0.799725 -0.658487 0.061392 -0.0354949 0.425917 1.04413 -0.313232 -0.806477 -0.531659 0.72824 -0.901869 -0.939511 0.111697 1.00377 0.393987 -0.313729 0.719928 0.922996 -0.635297 
0.554964 0.314068 -0.80933 -0.0931621 -0.047023 -0.0888245 -0.311177 -0.915363 -0.891772 -0.611172 0.638288 0.134231 -0.794701 0.946338 -0.814653 0.176652 0.377152 -0.817292 0.885699 0.600341 -0.36462 0.555484 0.687662 -0.285312 -0.314014 0.674428 -0.94225 0.362115 0.370675 -0.998852 0.743995 -0.130796 0.351375 0.989423 0.834022 -0.736283 -0.0996697 -0.461958 -0.582349 0.00792043 -0.0579008 0.972475 -0.868989 0.116805 0.975873 -0.689932 -0.695028 0.331997 -0.532438 -0.854475 -0.067885 0.112228 0.691768 -0.395326 0.810978 -0.582995 -0.727329 0.922011 0.796032 0.662198 0.900587 0.52998 -0.45303 0.206892 0.515841 -0.612699 0.498698 -0.576565 -0.035464 0.848832 0.432246 0.872719 0.861665 0.534373 -0.0131386 0.801552 0.864024 0.254438 0.103361 -0.654251 0.411367 -0.949709 0.49242 0.149721 -0.379021 0.32011 0.600402 -0.0798884 0.187901 0.355924 -0.441617 0.117833 -0.123125 0.0814168 -0.669945 -0.588097 0.492285 0.837351 -0.153548 -0.556758 
0.690666 -0.736738 -0.725421 0.505898 0.824168 0.316887 0.338147 0.684086 -0.413401 -0.474288 -0.857934 -0.937366 -0.482547 0.512484 0.163286 0.121112 -0.149202 -0.290974 -0.920857 -0.921507 -0.94664 -0.388119 0.15621 -0.0354703 0.667515 0.492272 0.340786 0.185252 0.322316 -0.826337 0.664942 -0.0969132 -0.531805 0.99991 -0.45346 -0.748613 0.324291 0.863253 0.976625 0.903515 -0.659178 -0.984035 0.930819 -0.183083 0.61843 0.0730527 0.998857 -0.53435 0.759014 -0.959495 -0.46453 0.808942 -0.420893 0.680968 -0.219059 -0.686292 0.163148 -0.859679 0.510857 -0.495307 -0.680608 0.123034 0.477892 -0.245934 0.091323 -0.976526 0.0324371 -0.522846 0.944251 -0.00761446 -0.608702 -0.785623 0.105237 -0.732492 0.0437844 -0.319284 0.372195 0.0254574 0.126606 0.155648 0.0331508 0.658175 0.0108391 0.64023 0.290977 0.773985 0.938049 -0.489103 0.891049 0.431717 -0.0351943 -0.742266 -0.392666 -0.566169 -0.0387125 0.776121 -0.556818 -1.00022 -0.694613 -0.65831 
0.0126563 -0.358465 -0.428423 -0.919241 -0.0413712 0.638685 -0.235799 -0.657414 -0.353115 0.924965 0.584852 0.686064 0.534848 -0.482366 0.290637 -0.167534 -0.680663 0.201899 0.342521 -0.773888 -0.369513 -0.674083 -0.572428 0.241197 -0.276546 0.406971 0.00721569 0.208076 0.418618 0.253447 0.577977 -0.617405 0.906365 -0.838395 -0.463355 -0.152754 0.791931 0.288389 0.218897 -0.56427 0.17349 -0.25466 -0.897029 -0.305189 0.307641 0.379967 0.570221 0.627372 -0.433505 -0.0942775 0.854242 0.196769 0.170274 -0.722293 -0.549361 0.945401 0.681312 0.452459 0.151805 0.0967441 -0.285351 -0.305185 0.536563 -0.375613 -0.173397 -0.926764 0.469665 -0.331885 0.368158 -0.320467 0.111196 -0.472853 0.472055 0.197844 0.225303 -0.246929 -0.423171 -0.220402 -0.616073 0.161595 0.658088 -0.78245 -0.623593 -0.155258 -0.520439 -0.189579 -0.220246 -0.810777 -0.731976 0.927866 0.277665 0.00644882 -0.331188 -0.173539 0.582919 0.544625 -0.127103 0.0535723 -0.751374 -0.771162 
0.753573 0.302596 -0.235564 0.199543 -0.477461 0.985475 0.95029 0.111974 -0.233621 -0.694472 -0.718936 -0.581022 -0.463733 -0.342127 0.266271 0.0328324 0.478573 -0.95145 0.211698 0.729478 0.985859 -0.516591 -0.280671 -0.353232 0.302238 -0.692116 -0.817021 -0.820383 0.369817 -0.609618 -0.576028 0.127474 0.711202 0.192709 -0.672254 -0.777819 0.175891 -0.722325 0.341291 0.953423 -0.402998 0.612394 -0.638233 0.132153 -0.717342 0.627326 -0.833177 0.755934 0.670388 0.373085 0.498511 0.669916 0.851146 -0.782173 -0.698446 0.163331 -0.482598 -0.511885 0.346708 0.892011 -0.123924 0.771533 0.0178486 -0.417191 -0.0392209 0.342908 -0.192903 -0.858771 0.617566 -0.850939 -0.912851 -0.787569 0.773723 -0.554751 0.342075 -0.946515 -0.926881 0.499918 0.812812 0.747114 -0.122653 0.306121 0.417953 -0.264542 0.525824 0.709501 0.892839 -0.945267 -0.789327 0.246585 0.950481 0.0715047 0.0287601 -0.0305605 0.656572 0.974971 -0.685469 -0.536559 -0.870977 0.926917 
-0.387677 -0.800958 -0.86151 -0.615982 -0.348421 0.448648 -0.558762 -0.281594 -0.0128272 -0.848341 -0.534051 0.865738 0.574751 0.874427 -0.418384 0.119799 0.640449 -0.497014 0.155413 0.778247 0.787307 0.0530029 -0.139287 -0.231349 -0.94269 -0.483596 -0.247135 -0.638648 -0.0163695 -0.114617 -0.706407 0.601991 0.0732516 -0.565087 0.949635 0.716956 0.90716 -0.581594 -0.5652 -0.0548574 -0.328283 -0.115171 -0.218312 -0.730045 -0.215209 0.38354 0.330628 -0.637759 0.878631 -0.529196 -0.812583 0.620857 0.544406 0.020831 -0.601493 0.618879 0.496379 0.159928 0.984464 -0.503381 -0.999943 -0.719878 -0.886911 0.0921049 -0.295494 -0.909324 -0.19429 -0.36285 -0.494718 0.25421 0.628161 0.177767 -0.828075 -0.693121 0.416867 -0.0556107 0.682615 -0.243679 0.31773 0.550952 0.208887 0.476667 0.198551 -0.190415 -0.515533 0.594297 -0.605252 -0.960622 -0.232027 -0.633268 -0.439028 -0.227232 -0.332694 -0.329374 0.839934 0.372466 -0.237523 -0.351659 1.01371 0.275803 
0.896557 0.530555 -0.552327 -0.946432 0.875366 0.853651 0.000465524 0.515985 -0.327436 -0.733395 0.0921384 0.829854 0.802785 -0.741236 -0.413066 -0.694419 0.881638 -0.00817966 -0.648569 -0.421049 0.389243 -0.122947 0.33593 -0.97092 0.557187 0.150178 0.399653 -0.683405 0.824034 0.406949 0.598031 0.712015 -0.0637123 -0.947865 0.753243 -0.219975 0.897587 -0.229948 -0.720523 -0.440527 0.0947865 0.355038 -0.624869 -0.0777924 0.643867 -0.0227174 0.216202 0.485281 1.0019 0.54484 -0.90662 0.343538 -0.578396 0.415421 0.38757 -0.966056 -0.444801 -0.20535 -0.665958 -0.613186 -0.841956 0.946077 -0.895627 0.0827208 0.987633 0.880298 0.841866 0.920413 -0.342541 -0.852324 -0.491459 0.750893 0.522023 -0.175728 -0.368345 0.143976 0.804901 0.861109 -0.356856 0.766037 0.402871 -0.284121 0.118949 0.861345 -0.8663 -0.513558 0.85673 -0.276171 0.263891 -0.81414 0.121362 0.447224 -0.851651 0.233574 -0.475747 -0.873504 0.126026 -0.63866 -0.954254 0.767434 
-0.4821 -0.500439 0.506041 -0.970472 0.324388 -0.845405 0.176447 0.119313 -0.990458 0.809442 -0.111451 0.403643 -0.468738 0.9977 0.245257 -0.333877 -0.520651 0.101655 0.385198 0.731063 0.297325 -0.495486 0.150104 0.437693 0.733315 0.660314 0.568122 -0.158575 -0.963099 0.61234 -0.396044 -0.446534 -0.887286 -0.887769 -0.418316 0.436838 -0.733132 0.758733 -0.442177 -0.726486 0.573273 0.446371 0.676554 -0.894244 0.445148 -0.077753 -0.229459 0.924505 -0.9745 -0.844906 0.657263 0.324295 -0.349117 -0.193833 -0.238883 -0.610611 -0.531352 -0.666882 0.233101 -0.496689 0.941181 0.839781 0.0564857 -0.947527 0.948518 0.638787 0.489354 -0.784084 0.399339 -0.950976 -0.510557 -0.0283631 0.496318 -0.834838 0.0763261 -0.0586737 0.0860345 0.846618 -0.133987 0.111278 -0.999872 -0.477863 -0.564541 -0.34334 0.328615 0.195802 0.0455884 0.796987 0.526008 -0.721657 -0.699202 0.46619 -0.885033 0.357348 0.524392 -0.936256 -0.00522403 0.0102957 -0.720775 -0.603278 
0.0592891 -0.232349 0.364286 -0.444396 -0.0669712 -0.559376 0.497076 -0.97936 -0.712755 -0.63711 0.132141 -0.712634 -0.114889 0.567276 -0.0564263 -0.786807 -0.236492 0.989165 -0.989957 -0.711021 -0.732842 -0.689299 0.755357 -0.617863 0.667863 0.275287 -0.55456 -0.336225 -0.714353 -0.275737 0.0572103 0.344936 0.491914 -0.578492 0.900544 -0.575207 -0.137875 0.397605 -0.554479 0.149362 0.760637 0.577435 0.436741 -0.354351 0.14494 -0.619684 -0.141057 0.908662 -0.630519 -0.131157 -0.802405 -0.363161 0.17973 0.952954 0.0189517 -0.152409 0.228326 0.464362 0.511494 0.513951 -0.811368 -0.431424 -0.141226 0.680648 -0.00992762 -0.240573 -0.894532 0.852188 -0.843053 -0.449043 0.00171231 0.917675 -0.871394 -0.561659 -0.436705 0.273579 -0.18148 0.422226 0.182241 0.188088 -0.708782 0.379837 0.824798 0.470946 0.332776 -0.156126 -0.681463 -0.438906 -0.691717 0.829958 -0.924942 -0.503166 -0.601522 -0.0658432 -0.822574 0.38859 0.693373 -0.717111 0.240744 0.850494 
-0.166127 -0.757702 0.768062 -0.0374871 -0.319399 -0.668588 -0.763903 0.499223 0.75364 0.418263 -0.312711 -0.95515 -0.201796 -0.487794 0.515801 -0.869041 0.355975 0.834339 -0.307982 0.664349 0.664146 -0.232917 -0.838799 -0.937274 0.701035 -0.66141 0.451283 0.394395 -0.378488 -0.307987 0.244788 0.455385 -0.0656891 0.0128564 -0.5821 0.614837 0.344265 -0.34601 0.114104 0.0979008 -0.927677 0.801279 0.142758 -0.129522 -0.6864 -0.341441 0.00148771 0.669683 -0.507102 0.693434 0.334009 -0.842857 -0.53939 0.49521 -0.780143 -0.838356 0.833843 0.671124 0.556104 -0.544656 -0.636859 -0.199172 0.910673 0.297503 0.813678 -0.671373 -0.0876461 0.157939 -0.0174249 -0.973559 -0.744079 0.0549447 0.827829 0.398622 0.925408 -0.858555 -0.942888 -0.0731106 0.811128 -0.449946 -0.379602 0.145136 -0.292868 0.0810076 -0.359661 -0.0729486 0.242652 -0.525822 -0.4018 -0.20128 -0.0704711 -0.0386995 0.599519 -0.159636 -0.741224 0.413217 0.168887 0.171127 -0.428862 -0.848453 
0.197582 -0.173021 0.206439 0.0254277 -0.774422 0.131874 0.166873 -0.717265 -0.941236 -0.0219995 -0.16721 -0.320838 -0.876863 0.539983 0.76017 -0.236517 -0.532965 0.00282159 0.237662 0.0652143 0.801513 -0.832816 -0.973465 0.401032 0.00743647 -0.714691 -0.185771 -0.823684 0.456436 0.385366 -0.672186 -0.345982 -0.787654 0.534252 0.679446 -0.562076 -0.333873 -0.153681 -0.279341 -0.27511 0.824319 0.553449 0.404052 0.947456 0.0934318 0.164222 -0.289061 0.560467 -0.832957 0.948601 -0.374319 0.968556 -0.884215 -0.347784 0.369588 0.123222 -0.0624753 -0.816184 0.299538 -0.606039 0.569182 0.627351 0.0479786 0.781528 0.161604 -0.272576 -0.780548 0.82773 0.573743 -0.0598895 -0.447379 0.398062 -0.506441 0.956672 0.345518 0.586991 0.120894 -0.943543 0.147457 0.287937 -0.994942 0.773138 0.256493 -0.879157 -0.574646 -0.373919 0.244065 0.362879 -0.190103 -0.456397 0.75684 -0.62092 -0.829046 -0.195182 -0.839392 0.332558 0.532243 -0.61994 0.160288 0.105986 
0.32017 0.712908 -0.495952 0.813729 0.669581 0.849565 0.40072 -0.209525 0.906022 -0.451822 -0.921588 0.91108 -0.678684 0.334906 -0.968077 -0.25333 0.960987 0.275988 -0.890451 -0.229116 0.819591 0.866388 0.149964 0.990545 -0.328793 0.310572 0.323102 -0.796551 0.690632 -0.51661 0.309435 0.010802 -0.803701 0.813482 -0.175469 0.86588 0.663048 -0.774748 -0.343645 0.56907 -0.226571 -0.265233 0.480151 0.0947449 -0.930327 0.512074 0.841415 -0.96934 -0.211938 0.950964 -0.198455 -0.392347 0.817352 0.951508 -0.401802 -0.511441 0.26208 0.921301 -0.307992 -0.0472881 -0.595309 -0.998557 0.963514 -0.39901 0.814926 -0.211955 -0.53313 0.477973 0.0132967 0.123225 0.0470437 0.786726 0.857992 -0.472806 -0.118529 0.927666 -0.960732 -0.277114 0.958326 -0.172669 -0.32615 -0.24013 0.434984 -0.508798 -0.288621 -0.966818 -0.0202391 0.973459 0.954483 0.671769 -0.0738291 -0.640826 0.673212 -0.110315 -0.0398364 0.488138 0.67773 0.427033 -0.0338885 -0.308973 
-0.449742 -0.986845 -0.522247 -0.59175 -0.45965 0.359223 -0.664084 -0.420382 -0.917891 -0.705758 0.406949 -0.244041 0.0541124 -0.158067 0.24716 0.765491 -0.124885 -0.773079 0.73895 -0.170403 0.89869 -0.334879 0.188771 0.571903 0.554806 -0.851066 0.0600409 0.232536 0.575968 -0.973848 0.923562 -0.873774 -0.960692 -0.598685 -0.465524 -0.420343 0.760538 -0.129607 0.159275 0.842647 0.164635 -0.433776 -0.401394 -0.781253 0.408156 0.845766 0.984238 -0.716729 -0.927313 0.723188 0.112868 0.971378 -0.61169 -0.698361 0.543281 0.943116 -0.549426 -0.396678 0.175651 -0.973459 -0.370526 0.0992138 -0.847233 -0.331219 0.500529 -0.312756 0.248439 0.261067 0.557636 -0.592286 0.103714 -0.277729 -0.0260626 0.70232 -0.0589822 -0.617906 0.548086 -0.074744 -0.334635 0.620774 -0.351556 0.778233 0.592152 0.0367541 -0.920128 0.135432 -0.0201303 -0.469554 0.738754 -0.844479 -0.443013 -0.631772 0.254735 -0.290245 0.0370091 -0.244736 0.396999 -0.714552 -0.983669 -0.045365 
-0.306839 0.120045 0.676906 0.667099 -0.177635 -0.382076 -0.950807 -0.629549 0.54318 -0.285443 0.991225 -0.808376 -0.50721 0.583377 0.228378 -0.427337 -0.281191 -0.791752 0.103108 -0.542437 -0.636231 0.660096 -0.17421 0.618504 -0.63015 0.862799 -0.626232 0.766849 -0.851753 -0.609902 -0.278516 -0.158591 0.510143 -0.60161 -0.491493 -0.667491 0.0163133 -0.4423 -0.29704 -0.440507 0.272257 -0.305815 -0.248883 0.765048 -0.722438 0.979496 -0.66229 -0.0036292 -0.812256 0.440819 0.453934 -0.448487 0.100914 -0.720276 -0.829983 0.470765 -0.857477 -0.456215 0.237613 -0.70923 -0.0661166 0.959097 0.132179 -0.555973 -0.642513 0.640686 -0.223465 0.3738 -0.801614 0.479495 0.933293 0.470644 -0.82632 -0.31559 0.235691 -0.548758 -0.336094 0.573402 0.447613 -0.14835 0.0142205 -0.0984536 0.403163 -0.884865 0.18127 0.57318 0.585899 0.323794 -0.883035 -0.176487 0.614564 0.0508479 -0.21739 -0.253257 0.494875 0.140096 -0.612571 -0.72859 -0.486104 -0.414184 
0.750859 -0.552848 -0.943434 0.924453 0.131625 0.291845 -0.624024 0.795507 -0.134483 0.823499 -0.352916 0.879776 -0.274929 -0.949681 0.994978 0.906063 0.623347 0.580801 0.230042 0.740439 -0.595696 -0.15529 -0.208694 0.186952 0.591355 -0.713779 -0.672943 0.978784 -0.442507 -0.159107 -0.435398 -0.691432 0.288049 -0.378929 -0.766859 -0.580283 0.913286 -0.391086 -0.78479 -0.221217 -0.567521 -0.137619 -0.341467 0.157344 -0.0873807 -0.346519 0.0636466 -0.463829 -0.765749 -0.706296 -0.723416 -0.3614 0.138264 0.0678859 0.8255 -0.270408 0.354121 -0.847967 -0.291614 0.911839 -0.00653976 0.272955 -0.779738 -0.71846 0.894165 -0.546433 -0.298739 0.807279 0.062301 -0.0835421 -0.414036 0.494579 0.778828 0.244602 -0.348022 -0.308458 0.898028 0.715518 0.227852 -0.867689 -0.990799 0.504383 -0.229101 0.147437 -0.427663 -0.403598 0.877163 0.926464 -0.251091 -0.414521 0.838143 0.742282 0.858904 -0.941591 -0.97605 0.752462 -0.488232 -0.274804 0.559826 0.574004 
0.64229 -0.855732 0.0712551 0.416912 0.391836 0.715191 -0.882854 0.283924 0.434777 0.341284 0.419024 0.444714 -0.156377 -0.809479 -0.405539 0.411393 -0.213954 -0.529305 0.344186 0.53619 0.0553538 0.18492 0.278969 -0.0868717 0.239367 0.304154 -0.333363 0.750439 -0.971121 -0.774659 0.324369 0.671686 -0.630515 -0.605705 0.0938418 0.762416 -0.884418 0.202687 0.0503559 0.552678 -0.455308 -0.529214 -0.00419546 0.385268 -0.339522 0.589351 -0.19581 0.450549 -0.944799 -0.851617 -0.0101185 0.111526 0.333436 -0.732115 -0.972571 -0.435316 0.5754 -0.315091 -0.68424 0.605361 -0.0807365 0.641051 0.268934 0.29338 -0.958763 -0.638978 0.0556519 -0.846652 0.56237 -0.897984 0.697469 -0.894257 -0.425875 -0.300261 0.49385 0.241991 -0.714271 -0.706134 -0.306336 -0.648225 -0.557872 0.678412 0.459665 0.769613 0.948295 0.481416 -0.660011 0.517371 -0.82435 -0.342986 0.114418 0.0965666 -0.691688 -0.614968 -0.61488 -0.66314 -0.254477 0.441308 -0.506962 -0.697963 
0.548437 -0.816113 -0.586246 -0.882306 -0.093379 0.908681 0.391175 0.151632 -0.815385 -0.933952 0.51793 -0.368955 0.708412 -0.0254829 -0.563145 0.660188 -0.5298 -0.249778 0.199281 -0.323535 0.404541 -0.676854 0.750201 0.708617 -0.307762 -0.861491 -0.954019 0.422867 0.584765 -0.48375 0.747141 0.13475 -0.271891 -0.847881 0.259224 0.624679 -0.907952 -0.398413 -0.216307 -0.717533 -0.326061 -0.677097 -0.0868141 -0.626403 0.320998 0.330891 -0.936132 0.787149 -0.953168 0.25908 -0.548868 0.469755 0.59421 -0.799586 0.172969 -0.754738 -0.646525 0.207752 0.680411 0.93703 0.744544 0.425992 0.0164987 -0.507345 0.613785 -0.733564 -0.888342 0.674138 -0.0962279 -0.0789873 0.905821 0.55616 0.248178 -0.155011 0.942384 -0.427034 -0.819343 1.00047 -0.656541 -0.746458 0.28403 -0.204935 0.720348 -0.174787 -0.0133927 -0.135714 0.0700148 0.306912 -0.891097 -0.232967 0.205844 0.889169 -0.77064 -0.751215 -0.652797 0.836027 -0.473474 -0.527619 0.488861 0.383232 
0.379435 0.415174 -0.0617465 -0.359535 -0.721611 -0.105595 0.202265 -0.592753 -0.152589 0.544524 -0.318717 -0.864686 -0.696223 -0.598151 -0.0107553 0.300236 0.277715 -0.939401 -0.41539 0.452585 -0.190625 0.807078 0.273091 0.0799952 -0.95542 0.683995 -0.150605 -0.413092 -0.871613 -0.665791 1.00164 0.528364 0.792989 -0.0444251 -0.84839 -0.992019 0.830707 0.294446 -0.556829 -0.232189 -0.191387 0.117388 -0.0747198 0.108595 0.53895 0.894669 -0.568213 -0.171893 0.893672 -0.0065203 -0.781658 -0.248312 -0.141457 0.540696 0.797288 -0.139392 0.211566 -0.391379 0.423665 0.323506 -0.024151 0.426109 -0.182258 -0.276422 -0.618184 -0.0811028 -0.213202 -0.784795 -0.768404 0.225087 -0.0479157 0.053332 -0.631648 0.90734 -0.781633 0.886762 0.767064 -0.407456 -0.270654 0.733579 0.647646 -0.0147595 -0.524345 -0.598935 -0.451328 -0.68529 0.245463 0.693607 -0.0904573 -0.339289 -0.0308416 0.923368 -0.837265 0.782142 -0.338357 -0.470849 -0.288537 0.404103 -0.243375 -0.0827844 
-0.382776 0.696062 -1.03319 0.0166058 0.654999 -0.828686 -0.0120933 0.380743 -0.295259 0.633247 0.206023 -0.592916 -0.385722 0.672007 -0.0948244 0.109213 0.902859 -0.897615 -0.28087 -0.133835 -0.174968 0.717097 -0.301262 0.0596338 0.543417 0.443721 0.419554 -0.76954 -0.208396 -0.787424 0.202078 0.517043 0.94753 0.142509 -0.524516 0.527909 0.43906 0.250891 -0.0646858 -0.776443 -0.0547536 -0.902397 -0.472744 0.466291 0.736562 0.424314 -0.406664 0.723672 0.500338 0.317633 -0.334044 -0.640425 0.1417 0.383032 0.323517 -0.396468 -0.208923 -0.336941 -0.116911 0.603406 -0.0624348 -0.929606 0.0552116 -0.156174 0.262994 0.440292 -0.576761 -0.394216 -0.193762 0.356197 -0.260684 0.645484 0.493557 0.390966 0.235133 0.320635 -0.206699 0.733925 0.0416235 -0.700658 0.0785075 0.736428 -0.308491 -0.821627 0.139335 0.999077 -0.303788 0.875825 -0.279385 0.535655 0.478668 0.688695 0.780563 -0.506525 -0.479632 -0.0305465 0.924747 -0.116279 0.637244 -0.317552 
-0.743687 -0.626542 -0.705612 0.699798 0.934761 0.471351 0.138833 -0.474412 0.189611 -0.803481 -0.00263005 -0.672032 0.959611 0.65029 -0.423034 -0.00342141 0.633481 0.245992 -0.102772 -0.70975 -0.0110372 -0.650995 0.84476 -0.321244 -0.110519 -0.4968 0.37504 -0.212429 0.389436 0.157647 0.481345 0.584309 0.607899 0.772355 0.413476 0.405273 0.237959 -0.577746 -0.984621 -0.436255 -0.197155 -0.00804404 -0.229142 -0.292153 -0.283711 0.295361 0.824294 -0.645856 -0.513256 -0.235214 -0.30921 0.403915 0.0691141 -0.469171 -0.811152 0.904904 0.0609 0.546538 -0.195778 -0.607244 -0.235726 -0.753668 0.883775 -0.554771 -0.936312 0.283564 0.935245 0.28201 0.864846 0.937508 0.864381 -0.444175 0.0135066 -0.324682 0.432786 0.769534 -0.982232 0.130906 -0.826927 -0.430001 0.766513 -0.288906 -0.936626 -0.0846367 0.184887 -0.752052 -0.222748 -0.888685 0.825265 0.630653 -0.493852 -0.263985 0.938742 -0.640082 0.0882529 0.91978 0.579829 -0.0885679 0.318445 0.43847 
-0.0391352 0.165298 -0.898186 0.88606 1.08404 0.424071 0.668041 0.824461 -0.533437 0.713404 -0.443825 -0.653319 -0.636582 -0.342624 0.27291 0.531982 -0.280705 -0.948313 0.744773 -0.482577 0.696952 -0.785206 0.0766557 0.530685 -0.388215 -0.737937 0.368261 -0.809734 0.294863 -0.240598 0.700623 -0.809093 0.955308 0.798383 -0.861234 0.908338 0.11071 0.737877 0.820162 0.756849 0.577836 -0.628477 -0.940374 0.911091 0.0577631 0.273171 0.554444 0.794521 0.204371 0.306265 -0.58853 -0.161546 0.435983 0.48369 -0.37194 -0.98402 0.753693 0.759722 -0.692036 -0.00242492 -0.384817 1.01922 0.097247 -0.323309 0.729321 0.242176 -0.390482 -0.127087 0.196518 -0.539598 -0.378111 -0.40862 -0.089901 -0.289938 -0.393473 1.01296 -0.966919 -0.910443 0.900339 0.333836 0.323472 -0.847483 -0.730499 -0.150428 0.601584 -0.170931 -0.191055 0.274536 -0.423758 0.152904 -0.714496 0.293066 0.124731 0.368457 0.927402 -0.114232 -0.438722 -0.598258 0.819965 0.736017 
0.0373812 -0.51125 -0.66181 0.905743 0.483012 -0.0332427 0.937614 0.298653 0.0685554 0.762085 -0.163133 -0.626179 0.816915 0.115009 0.200214 0.312087 0.762846 -0.919467 -0.344274 -0.607948 0.258442 -0.0540741 0.63112 -0.667587 -0.68797 0.62919 0.215729 -0.168835 -0.769977 0.0978346 -0.403311 0.173665 0.558985 0.0300603 0.156883 0.0453071 0.859266 -0.00785437 -0.626942 -0.0627865 -0.249193 0.130944 0.354459 -0.495132 -0.677081 -0.455334 1.00894 -0.864398 -0.552487 -0.290994 -0.496463 0.658159 0.591497 -0.823041 -0.717059 0.850969 0.839981 0.266372 -0.230087 1.02371 -0.576847 0.486291 0.136043 -0.934187 -0.632293 -0.816723 0.0824183 -0.766217 0.426256 0.544474 0.101393 -0.985944 -0.293794 -0.432244 -0.304804 0.0969102 0.100468 -0.450979 0.228396 0.767 0.241465 0.736159 0.462631 -0.100062 1.05468 0.607431 -0.262118 0.786905 -0.0784191 0.555585 0.615789 0.398036 -0.0308341 -0.132623 0.549367 0.353817 0.0628353 -0.499719 0.629195 -0.63421 
-0.859847 0.0536993 -0.649933 -0.121006 0.612028 0.0190421 0.915652 -0.388007 0.621682 0.120116 -0.589046 -0.187615 -0.188007 0.989338 0.557221 -0.334663 0.549534 -0.477045 -0.496907 -0.617482 1.01566 -0.963491 0.774401 -0.134751 -0.120972 0.325579 -0.712361 0.857554 0.927727 1.00012 -0.836688 -0.939805 -0.236916 -0.371616 -0.0926214 -0.467103 0.547573 -0.260662 0.115477 0.0417407 0.858479 0.522584 0.875808 -0.488149 0.450688 0.623984 0.332457 -0.0415363 0.889454 0.884618 0.296665 0.827451 0.788182 0.227999 -0.10928 -0.375807 -0.373936 0.0944501 -0.462738 -0.382368 0.0508938 -0.216304 -0.56076 0.961559 0.316334 0.348721 -0.574447 -0.253599 -0.679811 0.662899 0.922068 -0.883503 0.170564 0.725452 -0.213648 -0.246548 0.25558 -1.05119 0.737783 0.329594 0.673763 0.228893 0.228425 0.61307 -0.342623 -0.8818 -0.838426 0.0555725 0.0598219 -0.282974 0.538314 -0.685423 0.650584 0.998847 -0.748415 0.140914 0.299913 -0.499468 0.96971 0.428766 
-0.767634 0.961771 0.441172 0.359202 0.677951 -0.735681 -0.933759 -0.0280509 -0.745751 0.869384 -0.646647 -0.927884 -0.0596947 0.607128 0.520836 0.421704 0.509671 0.863622 -0.43624 -0.255859 -0.397127 0.912842 -0.0276128 -0.831085 0.879559 0.17808 0.113033 0.130482 0.86732 0.139049 -0.356595 1.00519 -0.109204 -0.804005 0.423393 -0.352463 -0.401331 0.360987 0.683028 -0.288153 0.173816 -1.07158 -0.24828 -0.983358 0.583516 -0.619097 0.612275 0.235035 -0.995111 1.06897 -1.05187 -0.594921 0.891687 -0.0770659 -0.172262 0.732108 -0.719504 0.880419 -0.0458891 -0.836578 0.0839945 0.577439 0.938078 -0.962881 0.892995 0.357851 -0.209132 -0.64941 -0.154796 -0.540065 0.23811 0.941835 -0.400627 -0.932485 -0.912398 -0.727483 -0.805971 0.529558 0.573399 -0.569289 0.498295 0.49008 0.0608029 0.504205 -0.343427 0.887678 0.0937024 -0.219383 0.829542 -0.922961 -0.280199 -0.00687849 0.885633 -0.301416 -0.0665863 0.928667 -0.983198 0.639348 -0.65233 -0.263082 
-0.827157 0.52641 -0.306158 -0.213142 0.616643 -0.19262 -0.0523413 0.850241 -0.545439 -0.438971 -0.654226 -0.902782 0.85259 0.367792 0.500333 -0.645839 0.0886758 -0.387577 0.13504 -0.0172732 -0.117222 0.831182 0.812288 -0.185354 -0.510597 -0.229401 -0.412783 -0.555513 -0.350041 -0.0330237 0.253425 -0.303928 -0.549362 -0.969977 0.508045 -0.89229 0.0293764 -0.646217 -0.99329 0.357222 -0.144504 -0.768931 0.45095 -0.389568 0.662783 -0.0878989 0.00500419 -0.134269 0.537885 -0.854572 0.780903 -0.738819 0.894383 0.581903 0.275632 -0.636324 -0.442284 0.700983 -0.151926 0.150435 -0.183551 -0.81691 0.659592 0.351966 -0.646519 0.191289 0.560989 0.294366 0.701626 0.548322 -0.278411 -0.675865 0.906551 -0.837701 -0.0530446 0.620702 -0.0416137 0.947394 -0.444818 -0.286766 -0.960561 -0.735852 0.100538 0.997256 1.05801 -0.559506 -0.878144 -0.617774 -0.814922 0.26205 0.198525 0.177744 0.480316 -0.0480539 -0.527981 0.838782 -0.878219 0.962761 0.16632 0.568648 
0.475817 0.854495 0.876061 0.438423 -0.851625 -0.0916698 0.0474994 0.127211 -0.155932 0.617122 0.876263 -0.0491794 0.75323 0.0533937 -0.169536 0.61533 0.312194 0.0955366 0.892209 0.62217 -0.625252 0.24933 -0.399702 0.912724 -0.902228 0.0626551 0.645877 -0.784803 0.126883 -0.132397 0.804421 -0.460656 -0.299802 0.810757 -0.985546 -0.253034 -0.260306 0.0133157 -1.06603 0.638378 -0.344715 0.767504 -0.454725 -0.706186 -0.158368 0.484133 0.934966 -0.756686 -0.44107 0.901509 0.782665 -0.194382 0.115975 -0.594937 -0.152575 0.22723 0.547732 -0.574324 0.444662 -0.294695 0.409277 0.2836 0.129451 -0.858063 0.166834 0.168598 -0.0557739 0.930563 -0.683831 -0.0394825 0.570857 -0.234024 -0.169968 -0.903653 0.105305 0.666249 0.560723 0.0899135 0.913811 -0.797689 -0.0146748 0.651678 0.179454 -0.970986 -0.81956 1.03287 0.0881293 0.57734 -0.513821 -0.246394 -0.917391 0.938473 -0.839408 0.333941 0.9839 0.299153 -0.567525 -0.0639261 0.24234 -0.496688 
0.836336 -0.210951 0.387481 -0.329543 0.0144314 -0.456344 -0.676506 -0.470089 0.558346 -0.686029 -0.192489 -0.447075 0.81319 0.964282 -0.414994 0.879718 0.892113 0.852442 0.337178 -0.569188 -0.366992 0.571316 -0.728616 -0.0880032 -0.256452 -0.759493 -0.890481 0.205373 0.2326 0.42561 0.848982 0.0660897 -0.788419 0.263846 0.761262 0.182295 0.836276 -0.935965 0.789058 0.503795 -0.653643 -0.461634 -1.05822 -1.01235 -0.446653 -0.356445 0.896415 -0.437317 -0.595434 0.249923 -0.168683 -0.049371 -0.192673 0.12649 0.984894 0.560044 0.348911 -1.06778 -0.235016 -0.375757 0.544218 -0.406405 0.537933 0.817326 0.983951 0.313854 0.0102216 0.837341 0.495712 -0.184357 0.291067 0.631345 0.439472 0.276315 0.704999 0.921843 0.835363 0.534253 -0.590179 -0.70863 -0.152728 0.161731 0.355519 0.615495 -0.656046 0.287565 -0.0282907 0.608581 0.212612 0.924069 -0.899033 -0.21465 -0.346447 0.762968 -0.55808 -0.405041 0.00261425 0.492945 -0.56965 -0.677146 
-0.723287 0.672896 -0.98866 0.714866 0.119554 0.850947 0.612809 -0.0985691 0.369581 1.11474 0.287664 -0.681375 0.0481179 -0.374109 0.95957 0.371686 0.825778 0.0466643 -0.107357 0.226985 -0.00395648 0.0614866 0.874912 0.820869 -0.28906 -0.539466 -0.821006 0.683915 0.974206 -0.309941 -0.785211 -0.702623 -0.604684 -0.720405 -0.924162 0.421109 -0.84174 0.676095 -0.552135 0.660553 0.749391 0.543048 0.814193 -0.375897 -0.712909 0.770359 -0.931056 -0.729563 -0.347141 0.000478495 0.335127 0.679754 -0.924268 0.286736 0.524501 -0.249502 0.669189 0.553997 -0.532998 0.734636 -0.565326 -0.295257 0.770398 -0.132604 0.157435 0.80342 -0.689671 0.27256 0.563156 -0.240132 -0.148316 0.0724394 -0.527838 -0.271643 0.894181 -0.157125 -0.534838 0.852411 0.0339366 0.315586 -0.118828 -0.698862 0.0680656 -0.0392929 0.659369 -0.375651 0.458712 0.149093 -0.960336 -0.83183 -0.31613 -0.3519 -0.0326891 -0.358465 0.307919 0.975558 -0.557483 0.694958 0.284991 0.916941 
-0.472063 -0.824952 0.0269973 -0.0723577 -0.022001 0.0265213 0.742604 0.428433 -0.103642 -0.130173 -0.108024 0.901494 -0.136842 0.891813 -0.212594 -0.528243 -0.588839 -0.575995 0.616288 -0.218192 -0.477516 -0.597464 0.182743 0.561865 -0.152157 -0.302152 0.360399 0.262167 -0.564621 -0.18934 0.299928 -0.0469474 -0.105973 -0.673591 0.943483 0.733448 0.331063 0.66816 0.356647 -0.683154 -0.494231 -0.969599 -0.949812 0.237239 -0.975801 -0.175378 0.774022 -0.413679 0.0707968 0.321848 0.156439 0.684565 0.727352 -0.510144 0.283921 -0.463328 0.139012 -0.354988 0.850927 0.63889 0.465971 0.120715 -0.669163 -0.645107 0.593411 -0.755042 -0.819037 -0.0249415 1.03681 0.439411 0.196197 -0.724427 0.726397 0.26063 0.63113 0.790558 -0.864794 0.340705 -0.732284 0.454683 -0.251307 0.430335 0.133779 -0.4793 1.01211 -0.493817 -0.195797 0.0102442 -0.100688 -0.120194 -0.555115 -0.409482 -0.916065 -0.0672088 -0.289659 0.611896 0.244656 0.0339549 -0.363473 0.114899 
-0.37385 0.890967 0.549815 -0.920965 0.255694 0.335553 0.931472 0.399011 -0.149329 -0.587773 0.0322291 0.571564 0.510263 -0.953501 1.12859 0.445561 -0.570635 0.0179023 -0.429928 0.742547 0.802306 -0.00867561 -0.876792 0.846117 0.823571 -0.00254888 0.400249 0.074856 -0.878082 -0.812812 -0.639713 -0.403236 0.95313 0.790486 -0.198821 0.0774146 0.103262 -0.257653 -0.432855 0.843201 0.0600885 0.528622 0.345157 -0.543671 0.444486 0.361547 1.03557 -0.899298 -0.6937 -0.633472 0.542703 -0.8533 0.382073 0.806531 -0.850736 0.161344 -0.117863 0.592615 -0.672698 0.0166303 0.896013 -0.466113 0.315156 0.751635 -0.494651 -0.830711 0.00720679 0.741162 0.112835 0.546839 0.535798 0.905756 0.124224 -0.0487751 -0.534867 -0.314237 -0.709055 -0.596826 -0.259728 -0.0645008 -0.127833 -0.726422 -0.0574543 -0.5424 -0.894457 0.233175 0.425548 -0.0214401 -0.31915 0.840078 0.847174 -0.258853 -0.568947 0.210428 -0.684153 0.146372 0.508513 0.382758 -0.158909 -0.701585 
0.134832 -0.444219 -0.545879 -1.04116 0.501766 0.0776452 -0.274231 0.91972 0.723944 0.565831 -0.171641 -0.592801 0.600936 0.867704 -0.0511816 0.750807 -0.0928345 -0.717159 -0.137829 0.931968 -0.89428 -0.449778 -0.615971 -0.526021 0.791478 -0.189652 0.590993 0.170613 -0.522427 -0.581285 0.805083 0.505939 -0.204627 -0.777711 0.643515 -0.834434 0.263809 -0.50924 -0.888651 -0.226884 0.9181 -0.0383707 0.283952 0.508723 -0.308858 -0.971627 0.393465 0.693073 -0.731157 -1.08117 0.261079 -0.621959 -0.519673 -0.966308 0.0380166 -0.751529 0.0586043 -0.485482 0.571764 0.50866 0.103713 0.308086 -0.326025 0.673422 0.86504 -0.605719 -0.939144 0.139639 0.104155 -0.792905 0.87349 -0.128847 0.151408 0.16813 -0.540005 1.02402 0.147759 0.708458 0.716421 0.678887 0.956331 0.128635 0.880634 -0.262263 0.164923 0.0145125 -0.203124 -0.710146 0.450502 -0.604005 0.565493 -0.336246 0.780682 -0.6462 -0.726225 0.715372 -0.116832 -0.632378 -0.273254 0.829508 
-0.412332 -0.186659 -0.161216 0.681082 0.900825 0.330762 0.628945 0.168747 0.37817 0.380791 -0.185899 0.019924 -0.65261 -0.227465 0.778785 0.521806 0.676585 -0.606631 0.78743 0.351424 -0.168122 0.361337 0.6876 -0.46415 0.689476 -0.960682 -0.81958 -0.450093 -0.258653 -0.217017 -0.448208 0.232969 0.389733 0.296843 0.0836634 0.317395 -0.405553 -0.182869 -0.580872 0.802756 -0.959904 0.271941 -0.0204913 -0.650134 -0.99484 -0.549089 0.971108 0.679492 -0.00941787 0.570326 -0.276803 0.734483 -0.0967799 -0.137498 -0.582875 -0.415673 0.276923 -0.459123 0.272151 0.885777 0.556255 0.756262 -0.0476957 -0.121552 0.290207 -0.923251 -0.585763 1.01873 -0.00415845 -0.136483 0.786202 -0.113267 -0.765827 -0.344221 0.28285 -0.585768 0.221545 0.118265 1.08177 -0.714289 -0.0456578 -0.00796688 0.855117 1.07334 0.831642 -0.60004 -0.422093 0.137497 -0.0829871 0.75587 -0.230303 -0.417867 0.596531 0.830129 0.394165 0.0585524 -1.0243 0.770312 -0.0537164 -0.171804 
-0.289193 -0.190683 0.843287 -0.121613 0.454568 0.156907 0.100452 -0.245988 -0.509908 0.0886851 0.000661633 0.230547 -1.02006 -0.0873518 0.178028 0.932756 0.247283 0.656808 -0.156595 -0.703267 0.540091 0.652558 -0.408322 0.101069 0.486875 -0.943557 -0.898811 0.463549 1.061 0.0192645 -0.560741 -0.222003 0.745714 -0.817725 0.721337 0.206537 0.298269 -0.171023 0.856301 0.828047 0.898603 -0.104819 0.0617532 0.925087 0.837208 -0.769863 0.721874 0.0483555 1.00239 -0.383255 0.13407 0.449191 -0.667657 -0.997742 -0.275383 0.814449 -0.779563 -0.140364 0.328731 -0.849852 0.980544 0.722536 -0.127125 0.555451 -0.971954 -0.458865 -0.0720215 0.48247 0.439901 -0.246108 0.33115 0.21526 0.771303 -0.775716 0.0705219 0.591425 -0.449282 -0.231635 -0.385716 -0.430062 0.521043 0.959127 -1.05871 0.815355 0.945348 -0.169183 0.687659 -0.776192 0.555839 -0.178287 -0.696034 0.652167 -0.327355 0.306876 0.212135 -0.153735 0.903944 -0.958116 -0.726607 0.16623 
-0.108764 0.508128 -0.451327 -0.482608 0.805206 0.806583 -0.939113 -0.596034 -0.381322 -0.344631 -0.112513 -0.944784 -0.521116 -0.0828927 0.772682 -0.564047 0.699879 0.442835 -0.268677 0.375623 -0.605891 -0.0334404 -0.150368 -0.0521875 -0.762207 -0.946447 0.824338 -0.87956 -0.680867 -0.819646 0.403354 -0.0115886 0.644713 -1.02726 0.730092 0.43804 0.594104 0.692467 0.745452 -0.829212 -0.63865 -0.289416 -0.891066 -0.1294 0.595442 0.960089 0.382021 0.449083 0.394568 1.03236 -0.409609 0.620584 -0.0834892 0.563492 -0.186411 0.184433 0.828574 -0.250396 0.393667 0.993122 0.0477928 -0.221171 0.0537761 -0.60452 -0.257472 -0.31701 0.898299 -0.506523 -0.473431 0.616872 -0.150043 -0.204746 -0.495114 -0.239011 0.714546 -0.863654 -0.226692 -0.026314 0.564304 -0.714111 -0.0807871 -0.645875 0.88149 0.90967 0.928994 -0.0673234 0.0746136 0.71083 0.497039 -0.619486 0.622518 -0.474244 0.122972 -0.203529 -0.0730476 -0.803941 0.439022 -0.223185 -0.23284 0.843477 
-0.491429 0.32744 -0.291824 0.0649054 -0.683542 -0.386512 0.0833087 0.0798519 0.703851 -0.330928 0.375654 -0.595818 -0.160258 0.295503 -0.822947 -0.338679 -0.859644 0.139396 -0.56836 0.797847 0.554363 -0.98203 -0.896722 -0.369721 -0.228213 -0.0511155 -0.178496 -0.855721 0.925678 0.50094 -0.993558 -0.577721 -0.199182 -0.17513 0.511578 0.160707 0.18333 -0.509801 -0.915206 -0.309986 0.117272 0.532516 0.0672425 0.947142 -0.323116 0.224421 -0.340603 0.102096 -0.51988 0.00776622 -0.386383 0.841996 -0.0927756 -0.162955 -0.254678 0.764787 1.04012 0.655452 -0.933018 1.00601 0.224646 -0.882491 -0.576308 0.882937 0.033805 0.859867 -0.106964 -0.665779 -0.433169 0.00673181 0.00596924 0.501329 -0.334113 0.926232 0.411527 0.337644 0.0913626 -0.913976 -0.465629 0.720391 0.123668 0.189375 0.545302 -0.785328 -0.870522 -0.577785 1.04848 -0.929901 0.919497 -0.955989 1.01552 0.228911 -0.862269 -0.588958 0.100448 0.244006 -0.782638 -1.05936 0.593938 -0.361618 
0.0447347 -0.631815 -0.876623 0.805911 -0.571357 0.745195 0.172537 0.540663 0.718622 0.728907 0.20941 -0.137037 -0.164443 -0.24177 0.0251133 -0.232588 0.0772108 -0.0543354 -0.161216 0.120396 -0.0912712 -0.200396 -0.95094 0.0627858 0.106239 0.10199 -0.706757 0.396894 0.199075 0.747754 -1.04656 -0.705421 -0.824624 -0.80002 -0.80024 -0.334698 0.765619 0.257923 -0.833996 0.508391 -0.112231 0.42556 -0.63021 0.594044 -0.867415 0.320172 -0.476693 0.385326 -0.771679 0.305397 -0.731651 0.232955 -0.845197 -0.52517 -0.632304 0.214363 0.81455 -0.292542 -0.317074 -0.0250968 -0.492879 -0.2814 0.245139 -0.336519 -0.106517 0.253484 0.245105 -0.247517 -0.411384 0.44415 -0.668309 0.300467 -0.0902774 -0.50949 0.0205335 0.00396623 0.723695 0.399652 -0.554778 -0.770011 -0.210597 -0.282144 0.313839 0.0196565 0.332766 0.82754 -0.831154 0.00673233 -0.625682 -0.0577018 0.811566 -0.0668824 0.716859 0.123348 0.676498 -0.336994 -0.673587 -0.162401 0.472368 -0.0733439 
-0.799419 0.540381 -0.700432 0.230572 -0.754441 0.380529 -0.823927 -1.00784 -0.254172 -0.43872 -0.820519 0.625112 0.324104 0.40693 -0.554098 -0.509654 0.199403 -0.372842 0.557811 0.701419 0.56627 0.390122 -0.459048 0.233629 -0.540008 -0.884283 0.872063 -0.103372 0.0541127 0.286685 0.737314 0.294916 -0.1145 -0.77611 -0.415887 0.198967 0.421581 -0.300648 0.151944 -0.769719 0.295582 0.300144 0.797942 -0.477222 -0.147619 -0.746173 0.199052 -1.00608 -0.113067 -0.35346 0.631616 -0.536179 -0.886311 -0.706459 0.796297 -0.437466 -0.498819 0.715994 0.539238 0.501541 -0.109072 0.384204 -0.142144 0.833764 0.473486 0.303055 -0.0353585 -0.0553539 -0.990605 -0.909677 0.292395 0.217679 0.543118 -0.165391 0.900022 -0.801926 0.0329432 -0.0895658 -0.67806 -0.805105 0.645792 0.968928 -0.427534 0.830677 -0.715606 -0.531339 -0.589735 -0.27617 -0.992612 0.94894 -0.808139 -0.1076 0.355234 0.0394239 -0.136131 -0.0901161 -0.730159 0.681823 0.865111 -0.693912 
0.771959 -0.0952087 0.599817 0.257195 0.911848 0.479826 0.414853 0.0487358 -0.620125 0.657066 0.257802 -0.843168 0.760938 0.715241 0.831187 0.963438 -0.844529 -0.791651 -0.297839 -0.823337 -0.752112 -0.121141 0.170113 0.538845 0.902055 0.905366 -0.563225 -0.692048 0.568755 -0.721754 -0.461753 0.328926 0.242575 -0.737987 -0.407919 0.167034 0.594257 -0.98584 -0.7195 -0.93599 0.723907 0.47484 -0.85215 0.4643 0.38569 0.978648 0.482999 0.506735 -0.789613 -0.82982 0.632724 -0.587592 0.118055 -0.185687 -0.981331 0.0764608 -0.281912 -0.57428 0.375075 -0.692617 -0.343933 0.911512 0.667782 0.984212 -0.985952 -0.735487 0.111829 0.730204 -0.853151 0.380821 0.882525 0.92803 -0.0109429 0.929565 0.407439 -0.849065 0.888416 -0.182501 0.665091 -0.758332 0.00743258 0.336162 -0.399275 -0.951905 -0.781793 -0.387988 0.184034 -0.128853 0.0165324 -0.448634 0.17833 0.696739 -0.599699 -0.25505 0.5901 -0.469934 0.00565115 -0.334247 -0.737165 0.226079 
-0.922549 -0.983092 0.154653 -0.0367868 -1.00818 -0.422621 0.147227 0.90303 0.436903 -0.1958 -0.872598 -0.527584 -0.821073 -0.300938 -0.453979 -0.674009 0.284116 0.680964 0.195421 -0.696757 -0.785925 -0.661058 -0.959799 -0.374163 0.116605 0.67716 0.158018 -0.84204 -0.62946 0.371442 0.345298 -0.540178 0.444267 -0.427643 0.439816 0.44412 0.152682 -0.423982 0.380582 -0.424057 0.385494 0.466863 0.0446387 0.535888 -0.851857 0.574473 0.876752 0.474348 0.27838 0.0798403 0.771384 0.509277 0.448127 0.803762 -0.866105 -0.425196 0.452616 0.257879 -0.259758 0.823527 -0.331659 -0.896451 -0.701142 -0.891615 -0.335834 0.735697 0.534392 0.83934 -0.692118 -0.076084 -0.531409 0.690156 -0.601912 0.46041 0.235662 -0.448191 0.00832514 0.104681 -0.975017 -0.662386 -0.800986 0.796672 0.848027 0.617405 0.609465 0.930413 -0.799204 0.0847832 0.210699 -0.0891151 -0.0752258 0.859308 0.0496112 0.215795 0.951874 0.720102 -0.0641278 0.470615 0.554269 0.275611 
-0.593164 0.979119 -0.0660578 -0.239301 0.44083 -0.849866 0.357178 -0.488749 0.278648 0.375864 -0.179962 0.483909 0.166414 -0.34859 0.105918 -0.224527 -0.398751 0.282375 0.848753 0.806049 -0.776031 -0.239685 0.657458 0.270639 0.970315 0.597438 -0.0126113 -0.0867957 0.0839296 -0.46215 -0.847506 0.481079 -0.480414 0.09035 -0.703935 0.96215 0.263271 0.644675 -0.555223 -0.443678 0.0189809 0.262067 -0.959928 -0.816258 0.917015 0.142957 -0.0405531 -0.471274 -0.554308 -0.185642 -0.684116 -0.334536 0.630861 0.980398 0.948106 0.545017 0.581737 -0.0674609 -0.541304 -0.341732 0.478383 -0.386005 -0.856795 1.02947 0.700999 -0.532303 0.955138 -0.0302518 -0.952966 -0.597809 0.527893 0.0947776 0.665053 0.566293 0.281993 0.581711 -0.293515 -0.753424 -0.911975 0.158791 0.0728249 -0.577903 0.835922 -0.363633 -0.60412 0.785899 -0.817616 0.98146 -0.275465 -0.377816 -0.371449 -0.794235 0.260789 -0.213262 -0.801869 -0.0341506 0.220762 -0.843928 0.935582 0.287766 
-0.442353 0.462457 -0.615371 -0.776416 0.0284303 0.666757 0.805663 0.738111 0.913909 0.905054 -0.105906 -0.0237152 -0.671366 -0.270397 0.615022 -0.267927 -0.483714 0.801726 -0.287524 0.241789 -0.552095 0.350819 0.444684 0.708295 -0.866237 0.643366 -0.326597 0.34798 0.798811 -0.391015 -0.361815 -0.643621 -0.928557 0.0228222 -0.419579 0.099864 -0.310226 -0.613991 -0.162284 -0.396194 -0.708937 0.731797 0.580087 -0.3803 -0.53855 0.195104 0.35176 -0.0221934 -0.00300804 -0.935701 -0.780562 0.444853 0.415593 0.664175 0.15324 0.548848 0.307596 0.826623 -0.103167 0.106334 -0.564338 0.535031 0.462756 -0.49261 -0.44219 -0.956568 0.606957 0.247646 -0.571151 -0.55531 0.851441 -0.279829 -0.823483 0.431536 0.339904 -0.362047 -0.373357 -0.308292 0.615557 0.623662 -0.24391 0.83516 0.0686179 -0.828892 0.499271 -0.77811 0.719953 -0.193104 -0.951435 -0.383365 0.913134 -0.515752 -0.848128 0.376006 -0.00868347 -0.290277 0.419148 -0.401714 0.95737 0.848161 
0.0429705 0.808823 -0.431634 0.219488 0.240362 0.90827 0.857439 0.867006 -0.400021 0.47311 0.490646 0.355988 0.308289 -0.440736 0.527116 -0.192359 -0.218845 0.24712 0.614537 -0.170279 0.863961 0.527767 0.31395 -0.984167 -0.0962475 -0.694728 -0.274442 -0.677162 -0.0964481 -0.317072 -0.828968 0.946522 -0.508249 -0.260601 0.16601 0.732114 -0.352331 0.0234487 0.599119 0.247647 -0.503441 0.0897657 -0.396365 0.804847 0.64903 -0.869249 -0.387512 -0.569815 0.377872 -0.772975 0.259906 0.241833 0.754792 -0.426145 0.257666 -0.341455 -0.120873 0.983223 -0.0186169 0.782679 -0.333848 0.152416 0.729202 0.157903 0.891814 -0.104789 -0.109983 -0.460517 0.91866 -0.510864 0.78713 -0.584781 0.578902 -0.609235 -0.779934 0.227932 -0.478483 -0.167446 0.658117 0.899388 0.0595795 -0.0819774 0.141221 -0.185628 0.491878 -0.601113 0.472917 -0.628995 -0.61789 -0.5457 -0.846316 0.0482617 0.606716 0.882886 -0.793835 0.49853 -0.221903 0.0961818 -0.961987 -0.303242 
0.585063 0.824043 0.114199 0.166385 -0.783341 0.325734 -0.604023 -0.24602 -0.832757 -0.947423 -0.364041 0.224998 -0.0315744 0.778849 -0.961319 -0.543686 -0.827225 0.51153 -0.170668 -0.442115 0.966944 -0.012046 0.601516 0.562376 -0.132824 0.815094 0.07095 0.645701 -0.0912504 0.108982 -0.659429 -0.503882 -0.0672961 0.453085 0.660781 0.15132 -0.215672 -0.94759 0.888184 -0.0470014 -0.895768 -0.475204 -0.824603 0.0682577 -0.699485 -0.784754 0.534238 -0.52058 0.726228 -0.636344 0.0385249 0.693083 0.342732 -0.356368 0.264137 -0.784647 -0.53999 -0.669979 0.859137 0.372768 0.442573 -0.798017 0.865054 -0.623677 0.658461 0.52827 0.528694 -0.556877 0.549228 0.41842 0.388092 0.675927 0.93753 0.570034 -0.252634 -0.75486 0.785298 -0.723172 -0.272893 0.516851 -0.363578 0.759114 0.202417 0.984622 -0.592353 -0.536074 -0.792094 -0.133325 -0.201162 -0.938993 -0.768553 -0.756704 -0.73207 -0.9033 -0.379607 0.913992 0.618562 -0.852283 -0.633303 0.191128 
0.547821 0.720818 -0.109252 0.507179 0.318028 0.55297 0.810851 0.16028 0.835125 -0.567337 -0.427069 -0.441745 -0.760279 0.781985 -0.495376 -0.433124 -0.754802 -0.196149 0.4771 0.0944032 -0.243525 0.763579 0.308437 -0.0640245 0.79729 0.992074 -0.0208664 0.40107 -0.898137 0.333952 -0.41028 0.674415 0.0312581 0.563112 0.169943 -0.524359 0.126796 -0.152709 0.517057 0.010697 0.331604 -0.915035 0.534141 0.568769 0.931613 -0.916987 -0.704769 -0.804657 -0.288433 0.783087 0.314617 0.486781 0.401475 -0.461974 -0.397121 0.267331 -0.438138 0.496848 -0.310802 -0.328314 -0.220403 0.363588 -0.643457 0.823021 -0.10174 0.468203 -0.761647 0.987174 -0.783388 0.758471 -0.0454924 0.735384 0.792223 -0.443678 0.382719 0.741115 -0.3915 0.565226 1.00489 0.478797 0.30001 0.207736 -0.0673284 -0.245089 0.866406 0.374069 -0.828478 -0.650635 -0.120466 -0.245046 -0.0330604 0.670178 -0.83133 0.303179 0.559479 0.0269406 -0.274462 0.730295 0.00583144 0.0459924 
0.436878 -1.0782 -0.184619 0.344755 -0.388722 -0.768964 0.157901 0.0118647 0.469351 -0.15146 -0.625362 0.0758889 -0.957306 0.34192 0.85677 0.646993 -0.269398 1.15984 -0.835012 0.936085 -0.403365 0.195986 0.52065 -0.359382 -0.603925 0.0882769 0.846295 0.137202 -0.118286 -0.205378 -0.726331 -0.740387 -0.322238 0.437035 0.464033 0.347042 0.416253 -0.765853 -0.486312 0.0679964 0.0654769 -0.10789 -0.785899 0.242665 -0.561907 1.08775 0.248968 0.239159 0.684394 0.329769 0.157936 -0.732686 -0.410367 -0.587931 0.104074 -0.0799069 0.550561 -0.221666 -0.952563 -0.629454 0.417242 -0.400802 -0.543472 -0.8089 0.68839 0.781136 0.646891 0.0984924 -0.775983 1.05364 -1.03502 0.45345 0.053488 -0.607064 -0.193474 0.392861 -0.654387 0.680496 -0.363662 -0.681544 0.281657 0.766987 -0.488813 0.547384 -0.729904 0.276281 -0.290347 0.648753 -0.765842 -0.342118 0.735852 0.904501 0.295013 -0.677386 -0.881 0.261337 -0.802544 0.652526 -0.823728 -0.741093 
0.648591 -0.867225 0.495773 -0.100772 -0.285524 -0.339738 0.923455 -0.144793 -1.13194 -0.78237 -0.0601617 0.434505 -0.983776 0.598192 0.182558 -1.19903 -0.0095645 1.05296 0.550045 0.750979 -0.488168 0.417201 0.417414 0.879706 0.787823 0.773017 -0.0682793 -1.00675 0.332597 0.0650865 -0.678241 -0.0476829 0.240149 -0.429396 0.349361 1.16847 -0.274742 0.021971 -0.00646099 0.0640605 0.1992 -0.783474 -0.234539 0.688423 0.737408 0.89804 1.03511 0.125691 0.596323 0.292416 -0.249964 -0.909834 -0.0579288 -0.852853 1.10216 -0.212997 0.918947 -0.182618 -0.1275 0.0498366 0.711152 0.648836 0.905302 0.011792 0.64708 0.14692 0.325801 -0.388648 -0.531507 -0.879381 0.500749 -0.941814 -0.713261 -0.224237 0.975895 -0.980288 -0.389893 0.0507815 0.205907 -0.581817 -0.243542 1.08634 -0.518686 0.482918 -0.627209 -0.707505 -0.38348 0.994512 0.328432 0.263113 -0.148545 0.151267 -0.236789 -0.195561 -0.774193 -0.0312567 -0.741611 0.119522 0.513744 -0.404973 
0.141308 0.00139646 -0.52917 0.920375 -0.819624 -0.688058 0.258269 -0.238007 0.133438 -0.479299 0.10679 -0.730603 -0.652733 0.80528 -0.997114 -0.70553 -0.821389 -0.0764382 -0.99657 0.798796 -0.666198 0.240159 -0.812035 0.449739 -0.892199 -0.0378425 0.910398 -0.570386 1.17144 0.457448 -0.112447 0.159417 -0.377598 0.952104 -0.482963 0.0686248 -0.982192 0.558118 0.590195 0.807187 -1.17787 -0.132408 -0.859839 -0.26792 -0.611573 -0.961803 0.324314 -0.034236 -0.155769 -0.16151 -0.129562 0.0192872 -0.323536 0.392334 -0.369024 -0.153145 -0.613945 -0.776593 0.388181 -0.904607 0.348019 -0.362691 0.278046 -0.889409 -0.76096 0.642493 0.239128 -0.65367 0.335275 -0.745873 -0.989175 0.68871 0.039374 -0.704341 -0.322919 0.8777 -0.193502 0.105344 -0.0201264 0.587162 -0.513446 0.755016 -0.124795 0.278117 0.176413 0.54399 -0.801803 0.342474 1.04547 0.452144 0.223232 0.484401 -0.921629 -0.555343 0.736396 -0.0842588 -0.73988 -0.762375 0.291318 0.831654 
-0.278102 0.0342402 0.444615 1.27264 -0.317488 1.03181 0.649688 -0.432068 0.0771349 -0.309413 -0.570449 1.04236 -0.812101 0.700781 0.431154 0.0285357 0.0767674 0.783599 -0.991632 -0.0595819 0.593447 0.706338 -1.57992 0.857088 -0.847769 0.810799 -0.900209 -0.498115 1.49228 0.376497 -0.872017 -0.387811 0.0619501 0.822433 -0.249839 0.746121 0.677617 -1.03564 0.723234 -0.121279 -0.435914 -0.454818 -0.0943825 0.400876 -0.851989 -0.96786 -0.560252 0.304589 0.653196 -0.691541 -0.621425 -0.241394 -0.545728 -0.667188 0.642461 -0.397006 -0.642163 0.0973468 0.194964 -0.827717 -0.218491 0.636445 -0.112698 -1.06833 0.150285 0.364209 0.458178 -0.0786678 0.683675 0.0254224 0.704301 -0.712278 0.262684 -0.456205 1.09687 1.19691 0.215294 -0.981456 0.66501 -0.0214949 -0.367032 0.856341 -0.648238 0.320865 1.20348 0.910423 -1.21758 -0.835576 0.0709858 0.3237 -1.07724 1.01031 -0.0932746 -0.0819679 1.21949 -0.615059 -1.08851 -0.0189584 0.477187 0.758656 
-0.63376 -0.187778 -0.534253 -0.79133 0.0143001 -0.385993 1.03021 -0.153752 -0.341399 0.376536 -0.80213 0.842241 -0.183651 -0.02699 0.111118 -0.397741 -0.984516 0.401718 -0.161132 0.452283 -0.303515 -0.00864786 -0.57947 0.656038 0.88114 0.312538 0.89707 0.919029 -0.192692 -0.0509466 0.704152 -0.247085 -0.709854 -0.756665 -0.124555 0.357273 -0.538812 -0.740193 0.776941 0.187169 0.560352 -0.666707 0.022362 -0.108809 0.144071 -1.03759 0.426183 0.302763 -0.177643 -0.984552 -0.213528 -0.0424582 0.373145 -1.2463 1.08975 0.256831 0.672449 -0.515546 0.352341 0.846352 -0.764414 0.329314 -0.501271 -0.514802 0.355953 0.000175448 0.756506 -0.875348 1.0402 0.405466 -0.067809 0.458124 0.296027 -1.15573 -0.292789 0.21416 -0.581888 0.747492 0.0193643 0.763328 -0.735883 0.481932 0.0649166 -1.07731 0.62358 -0.0482351 0.142847 -0.287143 0.444115 -0.0958296 -0.945328 0.915525 -1.10391 -0.159479 -0.0484664 0.365977 0.371868 -1.25902 0.399929 0.488329 
0.808449 -0.683729 0.144402 0.769329 0.667203 0.782967 -0.573033 0.0881278 0.674154 0.193179 -0.0271927 1.02569 -0.901178 -0.398094 0.658206 0.204988 -0.480543 0.443757 -0.660843 -0.214857 -0.676645 -0.437948 -1.42139 -0.729225 0.270435 0.0875868 0.869396 -0.0264782 0.489925 -0.00204178 -0.669442 -0.202195 0.571708 0.663857 -0.56479 0.849064 -0.134015 -0.864639 -0.773156 -0.893168 0.178366 0.609616 -0.932604 0.732405 1.02059 0.87543 -0.078111 -0.183516 0.0413163 0.150652 -0.10462 -0.534285 -0.90249 0.287011 1.50927 0.153675 0.42395 -0.0714658 -0.321448 1.27615 -0.525291 0.153452 -0.159366 -0.873585 -0.321916 -0.27383 0.753318 0.705277 0.479669 1.05972 0.252175 -0.509629 0.0946945 0.0858174 -0.557232 0.768932 0.496525 -0.0294161 -0.315593 0.364687 -0.323084 0.871892 -1.07376 -0.0125596 1.02539 1.13165 -0.715118 -0.812724 -0.167395 0.517566 -1.09211 0.726029 -0.400164 -0.258257 -0.533419 0.488364 -0.00984652 0.117038 0.244344 -0.336999 
0.858722 -0.22131 0.103363 0.540982 -0.130374 0.378563 -0.578162 -0.783023 -0.792096 -0.0591389 0.289535 0.289863 -0.593801 1.09953 0.509248 -1.39241 -0.0359627 -0.260822 -0.0581075 -0.32578 0.790628 -0.826595 -1.33466 -0.526436 -0.0192887 -0.562645 -0.649517 -0.483425 0.718062 0.170355 -0.266956 0.364009 -1.24196 -0.846231 -0.236388 0.916534 0.379216 -0.513671 0.262305 0.0188858 0.978767 -0.463201 -1.14941 -0.0997715 -0.606373 0.878503 -0.830721 0.699521 -0.450676 -0.314321 -0.992534 -1.45895 0.549318 -0.952926 1.28005 -0.895804 0.513948 0.169351 0.512113 0.625842 -0.449925 -0.41466 1.53141 -0.348053 -0.209305 -0.0622398 0.886149 1.09196 0.687836 0.309683 0.0751123 0.161158 -1.13402 -0.340928 1.1963 -0.257056 -0.381043 -1.17024 -0.682742 0.790969 -0.0548637 0.299135 -0.736695 -0.294994 1.32162 0.833556 0.251069 -0.821471 -0.113361 -0.0833188 -0.262198 0.803435 0.934845 -0.472512 -0.484721 -0.161295 -0.114917 0.498712 0.370985 -0.255401 
0.224466 0.708777 0.795924 0.400461 -0.144075 0.694769 0.449463 -1.23746 0.288352 -0.888423 0.753062 -0.0324084 -0.501082 1.25958 -0.538725 -0.890412 -0.335782 -0.801824 0.393471 1.10254 -0.14809 0.326361 -0.165091 -0.133255 -0.999807 0.667075 0.50943 0.305522 0.322899 -0.637142 -1.17836 -0.654258 -1.173 -0.915665 0.894706 0.934262 1.07394 -0.190452 0.169846 0.233321 0.621755 -0.435949 0.0684154 -0.188397 -0.236124 -0.679408 -0.826035 -0.951068 -0.758957 -0.0877109 -0.908159 -0.862215 -0.0547811 -0.0278846 0.229203 -0.574065 0.524362 0.580074 -0.317881 0.476233 -1.05252 0.234141 0.262942 -0.793621 0.555487 0.345188 0.482629 0.565022 1.31164 -0.297243 0.112021 0.127922 0.768854 -0.76083 0.832899 -0.0374843 -1.24217 0.632919 -0.314035 -0.0125068 -0.0225924 0.56605 -0.516624 0.65266 0.587675 0.0341944 -0.758268 0.634437 -0.288798 0.281126 0.625279 -0.0632266 0.0296528 -0.208201 -0.275706 -0.254111 0.0864599 -1.27473 0.0974945 0.382069 
-0.173299 -0.0461596 -0.683995 -0.211205 0.383129 0.807288 0.0847875 -1.31085 0.458075 -0.409201 0.229559 -0.116368 -0.253742 0.429461 0.567944 0.659854 0.215072 -1.17702 0.480511 1.23221 0.44141 0.204774 -1.17339 -0.269718 0.73943 -0.0688523 0.0581303 -0.241693 0.0578682 0.653849 -0.77332 0.496591 -0.508333 -0.0392476 -0.222693 -0.339205 0.509197 0.197456 -0.834824 -0.192557 1.32687 -0.195331 -0.532965 -0.00170055 -0.589553 -0.23177 -1.35829 -0.624655 -0.53291 -0.0180023 -0.751062 -2.10867 1.4241 -0.36651 0.550763 0.551615 0.822414 -1.0786 -0.475712 0.419204 0.579687 -0.98069 -0.917787 -0.776951 0.463548 0.112039 -0.666563 -0.475458 1.9276 -0.341274 0.326117 0.506699 0.865845 -1.07293 -0.578168 0.00360768 -1.24226 -1.06772 -0.350535 0.581237 0.345339 0.74768 0.893637 0.267188 1.73778 0.0259807 -1.21291 0.322392 -0.371996 1.1405 -0.256273 -0.183842 -0.720653 0.706577 -0.292945 0.179485 0.832554 -0.205584 -0.73532 0.821454 
0.414543 0.0483601 0.0160021 0.548052 0.54299 0.321763 -1.00354 -1.10858 0.198499 0.503034 1.06392 0.244128 0.801177 0.419501 0.441675 0.808028 -1.15126 -1.00852 -0.245788 0.0583013 -0.90753 1.20812 -0.631757 -0.0676546 0.409537 0.206712 0.591516 -0.143608 -0.782195 1.02849 -0.132375 0.407595 -0.0435574 -0.793609 0.592445 -0.64549 1.04375 -0.0347976 -0.380936 0.615147 -0.238259 -0.920667 0.405546 1.01675 -0.883511 0.735412 0.290456 -0.238821 0.38888 0.817842 0.165112 -2.33039 1.42995 1.49601 -0.142044 0.0768178 0.184602 -0.819395 -1.27408 0.985353 -0.711813 0.609887 -0.268253 0.313973 -0.7859 1.29112 0.334827 -0.94268 0.8653 -0.571774 0.356127 -0.408946 -0.111802 0.00422087 0.0839128 0.802368 -0.699636 -0.795537 0.292598 -0.0707411 -0.149678 -0.00252424 0.16161 -0.708269 0.510165 1.2123 -1.18308 0.722544 -1.33946 -0.876978 -1.22771 -0.334575 1.02981 0.432925 0.223881 0.358805 0.258547 -0.0951186 -1.07719 -1.18387 
0.209337 0.513917 -0.0377314 -1.1209 0.575912 -1.10677 0.353364 -0.872733 -0.761524 0.431306 1.08327 0.519461 -0.182822 -0.380564 0.346851 0.724316 -0.365167 -0.336599 -0.393259 -0.0780542 -0.323978 0.226057 -0.592068 0.525962 -0.655855 0.861145 -0.653469 0.346976 -0.210721 0.00238839 0.706798 0.733506 -0.599625 -0.210969 1.29467 -0.0489055 -0.197629 0.11962 -0.848219 1.23645 1.58861 -1.33202 -0.770738 -0.520567 0.107436 -0.165634 0.883061 1.21536 -0.648577 -0.826343 -0.576512 -2.15621 1.17375 0.85833 0.257266 -0.788754 -0.211588 -0.00317974 -0.334278 0.921439 1.41403 0.206527 -0.0334628 -0.363019 -0.584852 0.360629 -1.30652 0.187896 -0.0846773 -0.405393 -0.187742 0.381322 -0.733905 -1.35716 -0.541856 1.47813 -1.4296 -0.811386 0.436564 0.274151 0.24698 1.1168 0.493501 -0.469395 0.919622 -0.0401789 -2.60091 1.0088 -0.357084 -1.16842 -0.72064 0.856821 1.11381 -0.436925 0.26854 0.333117 0.449952 -0.845038 -0.0382689 -0.0416485 
-0.429872 -0.659123 0.0627828 -0.0589817 -0.116125 0.359087 0.0748537 -0.454177 -1.13464 0.31079 -0.084552 0.507409 0.66559 -1.30289 0.657699 0.0660209 -0.463356 -0.743571 -0.866258 1.2867 -0.659258 0.333603 0.0877806 0.386823 0.0701686 0.439572 -1.12309 -0.988369 0.313151 1.03001 0.525128 0.936196 -1.00747 -0.43346 0.986529 -1.33547 -1.09848 -0.562255 0.627246 -0.0500207 0.389034 -1.12678 0.184001 -1.02752 -0.508437 1.16995 0.0866831 0.416118 -0.163279 -0.263218 -0.452923 -1.55685 -0.152379 1.63719 0.0875227 0.780245 0.14745 -0.416584 -0.240882 -0.103123 -0.380901 0.14604 -1.16558 -0.171854 -0.785969 0.650212 -0.590052 -0.960682 1.35994 -0.292947 -0.29087 -1.04027 -0.338966 -0.599065 -0.195946 1.41986 -1.25978 0.259888 -0.293731 -0.844328 0.033602 0.357416 -0.389212 0.407423 1.06003 1.13954 -2.57165 -0.160357 -1.92451 -1.07805 -0.847287 -0.328089 1.57587 0.411417 -1.49057 0.598984 -0.0300255 0.477524 -1.05758 -1.01979 
-0.550696 0.225783 -0.327173 -0.109793 -0.800929 0.0881185 0.288389 -0.714713 0.457728 1.74814 0.410858 -0.645417 -0.808417 0.513705 0.238652 1.31597 0.520054 -0.657646 1.01555 0.790648 -0.639375 -0.0430259 0.186169 0.42859 0.411694 1.12308 -1.18605 0.469119 0.283926 0.180122 -0.758993 0.913327 0.42482 -0.187469 0.943468 -0.780341 -1.22659 -0.432472 -1.20493 0.85048 1.9582 -0.104357 -0.999743 -0.813504 -0.0570498 1.2444 -0.652962 -0.508716 0.0695821 -1.38757 0.102652 -1.3765 0.220046 0.438075 0.145134 -0.350981 -0.48339 0.0609986 -1.7694 -0.607488 1.0161 -0.760632 -0.279451 -0.0753759 0.594324 -0.474671 -1.48477 -1.19142 0.716435 -1.21001 0.574395 -0.198379 -0.283525 -1.28973 0.670197 1.79852 0.327945 -1.53919 -0.659222 0.832863 -0.614904 0.495294 -0.857071 0.733114 -0.0875983 0.838633 -1.33457 0.861034 -2.00464 0.22318 -0.196846 0.593582 -0.024428 0.112717 -0.474657 1.03308 0.763528 0.562577 0.569333 -0.538838 
1.04762 1.04329 0.818052 -0.789859 0.930059 0.46351 -0.238013 1.0388 1.49895 1.31841 1.40991 -1.18565 -1.37716 -0.434644 0.567515 0.43319 0.8069 0.453263 1.0508 0.897107 -0.412747 0.134112 -0.919723 0.828446 0.49046 -0.759389 -0.178793 -0.667419 0.986917 0.509937 0.472098 1.27298 -0.365827 0.00741099 0.382202 -1.78133 -0.69455 1.13868 -1.16817 -0.318382 0.774122 -0.28368 0.379815 -0.345366 -0.237594 0.207957 0.934915 -0.525159 0.648697 -0.477263 0.285248 -0.84865 -0.693814 0.187729 1.24016 0.519427 -0.00546566 -0.276877 -1.54675 0.266052 1.90579 0.533982 -1.31678 -1.07648 0.549433 -0.121901 -0.991628 -0.263285 1.19142 -0.596327 0.421239 -0.963946 -0.261069 -0.0110359 0.417891 1.61305 -1.27364 -0.209967 -0.20979 -0.51952 -0.344622 0.96583 -0.505253 0.997266 0.183353 0.59448 -1.48789 1.75757 -0.265572 -0.535571 0.034335 0.655797 0.161942 0.739382 -0.818991 0.159789 0.0620838 0.567251 -0.121735 -0.636618 
-0.565057 0.957895 -0.0930446 -0.25108 -0.284782 -0.530963 -0.124224 0.431945 0.082361 1.58699 0.813081 -0.814366 -0.614738 0.0874926 -0.425968 -0.1404 0.601539 0.10467 1.45256 0.349109 0.492588 0.0825368 -1.82704 -0.0816999 -0.228221 -0.320901 -0.146277 -0.293419 0.116548 -0.567783 -1.07759 0.710037 0.457811 -0.287229 0.352421 -1.8668 -0.150221 -0.485831 -0.345569 -1.59041 1.45082 0.337574 0.116332 -0.54208 0.808866 0.359201 0.233779 0.0852088 0.836999 -0.661941 -2.08602 0.557782 0.692572 -0.18969 0.204137 -1.27531 0.643387 0.178082 -0.0685646 0.364663 1.8713 0.352448 -1.86507 -0.475597 0.192814 -0.797198 -0.156554 0.170446 1.44071 -1.20743 -0.409395 0.120483 -0.216815 -1.44098 -0.967052 0.502602 0.207741 -0.242447 1.46224 0.756724 -0.646083 0.787056 -0.773324 0.654783 -0.39933 1.25378 -1.07857 0.355201 -0.879013 -1.27305 0.616138 -0.144643 -0.959869 0.228627 -0.435601 1.21422 -1.008 -0.760762 -0.433436 -0.915856 
-0.775969 1.67627 0.433776 0.10549 1.28045 -0.539298 -1.65256 0.730587 0.0124646 1.53152 0.175497 -1.16447 -0.0937392 -0.404877 0.77649 1.40097 0.40459 0.87318 1.2405 -0.238899 0.775352 0.0836524 -1.49428 -1.10247 -0.55772 -1.8097 0.0366493 -0.854797 -0.354619 0.666284 -0.390842 0.0392116 0.301689 -0.515644 -0.522345 -0.0244209 -0.518686 -0.487967 -0.317621 -0.463969 -0.296072 -0.307462 -0.679367 0.512407 -0.335288 0.132018 0.518806 0.881987 0.0574936 -0.337642 -2.47713 0.0910251 -0.623067 0.139573 0.7431 -0.728467 0.31275 -0.964671 0.41469 1.5239 0.0776094 -0.906927 -1.18803 0.580964 0.678057 -0.479941 0.589436 0.310652 -0.418669 -0.88642 -1.00813 -1.10235 0.0219068 -1.40657 -1.39163 1.00859 0.997635 -0.460646 0.852079 0.406038 -0.148544 0.63459 -1.92783 0.987005 -0.172026 0.698723 -0.723065 0.298772 0.0691341 0.266926 1.67409 1.34953 -0.618318 -0.565868 0.429355 0.601513 0.278855 0.199779 1.16176 0.779466 
-1.23519 0.290018 -1.21183 0.143776 0.0912595 -0.342629 -1.71491 -0.0905698 0.0842558 1.40727 0.506651 -0.865221 -0.531489 0.718215 -0.135165 1.01761 -0.798667 -0.189545 0.357673 -0.563985 -0.361906 -0.170797 -2.11995 -0.440099 0.466988 -1.76315 -1.2564 0.149999 0.664571 0.635701 -0.133247 0.598089 -1.12846 0.613355 -0.31852 0.0342804 -1.27042 -0.627026 0.335909 -1.23431 0.857219 0.668192 0.819575 -0.851262 0.130087 -0.89516 0.384748 0.585556 -0.0305502 -0.465535 -1.09451 0.609382 -0.954184 -1.55886 0.454198 -1.05127 -0.435774 -0.290661 0.774836 1.11579 0.654533 -0.710354 0.0166168 -0.0845791 -0.22875 -1.12753 -0.855496 0.758028 0.224459 -1.45814 0.892352 -1.00353 1.09961 -0.560399 -0.800116 -0.149756 1.1845 -1.78783 1.67049 0.174406 0.0847383 1.32782 -1.17065 0.415342 -0.825325 1.10567 1.44744 0.437956 -0.74492 -0.151984 0.0439606 -1.01412 -0.867402 1.15739 0.362592 1.84448 0.538882 0.545943 0.862884 -0.347617 
-1.6039 1.3497 -0.0253441 1.03529 0.128353 -0.385591 0.255037 0.0139417 0.418928 1.9438 0.215677 0.546566 0.888351 0.747142 0.628584 1.22349 0.174235 0.653438 -1.12622 -0.466254 -0.167462 -1.04416 -1.46586 -0.529661 -0.970703 0.188874 -0.0173069 -1.02157 0.777418 -0.2161 -0.690338 0.519315 -1.07878 -0.565959 0.808014 0.905006 -1.18776 -0.304438 -1.29621 -0.843585 -0.512564 0.524929 -0.265818 -0.647335 0.318829 -0.997813 -0.9204 -0.119406 0.360654 -0.364932 -1.13637 -1.3043 -0.270957 -0.299612 0.859576 0.0192078 1.10801 -0.254396 0.326684 0.513982 1.60294 -1.78112 0.0504286 -1.16751 -0.811697 -0.736748 0.0966313 -0.477636 0.538369 0.0745471 0.161163 -1.48899 0.649453 -0.513514 -0.83158 -0.0637302 -0.656884 -1.32074 1.08987 0.861449 -0.447105 0.57719 0.529174 0.482328 0.0116035 1.05508 0.631581 -0.0710774 -0.943952 -0.740547 1.07404 -0.741646 -1.30386 0.319043 0.00239448 0.737839 -0.403872 -0.718964 0.617816 -0.772579 
0.171855 0.125122 -0.595136 0.54418 -0.457938 0.32955 0.33252 -0.332706 1.3986 1.26701 -0.884454 -0.498632 -0.123715 0.462725 -0.124273 0.165716 -0.172264 0.81182 -0.34701 1.26856 0.879577 -0.331986 -1.21292 -1.55755 0.508427 -0.541653 -0.42285 -0.410558 0.272034 -0.721525 -0.81381 0.0400621 -0.638503 0.307571 0.224402 0.921538 0.438809 0.766918 0.612386 -0.036106 -0.551328 0.684061 0.978114 0.463533 0.314565 -0.909757 -0.862372 0.247769 0.54912 0.586466 -1.47452 -0.356346 -0.299118 -1.31919 0.962961 -1.01044 1.18775 -0.673503 -0.171697 0.448089 0.196646 -0.0888763 -0.129869 0.00631077 -0.33777 -0.504557 -0.483356 -1.01328 -0.385107 -0.581624 0.27433 -0.340945 0.204405 -0.686714 -0.644932 -0.715865 0.327427 -0.835619 0.768496 0.537177 -1.0804 1.15457 -0.295853 -0.199518 -0.317712 -0.276069 0.380806 -0.336269 -0.799571 -0.750026 0.439693 0.903459 0.296235 1.21175 0.639203 -0.362472 -0.971206 -0.975677 -0.0140785 -0.362096 
-0.450565 0.984911 1.05637 1.02273 0.0603128 -0.313617 0.638891 -0.567309 0.753517 0.481856 0.269913 1.1382 0.435969 -0.790983 0.255297 0.370252 -0.932844 -0.809845 0.171069 0.367854 -0.644097 0.117609 -0.79473 0.0401343 -0.145878 0.629274 0.43494 0.49758 0.919358 -0.742163 0.235289 -0.219975 -1.13747 1.03126 0.729382 0.627981 -1.25001 -1.09196 0.677067 0.357 -0.548642 0.162898 0.812042 0.780126 -0.00927416 -0.897987 0.36145 0.500206 -0.972807 -0.163647 -1.24176 -0.96562 -0.55784 -1.25075 -0.779038 0.45568 0.0690201 0.49259 -0.121951 0.0795109 -0.770909 -0.490965 1.25906 -0.962952 -0.0872845 0.667452 0.544992 -0.818479 0.726737 0.490505 -0.677187 -0.813378 0.38671 -0.0917408 -0.627536 0.778129 0.195714 -0.01074 0.523662 1.47565 -0.250173 0.821462 -0.624454 0.322488 -0.496138 0.0565985 -0.220769 0.100236 -0.984609 1.00958 0.254595 0.168617 0.289074 -0.0063603 0.207462 0.665298 -0.322958 -0.467893 -0.648319 -0.0567714 
-1.29607 -0.863994 0.929228 0.173744 1.08578 -0.246693 -0.743065 0.295466 -0.943813 0.620345 0.417602 0.376802 0.60941 0.815482 -0.696792 0.263296 -0.702116 -0.278616 -0.57843 0.0168499 0.0241633 -1.30925 0.324926 -0.336245 -0.217662 -0.688794 -0.742749 -0.613371 0.014955 -0.192122 -0.911742 -0.0301334 -0.0570736 0.084858 1.78704 0.279383 -0.180536 -1.06456 -0.355035 0.119752 0.366049 -0.430065 -0.946392 -0.14394 -0.672029 -0.997308 -0.661097 -0.516024 -0.221273 -0.630737 0.164668 0.415533 -0.568409 -0.620107 0.19797 -1.11877 0.786726 0.756967 -0.909922 -0.120144 -0.543829 0.333002 1.22727 0.213645 -0.952664 0.388 -0.124071 -0.245854 0.434398 0.629743 -0.325184 -0.457473 1.6714 -1.21897 1.04397 -0.686694 -1.2728 0.328241 0.413596 1.27539 -0.257901 -0.214876 0.0223847 0.547752 0.722823 -0.104206 0.139667 -0.00664166 -0.98323 0.785328 0.319842 -0.0772147 0.251138 -0.106299 -0.239946 0.482299 -0.742862 0.405112 -1.04456 -0.950137 
-0.322479 -1.10999 -0.000621918 0.150152 -0.109554 0.324784 0.112071 0.00723051 -0.338646 -1.09805 -0.0760873 1.02665 0.16155 -1.25554 -0.0141485 -0.984078 -0.680875 -0.964993 0.32282 -0.766206 1.06144 -0.845312 0.521289 -0.604202 0.376565 0.97973 0.492287 -0.548896 -0.0874619 0.776934 -1.45828 -1.20317 -0.942253 0.536021 0.267866 -0.145832 -0.68655 -0.836206 -0.689445 0.268667 -1.02383 0.234352 -0.459487 -0.145604 0.352738 0.672502 0.158246 0.908235 0.714005 -0.668943 -0.860455 0.819088 -0.485187 0.345636 -0.581763 -0.454419 0.263583 -1.0866 0.0303305 -0.582894 0.790111 0.434579 -0.537328 0.515635 -0.304407 0.356563 -0.475652 -0.203347 -0.00747235 -0.047067 -0.216453 0.00300714 -0.230147 -0.110522 -0.697113 0.681052 -0.735746 -0.0938167 0.767277 0.291961 0.611327 0.984247 -0.40205 -0.620646 0.306717 0.0523004 -0.0251296 -0.559615 0.0517235 1.40921 0.0215623 -0.339306 0.17096 -0.0308705 -0.549955 0.998163 -0.743786 -0.00705646 -0.196243 0.936718 
-0.978859 -0.19664 -0.226873 -0.354784 -0.71975 0.264234 -0.713109 -0.0727577 -0.72582 0.522144 -0.751427 -0.701039 0.678103 -0.143025 -0.570243 -0.528277 0.781535 0.472903 0.0183927 -0.194884 0.61063 0.643238 0.874676 -0.221471 -0.289176 -0.659 -0.459433 0.434187 0.111739 0.247508 -0.254815 0.384897 -0.563986 -0.967278 1.05125 -0.372098 0.481249 -0.725285 -0.818134 0.761212 0.731988 -0.885074 0.816803 0.0161172 -0.146239 -0.567734 0.666745 0.0657364 0.738872 -0.159676 0.756047 0.618546 -0.678796 0.361054 -0.940943 0.326793 0.360643 -0.499136 -0.260578 -0.327743 0.968719 0.866859 -0.78252 -0.846459 0.88695 -0.924454 -0.0497359 0.0541104 -0.860556 0.146576 0.410899 0.765963 0.540972 -0.00833414 0.0926041 -0.614851 0.227115 -0.47533 0.309298 0.463591 0.450471 0.182987 -0.113712 0.893664 -0.312694 -0.313319 0.18117 -0.912039 0.419859 -0.672061 -0.0706107 0.0230577 -0.948575 -0.0264285 0.386443 0.91547 -0.18013 -0.57027 0.212096 0.662407 
0.498941 -0.789731 -0.0306035 -0.117513 0.318979 -1.00989 0.318073 -0.162198 -0.261838 -0.391014 -0.737247 -0.780234 0.703825 0.116682 -0.83578 -0.824914 0.951168 0.538972 -0.755067 0.314409 0.783536 0.0147457 -0.556772 0.796201 0.943788 0.784408 0.728242 -0.0480592 -0.902974 -0.157824 -0.962123 0.579442 0.0985478 0.0546513 -0.455438 -0.555093 0.133485 0.870048 0.291187 0.843312 -0.507678 0.545482 -0.889673 -0.830488 -0.367983 -0.728835 -0.638755 -0.345498 0.821248 -0.369661 0.905434 0.634956 0.694318 -0.675727 0.397754 0.584949 -0.931389 0.134675 -0.462047 -0.817825 0.976227 -0.39644 0.778132 0.122329 0.652297 -0.641135 0.51206 -0.253602 -0.869998 -0.209463 -0.326449 -0.346999 -0.660401 -0.250936 -0.162551 -0.0395739 0.010235 0.174502 0.541797 -0.131173 0.846605 0.486734 -0.49989 0.469083 0.854723 0.91631 0.0617575 0.909844 0.033223 0.560422 -0.927192 0.00674639 -0.777225 0.880819 -0.87053 0.874647 -0.831222 0.635583 -0.374124 -0.623767 
-0.580285 0.276601 0.00304631 -0.322041 -0.969255 0.786449 0.709734 0.11071 0.0107222 0.272193 0.936503 -0.148368 -0.255479 -0.568405 -0.68077 -0.429322 -0.651361 0.362195 -0.535979 0.394097 0.00042097 -0.458126 -0.580392 0.223455 -0.596468 -0.482197 0.0836084 -0.421278 -0.853257 0.707155 -0.0797351 -0.449419 -0.0161832 0.925179 0.321037 0.012693 0.751214 0.0153867 -0.928985 -0.21322 -0.712433 -0.995255 0.637594 0.0325384 -0.553596 0.956086 0.60057 -0.190472 0.350933 -0.922667 -0.828055 -0.657704 -0.284841 -0.397737 0.58445 0.0162211 0.130872 -0.335884 0.595892 0.263051 -0.617874 -0.481048 0.822261 0.423451 -0.564691 0.194677 -0.623763 -0.800916 -0.909307 -0.549296 -0.0164001 -0.569405 -0.538427 -0.377118 0.469697 -0.0947426 -0.420468 0.0792621 0.673966 0.935834 0.17327 0.879081 -0.700838 0.772453 -0.53168 0.890297 -0.212228 0.605282 -0.43501 -0.646834 -0.151018 -0.0487811 -0.0861686 -0.305374 -0.690075 0.357497 0.830639 -0.311219 0.556714 0.954361 
0.138235 -0.457217 -0.608207 0.599816 0.166227 0.861504 -0.495237 0.745757 -0.0592356 -0.798283 0.677355 -0.902332 -0.915357 0.976525 0.874089 -0.430707 0.866822 -0.327794 -0.825424 -0.567985 0.0670118 0.042911 0.379349 0.980842 0.733285 0.690427 0.338697 0.551351 -0.622057 -0.104374 0.512497 0.516178 0.43841 0.904289 0.115994 -0.395363 0.765793 0.620757 -0.649606 -0.293442 0.822474 -0.97225 -0.195774 0.907117 -0.995725 -0.321685 -0.52359 0.871097 0.35052 -0.349014 -0.696888 -0.582468 0.693897 0.682461 -0.601626 0.427182 0.372888 0.737071 -0.0214668 0.75083 -0.367303 -0.50897 0.267008 -0.928893 -0.604681 -0.616998 -0.324256 -0.838888 -0.996241 0.026138 -0.13233 0.826234 0.0538877 0.671896 0.73335 0.0581626 -0.649789 -0.790239 -0.0707405 0.700731 -0.139253 0.232372 -0.881737 -0.445357 -0.0851671 -0.483362 0.981825 -0.71228 -0.746291 -0.0396413 -0.961449 -0.113594 0.451389 0.305559 -0.0424877 0.846708 0.688562 0.633256 -0.99218 0.692321 
-0.33779 -0.129091 0.513106 0.722174 -0.449008 0.237684 -0.226142 -0.0796254 0.476405 0.69038 -0.403665 -0.66952 -0.0651382 -0.282307 -0.125425 0.843797 0.217649 -0.130689 -0.876184 0.494042 0.821324 -0.823218 -0.636598 0.250556 0.47315 0.318548 0.114656 0.166608 -0.0417838 0.128616 -0.148269 0.625499 -1.00059 -0.616274 0.337614 -0.436583 0.628869 -0.894997 0.455991 0.0961947 0.803637 -0.95347 0.417493 -0.25609 -0.246585 -0.714253 -0.39865 0.979068 0.153289 -0.270143 0.476341 -0.0342379 -0.123959 0.845125 -0.763495 -0.6097 0.187168 0.365812 0.552004 -0.848652 -0.525743 -0.58603 0.786493 -0.521902 -0.210362 0.12061 0.0299811 -0.587761 0.183686 -0.510372 0.501596 0.0223782 -0.481742 -0.0790496 0.770786 0.286765 0.228275 -0.638828 0.292033 -0.617963 0.0893948 -0.241448 0.350726 0.991404 -0.386733 0.581805 -0.609388 0.79729 -0.060409 0.918109 0.944254 0.435289 -0.666832 0.71366 0.906292 0.110946 -0.183649 -0.065618 0.53627 -0.976657 
0.388801 -0.0572563 0.0618469 1.08298 0.865415 -0.333121 0.281724 0.214812 0.0740879 -0.710383 0.435451 -0.68944 0.339168 -0.0629507 -0.834186 0.749824 -0.685317 -0.140215 0.503294 0.497648 -0.387886 0.625037 -0.219228 -0.337665 0.231676 -0.284986 1.00989 -0.983884 0.673592 0.636251 -0.867153 0.119904 -0.555019 0.406547 0.0484786 -0.334917 -0.946851 -0.892903 0.822158 0.215001 -0.434256 0.243567 0.579174 -0.980079 -0.833108 0.769424 1.06781 -0.517391 -0.413418 0.563932 -0.875964 -0.101315 -0.13399 -0.373753 0.973253 -0.392554 0.634376 0.906549 -0.364357 0.230409 0.152011 -0.175519 -0.493008 0.795873 -0.917461 0.435268 -0.64835 -0.93636 0.358794 -0.812529 0.384373 -0.617755 0.281273 -0.0213422 -0.531514 0.44126 0.0282788 -0.728578 1.04886 0.610593 0.883776 1.07031 -0.496354 -0.0272553 -0.156509 -0.814995 0.72738 -0.609855 -1.01987 -0.94377 0.598444 0.456132 -0.115412 -1.05893 0.261251 0.0935116 0.349143 0.602256 0.133961 -0.0339401 
0.603207 -0.689788 0.524119 0.271127 0.566207 0.878338 -0.500807 -0.574568 -1.11911 -1.1152 0.554499 -0.963937 -0.586074 -0.621711 0.0104764 -0.43691 -0.773387 0.184218 0.0248337 -0.235015 -0.0963588 -0.156191 -0.897259 0.146936 -0.16467 0.556665 -0.469124 -0.955656 0.236062 0.745004 0.420664 -0.247814 0.892214 0.392175 0.555492 0.884291 0.0173286 0.557336 -0.548853 -0.0565734 -1.47405 1.11238 0.439808 -0.600258 -0.594792 -0.60498 0.737125 -0.357746 -0.0579678 -0.458606 0.85261 0.0496188 0.467301 0.0322946 -0.222935 0.0203191 0.162081 0.175621 0.161465 0.808164 -1.04111 0.0895427 -0.200251 -0.967748 0.839955 -0.732101 1.12592 -0.241607 -0.978127 1.0634 -1.08813 -0.739124 1.09182 0.285719 -0.327294 -0.674455 1.07088 0.496705 -0.0234706 -0.052567 -0.160785 -0.254718 0.863621 -0.845209 -0.799695 -1.04437 0.871743 0.0408953 0.0681639 -0.56319 -0.208296 0.733879 0.0899936 0.329402 1.01806 0.944423 0.927042 0.682746 -0.845249 -0.949286 
0.653946 -1.20027 -0.823872 1.34182 0.501561 0.117883 0.771508 0.344038 -0.644883 -0.556028 0.0907532 0.424864 0.42207 0.597414 0.698775 -0.279379 0.404422 0.92238 -1.08466 0.0158258 1.05171 -0.231511 -0.336489 -0.189002 -0.327006 -0.00343217 -0.424811 -0.847496 -0.243172 -0.18473 -0.594711 -0.714734 -0.244566 0.427581 0.589241 0.028916 -1.11028 0.208668 0.907005 -0.628014 -1.72346 0.619246 -0.541276 0.644415 -0.259851 -0.6764 0.437058 -0.419335 0.492134 -0.386919 0.971445 -0.301824 -1.06115 -1.25324 1.07728 0.372988 0.149606 -0.312894 -1.16403 0.126703 -1.0378 0.263946 0.681279 -0.154609 -0.846699 0.467175 0.872132 -0.944991 -0.0648087 -0.0412098 -0.257734 0.460752 -0.720382 0.248556 0.240128 -0.0728458 1.40869 0.111091 0.212821 0.198073 -0.31811 0.413149 0.901456 -0.312191 0.63994 0.410428 0.215525 -0.673213 0.664462 -0.62359 0.678212 -0.505227 -0.272698 -0.0514681 0.591131 1.10632 0.143409 -0.320645 0.487062 1.08419 
0.637542 -1.17562 0.329555 2.1451 0.822415 -0.501739 -0.426245 0.854961 0.294503 -1.12543 -0.857702 -0.247174 0.414254 0.3968 0.465475 -1.05134 -0.635045 0.0633325 -0.721047 -0.84424 0.322947 -0.540873 -0.638316 1.18202 -0.896086 -0.446063 0.605612 -0.499948 0.447181 -0.0513053 -0.337514 -0.110624 0.40649 -0.208227 -0.581795 1.08398 -0.629015 -0.109156 0.233226 -0.882878 -0.721221 1.17989 0.0842003 -0.335464 -0.576359 -0.148146 0.392966 0.434347 0.129578 -0.285034 1.31324 0.152175 -1.05969 -1.27692 1.00609 -0.364433 0.153901 0.641788 0.892677 0.411915 0.182969 0.206738 0.00551737 -0.335741 0.798628 0.479337 -0.211997 -0.983052 -0.518151 -0.0107564 -0.620958 -0.851065 -0.19918 0.438819 0.106356 0.470667 0.304605 0.192412 -0.214711 0.61652 -0.306289 -0.0289301 0.327611 0.158673 0.467592 0.426521 0.103468 0.680707 -1.0428 -0.834001 0.769013 1.04579 -0.593925 -1.35502 0.0481189 0.472986 0.807606 -0.216508 -0.0304303 -0.584 
-0.735179 -0.536242 -0.342814 1.16246 0.287222 0.290803 -0.573875 0.484346 -0.931993 -0.097535 -0.0357855 1.59619 0.87463 1.07536 0.285889 -0.791244 -0.61374 -0.110409 -1.35154 -0.452993 -0.187161 -0.8875 -1.0934 0.736181 -0.516115 1.04712 1.22602 -1.63338 0.333911 -0.404556 -1.11315 0.0401789 -0.757587 0.285387 0.68671 1.24759 0.47336 -1.54036 -0.217786 -0.825051 -0.880142 -0.554346 -0.723056 -0.537805 0.296439 1.13823 0.139607 -0.812279 -1.36467 -0.850027 0.512961 -1.99574 -0.517505 -0.396639 1.37591 0.638575 1.07726 0.891142 0.948224 -1.25044 -0.983296 -0.823685 0.888471 -0.851704 0.230737 0.125643 1.3545 -0.41405 -0.192724 -0.625879 -0.437852 -1.37972 -0.472676 -0.207299 -0.00144489 -0.343429 0.519623 0.0876966 0.143805 -0.184165 -0.848498 1.33226 -0.0463553 -1.53168 1.0515 0.399039 1.35763 -0.639095 -1.10463 0.240963 -0.0136872 -0.258646 -0.14429 -1.56859 0.0741382 -0.270467 -0.196988 -0.933124 -0.122091 0.836007 
0.133147 -0.149315 0.896053 1.70672 0.18245 -0.569569 -0.372831 0.445485 0.616228 0.155177 -0.515179 0.677758 -0.290483 -0.251495 -0.0986922 -1.3431 -0.517679 0.412076 -0.705079 0.0897776 -0.410635 -0.883184 -0.581052 1.78548 -0.761059 -0.172279 -0.408376 -0.637075 0.861741 -0.363483 -0.609713 -0.604055 -0.65372 -0.321609 1.12168 1.34381 -0.573674 -1.43496 -0.181008 -0.421113 -0.504226 0.942304 0.56111 0.605267 -1.28592 -0.195771 0.745239 -0.387125 -0.131462 -1.30628 -0.789166 -0.861379 -0.850928 -0.693953 1.85693 -0.136495 0.374382 0.413034 -0.621638 0.0304067 -0.58563 -0.295213 1.62706 -0.383247 0.637402 0.96758 0.276891 1.43571 0.981756 0.245363 -0.904406 -0.128466 -0.0873365 -1.18752 0.475971 0.897744 -0.00579214 -0.649435 0.501311 0.838438 0.274256 0.578842 -0.217861 -0.769368 0.393088 0.249231 1.10587 -0.406749 -1.15785 0.506338 -0.502154 0.286794 -0.590071 -1.08902 -0.510837 0.678727 0.427706 -1.08948 0.875916 0.374198 
-0.596332 -1.1603 -0.511831 1.76766 -0.229589 0.72415 0.458126 -0.0662366 -0.76567 -0.444971 -0.0238497 1.42301 -0.444233 0.0270618 -0.497612 -0.19301 -0.314108 -0.300828 -1.02523 0.743301 -0.849845 0.320237 -1.8771 0.680555 0.482206 -0.194322 0.0726955 -0.175098 0.90717 -0.846635 -0.582365 0.372684 -0.667177 0.308584 0.494275 1.87517 -0.509984 -0.928927 -0.455679 -0.224102 -0.411653 0.857401 -0.452337 0.307486 -0.831916 0.441417 -0.486483 0.50906 0.860103 -0.451152 -0.347624 -0.262463 -0.401156 -2.38387 1.64799 -0.959135 0.591278 0.622943 -0.49781 0.361905 -0.734569 0.00360681 1.00879 -0.378673 -0.293309 1.7357 0.657114 0.933044 0.473023 -0.0315301 0.311766 0.472234 0.0941992 -0.888266 0.675484 -0.621105 0.300486 0.399085 1.48029 0.424814 0.588544 1.09849 -0.927949 -0.154476 1.41418 1.08661 0.637791 0.210433 0.453411 -1.01931 0.595485 -0.436754 0.233836 -0.885169 0.629128 0.821756 -1.04076 -1.63146 0.36324 -0.38128 
0.72272 -0.342314 -0.719391 0.936121 -0.283904 0.66841 -0.0637104 -0.692296 -0.298953 0.500142 0.841298 0.506338 -1.00364 0.543884 0.672253 0.516125 -0.942646 0.721525 0.747217 -0.0470898 0.108024 0.322791 -1.62482 0.541633 0.623469 -0.512978 0.394523 -1.41873 -0.516099 -1.0029 -0.503786 0.389391 -0.266225 -0.075348 0.512125 0.933915 -0.503776 -1.00928 0.0593565 0.129575 1.03408 -0.225859 0.594848 1.06654 -1.22511 0.605327 -0.20086 -0.213267 0.49239 -0.508001 0.167087 -1.73055 0.365901 -1.31925 3.14581 -1.28608 0.964139 -0.152933 0.366939 0.90147 0.283703 -0.773639 0.696717 -0.823913 0.711823 1.97365 0.745964 0.0854287 2.37848 -1.16948 0.110482 0.602487 0.350509 0.0283374 1.15279 1.13621 -1.32316 -0.293698 -0.428947 0.777369 -0.27514 0.773019 -1.85195 0.769056 2.0257 -0.420398 -0.942964 -1.31556 0.684107 0.92582 -0.30752 0.826721 -0.805131 -0.116416 0.781911 -0.422902 0.138021 -0.957677 0.276135 0.36213 
-0.299686 -1.15415 -0.0517137 0.211989 -0.573326 -0.289021 -1.21256 -0.249175 -0.521229 0.601891 0.477564 1.68708 -1.54029 0.438696 -0.0891155 0.899813 -0.584736 0.624557 0.789066 0.105336 -0.201343 -0.182381 -0.724457 1.23113 -0.638163 0.535503 -0.60951 -1.71551 0.751208 0.378604 -0.403634 -0.73323 0.0031516 -0.680782 0.408482 1.07222 0.363973 0.419869 0.657376 1.03823 0.72148 -0.803481 -0.187314 0.749291 -1.04089 -0.114507 -1.66155 0.356257 1.14597 -1.46528 -0.834607 -1.6822 1.37707 -1.26448 2.29405 -0.359853 1.29175 0.584479 0.445631 1.06679 -0.110234 0.828258 1.87915 0.658574 -0.935564 1.70076 -0.659968 0.483229 1.36348 -0.983965 0.046774 0.692781 0.398925 -0.906214 0.348256 0.753725 -1.92083 -0.372495 -0.66455 -0.473823 0.408202 1.77813 -0.363197 0.806507 2.66924 0.116835 -0.391349 0.276902 -0.174461 0.550071 -1.53196 1.28342 -0.288734 -0.756114 0.670768 0.469998 0.472388 -0.268672 0.389876 -0.328789 
0.0236159 0.273676 -0.9013 0.119525 0.25172 -0.407511 -1.14869 -1.9344 -0.505432 1.13042 0.175009 2.06926 -0.117183 0.375272 0.342847 1.13895 -1.22697 -0.195295 -0.366386 0.204769 -0.830001 0.288946 -0.239889 1.56301 0.616601 0.252772 0.661913 -0.82604 0.638124 0.107627 -0.271411 0.0517682 -0.844572 0.568346 1.33428 1.71049 -0.0510555 -0.743652 -1.26708 1.13971 1.7806 -1.70429 -0.235444 0.490313 -1.16256 0.785103 -0.209697 -0.849296 -1.04341 -0.964764 0.519978 -2.32525 1.99964 0.362226 1.3999 -0.651875 1.53067 -0.61723 -2.24524 1.46131 0.428132 1.36693 0.789658 0.0398258 0.780767 1.7963 -0.530791 -1.07799 1.97222 0.0684545 0.480432 -0.16267 0.153454 -0.0585857 1.21891 0.86803 -2.59401 -0.0375038 -0.350298 -0.701466 1.39447 1.17456 -0.0234024 -0.584293 2.77699 -0.167537 -1.26761 0.769782 -0.497204 0.514475 -0.715969 1.8087 0.400177 0.295604 0.560298 -0.256417 -0.71182 0.764375 0.445606 0.462766 
-0.412558 -0.41557 0.942698 0.712973 -1.05592 0.333971 0.135261 -1.53573 -0.862381 1.12385 0.939877 0.282488 1.01671 -1.53804 -0.67554 1.87023 -1.032 -0.696977 0.984531 0.356071 -1.1193 1.03323 -1.18957 1.74469 -0.343993 0.8255 0.305783 -1.43243 -0.586449 0.951616 -0.0623597 0.25432 -0.763189 -0.0816718 1.21846 -1.10214 -0.17735 0.186826 -0.691646 1.21758 2.08302 -0.204991 -0.109517 0.824675 0.585289 0.0730294 -0.225884 1.13498 -0.784009 0.0283061 0.590742 -1.72841 1.43136 1.75494 0.998637 0.375215 0.562174 -0.255708 -1.13994 0.057039 1.53342 0.586751 0.910665 1.055 -0.518477 1.53222 -2.05143 -0.114277 2.02738 -0.153564 -0.898311 0.203865 -1.30617 -1.00733 0.36251 1.49662 -1.57274 -0.681979 -0.139431 -1.04438 0.296768 0.679111 0.511216 -0.141848 1.18708 1.11795 -3.47818 0.514854 -1.64767 -1.22027 -1.09373 1.94684 1.04329 0.200199 1.0878 -1.81758 -0.229477 1.44906 -0.171193 0.702875 
0.518153 -0.972122 0.617474 -1.22669 -0.241171 -0.717144 -0.636725 0.175412 -0.0381957 2.17296 0.448496 1.60615 -1.04433 -1.76991 -0.721738 0.218375 0.326818 -1.28132 0.706639 1.04796 -0.715456 0.607578 0.151985 1.96676 -0.79556 0.933315 -1.00086 -1.23199 0.09726 2.24105 -1.03643 -1.02189 -0.389187 0.0404495 0.802356 -1.52908 0.256557 0.530308 -0.215996 1.4842 1.01069 -0.0486571 -0.126777 -0.51629 0.30016 0.478299 -0.289754 0.360693 -1.69198 -0.583112 0.0419772 -1.6791 0.423347 0.402413 0.522231 0.25089 -0.613609 0.50295 -2.68954 1.3556 1.14063 -0.181332 0.498051 0.699425 -1.40507 0.732996 -2.36701 -2.07344 1.52885 0.404089 -0.180796 -0.922801 -1.23099 -0.0832145 0.275558 1.85366 -0.157362 -0.708542 -0.645357 -0.610322 1.61977 0.971276 -0.661492 0.658966 2.19105 1.63991 -4.52729 1.59731 -1.67271 -0.796726 -1.57288 -0.156282 1.61916 -0.1765 -0.615589 0.264298 0.98816 1.17558 -0.240128 -0.645905 
1.14636 0.144423 0.423949 -0.913825 -0.508505 -1.01502 -0.0910472 -1.02925 -0.413627 2.01475 1.34824 0.492563 -1.30528 -0.408216 -1.32885 1.92209 0.376942 0.151513 0.523579 1.16323 -0.280928 -0.00973921 0.524073 0.797132 0.0332461 0.569992 -0.846744 -1.27468 -0.565208 1.21257 -0.286073 0.755711 1.15915 0.766324 1.27126 -2.69748 -2.10117 -0.500815 -0.151643 1.51942 1.04737 -0.628924 -0.396338 -0.0564219 0.671846 0.0772713 0.282326 0.730177 -1.07297 -0.260488 -0.193734 -2.40632 1.88249 0.431009 -0.351919 1.00634 1.1387 0.288207 -2.43287 0.231775 1.50318 0.729808 -0.771734 0.66734 0.255153 1.6289 -1.45558 -2.23967 1.54585 -0.981655 -1.43399 -0.0232977 -0.492366 0.0649289 -0.236707 0.532627 -0.341624 -0.907783 0.170602 -0.475149 -0.326653 1.65528 0.739924 1.09339 0.628274 0.367806 -3.72745 1.35624 -1.24398 -0.0277922 -0.662897 0.232076 1.59276 -0.473107 -1.17922 0.849594 0.242222 0.115306 -1.92687 -1.38954 
1.75407 -1.02246 0.56434 -0.548574 0.632743 -1.0903 -0.748364 -0.38303 0.247781 2.29697 1.3998 0.248644 -0.961738 -0.633099 -0.410358 0.246542 1.16666 -1.04908 -0.207692 -0.343782 -0.780549 -0.179222 -0.759091 0.490923 -0.45625 -0.616085 0.84603 -1.026 0.422033 2.82623 -0.0169187 -0.122285 -0.624836 -0.456868 0.709537 -1.79165 -1.63652 0.696365 -0.940725 0.313246 0.316731 -0.615033 -0.520235 -1.68296 -0.000771482 -0.336657 -1.04707 0.624037 -2.24576 -0.697286 0.0612657 -1.81945 1.0676 0.0459131 -0.531118 -0.052927 -0.393342 -0.625421 -2.27316 -0.563875 1.20681 0.314667 -0.714159 0.432525 -1.1813 -0.75902 -2.65813 -1.97626 1.17388 -1.42659 -0.673285 -1.23409 -0.164417 0.922957 -0.809547 2.09345 0.139634 -0.658237 -0.623138 -1.07712 -0.666151 1.31779 -0.189659 1.28905 1.36984 1.12871 -2.14251 2.20735 -0.711215 -1.92337 -0.573398 -0.206478 -0.247758 0.528087 -2.41373 0.820457 1.10711 -0.753743 -0.681684 -1.13821 
1.266 -0.69251 0.140835 -0.754337 1.19102 0.416684 0.0497372 1.11521 0.21152 2.44815 0.780882 -1.04973 -1.52894 -1.18543 -0.535968 1.84407 1.36606 1.12939 -0.463593 -0.499257 -0.657766 0.824015 -1.81443 0.657592 -0.393061 -0.121715 0.676535 -0.604821 -0.751434 1.21962 -0.708208 1.14946 0.0309812 0.75869 0.715249 -2.56272 -1.3353 0.186649 -1.25331 -0.0770024 -0.353035 -0.0697014 0.530854 -0.436531 -0.904014 0.942664 -0.651996 1.04397 -0.646053 -0.852818 -1.51694 -2.16907 -0.369787 1.15146 -0.169004 0.571569 -0.568795 -0.628662 -2.25284 0.70496 2.43181 -0.821519 -1.17804 0.10933 -0.826036 -1.27165 -1.37589 -0.357062 1.1704 -0.245627 0.195887 -0.262154 -0.691252 0.22629 -0.39077 0.814042 0.0072285 -1.49671 1.56149 -0.279317 -0.385727 0.196678 -0.226017 1.8389 1.05472 1.5717 -2.04201 2.02297 -2.03548 -0.625732 -0.418472 0.80138 -0.292827 1.52398 -1.10268 0.375392 -0.252553 -0.393861 -0.291911 -0.266251 
0.602167 0.466212 -0.577018 -0.777369 1.11053 -0.579722 0.288418 0.399999 -0.0782884 2.33421 0.215311 -0.968996 -2.92059 -0.71522 0.820178 2.77231 1.42821 1.15493 0.501139 0.264596 0.602458 0.35958 -1.69451 0.0883092 0.72795 -0.695573 -1.38683 -0.973091 -0.859186 0.733719 -0.349124 0.699191 0.75043 -0.991029 -0.636565 -1.67074 -2.35675 -0.612041 -1.63227 0.151129 0.51951 1.24183 0.0580104 0.0753738 0.580597 0.114115 0.207678 0.21708 -0.514706 -0.837021 -1.67782 -0.786048 -1.31219 -0.49994 0.223839 -0.028523 -0.146212 -0.430217 -1.17859 1.4324 1.40212 -2.40476 -0.829399 -0.531135 -1.47955 -0.184434 -2.37829 -0.0378008 0.0524332 -2.05112 -0.982237 -0.154462 1.44593 -0.225532 -0.925717 1.70099 0.393667 -0.360219 1.01455 -0.430424 0.409911 1.2248 -0.469887 1.98248 -0.472531 0.112357 0.0251893 2.1879 -0.374015 -1.4351 1.20417 0.93699 -1.01383 -0.218978 -2.40005 1.2518 -0.928773 -1.13676 0.977255 -1.30378 
-0.522044 0.458337 -2.17887 -0.549306 0.847684 0.897143 -1.09921 -0.473498 0.24323 1.32815 -0.426246 -2.37399 -1.37744 0.709433 -0.278478 1.03382 1.12226 1.03059 -0.294542 -0.252995 -0.0954238 0.315466 -1.21748 -0.369807 1.15706 -0.245723 -0.677199 -1.71346 -0.585943 0.188951 -1.39505 0.237541 -0.274914 -0.813095 0.39747 -2.06571 -2.76702 -1.05191 -0.962644 -0.84076 -0.432561 0.782601 1.17672 -0.948634 -0.206069 -1.47764 -0.31689 -0.20106 0.477583 -0.376599 -2.74007 -1.11868 -0.0928668 0.0196489 -0.652186 -0.594977 0.265218 -0.232102 0.664891 0.310241 0.814861 -1.14133 -0.630204 0.741017 -1.63041 -0.971724 -1.64055 -0.47495 0.727871 -1.36598 -0.166017 -1.76119 0.395454 -0.95296 -2.278 0.957922 0.86961 -0.505283 2.34198 0.237189 0.00228019 -0.699517 -1.13329 -0.285893 -0.394102 1.07507 1.14038 3.43694 -0.548232 -0.499986 2.20598 0.420255 -1.08735 0.532827 -0.824681 1.2847 -1.27934 0.18684 0.29833 -0.298174 
-0.503858 0.646006 -0.371743 0.511523 0.398528 1.5011 -0.796031 0.353464 1.20453 0.623913 1.06541 -2.20702 -0.516257 -0.826125 0.383194 0.77428 0.195155 -0.108203 -0.449348 -1.25123 1.2836 -0.918148 -2.20505 -1.63711 0.314112 -1.14827 -0.479454 0.336359 0.605053 -0.829831 -1.07219 -0.751709 -1.38056 -1.08723 0.256788 -0.342325 -2.23148 -0.82245 -1.40946 -0.154959 -1.16009 -0.284283 0.0177798 1.1256 -0.0246344 0.28072 -1.03986 -0.911462 -0.729871 -0.41956 -2.49053 -0.956923 -1.23799 -1.60214 -0.928579 0.213625 -0.286839 -0.0160644 1.36642 -0.412221 1.23313 -3.18451 -0.869692 -1.07675 -1.18975 -1.48844 -1.25793 -0.306496 -0.0217641 -1.07481 -0.988773 -0.688511 1.96459 -1.23403 -1.10348 -0.195588 0.918499 -2.55107 0.964046 1.08368 -0.0226001 0.429632 -0.032957 0.757737 -0.341805 1.39399 1.68576 3.20305 -0.58629 -0.372408 1.98909 -0.474943 -1.11841 -0.0649775 -0.48148 1.67253 -1.14814 -1.5712 0.567756 0.238571 
-0.5342 2.29625 0.285218 0.154304 -0.142737 0.184102 -0.0878302 0.0944104 0.668972 1.76456 0.903736 -1.86298 1.06729 -0.833067 -0.826187 0.355385 -0.995488 1.28517 -1.86314 0.238979 0.39446 -0.161084 -1.04256 -1.04877 0.825722 -0.762808 -0.380508 -0.670921 0.980175 -0.415944 -0.369095 -0.306616 -1.53053 -0.882266 -0.860461 0.978483 -0.852137 -0.218412 0.193332 0.0753937 -1.31644 0.486146 0.843782 0.44409 -0.0214533 -0.991335 -0.724103 -0.689482 0.661576 0.0655868 -2.37366 -0.547265 -0.372846 -2.03775 -0.52525 -1.07526 0.649588 0.152614 0.694698 -0.460451 -1.23551 -2.85629 1.35677 -0.753376 -0.235815 -0.875082 -0.808319 -0.335874 0.57386 -0.912901 -0.757324 -2.04439 1.08033 -1.86485 -0.474861 0.0552057 0.517589 -2.3623 1.51304 0.594713 -0.586199 -0.712096 0.75587 -1.44445 -0.192181 1.19984 1.28318 1.07126 -0.496308 0.129013 1.15925 -0.576816 -0.469993 0.965517 0.491322 -0.0583847 0.129228 -0.288838 0.0746573 0.110576 
-0.494914 1.71717 1.82278 -0.514334 1.14622 0.782462 -0.45112 -0.226018 1.82839 -0.31274 -0.431067 -0.547679 0.809483 -0.290033 0.395904 -0.300461 -0.443964 0.124784 -1.53024 -1.10785 0.000613605 -1.95314 -0.26272 -1.2856 0.427581 -1.7786 0.382487 0.862334 0.462636 -0.238209 -1.75662 -0.8455 -1.4992 0.559558 0.689864 0.388525 -0.69337 0.148366 -0.650131 0.9159 -2.81307 -0.319639 0.192483 1.10759 -0.321409 -0.450252 -0.765295 0.907363 -0.196655 -1.32022 -0.581234 -0.204157 -0.756043 -2.67506 -0.140496 0.43633 0.501032 -0.352791 0.540738 0.899829 -0.326357 -1.55265 0.428338 -0.371367 -0.243482 0.42259 0.105385 -0.628446 -0.198606 0.705831 -0.20829 -1.64581 1.49397 -1.90045 0.21782 0.504895 0.634033 -2.07079 0.393487 1.5381 -1.03271 -0.154572 0.689444 -0.780396 -0.456121 0.618711 0.213086 1.45941 0.553295 1.2311 0.681474 -0.625218 -0.321669 -0.51591 -0.931888 1.07273 0.738071 0.604524 -0.394048 -0.433945 
