Network weights:
4
784 100
-0.337374 -0.989611 0.546036 0.565244 0.148949 0.465733 -0.954655 0.157399 0.312936 -0.974174 -0.781886 -0.709496 0.117074 0.949946 -0.193386 0.45011 0.568178 0.912017 -0.00404815 0.206252 -0.0896091 0.242747 -0.46725 -0.333347 0.791344 -0.48577 -0.142338 -0.67906 0.852475 -0.502031 -0.198405 -0.484899 -0.491642 -0.652369 -0.919655 0.657307 0.813364 -0.87431 -0.185294 0.1263 -0.848484 0.0328207 0.416804 0.268591 -0.0172332 -0.776582 -0.281299 -0.449055 -0.864565 0.714653 0.757197 0.045826 -0.0426009 -0.710053 0.712479 -0.251257 -0.195824 -0.429859 0.0696833 -0.343349 0.0681104 0.871279 0.171752 0.576469 -0.781091 0.252097 0.233776 -0.967727 0.377787 -0.951518 0.158573 0.529303 0.0813031 -0.424622 -0.202106 -0.93593 -0.201204 0.516595 -0.384985 -0.0657693 0.231247 -0.627788 0.980057 -0.811354 -0.337841 0.692536 -0.0626105 0.466335 -0.737323 -0.992927 -0.877014 0.330787 0.878351 0.294739 -0.092744 -0.902739 -0.453164 -0.858968 -0.870466 0.924623 
-0.810486 0.288107 0.453926 0.270817 0.863485 -0.74818 0.334887 -0.33772 0.768415 0.949902 0.596511 -0.000338003 -0.677886 0.576568 0.188308 -0.0157269 0.269104 -0.874302 -0.549392 0.531781 -0.867229 -0.426405 -0.137432 -0.988878 0.868333 0.769824 -0.891617 -0.584831 0.910856 -0.762084 -0.660208 -0.89963 0.526024 0.793718 0.371188 0.389508 -0.954462 -0.293925 -0.948211 0.813953 -0.344022 0.6483 -0.186385 -0.0219081 0.224868 -0.998077 0.962365 -0.506029 -0.872379 -0.587027 -0.974248 -0.739609 -0.0134323 -0.11168 -0.728487 -0.145099 -0.341856 -0.620104 0.27007 -0.431 -0.382188 0.609862 -0.330629 -0.856164 0.40358 -0.959442 0.533344 0.449118 -0.253366 0.585133 0.26307 0.402611 0.233433 -0.923315 -0.619297 -0.5417 -0.921392 -0.656932 -0.0477283 -0.793771 -0.243959 -0.0219761 -0.53338 0.742609 0.866344 -0.261867 -0.40249 -0.475512 0.118029 0.86758 0.0934883 0.735841 0.477442 0.762859 0.879677 -0.118979 0.803417 0.413021 -0.669861 -0.449949 
-0.00184657 0.593209 0.952662 -0.768414 0.669894 -0.666635 -0.310114 0.748502 -0.323567 0.642158 0.954731 0.432474 -0.379818 -0.578649 0.175083 -0.513474 0.159484 0.772592 0.0110139 -0.722487 0.640172 -0.895498 -0.986646 0.117614 0.867361 0.89303 0.998635 0.670778 0.306051 -0.671226 -0.779171 -0.695795 0.921984 -0.826509 -0.464209 0.591878 -0.493144 0.225677 0.34038 0.183288 -0.132165 0.295111 -0.384238 0.488016 0.716461 0.790845 0.974542 -0.124055 0.563437 -0.0144441 0.153458 0.203609 0.0900582 0.166812 -0.678777 -0.0425808 0.0598422 -0.680141 -0.371803 -0.634107 -0.351367 -0.150974 -0.329902 -0.429383 0.0225171 0.205889 -0.837506 0.529373 -0.568435 0.502874 -0.287339 0.2994 -0.202015 0.328423 -0.212584 -0.485554 0.119268 -0.238042 0.390392 -0.317295 0.747514 -0.45615 0.886314 -0.162428 0.710661 -0.792463 0.794991 -0.229496 -0.472604 -0.576811 0.136397 0.176029 0.272215 0.806495 0.746646 -0.705268 0.0123838 0.90914 0.824105 0.443949 
0.412014 -0.463234 -0.256639 -0.790001 0.865184 0.530775 -0.275552 -0.0155388 -0.707277 -0.885207 0.667162 -0.959761 -0.341311 0.553476 -0.12219 -0.630635 0.761013 -0.32722 0.139861 -0.711591 0.0959764 -0.723752 0.464438 -0.631791 -0.91728 0.211075 -0.337067 0.0951273 0.120211 -0.512957 -0.460928 -0.467753 0.0238087 0.282426 -0.257763 -0.111005 -0.186812 0.466683 0.873468 0.105896 0.58152 0.540617 0.146152 -0.759794 0.0940941 -0.976047 -0.390445 -0.144891 -0.303237 0.749406 0.143515 0.792756 -0.974351 -0.392057 -0.83904 -0.891601 0.819037 -0.176104 0.203525 -0.0607598 0.310946 0.742602 0.471525 -0.665251 0.025027 -0.786271 0.223746 0.838217 0.680421 0.0972029 -0.0558689 0.261923 -0.362183 -0.909716 0.502144 0.73192 -0.885755 -0.888301 -0.412981 -0.188993 0.861103 0.730531 -0.396241 0.886758 -0.661515 -0.235283 0.995156 -0.842478 0.588617 0.198675 0.0967825 -0.100445 -0.058721 -0.431712 0.234303 0.966292 -0.217984 -0.541951 0.804527 -0.537564 
0.555055 -0.251202 0.726058 -0.806645 -0.161268 0.226816 0.922304 -0.0487165 0.338216 -0.491728 0.765067 0.198588 -0.755359 -0.631636 0.0906707 -0.418024 0.133794 0.0714133 -0.267213 -0.273369 -0.718056 0.835165 0.620773 0.220233 -0.579426 -0.145246 0.187977 0.186345 0.31325 -0.00837288 0.647497 -0.131445 0.74391 0.372406 0.0626605 -0.422551 -0.399282 -0.01347 0.530005 0.937205 0.498339 0.297029 0.13691 0.753058 0.663965 -0.778587 -0.676043 -0.202706 0.303857 0.060103 0.518682 0.583549 -0.104953 0.136749 -0.18352 0.300142 0.996499 0.991409 -0.513345 0.306032 -0.00935236 -0.868551 -0.810686 -0.274419 0.507008 0.238708 0.307029 -0.892718 -0.776238 -0.16581 -0.945449 0.720588 -0.863997 0.178483 0.463575 0.802031 0.400806 0.789212 -0.403115 -0.295259 -0.150598 -0.884157 -0.71297 0.742275 0.253819 0.091131 0.0419681 0.250984 0.0867081 0.531034 -0.437004 -0.929421 0.659864 -0.266834 -0.205656 0.171471 0.977442 -0.900152 0.270238 -0.802941 
-0.0651479 0.309542 0.923919 0.0655714 -0.508993 0.378677 -0.127119 0.89464 0.171054 0.470842 -0.403321 -0.979257 0.594489 -0.116574 0.777742 -0.158805 0.969328 -0.211943 -0.916744 0.0769041 -0.66399 -0.346553 0.125411 0.985979 0.399875 0.928656 0.159687 0.361824 -0.968981 -0.57888 0.553875 -0.0386136 0.741188 0.475856 -0.967091 -0.78657 -0.129723 -0.0922908 -0.89186 -0.958892 -0.623232 -0.285889 -0.940971 0.991902 0.598163 0.813004 -0.184245 0.569918 -0.378606 -0.105962 -0.374112 -0.0381998 0.548253 0.763774 -0.0392703 -0.0641894 0.701652 -0.897799 -0.697509 0.708745 -0.459108 0.85051 -0.296186 -0.73521 0.336737 -0.269033 -0.504734 -0.792221 0.623581 -0.389769 -0.742088 -0.998531 0.33153 -0.698862 0.966668 -0.0701647 -0.876807 -0.204791 -0.503176 -0.259055 0.673673 0.125 0.689744 0.216018 -0.110607 -0.371193 -0.845334 -0.406048 -0.261065 -0.547556 -0.681361 0.26165 -0.696971 -0.00869758 0.516046 0.652601 0.730624 -0.986071 0.841123 0.353902 
-0.384849 -0.920287 0.348015 0.942394 -0.607367 0.323554 -0.130661 -0.478475 -0.890543 0.360616 0.24145 0.783058 -0.487339 -0.0619289 0.0102836 0.39547 0.556732 0.128607 0.986417 -0.690575 0.607303 -0.695409 0.557021 0.904897 0.306514 0.0821462 0.538118 0.0343558 0.105317 0.404245 -0.624639 0.716951 0.508396 0.739933 0.671942 0.871496 0.100544 -0.466667 -0.63463 0.189859 0.909157 0.626496 -0.0300262 -0.567403 -0.445429 0.976945 0.814115 -0.872863 0.127202 0.797666 -0.563966 -0.270684 -0.863881 -0.985154 -0.324214 0.407085 0.0958774 -0.79743 -0.553707 -0.807779 0.597865 -0.160071 0.936788 0.0587616 -0.408422 0.612081 -0.0399171 0.667779 -0.853066 0.322406 -0.135534 -0.927586 -0.0397871 0.819012 -0.523042 0.524782 0.814672 -0.705998 0.66335 -0.0719497 -0.918288 -0.903572 0.670032 -0.822225 -0.895212 -0.706499 0.590384 0.21844 -0.502052 -0.961924 0.425182 -0.918162 -0.148674 0.352143 0.137528 0.445771 -0.0329641 -0.90081 0.0767964 0.0984186 
0.405675 0.939312 0.166244 -0.630638 0.759137 0.645894 0.874553 0.579975 0.930887 0.533072 -0.502741 -0.989665 0.653805 -0.848372 -0.799083 0.778767 -0.558436 0.762009 -0.0208564 -0.0513447 0.829049 -0.600423 0.0215168 -0.320826 0.742594 -0.827519 -0.910248 -0.277351 -0.731591 0.209853 0.833174 0.698726 0.156257 0.000757145 -0.934711 -0.0712735 -0.335121 0.941431 -0.507852 -0.403319 0.503668 -0.00766322 -0.414238 0.147677 0.140289 -0.210838 -0.0826536 0.60317 -0.438496 0.893264 -0.454812 -0.610114 -0.696655 0.584905 0.0677439 -0.93888 0.760091 0.175676 -0.216971 -0.97543 -0.618917 -0.376331 0.728272 0.512837 0.622916 0.793669 -0.543799 -0.718559 0.747816 -0.063458 -0.133406 0.242187 0.937798 0.446831 -0.608941 0.0820688 -0.747502 0.303415 -0.299325 -0.183687 0.190362 0.238923 0.196584 0.488683 -0.18407 -0.751234 0.555028 -0.417029 0.428829 -0.662829 -0.386716 0.803035 -0.0683554 -0.645175 0.313364 -0.43153 -0.857347 0.762196 -0.159912 0.868911 
-0.295513 0.696946 0.129973 -0.360538 0.152568 0.527899 0.719228 0.407107 -0.181668 -0.584894 -0.787887 -0.988806 0.664798 0.40391 0.520477 -0.500721 0.655174 0.0486247 0.0648846 0.0970195 0.399244 0.674307 -0.10943 -0.657102 -0.980845 -0.779843 -0.114043 -0.832282 0.991368 0.748849 -0.945103 -0.291552 0.443716 0.178506 0.342912 -0.393556 -0.297248 0.0655653 -0.985042 0.535924 0.493703 -0.778342 0.521463 0.139814 0.630463 0.0331823 0.643938 0.306699 -0.93139 -0.297274 -0.613024 0.484959 -0.614938 0.289703 0.807025 -0.5771 0.514323 -0.294846 -0.416182 0.490109 -0.54333 -0.358128 -0.801716 0.87731 0.83101 0.547111 -0.499859 -0.468632 -0.380133 -0.501533 -0.947033 -0.898571 -0.272441 0.573172 0.249496 -0.641775 -0.368307 -0.108737 0.666848 -0.279816 0.584841 -0.952202 -0.817352 0.982491 0.332856 0.98739 -0.593115 -0.154446 -0.29356 0.000339546 -0.665458 0.152373 0.626082 -0.451886 0.0355439 0.478052 -0.908986 0.523094 -1.00253 -0.310358 
-0.962122 -0.949943 -0.186876 -0.237992 0.63466 -0.927722 0.120396 -0.741841 -0.0520464 -0.216823 -0.0351753 -0.461187 -0.167416 0.150023 -0.46452 -0.82127 0.144967 -0.0719979 0.0147194 0.856063 0.928717 0.352778 0.0021746 0.575909 0.897865 -0.950626 0.0304222 0.988571 0.58926 0.0476931 -0.304572 0.633687 0.0939228 0.502837 -0.607117 -0.268179 0.567243 0.51425 -0.00303324 -0.473612 -0.7041 0.957316 0.0491836 0.118433 0.108694 0.575565 0.305193 -0.739303 -0.515468 -0.686518 -0.895553 -0.565096 0.666377 0.114959 0.994227 0.576271 0.165647 0.0299761 0.560499 -0.255555 -0.922238 -0.739467 -0.6216 0.160553 0.770934 -0.224687 0.904881 0.33797 -0.708488 -0.105928 0.856417 -0.415672 -0.149054 -0.0885762 0.707498 0.96112 -0.504304 0.00887023 -0.779117 0.00568286 0.319105 -0.673499 0.424694 -0.00333266 0.437681 0.417 -0.427794 -0.397716 -0.541427 -0.860785 0.345448 -0.468949 -0.60119 0.731846 0.695696 -0.821608 -0.491873 0.603314 0.506324 -0.209761 
-0.504291 0.369147 0.380694 0.346042 -0.722865 0.0941202 0.30458 -0.231022 -0.901041 0.523356 0.762816 0.419619 0.847048 0.189155 -0.582349 0.289302 -0.390817 -0.0117433 0.889018 0.0661412 0.129563 0.238194 0.597433 0.537788 -0.0272583 0.298654 0.703421 0.478001 -0.099085 0.2228 -0.730204 0.397878 -0.413654 0.651623 -0.259681 -0.135207 -0.25998 -0.955052 0.638103 -0.157889 0.566419 0.399495 -0.745436 0.408297 -0.411921 -0.325284 -0.298533 0.199004 0.655214 -0.410642 -0.73453 -0.205658 0.832715 0.861974 -0.672812 -0.196082 0.159842 -0.971785 -0.721959 -0.93929 0.25338 -0.446106 0.458147 0.836316 -0.793685 -0.801089 -0.293498 -0.0544388 -0.753965 -0.659513 0.784946 0.814223 0.739399 -0.955674 0.223682 -0.671556 -0.279054 0.927791 0.525738 -0.611317 -0.484407 0.792575 0.179945 -0.652441 0.651843 0.504544 0.152186 -0.187621 0.540757 0.43462 -0.130214 -0.205184 0.988266 -0.669592 -0.364036 -0.804955 -0.469062 0.341241 0.137755 -0.228056 
0.681829 -0.0755775 -0.415969 0.419622 -0.0256198 0.809336 0.745806 0.688064 0.735988 0.273928 -0.929651 -0.748428 0.0668464 0.24768 -0.399768 -0.283007 -0.247221 0.752213 0.528911 -0.705277 0.18644 -0.598657 0.0874317 0.175533 -0.268153 0.724195 0.368649 0.261158 0.0620388 -0.490371 -0.965508 -0.25688 0.434306 -0.381572 -0.837245 -0.597078 -0.572041 0.910015 -0.907539 -0.835803 0.18461 -0.837655 -0.581869 -0.751275 0.411079 0.0165588 -0.0348525 -0.835512 -0.231278 -0.505887 -0.54029 0.95561 -0.102298 0.548645 0.12981 0.628575 0.271985 -0.50032 -0.110265 -0.664609 0.00966095 -0.0765119 0.07881 -0.556399 0.542574 0.241042 -0.151383 0.970438 0.151495 -0.0606933 -0.866783 -0.664058 0.101636 -0.449218 -0.415644 -0.487065 0.567303 0.549516 -0.32184 -0.665852 -0.957305 0.139538 -0.708036 -0.0608228 -0.314114 0.42086 -0.431469 0.95791 0.921317 0.456188 -0.707412 -0.0699381 -0.617925 0.371582 0.375207 0.925035 -0.386218 -0.775282 0.899926 0.762709 
0.165642 -0.971087 -0.900366 -0.735569 -0.413608 -0.315921 -0.224378 -0.852868 -0.766435 0.454876 -0.516882 -0.722861 -0.404612 -0.225352 0.217182 0.278864 -0.80578 0.785536 0.236558 -0.882159 0.243715 0.529881 0.0472257 0.625958 -0.100077 -0.574376 0.550214 0.513825 -0.352543 0.444811 0.277826 0.811084 0.474053 0.377548 -0.924443 -0.946749 -0.938386 -0.147251 -0.798924 -0.704767 -0.692566 -0.315483 -0.425502 -0.100443 0.459061 0.789821 -0.821834 0.652888 0.575417 0.414803 0.773043 -0.180863 -0.0537137 -0.17801 -0.555091 0.845632 0.246586 0.99521 0.359657 0.894767 0.440229 -0.362584 0.706724 -0.0861612 -0.985074 0.781439 -0.031825 -0.92313 -0.365981 0.169232 -0.628598 -0.0584855 0.853844 -0.0554613 0.841041 0.312924 -0.264996 -0.980654 -0.0317062 -0.692841 0.434042 -0.259456 0.129735 -0.622397 0.563534 0.572879 -0.775371 -0.190263 0.568564 0.581763 -0.295573 0.00772088 -0.778737 -0.589496 0.922385 -0.763883 -0.807894 -0.108867 -0.680825 -0.175368 
-0.939263 -0.314706 0.768091 0.9171 0.629834 0.607996 0.227801 -0.635902 0.627983 -0.805016 -0.326236 0.0620634 -0.0635605 0.80283 0.444892 -0.500158 0.376049 0.664868 0.309671 -0.054481 0.249429 -0.986145 0.95438 0.471031 -0.574314 0.87707 0.707662 -0.383613 -0.230536 -0.980664 0.442347 -0.170847 -0.292252 0.209907 -0.256503 -0.664071 -0.181415 0.970648 -0.299884 -0.553611 -0.834332 0.376027 0.508459 0.102057 0.176534 -0.0508431 0.602771 -0.446516 -0.381279 -0.0887218 0.499204 0.863632 -0.0748327 0.452034 0.336804 0.349337 0.331871 0.0422754 0.966012 -0.90022 0.0625333 0.408658 -0.0709906 0.767622 -0.381904 0.67246 -0.894317 0.436579 0.642744 -0.194308 0.882731 0.808921 -0.820143 0.391413 -0.0863151 0.356737 -0.658751 -0.486971 0.91037 -0.0463135 0.424185 0.409225 -0.18145 -0.650328 -0.1384 -0.844085 0.699209 -0.806288 0.19599 0.665016 -0.706668 -0.741439 0.0728228 0.221918 -0.972628 0.691934 -0.10232 -0.866538 0.128128 -0.462084 
-0.0577244 0.00887267 -0.652582 0.118363 -0.592876 0.261732 -0.530939 -0.255962 0.772491 -0.611412 0.693686 0.194976 0.795934 -0.486313 0.543766 -0.339345 -0.33523 0.24476 -0.148223 0.863563 -0.0923436 0.138725 -0.877877 0.984665 -0.635204 -0.84624 0.66931 0.263864 -0.717525 -0.191273 0.801312 0.226757 0.818176 -0.852305 -0.658088 -0.785811 0.407082 -0.182075 -0.035808 0.182646 0.206578 -0.34333 -0.631951 -0.00926194 0.172849 0.917905 0.656172 0.845313 0.152641 -0.490024 0.709235 -0.935899 0.657641 0.832735 -0.95303 -0.976867 0.980721 0.716713 0.279377 -0.729639 -0.478566 0.0841504 0.491812 -0.671731 0.237415 0.83424 -0.447894 -0.364113 -0.343434 0.50492 0.815488 0.859688 -0.835755 -0.823721 -0.139891 0.336575 -0.899232 -0.482636 0.18117 0.255537 0.0238425 -0.114895 0.319538 -0.317776 -0.281901 0.371521 -0.295371 -0.299006 0.087352 0.985232 -0.0351812 0.610331 0.0657922 -0.538558 0.945998 -0.696022 -0.701169 -0.510799 -0.0555252 -0.0584066 
-0.989869 -0.254833 -0.186483 -0.839501 -0.0537969 0.673481 0.484727 0.0388554 -0.808224 -0.314253 -0.733672 0.216154 0.573115 0.602441 0.895203 -0.716439 -0.0339672 -0.391353 -0.0100607 -0.945074 -0.411896 0.950663 0.675472 0.661729 -0.592917 0.627897 0.953467 -0.275149 -0.881995 -0.0700589 0.669302 -0.871748 0.695476 -0.5199 -0.71014 -0.406917 -0.830793 0.794763 0.635124 -0.65303 -0.525036 0.912683 0.555414 -0.959057 0.52021 0.472024 -0.669467 -0.50281 -0.945395 0.329956 -0.439015 -0.379164 0.293267 -0.754394 -0.697352 0.709091 0.842991 -0.730711 -0.585777 0.993109 0.17381 -0.907744 -0.902263 -0.184861 -0.397028 -0.605384 0.444009 -0.281027 -0.805402 0.0496904 0.0623774 -0.325407 -0.0316511 -0.402492 -0.271402 -0.515638 -0.937078 0.0651958 -0.013238 -0.893203 -0.608891 0.543098 -0.249814 0.684352 0.782687 0.058717 0.389577 0.644745 0.315685 0.805853 0.618282 -0.507208 0.888802 0.725088 0.319493 -0.527906 -0.867189 -0.244943 0.195703 -0.706649 
0.819732 -0.760628 -0.0107263 -0.22648 -0.135046 0.725563 0.250763 -0.0813632 -0.221435 -0.746285 0.0155337 0.179741 0.798791 0.772951 -0.138946 0.571761 -0.180333 -0.743613 0.223152 -0.852439 -0.933414 -0.161972 -0.35109 0.958307 -0.451467 0.973962 -0.579324 -0.297421 -0.263822 0.639539 0.0152554 -0.447618 0.901624 -0.991208 0.323428 -0.282714 0.740383 -0.403906 0.635093 -0.481848 -0.151086 -0.344359 0.690948 -0.360698 -0.575858 -0.435449 -0.780792 0.24653 -0.202147 0.446103 0.41328 -0.156867 -0.707862 -0.941769 -0.171707 -0.138758 -0.970911 0.255021 0.5524 -0.218296 -0.127359 -0.423704 0.314113 -0.286655 -0.387676 -0.347343 0.471388 -0.692555 0.247575 0.0783035 -0.180416 -0.898224 0.739479 -0.508046 -0.244841 -0.83541 0.0571757 -0.0280145 0.434067 0.846236 -0.572506 -0.169667 -0.288782 -0.273558 -0.103944 0.532658 0.574908 -0.0590941 -0.219208 0.12954 0.704522 0.651335 0.689427 0.0319515 -0.619889 -0.709268 0.697753 0.839059 -0.404637 -0.0913663 
-0.0656513 0.407426 0.0263551 -0.327672 0.92182 0.784414 -0.160378 -0.0458445 -0.248701 -0.725383 -0.175645 0.182865 0.121367 0.526714 0.906337 -0.972479 0.0444358 0.477754 -0.0277447 0.86802 -0.37028 -0.314724 0.49832 -0.696061 0.706341 0.883393 -0.407588 0.393683 0.742979 0.180005 -0.668416 -0.33085 -0.40509 0.372585 0.326225 -0.497672 0.142984 -0.826492 0.455161 0.921448 -0.545674 -0.726181 0.0972336 0.572325 0.78034 -0.0325598 0.618354 -0.160864 -0.543303 -0.431996 -0.293407 0.0716724 0.243599 -0.807934 0.38319 -0.0342377 -0.872753 0.96631 -0.635067 0.837298 0.159879 -0.294315 -0.493012 0.72932 -0.927897 0.845913 -0.759447 0.21927 -0.998274 0.687075 0.12737 -0.536369 0.967015 -0.784318 -0.959055 0.768382 0.21939 0.633471 -0.384145 0.670266 -0.79491 0.311022 -0.25921 0.461846 0.505472 -0.892583 -0.582097 0.635233 -0.914914 -0.211001 0.460742 0.216838 0.467143 0.981523 -0.0373089 0.564168 0.8503 0.173292 -0.219433 0.822596 
-0.10574 0.905824 -0.702967 -0.138267 -0.856381 -0.670708 -0.374754 0.340392 0.966194 0.252538 0.0253594 -0.832992 -0.407913 0.766302 0.630336 -0.870011 0.87263 -0.956606 0.769287 0.977513 -0.15443 0.25065 0.180702 -0.685196 0.235326 -0.85563 0.870636 0.0517216 0.347379 -0.359188 -0.108186 -0.76618 -0.451625 0.196944 0.0814284 -0.317356 0.520798 0.708614 -0.977617 0.499221 -0.0383429 0.0522646 0.66961 0.558687 -0.195741 0.267231 0.697867 -0.308516 0.320935 0.444866 -0.339759 -0.844726 -0.307806 0.840818 -0.533553 0.927164 1.01504 -0.668312 -0.021437 0.341753 -0.0122962 0.878903 0.576756 0.523957 0.0698318 -0.335164 -0.79162 -0.400296 -0.638424 -0.766776 -0.911157 0.331558 0.285616 0.760542 -0.115269 -0.894335 0.0430037 -0.43927 -0.207972 -0.639936 -0.995128 0.458016 -0.488511 -0.30128 0.283083 -0.0317205 -0.372732 0.302054 0.313654 0.612129 -0.365592 -0.725531 0.481516 -0.779657 0.808673 -0.435054 -0.0998698 -0.987351 0.165291 0.250502 
-0.749285 0.255815 -0.398967 0.533921 0.0251871 0.466831 0.630189 -0.94502 -0.977693 -0.565716 -0.580042 -0.973095 0.899861 -0.0678984 -0.272409 0.210126 0.899832 0.355912 -0.487995 0.211877 -0.0321963 0.156364 0.488805 -0.543604 0.383852 0.301094 0.020335 -0.736851 0.309286 -0.831184 0.5126 0.555772 0.42133 -0.896407 0.0922268 -0.56921 0.562577 -0.281195 -0.513086 0.587786 0.15464 -0.0917712 0.620126 0.048698 0.840701 -0.654448 -0.745217 0.741923 0.698074 -0.22902 -0.0418579 -0.333921 0.931008 -0.547964 0.120333 0.31002 0.753624 -0.871562 0.572218 0.0607198 -0.6952 0.0901541 -0.380609 0.724544 0.189718 0.702305 -0.840592 -0.247008 -0.577275 -0.352963 -0.654326 0.576612 0.556263 0.956913 -0.371042 0.395843 -0.699778 -0.114313 0.142897 0.990745 0.657231 -0.903459 -0.333723 0.585302 -0.447723 0.784411 -0.0919166 -0.698354 0.919247 -0.534147 0.362432 -0.778745 0.560104 0.982281 0.948957 -0.247632 0.678582 -0.896139 0.51666 -0.909909 
-0.249256 0.854043 0.698229 -0.685761 0.812692 -0.695028 0.70283 -0.89529 0.192099 -0.155181 -0.894741 -0.150194 -0.0542287 -0.231679 -0.563233 0.506039 -0.451941 0.333902 0.807711 -0.525424 0.807385 0.162315 -0.304446 0.365059 0.146954 -0.349201 -0.877037 -0.175102 -0.248056 0.617513 -0.0774793 0.505007 0.465895 -0.393083 0.823179 0.270462 -0.094042 0.520923 0.376996 -0.89841 -0.62855 0.482262 -0.0478951 0.316313 -0.74892 0.390652 -0.184126 -0.195355 -0.283651 -0.369855 0.279035 -0.474473 0.788691 0.977491 0.893837 -0.0711817 -0.374049 -1.00188 0.74942 0.375978 0.625062 -0.316297 -0.107994 0.0909135 0.286246 -0.292825 -0.635686 -0.807339 -0.77417 0.741736 -0.706106 -0.409482 0.225139 0.239122 0.922218 0.481285 -0.366258 -0.263797 -0.720022 0.348849 0.358644 0.555101 0.893773 0.159691 0.548767 0.773642 -0.905414 -0.843119 0.773633 0.83696 0.532905 0.397797 -0.47801 -0.582936 -0.509612 0.811117 0.112403 -0.150259 -0.992857 0.328554 
-0.402867 -0.69409 0.953351 0.822352 0.54588 0.851458 0.292961 -0.820023 -0.410893 0.568858 0.534901 0.944469 0.128007 0.414275 0.113036 -0.333109 0.18361 0.184401 -0.177362 -0.0406162 0.0241513 -0.643666 -0.642596 0.54636 -0.225675 -0.150941 0.364539 0.890527 0.697807 0.357017 0.22617 -0.706072 0.65868 0.172934 -0.879278 0.203392 0.0129221 0.40762 0.384364 0.605136 -0.016927 -0.0746746 0.553628 -0.887646 -0.666998 -0.343807 -0.221156 0.522166 0.834776 0.609901 -0.523476 -0.139906 0.963145 -0.164312 -0.596783 -0.26485 0.675438 0.754476 -0.378191 0.384667 0.120061 0.855811 0.680782 -0.217203 0.0189792 0.794493 0.983685 -0.968586 0.19806 0.36696 0.638503 -0.818188 -0.711529 0.195271 -0.698198 -0.37587 0.845367 0.0788757 -0.863381 0.682509 -0.313245 -0.388068 -0.447835 -0.343978 0.458792 -0.0452289 0.39617 0.129952 -0.29187 -0.988579 -0.488608 0.828065 0.865536 -0.810155 -0.393774 -0.117043 0.974465 -0.41455 -0.0804563 0.166282 
0.955401 -0.440383 0.362469 -0.758551 0.751431 0.657765 -0.138584 0.596827 -0.262445 -0.000336843 0.278888 0.424032 0.613151 0.821097 -0.926291 0.0620758 -0.231099 0.46006 -0.808879 0.477921 0.471078 -0.298549 0.3062 0.337573 -0.112238 0.912187 -0.776788 -0.133204 -0.501071 0.143704 -0.955919 -0.543952 0.703724 0.404477 -0.302057 0.454601 0.0619008 0.558986 0.0528885 0.80074 -0.441662 -0.669602 0.223658 -0.828678 -0.848598 0.297736 0.232928 -0.0793808 -0.242325 0.424174 -0.60176 -0.770877 -0.873295 0.704513 0.566606 0.0145586 0.616811 0.789207 0.880702 -0.882416 -0.0664758 0.925102 -0.426844 -0.360797 0.329586 0.270669 -0.908658 -0.609025 -0.169708 0.1428 -0.808865 0.387749 0.473982 0.414581 0.559069 0.624531 -0.287788 -0.208058 -0.454817 0.469775 -0.783402 -0.056955 0.698996 -0.657931 -0.351912 0.265751 0.356871 -0.735826 0.0549949 0.23735 -0.618495 0.989182 0.162308 -0.0441101 -0.374502 -0.508176 -0.774854 -0.282963 -0.116856 0.054556 
0.859646 0.0741484 -0.557417 0.332846 -0.511351 -0.998362 -0.042599 0.200949 -0.206224 0.502282 -0.329175 0.0100813 -0.554586 -0.630184 0.352114 0.0930285 0.635472 -0.291445 0.357276 -0.309138 0.945803 0.738716 -0.320262 0.108085 -0.306758 0.305266 0.599838 -0.0815278 -0.9779 -0.517041 0.973385 0.881742 0.557113 -0.584035 0.214783 -0.954141 -0.582399 -0.827994 0.246826 0.211377 0.674288 0.917633 -0.778542 -0.880289 -0.712453 0.573617 0.212746 0.922913 -0.717793 -0.429996 -0.386223 -0.772022 -0.691276 0.293514 0.336085 0.00199094 -0.40122 -0.0641046 0.920479 -0.379117 0.418904 0.893863 -0.497373 -0.0239353 -0.69017 0.717221 0.0218806 -0.27257 0.889238 -0.731314 0.938807 0.563525 -0.813681 -0.839735 0.683232 -0.526232 0.733877 -0.104082 -0.603314 -0.983956 0.465969 0.0104482 -0.755986 0.774685 -0.696029 0.580113 -0.223322 -0.0972491 -0.483979 -0.302842 0.523624 0.935 -0.408977 -0.973749 -0.0890556 -0.0991366 0.743491 0.93283 0.628283 0.632759 
-0.798488 0.567097 0.196255 -0.612175 0.727309 -0.120513 -0.138401 0.461232 0.775446 0.25828 0.477276 0.241414 -0.731266 0.72129 0.016085 -0.427289 0.301392 0.792784 0.475459 0.817408 -0.510057 -0.000907223 0.752333 0.0809503 0.0253411 -0.336721 0.981817 -0.231166 -0.403895 0.610089 -0.598427 -0.202385 0.177187 0.597827 0.185537 -0.0954552 -0.522687 -0.952954 -0.634214 -0.747241 0.305327 0.843052 0.494173 0.574066 0.564391 -0.48972 -0.853219 -0.13427 -0.696918 0.622231 -0.316861 -0.206992 -0.378674 -0.564528 0.87397 0.64668 0.098751 0.855773 -0.584478 0.694857 0.465887 -0.182905 -0.507528 -0.356902 -0.585078 0.677914 0.547621 -0.107766 0.724967 0.913397 0.144993 0.0302929 0.756449 -0.360834 -0.395642 0.320791 0.149443 -0.248892 -0.813477 0.452505 -0.626638 -0.130346 -0.75449 -0.00531537 0.305131 -0.880513 -0.358635 -0.596118 0.975266 0.0568881 -0.901266 0.441191 0.873983 -0.408794 -0.915771 -0.711089 -0.73087 0.631852 0.181139 0.994111 
0.545247 -0.673868 0.0243896 0.301696 -0.034702 0.628746 -0.377513 -0.885259 -0.620124 -0.190992 0.567247 -0.246762 0.678667 0.812757 0.747926 -0.016202 0.932236 -0.610708 0.38768 0.907502 0.44618 0.486418 0.348656 0.320163 -0.922372 0.432885 0.609067 -0.653242 0.0647355 -0.209793 -0.659145 -0.390017 0.116339 0.365244 0.911678 -0.918363 -0.00600952 -0.465835 -0.803622 0.373866 0.343173 0.763625 -0.872896 0.0218402 0.576381 0.875029 -0.994362 0.508617 -0.735679 0.393318 0.41612 0.710501 -0.120264 -0.235225 0.0306634 -0.0426368 -0.802339 -0.360269 0.304121 0.262396 0.429938 0.644976 0.872379 -0.453724 0.0102198 0.784057 -0.372087 -0.99579 -0.681778 -0.175708 0.378076 0.661396 -0.412083 0.50518 -0.316764 -0.835702 0.380209 -0.311126 0.672915 0.64453 -0.917808 0.0890352 0.355031 -0.0380724 0.85381 -0.614306 0.919291 -0.948529 0.0254252 0.223412 0.313867 -0.544637 -0.131612 0.186246 0.00163923 0.878607 -0.0296972 0.629553 0.882818 0.288525 
-0.546156 0.260894 -0.0500793 0.0417608 -0.233926 0.633157 0.206059 -0.853717 -0.677969 -0.121026 0.790814 -0.595777 0.96801 0.145845 0.36615 0.82182 0.531539 0.285441 0.873291 -0.443036 -0.491147 0.187158 0.0123269 0.377241 -0.626596 -0.986034 0.255848 0.343707 0.643519 0.138666 -0.367768 -0.902637 -0.60044 0.582153 0.139124 0.165634 0.215309 -0.654817 0.311917 0.53734 0.224157 0.102731 0.941562 0.192167 -0.751425 0.307713 0.0139869 0.780114 -0.406846 -0.112722 -0.662921 0.102007 -0.925564 0.349406 -0.520753 -0.55216 0.363372 0.735096 0.791547 0.00689044 -0.126239 -0.576221 0.104253 0.273321 -0.994069 -0.756623 -0.561045 0.22124 -0.41144 0.750872 -0.24142 0.812717 -0.146397 -0.299857 0.00488416 0.102178 -0.992145 -0.981129 -0.117707 -0.398991 -0.0938508 0.219371 0.703016 -0.0194146 -0.431223 -0.817737 0.428426 0.932148 0.917359 0.219972 -0.0609611 -0.20888 0.643751 -0.956708 -0.935559 0.649682 -0.71333 -0.496604 -0.129077 -0.12477 
-0.745732 0.629503 -0.312053 0.107871 -0.670354 0.692831 -0.789951 -0.662499 0.711702 0.0923418 -0.06149 -0.382149 -0.688287 -0.358474 0.598437 -0.11951 -0.176211 0.0268624 -0.187362 -0.258852 -0.753165 0.751677 0.532268 0.890586 0.794969 0.596709 0.540268 -0.918361 -0.899895 -0.588809 -0.0431315 -0.645627 -0.959305 0.644815 0.462244 -0.62966 0.337647 0.672293 -0.292159 0.0493487 -0.235365 0.646351 0.6672 0.0763478 -0.712123 0.265637 0.956838 0.111666 -0.707501 -0.230524 0.852814 -0.460666 -0.478847 0.385082 -0.57008 -0.683878 -0.0182084 0.970189 -0.602239 0.0818968 -0.61862 0.35463 0.43627 -0.577926 -0.000554981 -0.101486 -0.207585 -0.662908 -0.429193 0.500256 0.38644 0.335442 0.146607 0.0536403 -0.58821 0.434484 -0.680723 -0.631373 -0.45385 -0.388224 0.138103 -0.601035 0.15111 0.659256 0.784047 0.58103 0.975378 -0.234161 0.551219 -0.626861 0.847735 0.932599 0.727769 0.284005 -0.645327 -0.272786 -0.817481 0.147088 0.0643051 -0.246674 
-0.352657 -0.549255 -0.911232 0.79395 0.504386 -0.499442 0.228435 0.823663 -0.130815 0.774585 -0.564561 -0.992712 -0.82645 0.586549 0.666544 0.957597 0.167579 0.641922 -0.276565 -0.281202 -0.984939 -0.428829 -0.348603 0.742829 0.855176 0.00606984 -0.529957 -0.962304 -0.846842 0.534348 -0.208978 -0.199499 0.985093 -0.12021 -0.405549 0.489479 0.380348 0.822886 0.313142 -0.750467 0.597471 0.74858 -0.743179 0.771021 0.33513 0.923365 0.728617 -0.497291 0.565287 -0.547947 0.221507 0.580348 0.0232236 0.872904 0.323177 -0.1216 -0.121026 0.79322 -0.0839044 0.0321312 0.327568 0.707118 0.832632 0.312661 -0.413092 -0.572916 -0.19786 0.967256 -0.75003 -0.884719 -0.783211 0.84744 0.863862 -0.526389 0.618461 0.198991 -0.603024 0.347078 0.7017 0.962263 0.799131 -0.0767926 0.54261 -0.177646 -0.203889 -0.134212 0.700754 0.675085 -0.340993 -0.38315 -0.292784 0.986575 -0.676032 -0.460152 0.299236 -0.0891243 -0.0330682 -0.898624 -0.121868 0.216901 
-0.783258 0.0949631 0.0643025 -0.919414 0.568525 -0.317194 0.279508 0.965512 -0.970018 -0.0188247 0.927722 0.829132 0.904411 0.470406 -0.348592 -0.299476 -0.663844 -0.647974 -0.624211 -0.00482623 -0.0309877 0.0828728 -0.0182583 0.292934 0.622678 -0.719116 -0.796192 -0.410454 -0.617757 0.0819364 0.806526 -0.400951 -0.823119 -0.129141 -0.320479 0.745449 0.553767 0.959049 0.71088 0.583545 -0.0597229 0.638683 0.412368 -0.155316 0.108922 -0.936031 0.545214 0.445212 -0.58399 0.920758 -0.559568 0.384998 0.00359378 0.422157 -0.322018 -0.373681 0.703162 -0.118223 0.215969 -0.914496 0.96371 0.0225036 -0.31547 -0.859434 0.893337 0.364092 0.885982 0.446977 0.323108 0.596931 0.0305115 -0.736619 0.235142 -0.556947 0.10809 -0.655425 -0.493013 -0.346717 0.78984 -0.076985 -0.425908 -0.769777 -0.691961 0.577532 0.65239 -0.0140947 -0.795833 0.355529 0.867782 0.420052 0.441055 0.83145 -0.557549 -0.874419 0.971923 -0.664007 0.489607 0.857996 0.78286 -0.18725 
0.456951 -0.184751 0.0762914 -0.308542 0.256031 -0.816687 0.0353071 0.763327 -0.162562 -0.176106 -0.313987 0.412572 0.054799 -0.00492637 -0.011138 -0.291858 0.980565 0.191727 -0.936771 0.848351 -0.384968 0.504585 0.679465 0.0561681 0.630132 0.649722 0.392031 0.117413 0.509366 0.172242 0.93203 -0.0366263 0.988029 0.00755074 0.653653 0.243875 0.194131 -0.309427 0.00678208 -0.969298 0.515482 0.692799 0.441041 -0.429911 -0.311723 -0.568489 0.279219 -0.33145 0.625428 0.338751 -0.482236 -0.762681 -0.157412 -0.804622 0.29434 -0.5271 0.847056 -0.314034 0.593772 0.357895 0.85957 0.526386 -0.677807 0.847946 -0.466101 0.977796 0.0925951 0.727528 -0.334437 -0.899959 0.755088 -0.818558 0.793008 0.197637 -0.247481 -0.519969 0.62755 -0.971837 0.15047 0.251178 0.369263 0.667077 0.488944 -0.787769 0.863981 -0.218163 -0.31152 0.712184 0.468105 -0.718619 0.0703385 0.327308 0.805978 0.392282 0.174209 -0.656132 0.368309 -0.732303 -0.932353 -0.964229 
-0.632846 0.82588 -0.787361 -0.833502 0.0288809 -0.0375111 -0.347882 -0.355589 0.000710323 0.788205 0.895565 -0.633028 0.464566 0.386287 -0.413852 0.329306 -0.825392 0.271451 0.0422861 0.63396 0.555457 -0.891433 -0.0357769 0.360404 0.503166 -0.859987 0.702276 -0.134591 -0.592757 0.751144 -0.100223 -0.228458 0.584066 0.118126 -0.0638564 -0.398012 -0.918367 0.581268 0.250892 0.093323 0.37958 0.149329 0.450559 -0.165701 -0.464662 -0.966542 -0.830613 -0.297647 0.302157 0.200384 -0.650704 -0.150456 0.306054 0.308875 -0.790809 -0.189717 0.455721 0.907012 0.675766 0.856979 0.675161 -0.428364 -0.356168 0.256335 0.700767 0.574243 0.861743 0.79278 0.151412 0.118982 -0.129887 -0.476761 -0.730317 -0.665389 0.362506 -0.198387 -0.637855 0.523577 0.518383 0.670846 -0.269695 0.859152 -0.489637 -0.961515 0.175523 -0.284758 -0.14946 -0.37314 -0.369961 -0.483596 -0.507229 -0.705599 0.100743 0.131697 0.559626 -0.187541 -0.295786 0.412512 -0.402059 0.859381 
-0.472057 0.471003 -0.603483 -0.190739 0.81439 0.759911 0.611159 -0.844154 0.290828 0.116118 0.81873 -0.978971 -0.00931595 -0.669652 -0.94463 -0.833751 0.0522334 -0.0923705 -0.218023 0.686292 0.448333 0.282936 0.973935 -0.457388 -0.596424 0.534282 0.342696 0.104849 -0.0488492 0.945262 -0.0281638 0.500377 0.415385 0.364841 -0.70865 0.227325 0.118762 0.895474 0.363022 -0.589087 0.0318447 0.186267 -0.578543 -0.993613 0.516072 -0.515059 -0.824485 -0.426577 0.386237 -0.0480339 -0.744788 -0.17389 -0.773789 -0.775432 0.364404 -0.356897 0.766298 -0.298126 0.743378 -0.287518 -0.35808 -0.279539 -0.782176 -0.946266 -0.903213 -0.507374 0.276876 0.187024 -0.596527 -0.361576 0.620069 0.397318 0.823423 -0.950068 0.433283 0.34193 -0.485323 0.614367 0.911042 0.908779 -0.443696 -0.834903 -0.278288 -0.220478 -0.600586 -0.918149 0.427475 -0.832511 -0.204688 0.163697 -0.120722 0.445316 0.884097 0.0955106 0.496628 0.970407 0.593951 -0.237989 0.160368 0.978614 
0.386317 -0.252078 0.426275 0.217325 -0.209638 -0.138923 -0.414911 0.311786 -0.552833 -0.50363 0.203221 0.0261768 -0.331065 0.923451 0.785766 0.0755937 -0.987425 0.214148 0.21383 -0.153145 -0.577813 -0.897581 -0.71638 -0.714038 0.177788 0.766244 -0.772836 -0.210514 -0.445825 0.394922 -0.222716 0.979889 -0.827559 -0.792966 0.204262 -0.0682209 0.0656361 0.723431 -0.800454 0.51139 -0.74914 0.417607 -0.52285 -0.0673803 0.343274 -0.704152 1.01096 0.376558 0.508161 0.23114 -0.783396 0.921517 0.345062 -0.508927 -0.812038 -0.440165 -0.734919 -0.590353 0.341173 -0.197469 0.812907 -0.834627 -0.213083 0.954374 -0.613328 0.970945 -0.0966401 0.379504 0.742377 0.0969114 -0.108809 -1.02302 -0.489114 0.38913 -0.0673979 0.874827 0.660752 -0.0428986 0.238453 0.195916 -0.834808 0.440614 0.092969 0.509588 0.946323 0.281703 -0.924798 -0.785413 0.716418 0.420495 0.0191357 0.532744 0.559759 0.826096 0.462697 0.901384 0.781307 -0.616008 0.250877 0.497379 
0.407462 -0.878457 0.496883 0.970673 0.493373 -0.522401 0.84142 0.167285 0.392874 0.028621 -0.623087 0.572419 -0.509562 0.441388 0.0709569 -0.515734 -0.23339 0.123725 -0.328807 -0.509169 -0.414749 0.673321 -0.97776 -0.846953 0.481333 0.513461 -0.936641 0.291663 0.880298 0.279641 -0.20705 0.336811 0.44079 -0.6296 0.297552 -0.0879236 -0.1826 0.0899604 -0.924752 -0.808633 -0.84382 -0.561327 0.710835 -0.292298 0.88079 -0.168135 0.177326 -0.334261 0.953126 0.822392 0.188656 -0.435526 0.474713 0.215644 -0.331632 0.0314595 -0.259997 -0.3076 -0.696235 -0.382889 0.955527 0.193798 0.981552 0.384803 0.510155 0.253305 -0.651316 -0.71333 -0.661388 -0.638665 -0.532756 -0.495769 -0.217149 -0.781348 0.218607 -0.262393 0.0249117 -0.684879 0.386273 0.0154531 -0.865749 -0.442827 0.567311 0.65604 0.780735 -0.78473 -0.314646 -0.473571 -0.0788894 -0.0165192 0.123346 -0.142598 -0.910429 0.121059 -0.789862 0.60819 -0.610264 -0.419276 0.822439 -0.305249 
-0.135206 -0.727359 0.181671 0.709873 -0.506575 -0.564602 -0.58139 0.545309 -0.249429 0.751132 -0.405906 -0.101981 -0.67266 -0.869206 -0.471641 -0.847009 -0.610236 0.179437 -0.359372 0.286636 -0.771464 0.77335 -0.870669 -0.64641 -0.110264 -0.573122 0.942395 0.281102 -0.0366583 0.758603 0.963124 0.845663 -0.913269 0.264021 0.543505 -0.422503 0.646865 0.930809 -0.843179 -0.590135 0.731591 -0.265815 0.242136 -0.896899 -0.124153 0.852065 -0.747482 0.272963 0.0138003 -0.128194 -0.396474 0.242596 -0.352033 -0.241525 0.55178 0.594942 0.189676 0.448949 -0.162145 -0.864857 0.198276 -0.116722 0.994634 0.27587 -0.922158 0.516714 0.928224 0.673707 0.45173 -0.975759 -0.901841 0.186842 -0.280559 0.324667 0.279526 0.649741 0.143158 0.428802 -0.143307 -0.817004 -0.656648 0.466868 0.428869 -0.019532 -0.771754 -0.0245122 -0.390503 0.404615 -0.56549 0.404009 0.506921 0.631407 -0.797142 0.562602 -0.0860483 -0.694532 0.0675238 -0.168719 0.924516 -0.549794 
-0.21323 -0.974841 0.621389 0.512938 0.356367 -0.0497399 0.194006 -0.460474 -0.58468 -0.986624 -0.260246 -0.259402 0.461839 -0.849161 0.707052 0.73601 0.147943 -0.713497 0.151573 0.608505 0.759479 -0.366061 0.21321 1.01477 -0.804228 -0.85936 -0.689976 0.213413 -0.0425365 -0.755418 0.648079 0.747574 -0.695658 0.376475 0.27181 0.643553 -0.731319 -0.592289 -0.766238 -0.302637 -0.494641 -0.0576796 0.387691 -0.977867 0.123431 0.145581 0.813826 -0.711559 0.457388 -0.0971258 0.878692 0.246249 0.501738 0.131232 0.205409 0.778486 0.281747 0.451336 -0.0335534 -0.770178 0.672153 -0.288615 1.02923 0.955802 0.993515 0.254151 0.710977 -0.765135 0.673123 0.86461 -0.0366653 -0.819301 -0.199464 -0.701109 -0.773981 0.994626 0.461451 0.930165 -0.802967 -0.0912279 -0.126814 -0.901417 -0.865729 -0.553424 0.212486 0.359994 -0.780443 -0.502294 -0.180695 0.123343 -0.288929 -0.495701 0.745331 -0.267118 -0.484376 0.790478 0.978043 -0.780309 -0.979044 0.604897 
-0.97134 -0.0799688 0.829578 -0.141917 0.277887 -0.936471 -0.114792 -0.256934 1.00394 0.00880228 0.670333 -0.136796 0.089343 0.856066 0.302052 -0.644141 0.196809 0.502613 -0.0970532 -0.965031 -0.340138 0.595509 -0.447483 -0.531649 -0.70864 0.0712693 -0.748269 -0.792907 0.256406 -0.735357 0.813512 0.320511 0.245298 0.691606 -0.794794 -0.5761 0.699487 -0.0023783 0.246735 0.737477 -0.927737 -0.115834 -0.457524 0.200824 -0.273378 0.906117 0.616585 0.956568 0.361129 -0.564286 0.98696 -0.939757 0.933313 -0.428143 -0.516291 -0.729254 0.664768 -0.330413 -0.541046 -0.075276 -0.0626986 -0.613166 -0.684912 -0.867969 1.01002 -0.51791 -0.306919 0.667381 0.469947 0.862582 0.424524 0.569355 -0.252123 0.967393 -0.200018 0.548872 0.773923 -0.680626 0.426273 0.189046 -0.222121 0.43218 0.193477 -0.220745 -0.964475 0.69737 0.0280697 0.695859 -0.60001 0.431791 -0.388658 0.377737 0.75204 -0.0204081 0.55245 0.775198 0.477974 -0.727815 0.452402 -0.100284 
-0.911882 -0.126619 -0.510063 -0.127118 -0.21675 0.301327 -0.537727 -0.376161 0.588885 0.810928 0.798716 -0.642329 0.21056 0.00952932 0.061292 0.289272 -0.296849 -0.885665 -0.0157762 0.140696 0.580912 0.589705 -0.472683 0.379557 -0.450216 -0.91919 0.156109 0.965292 -0.689625 -0.34897 -0.152189 -0.559778 0.514284 0.408862 0.30404 -0.798274 -0.362186 0.680339 -0.104878 -0.714907 0.556694 -0.337932 -0.430442 -0.174872 0.663659 0.698981 -0.862301 -0.589825 0.803161 0.0642499 0.527231 0.400654 -0.380719 -0.974601 -0.254757 0.253703 -0.866392 0.854604 0.169399 -0.558348 -0.551909 -0.892698 -0.0259848 0.886584 0.458901 -0.76385 -0.797519 -0.927254 0.946093 0.0129709 -0.608914 0.511728 0.656559 -0.0613696 -0.644348 0.378297 -0.397832 -0.584111 0.67899 -0.595341 0.512034 0.249236 0.757185 -0.787666 0.322079 -0.478851 0.398456 0.45948 -0.596958 -0.502195 0.866778 -0.115435 -0.412634 -0.0896485 -0.197194 -0.923985 0.147841 0.0135955 -0.841178 0.0417861 
-1.00116 -0.455363 -0.438023 0.690142 0.451588 -0.0551359 0.0759747 -0.915643 0.328956 -0.253501 -0.496507 -0.148489 -1.0506 -0.717545 -0.0548424 0.288336 -0.170864 -0.621091 -0.229914 0.251886 -0.109076 -0.364861 -0.885011 0.501035 0.529411 -0.110628 0.60429 -0.393173 0.917007 0.768136 0.679265 0.962273 -0.690648 -0.738486 0.67192 0.699416 0.107955 -0.31268 0.794499 -0.484754 0.474838 -0.71652 0.283127 0.457639 -0.42594 -0.675271 -0.209212 0.438875 -0.348357 0.523373 -0.338559 0.567166 -0.873604 -0.256727 0.0593065 0.768339 0.696934 -0.418786 -0.651577 0.594375 -0.680864 -0.948556 0.641641 -0.418409 -0.733087 0.221195 -0.633568 0.338974 0.926508 -0.892161 0.879282 0.350892 -0.615533 0.0950825 -0.12582 0.00781499 0.398005 0.602538 -0.679146 -0.981414 0.155986 0.00605985 0.525734 0.373778 0.793127 -0.366981 0.0929248 0.485898 0.240793 0.362544 0.0965179 0.590661 0.368335 -0.252469 -0.822898 0.622399 0.967599 -0.488582 -0.028197 0.828827 
-0.372344 -0.187121 0.212052 0.0408714 0.946877 -0.882732 -1.011 0.296031 0.69903 -0.634489 0.381456 -0.127878 0.359349 -0.0386913 -0.837274 0.170185 0.584268 0.285978 -0.327879 -0.138254 -0.373388 0.740973 -0.571042 -0.984366 -0.569966 -0.402843 0.664571 -0.626132 0.152252 -0.37767 -0.785731 0.793689 0.454166 0.494965 -0.17711 0.339785 0.542032 -0.151787 -0.364149 0.326267 0.206639 -0.954424 -0.865085 -0.431957 0.0059834 -0.645689 0.788786 -0.40476 0.598382 -0.539724 0.46536 -0.753792 -0.839571 0.891046 -0.711888 -0.321307 -0.472685 0.873881 0.0309894 0.645021 -0.490822 0.278272 0.509762 0.914201 -0.279624 -0.74652 0.310135 -0.733384 0.0702379 0.949736 0.605963 -0.744029 0.980567 0.685387 -0.118455 0.00557835 -0.984179 -0.376225 0.537922 0.588749 0.0804074 0.00210081 0.803892 0.288158 -0.0480298 -0.905512 0.934 0.471738 -1.00856 -0.0978987 0.137553 -0.488281 -0.821929 -0.385358 -0.554394 -0.0855183 -0.128814 0.732686 0.219736 0.887804 
0.709562 -0.219358 -0.81591 0.734259 -0.534918 0.0902866 -0.309011 -0.517153 0.695522 -0.731978 -0.865265 -0.169613 0.287782 0.964912 -0.900901 -0.749926 -0.936894 -0.986943 0.726139 -0.902881 -0.0568131 -0.182185 -0.373463 0.138591 0.457529 0.0391045 -0.943731 -0.742083 -0.148333 0.234407 -0.827936 -0.449092 -0.920849 -0.58583 -0.766739 -0.501614 0.457718 -0.0565359 -0.036546 0.247726 0.201168 0.153282 0.994148 -0.514339 0.0710915 -0.909229 -0.199731 0.1646 -0.843086 -0.501511 0.294977 0.027708 0.263653 0.865046 -0.778192 -0.24829 -0.0287791 -0.8197 -0.00978645 0.778913 0.442367 0.199898 -0.614963 0.421973 0.562004 -0.430293 0.983613 0.0105236 0.483235 -0.063985 -0.736462 -0.328602 -0.942045 -0.803304 0.236919 0.144688 -0.714856 0.950656 -0.730286 -0.650047 -0.584459 0.554681 0.365791 0.743713 0.462596 0.587273 -0.528855 -0.55585 0.764955 0.425426 -0.792403 0.206634 -0.378732 -0.416628 -0.325097 -0.777735 0.190087 -0.362282 0.217555 -0.394555 
0.62526 0.417047 0.304499 0.693222 0.684369 -0.419243 -0.235744 0.912351 -0.514807 0.134674 -0.669384 -0.0489735 -0.306162 0.714027 -0.321587 -0.844774 0.271476 0.143459 -0.42054 0.0618224 -0.385663 -0.23873 -0.800979 0.282752 0.368523 -0.0545757 0.419244 -0.522215 0.59187 -0.395918 0.108666 0.232661 -0.876945 -0.512177 -0.146899 0.691578 -0.00452682 0.680578 0.632488 0.596248 -0.24058 1.00038 -0.551982 0.373748 0.661509 0.146173 0.62002 -0.0423833 -0.720532 -0.821957 -0.855756 -0.173047 -0.110034 -0.730078 -0.902155 -0.698848 0.25297 0.40648 -0.230416 -0.127134 -0.896459 0.864454 -0.86467 -0.913605 -0.645761 -0.0798999 0.899927 0.331003 -0.438944 0.496281 -0.0920581 0.323943 0.467957 0.244379 -0.203233 0.177387 -0.656653 -0.687838 -0.888726 -0.440168 -0.572745 -0.841612 0.398999 0.304166 -0.51131 0.463239 0.687555 0.794606 -0.0971358 -0.629986 -0.341736 -0.0474988 -0.702542 -0.267666 0.127655 -0.32227 0.701925 -0.0414749 -0.965656 -0.807152 
-0.460842 -0.20189 0.549695 0.992305 -0.789188 -0.629101 0.0734249 -0.536168 -0.358221 0.346026 0.132253 0.125873 0.541262 -0.462996 -0.477153 -0.977704 -1.00608 -0.788944 0.790983 -0.04501 -0.309924 -0.577579 0.812114 0.0164644 0.139645 0.0647087 0.591632 -0.235877 -1.01436 0.566561 -0.0108853 -0.461973 -0.490309 -0.384422 -0.55251 -0.439731 -0.0917732 0.609355 0.059381 0.67871 -0.0892777 -0.794494 -0.247271 -0.663999 -0.292254 0.231106 -0.541101 -0.279876 0.425073 -0.779369 0.808494 -0.974476 -0.377627 0.54831 -0.0107492 0.778757 -0.368057 -0.477377 -0.431864 -0.359637 -0.796956 0.531432 0.178492 -0.41709 -0.787337 0.581852 0.240823 0.0983821 0.173836 -0.73166 -0.239737 -0.895817 -0.533725 0.354951 -0.484825 0.242953 -0.443139 -0.141307 -1.06374 -1.0777 0.0564688 0.628272 -1.00186 0.582903 0.229397 -0.0892587 0.478542 0.951806 0.478926 -1.053 -0.443629 0.597103 0.571111 0.713952 -0.718674 0.776352 0.381956 0.433193 -0.0544937 -0.524249 
0.796105 0.543314 -0.395488 -0.700099 0.0163274 0.142039 0.444885 0.516736 0.980816 0.474387 0.581964 0.0609205 0.15247 0.540926 -0.212398 -0.542828 -0.509947 -0.729494 -0.617497 -0.906932 -0.690391 0.00381402 0.573616 0.832728 -0.314928 0.946787 0.590684 -1.07678 0.365839 -0.5725 -0.493626 0.17978 -0.923668 0.188275 0.36029 -0.0402928 -0.77478 -0.144502 -0.48451 -0.699838 -0.713782 -0.909124 0.364328 0.371904 0.600858 -0.924189 0.989308 -0.914059 -0.698039 -0.68637 -0.75696 -0.46667 0.233364 0.779047 -0.617589 0.948281 0.838829 0.919323 0.986853 0.197276 -0.591 -0.510641 -0.654552 -0.541919 0.628721 0.680768 0.484953 0.860963 -0.581696 0.975001 -0.848955 -0.184998 -0.929065 0.362755 -0.749369 0.766339 0.406222 -0.932875 0.798443 0.710806 -0.6763 -1.02426 -0.721236 0.598716 0.793965 -0.398274 0.62639 0.711188 -0.445406 0.504858 -0.192066 -0.112415 -1.02399 0.24381 0.441155 0.625629 0.0276883 -0.163952 0.555062 0.455877 
-0.107999 0.610083 -0.685635 0.00580444 0.0765384 -0.458798 -0.315629 -0.509049 -0.384214 -0.413482 -0.708419 0.00305567 -0.354438 -0.463338 -0.313937 -0.403523 0.171229 -0.763552 -0.72288 0.737053 0.814363 0.236216 -0.407024 0.719704 -0.58922 -0.878383 0.348301 0.299901 -0.0645728 -0.185455 -0.159791 0.827881 -0.511045 0.187054 -0.278454 0.43767 0.658329 0.431345 0.923637 -0.717417 0.98893 -0.794316 0.319608 -0.414946 -0.299558 0.923874 0.296604 0.846829 -0.853489 0.543432 0.680316 0.844292 -0.263862 -0.717545 0.609493 0.144298 -0.546371 -0.0675187 -0.399491 0.380149 0.784 0.452853 0.223325 -0.716431 -0.415114 0.959253 0.722334 -0.778866 0.31044 0.616002 -0.492064 0.450599 0.857828 0.714045 -0.966846 -0.355457 0.546167 0.191957 -0.538349 0.680975 -0.256255 -0.904912 0.585381 0.43668 -0.602684 0.167817 -0.337876 -0.0693149 -0.858509 0.162463 -0.726603 0.892795 -0.425909 0.552717 -0.832256 0.152939 0.627469 0.853896 0.426938 -0.0876145 
0.562119 0.860122 -0.647101 0.455109 0.637207 -0.661748 1.04416 0.192096 0.552733 -0.53853 -0.0120718 -0.65534 -0.31086 -0.454717 0.886242 0.154003 0.762697 -0.512238 -0.897602 0.828162 0.697277 -0.551296 0.69946 -0.749292 -0.993521 0.915417 0.391011 0.472019 0.783747 -0.350177 -0.526396 0.273691 -0.38434 -0.170281 -0.38158 -0.850272 0.101735 -0.432726 0.284919 -0.36081 0.0394273 -0.703259 0.0542933 0.688499 -0.229565 -0.134715 -0.085312 -0.506014 0.336511 -0.00315954 -0.554764 -0.0584338 0.459251 -0.837671 0.227359 0.432629 -0.835522 -0.41208 0.0139965 0.905689 0.285949 0.546426 0.210501 0.925803 -0.722502 0.791438 1.01855 0.386188 -0.708213 0.305587 -0.982192 0.497535 0.621157 0.0751843 0.183015 -0.538883 0.837777 -1.04969 -0.0729407 0.162777 0.00764535 0.371555 -0.854179 -0.618234 0.51721 0.37606 0.84155 0.746406 0.991321 -0.210421 0.607667 0.277836 -0.731957 -0.153659 0.1441 -0.459544 -0.27901 0.166292 0.956757 0.0221101 
-0.499918 0.981535 -0.512484 -0.856593 0.0378382 0.583318 -0.403377 -0.0902718 0.601077 0.473362 -0.80277 -0.394407 -0.0505678 -0.656345 0.0579443 -0.48029 0.788617 -0.0902363 -0.703179 0.65407 0.701275 0.950825 -0.101926 -0.948998 -0.17441 -0.917779 -0.418841 0.388221 0.27404 -0.64892 -0.520152 0.696638 -0.550543 -0.0783843 0.818295 0.427553 -0.528417 -0.712952 -0.659245 -0.956947 0.785696 -0.50453 -0.328914 -0.264046 -0.194779 0.764868 0.312847 -0.474125 -0.376322 0.595424 -0.717537 -0.714338 0.513528 0.198491 -0.637931 -0.672696 0.376255 -0.109285 0.758248 -0.398669 0.309792 -0.701729 -0.691764 0.746874 0.0962489 -0.920635 0.141328 0.616261 -0.703757 0.454282 0.606981 -0.803137 0.997057 -0.659144 -0.0672149 -0.159707 -0.992168 -0.869753 0.344804 -0.360535 0.766288 0.640434 -0.0210865 0.274713 -0.12433 0.357551 0.601963 -0.787163 -0.737173 0.340108 -0.220489 0.53919 0.559404 0.0594992 0.272115 -0.258342 0.188838 -0.574491 -0.692688 0.472357 
0.916544 0.998301 0.693556 0.942151 -0.701838 -0.456428 -0.218678 -0.61522 -0.266936 -0.906794 0.129591 -0.526536 0.780705 -0.90624 0.773064 -0.345324 0.515854 0.411205 -0.132709 0.635018 -0.251782 0.641699 0.129263 -0.573266 -0.271393 -0.543691 0.11887 0.792082 -0.138258 0.298742 0.358591 -0.237422 0.364369 -0.0150292 -0.294632 0.659737 0.50826 0.383926 -0.915617 -0.786573 0.51599 0.137154 -0.27228 0.304395 0.247414 -0.460215 1.00123 -0.315639 0.892266 -0.200348 -0.618824 -0.349852 -0.602099 0.535433 0.0536623 0.107514 -0.946978 -0.901008 -0.0249383 -0.0599769 0.46259 -0.62878 0.682917 -0.196195 0.280791 -0.645289 -0.530654 -0.122122 0.706693 -0.479375 0.0589713 0.262552 0.718103 0.858508 -0.450854 -0.0201883 -0.701475 -0.552227 0.609901 -0.744709 0.308297 -0.986159 -0.0805307 0.687726 0.59854 0.987659 -0.149502 0.578969 -0.93752 0.819119 -0.535192 0.526278 -0.851783 -0.820718 -0.692 0.521391 -0.421714 -0.205418 -0.690847 -0.707503 
0.344826 0.447981 0.615249 0.0862792 0.279633 -0.927641 1.03827 0.656533 -0.427728 0.632414 0.966436 0.777903 0.647256 -0.112439 0.532172 0.225216 -0.0655651 -0.598381 -0.18778 -0.124426 -0.787372 0.316956 -0.680538 -0.549335 0.494924 -0.310272 0.905862 -1.00091 0.446846 -0.835078 -0.682286 -0.197876 0.651391 0.868549 0.878465 -0.0653942 0.91428 0.856818 -0.358259 -0.53342 0.511201 -0.420318 -0.681158 0.161346 0.463716 0.849427 -0.602144 -0.67019 -0.820451 0.194564 0.254412 -0.572379 -0.551464 0.594926 -0.202202 0.931979 -0.659189 -0.34797 0.973461 0.813052 -0.142912 -0.698026 -0.469767 -0.508383 -0.853071 -0.587332 0.448233 -0.883787 -0.779307 -0.957884 -0.394809 0.78127 -0.319855 -0.0258735 -0.119232 -0.841217 -0.258396 0.23792 -0.559217 0.00608397 -0.525204 0.676427 0.440689 -0.0810921 0.346027 -0.737621 -0.0902179 0.610098 -0.14208 -0.154112 0.350495 0.719151 0.177407 1.02653 -0.796685 0.364999 -0.550021 0.657715 0.438946 -0.344622 
0.752499 -0.926304 -0.508774 -0.573228 -0.00144668 0.327863 -0.42994 0.82508 -0.408734 -0.00823456 -0.14859 -0.00730931 -0.352873 -0.69773 0.913448 0.983878 -0.47039 -0.136578 0.60639 0.376805 0.699992 -0.00899175 0.00132792 -0.0548436 -0.00842195 0.273711 -0.699879 0.377243 -0.0709008 0.664527 -0.925834 -0.329411 0.771675 -0.510249 0.0936932 -0.231823 0.769436 0.640215 -0.357826 -0.643288 -0.39482 0.463685 0.405547 0.278228 0.800519 0.364999 0.264854 -0.673193 -0.850612 -0.135117 0.737585 0.916528 0.81618 -0.212558 -0.231152 -0.183778 -0.877377 -0.0163142 -0.798288 0.0123747 -0.33413 -0.703299 0.649557 -0.621082 -0.215599 -0.258198 0.256132 -0.423412 -0.649201 0.82294 -0.0172502 -0.0302711 0.347104 -0.581457 -0.781985 0.147761 0.694845 0.447725 0.441275 0.89364 -0.687734 0.149131 0.773757 -0.869726 0.978603 -0.448379 0.00707697 -0.942362 0.512375 0.145985 0.0417003 -0.804297 0.483624 -0.205205 -0.348381 -0.685144 0.540269 0.857914 -0.122439 0.844914 
0.70279 0.856508 -0.142814 0.072714 -0.753934 0.0544175 -0.790244 -0.996599 -0.469039 0.633987 0.903641 -0.189351 -0.217106 0.696861 -0.0184783 -0.225476 -0.752202 1.00157 -0.161442 0.745303 0.169379 0.886446 0.901539 -0.310718 -0.337006 -0.427294 0.0175054 -0.826297 -0.548677 0.808319 -0.92249 -0.863511 0.700268 -0.0870333 0.238609 0.92242 0.916317 0.386193 0.965959 -0.554412 0.0104544 0.860995 0.313963 0.821727 0.577796 -0.679628 -0.362918 0.828445 -0.74513 0.435202 0.613375 0.449563 0.330232 0.52854 -0.905011 -0.977 -0.846032 0.0303476 -0.783748 -0.432121 -0.159925 -0.701331 -0.312756 -0.518559 0.187203 0.892152 -0.455319 0.13996 0.282915 -0.555813 0.634769 -0.701104 -0.649271 -0.0135105 -0.863076 0.944708 0.251668 -0.282808 0.763227 0.541956 -0.830584 0.356393 -0.0309857 0.513287 -0.0796842 0.113391 0.571257 0.0437666 -0.90672 0.72722 0.574309 -0.0825697 -0.955256 -0.672931 0.490959 0.289852 -0.777114 0.978965 -0.567431 0.481646 
-0.544335 -0.925866 0.774696 -0.187145 0.0384543 0.884909 -0.237058 -0.674169 -0.404659 -0.478931 0.870917 -0.238855 0.89934 -0.152788 -0.73436 -0.201472 0.920184 0.837033 0.842316 -1.00888 0.596037 0.409262 -0.0629828 0.66496 0.730587 -0.560061 -0.0774119 0.956012 -0.555833 0.340158 0.468828 -0.0834866 0.44774 0.229884 0.737579 -0.528864 0.0909147 -0.525447 -0.18149 0.717615 0.00421102 -0.326379 -0.536567 -0.111691 0.56321 -0.251292 0.687078 0.477683 -0.448211 0.515382 0.484807 -0.86021 -0.0462482 -0.561238 0.800979 -0.299783 -0.0920156 -0.30602 -0.33881 0.334384 -0.946674 -0.911536 -0.773203 0.481481 0.340767 0.916306 0.980185 -0.569655 -0.592438 -0.208136 -0.873454 0.38966 0.476666 -0.381786 -0.709196 0.0310952 0.364798 0.979595 -0.48216 0.929461 0.504876 0.981414 -0.940025 -0.531525 -0.551164 0.843963 0.171701 0.328379 -0.429596 0.8099 -0.357155 -0.380784 0.938352 -0.1157 -0.872609 0.290305 -0.184981 -0.922937 0.704278 0.240531 
-0.11192 0.86158 -0.373397 -0.628519 -0.521882 -0.0784306 0.40062 0.837189 -0.093521 0.899881 0.768544 -0.583906 0.8866 0.836456 -0.116118 -0.682672 0.694155 -0.948249 0.651373 -0.742956 0.886548 -0.705564 -0.121471 0.832682 0.172763 0.00411515 0.11424 0.993755 0.0931574 -0.186424 0.224205 1.00908 -0.313121 0.84308 -0.628064 0.163635 -0.247088 0.77926 -0.00227358 0.679614 0.674757 -0.228233 -0.910847 0.558211 -0.371626 -0.0158517 0.869346 -0.677566 0.016675 0.515624 -0.413291 -0.0975774 0.820557 0.469758 -0.265675 0.00091276 -0.519153 0.823793 0.00166548 0.581538 -0.34823 -0.783932 0.577558 0.332518 -0.929938 0.928765 -0.483473 -0.170483 0.711579 0.504034 -0.494387 0.373114 -0.712536 -0.396658 -0.0608938 -0.0911718 0.567831 -0.191097 0.238719 -0.414394 -0.668049 0.81368 0.487546 -0.849983 0.298946 -0.785849 0.165257 0.770314 -0.941059 -0.851312 0.347559 -0.275168 -0.625006 -0.0747244 -0.937491 -0.555532 -0.127942 -0.445894 0.264004 -0.416244 
-0.913106 0.776273 0.949214 -0.614181 -0.625063 -0.1155 0.298515 0.944496 0.694696 -0.468394 -0.458958 -0.975158 -0.651204 -0.965591 -0.825228 0.642813 -0.743853 0.3365 0.409491 -0.688454 0.49418 -0.244773 0.0254956 0.870977 0.681877 0.0854585 -0.687269 -0.454878 0.653273 0.582269 0.119604 0.741604 0.358132 0.0677518 -0.875567 0.73356 0.950452 0.425827 0.680007 0.646595 0.952237 -0.777325 0.672616 -0.698086 -0.741512 0.850138 0.942203 -0.487611 0.184864 0.351784 -0.174875 -0.319592 -0.890118 0.851964 -0.447605 0.790057 -0.0629843 -0.139204 -0.663487 -0.408619 -0.554856 0.453047 -0.667638 0.802543 -0.479135 -0.54351 0.540939 -0.528324 0.876011 0.220418 -0.878574 0.828649 0.444065 0.790764 -0.868444 0.702034 0.638617 -0.927334 -0.784157 -0.175695 0.425895 0.040344 0.503835 0.534943 -0.106245 -0.944646 0.327677 0.830477 -0.0850618 0.664307 -0.579689 0.362423 0.115551 -0.245799 0.166391 0.637428 0.210518 -0.3012 -0.890579 0.0872609 
0.926839 -0.771137 -0.0847391 0.370871 -0.980263 0.0460918 0.072734 0.660521 0.119479 0.288645 -0.513695 -0.455423 -0.669642 0.990534 -0.920245 0.223883 -0.955222 0.406613 0.0543385 -0.038444 0.069854 0.476057 -0.676134 -0.813537 -0.769835 0.490825 0.823678 0.440048 -0.803296 0.933455 -0.473465 -0.87646 -0.837692 0.441788 0.49439 -0.817951 -0.512129 -0.432866 0.842582 0.607359 0.855743 -0.671098 -0.848053 -0.813894 -0.680558 -0.768277 0.409972 -0.635796 0.638328 -0.535693 0.325768 -0.29181 0.940392 0.649642 -0.105338 -0.829459 0.140468 -0.281693 0.610595 0.33717 -0.348226 -0.862892 0.460716 -0.185925 0.578895 -0.0448993 -0.00384683 -0.93323 0.522192 -0.161257 0.674159 0.377934 0.167649 0.826076 0.564043 0.487093 -0.942209 -0.025988 0.851309 0.696123 0.438325 0.17707 -0.595688 0.378714 -0.173274 0.298971 0.549266 0.967194 -0.982744 0.159872 0.304353 -0.330953 0.296958 -0.234921 0.483134 -0.12413 0.720176 -0.520775 -0.057355 0.242367 
0.318027 -0.383216 -0.379696 -0.514327 -0.55714 -0.815653 0.972761 -0.499337 0.158362 0.824068 -0.803206 -0.403316 0.00115104 -0.398895 0.975398 0.827877 0.90006 0.524663 0.79507 0.917333 -0.315476 0.0994363 -0.413619 0.981496 0.864519 -0.93048 -0.142635 0.584695 -0.451196 0.800012 -0.172937 0.866831 -0.583205 0.447367 -0.647495 -0.140345 0.631714 -0.674735 0.360318 -0.209924 -0.850667 0.557111 0.38676 0.150484 -0.841784 0.362158 -0.0216389 -0.941724 -0.113179 -0.226569 0.97561 0.571345 0.872868 -0.438009 0.552841 0.737386 -0.368488 -0.589794 0.322081 0.180316 -0.789783 -0.850856 0.0471475 -0.372987 0.596511 0.399652 0.486668 0.228225 0.724918 -0.153015 -0.981698 0.874251 -0.595903 0.405062 0.0247354 -0.437687 -0.23278 -0.996903 -0.379411 0.654041 -0.223472 -0.403801 0.225386 -0.350604 0.15819 -0.221773 -0.613218 0.789702 0.188433 0.708863 -0.0299824 0.39865 0.858007 -0.982835 -0.974338 0.454518 0.416817 0.51233 -0.317257 0.141735 
-0.638047 -0.297418 0.0174862 -0.235735 -0.89455 -0.959941 0.326369 -0.126751 -0.955977 0.945567 -0.473214 -0.179306 -0.457873 0.754538 0.470251 0.700529 -0.468708 0.856902 0.491548 0.717317 0.567113 -0.538087 0.117562 0.423022 -0.522428 0.141465 -0.123392 0.891877 -0.345164 0.559575 0.0367012 0.0130977 -0.737443 -0.946634 0.77886 -0.630292 -0.905872 0.104951 0.239962 -0.863209 0.0517844 0.767755 -0.0441826 0.593727 0.52036 -0.573322 0.294307 -0.948375 -0.7164 -0.217289 0.773808 0.848246 0.242724 -0.110936 0.273261 0.72115 -0.967221 -0.847849 0.617507 -0.309775 0.710118 -0.346356 0.704869 0.972215 -0.295165 0.484391 -0.65804 -0.200331 -0.412471 0.579957 -0.0663543 0.639674 0.346949 0.89331 0.234226 -0.130753 -0.682157 -0.472815 -0.0777139 -0.399018 0.310507 -0.305843 -0.548939 -0.446128 0.585246 0.721027 -0.72224 0.617938 0.872601 0.895077 -0.692191 0.582989 -0.452958 -0.987367 0.553557 0.25695 0.495765 0.895633 -0.948304 -0.914668 
0.485775 0.00744302 0.742453 -0.150238 -0.137692 -0.0539831 0.719152 0.190035 0.46498 -0.384881 0.795857 -0.196569 0.319885 -0.748345 0.343603 -0.0886745 0.969335 0.660703 -0.461287 0.829203 0.527115 -0.188054 0.420293 -0.907554 -0.163263 -0.0345039 0.323535 -0.680773 -0.139974 0.342095 -0.582211 -0.68052 -0.621953 -0.855713 0.168453 0.232101 0.0935302 -0.114998 -0.576769 -0.418972 0.525348 -0.788938 0.341079 -0.183262 -0.523669 -0.285152 0.723217 -0.549589 -0.664112 -0.763873 -0.706366 0.856736 0.0205796 0.670301 0.932088 0.886631 -0.288545 0.291375 -0.769215 0.595696 -0.372478 -0.343098 0.9254 -0.0050101 -0.216771 0.116144 -0.735825 0.961851 0.966008 -0.346364 -0.555382 0.465595 -0.123422 0.853628 -0.677331 0.341711 -0.440177 -1.00367 0.807661 -0.0978071 -0.764053 -0.899016 -0.221717 0.272316 0.820806 -0.305643 0.187996 -0.483142 0.976343 0.399152 -0.918713 -0.399242 -0.981476 -0.988002 0.607217 -0.117902 0.116057 0.831869 -0.273289 0.103819 
-0.566064 0.251487 -0.412922 0.489193 0.0707838 -0.185427 -0.180914 0.574666 -0.118398 -0.466436 -0.505131 0.165714 -0.280063 0.270819 -0.575414 -0.420754 1.00527 0.644878 0.0774464 0.991771 0.0234405 0.0303761 -0.466183 0.144919 0.0954005 -0.872362 0.941398 -0.821617 0.987708 -0.444 0.27483 -0.560453 0.883309 0.914316 0.829115 -0.0973166 -0.277702 -0.407747 -0.492688 0.658181 0.244887 0.00846222 -0.342319 0.76315 -0.658809 0.12036 -0.643665 -0.680252 -0.343255 0.304299 -0.728432 0.703114 -0.694726 -0.222453 -0.284592 0.495908 0.0695812 -0.224304 0.676759 0.0253046 0.399164 -0.00043446 0.454693 0.258474 -0.0957586 0.292871 -0.788201 0.764059 0.852164 -0.239775 0.264849 -0.0729926 0.718223 1.08968 -0.143152 -0.956384 0.136379 0.109966 -0.568621 0.847433 -0.57937 -0.363028 0.507657 -0.232898 0.516867 -0.739621 -0.706888 -0.492753 0.0492756 0.82618 0.492829 -0.610695 -0.137613 0.00340528 0.712163 0.880621 -0.732063 0.813068 0.457279 -0.861694 
-0.628803 -0.234223 0.164912 -0.652003 -0.140031 0.939816 -0.560754 0.836815 0.178431 -0.387458 0.695546 0.581768 0.468104 0.290505 -0.730661 -0.00783565 0.642707 -0.338638 0.445374 -0.345848 -0.445989 -0.279588 -0.0298245 0.595733 0.752193 -0.388363 0.288609 -1.02031 -0.542329 -0.330729 -0.880747 -0.00263615 0.565697 0.364696 0.268849 -0.684489 0.246417 0.541749 -0.858372 -0.569491 -0.645715 0.852559 0.830864 0.572468 0.179804 -0.756866 -0.4716 -0.233846 -0.341857 0.84513 0.302983 0.281879 -0.367379 -0.71439 -0.402851 -0.461892 0.0387782 -0.903125 -0.461243 0.435973 -0.192772 -0.190044 -0.593886 -0.622659 -0.796212 0.624688 -0.236033 0.452071 0.300035 -0.0368814 0.825272 0.353873 -0.212658 0.906833 0.13928 0.888114 0.927533 0.790989 -0.267395 -0.260706 0.549693 0.970432 -1.12157 -0.835447 -0.654633 -0.384756 -0.232535 0.330437 -0.251524 0.170472 -0.256825 0.550277 -0.969314 0.322997 0.943574 -0.782907 -0.0882345 -0.341044 0.553658 -0.888436 
0.422459 0.352084 0.753022 -0.736483 0.0905142 -0.147682 -0.656752 -0.00414866 -0.494602 -0.238887 0.807516 1.04864 -0.0914833 0.738553 -0.879423 0.311457 -0.357213 0.0265841 -0.388882 0.352883 -0.772884 0.0922534 -0.102588 -0.450856 -0.516457 -0.248659 -0.489182 0.447805 0.418171 -1.11445 0.48069 0.0570538 0.441097 0.322367 0.358718 -0.611079 -0.913297 0.534006 0.317332 -0.370203 -0.515325 0.221195 -0.619488 0.378102 -0.0027452 -0.261293 -0.388588 0.456809 0.452734 0.0794829 -0.380813 0.89887 -0.696271 0.592061 -1.0124 -0.0412461 -0.566065 -0.382357 -0.659323 0.765797 -0.405832 -0.754901 0.0909837 -0.960922 0.578546 -0.686847 -0.329173 0.550862 0.83982 1.06499 1.08162 -0.734713 0.181002 -0.24688 0.72798 -0.86366 0.158352 -0.532047 0.616709 -0.198627 0.397208 -0.805763 -0.408444 0.635213 0.924626 -0.211829 -0.332969 -0.67442 0.529905 -0.0575929 -0.821947 -0.857647 0.0609405 0.427141 -0.800731 -0.553708 0.599438 -0.141704 0.744792 0.535575 
-0.38092 0.873085 0.974637 0.678321 -0.772454 0.640689 1.09584 0.437653 0.918407 0.282815 -0.445005 0.404116 0.629953 0.110786 -0.122257 0.588487 -0.770911 0.779481 1.00617 0.711616 -0.310405 -1.00992 0.779142 1.07142 0.471231 -0.946146 -0.541262 0.202877 -0.207042 -1.06955 -0.343846 0.511482 0.936445 -0.0567065 0.435007 -0.894938 -0.583172 0.342903 0.559851 -0.531892 -0.289754 -0.820434 0.684541 -0.51009 0.304434 -0.249575 1.14356 0.264357 -0.73792 0.895101 -0.176408 0.232569 -1.15891 -0.209561 -0.163312 0.675497 0.0106992 0.153713 -0.212133 0.691124 0.128577 1.05798 0.748457 -0.012489 -0.233399 -0.0530987 0.436854 0.0608189 -1.10315 0.0650085 0.50158 -0.150218 0.0696038 0.305931 0.330663 -0.600314 0.77553 0.371649 0.528617 -0.752591 0.202225 -0.561094 0.460131 0.148115 0.461491 -0.445866 -0.127391 -0.499184 0.734857 0.583786 -0.718522 -0.135314 0.346059 -0.881728 -1.05518 0.88525 -0.105502 0.366062 -0.309215 0.140639 
-0.933075 -0.761351 -1.0691 0.0412766 0.160806 0.173678 0.79351 0.165573 -0.542207 -0.155225 0.77368 0.773187 0.534606 0.230751 -0.320997 -0.00155043 0.935372 0.83383 0.723729 0.536848 0.562809 -1.08444 -0.617083 0.0524755 -0.843642 -0.471968 -0.0332176 0.122745 0.734516 0.521617 -0.862335 0.802841 0.808838 -0.411721 0.119965 -0.0236702 0.539409 -0.571448 -0.844382 -0.769127 0.525973 0.953267 0.911251 0.0680604 0.185374 -0.160256 -0.537704 -0.110997 -0.577063 0.817488 -0.391277 -0.822215 0.708071 0.190079 -0.113984 -0.779454 0.976259 0.605064 0.139797 0.573462 0.042746 1.0303 0.878481 -0.353092 1.13824 -0.228105 1.11709 0.497408 -0.244506 -0.799196 0.745313 -0.460757 -0.913857 0.736711 0.670032 0.410255 -0.79419 0.83819 -0.957402 -0.143221 0.765089 -0.151773 0.0555652 0.513265 -0.786843 -0.733691 0.710357 -0.776154 0.886898 -0.292691 0.738163 -0.00687823 -0.665067 0.843052 0.823705 -0.710345 -0.460051 0.900573 0.65362 0.527176 
0.874306 0.519464 -0.915365 0.892823 -0.117179 0.660774 0.635492 0.442067 0.42774 0.270379 -0.250468 0.219999 -0.714501 0.817941 -0.484716 -0.397186 -0.895478 -0.59728 0.164245 0.804461 0.378338 -0.231668 -0.2403 0.964371 -0.239382 -0.0905266 -0.549458 0.154203 -0.533852 0.937702 -0.400991 -0.441547 0.51232 0.0373104 -0.235161 -0.671941 -0.551036 0.791291 0.889355 -0.750029 0.467916 -0.480401 0.312836 0.886204 -0.686917 -0.924516 -0.0460342 -0.763037 -0.672139 0.70768 -0.718457 1.04458 -0.710261 0.225752 0.610425 0.496481 -0.637227 0.5818 -0.574642 -0.142187 0.40884 0.735597 0.813122 -0.377282 -0.779214 -0.826992 0.712218 -0.363084 -1.31768 0.26705 -0.0924781 0.23957 0.848282 -0.667691 0.39519 -0.596632 -0.934257 0.90695 -0.626677 -0.625344 0.774344 -0.367669 -0.532462 -0.746658 -1.02206 -0.647313 0.630415 -0.650955 0.920573 -1.20963 0.166971 0.402433 0.0289265 0.183063 -0.553974 0.315695 0.37342 0.911158 -1.03056 0.180558 
0.0210549 -0.0832574 -0.261123 -0.128372 -0.183112 0.954595 0.619475 -0.0383381 0.694939 0.335344 1.06847 0.517434 -0.898059 -0.448031 0.502224 -0.696333 -0.194106 0.243296 0.117242 -0.290733 0.275932 -1.01456 -0.955082 -0.161567 0.331287 -0.182052 -0.606608 -0.449422 -0.639422 -0.907624 0.568973 0.728089 0.0130075 -0.48362 -0.0398674 0.735391 -0.892849 1.0427 0.0840637 -0.741069 0.701473 -0.0970638 0.426685 -0.949376 0.376829 0.291825 -0.231036 -1.0265 -0.653358 0.488895 -0.259864 1.20174 0.196223 -0.0318431 -0.343999 -0.0543722 1.02481 -0.549809 0.253098 -0.601642 -0.476563 0.532549 -0.543478 0.26544 0.46193 -0.00196775 0.765909 0.627354 -0.119007 -0.753156 0.984535 -0.609669 0.236637 0.579977 -0.290026 -0.158662 -0.449769 0.133803 -0.469427 -0.10533 -0.292123 0.0846694 0.0944767 -0.92248 -0.66611 0.863528 0.0112004 -0.77056 -0.658823 -1.02809 -0.454612 -0.0576725 -0.146352 0.273793 -0.351782 -0.363545 -0.599534 -1.00883 -0.701269 0.157905 
-0.691708 -0.645963 0.875911 0.384105 0.389876 -0.242178 -0.640722 -0.97622 0.458232 -0.661351 0.641116 -0.809286 0.472746 -0.279489 -1.12222 -0.845088 -0.480433 0.0635285 -0.343999 0.0586654 0.172556 -0.060042 -1.06233 -0.451135 -0.548773 -0.0901835 0.482272 -0.358028 -0.467818 0.62838 0.600733 0.100327 0.741713 0.791086 -0.13087 0.212239 -1.10413 -0.0968894 0.678622 0.750892 0.353905 0.170499 0.54495 0.0732092 0.691811 0.938212 0.524798 -0.859847 -0.141525 0.860855 0.143705 -0.476291 -0.310765 0.201265 0.0372106 0.403866 -0.937086 -1.18963 0.889624 -0.25391 0.40782 0.912803 -0.877795 0.00645377 0.275582 -0.459712 -0.300451 0.284185 0.320562 0.807502 0.356212 -0.552967 -0.058389 -0.253011 0.799091 -0.192316 -0.35914 -0.0618065 -0.317233 0.431495 -0.137263 0.524671 -0.964036 0.668373 -0.119351 -0.100855 0.136134 -0.0719145 -0.10355 -0.321657 0.472182 -0.686236 -0.88861 0.884839 0.675484 0.71989 -0.325965 -1.00876 0.140957 0.735529 
-0.919892 -0.618111 -0.40988 -0.308353 -0.224523 -0.434481 0.439198 0.570022 0.13974 0.850048 0.630572 1.05234 0.338805 0.595491 0.276257 -0.440622 -0.418077 -0.361153 0.755976 0.742431 0.381343 0.101126 -1.18209 0.778493 0.201799 0.938123 0.824643 0.581309 0.633741 -0.229182 0.234063 0.89057 0.013729 1.11752 -0.0414489 0.893745 -1.04381 -0.737897 0.843045 0.615672 -0.855843 0.469813 0.283183 0.501227 -0.248015 0.103202 -0.502686 0.310612 0.493262 1.01466 0.00877416 0.151517 -0.00977051 -0.0855878 -0.0145806 -0.615415 -0.283563 -0.99963 0.855039 -0.462104 -0.111702 0.303921 -0.511681 0.64248 0.254304 0.0685637 0.983889 0.242755 0.161065 0.383818 0.3566 0.141662 -0.418181 -0.941476 0.043762 0.662599 0.116508 0.0564741 -0.426111 -0.577903 0.121577 0.342305 0.648396 -0.651761 -0.715227 -0.59484 -0.22955 0.100331 -0.299288 -0.571685 0.451059 0.568117 0.314472 -1.05675 0.554793 -0.245844 0.389959 0.0996179 -0.883036 -0.897928 
-0.165979 -0.0177332 0.610381 0.0926133 -0.0472726 -0.00308343 -0.548979 -0.818496 0.819186 0.19055 0.289528 0.225823 -0.579427 -0.184105 0.0720969 0.222534 0.212235 -0.783098 -0.58554 -0.78973 -0.449685 0.74253 0.785545 -1.02617 0.932903 0.678042 -0.0296464 0.106556 -0.322441 -0.0254617 0.241363 0.514078 1.09178 0.392768 -0.290226 -0.00567579 0.712192 0.460623 0.303961 1.18343 -0.42666 -0.177424 -0.0543345 -0.177232 0.198789 -0.401462 -0.471778 -0.562828 -0.499448 -0.11973 -0.138268 0.263308 -0.588093 -0.433942 0.335786 -0.483185 1.10541 0.475491 0.488221 -0.391225 -0.312836 -0.0982079 -0.712764 -0.659202 -0.768966 -0.137674 0.631346 -0.982742 -1.03539 -0.14862 -0.217103 -0.535613 0.220767 -0.0476487 0.801556 -0.236546 0.482621 -1.21439 -0.0907966 -1.05588 -0.402966 0.610416 0.167723 0.211539 -0.91018 -0.874955 0.68233 -0.680038 -1.02317 0.0974315 -0.146847 -0.42919 -1.29243 -0.125437 0.347495 -0.777922 1.12236 -0.410491 -0.722456 -1.32835 
0.76778 -0.653791 -0.504462 -0.251682 0.469821 -0.358087 0.148128 0.162045 -0.608523 -0.427982 0.676456 0.448146 -0.951901 -0.326244 -0.796879 -0.273123 -0.236998 -0.859603 -0.153468 0.0300191 0.41889 0.724664 0.857201 0.133992 0.00512001 0.313055 0.34665 -0.0732847 0.983873 0.712264 -0.251624 0.625486 -0.596737 0.769632 -0.652476 0.771682 -0.817291 0.996285 -0.0913601 0.0727187 -0.629952 0.0188965 -1.02665 -0.938104 0.0561885 -0.316033 0.212916 -0.90031 -0.188734 1.23681 0.471387 1.10729 0.704143 0.00524545 0.440466 -0.143181 -0.779991 -0.818096 0.647985 -1.17679 -0.913306 -0.542357 0.842796 -0.973013 -0.724684 -0.801072 -0.960139 -0.614906 0.721389 0.0479713 1.03864 -0.832192 0.61815 0.0638669 -0.169988 0.147319 -1.1563 0.541333 -0.0450164 -0.452229 0.556523 -0.830518 -0.384126 0.495248 0.0412423 0.629513 -0.857155 0.51377 -0.922346 0.833379 0.314948 -1.07779 -0.872681 -0.227825 -0.485322 -0.36184 0.424009 -0.79605 0.0188196 -0.324423 
0.678495 -0.834112 0.293055 0.0558039 0.630685 -0.50261 0.578778 0.736898 -0.872852 0.252664 -0.241016 -0.811825 0.354547 0.243022 0.337716 -0.0137074 -0.308724 0.668876 -0.920605 0.00527267 0.901766 0.612317 0.0711498 0.808437 -0.103195 0.824067 -0.825502 -1.01646 -0.902912 0.354015 -0.13553 0.629301 1.02543 -0.287218 -0.46833 0.502205 0.212297 -0.209886 0.0752115 0.756068 0.656323 1.42947 0.286353 -0.517075 -0.086023 0.126659 0.841109 -0.979035 -0.119614 1.26514 0.587384 -0.705858 0.669183 -0.662342 1.35299 -0.272478 -0.903158 -0.973606 -0.49155 -1.27171 0.651628 0.513051 0.86883 0.110155 -0.730121 -0.560687 -0.0639044 0.269226 -0.408752 -0.733078 0.328709 -0.614029 -0.756103 0.625534 0.629091 0.689181 -0.260601 -0.0293526 0.459435 0.360129 0.0456497 -0.473383 0.670436 -0.233088 -0.220134 0.548793 0.387842 0.271109 0.886048 0.844553 0.209162 0.140889 0.309002 -0.333497 -0.0221049 0.756821 0.551782 0.498037 -0.0818651 -1.33306 
1.14545 0.406037 -0.298435 -0.763684 0.488467 -0.481189 0.0571256 -0.439884 0.817806 0.318972 -0.663927 0.279222 0.905695 0.961994 -1.04574 0.351159 0.363297 0.49281 -0.886089 0.271446 0.737401 0.59946 -0.423071 -0.241793 -0.309587 0.697752 -0.916699 0.700217 0.272124 0.325152 0.55114 0.276828 0.355283 -0.270548 0.131473 -0.273906 0.275293 -0.0664713 -0.082434 0.516684 0.883146 0.997959 -0.829908 0.243826 0.151032 -0.422719 -0.0159831 -0.0959713 0.970606 0.308212 -0.119649 0.200864 -0.13515 0.143443 1.1592 0.450004 -0.090075 -0.991165 0.098528 -1.33655 0.593782 -0.245125 0.374413 -0.540154 0.492646 -0.375851 0.435216 -0.32993 0.00350361 -0.392506 1.33759 0.0685997 -0.883428 0.545589 -0.098903 0.879406 -1.06401 0.209612 -0.428315 -1.24592 -0.380253 -0.147474 -0.0387074 0.280635 -0.981126 -0.261189 -0.223343 0.386517 -0.0339434 0.579657 0.247027 -0.824408 -0.613299 -0.433516 0.16701 0.947241 0.476504 -0.809262 -0.622631 -0.946474 
0.135269 -1.00627 0.647603 0.24602 -1.11728 -0.44905 -0.74901 -0.735166 -0.684711 0.543723 -0.623525 0.238863 -0.599156 0.399325 -0.376323 0.188836 -0.852615 0.089385 -0.905027 0.0134847 0.0454029 0.88086 0.314472 0.23921 -0.482738 -0.322717 -0.259763 0.371212 -0.0383955 0.388886 0.721367 0.822911 1.26732 0.61461 -0.43063 1.08269 -0.784442 0.334149 -1.18489 -0.353176 -0.558909 -0.1561 0.434789 -0.42251 0.585829 1.23004 1.33458 -1.0689 0.169054 -0.550725 0.624697 0.828039 1.13847 -0.178736 0.256804 -0.562735 0.724118 0.821224 1.06965 -0.790988 0.491461 0.901754 -0.578516 0.322835 0.181445 0.0823997 0.504736 0.369005 -1.11639 0.582909 1.14687 -0.0189584 -0.821108 -0.218807 0.906654 -0.682438 -0.372396 0.281288 -0.874036 -1.12949 -1.10745 0.263306 0.748819 -1.00549 -0.858838 -0.356139 -0.314008 -0.567238 -0.360141 -0.745552 -0.340527 -1.0729 0.940633 0.326916 0.569814 0.213998 -0.319589 -0.198869 -0.869858 -0.583027 
-0.320334 -1.08352 0.63551 -0.139639 -0.0466802 0.279007 -0.317754 -0.868294 0.273178 0.162472 -0.740594 0.513175 -0.362458 -0.918459 0.722237 0.433903 -0.0803309 0.803712 0.592776 0.21383 -0.612339 0.01305 0.112012 -0.836633 -0.855069 -0.0669536 -0.0751965 -0.971389 0.897039 0.242296 -0.0185341 -0.837844 1.18832 -0.427025 -0.260973 0.127664 0.842872 0.436892 -0.515517 -0.129009 -0.793599 0.275074 -0.788986 -0.202796 -0.173653 0.7715 -0.163681 -1.34195 0.581437 -0.554602 0.765025 0.258568 0.216434 -0.140929 0.674073 0.214122 -0.945085 -0.387185 0.82786 0.569477 -0.740305 -0.00266453 -0.887249 -0.997925 0.0138479 -0.120389 0.144972 -0.1738 -1.19479 0.777053 0.659131 0.0175826 0.0491047 0.408891 0.985974 -0.541802 -0.443361 -1.15417 -0.933681 -0.874444 -0.515761 0.346967 0.611839 0.545741 -0.786668 0.0920439 0.209392 -0.0161712 0.890175 -0.46371 -0.423323 -0.917484 -0.0239805 -0.104686 -0.795863 1.06979 1.19533 0.0771317 -0.766582 -0.896198 
0.0769372 0.963725 0.0844996 1.17756 0.235143 -0.539211 -0.494357 -0.618085 -0.00762999 -0.650255 -0.114374 0.716695 -0.72933 -0.536733 0.808971 -0.0804997 0.951062 -0.61837 -1.09327 0.273123 0.109509 0.0138103 0.0210241 1.13023 0.924705 0.415833 0.677617 0.0376888 -0.222151 -1.3366 0.659736 0.36208 -0.339288 -0.520292 0.597372 1.00937 -0.0262862 0.473742 -1.36027 0.485096 0.650546 -0.249618 0.296718 -1.0328 -0.149258 -0.0507461 0.532931 -0.526724 0.287087 0.399652 -0.420026 0.574119 -0.795991 0.699926 0.798133 0.869295 0.680118 0.668135 0.575247 -0.859658 1.02652 0.699752 0.751721 -0.844003 0.413793 0.18154 1.07882 -0.442731 -0.830147 0.837136 0.664072 0.0475934 -0.300751 0.0612501 0.103747 1.09737 0.160576 0.478476 -0.566241 -0.465629 0.375024 -0.237958 -0.521909 0.0938199 -0.303256 -0.718132 0.397624 -0.257659 0.998654 -0.23567 -0.168948 0.947602 0.77772 -0.222381 0.942522 0.322412 -0.617951 0.955892 0.0663336 -0.00740495 
0.828096 0.325807 0.719845 -0.396536 -1.06951 -0.967247 -0.229899 0.865326 -0.841696 -0.338331 -0.125474 0.325198 -0.798344 0.171909 0.128305 -0.105671 0.898339 -0.77687 0.914426 0.0860143 -0.200098 -0.00769511 -0.70547 0.186624 0.989249 -0.316915 1.02535 0.240535 -0.230533 -0.545019 -0.247545 -0.881929 -0.339814 1.00789 0.153416 -0.187663 0.858778 0.0571394 -0.721809 0.647787 0.628948 0.0255679 0.18839 0.909077 -0.908364 -0.607069 0.502799 0.476388 -0.730134 0.174716 0.336472 -0.388144 0.875508 -1.05954 0.531273 0.51867 0.575483 0.569474 0.548992 -0.829506 -0.236519 -0.410779 -0.592264 -0.201963 0.878468 0.235522 0.524887 1.41219 -1.32948 -1.05313 0.429822 -0.600614 0.183407 0.229296 -0.604715 0.709955 -0.406418 -0.283628 0.105744 0.0788928 -0.510692 -0.790593 -0.924248 -1.14149 -0.430236 0.862262 0.963067 0.835946 0.307627 0.391514 0.658742 0.988141 0.529643 -0.694053 -0.496965 0.828217 0.932585 -0.599581 0.159736 1.14673 
-0.744978 0.467999 1.22881 0.584853 -0.972589 0.757747 0.231214 0.409149 0.217873 -1.18566 -0.113515 0.112869 -0.333715 -0.0600709 0.608031 0.0484006 0.0913308 0.509615 0.129589 0.27563 -0.359802 0.0281658 -0.494931 0.252626 0.746452 0.630894 1.24166 -0.286522 0.85052 -0.00483583 0.275903 -1.236 0.00102351 0.0811364 0.818125 0.252366 -0.200629 -0.705046 -0.364148 -1.21055 -0.897118 0.408074 0.0831321 -0.0731282 -0.757955 0.0603624 -0.54199 -0.180964 -1.00986 0.302755 0.0981901 -0.302374 -0.969912 -1.05252 0.246272 0.187007 -0.71048 0.411834 -0.285132 -0.57568 -0.13266 -0.76903 -1.19323 0.169194 0.0230327 0.496191 -0.550467 -0.352158 0.339765 0.178463 -1.08277 -0.685713 -0.190818 0.806875 0.207833 0.499553 -1.18695 -0.19512 -0.868196 -0.885806 -0.338714 -0.0534843 0.132234 -0.758871 0.309283 -0.274248 -0.7317 0.0891615 0.891046 0.0337697 -0.0704351 -0.159776 0.0942672 0.0857001 0.668905 -0.481327 -0.094891 -0.335824 -0.844182 -0.426347 
0.80601 -0.283572 -0.220443 -0.217908 -1.24219 0.337279 1.09359 -0.760534 -0.343721 -1.05506 -0.298036 -0.41842 0.278727 0.942285 0.285925 -0.654981 -0.144826 0.739703 0.652434 -1.20821 -0.436889 -0.269858 -1.17681 1.71424 -0.696252 -0.798505 -0.379779 -0.440688 -0.302578 -0.7053 0.282082 -0.725983 0.391247 0.795312 0.295289 0.318348 0.161663 -0.0697296 0.72752 0.642354 -0.151378 -0.599738 -0.631851 -0.736707 -0.780535 1.00239 -0.159826 -0.451383 0.170829 -0.699872 0.251368 -0.848034 -0.22499 0.278414 0.964383 -0.357105 0.918904 -0.771904 0.622586 -0.197074 -0.198756 0.278579 -0.392502 0.523181 0.276109 1.00338 0.0245993 -0.0694002 -0.406353 -0.256957 -0.684283 0.879441 0.246342 0.251155 1.04702 0.818421 -0.573613 -0.49612 -0.828561 -0.869947 0.0650005 0.193138 -0.666941 0.736384 -0.0716352 -0.311573 0.0138798 -0.590463 -0.384784 -0.354384 -0.23858 0.49982 -0.944185 -1.07392 0.165174 0.533916 1.03726 -0.561678 0.614339 -0.525914 
0.200451 -0.845757 -0.498619 -0.418379 0.0195064 -0.583781 1.10736 -0.871716 -0.0246671 -0.760151 -0.593857 0.55752 0.565404 -0.116219 0.330269 -0.683661 0.562538 -0.356463 -0.0821368 0.582033 -0.0132436 0.713312 -0.403033 1.07874 1.04302 -0.816663 0.0616193 0.689354 -0.308652 -0.457315 -0.682049 0.62156 -0.105595 -0.0709151 -0.6812 -1.04297 0.194921 -0.578676 -0.603011 -0.955272 -0.490505 -0.202789 0.573619 -0.790872 0.651293 0.308212 -0.320455 -0.173549 0.307263 0.443426 -0.0298123 0.240006 0.091211 0.800567 -0.718393 -0.118608 -0.7354 0.0615467 -0.291659 -0.305409 0.584442 0.647936 -0.717429 -1.01833 -0.453666 -0.372506 -0.593758 0.78784 -0.0614437 -0.377201 0.873122 0.239885 0.407947 0.820979 0.511878 0.392406 -0.490126 0.891757 -0.88745 -0.62525 0.379511 -0.203342 0.180467 -0.454741 0.0628709 0.879263 0.944522 -0.17739 -0.285752 -0.5186 0.371955 -0.746924 -0.661096 -0.902657 -0.162424 -0.0696482 -0.374552 0.25641 -0.637014 0.0363879 
-1.14086 -0.751746 -0.355034 0.661762 -1.11343 -0.791455 -0.337023 -0.0787792 -0.983236 -0.347521 0.297307 0.312662 0.477077 -0.232114 0.681282 -0.753339 -0.227639 0.910191 0.412038 0.0291544 -0.665731 -0.359212 0.302357 0.408881 -0.180482 -0.783615 0.963237 0.454036 0.746282 -0.682654 -0.0446573 0.577289 -0.210975 0.79449 0.281144 -0.354342 0.715289 0.760882 0.943772 0.746367 -0.529325 0.184095 0.0541909 -0.887046 1.00871 0.131502 -0.286327 -0.59239 -0.515414 0.829179 0.716151 0.772204 -0.497637 0.153498 -0.788429 0.418334 0.518379 -1.10152 0.0154509 -0.0520544 -0.677842 -0.54908 -0.530552 -0.345389 0.934363 0.527808 0.796207 0.617098 0.652502 0.35118 0.512791 0.77693 -0.506528 -0.0967907 -0.945571 -0.336129 0.557754 -0.456602 0.170912 -0.345034 -0.519583 -0.38856 -1.19438 0.0922772 1.04074 -0.492806 -0.107281 0.144588 -0.632457 0.613113 -1.07479 -0.560528 -0.810681 -0.187597 0.70152 -0.675951 -0.657591 0.446084 0.739907 0.604154 
-0.156333 0.353181 0.632544 0.668366 -0.928522 0.64996 -0.85034 -0.877486 -0.869779 0.141553 -0.211048 -0.394258 0.718941 -0.11083 0.399968 0.430342 0.450516 -0.482642 -0.165799 0.547619 -0.583526 -0.384398 -0.808533 -0.197037 0.390193 -1.01863 -0.203791 0.871092 0.538233 -0.323926 0.821308 -0.322284 -0.832687 0.396241 -0.696202 -0.571281 -0.132452 -0.747368 -0.413633 0.139665 0.560955 0.362538 0.664787 0.317009 -0.532954 0.377462 -0.16711 0.702034 0.591304 0.552791 0.296819 -0.555879 -0.683472 0.643685 -0.118511 0.84944 0.576037 0.451516 0.709792 0.0537105 -0.721684 0.535361 0.474523 -0.837927 -0.115425 0.551211 -0.246598 0.671014 1.09159 0.166694 -0.0842487 0.283508 -0.417816 -0.314504 -0.267906 -0.0413701 -0.983507 0.63504 -0.249766 1.08647 0.307601 0.896388 -1.00313 0.718567 0.71219 0.0279479 0.725634 0.0850422 -0.412835 0.29801 -0.903217 -0.174486 -0.0428538 0.810638 0.277113 1.0217 0.457617 0.893049 0.468904 0.514088 
0.244913 -0.470083 -0.0575116 0.963929 0.148845 0.685946 -0.0414492 0.352595 0.34833 0.662038 0.344996 -0.361462 0.542322 0.545557 -0.744417 0.00542788 -0.316673 0.994808 -0.780912 0.161895 0.389282 -0.837889 -1.00611 -0.53122 -1.03092 0.303068 -0.746761 0.520564 0.184326 0.830417 -0.00301915 -0.235476 -0.552256 0.809419 -0.341385 0.656914 0.475803 0.565217 0.0282653 -0.061128 0.332311 -0.535926 0.537284 -0.149152 -0.880445 0.914047 0.811191 -0.287845 0.683581 -0.979076 0.953846 0.263561 -0.7198 1.0367 0.614905 -0.635302 0.271238 0.798048 0.786134 -0.387298 0.620624 -0.24317 0.228721 -0.966157 -0.280107 0.732763 0.699788 -0.842969 0.513208 -0.310255 0.130853 -0.4148 0.123558 -0.347831 0.531622 0.0890028 -0.500659 0.451731 0.8877 -0.600386 0.518024 0.724321 0.490403 0.825342 0.877051 0.197596 -0.737105 0.0773595 0.0312943 -1.06423 0.678666 -0.0991019 -0.22809 -0.060554 -0.0640169 0.488133 -0.231748 -0.5209 0.454996 -0.755942 
0.27118 -0.346306 -0.0870334 -0.546297 0.328731 -0.534874 0.654201 0.907395 0.906365 0.494178 -0.701365 0.38637 0.236484 0.914351 0.185115 -0.0289472 0.142082 0.358109 -0.968415 -0.807168 0.368318 0.682123 -0.0582421 -0.828552 -0.399599 0.761555 0.551531 0.358156 -0.722814 0.113008 0.566388 0.577307 0.773067 -0.549222 -0.985323 0.112643 -0.073403 0.661775 0.0269336 -0.145845 0.143983 0.348275 -0.763826 -0.60927 0.247621 0.437653 0.359024 -0.616084 -0.234251 0.380901 -0.416253 -0.849317 0.0717225 0.545397 -0.695911 0.679969 0.299072 0.87221 0.0338306 0.59234 -0.0324419 -0.402545 0.155683 -0.253808 0.0791738 0.149223 0.866301 -0.993928 -0.166871 -0.114426 -0.144907 0.953414 -0.776321 0.0874681 -0.622532 0.462734 -0.484375 0.731617 0.856243 0.28961 0.116553 -0.561384 0.437694 -0.810303 0.993812 0.741985 0.885457 0.282417 0.597965 -0.078135 -0.127745 -0.40632 0.517365 -0.973713 0.323365 -0.403783 0.175 0.167474 -0.412724 -0.986271 
-0.936646 0.449769 0.981401 -0.7055 -0.456718 -0.64566 0.760046 0.0593019 -0.912065 0.610191 -0.637741 0.202742 -0.951162 0.805558 0.388986 -0.966965 0.553927 0.275706 0.309711 0.160147 -0.80501 -0.829761 0.73703 0.716329 -0.807683 0.0564796 -0.692312 0.369939 -0.767947 -0.0975839 0.376271 -0.705163 -0.649894 0.356213 -0.414732 -0.105672 0.708748 -0.652862 0.955899 0.798374 0.95017 -0.678918 0.00346356 -0.99978 -0.872122 -0.603205 -0.970535 0.678506 0.670863 0.338498 -0.159701 0.867413 0.514213 -0.421031 0.585374 0.703551 0.635561 0.886475 0.0746937 0.867237 -0.208638 -0.553374 -0.836665 0.140087 0.802637 -0.252653 -0.959783 0.512257 0.0859441 0.997903 0.316661 0.0358495 -0.680299 -0.68596 0.0366173 -0.552021 -0.290798 0.0655012 -0.870933 -0.619182 -0.594552 -0.0321319 -0.752093 0.919017 0.549592 0.833016 0.624794 0.185161 0.715057 -0.298367 0.0503563 -0.490225 0.143626 0.215784 0.652284 -0.0503898 0.962353 0.679768 -0.537178 0.0480662 
0.689527 0.775379 -0.915561 -0.991265 -0.91058 0.121056 -0.544297 -0.199003 -0.812863 -0.415642 0.183398 -0.408257 0.554845 0.431305 -0.489243 0.104435 0.260943 -0.864738 -0.710385 -0.0205504 -0.165544 0.342603 0.489315 0.980803 -0.441029 0.142502 -0.0697195 -0.478701 -0.165738 0.393455 0.569586 -0.476211 0.168834 0.654025 -0.467476 0.258254 -0.224919 -0.0117727 -0.940749 -0.0377828 0.572586 0.242649 0.55396 0.127431 -0.326047 -0.935283 -0.768134 0.934897 -0.800021 -0.478519 -0.0856536 0.0344353 0.864084 -0.596339 0.0152384 -0.576945 0.546163 0.945519 -0.0556458 -0.619575 0.338974 -0.486059 -0.095786 -0.492191 -0.832034 0.436738 0.766063 -0.0569537 -0.575035 0.825314 0.905264 0.997551 0.0679625 0.459223 0.124982 0.741916 0.52394 0.356849 0.676813 0.723919 0.87833 -0.408841 -0.241646 0.742414 -0.00517988 0.773593 -0.83453 -0.459017 0.719112 0.109824 -0.0785922 0.0580858 0.623764 0.825622 0.565894 0.79173 0.26236 0.331957 -0.265224 0.687325 
0.15577 -0.361584 0.687898 -0.772019 -0.904258 -0.19285 0.971948 0.621309 -0.83385 0.641379 0.35077 -0.953216 -0.766594 -0.892013 0.789497 0.231491 0.877614 0.957328 0.779404 0.591222 0.0655656 -0.306854 -0.343793 -0.312343 -0.485467 -0.782993 -0.522733 0.775981 0.553833 0.212234 0.46739 -0.289491 0.854316 0.157195 -0.0630809 0.955479 0.960743 -0.0967004 0.577354 -0.873553 -0.448794 -0.081126 -0.829255 -0.215513 0.0297113 0.960146 -0.987129 -0.0933865 0.909946 0.790739 -0.491488 -0.0234815 -0.524951 0.162982 0.661611 -0.00863597 0.381126 -0.85101 -0.226225 -0.0604199 0.35583 -0.7571 0.648224 0.206678 0.396723 -0.414859 0.16449 0.36078 0.490296 -0.265066 0.487311 -0.963626 0.650606 0.663742 -0.177042 -0.315295 0.620898 -0.166141 0.594665 0.535706 -0.384252 -0.902998 -0.486291 0.0878548 0.263067 -0.828081 -0.909413 -0.355031 -0.682898 -0.137578 0.582308 0.673882 0.102457 0.231977 -0.11755 -0.50127 0.815351 -0.959046 0.852859 0.308325 
-0.241785 0.321903 0.376767 -0.522727 -0.0595915 -0.886866 0.179137 -0.400303 -0.0490521 -0.316111 -0.844224 0.617904 -0.160864 -0.318166 -0.316513 -0.875067 -0.161026 -0.135753 -0.159835 0.089536 0.629771 -0.758509 -0.0995623 -0.17915 0.499705 0.681579 0.226765 0.37162 0.778962 0.122627 -0.34464 -0.473034 -0.495615 -0.962673 -0.0297947 0.498065 -0.869326 -0.922118 -0.903732 0.15299 -0.114231 -0.775175 -0.301856 0.658164 -0.0585259 0.473928 0.689091 0.734842 -0.765522 -0.484359 -0.0799976 0.936294 -0.29826 0.73592 -0.338955 -0.733703 0.502271 1.0481 0.610681 0.329609 0.105049 -0.688505 0.786256 0.537486 -0.698494 -0.225936 0.0386364 -0.403376 -0.120642 0.0869238 0.620237 0.615731 0.219097 -0.527186 0.420835 -0.908222 0.929835 0.0875592 0.967357 -0.774675 0.484509 -0.137093 -0.870684 -0.789572 -0.334814 -0.198388 -0.447117 -0.884074 -0.196748 -0.870775 0.350552 0.893431 -0.604435 0.159602 0.442074 -0.205211 0.936593 -0.575903 0.194356 -0.195719 
0.359176 -0.172921 -0.401249 -0.0928983 0.238594 0.719595 0.170083 0.207385 -0.0712304 -0.27226 0.389951 -0.497372 0.889549 0.617685 -0.331227 -0.503396 -0.38434 0.318509 -0.244519 0.285044 0.321173 0.6464 0.31438 1.07015 -0.11124 -0.450315 -0.437236 -0.150049 0.136014 0.707244 0.674433 -0.614518 -0.257879 -0.648088 0.21045 -0.945657 -0.918468 -0.902664 0.335008 0.0503309 0.200039 -0.200226 0.392068 -0.215312 -0.49966 -0.841785 0.181874 -0.216692 0.200952 0.690997 -0.913252 -0.192349 0.249424 0.302866 -0.54646 -0.640023 -0.906619 0.392047 0.202159 0.156978 0.125597 0.0742583 0.518472 0.84652 0.354459 -0.238614 0.932079 0.733801 -0.0624834 0.281349 -0.437961 0.761248 0.777377 -0.69485 -0.21978 -0.910006 -0.693285 0.897512 0.221031 0.784368 0.384953 0.226863 -0.645105 -0.260604 -0.305528 0.0452906 0.243448 -0.381297 -0.58727 -0.687461 0.590396 0.489088 0.37919 0.303098 0.329292 -0.039016 -0.925206 0.256867 -0.733553 -0.0198487 
-1.07177 -0.208601 0.0194828 -0.889167 0.0491239 0.455537 -0.349409 0.307082 0.567767 0.104168 0.0551358 -0.026824 -0.180336 0.739779 0.467057 0.197275 0.180272 -0.111675 1.04067 0.369528 0.0832863 0.143928 -0.00397953 0.0933381 -0.501636 -1.00314 0.519854 -0.454076 0.221907 0.67405 0.502292 0.330228 -0.150486 -0.392847 0.444973 0.857273 -0.930621 0.596472 0.21155 0.441387 0.142449 -0.494928 -0.674837 0.647501 -0.734607 0.922205 -0.299499 -0.121252 -0.612539 -0.554562 -0.963728 1.01759 0.635488 0.146965 -0.61875 -0.541726 0.290211 -0.481224 0.011928 -0.510224 -0.730537 -0.0610189 0.965346 0.144585 0.525446 0.353796 0.00829991 0.809736 0.253872 -0.550031 0.0742326 -0.98823 -0.464406 0.80375 0.648132 -0.566794 0.39663 -0.311315 0.739676 -0.803313 -0.0769749 0.840481 -1.12042 -0.458914 0.034297 -0.356038 0.129253 -0.776743 0.142873 -0.899164 -0.50179 0.264848 0.0856102 -0.198139 -0.557656 -0.460098 -0.839223 0.545238 0.901151 0.437323 
0.205508 -0.0115268 0.579584 0.734051 -0.704002 0.0971156 -0.0804624 0.772244 0.578773 0.745823 -0.831464 -0.49205 1.02014 -0.672627 -0.30531 -0.330132 0.487043 -0.697854 0.169208 -0.428447 -0.874209 0.24831 0.901765 0.955909 -0.642289 -0.97913 0.871453 -0.417131 0.368766 0.531173 0.70795 -0.047513 -0.184461 0.408567 -0.219671 0.253079 -0.68203 0.230346 0.133687 -0.954564 0.418156 0.647305 -0.767296 0.319364 1.00168 0.207525 0.753368 -0.144407 -0.142902 -0.360683 -0.0570533 0.745316 -1.00696 0.180187 -0.24125 -0.341969 0.282127 0.293715 0.0442504 -0.230453 -0.123751 0.41167 1.16905 0.754029 -0.12491 -0.244904 0.348234 0.276306 -0.803726 -0.438098 0.01801 0.477519 0.670007 0.715915 -0.523965 0.231964 -0.581839 -0.25024 -0.432306 0.783365 0.14949 0.563859 0.264996 0.0628381 -0.0968496 -0.54589 0.960144 -0.969655 0.61507 -0.110237 -0.408242 -0.672582 -0.813631 0.108578 -0.909046 -0.363444 0.744238 0.521779 0.559858 -0.743593 
0.196187 -0.202081 0.780013 -0.358356 0.422723 -0.934669 -0.297162 -0.848113 -0.513223 -0.975942 -0.50352 0.68378 0.894546 0.909028 -0.663809 -0.604372 -0.116829 -0.109706 -0.276195 -0.479901 0.380128 -0.0395332 -0.16292 1.31526 -0.48111 0.116308 -0.357364 -0.6421 -0.867297 -1.13087 -0.735535 0.543065 -0.354272 -0.724337 -0.569632 -0.619635 -0.980962 -0.49011 -0.0900909 -0.0327193 0.00217959 0.546072 -0.583075 -0.137397 0.574918 0.0934943 0.0891796 0.833015 0.196859 0.63625 -1.04119 0.509252 -0.428832 0.190298 -0.139949 0.539837 -0.429618 0.836202 0.678924 -0.349066 0.742424 -0.0962101 0.0543097 -0.642355 -0.073507 0.151451 0.463605 0.046982 0.431785 1.17464 0.8645 -0.41828 0.409735 -0.441884 0.203318 -0.454804 0.216644 -0.414662 -0.341581 -0.077156 0.927326 -0.395086 -0.541716 -0.335861 -0.670162 0.706925 -0.57487 -0.389403 0.458557 -1.09 0.0318044 0.270456 -0.55574 -0.490339 0.473467 -0.128325 0.367992 -0.0659802 0.707424 0.577196 
-0.623539 0.836201 1.16911 0.478712 0.328518 -0.0289195 0.0330337 0.0127198 0.256933 -0.796097 -0.297547 0.414741 0.225499 0.264773 -1.48122 0.229518 0.377036 -0.420468 -0.623017 -0.239566 -0.604059 0.0996616 -1.12528 0.151695 1.00561 1.1097 1.314 0.39202 -0.712429 0.713159 -0.385117 -0.278785 0.381679 0.0660815 -0.352738 -0.0366186 0.570787 -0.343435 -0.581835 0.359569 0.48804 0.032828 -0.463956 -0.219457 -0.660014 -0.419091 1.24201 0.196345 -0.612125 -0.799529 -1.15606 0.723037 0.225751 -0.934853 -0.784433 0.720383 -0.601191 -0.470805 -0.127428 -0.613867 -0.890249 1.78327 1.35121 0.242503 0.024808 -0.50248 0.299509 -0.369384 -0.310371 0.149047 0.767472 -0.588538 1.14074 -0.216994 0.172085 -0.688315 -0.16145 0.55453 0.43235 -1.39057 0.48071 0.430364 0.615431 -0.21145 1.01434 -0.666099 -0.347665 -0.811839 -0.261987 0.176065 -0.62359 0.0948715 0.461445 0.258384 -0.628654 -1.10649 0.536887 0.473146 -0.548401 0.0965096 
-0.653601 -0.423972 0.594453 -1.07219 -0.620221 -0.600342 0.433586 -1.27111 0.509001 0.569628 -0.565053 0.0299312 0.370605 0.993429 0.296746 0.467565 -0.526248 -0.480541 1.21521 0.0680437 -1.02878 -0.59234 -0.872958 0.472379 0.902405 0.449949 0.956899 0.376169 -1.02093 -0.756653 -0.934727 -0.538375 -0.388735 0.757099 0.123085 0.287541 -1.4278 0.389144 0.452424 0.694745 0.529806 0.522691 -0.559759 0.230459 0.497302 -0.70717 -0.126178 0.558427 -0.667427 -0.367547 -0.380855 0.260646 -0.221755 -0.132911 -0.526308 0.377231 -0.464229 -1.0381 -0.577599 -0.768102 -0.947867 0.669609 0.773641 -0.822271 -0.453 -0.924348 1.72557 -0.762962 0.221692 0.308894 0.792597 -0.204771 0.0232554 -0.0214335 -0.706673 -0.424798 -0.221172 0.295476 0.828586 0.0796506 0.712705 -0.492461 -0.310959 -0.315384 0.82922 0.253464 -0.773097 -0.966755 0.209437 -0.764552 -0.944204 0.424742 0.228614 -0.644518 -0.837133 0.529518 -0.394993 -0.645398 0.944035 -0.732361 
0.676137 0.937182 0.336691 -1.01535 -1.03942 0.623717 0.759382 -0.155165 -0.931835 -0.680065 0.449731 0.913756 -0.0748266 0.751408 -0.934146 0.229329 0.0465501 -0.0904819 0.732036 -0.499848 0.35089 -1.24174 -1.13149 -0.118209 -0.721208 -0.174204 -0.0354361 -0.307068 -0.520537 -0.333303 -0.632082 -0.537401 -0.526824 1.0105 0.186479 -0.339517 -0.274172 0.980318 1.01156 0.658618 -0.559428 0.0103384 0.0439207 0.946482 -0.364072 0.905473 0.297842 0.251531 -0.695565 -0.33121 0.760508 -0.133902 -1.0093 0.607484 0.584124 0.0683797 -0.22962 -1.2377 0.234835 -0.290654 -0.484431 1.68915 1.12656 -0.443469 1.0096 -0.657508 1.35854 -0.167736 -0.845647 0.431641 -0.387397 -0.537627 -0.403206 1.26759 -0.279769 0.39917 0.631484 0.749423 -0.686174 -0.993128 -0.544997 -1.17867 0.104952 -0.277523 -1.0176 -0.690334 0.794579 -0.640212 -0.687421 -0.346506 -0.153941 -0.085829 -0.43922 0.266741 -0.760775 -0.236586 1.13267 -1.18892 0.711518 -0.792348 
0.537806 -0.63648 0.0314657 0.161603 -1.26302 1.16478 0.0737671 0.609029 0.24238 -0.100554 -0.0139831 0.941314 -0.487796 0.67737 -1.08209 0.316653 -1.06291 -0.601383 0.955411 0.0619601 0.201265 -0.103743 -0.946903 -0.912095 -0.412271 0.0554098 0.407117 -0.565134 -0.75522 0.0819546 -1.00667 1.21799 0.010023 0.683625 1.01519 0.232288 -0.360512 -0.18214 0.50124 -0.0927195 0.290155 1.07505 -0.885961 -0.531558 0.464636 0.135044 0.870149 0.448365 0.0799797 0.657814 -0.646696 0.497059 -0.890503 -0.783616 0.833181 0.323576 0.177837 -1.00607 0.240981 0.0836719 0.0979464 0.802406 0.929325 -0.823673 0.265719 -0.0685602 0.98563 -1.00607 0.550999 -0.352433 0.532234 -0.280786 -0.265655 0.286487 0.590671 1.50888 -0.662528 0.0197844 0.381101 -1.5085 -0.487594 0.471952 0.299213 0.0563317 -1.13421 -0.830555 -0.805104 0.0420868 -0.335067 0.186166 -1.06927 -1.15398 -0.501641 0.586289 -0.383859 1.01644 0.443431 -1.21964 -0.824341 -0.601561 
0.0641106 -0.0260657 0.864156 -0.408466 -1.09122 0.809486 -0.0326157 -0.213685 -0.543556 -0.314192 0.271997 0.340329 -1.34508 -0.941467 -1.58248 -0.502277 -0.753615 -0.442564 0.756249 0.821269 0.70153 0.642927 0.665673 -0.494993 1.0692 0.104489 -0.0165797 0.259109 -0.697947 0.0643925 0.435196 0.743492 0.897972 1.05074 0.0771787 -0.556297 -0.4397 1.19787 0.759649 1.11307 -0.589596 -0.291626 -0.377041 -0.639231 -0.653708 0.465171 0.206355 0.112596 0.386556 -0.0886411 -0.282094 1.16428 -0.777259 -0.810428 -0.000355757 -0.208001 -0.129539 -0.684877 0.476206 0.289121 0.401557 0.128371 0.192851 0.262456 0.33737 0.410899 0.990792 -1.16461 0.407347 -0.0677384 1.9411 -1.30246 0.450439 -0.448574 -0.220503 1.40997 -0.982796 0.227553 -0.296372 -1.53141 -1.01914 0.296412 0.88047 -0.290844 0.416237 0.600928 0.197424 -0.459292 -0.532724 -0.393554 0.400641 -1.08067 0.537629 -0.86459 0.68793 -0.156553 -0.55656 -0.119075 -0.0426227 0.00500909 
-0.262067 -0.408218 0.637655 0.0332685 0.287013 -0.302836 -0.163805 0.896684 -0.980406 -0.341676 -0.827302 -0.367773 0.132701 0.512336 -0.752613 0.675002 -0.00714457 -0.540704 1.06507 -0.658567 0.146596 0.566721 -0.495401 -0.417316 -0.475419 -0.0870052 0.730111 -0.00627603 0.315469 0.0541403 -0.948303 1.11197 0.695289 -0.394387 0.667052 0.35162 -0.534085 0.178091 0.283902 0.619799 0.113821 0.70223 0.294027 -0.867947 -0.556217 0.037201 -0.776074 -0.776495 -0.0886871 -0.472188 -0.420307 -0.333699 1.0547 -0.203624 0.717161 -0.0964228 0.142215 -1.04721 0.243094 -0.498938 -0.252574 0.366972 -0.261524 -0.832293 -0.776277 0.963294 0.599388 -0.47587 -0.376695 -0.484617 2.2835 -1.3133 0.902697 0.0523663 -0.225321 -0.0355288 -0.891291 -0.606908 -0.460686 0.0858469 -0.183004 0.0770086 1.01561 0.123945 -1.41196 -0.589642 0.502724 0.135744 -0.0648494 -0.251801 0.211865 -1.25197 -0.842756 -1.63987 -0.417241 -0.722336 1.17365 0.47399 -0.096633 -1.09745 
0.0309953 -0.262324 -0.595473 -1.18787 -0.611445 0.547966 -0.902293 0.143695 -0.549666 1.04156 0.0131412 1.02149 -0.700464 -0.482769 -0.912505 -0.0633666 -0.4962 -0.640161 0.571525 -0.781969 0.511198 0.297718 -0.435855 0.0932773 0.370029 0.390857 0.516173 0.503717 -0.223517 0.335951 -1.51032 0.505268 -0.646833 0.132127 0.614562 0.108012 -0.370195 -0.333646 -1.27273 0.833235 0.809043 0.550012 -0.0911555 -1.44632 -0.032858 -0.565511 0.213564 -0.48051 -0.410538 0.207977 0.0683674 1.10304 -0.374471 0.215471 0.912948 1.16232 -0.709503 -0.69479 0.0830691 -0.455102 0.319025 -0.198694 -0.293899 0.388323 -1.04913 1.3099 -0.642707 -0.590002 -1.05315 -0.787622 0.390736 -0.988266 0.418182 -0.364229 -0.326975 -0.000506352 0.0519637 0.137626 0.076399 0.315755 -0.58865 -1.01882 0.710358 0.00960968 -0.0431357 -0.651689 -0.618904 0.774949 0.122726 0.411768 -0.811456 -0.7437 -0.625768 -0.679218 -0.583532 -0.664686 0.0836726 -0.92632 -0.346732 -0.598865 
0.413273 -0.598432 0.0584602 -1.31553 -1.13602 -0.637118 -1.12539 0.604674 -0.734881 1.57772 0.667964 0.423874 -0.886256 -0.0127373 -1.50732 0.878702 -0.35047 -0.556524 0.0206177 -0.520235 1.27421 1.1344 0.28912 -1.12244 -0.116537 0.778495 -1.04168 0.865687 1.06575 0.625371 -0.791027 -0.0734786 -0.365302 -0.381706 -0.0891132 -0.210567 0.18322 0.904057 -1.51279 0.955193 0.660875 1.29211 -0.581998 -0.158017 -0.980494 0.030009 0.622033 -1.25956 0.495817 0.235779 -0.411459 0.474592 0.603795 0.749959 0.960792 1.50763 0.591986 0.268288 0.930212 -0.398531 -0.327594 -0.513206 -0.291141 -0.0764658 -0.227673 0.792751 0.675445 -1.09422 -0.704038 0.677911 1.81477 -0.614119 0.518058 -1.32237 -0.811663 1.23781 -0.441187 -1.84108 0.809911 -1.53305 -0.315743 -0.875823 0.318642 1.04364 -1.17142 -0.830199 0.74864 0.965288 0.836905 0.271036 -0.185206 -0.879018 0.836006 0.0397647 1.00579 -0.224431 -0.192883 -0.124601 -0.673106 -0.243234 
0.472872 -1.52894 -1.31457 -0.917189 -1.23173 -0.248624 -1.68922 0.0205556 -0.0919835 -0.214171 0.177367 1.17377 -0.193324 -0.76112 0.462652 0.383777 -1.22407 0.417882 -0.379573 -0.957229 -0.0799129 -0.284439 -0.061581 -0.938158 0.921098 -0.355171 -0.50982 -0.332743 0.777762 0.566627 0.175955 -0.559708 1.22286 -0.875227 -0.331077 -0.715418 -0.064415 0.0650607 -0.889144 1.20446 0.0422907 -0.292629 0.593497 -0.199773 -1.10893 0.604731 0.22018 -0.529812 0.104196 -0.505106 0.131663 0.725471 0.452348 -1.1969 1.3085 0.0791932 -0.197427 -0.512371 0.450768 -0.103559 -0.884168 -0.22327 -0.114359 0.702661 -0.546547 0.781274 1.09788 0.72479 -1.57728 -0.0134804 1.81847 0.0226388 0.319327 -0.254437 -0.528924 0.560658 -0.574634 -0.11034 -0.584077 -0.0376614 -1.14674 0.0133135 0.0327339 -0.207355 0.00452204 -0.437551 0.44979 -0.815821 0.177383 0.977713 -1.16364 -0.128578 -0.241457 -0.677814 0.531477 0.678953 0.874206 -0.195227 -0.360359 0.221207 
1.7352 -1.06264 -0.496466 0.286715 0.379322 0.833737 -1.11532 -0.589685 0.8566 0.855477 1.0522 1.1719 -0.131924 -0.0239632 -0.231113 -0.180464 0.039508 0.556322 -0.912132 -0.504756 0.743662 0.363124 -1.01654 -1.03575 0.528416 0.386773 0.369167 0.139557 -0.616043 -0.435578 -0.95173 -1.04449 1.30609 0.470069 0.281044 0.787164 0.211256 -0.802144 -2.14673 0.197452 0.070529 -0.774634 -0.326652 -1.60515 -0.519504 0.361826 0.156814 -0.89195 -0.00265951 0.776647 0.527788 -0.752498 0.0364178 0.355606 -0.181338 1.09384 0.115238 1.01719 0.425919 -1.07143 -0.166844 0.562965 0.362227 -0.907433 -0.544894 0.160516 1.10848 -0.719231 -0.998301 0.863286 0.895844 -0.811341 1.03091 0.246606 -0.887978 -0.161344 -0.440513 -1.08351 0.47083 0.118818 -0.744887 -0.89619 0.61204 -0.1559 -1.05691 -1.07286 0.252145 0.440504 0.829863 0.367713 -0.652003 -0.576035 -0.323178 0.720991 0.347746 0.917431 -0.429481 -0.254013 -0.159541 -0.143528 
0.392831 -0.945306 -0.0355901 0.134551 -1.37797 0.423234 0.104936 -0.28626 -0.440736 0.68196 -0.627121 0.248674 -0.73779 1.02216 1.7286 -0.0646903 0.605441 -0.326614 -1.31636 0.532808 1.11218 0.288845 -0.755216 -0.460268 -0.32204 0.452768 -0.937494 -0.362026 -0.400577 0.399447 0.166522 0.00602789 0.135352 -0.267938 -0.740602 -0.0678002 0.719674 0.883053 -0.882078 -0.823332 -0.311228 0.522092 -0.0032453 -0.150744 0.166437 0.170445 -0.200887 -0.068255 0.859748 -0.0993362 0.647065 0.407084 0.783651 -1.16528 -0.693358 0.840865 0.961526 -0.481873 0.0177348 -1.78383 -0.619439 -0.46105 0.126245 -0.748803 -0.749423 0.87867 0.410083 -0.227878 -0.263475 -0.639255 -0.115175 -0.00699018 -0.87474 0.356939 -0.835665 0.761066 -0.630222 -1.51776 0.117808 -1.04124 -0.0627015 -1.29272 0.575884 -0.631141 -0.741851 0.888944 0.276947 -0.468731 -0.796124 -0.0144742 -0.475976 -0.425627 -0.000287013 -0.475158 0.0252881 1.20847 0.908621 -0.779982 -1.61984 0.259689 
-0.0133768 -0.395669 0.810166 0.109504 -1.32162 0.722431 -0.817742 -0.474999 -0.58756 0.711715 0.0867911 0.803753 -0.453127 -0.25624 0.421074 0.138585 -0.718702 0.224853 0.164576 -0.548162 -0.534169 -0.0703938 -0.419819 0.611037 -0.0740831 -1.00855 -0.0614263 -1.38923 -0.52414 -0.343148 -0.19051 -0.366651 1.33826 -0.202786 0.988443 -0.365225 -0.502182 -0.864553 -1.36143 -0.578463 0.268377 0.355375 -0.792455 -1.12575 -1.16557 -0.0446395 1.30386 -1.0166 1.05999 0.757285 0.680975 -1.02264 0.977126 -0.528949 0.4148 -1.1572 0.539774 -0.110841 -0.371822 -0.074737 1.31649 0.849536 -1.05007 0.470975 0.591081 -0.730557 1.04959 -0.116985 -1.25529 -0.784438 -0.172057 -0.306003 -0.882922 0.246363 -0.342268 -0.543082 -1.31699 -1.83337 -0.180444 0.793026 0.457175 -1.40067 -0.892836 0.0637311 0.360265 0.682057 1.42722 -0.457881 -0.583251 -0.972766 -1.22647 -0.246977 0.592932 -0.123487 0.895903 1.04311 -0.17843 1.01632 0.320305 0.380895 
-0.591011 0.14892 0.37148 -0.518185 0.389691 0.153533 -0.0464223 -1.1674 0.557511 0.4512 -0.87489 0.288881 -0.470376 -0.715636 0.724607 0.536522 1.00817 -0.0951729 -1.07418 -0.975216 -0.130421 -0.101635 -1.3563 0.188236 0.0894282 -0.575984 -0.754987 -0.161892 -0.674046 0.300268 -0.735184 -1.03223 -0.0961025 0.312846 0.27208 0.424714 -0.254079 0.310069 -0.85135 -1.34924 -0.727379 -0.665195 -0.0473454 0.0596754 -0.340355 -0.611548 0.830123 -0.897896 -0.0715696 0.772944 0.289264 0.627925 0.814843 0.347351 -0.880039 -1.44354 -0.0949222 -0.185043 -0.985311 -0.506567 -0.114944 -0.570725 -0.225944 0.107447 0.0751612 0.956409 0.884829 1.75692 -0.152364 -0.611559 0.606661 -0.07707 0.332269 0.515897 1.0395 -0.674814 -0.040669 -1.03974 -0.169654 -0.929721 -0.558407 -1.34735 -0.828565 -1.39138 -0.612905 -0.252258 0.137096 -0.687256 0.289365 -0.717652 -0.265735 1.56572 -0.025588 -0.630493 -0.058937 -0.295786 -0.747134 0.28994 -1.50161 1.14093 
0.417005 -0.425571 0.989555 -0.178223 -0.267846 -0.376004 0.659724 -0.410665 0.647374 -1.0184 0.0659014 -0.976659 -0.0416484 0.301457 -0.318136 -0.440929 1.22371 0.169443 -0.0619499 -0.302931 0.221864 -0.337255 -1.12893 0.580184 -0.197429 0.492641 0.127801 -0.842535 -0.278335 -0.620387 -0.832336 0.299609 0.117711 0.96324 0.241169 -0.0064249 0.137263 0.45877 0.147412 -0.572995 0.115769 -0.9137 -0.688477 -0.845072 0.426799 0.239438 0.361157 0.00102395 0.672416 -0.755009 -0.109001 0.439003 -0.985957 0.251616 0.563562 -1.3612 0.869645 -0.134838 0.198425 1.1759 0.740021 0.849406 0.345384 -0.476561 0.440562 -0.536829 -0.579496 0.74967 0.7713 0.824643 0.312789 1.15852 -0.697697 -0.169135 1.45395 -0.994355 0.190344 -0.550488 0.441156 0.242217 0.393615 -0.788232 0.0429125 -0.0264512 -0.555237 0.35504 -0.543785 0.212151 0.892176 0.433432 -0.0952427 1.21801 0.721547 -0.128286 0.736285 0.930521 0.15862 0.0160848 -1.37045 0.711059 
