Network weights:
4
784 100
-0.337374 -0.989611 0.546036 0.565244 0.148949 0.465733 -0.954655 0.157399 0.312936 -0.974174 -0.781886 -0.709496 0.117074 0.949946 -0.193386 0.45011 0.568178 0.912017 -0.00404815 0.206252 -0.0896091 0.242747 -0.46725 -0.333347 0.791344 -0.48577 -0.142338 -0.67906 0.852475 -0.502031 -0.198405 -0.484899 -0.491642 -0.652369 -0.919655 0.657307 0.813364 -0.87431 -0.185294 0.1263 -0.848484 0.0328207 0.416804 0.268591 -0.0172332 -0.776582 -0.281299 -0.449055 -0.864565 0.714653 0.757197 0.045826 -0.0426009 -0.710053 0.712479 -0.251257 -0.195824 -0.429859 0.0696833 -0.343349 0.0681104 0.871279 0.171752 0.576469 -0.781091 0.252097 0.233776 -0.967727 0.377787 -0.951518 0.158573 0.529303 0.0813031 -0.424622 -0.202106 -0.93593 -0.201204 0.516595 -0.384985 -0.0657693 0.231247 -0.627788 0.980057 -0.811354 -0.337841 0.692536 -0.0626105 0.466335 -0.737323 -0.992927 -0.877014 0.330787 0.878351 0.294739 -0.092744 -0.902739 -0.453164 -0.858968 -0.870466 0.924623 
-0.810486 0.288107 0.453926 0.270817 0.863485 -0.74818 0.334887 -0.33772 0.768415 0.949902 0.596511 -0.000338003 -0.677886 0.576568 0.188308 -0.0157269 0.269104 -0.874302 -0.549392 0.531781 -0.867229 -0.426405 -0.137432 -0.988878 0.868333 0.769824 -0.891617 -0.584831 0.910856 -0.762084 -0.660208 -0.89963 0.526024 0.793718 0.371188 0.389508 -0.954462 -0.293925 -0.948211 0.813953 -0.344022 0.6483 -0.186385 -0.0219081 0.224868 -0.998077 0.962365 -0.506029 -0.872379 -0.587027 -0.974248 -0.739609 -0.0134323 -0.11168 -0.728487 -0.145099 -0.341856 -0.620104 0.27007 -0.431 -0.382188 0.609862 -0.330629 -0.856164 0.40358 -0.959442 0.533344 0.449118 -0.253366 0.585133 0.26307 0.402611 0.233433 -0.923315 -0.619297 -0.5417 -0.921392 -0.656932 -0.0477283 -0.793771 -0.243959 -0.0219761 -0.53338 0.742609 0.866344 -0.261867 -0.40249 -0.475512 0.118029 0.86758 0.0934883 0.735841 0.477442 0.762859 0.879677 -0.118979 0.803417 0.413021 -0.669861 -0.449949 
-0.00184657 0.593209 0.952662 -0.768414 0.669894 -0.666635 -0.310114 0.748502 -0.323567 0.642158 0.954731 0.432474 -0.379818 -0.578649 0.175083 -0.513474 0.159484 0.772592 0.0110139 -0.722487 0.640172 -0.895498 -0.986646 0.117614 0.867361 0.89303 0.998635 0.670778 0.306051 -0.671226 -0.779171 -0.695795 0.921984 -0.826509 -0.464209 0.591878 -0.493144 0.225677 0.34038 0.183288 -0.132165 0.295111 -0.384238 0.488016 0.716461 0.790845 0.974542 -0.124055 0.563437 -0.0144441 0.153458 0.203609 0.0900582 0.166812 -0.678777 -0.0425808 0.0598422 -0.680141 -0.371803 -0.634107 -0.351367 -0.150974 -0.329902 -0.429383 0.0225171 0.205889 -0.837506 0.529373 -0.568435 0.502874 -0.287339 0.2994 -0.202015 0.328423 -0.212584 -0.485554 0.119268 -0.238042 0.390392 -0.317295 0.747514 -0.45615 0.886314 -0.162428 0.710661 -0.792463 0.794991 -0.229496 -0.472604 -0.576811 0.136397 0.176029 0.272215 0.806495 0.746646 -0.705268 0.0123838 0.90914 0.824105 0.443949 
0.412014 -0.463234 -0.256617 -0.790004 0.865189 0.530775 -0.275473 -0.0155113 -0.707277 -0.885207 0.667162 -0.959759 -0.341299 0.553499 -0.122357 -0.630545 0.761017 -0.327235 0.139916 -0.711591 0.096014 -0.723752 0.464438 -0.631772 -0.917414 0.211071 -0.337118 0.0951273 0.120212 -0.512958 -0.460928 -0.467712 0.0238087 0.282426 -0.257756 -0.111006 -0.186812 0.466683 0.873409 0.105896 0.58152 0.540617 0.146152 -0.759794 0.0940947 -0.976047 -0.390445 -0.144934 -0.303237 0.749406 0.143515 0.792852 -0.974351 -0.392057 -0.839023 -0.891603 0.819042 -0.17614 0.203524 -0.0607598 0.310946 0.742602 0.471532 -0.665324 0.025027 -0.786269 0.223746 0.83821 0.68042 0.0972352 -0.0558689 0.26193 -0.362183 -0.909716 0.502144 0.732 -0.885755 -0.8883 -0.412903 -0.188993 0.861103 0.730525 -0.39622 0.886758 -0.661515 -0.235342 0.995128 -0.842478 0.58859 0.19866 0.0967825 -0.100445 -0.0586282 -0.431712 0.234303 0.966282 -0.218029 -0.541951 0.80453 -0.537568 
0.555616 -0.25146 0.725912 -0.80727 -0.160809 0.226815 0.926058 -0.0464947 0.338221 -0.491136 0.764824 0.197581 -0.746073 -0.632478 0.0737334 -0.410451 0.130329 0.0697143 -0.262288 -0.262115 -0.712974 0.836094 0.620697 0.223963 -0.541149 -0.146725 0.1922 0.185113 0.314982 -0.00733485 0.646728 -0.131771 0.746883 0.372767 0.0635252 -0.422745 -0.399284 -0.0134702 0.516474 0.937629 0.498339 0.297083 0.13694 0.755416 0.66389 -0.775904 -0.675992 -0.208009 0.303865 0.0576862 0.518866 0.589235 -0.104327 0.136915 -0.180746 0.303248 0.994411 0.98938 -0.513466 0.308877 -0.00742065 -0.868558 -0.807791 -0.281021 0.501666 0.238977 0.285045 -0.901128 -0.777095 -0.149637 -0.941487 0.721201 -0.860219 0.178501 0.463642 0.808657 0.400864 0.791583 -0.396916 -0.296796 -0.167262 -0.884709 -0.71131 0.742276 0.253419 0.0859199 0.0349876 0.250986 0.0877108 0.537914 -0.430498 -0.929703 0.668383 -0.266803 -0.20548 0.178517 0.973455 -0.901126 0.294797 -0.813617 
-0.0620783 0.297242 0.917683 0.0650758 -0.510164 0.378921 -0.130166 0.892764 0.171187 0.478707 -0.406109 -0.978565 0.623852 -0.136879 0.753983 -0.158283 0.963831 -0.20927 -0.914803 0.0845661 -0.656512 -0.336095 0.120572 0.994228 0.460876 0.922754 0.166967 0.35624 -0.960193 -0.579706 0.552613 -0.042543 0.76066 0.474765 -0.96695 -0.788119 -0.130209 -0.0926414 -0.919016 -0.956427 -0.623232 -0.281405 -0.939813 0.999989 0.597647 0.818741 -0.186975 0.558821 -0.37848 -0.119202 -0.362646 -0.037988 0.556091 0.764706 -0.0372897 -0.0592898 0.700538 -0.897949 -0.696117 0.718454 -0.45377 0.850438 -0.294085 -0.734867 0.324464 -0.261865 -0.533205 -0.826558 0.617141 -0.371189 -0.746321 -0.988678 0.34873 -0.698783 0.958579 -0.0717784 -0.874809 -0.202968 -0.511767 -0.271063 0.651333 0.120057 0.693192 0.212655 -0.112214 -0.373048 -0.849134 -0.406103 -0.248235 -0.518945 -0.670515 0.272464 -0.695578 -0.00836716 0.517234 0.673579 0.733095 -0.991502 0.876925 0.312118 
-0.38275 -0.932329 0.333972 0.942159 -0.608172 0.323844 -0.131805 -0.478633 -0.889586 0.370067 0.237314 0.787803 -0.479896 -0.0878579 -0.000627219 0.396777 0.563931 0.131174 0.986987 -0.690202 0.610823 -0.689922 0.551891 0.907725 0.348019 0.0736767 0.536752 0.0266977 0.108832 0.403981 -0.626066 0.713343 0.535722 0.736422 0.678224 0.870084 0.0996837 -0.468114 -0.651282 0.190811 0.909047 0.628113 -0.027817 -0.558942 -0.448591 0.981253 0.810342 -0.888874 0.127305 0.785982 -0.552424 -0.272009 -0.855625 -0.984037 -0.324366 0.409827 0.0912259 -0.780156 -0.548025 -0.806583 0.600802 -0.160224 0.938932 0.0603566 -0.419023 0.619574 -0.05764 0.633705 -0.857388 0.333973 -0.141711 -0.917721 -0.0503365 0.818982 -0.538058 0.519228 0.816616 -0.707528 0.653064 -0.0838717 -0.931708 -0.920985 0.680411 -0.823916 -0.8967 -0.708652 0.604302 0.21442 -0.489206 -0.942272 0.431359 -0.908812 -0.154772 0.355962 0.137301 0.453349 -0.0252175 -0.901646 0.0896676 0.0560595 
0.410611 0.92796 0.167175 -0.630746 0.760274 0.649052 0.876216 0.58984 0.93132 0.541908 -0.506595 -0.983364 0.657221 -0.867275 -0.81063 0.77588 -0.549375 0.769042 -0.018729 -0.0582375 0.837379 -0.598535 0.0163194 -0.320002 0.748491 -0.835329 -0.916633 -0.283652 -0.727358 0.214672 0.832951 0.69814 0.190222 -0.00403019 -0.923553 -0.0719696 -0.336497 0.936977 -0.510813 -0.404958 0.503426 -0.0125088 -0.411329 0.150496 0.133519 -0.207397 -0.086146 0.587663 -0.43126 0.887126 -0.441169 -0.608781 -0.692858 0.583583 0.0666688 -0.940009 0.755334 0.194603 -0.214142 -0.970295 -0.616597 -0.377158 0.728683 0.504787 0.619059 0.800444 -0.545983 -0.748246 0.743416 -0.0603591 -0.134559 0.251061 0.925294 0.446843 -0.624115 0.0668143 -0.748017 0.296752 -0.302624 -0.191622 0.191017 0.200887 0.199528 0.478265 -0.187245 -0.762155 0.553382 -0.421199 0.440745 -0.631868 -0.383291 0.813545 -0.0753073 -0.640984 0.309811 -0.435276 -0.850604 0.763642 -0.162995 0.834056 
-0.29287 0.685155 0.137863 -0.362384 0.147662 0.535795 0.723322 0.412591 -0.181489 -0.577654 -0.79152 -0.986109 0.683491 0.395308 0.504813 -0.503055 0.659159 0.0539604 0.0669404 0.0912201 0.408027 0.67597 -0.114892 -0.652561 -0.980711 -0.783622 -0.118473 -0.837506 1.00035 0.748832 -0.945902 -0.292198 0.456345 0.174443 0.357864 -0.394179 -0.298009 0.0585226 -0.983541 0.533421 0.493397 -0.784417 0.521429 0.129408 0.625598 0.0365146 0.641205 0.303878 -0.927808 -0.299974 -0.599772 0.486515 -0.613687 0.284514 0.804952 -0.579088 0.511834 -0.283269 -0.409541 0.504252 -0.53997 -0.359448 -0.802294 0.876843 0.831394 0.553784 -0.499538 -0.485535 -0.383235 -0.499699 -0.950484 -0.889659 -0.264762 0.57323 0.238666 -0.647385 -0.375018 -0.109611 0.66499 -0.284073 0.58609 -0.958804 -0.815798 0.977615 0.33123 0.983947 -0.601892 -0.155243 -0.284403 0.0340642 -0.664503 0.15463 0.622338 -0.450186 0.03108 0.480386 -0.896236 0.531242 -1.0067 -0.340176 
-0.96233 -0.95776 -0.177747 -0.240822 0.625841 -0.919988 0.126375 -0.740757 -0.0519453 -0.210786 -0.0378041 -0.461168 -0.160438 0.146035 -0.479005 -0.821637 0.148084 -0.0652792 0.0154552 0.853649 0.932464 0.354009 -0.00252624 0.576931 0.897657 -0.951799 0.0284411 0.983728 0.594142 0.0457408 -0.305744 0.633199 0.0979444 0.499617 -0.593246 -0.268643 0.565523 0.511522 -0.00246 -0.477099 -0.70418 0.954042 0.0476459 0.101474 0.108383 0.575635 0.303705 -0.738564 -0.515149 -0.687935 -0.884772 -0.562965 0.665987 0.107733 0.993452 0.573477 0.164501 0.0362512 0.567872 -0.248616 -0.920899 -0.740214 -0.622602 0.160779 0.771215 -0.218397 0.905011 0.329653 -0.710411 -0.10564 0.855528 -0.406745 -0.143662 -0.0885657 0.699669 0.958231 -0.511456 0.00509864 -0.779398 0.0025941 0.319136 -0.671508 0.425894 -0.00315417 0.437699 0.416392 -0.43193 -0.397223 -0.537598 -0.847784 0.34503 -0.468949 -0.598537 0.731988 0.694482 -0.817747 -0.479072 0.613854 0.498203 -0.235997 
-0.504425 0.374194 0.383974 0.345798 -0.726602 0.095816 0.307071 -0.230748 -0.901002 0.524604 0.761298 0.419568 0.845216 0.189194 -0.586393 0.290129 -0.389446 -0.0102805 0.889309 0.0657575 0.130249 0.238378 0.597351 0.535275 -0.0284284 0.299248 0.70389 0.477996 -0.0997549 0.222343 -0.729321 0.397573 -0.413816 0.651781 -0.25289 -0.135587 -0.261218 -0.955512 0.638609 -0.159563 0.566387 0.399355 -0.746536 0.397983 -0.411516 -0.325664 -0.299073 0.199986 0.655673 -0.410597 -0.734142 -0.205691 0.832706 0.858221 -0.672835 -0.196475 0.159298 -0.968857 -0.718772 -0.939035 0.253338 -0.44622 0.456742 0.837075 -0.792916 -0.801161 -0.293445 -0.0551451 -0.753765 -0.65952 0.785363 0.814224 0.740039 -0.955646 0.221404 -0.672638 -0.282627 0.927611 0.525727 -0.608215 -0.48459 0.793266 0.179841 -0.651916 0.652012 0.504378 0.152251 -0.186951 0.54098 0.433445 -0.130444 -0.202057 0.991125 -0.66959 -0.364269 -0.80687 -0.463643 0.346616 0.132203 -0.228766 
0.681857 -0.0734235 -0.415785 0.41947 -0.0257767 0.809652 0.74668 0.68834 0.735989 0.27386 -0.929538 -0.748586 0.0652748 0.24798 -0.399741 -0.283225 -0.247348 0.752135 0.529291 -0.706001 0.186393 -0.598565 0.0867771 0.175638 -0.268345 0.724229 0.369539 0.261153 0.0616301 -0.490383 -0.965483 -0.256749 0.433621 -0.381683 -0.837284 -0.597078 -0.571755 0.908871 -0.907507 -0.835951 0.184604 -0.83759 -0.581872 -0.751116 0.410897 0.0171535 -0.0348211 -0.835292 -0.231278 -0.505841 -0.540616 0.955637 -0.102279 0.548646 0.129527 0.628656 0.271985 -0.500318 -0.110154 -0.664134 0.00939224 -0.0765817 0.0770371 -0.555506 0.542575 0.241119 -0.151381 0.969751 0.151737 -0.0606529 -0.866202 -0.664313 0.101768 -0.4492 -0.415647 -0.487123 0.566235 0.549317 -0.321918 -0.667283 -0.957886 0.140647 -0.707057 -0.0607121 -0.314259 0.419234 -0.431133 0.958358 0.92138 0.454747 -0.707459 -0.0686436 -0.617924 0.371579 0.374391 0.926232 -0.385245 -0.774952 0.899656 0.762724 
0.165734 -0.970959 -0.900354 -0.735582 -0.413568 -0.315879 -0.224126 -0.85294 -0.766444 0.454806 -0.516817 -0.72286 -0.404619 -0.225254 0.217128 0.279031 -0.805955 0.78551 0.236708 -0.883005 0.243715 0.529852 0.0465328 0.626401 -0.100052 -0.574376 0.550368 0.513825 -0.35248 0.444922 0.277826 0.811017 0.473983 0.377563 -0.924415 -0.946793 -0.938391 -0.147297 -0.798977 -0.704781 -0.692565 -0.315483 -0.425509 -0.100434 0.459179 0.789824 -0.821844 0.652751 0.575417 0.414936 0.773067 -0.180842 -0.0536928 -0.178027 -0.555091 0.84547 0.246756 0.995332 0.359648 0.894535 0.439875 -0.362568 0.706241 -0.0862419 -0.985056 0.781439 -0.0317543 -0.923058 -0.365883 0.169232 -0.628607 -0.0585227 0.854084 -0.0554613 0.840891 0.312914 -0.265038 -0.980863 -0.0317213 -0.69445 0.43395 -0.2594 0.130856 -0.622342 0.563692 0.570958 -0.775209 -0.19024 0.568471 0.581294 -0.295463 0.00912184 -0.778749 -0.589496 0.922441 -0.763827 -0.808029 -0.108866 -0.680955 -0.175384 
-0.939264 -0.314706 0.768041 0.917099 0.629879 0.607991 0.228063 -0.635936 0.627979 -0.805051 -0.326177 0.0620634 -0.0635607 0.802859 0.444774 -0.500103 0.375962 0.664864 0.309775 -0.0544667 0.249399 -0.986157 0.95437 0.470891 -0.574306 0.87707 0.707659 -0.383748 -0.230504 -0.980538 0.442335 -0.170861 -0.292308 0.20992 -0.25655 -0.664089 -0.181601 0.970633 -0.299933 -0.553611 -0.834332 0.375969 0.508459 0.102065 0.176584 -0.0508401 0.602776 -0.446522 -0.381006 -0.0886588 0.499214 0.863662 -0.0748442 0.452016 0.336704 0.349205 0.332048 0.042404 0.965994 -0.900583 0.0625889 0.408648 -0.070883 0.766976 -0.382047 0.67246 -0.894302 0.436695 0.642675 -0.194315 0.882679 0.808921 -0.820152 0.391413 -0.0865366 0.356736 -0.658596 -0.486988 0.910347 -0.0463281 0.424179 0.409213 -0.18145 -0.650333 -0.138242 -0.843941 0.699341 -0.806465 0.195907 0.664965 -0.706616 -0.741429 0.0728113 0.221925 -0.972498 0.691763 -0.102272 -0.866537 0.128179 -0.462079 
-0.0574905 0.00565134 -0.649823 0.117731 -0.595467 0.264016 -0.531665 -0.255117 0.774288 -0.610785 0.692966 0.195319 0.79712 -0.485471 0.541649 -0.338752 -0.335904 0.243976 -0.147531 0.862377 -0.0920305 0.137296 -0.878499 0.98519 -0.637289 -0.846242 0.667358 0.263879 -0.717565 -0.191843 0.801319 0.226492 0.816379 -0.852187 -0.654822 -0.785819 0.408028 -0.185477 -0.0254586 0.183156 0.206427 -0.344774 -0.632803 -0.0163242 0.170659 0.920123 0.655807 0.843921 0.152654 -0.490173 0.709263 -0.935102 0.657733 0.831488 -0.954433 -0.974479 0.981057 0.718244 0.280497 -0.726178 -0.47891 0.0835971 0.477157 -0.670934 0.240498 0.833491 -0.447906 -0.363374 -0.343365 0.505875 0.817166 0.858733 -0.835122 -0.82366 -0.139952 0.336027 -0.902842 -0.482514 0.181009 0.256096 0.0237358 -0.100803 0.32065 -0.317753 -0.281987 0.369041 -0.295346 -0.298508 0.085868 0.987412 -0.0343478 0.61094 0.0643734 -0.538505 0.943809 -0.698952 -0.699414 -0.508515 -0.0587233 -0.0594654 
-0.989358 -0.265409 -0.185356 -0.841558 -0.0527331 0.673026 0.478783 0.0400219 -0.803914 -0.312935 -0.736064 0.217312 0.575197 0.603997 0.895367 -0.71486 -0.0358796 -0.393619 -0.00897116 -0.949958 -0.411886 0.948372 0.67451 0.660682 -0.59808 0.627895 0.940853 -0.275074 -0.880629 -0.0702359 0.669227 -0.871366 0.693563 -0.519906 -0.713247 -0.406928 -0.829244 0.789071 0.655349 -0.650188 -0.52445 0.90986 0.555363 -0.959195 0.515471 0.47623 -0.66976 -0.506087 -0.944428 0.329239 -0.438933 -0.372564 0.293546 -0.751745 -0.701935 0.719907 0.844551 -0.731603 -0.587309 0.999609 0.173112 -0.908435 -0.93431 -0.183344 -0.391468 -0.607957 0.444004 -0.279865 -0.805201 0.051599 0.0660148 -0.327314 -0.0323067 -0.402387 -0.272006 -0.516461 -0.937395 0.0662413 -0.0134867 -0.896536 -0.612312 0.570715 -0.247524 0.684404 0.782591 0.0538364 0.391131 0.647819 0.312958 0.809718 0.619817 -0.505602 0.881725 0.72515 0.315594 -0.533658 -0.869099 -0.247126 0.193141 -0.708253 
0.818821 -0.763234 -0.0104574 -0.213838 -0.136368 0.72485 0.232083 -0.0838429 -0.218774 -0.745604 0.015129 0.190725 0.807643 0.77395 -0.139635 0.573485 -0.177106 -0.741516 0.223758 -0.863296 -0.93315 -0.168691 -0.352154 0.945341 -0.45808 0.964429 -0.588279 -0.297512 -0.266668 0.638142 0.0147177 -0.447179 0.902924 -0.991206 0.316964 -0.282501 0.740925 -0.451776 0.647478 -0.479905 -0.14494 -0.346832 0.691079 -0.3573 -0.578444 -0.427349 -0.781956 0.241495 -0.194963 0.443204 0.414985 -0.15812 -0.701546 -0.941179 -0.175598 -0.130076 -0.970694 0.251238 0.550683 -0.215073 -0.127778 -0.422614 0.325563 -0.285432 -0.382478 -0.357434 0.48058 -0.688145 0.248851 0.0801465 -0.178924 -0.900696 0.721047 -0.50797 -0.249598 -0.835299 0.074503 -0.0295937 0.434817 0.842566 -0.551609 -0.161713 -0.286525 -0.272997 -0.104099 0.528021 0.588128 -0.055328 -0.214722 0.131684 0.703171 0.63935 0.682362 0.0444204 -0.662026 -0.71419 0.697799 0.836343 -0.415699 -0.0908442 
-0.0659041 0.423004 0.0252974 -0.308161 0.916456 0.783471 -0.172304 -0.0593529 -0.2523 -0.725377 -0.174934 0.194326 0.151381 0.525852 0.900445 -0.970975 0.0512137 0.492443 -0.0285809 0.849019 -0.366157 -0.331006 0.492785 -0.701085 0.702057 0.871826 -0.399606 0.391049 0.73653 0.179607 -0.668877 -0.331057 -0.401954 0.377708 0.323416 -0.496552 0.145093 -0.888454 0.455729 0.921901 -0.539629 -0.728212 0.097268 0.584364 0.781005 -0.0282384 0.61737 -0.157413 -0.53616 -0.431896 -0.287395 0.060134 0.249951 -0.812399 0.383044 -0.0332629 -0.863039 0.96483 -0.642429 0.846418 0.160482 -0.291038 -0.460843 0.730354 -0.927309 0.831585 -0.744997 0.225802 -0.997373 0.686706 0.124466 -0.538638 0.96426 -0.784272 -0.961719 0.769947 0.250488 0.635041 -0.38388 0.664882 -0.766607 0.302582 -0.257722 0.454273 0.5049 -0.896668 -0.578274 0.642818 -0.901898 -0.191547 0.452908 0.201184 0.461047 0.995899 -0.0822088 0.564367 0.850719 0.167446 -0.231787 0.827961 
-0.106255 0.916838 -0.703498 -0.125989 -0.860639 -0.67166 -0.375334 0.330375 0.964928 0.252333 0.0245605 -0.829186 -0.3807 0.766498 0.628786 -0.869728 0.877116 -0.944974 0.76904 0.971798 -0.150529 0.24278 0.178101 -0.677854 0.235414 -0.861387 0.877492 0.0495909 0.344584 -0.360889 -0.108177 -0.766477 -0.449182 0.199096 0.0791886 -0.316763 0.521085 0.672779 -0.97987 0.498897 -0.0377775 0.0524484 0.669653 0.568988 -0.195686 0.267617 0.697575 -0.301565 0.321619 0.444764 -0.335675 -0.851058 -0.305128 0.835987 -0.534639 0.92709 1.02474 -0.668147 -0.0266996 0.35134 -0.0106468 0.879883 0.592112 0.524278 0.0689157 -0.338455 -0.785232 -0.396712 -0.638544 -0.767292 -0.913941 0.331297 0.298781 0.760588 -0.115508 -0.892426 0.056782 -0.435322 -0.208557 -0.644032 -0.981225 0.454063 -0.486897 -0.303213 0.282499 -0.0351407 -0.380054 0.307795 0.323771 0.630352 -0.37109 -0.732695 0.481552 -0.772382 0.786524 -0.430815 -0.0993106 -0.989432 0.163016 0.25557 
-0.749001 0.260745 -0.392177 0.533638 0.0251841 0.466835 0.629908 -0.945028 -0.977319 -0.567289 -0.579956 -0.972935 0.900747 -0.0678211 -0.272081 0.210997 0.89961 0.355724 -0.488057 0.210137 -0.0320961 0.156339 0.487406 -0.548366 0.387226 0.301153 0.0201934 -0.737033 0.309362 -0.831198 0.512262 0.555528 0.421219 -0.896959 0.0911149 -0.569185 0.570037 -0.28125 -0.524396 0.586836 0.15464 -0.0918001 0.620242 0.0693574 0.840722 -0.654414 -0.752221 0.741167 0.698109 -0.229071 -0.0418121 -0.334352 0.93249 -0.548041 0.132525 0.310112 0.753618 -0.866708 0.57249 0.0608306 -0.695869 0.0913289 -0.381601 0.725824 0.189717 0.702419 -0.84042 -0.225681 -0.579988 -0.352963 -0.648814 0.576856 0.557046 0.956931 -0.375108 0.396299 -0.699778 -0.117563 0.142862 0.987351 0.657232 -0.912257 -0.331298 0.585482 -0.447734 0.780017 -0.0980337 -0.698334 0.911243 -0.534254 0.363327 -0.775391 0.560108 0.982131 0.948954 -0.247894 0.681341 -0.891121 0.516721 -0.907959 
-0.247339 0.86916 0.73078 -0.685985 0.812368 -0.695025 0.702355 -0.895526 0.192505 -0.152751 -0.892569 -0.147054 -0.052464 -0.23171 -0.556608 0.533149 -0.452209 0.333779 0.805365 -0.526227 0.808139 0.16013 -0.305072 0.358133 0.148006 -0.347701 -0.876587 -0.175223 -0.24843 0.617668 -0.0778464 0.499439 0.463908 -0.393684 0.838119 0.271136 -0.0856102 0.519497 0.364844 -0.899258 -0.62855 0.481872 -0.0473621 0.338625 -0.748985 0.390606 -0.191766 -0.196007 -0.282761 -0.371349 0.279049 -0.474965 0.790698 0.977407 0.906953 -0.0708178 -0.374094 -0.996658 0.755872 0.376872 0.624725 -0.315019 -0.10845 0.0972064 0.286245 -0.289902 -0.635596 -0.784057 -0.777077 0.741732 -0.700719 -0.408845 0.225599 0.239142 0.915856 0.489549 -0.366251 -0.267236 -0.720282 0.346801 0.358996 0.545567 0.898049 0.161973 0.548603 0.770414 -0.911881 -0.843104 0.763519 0.838182 0.534115 0.399686 -0.477909 -0.58683 -0.509605 0.810677 0.105698 -0.14479 -0.990364 0.329339 
-0.394957 -0.683626 0.973523 0.822988 0.545679 0.851472 0.292805 -0.820433 -0.41051 0.564285 0.535972 0.945807 0.127962 0.414123 0.121862 -0.318738 0.186021 0.184063 -0.179226 -0.0404739 0.0245359 -0.638074 -0.642966 0.53997 -0.222626 -0.150121 0.367125 0.890356 0.695285 0.356966 0.225832 -0.70914 0.653202 0.178106 -0.873051 0.203764 0.0232371 0.406852 0.374043 0.605073 -0.0169598 -0.0731259 0.553963 -0.866069 -0.667567 -0.344021 -0.227181 0.520083 0.835264 0.6092 -0.523482 -0.140366 0.964843 -0.164011 -0.589002 -0.263038 0.671766 0.759426 -0.373646 0.384773 0.116884 0.856988 0.680775 -0.213503 0.0189878 0.796081 0.983734 -0.934533 0.19608 0.366979 0.643587 -0.813387 -0.710937 0.21157 -0.703086 -0.370879 0.845367 0.0762666 -0.86372 0.683844 -0.309449 -0.396858 -0.445418 -0.342766 0.458556 -0.0441517 0.390184 0.127398 -0.300581 -0.987466 -0.4859 0.828607 0.865619 -0.81274 -0.393775 -0.126308 0.973715 -0.409007 -0.0792303 0.167729 
0.955401 -0.440146 0.362673 -0.758587 0.751432 0.657776 -0.138584 0.596626 -0.262429 0.00031835 0.278888 0.423966 0.613138 0.820939 -0.926292 0.0624801 -0.231222 0.460051 -0.808779 0.477921 0.471075 -0.298554 0.306202 0.337335 -0.112196 0.912187 -0.77663 -0.133203 -0.502029 0.143703 -0.955933 -0.543951 0.703607 0.404454 -0.302084 0.454601 0.0621328 0.558986 0.0528198 0.801169 -0.441662 -0.669602 0.223662 -0.827886 -0.848598 0.297737 0.232585 -0.0798934 -0.24233 0.424145 -0.601753 -0.770894 -0.873225 0.70451 0.567112 0.0154438 0.61681 0.789337 0.880727 -0.882307 -0.0664765 0.925151 -0.426838 -0.360575 0.329587 0.270665 -0.908645 -0.607853 -0.169721 0.142793 -0.808634 0.387758 0.474272 0.414581 0.558911 0.624534 -0.287788 -0.208098 -0.454945 0.469773 -0.783396 -0.0573169 0.698996 -0.657931 -0.351984 0.26575 0.356659 -0.735829 0.0543441 0.237889 -0.6178 0.989222 0.162322 -0.0440922 -0.374504 -0.508203 -0.7747 -0.282729 -0.116856 0.0545495 
0.859646 0.0742205 -0.557437 0.33285 -0.511349 -0.998339 -0.042599 0.200949 -0.206224 0.502282 -0.329175 0.0100813 -0.55461 -0.630184 0.352117 0.0930284 0.63547 -0.291445 0.357478 -0.309138 0.945803 0.738716 -0.320262 0.108086 -0.306771 0.305266 0.599838 -0.0815268 -0.977902 -0.517042 0.973385 0.881742 0.557119 -0.584035 0.214846 -0.954141 -0.582553 -0.827994 0.246792 0.211377 0.674288 0.917633 -0.778542 -0.880409 -0.712454 0.573617 0.212744 0.922913 -0.717803 -0.430061 -0.386208 -0.77202 -0.691276 0.293514 0.336085 0.00199093 -0.40122 -0.0640987 0.920479 -0.379117 0.418904 0.893863 -0.497373 -0.0240293 -0.69017 0.717213 0.0219064 -0.272583 0.889214 -0.731314 0.938807 0.563525 -0.813581 -0.839735 0.68323 -0.526232 0.733877 -0.104108 -0.603314 -0.983956 0.465969 0.0104483 -0.755986 0.774685 -0.696061 0.580118 -0.223249 -0.0972465 -0.483979 -0.302842 0.523624 0.935028 -0.408977 -0.973599 -0.089059 -0.0991635 0.743491 0.93283 0.628283 0.632758 
-0.798488 0.567133 0.196246 -0.612173 0.72731 -0.120502 -0.138401 0.461232 0.775446 0.25828 0.477276 0.241414 -0.731278 0.72129 0.0160866 -0.427289 0.301391 0.792784 0.475559 0.817408 -0.510057 -0.000907223 0.752333 0.0809507 0.0253345 -0.336721 0.981817 -0.231165 -0.403896 0.610088 -0.598427 -0.202385 0.17719 0.597827 0.185568 -0.0954552 -0.522764 -0.952954 -0.634231 -0.747241 0.305327 0.843052 0.494173 0.574006 0.564391 -0.48972 -0.85322 -0.13427 -0.696923 0.622199 -0.316854 -0.206991 -0.378674 -0.564528 0.87397 0.64668 0.098751 0.855776 -0.584478 0.694856 0.465887 -0.182905 -0.507528 -0.356949 -0.585078 0.67791 0.547634 -0.107772 0.724955 0.913397 0.144993 0.0302929 0.756499 -0.360834 -0.395643 0.320791 0.149443 -0.248905 -0.813477 0.452505 -0.626638 -0.130345 -0.75449 -0.00531538 0.305115 -0.880511 -0.358598 -0.596117 0.975266 0.0568881 -0.901266 0.441205 0.873983 -0.408719 -0.915773 -0.711103 -0.73087 0.631852 0.181139 0.994111 
0.545247 -0.673868 0.0243896 0.301696 -0.034702 0.628746 -0.377513 -0.885259 -0.620124 -0.190992 0.567247 -0.246762 0.678667 0.812757 0.747926 -0.016202 0.932236 -0.610708 0.38768 0.907502 0.44618 0.486418 0.348656 0.320163 -0.922372 0.432885 0.609067 -0.653242 0.0647355 -0.209793 -0.659145 -0.390017 0.116339 0.365244 0.911678 -0.918363 -0.00600952 -0.465835 -0.803622 0.373866 0.343173 0.763625 -0.872896 0.0218402 0.576381 0.875029 -0.994362 0.508617 -0.735679 0.393318 0.41612 0.710501 -0.120264 -0.235225 0.0306634 -0.0426368 -0.802339 -0.360269 0.304121 0.262396 0.429938 0.644976 0.872379 -0.453724 0.0102198 0.784057 -0.372087 -0.99579 -0.681778 -0.175708 0.378076 0.661396 -0.412083 0.50518 -0.316764 -0.835702 0.380209 -0.311126 0.672915 0.64453 -0.917808 0.0890352 0.355031 -0.0380724 0.85381 -0.614306 0.919291 -0.948529 0.0254252 0.223412 0.313867 -0.544637 -0.131612 0.186246 0.00163923 0.878607 -0.0296972 0.629553 0.882818 0.288525 
-0.546156 0.260894 -0.0500793 0.0417608 -0.233926 0.633157 0.206059 -0.853717 -0.677969 -0.121026 0.790814 -0.595777 0.96801 0.145845 0.36615 0.82182 0.531539 0.285441 0.873291 -0.443036 -0.491147 0.187158 0.0123269 0.377241 -0.626596 -0.986034 0.255848 0.343707 0.643519 0.138666 -0.367768 -0.902637 -0.60044 0.582153 0.139124 0.165634 0.215309 -0.654817 0.311917 0.53734 0.224157 0.102731 0.941562 0.192167 -0.751425 0.307713 0.0139869 0.780114 -0.406846 -0.112722 -0.662921 0.102007 -0.925564 0.349406 -0.520753 -0.55216 0.363372 0.735096 0.791547 0.00689044 -0.126239 -0.576221 0.104253 0.273321 -0.994069 -0.756623 -0.561045 0.22124 -0.41144 0.750872 -0.24142 0.812717 -0.146397 -0.299857 0.00488416 0.102178 -0.992145 -0.981129 -0.117707 -0.398991 -0.0938508 0.219371 0.703016 -0.0194146 -0.431223 -0.817737 0.428426 0.932148 0.917359 0.219972 -0.0609611 -0.20888 0.643751 -0.956708 -0.935559 0.649682 -0.71333 -0.496604 -0.129077 -0.12477 
-0.745732 0.629503 -0.312053 0.107871 -0.670354 0.692831 -0.789951 -0.662499 0.711702 0.0923418 -0.06149 -0.382149 -0.688287 -0.358474 0.598437 -0.11951 -0.176211 0.0268624 -0.187362 -0.258852 -0.753165 0.751677 0.532268 0.890586 0.794969 0.596709 0.540268 -0.918361 -0.899895 -0.588809 -0.0431315 -0.645627 -0.959305 0.644815 0.462244 -0.62966 0.337647 0.672293 -0.292159 0.0493487 -0.235365 0.646351 0.6672 0.0763478 -0.712123 0.265637 0.956838 0.111666 -0.707501 -0.230524 0.852814 -0.460666 -0.478847 0.385082 -0.57008 -0.683878 -0.0182084 0.970189 -0.602239 0.0818968 -0.61862 0.35463 0.43627 -0.577926 -0.000554981 -0.101486 -0.207585 -0.662908 -0.429193 0.500256 0.38644 0.335442 0.146607 0.0536403 -0.58821 0.434484 -0.680723 -0.631373 -0.45385 -0.388224 0.138103 -0.601035 0.15111 0.659256 0.784047 0.58103 0.975378 -0.234161 0.551219 -0.626861 0.847735 0.932599 0.727769 0.284005 -0.645327 -0.272786 -0.817481 0.147088 0.0643051 -0.246674 
-0.352657 -0.549255 -0.911232 0.79395 0.504386 -0.499442 0.228435 0.823663 -0.130815 0.774585 -0.564561 -0.992712 -0.82645 0.586549 0.666544 0.957597 0.167579 0.641922 -0.276565 -0.281202 -0.984939 -0.428829 -0.348603 0.742829 0.855176 0.00606984 -0.529957 -0.962304 -0.846842 0.534348 -0.208978 -0.199499 0.985093 -0.12021 -0.405549 0.489479 0.380348 0.822886 0.313142 -0.750467 0.597471 0.74858 -0.743179 0.771021 0.33513 0.923365 0.728617 -0.497291 0.565287 -0.547947 0.221507 0.580348 0.0232236 0.872904 0.323177 -0.1216 -0.121026 0.79322 -0.0839044 0.0321312 0.327568 0.707118 0.832632 0.312661 -0.413092 -0.572916 -0.19786 0.967256 -0.75003 -0.884719 -0.783211 0.84744 0.863862 -0.526389 0.618461 0.198991 -0.603024 0.347078 0.7017 0.962263 0.799131 -0.0767926 0.54261 -0.177646 -0.203889 -0.134212 0.700754 0.675085 -0.340993 -0.38315 -0.292784 0.986575 -0.676032 -0.460152 0.299236 -0.0891243 -0.0330682 -0.898624 -0.121868 0.216901 
-0.783259 0.0949528 0.0643089 -0.919425 0.568525 -0.317177 0.279519 0.965512 -0.970024 -0.0188261 0.927722 0.829191 0.904411 0.470418 -0.348592 -0.299463 -0.663849 -0.647974 -0.624177 -0.00483728 -0.0309974 0.0828735 -0.0182686 0.292935 0.622678 -0.719134 -0.796193 -0.410454 -0.617834 0.0819379 0.806526 -0.400934 -0.823046 -0.129101 -0.320481 0.745424 0.553768 0.958902 0.710905 0.583541 -0.0597159 0.638683 0.412361 -0.155315 0.108924 -0.936031 0.545203 0.445217 -0.583963 0.920759 -0.559567 0.385008 0.00359381 0.422157 -0.322022 -0.373664 0.703139 -0.118221 0.215976 -0.914502 0.963705 0.0225062 -0.31547 -0.859616 0.893339 0.364091 0.885976 0.446981 0.323114 0.596929 0.0304644 -0.736604 0.23514 -0.556958 0.108092 -0.655425 -0.493017 -0.346679 0.789814 -0.076984 -0.425905 -0.769777 -0.691962 0.57753 0.652376 -0.0140967 -0.795818 0.355529 0.867784 0.420053 0.441053 0.831456 -0.557562 -0.874444 0.971913 -0.664004 0.489593 0.857996 0.782862 -0.187242 
0.457223 -0.18487 0.0764283 -0.308437 0.255762 -0.816666 0.0363203 0.764114 -0.162879 -0.176135 -0.313925 0.412189 0.0549183 -0.00462944 -0.0111657 -0.291387 0.980547 0.191963 -0.936662 0.848037 -0.384938 0.504928 0.679357 0.0570453 0.631017 0.650083 0.391525 0.117463 0.507812 0.171445 0.931515 -0.0366444 0.989655 0.00767848 0.653338 0.24339 0.195899 -0.312347 0.0065592 -0.970007 0.515294 0.692648 0.442647 -0.429737 -0.311777 -0.56971 0.279905 -0.33078 0.625496 0.338795 -0.482295 -0.761271 -0.157416 -0.804891 0.293793 -0.52721 0.846596 -0.311492 0.593961 0.357537 0.859484 0.525974 -0.677837 0.844408 -0.466309 0.977646 0.0931305 0.728113 -0.335805 -0.899568 0.753912 -0.816968 0.792898 0.19898 -0.246805 -0.52037 0.627497 -0.969937 0.149921 0.250661 0.369164 0.666719 0.488486 -0.787622 0.863765 -0.217971 -0.311504 0.712303 0.468932 -0.718976 0.0699861 0.326983 0.806078 0.391788 0.174167 -0.656524 0.368305 -0.732204 -0.932273 -0.963686 
-0.6333 0.826095 -0.787751 -0.836872 0.0232916 -0.0390393 -0.333136 -0.353342 0.00268425 0.792475 0.899607 -0.640058 0.462435 0.386032 -0.414718 0.336922 -0.824737 0.292532 0.0405931 0.626892 0.550273 -0.889658 -0.0387896 0.363926 0.509541 -0.855484 0.701771 -0.13435 -0.596399 0.746027 -0.106675 -0.228942 0.585514 0.104218 -0.0648397 -0.398779 -0.910293 0.577761 0.24738 0.0934363 0.378347 0.14931 0.461386 -0.165734 -0.465908 -0.967038 -0.839087 -0.293002 0.303065 0.196746 -0.65231 -0.150721 0.307137 0.307316 -0.792559 -0.186681 0.456772 0.916866 0.682412 0.851707 0.673495 -0.430296 -0.349744 0.252761 0.699281 0.574541 0.869391 0.79344 0.138777 0.118 -0.136716 -0.466311 -0.732875 -0.677355 0.363677 -0.210964 -0.637688 0.526387 0.517064 0.670152 -0.277525 0.850518 -0.487109 -0.95877 0.173428 -0.29594 -0.14942 -0.371936 -0.364998 -0.4924 -0.506277 -0.707852 0.100536 0.133085 0.55814 -0.192664 -0.297221 0.414849 -0.402509 0.857842 
-0.472031 0.467394 -0.602368 -0.188465 0.810046 0.764804 0.614885 -0.84629 0.292207 0.114382 0.799589 -0.975426 -0.0145156 -0.675631 -0.953307 -0.829424 0.0473347 -0.109134 -0.206314 0.691013 0.432957 0.29406 0.972502 -0.448675 -0.580948 0.530201 0.349064 0.0888546 -0.0522764 0.949299 -0.0260204 0.503812 0.426469 0.363776 -0.696772 0.230675 0.154293 0.897755 0.347707 -0.579635 0.033937 0.179549 -0.573707 -1.01148 0.507066 -0.514203 -0.823798 -0.441701 0.38593 -0.0561345 -0.74437 -0.171841 -0.767889 -0.791575 0.36057 -0.354421 0.772193 -0.292262 0.744875 -0.2789 -0.354813 -0.278193 -0.778006 -0.951568 -0.891931 -0.504624 0.29566 0.165185 -0.608882 -0.358278 0.625763 0.393561 0.824182 -0.945857 0.412478 0.332174 -0.483233 0.629516 0.906915 0.90691 -0.453255 -0.835766 -0.278444 -0.221039 -0.601056 -0.912323 0.424053 -0.830701 -0.208929 0.17533 -0.111865 0.446722 0.887722 0.100866 0.466625 0.974756 0.58624 -0.249293 0.188779 0.985333 
0.44409 -0.268702 0.427468 0.217247 -0.219901 -0.117218 -0.415204 0.318028 -0.570291 -0.487478 0.198752 0.0383558 -0.318118 0.869868 0.761194 0.0707076 -0.985742 0.195056 0.198297 -0.158045 -0.581072 -0.881481 -0.717785 -0.69297 0.170606 0.749809 -0.774327 -0.23544 -0.455643 0.392462 -0.224385 0.989224 -0.794532 -0.789192 0.222038 -0.0799029 0.0830344 0.720955 -0.812049 0.5333 -0.737297 0.404206 -0.527335 -0.1114 0.333317 -0.70296 1.00979 0.35219 0.503238 0.211881 -0.777759 0.937645 0.355185 -0.591783 -0.837237 -0.451472 -0.72218 -0.589629 0.32362 -0.153944 0.825703 -0.828143 -0.218127 0.941884 -0.597947 0.972106 -0.0557216 0.403804 0.729752 0.100887 -0.11962 -1.01053 -0.471873 0.3853 -0.106064 0.877228 0.655282 -0.0122188 0.223639 0.183373 -0.846264 0.432032 0.0976531 0.516574 0.89764 0.324864 -0.917941 -0.788831 0.698259 0.445799 0.0240124 0.547592 0.547054 0.834725 0.442435 0.879201 0.790737 -0.588847 0.269936 0.502128 
0.425692 -0.872365 0.487545 0.971258 0.476213 -0.483589 0.861099 0.184434 0.376948 0.0420518 -0.595718 0.60858 -0.478677 0.383345 0.0544553 -0.520626 -0.221396 0.153474 -0.35246 -0.515701 -0.426895 0.661135 -0.984935 -0.805732 0.471516 0.476093 -0.926953 0.270193 0.86422 0.271178 -0.195422 0.349464 0.457087 -0.603783 0.315854 -0.110686 -0.197488 0.0882262 -0.915855 -0.787687 -0.817453 -0.590155 0.700944 -0.313957 0.858183 -0.155774 0.1999 -0.3641 0.94436 0.814695 0.200675 -0.420255 0.469655 0.174969 -0.325875 0.0353312 -0.241265 -0.283548 -0.707898 -0.348838 0.949332 0.220651 0.977119 0.324101 0.52442 0.264895 -0.597492 -0.719208 -0.668182 -0.63047 -0.552121 -0.497025 -0.231581 -0.793198 0.174798 -0.255537 0.00746672 -0.68742 0.370278 -0.00867753 -0.8821 -0.5173 0.588063 0.675211 0.772897 -0.766234 -0.305359 -0.479279 -0.100982 0.00500514 0.118196 -0.171015 -0.934425 0.125041 -0.797983 0.598525 -0.597132 -0.403053 0.81593 -0.315226 
-0.118487 -0.72279 0.130869 0.703908 -0.502971 -0.537272 -0.569071 0.553987 -0.243828 0.751589 -0.37807 -0.053855 -0.648562 -0.901227 -0.482284 -0.863442 -0.587552 0.224238 -0.40275 0.259122 -0.757769 0.758847 -0.893027 -0.638172 -0.116361 -0.59235 0.936492 0.287311 -0.0353177 0.782716 0.970564 0.86506 -0.911627 0.302561 0.538599 -0.438884 0.644319 0.925805 -0.833625 -0.614163 0.752213 -0.287349 0.232281 -0.913881 -0.148811 0.876711 -0.722049 0.274859 0.0477878 -0.101414 -0.378356 0.269487 -0.355545 -0.24401 0.565977 0.643937 0.195428 0.451956 -0.167328 -0.843264 0.189735 -0.0983734 0.9884 0.282526 -0.912836 0.527069 0.982713 0.644248 0.438534 -0.970357 -0.88109 0.187144 -0.28857 0.302016 0.247203 0.653836 0.129241 0.410325 -0.152789 -0.824878 -0.650912 0.38703 0.436794 -0.0840285 -0.777516 -0.0318691 -0.415449 0.399471 -0.583672 0.474043 0.519561 0.666071 -0.817157 0.577348 -0.100922 -0.681111 0.0916162 -0.166266 0.92355 -0.547378 
-0.198486 -0.99318 0.593951 0.492527 0.343536 -0.0217716 0.220895 -0.461213 -0.582972 -0.982729 -0.215086 -0.243405 0.490634 -0.866069 0.684738 0.722975 0.161498 -0.676432 0.1202 0.592309 0.766665 -0.363302 0.192409 0.998155 -0.800527 -0.860622 -0.683471 0.221234 -0.047761 -0.769729 0.661104 0.761327 -0.694377 0.392222 0.259671 0.633906 -0.737576 -0.604297 -0.74951 -0.315098 -0.471327 -0.0629213 0.378631 -1.00168 0.128913 0.179244 0.835534 -0.707799 0.451131 -0.0839269 0.872353 0.253392 0.505129 0.124633 0.210865 0.814823 0.294776 0.433784 -0.0392602 -0.757106 0.655897 -0.272104 1.02768 0.941263 1.0156 0.26357 0.762562 -0.789153 0.662058 0.872679 -0.00604751 -0.818491 -0.19875 -0.70267 -0.799773 1.00414 0.449178 0.909302 -0.804368 -0.0957315 -0.112804 -0.955426 -0.87449 -0.575279 0.213222 0.348752 -0.792217 -0.50713 -0.186344 0.121276 -0.29261 -0.512782 0.735084 -0.292205 -0.491586 0.790155 1.01664 -0.770109 -1.00621 0.598065 
-0.966153 -0.0484458 0.807355 -0.174592 0.2831 -0.914977 -0.0292184 -0.255971 0.975952 0.0345718 0.691747 -0.111345 0.0833549 0.853367 0.282231 -0.633265 0.228856 0.527661 -0.106618 -0.948951 -0.325517 0.639 -0.481411 -0.560209 -0.685971 0.0966571 -0.713153 -0.811766 0.235379 -0.753145 0.823027 0.326595 0.255895 0.703737 -0.749056 -0.589259 0.67924 -0.0149548 0.268115 0.739623 -0.885936 -0.138513 -0.448143 0.151268 -0.267214 0.942148 0.638626 0.959133 0.373383 -0.562538 1.01573 -0.920046 0.915085 -0.433717 -0.500203 -0.74948 0.682634 -0.330281 -0.556528 -0.0663424 -0.0736567 -0.589461 -0.69961 -0.872532 1.07194 -0.526395 -0.262818 0.647997 0.471865 0.850347 0.420216 0.572691 -0.242276 0.961124 -0.201749 0.562008 0.762408 -0.669883 0.439017 0.200177 -0.231994 0.469785 0.185924 -0.229255 -0.935968 0.7025 0.038092 0.69649 -0.605766 0.391409 -0.437282 0.378633 0.732031 -0.0182708 0.548173 0.767561 0.521675 -0.718604 0.462827 -0.121332 
-0.906898 -0.0748275 -0.52341 -0.126899 -0.202171 0.287405 -0.478362 -0.368357 0.55288 0.833558 0.815135 -0.638113 0.209291 0.0160728 0.0277993 0.32543 -0.280394 -0.892073 -0.0177653 0.126834 0.586122 0.635968 -0.492472 0.321109 -0.430549 -0.876785 0.180622 0.964915 -0.70415 -0.352323 -0.141252 -0.560507 0.531532 0.39923 0.331614 -0.801828 -0.336582 0.607349 -0.123938 -0.726291 0.568806 -0.357504 -0.430333 -0.198292 0.669932 0.680089 -0.868237 -0.60002 0.824687 0.0863386 0.547095 0.410923 -0.371295 -0.989699 -0.241293 0.236995 -0.846938 0.85584 0.180317 -0.557774 -0.559828 -0.823063 -0.0403355 0.87311 0.474835 -0.779356 -0.786626 -0.91239 0.933742 0.00702418 -0.609392 0.524009 0.673419 -0.0607468 -0.647037 0.389918 -0.393078 -0.611141 0.688983 -0.596875 0.517532 0.259736 0.743241 -0.79219 0.324601 -0.480919 0.428603 0.458706 -0.612708 -0.545837 0.799619 -0.0864363 -0.432349 -0.0641711 -0.216901 -0.924006 0.164895 0.0172041 -0.815852 0.0229594 
-0.999205 -0.434038 -0.451582 0.681175 0.457081 -0.0470061 0.101666 -0.902283 0.300758 -0.255185 -0.489785 -0.149884 -1.0548 -0.720507 -0.0827306 0.278658 -0.1587 -0.638391 -0.234101 0.24246 -0.109744 -0.357163 -0.886848 0.476644 0.540019 -0.0974765 0.621624 -0.396615 0.906524 0.77194 0.675812 0.960065 -0.664784 -0.74733 0.675904 0.696781 0.141906 -0.355174 0.773854 -0.487977 0.465804 -0.72229 0.27431 0.464981 -0.445698 -0.681783 -0.225534 0.430372 -0.339768 0.549933 -0.350948 0.576462 -0.875601 -0.2704 0.0641713 0.768613 0.68981 -0.439784 -0.643669 0.593537 -0.697349 -0.887909 0.653137 -0.433703 -0.714989 0.220771 -0.613598 0.348212 0.931723 -0.884798 0.906109 0.355313 -0.620534 0.0933098 -0.123829 0.0213082 0.399368 0.575983 -0.697067 -0.997446 0.169926 0.019318 0.50376 0.359954 0.777812 -0.369529 0.116345 0.483243 0.222737 0.328041 0.0631247 0.589958 0.354464 -0.238154 -0.831751 0.606659 0.979284 -0.494014 -0.0359789 0.821388 
-0.369571 -0.197777 0.204818 0.0454824 0.924268 -0.875703 -0.994105 0.286079 0.673579 -0.649881 0.392328 -0.119601 0.344548 -0.0429396 -0.848703 0.165915 0.587653 0.273213 -0.342143 -0.129447 -0.37811 0.760417 -0.574411 -0.976374 -0.566225 -0.387987 0.677815 -0.625346 0.178738 -0.381302 -0.799034 0.785229 0.452877 0.4947 -0.1913 0.342176 0.541773 -0.145073 -0.380626 0.339725 0.214868 -0.954548 -0.883364 -0.433771 -0.00386635 -0.650138 0.792081 -0.407981 0.591912 -0.515971 0.46231 -0.75126 -0.844681 0.864505 -0.700639 -0.323174 -0.464076 0.836124 0.0293833 0.637458 -0.521715 0.31022 0.538424 0.905797 -0.271994 -0.736607 0.337955 -0.715022 0.066519 0.952889 0.632185 -0.728443 0.972971 0.684236 -0.130885 0.0322232 -0.982773 -0.394497 0.516701 0.555188 0.0760581 -0.0236429 0.796248 0.293735 -0.0376731 -0.913615 0.941383 0.470672 -1.04379 -0.121306 0.111168 -0.504167 -0.852243 -0.385752 -0.554409 -0.105003 -0.128739 0.723567 0.220324 0.881154 
0.735794 -0.223921 -0.823469 0.74205 -0.545961 0.0966357 -0.298427 -0.524394 0.676542 -0.728708 -0.85087 -0.160453 0.283561 0.972197 -0.902968 -0.747037 -0.941193 -0.998821 0.709533 -0.901924 -0.0471122 -0.17365 -0.386084 0.144191 0.451702 0.051672 -0.918418 -0.743246 -0.128963 0.22544 -0.820616 -0.450527 -0.906743 -0.586284 -0.782771 -0.504591 0.438445 -0.0538663 -0.0403131 0.271441 0.21151 0.15184 0.979639 -0.517451 0.0672653 -0.915327 -0.204095 0.17062 -0.847397 -0.483471 0.286749 0.0245351 0.246957 0.845325 -0.764289 -0.234439 -0.02761 -0.859894 -0.0116191 0.765066 0.430159 0.211272 -0.579901 0.402594 0.554714 -0.426409 1.01423 0.0237568 0.476243 -0.0761296 -0.70401 -0.320592 -0.945572 -0.802676 0.231362 0.153304 -0.712801 0.939278 -0.754868 -0.673358 -0.588954 0.555585 0.378119 0.746631 0.467641 0.590776 -0.521905 -0.555037 0.758071 0.420291 -0.806327 0.19043 -0.398675 -0.427732 -0.323545 -0.788228 0.193441 -0.374744 0.22629 -0.41069 
0.669389 0.41154 0.302952 0.731688 0.655926 -0.405386 -0.257946 0.918956 -0.506999 0.136845 -0.648251 -0.0355674 -0.289977 0.731275 -0.352368 -0.818198 0.254652 0.123554 -0.455994 -0.000606923 -0.355926 -0.233912 -0.829426 0.307901 0.371649 -0.0472977 0.432114 -0.52697 0.600993 -0.417372 0.134274 0.228257 -0.847713 -0.477733 -0.178194 0.699423 -0.031673 0.697907 0.626862 0.641013 -0.208291 1.00414 -0.55193 0.349401 0.653213 0.149171 0.631186 -0.0292037 -0.724771 -0.772186 -0.866003 -0.167796 -0.146403 -0.77431 -0.857524 -0.680099 0.257628 0.327719 -0.226934 -0.085312 -0.910685 0.875529 -0.863249 -0.918695 -0.645983 -0.087989 0.949708 0.326983 -0.461714 0.480047 -0.052951 0.330461 0.458546 0.247438 -0.184061 0.175762 -0.663153 -0.701133 -0.917749 -0.470198 -0.594841 -0.778409 0.420499 0.299266 -0.519967 0.493539 0.707269 0.804055 -0.0973622 -0.627589 -0.348882 -0.0415837 -0.71288 -0.292316 0.138808 -0.337676 0.70262 -0.0488617 -0.961472 -0.819354 
-0.4419 -0.198196 0.551182 1.01473 -0.810236 -0.607797 0.0340296 -0.555427 -0.370307 0.368777 0.14806 0.1405 0.530634 -0.465502 -0.505007 -0.968621 -1.0147 -0.795773 0.769538 -0.0783719 -0.282348 -0.573998 0.785458 0.0202524 0.141933 0.0624757 0.589103 -0.251603 -1.02589 0.54216 0.0138139 -0.464164 -0.465175 -0.365771 -0.573434 -0.420701 -0.116871 0.604614 0.0778614 0.705525 -0.0456251 -0.8286 -0.232162 -0.678932 -0.303237 0.251742 -0.531398 -0.265237 0.441822 -0.771548 0.837793 -0.968205 -0.417166 0.513641 0.0537217 0.799219 -0.35493 -0.585066 -0.419379 -0.323902 -0.815916 0.552776 0.141178 -0.424686 -0.758096 0.548967 0.295199 0.0924452 0.136357 -0.777735 -0.184446 -0.880494 -0.526896 0.358059 -0.495937 0.229197 -0.431091 -0.171488 -1.11136 -1.10598 0.0186611 0.697036 -0.99989 0.577086 0.218796 -0.0710325 0.51895 0.968007 0.427177 -1.04716 -0.46806 0.621346 0.557399 0.70373 -0.716635 0.780629 0.36545 0.421597 -0.0706661 -0.53189 
0.797987 0.520665 -0.408132 -0.656121 0.0148166 0.171402 0.460636 0.491059 0.97321 0.48625 0.605019 0.0806732 0.113894 0.530986 -0.212385 -0.56585 -0.51377 -0.72261 -0.624295 -0.893379 -0.66105 0.0489466 0.540193 0.820413 -0.330664 0.932303 0.602278 -1.17618 0.345347 -0.62126 -0.481743 0.178183 -0.894533 0.219978 0.338961 -0.0230039 -0.798628 -0.208823 -0.477986 -0.672184 -0.701539 -0.947834 0.376832 0.362085 0.582873 -0.91076 1.00306 -0.911468 -0.684503 -0.672469 -0.730028 -0.476774 0.195077 0.749241 -0.594226 0.948784 0.873008 0.823988 1.00769 0.214449 -0.591567 -0.463409 -0.681297 -0.559957 0.661188 0.64409 0.532119 0.855767 -0.644269 0.890149 -0.814698 -0.170607 -0.919739 0.363778 -0.751913 0.747492 0.438605 -0.963778 0.695224 0.669961 -0.732095 -1.04576 -0.716344 0.59348 0.774903 -0.39596 0.68763 0.739626 -0.521666 0.504879 -0.266691 -0.10088 -1.03017 0.276814 0.391443 0.670248 0.0571394 -0.159534 0.530916 0.465459 
-0.0965152 0.582731 -0.679718 0.0210906 0.0690564 -0.454252 -0.258529 -0.528519 -0.386019 -0.415041 -0.683155 0.017053 -0.36393 -0.475353 -0.30017 -0.447234 0.178014 -0.771218 -0.73484 0.732101 0.836722 0.298263 -0.445632 0.694288 -0.596344 -0.892615 0.346262 0.229948 -0.0629702 -0.20982 -0.149958 0.815938 -0.495355 0.221962 -0.277612 0.460891 0.673606 0.382734 0.909314 -0.699687 0.993388 -0.81556 0.318733 -0.418517 -0.332324 0.948679 0.290366 0.834807 -0.84498 0.552256 0.686388 0.8427 -0.282748 -0.736501 0.616683 0.143951 -0.511013 -0.101238 -0.37446 0.387736 0.78329 0.504801 0.222487 -0.727154 -0.386632 0.928102 0.78105 -0.766458 0.258608 0.543917 -0.462236 0.471245 0.861806 0.713801 -0.96696 -0.363041 0.58868 0.154413 -0.634628 0.640202 -0.273079 -0.950336 0.603855 0.417006 -0.619842 0.151091 -0.318772 -0.0505418 -0.863422 0.176688 -0.781133 0.902713 -0.413566 0.619467 -0.913116 0.195258 0.674599 0.871088 0.429762 -0.0630874 
0.561188 0.871308 -0.628499 0.480527 0.629735 -0.646803 1.10968 0.157146 0.539489 -0.549289 0.0136496 -0.654024 -0.320159 -0.465014 0.916562 0.11002 0.786703 -0.472768 -0.898484 0.806962 0.714754 -0.514952 0.669694 -0.733308 -0.973426 0.909653 0.400433 0.431866 0.802924 -0.351603 -0.52601 0.251651 -0.348586 -0.134834 -0.3553 -0.84887 0.11075 -0.463724 0.258863 -0.352138 0.0424301 -0.711439 0.0312384 0.697244 -0.238339 -0.114846 -0.10584 -0.530089 0.335985 0.0275713 -0.53668 -0.0569968 0.431515 -0.85693 0.235597 0.442911 -0.805692 -0.415055 0.0414959 0.907346 0.261844 0.596724 0.208499 0.909067 -0.724603 0.779669 1.02527 0.396843 -0.728302 0.239539 -0.933128 0.503707 0.649419 0.0612673 0.194225 -0.538015 0.837349 -1.11535 -0.1542 0.120241 -0.0110812 0.312174 -0.825754 -0.671437 0.506508 0.34239 0.835175 0.769831 0.994545 -0.219666 0.561701 0.304624 -0.723701 -0.111085 0.125375 -0.434003 -0.256366 0.184685 0.941133 0.0589917 
-0.535962 0.959092 -0.471724 -0.843896 0.00556166 0.589813 -0.375898 -0.114285 0.601966 0.451137 -0.793736 -0.391182 -0.0710001 -0.665696 0.107125 -0.437315 0.813174 -0.0728732 -0.693125 0.619219 0.696093 0.967536 -0.128747 -0.903208 -0.144322 -0.919823 -0.422883 0.363449 0.306906 -0.645924 -0.541451 0.675381 -0.552789 -0.0534911 0.851536 0.431518 -0.509933 -0.71322 -0.675591 -0.96015 0.795846 -0.504233 -0.370082 -0.243958 -0.206385 0.776993 0.297468 -0.512068 -0.368036 0.623411 -0.707017 -0.732078 0.47472 0.182012 -0.617296 -0.665021 0.388719 -0.111458 0.774742 -0.385142 0.267137 -0.666146 -0.658305 0.755394 0.113257 -0.907017 0.127568 0.655402 -0.724165 0.420281 0.633334 -0.807263 0.997746 -0.682844 -0.0851105 -0.16472 -1.01705 -0.928665 0.307254 -0.393051 0.764496 0.589076 0.014305 0.272937 -0.128868 0.341503 0.591363 -0.784224 -0.753948 0.335448 -0.252322 0.559104 0.540432 0.0485322 0.275955 -0.261125 0.186589 -0.551835 -0.694463 0.476077 
0.881762 1.00789 0.746198 0.98331 -0.753577 -0.448433 -0.221041 -0.631625 -0.241344 -0.946897 0.144896 -0.517468 0.752709 -0.908485 0.798734 -0.302019 0.531384 0.415584 -0.146362 0.633077 -0.227472 0.647777 0.1016 -0.543291 -0.262544 -0.552585 0.153395 0.789259 -0.147343 0.29965 0.339377 -0.260819 0.351673 0.000395912 -0.282599 0.646723 0.516802 0.379358 -0.90012 -0.775254 0.561199 0.137141 -0.293261 0.295173 0.234534 -0.455401 1.00519 -0.333122 0.908172 -0.183266 -0.601905 -0.340115 -0.65213 0.529348 0.0484704 0.116818 -0.938831 -0.903382 -0.0411611 -0.0381934 0.432516 -0.578199 0.714587 -0.183994 0.252953 -0.640178 -0.544004 -0.0878647 0.701029 -0.519672 0.0974751 0.264789 0.710555 0.884411 -0.461544 -0.0234512 -0.726765 -0.57291 0.619127 -0.750458 0.322321 -1.00656 -0.0655123 0.690336 0.62389 1.00073 -0.155249 0.545209 -0.955568 0.821542 -0.56453 0.534662 -0.868988 -0.842127 -0.711075 0.506985 -0.422236 -0.192928 -0.694529 -0.683485 
0.36982 0.44771 0.699144 0.129465 0.235847 -0.932916 1.03538 0.648689 -0.42296 0.595892 0.972753 0.793951 0.650295 -0.115407 0.557103 0.265732 -0.0332713 -0.556482 -0.209846 -0.12998 -0.774282 0.332359 -0.713893 -0.486065 0.507714 -0.313394 0.964273 -0.982898 0.418654 -0.834319 -0.682978 -0.228219 0.644243 0.89102 0.880276 -0.0980517 0.899741 0.841845 -0.357282 -0.525285 0.564771 -0.423595 -0.700297 0.161064 0.466363 0.847674 -0.606992 -0.689703 -0.812487 0.202894 0.271276 -0.553817 -0.567867 0.57421 -0.215198 0.956195 -0.638056 -0.337512 0.948835 0.8318 -0.149492 -0.695029 -0.478718 -0.469898 -0.805519 -0.612335 0.435963 -0.813846 -0.793584 -1.00299 -0.344384 0.785707 -0.314888 0.0273836 -0.126937 -0.842133 -0.272071 0.205586 -0.576098 0.0159568 -0.51041 0.638623 0.442277 -0.0754765 0.358938 -0.73209 -0.0924448 0.594496 -0.192462 -0.158266 0.332899 0.727257 0.173258 1.03558 -0.822265 0.342214 -0.548064 0.690651 0.443664 -0.318504 
0.741057 -0.951811 -0.496162 -0.563376 -0.00940852 0.336122 -0.424563 0.822837 -0.413804 -0.0244992 -0.14207 0.0203821 -0.354443 -0.702359 0.911057 1.00132 -0.45257 -0.108538 0.628942 0.384333 0.702875 -0.0152609 -0.0230141 -0.0253117 0.0136729 0.271539 -0.688148 0.374651 -0.0815772 0.646084 -0.94207 -0.327852 0.744719 -0.487934 0.101267 -0.242601 0.711852 0.653237 -0.377479 -0.624678 -0.381478 0.450062 0.392413 0.266065 0.781219 0.339477 0.260421 -0.686139 -0.858882 -0.136898 0.745825 0.949851 0.799049 -0.238329 -0.201443 -0.171642 -0.848827 -0.00021707 -0.809922 0.00917206 -0.329906 -0.705061 0.647285 -0.623754 -0.216718 -0.276693 0.242529 -0.42129 -0.654794 0.819801 0.00974807 -0.0370656 0.325594 -0.578485 -0.78689 0.156679 0.680487 0.431622 0.426753 0.90183 -0.69691 0.128586 0.779016 -0.870219 0.978236 -0.447698 0.0259122 -0.944882 0.474785 0.102529 0.00901697 -0.825141 0.468121 -0.177103 -0.351587 -0.688184 0.552612 0.890207 -0.1049 0.847703 
0.687591 0.83278 -0.149565 0.0681495 -0.762871 0.0586008 -0.78658 -0.995519 -0.459412 0.625347 0.903605 -0.172209 -0.218139 0.695406 -0.0465419 -0.202367 -0.731259 1.02022 -0.129248 0.759682 0.189665 0.872632 0.88421 -0.291291 -0.332707 -0.426348 0.0556627 -0.830577 -0.548979 0.791382 -0.938909 -0.840739 0.677489 -0.0745379 0.248516 0.913892 0.85714 0.380532 0.964051 -0.558037 0.011637 0.85164 0.320059 0.800162 0.564416 -0.694206 -0.34004 0.822991 -0.752952 0.411903 0.617747 0.470403 0.325725 0.511372 -0.91264 -0.976574 -0.83518 0.0335275 -0.785349 -0.416007 -0.145808 -0.712247 -0.308843 -0.52478 0.188932 0.877097 -0.451623 0.114821 0.279432 -0.552327 0.621924 -0.703295 -0.686726 -0.00586716 -0.869913 0.955291 0.239 -0.270199 0.758116 0.541879 -0.833802 0.360161 -0.0223637 0.501186 -0.0788233 0.107254 0.572042 0.0380576 -0.906302 0.683411 0.590888 -0.112505 -0.98059 -0.641637 0.474875 0.28984 -0.770614 1.01028 -0.563344 0.486929 
-0.556203 -0.930398 0.760908 -0.177002 0.0337238 0.895445 -0.228475 -0.672026 -0.368205 -0.479242 0.8753 -0.22287 0.924702 -0.179664 -0.757052 -0.190735 0.926085 0.84696 0.857429 -0.985283 0.608715 0.396161 -0.0657117 0.663414 0.722591 -0.560538 -0.0539184 0.950515 -0.542551 0.323668 0.487165 -0.062181 0.423059 0.248773 0.744467 -0.538008 0.0492065 -0.531162 -0.18804 0.754553 0.0259053 -0.328024 -0.541577 -0.13171 0.564771 -0.256873 0.694176 0.461981 -0.460355 0.5088 0.498822 -0.877675 -0.0499582 -0.545612 0.784901 -0.300306 -0.0879035 -0.300119 -0.342318 0.350365 -0.943654 -0.954625 -0.782377 0.490296 0.325713 0.903881 0.960823 -0.611167 -0.592216 -0.196405 -0.909138 0.373792 0.484792 -0.382098 -0.713611 0.0273866 0.352304 0.968626 -0.482735 0.927702 0.49133 0.970824 -0.939522 -0.535757 -0.546145 0.836878 0.173738 0.326937 -0.411703 0.790559 -0.341013 -0.397715 0.922602 -0.0925084 -0.876329 0.288738 -0.178378 -0.906935 0.699536 0.243525 
-0.11256 0.85987 -0.380401 -0.637244 -0.523913 -0.0702605 0.40183 0.835858 -0.0889567 0.901702 0.769328 -0.573667 0.902252 0.834191 -0.117911 -0.674831 0.69399 -0.95482 0.651892 -0.736572 0.887653 -0.712892 -0.11951 0.834819 0.167173 0.00481833 0.117043 0.985659 0.0981217 -0.195638 0.240533 1.02222 -0.32765 0.853149 -0.622502 0.16189 -0.246088 0.77831 0.00296173 0.690331 0.675374 -0.232736 -0.911864 0.555624 -0.364652 -0.0155379 0.864068 -0.682659 0.0136984 0.517343 -0.400187 -0.106858 0.808373 0.47865 -0.267533 -0.00220438 -0.525435 0.827133 0.00296754 0.583457 -0.346089 -0.780058 0.564058 0.332212 -0.926229 0.928841 -0.486678 -0.182334 0.719267 0.504408 -0.509975 0.370318 -0.714221 -0.397729 -0.0637444 -0.0935619 0.568212 -0.190155 0.241662 -0.420063 -0.667124 0.810564 0.491161 -0.856874 0.306541 -0.787773 0.166697 0.771102 -0.935486 -0.853762 0.350859 -0.271525 -0.629783 -0.0685725 -0.949011 -0.556511 -0.133436 -0.437764 0.261946 -0.418194 
-0.912736 0.77603 0.942374 -0.61408 -0.625734 -0.115536 0.2989 0.94426 0.695026 -0.468301 -0.459269 -0.974689 -0.650771 -0.965775 -0.823814 0.645946 -0.744045 0.336382 0.403036 -0.688024 0.494501 -0.245573 0.0252759 0.87023 0.681061 0.0855859 -0.686779 -0.455467 0.655834 0.581971 0.121033 0.742191 0.357687 0.0685198 -0.874772 0.733667 0.949263 0.426731 0.680902 0.64655 0.952678 -0.78255 0.672449 -0.697941 -0.739806 0.849526 0.942109 -0.487501 0.184964 0.3519 -0.173591 -0.320265 -0.890514 0.852636 -0.445632 0.789819 -0.06365 -0.139585 -0.663451 -0.408296 -0.554884 0.45104 -0.667645 0.802261 -0.479083 -0.542589 0.537193 -0.528698 0.875817 0.219603 -0.869498 0.828645 0.443959 0.790767 -0.868611 0.702075 0.638315 -0.927214 -0.783946 -0.182652 0.426013 0.0374734 0.504554 0.534711 -0.105764 -0.944219 0.329404 0.830148 -0.084666 0.664285 -0.570544 0.362507 0.115571 -0.2486 0.168989 0.637361 0.210758 -0.30079 -0.890715 0.0760475 
0.926839 -0.771137 -0.0847984 0.370873 -0.980263 0.0460918 0.0727341 0.66052 0.119479 0.288645 -0.513695 -0.455423 -0.669642 0.990534 -0.920227 0.223909 -0.955222 0.406614 0.054281 -0.038444 0.069854 0.476051 -0.676134 -0.813546 -0.769834 0.490825 0.823679 0.440051 -0.803277 0.933455 -0.473465 -0.87646 -0.837692 0.441788 0.494397 -0.817951 -0.512139 -0.432859 0.842582 0.607359 0.855743 -0.671143 -0.848053 -0.813895 -0.680545 -0.768281 0.409972 -0.635796 0.638328 -0.535693 0.325768 -0.291818 0.940392 0.649642 -0.105333 -0.829458 0.140468 -0.2817 0.610595 0.33717 -0.348226 -0.862911 0.460721 -0.185925 0.578895 -0.044893 -0.00388167 -0.933229 0.522192 -0.161258 0.674244 0.377934 0.167649 0.826076 0.564043 0.487093 -0.942209 -0.025988 0.851309 0.696066 0.438325 0.177048 -0.595688 0.378714 -0.173274 0.298978 0.549285 0.967193 -0.982744 0.159873 0.304431 -0.330954 0.296958 -0.234947 0.483159 -0.12413 0.720176 -0.520775 -0.057355 0.242266 
0.318027 -0.383216 -0.379696 -0.514327 -0.55714 -0.815653 0.972761 -0.499337 0.158362 0.824068 -0.803206 -0.403316 0.00115104 -0.398895 0.975398 0.827877 0.90006 0.524663 0.79507 0.917333 -0.315476 0.0994363 -0.413619 0.981496 0.864519 -0.93048 -0.142635 0.584695 -0.451196 0.800012 -0.172937 0.866831 -0.583205 0.447367 -0.647495 -0.140345 0.631714 -0.674735 0.360318 -0.209924 -0.850667 0.557111 0.38676 0.150484 -0.841784 0.362158 -0.0216389 -0.941724 -0.113179 -0.226569 0.97561 0.571345 0.872868 -0.438009 0.552841 0.737386 -0.368488 -0.589794 0.322081 0.180316 -0.789783 -0.850856 0.0471475 -0.372987 0.596511 0.399652 0.486668 0.228225 0.724918 -0.153015 -0.981698 0.874251 -0.595903 0.405062 0.0247354 -0.437687 -0.23278 -0.996903 -0.379411 0.654041 -0.223472 -0.403801 0.225386 -0.350604 0.15819 -0.221773 -0.613218 0.789702 0.188433 0.708863 -0.0299824 0.39865 0.858007 -0.982835 -0.974338 0.454518 0.416817 0.51233 -0.317257 0.141735 
-0.637758 -0.298929 0.0172785 -0.235674 -0.894339 -0.959954 0.3273 -0.126484 -0.954843 0.945133 -0.473254 -0.178381 -0.457688 0.753951 0.470222 0.700656 -0.469098 0.855999 0.491702 0.716808 0.566828 -0.539394 0.117743 0.423429 -0.522391 0.139713 -0.123936 0.892148 -0.347723 0.558758 0.0367012 0.0140899 -0.735207 -0.947738 0.778811 -0.629405 -0.906025 0.102117 0.239326 -0.863643 0.0523359 0.767704 -0.043968 0.593825 0.520504 -0.576241 0.294248 -0.948041 -0.717434 -0.216645 0.774017 0.848281 0.242768 -0.11158 0.27292 0.720095 -0.967546 -0.845055 0.618568 -0.309863 0.709848 -0.346891 0.704408 0.967738 -0.295862 0.484193 -0.657929 -0.19754 -0.412487 0.582871 -0.0683168 0.639588 0.346761 0.892806 0.235347 -0.130845 -0.682302 -0.471437 -0.0783318 -0.399417 0.310743 -0.311388 -0.549796 -0.446089 0.584936 0.721299 -0.721696 0.617448 0.873002 0.894582 -0.693083 0.58305 -0.452633 -0.98693 0.555058 0.257089 0.495595 0.895453 -0.948655 -0.91337 
0.479897 -0.0140181 0.748453 -0.142688 -0.163616 -0.0604732 0.751285 0.198349 0.461239 -0.387987 0.794288 -0.172013 0.330346 -0.748557 0.340103 -0.072579 0.969179 0.661197 -0.460908 0.820565 0.506699 -0.207956 0.427109 -0.889941 -0.152467 -0.0401582 0.337986 -0.672911 -0.172285 0.316968 -0.589502 -0.673406 -0.604957 -0.867956 0.153905 0.232449 0.0732908 -0.139313 -0.590981 -0.425308 0.531274 -0.797031 0.356382 -0.182866 -0.528255 -0.324711 0.725223 -0.515719 -0.686927 -0.755002 -0.711215 0.856792 0.0199434 0.650907 0.939514 0.887865 -0.288205 0.315847 -0.772643 0.603998 -0.38227 -0.345054 0.939592 -0.0490831 -0.253372 0.114003 -0.724552 1.00712 0.944369 -0.309588 -0.588226 0.457565 -0.144208 0.866173 -0.663375 0.333417 -0.436362 -0.982889 0.824612 -0.117071 -0.766433 -0.942893 -0.24319 0.29366 0.831245 -0.307697 0.1945 -0.483979 0.98112 0.380557 -0.93675 -0.401927 -0.976572 -0.983195 0.631903 -0.117756 0.119774 0.84167 -0.274679 0.118269 
-0.566104 0.233491 -0.366167 0.523048 0.0275075 -0.197847 -0.112654 0.565863 -0.116706 -0.478841 -0.522798 0.168391 -0.267931 0.265247 -0.60323 -0.375758 1.01491 0.70028 0.0970853 0.958423 -0.0760473 0.00561889 -0.438253 0.194521 0.180086 -0.835762 0.955707 -0.791249 0.995822 -0.491844 0.244867 -0.587524 0.911993 0.901304 0.808746 -0.0951573 -0.289158 -0.455388 -0.558998 0.630722 0.225412 0.0301783 -0.305769 0.738524 -0.674419 0.0349339 -0.687549 -0.638944 -0.370206 0.276777 -0.759458 0.686577 -0.675625 -0.237001 -0.307847 0.544289 0.106955 -0.166023 0.675183 -0.00854161 0.376157 0.000881593 0.550508 0.204469 -0.154307 0.293099 -0.765115 0.787476 0.737776 -0.210306 0.238789 -0.0646136 0.639093 1.09646 -0.121521 -0.966171 0.138932 0.149483 -0.566326 0.857454 -0.614849 -0.467101 0.454298 -0.182215 0.533137 -0.759373 -0.70633 -0.486171 0.0681887 0.795613 0.493221 -0.603912 -0.152595 0.0338618 0.77622 0.885135 -0.733037 0.846409 0.429253 -0.83948 
-0.690969 -0.265921 0.240579 -0.593475 -0.147542 1.02888 -0.504708 0.829077 0.177171 -0.450685 0.619815 0.457787 0.443672 0.304876 -0.770972 0.0166585 0.651738 -0.301271 0.468906 -0.406387 -0.601071 -0.295454 0.0240664 0.688151 0.830686 -0.361081 0.296944 -1.00992 -0.518479 -0.331366 -0.81068 -0.0508851 0.564152 0.322001 0.351158 -0.628888 0.300425 0.544314 -0.945188 -0.508669 -0.651411 0.867676 0.861189 0.414532 0.169256 -0.839865 -0.561483 -0.231163 -0.387612 0.790632 0.300113 0.261592 -0.308552 -0.749918 -0.473869 -0.385191 0.0825593 -0.897949 -0.493939 0.375781 -0.145771 -0.172803 -0.574959 -0.683146 -0.730854 0.598329 -0.149034 0.410534 0.150125 0.0168315 0.820457 0.316511 -0.262757 0.897087 0.112149 0.873148 0.935651 0.865929 -0.31816 -0.233215 0.475177 0.872413 -1.18664 -0.824845 -0.616177 -0.428238 -0.234878 0.341528 -0.265165 0.147395 -0.239183 0.585402 -1.00876 0.377823 0.924894 -0.806554 -0.158289 -0.436158 0.559787 -0.850106 
0.44463 0.312975 0.790232 -0.765773 0.0633283 -0.00212178 -0.590071 0.0204036 -0.552628 -0.325956 0.777463 0.993425 -0.0912567 0.797558 -0.95701 0.280702 -0.294206 -0.0382913 -0.373521 0.269812 -0.830782 0.0909907 -0.0593353 -0.356021 -0.473464 -0.252349 -0.448632 0.432464 0.363293 -1.08786 0.534091 0.0169969 0.470284 0.276145 0.370814 -0.631508 -0.907915 0.530168 0.249218 -0.206819 -0.496176 0.220662 -0.631245 0.151503 0.0164733 -0.303003 -0.407711 0.421646 0.375692 -0.0407754 -0.374917 0.915191 -0.643888 0.408021 -1.14493 0.0715154 -0.528419 -0.382552 -0.761182 0.70171 -0.348205 -0.615546 0.121159 -1.0821 0.684965 -0.740147 -0.145618 0.656187 0.647122 1.23716 0.993516 -0.7306 0.115835 -0.101189 0.711719 -0.801239 0.145842 -0.41936 0.591952 -0.262233 0.27366 -0.894876 -0.448694 0.565142 0.881833 -0.201478 -0.368254 -0.683068 0.449047 -0.107488 -0.777544 -0.816445 -0.0546934 0.483258 -0.845188 -0.64685 0.583678 -0.242262 0.727123 0.615734 
-0.464208 0.908687 0.908195 0.543764 -0.883358 0.780186 1.2484 0.473487 0.880404 0.184755 -0.360351 0.48076 0.653341 0.160814 -0.262404 0.538893 -0.614837 0.904705 0.98298 0.689588 -0.451477 -1.08765 0.792214 1.08445 0.4748 -0.993567 -0.424204 0.22709 -0.303292 -1.04343 -0.147813 0.458692 1.00026 -0.016413 0.427542 -0.972385 -0.695135 0.377548 0.504789 -0.515743 -0.266679 -0.831877 0.642892 -0.724219 0.331368 -0.273895 1.23892 0.189228 -0.800057 0.806874 -0.162822 0.185739 -1.16789 -0.356704 -0.265658 0.872772 0.0428578 0.134918 -0.361466 0.60106 0.0827854 1.33111 0.765492 -0.182859 -0.105039 -0.0470965 0.603474 0.110287 -1.34317 0.225917 0.329812 -0.154869 0.0357642 0.430573 0.291295 -0.552346 0.743253 0.406796 0.422186 -0.881381 0.00548146 -0.853601 0.41276 0.147316 0.578746 -0.467289 -0.189047 -0.519247 0.520362 0.550354 -0.72587 -0.145256 0.205774 -0.841526 -0.996416 0.747434 -0.0701949 0.224626 -0.333141 0.129131 
-0.957215 -0.758828 -1.17539 -0.0354608 -0.0134751 0.300198 1.03105 0.146466 -0.466458 -0.296175 0.884546 0.835203 0.548172 0.229472 -0.511003 -0.0717038 1.14184 1.01162 0.699887 0.446722 0.45281 -1.13842 -0.778172 -0.0130501 -0.784272 -0.520645 0.0526935 0.146778 0.666206 0.564617 -0.624208 0.72973 0.916146 -0.294663 0.159306 -0.0717358 0.484315 -0.531073 -0.870202 -1.01066 0.516653 0.904971 0.865879 -0.101476 0.142581 -0.141169 -0.45188 -0.173803 -0.598562 0.841008 -0.362821 -0.847311 0.659893 0.104059 -0.205633 -0.450136 0.934289 0.5015 -0.00815056 0.495001 -0.0573252 1.25384 0.801789 -0.347718 1.2548 -0.168027 1.24712 0.452201 -0.475761 -0.71763 0.794229 -0.474977 -0.962503 0.730397 0.630792 0.400036 -0.855064 0.879336 -1.11782 -0.242109 0.653863 -0.388326 -0.0421001 0.522697 -0.687028 -0.769101 0.673189 -0.798352 0.728718 -0.353407 0.689764 -0.0251185 -0.86045 0.935201 0.845668 -0.82528 -0.35035 0.796132 0.625037 0.517376 
0.80916 0.366853 -1.0394 0.775925 -0.344081 0.756792 0.891156 0.427583 0.488538 0.10831 -0.155136 0.221387 -0.700789 0.831772 -0.725869 -0.481219 -0.734496 -0.403324 0.171677 0.677096 0.282621 -0.245253 -0.437311 0.844213 -0.0955502 -0.229564 -0.52538 0.0879134 -0.582019 0.889549 -0.210292 -0.502118 0.599968 0.119332 -0.190846 -0.7748 -0.616818 0.874699 0.976025 -0.918716 0.480379 -0.465967 0.284533 0.816151 -0.66131 -0.864417 0.0123527 -0.783528 -0.735212 0.859909 -0.709817 1.05454 -0.787774 0.186623 0.514746 0.802502 -0.711401 0.468898 -0.814338 -0.250279 0.263847 0.901617 0.772949 -0.310987 -0.633178 -0.79061 0.844523 -0.418906 -1.46251 0.329756 0.190471 0.30076 0.770216 -0.537182 0.389827 -0.591462 -0.976993 0.96089 -0.708437 -0.687105 0.715461 -0.476986 -0.602786 -0.758777 -0.903621 -0.595516 0.683458 -0.661726 0.839986 -1.39399 0.0564898 0.295005 -0.196429 0.287867 -0.608179 0.279284 0.429932 0.853872 -1.10175 0.236098 
-0.119196 -0.249237 -0.363271 -0.328296 -0.387743 1.01553 0.900533 -0.0316056 0.702872 0.227983 1.13073 0.575917 -0.83667 -0.399364 0.239373 -0.887029 -0.116679 0.326997 0.143659 -0.439782 0.256887 -0.976136 -1.19992 -0.275479 0.539883 -0.359358 -0.496194 -0.476205 -0.733142 -0.946245 0.660911 0.712256 0.108038 -0.420972 0.22154 0.557935 -0.945704 1.03673 0.340442 -0.806651 0.797072 -0.123108 0.485495 -0.993273 0.453914 0.306488 -0.312099 -0.990683 -0.76089 0.646436 -0.274925 1.25982 0.116423 -0.0680437 -0.348567 0.0869473 0.966129 -0.664157 0.0983377 -0.687014 -0.648014 0.702777 -0.600533 0.224248 0.644731 0.101132 0.945335 0.569288 -0.135811 -0.731639 1.14306 -0.566304 0.206407 0.781125 -0.258473 -0.193987 -0.438613 0.202846 -0.483014 -0.145046 -0.304434 0.0624122 0.089077 -0.958477 -0.460509 0.848011 0.0431389 -0.789118 -0.676461 -1.24941 -0.644107 -0.177276 -0.350692 0.427586 -0.467781 -0.461774 -0.618112 -1.06044 -0.750456 0.150654 
-0.748252 -0.668781 0.795648 0.195174 0.264217 -0.22511 -0.437599 -0.934543 0.383092 -0.673337 0.718553 -0.747244 0.473193 -0.225903 -1.41569 -1.00547 -0.403748 0.0471393 -0.376787 -0.0516485 0.258131 -0.0540896 -1.27738 -0.595394 -0.372067 -0.166401 0.528275 -0.371005 -0.560222 0.65361 0.641585 0.0666031 0.806859 0.805739 0.112827 0.0979819 -1.04575 -0.105042 0.783943 0.717947 0.426834 0.187887 0.621519 0.0491885 0.746153 0.837789 0.361285 -0.763488 -0.162266 0.984491 0.0826752 -0.46549 -0.350754 0.0589523 0.117281 0.524067 -0.9458 -1.34514 0.827827 -0.302909 0.257355 1.13094 -0.882197 -0.144221 0.379637 -0.331875 -0.0654262 0.30771 0.275795 0.796577 0.517212 -0.510452 -0.0488602 -0.172134 0.852425 -0.259647 -0.312886 -0.110105 -0.303723 0.373359 -0.0905762 0.505262 -1.00741 0.640733 -0.028575 -0.204589 0.195008 -0.0948998 -0.109649 -0.446101 0.152752 -0.792346 -1.12855 0.955059 0.559577 0.585739 -0.426288 -1.11797 0.0533715 0.64803 
-0.86969 -0.677035 -0.472047 -0.433174 -0.375741 -0.429435 0.52182 0.608711 -0.00822492 0.900691 0.714171 1.14428 0.214417 0.644302 -0.0170191 -0.562506 -0.41943 -0.448607 0.723153 0.670793 0.516014 0.0853896 -1.23418 0.725451 0.330859 0.973602 0.865376 0.56573 0.549334 -0.136596 0.235319 0.863081 0.0881501 1.08656 0.0948147 0.817622 -0.925652 -0.770485 0.899063 0.689378 -0.829816 0.520294 0.317889 0.473939 -0.295572 0.0212414 -0.646792 0.368608 0.518202 1.10656 -0.100156 0.223577 -0.0431723 -0.29589 0.054085 -0.496201 -0.362789 -1.29018 0.706118 -0.516354 -0.230496 0.460357 -0.38491 0.432872 0.329093 0.187609 1.27639 0.254682 0.0780508 0.342054 0.647988 0.254772 -0.440018 -0.93275 0.112702 0.639775 0.130256 -0.0430574 -0.525982 -0.734883 0.140676 0.298834 0.61799 -0.6646 -0.66807 -0.68827 -0.178333 0.0839251 -0.318851 -0.648167 0.192061 0.450996 0.0740785 -1.1257 0.420748 -0.434569 0.324842 -0.075699 -1.00495 -1.03808 
-0.0472127 -0.170074 0.497298 -0.00335692 -0.314882 0.00184603 -0.496 -0.801204 0.636057 0.19255 0.391688 0.344979 -0.750409 -0.152743 -0.245226 0.234389 0.198898 -0.961474 -0.709588 -0.807425 -0.272398 0.802043 0.863899 -1.02339 1.01522 0.826969 0.0354404 0.104632 -0.331362 0.0200632 0.216705 0.48812 1.09507 0.336092 -0.261894 -0.0471466 0.659878 0.507888 0.290266 1.38178 -0.344218 -0.0495514 -0.161358 -0.226955 0.170732 -0.414864 -0.585369 -0.575909 -0.448227 -0.0337345 -0.255146 0.364833 -0.568847 -0.651762 0.45628 -0.314334 1.05787 0.163926 0.333598 -0.47306 -0.479391 -0.046562 -0.474145 -0.774768 -0.721861 -0.0136445 0.916945 -0.980969 -1.15871 -0.166714 0.169926 -0.399116 0.129867 -0.0965466 0.806873 -0.231129 0.450091 -1.43423 -0.260009 -1.20752 -0.386824 0.50494 0.179868 0.200864 -0.81016 -0.975021 0.675619 -0.668634 -1.02137 0.0496511 -0.372506 -0.544526 -1.52988 -0.321763 0.282899 -0.870108 1.06288 -0.598223 -0.858513 -1.44636 
1.05354 -0.819567 -0.688232 -0.3361 0.212495 -0.489411 0.121513 0.161075 -0.745313 -0.339985 0.806989 0.630777 -1.06039 -0.291042 -1.0997 -0.11288 -0.263923 -1.0597 -0.302452 -0.00946688 0.636113 0.745463 0.908907 0.221093 -0.0180045 0.499834 0.44473 -0.177396 1.009 0.653082 -0.224577 0.622173 -0.622348 0.65995 -0.631334 0.668999 -0.905461 1.07191 -0.240822 0.288369 -0.558919 0.169666 -1.18709 -1.01736 0.00588707 -0.340688 0.0299726 -0.907562 -0.145379 1.36708 0.266131 1.1827 0.714188 -0.166206 0.572707 0.126438 -0.786386 -1.06687 0.557823 -1.27214 -1.10227 -0.457433 1.03221 -1.10985 -0.766386 -0.669988 -0.66268 -0.610159 0.530553 -0.000767259 1.44198 -0.764373 0.530607 -0.0720373 -0.121536 0.137902 -1.23149 0.251274 -0.186244 -0.583911 0.580812 -0.892274 -0.316047 0.462224 0.128319 0.469297 -0.831064 0.549675 -0.846824 0.799049 0.151783 -1.17104 -1.07439 -0.46998 -0.494696 -0.391131 0.41725 -0.979409 -0.0834351 -0.503953 
0.996348 -1.05808 0.146187 0.0859889 0.366035 -0.671504 0.452918 0.707889 -0.906144 0.413732 -0.101807 -0.648293 0.259641 0.282707 0.0617171 0.128019 -0.368795 0.483496 -1.05187 -0.22585 1.08737 0.572163 0.0172198 0.955837 -0.103323 1.0249 -0.695146 -1.17234 -0.854125 0.262456 -0.101804 0.634845 1.01019 -0.346668 -0.448816 0.425155 0.103281 -0.0731779 -0.173264 1.06665 0.749872 1.55188 0.170965 -0.649461 -0.155797 0.189151 0.588167 -1.01789 -0.112049 1.5007 0.441566 -0.706486 0.606333 -0.853704 1.47939 -0.0208494 -0.864699 -1.24162 -0.498142 -1.34042 0.511914 0.601935 0.966377 -0.00537358 -0.772904 -0.474246 0.344338 0.236435 -0.670771 -0.825441 0.681164 -0.642519 -0.886049 0.433545 0.697288 0.661491 -0.295337 -0.360412 0.318366 0.239887 0.0458719 -0.403887 0.770629 -0.261666 -0.0804708 0.457465 0.547814 0.308265 0.997002 0.782911 0.11773 0.0803711 0.172766 -0.412835 -0.0338434 0.682611 0.613939 0.423228 -0.198791 -1.43865 
1.41772 0.143611 -0.408386 -0.696888 0.289903 -0.647235 -0.0156612 -0.524036 0.873314 0.522223 -0.5201 0.424174 0.762192 1.03197 -1.27498 0.490479 0.292494 0.269741 -1.04086 0.0263413 0.885536 0.576093 -0.516505 -0.116581 -0.305134 0.883369 -0.760019 0.540542 0.334269 0.220032 0.505105 0.275869 0.374612 -0.299419 0.11183 -0.251562 0.159678 0.0028163 -0.375677 0.864999 0.928265 1.02953 -0.762765 0.136603 0.155078 -0.26576 -0.25344 -0.201629 0.967943 0.45798 -0.111137 0.146822 -0.172281 -0.0292302 1.27477 0.599071 -0.00694599 -1.25912 0.183955 -1.31895 0.44992 -0.11569 0.437469 -0.585828 0.502653 -0.441876 0.957323 -0.353936 -0.255814 -0.539152 1.6985 0.0784905 -0.997744 0.460584 -0.122741 0.845946 -0.995817 -0.152134 -0.53536 -1.35755 -0.489123 -0.126462 -0.00649075 0.235893 -0.922512 -0.333698 0.0260465 0.44432 0.0124853 0.536069 0.14245 -0.807563 -0.651691 -0.307636 0.0549331 0.912394 0.592715 -0.77686 -0.681493 -1.05994 
0.256258 -1.26793 0.570359 0.310501 -1.26425 -0.567298 -0.745091 -0.884779 -0.666834 0.694961 -0.444069 0.409424 -0.83589 0.455515 -0.556505 0.220253 -0.934676 -0.0262312 -1.1588 -0.165511 0.111616 1.06529 0.138411 0.344625 -0.594265 -0.219031 -0.0660018 0.217246 0.0609745 0.271151 0.680044 0.814438 1.39467 0.677744 -0.504203 1.14503 -0.864852 0.301911 -1.52048 -0.041007 -0.525308 -0.228188 0.527247 -0.547222 0.612936 1.31664 1.12533 -1.204 0.105027 -0.4198 0.691575 0.799278 1.06749 -0.377666 0.227933 -0.612923 0.911569 0.515718 1.1703 -0.83126 0.383635 1.08309 -0.504428 0.169186 0.241457 -0.109541 0.949194 0.369964 -1.32798 0.387857 1.43299 0.053831 -0.835518 -0.280514 0.813743 -0.699239 -0.284859 -0.111616 -1.05754 -1.25537 -1.37329 0.0516039 0.776326 -1.07718 -0.781652 -0.460743 -0.0563796 -0.483119 -0.35379 -0.783268 -0.582785 -0.997962 0.989236 0.598273 0.429236 0.277399 -0.0717609 -0.170443 -0.981558 -0.601008 
-0.313797 -1.26939 0.671887 -0.0793142 -0.248623 0.280072 -0.285702 -1.07501 0.354354 0.214849 -0.490566 0.674469 -0.633831 -0.948692 0.685394 0.421846 -0.109998 0.809853 0.264409 0.0662656 -0.646786 0.264681 -0.152585 -0.893502 -0.99639 -0.0584037 -0.00809714 -1.11428 0.949696 0.136236 -0.0779662 -0.91226 1.47287 -0.283909 -0.311617 0.107115 0.855009 0.338054 -0.898076 0.0667129 -0.794973 0.266541 -0.723354 -0.356289 -0.222621 0.892999 -0.430928 -1.53298 0.571214 -0.367323 0.856102 0.244871 0.197209 -0.357379 0.57821 0.154558 -0.677681 -0.697388 0.895695 0.454505 -0.882164 0.1005 -0.835765 -1.13579 0.153156 -0.381491 0.45752 -0.0483059 -1.40696 0.487904 0.826443 0.163217 0.00965492 0.405887 0.89808 -0.577946 -0.415885 -1.49855 -1.12845 -1.02692 -0.707748 -0.0536976 0.69966 0.510263 -0.721049 0.0391776 0.42821 0.0723157 0.886545 -0.554747 -0.70447 -0.796592 0.0615696 0.164112 -0.943996 1.14648 1.45662 0.0945358 -0.863929 -0.808915 
-0.148635 0.905604 0.265581 1.09975 -0.0413326 -0.466584 -0.407592 -0.833023 0.0543677 -0.689233 0.0447657 0.779208 -0.981796 -0.630498 0.907431 0.0382686 1.03914 -0.518691 -1.37558 0.158795 0.0713092 0.344279 -0.209633 1.18146 0.83017 0.360683 0.615367 -0.112151 -0.200996 -1.52176 0.661943 0.231905 0.0575375 -0.316722 0.730916 0.950838 0.0118849 0.462879 -1.67887 0.642014 0.653307 -0.218905 0.307841 -1.16378 -0.197397 0.0845447 0.329522 -0.669129 0.303213 0.529955 -0.321266 0.545025 -0.930864 0.524988 0.791484 0.849826 0.971483 0.539777 0.57914 -0.866559 0.852159 0.766091 0.783875 -0.757595 0.642761 -0.0200366 1.2023 -0.257793 -0.993372 0.481896 0.765506 0.163544 -0.255448 0.103189 0.0666361 1.00981 -0.100375 0.13484 -0.821188 -0.655273 0.337156 -0.636193 -0.444705 0.062227 -0.213764 -0.742757 0.523831 -0.182965 1.02034 -0.417063 -0.492928 1.09245 0.762717 -0.171854 0.860886 0.408297 -0.399682 1.13195 -0.0571775 0.265652 
0.625857 0.220757 0.904445 -0.385816 -1.42523 -0.837014 -0.207649 0.664088 -0.700492 -0.369709 -0.104689 0.414513 -0.991791 0.0981723 0.28849 0.0688246 1.15998 -0.730535 0.710597 -0.087084 -0.291778 0.331215 -0.984197 0.438771 0.928276 -0.397992 1.03585 0.0363048 -0.259537 -0.780823 -0.416514 -0.956385 -0.0537266 1.18589 0.357535 -0.151749 0.814514 0.160455 -0.853981 0.829249 0.658555 0.0600429 0.0390662 0.837996 -0.932206 -0.465188 0.423389 0.246941 -0.716482 0.23837 0.415276 -0.417294 0.777667 -1.15391 0.499181 0.454796 0.900933 0.686039 0.439862 -0.735952 -0.374533 -0.324342 -0.517658 0.0454775 1.12491 0.0974543 0.523856 1.60928 -1.52876 -1.27819 0.446312 -0.546317 0.216504 0.281804 -0.685245 0.601354 -0.79802 -0.634187 -0.00104751 -0.0687938 -0.459851 -1.16621 -0.840943 -1.09354 -0.278585 0.853631 1.02316 0.796444 0.277316 0.21516 0.316789 1.1516 0.447233 -0.799319 -0.610396 0.837389 0.990983 -0.325353 0.0841302 1.33716 
-0.911066 0.362102 1.45225 0.749448 -1.35759 0.833996 0.278148 0.247999 0.457515 -1.27618 -0.165656 0.242156 -0.384128 -0.124687 0.838404 0.130583 0.343454 0.536778 -0.0879043 0.183491 -0.306686 0.442973 -0.759077 0.706123 0.637941 0.472455 1.24435 -0.36216 0.718067 -0.0693052 0.0964768 -1.24294 0.0813225 0.12841 0.928725 0.229237 -0.272278 -0.844305 -0.289522 -0.98812 -0.884351 0.477826 -0.154879 -0.140857 -0.749875 0.187152 -0.634307 -0.409984 -0.94249 0.434277 0.0552835 -0.265448 -1.00876 -1.03964 0.11153 0.142537 -0.571475 0.527183 -0.439133 -0.470756 -0.284912 -0.597742 -1.11511 0.439045 0.189518 0.44706 -0.691522 -0.191824 0.191023 0.127849 -1.00195 -0.715893 -0.230527 0.866678 0.134262 0.467993 -1.51126 -0.388436 -0.870972 -0.880254 -0.206569 -0.377962 0.219085 -0.674125 0.433002 -0.245926 -0.700133 -0.0294186 0.753209 -0.0758816 -0.166762 -0.0501382 -0.00251191 0.0364661 0.396845 -0.537396 -0.140311 -0.137101 -0.832638 -0.225594 
0.664371 -0.443893 0.00558613 -0.0400198 -1.56258 0.289555 1.18638 -0.856759 -0.293694 -1.23709 -0.374383 -0.326442 0.415327 0.862553 0.465169 -0.597829 0.0589504 0.866657 0.397767 -1.21062 -0.397281 -0.00360549 -1.32597 2.19551 -0.65356 -0.95044 -0.309449 -0.478374 -0.48684 -0.739475 0.0992179 -0.744561 0.439721 0.833095 0.276822 0.278172 0.0436232 -0.362138 0.78801 0.757344 -0.0732601 -0.45448 -0.82975 -0.857282 -0.738771 0.985639 -0.1867 -0.613735 0.0804818 -0.519659 0.0984351 -0.774367 -0.281013 0.241982 0.863784 -0.378942 0.990042 -0.576083 0.476492 -0.0975206 -0.366344 0.48555 -0.395807 0.720735 0.401384 0.94135 -0.243163 0.175598 -0.496402 -0.224666 -0.48607 0.755414 0.181973 0.213706 1.04373 0.76747 -0.781349 -0.539635 -0.956417 -0.778855 0.151299 -0.0468598 -0.694615 0.74919 0.0666614 -0.210157 0.0229438 -0.703106 -0.5796 -0.427491 -0.224408 0.584406 -1.05994 -1.0977 0.0802829 0.503283 1.01862 -0.427729 0.715396 -0.39207 
0.0183823 -1.08224 -0.397859 -0.39919 -0.0731366 -0.535263 1.16462 -0.844367 0.0117241 -0.895341 -0.580601 0.625563 0.693265 -0.150887 0.279931 -0.623208 0.686439 -0.219111 -0.155966 0.633137 -0.0858756 0.734391 -0.460623 1.42757 1.25324 -0.956151 0.137124 0.57854 -0.33087 -0.509292 -0.858791 0.592199 -0.323316 -0.000341469 -0.625464 -1.12739 -0.0205617 -0.540905 -0.617661 -0.649446 -0.293667 -0.0731363 0.33032 -0.869538 0.63365 0.166201 -0.232714 -0.22156 0.140814 0.524836 -0.164758 0.289438 0.0555485 0.728995 -0.718928 -0.232642 -0.671182 0.20086 -0.501893 -0.313996 0.621487 0.634344 -0.572373 -0.898883 -0.477268 -0.473457 -0.920419 0.860995 0.0164448 -0.347992 1.07739 0.0546164 0.241496 0.727762 0.547979 0.305055 -0.601317 0.903395 -0.985773 -0.526571 0.324246 -0.288347 0.209358 -0.525179 0.203798 0.934144 0.962969 -0.262614 -0.404302 -0.76909 0.422881 -0.89067 -0.815499 -0.960149 -0.081266 -0.134771 -0.335765 0.398821 -0.467976 0.0817072 
-1.26088 -0.989969 -0.334146 0.633331 -1.21325 -0.71158 -0.237393 -0.0283233 -0.787993 -0.401463 0.309039 0.477316 0.508176 -0.248086 0.426426 -0.616605 -0.0987 0.983512 0.574453 0.125014 -0.666185 -0.424294 0.325857 0.663805 -0.195948 -0.824139 1.07301 0.288792 0.838187 -0.761503 -0.0772518 0.639583 -0.555605 0.881122 0.463226 -0.490629 0.515357 0.798865 0.991794 0.927434 -0.329992 0.278919 -0.0878243 -0.939209 0.972014 0.0273851 -0.0717985 -0.677994 -0.652517 0.753022 0.591943 0.789923 -0.4823 0.167813 -0.873676 0.209503 0.563011 -1.19975 -0.179588 0.0418354 -0.528162 -0.619264 -0.408715 -0.298407 0.994336 0.468923 0.592037 0.528147 0.81284 0.315621 0.614867 0.566895 -0.662331 -0.0851047 -0.923185 -0.276146 0.430881 -0.44787 0.158446 -0.30527 -0.641294 -0.26808 -1.11876 0.0142323 1.06039 -0.592085 -0.165468 0.0620913 -0.612587 0.320445 -1.1295 -0.757822 -0.992151 -0.223435 0.752473 -0.790939 -0.58174 0.605552 0.882046 0.604268 
-0.223143 0.26864 0.659749 0.728175 -1.02189 0.781606 -0.716454 -0.842135 -0.597147 0.126931 -0.206091 -0.188185 0.80045 -0.210299 0.19289 0.581381 0.489445 -0.441822 -0.0184752 0.570226 -0.450365 -0.452378 -0.766492 -0.146038 0.243004 -1.02623 -0.13478 0.738681 0.674121 -0.438596 0.982784 -0.158476 -1.11475 0.511603 -0.650661 -0.608094 -0.203385 -0.767952 -0.334667 0.250195 0.803474 0.40618 0.596191 0.256897 -0.438188 0.329136 0.0115049 0.588018 0.525926 0.553225 0.321711 -0.644582 -0.665758 0.790419 -0.20097 0.746942 0.724099 0.409805 0.635985 0.162359 -0.71394 0.486288 0.386962 -0.859921 -0.135967 0.454935 -0.292878 0.559132 1.18932 0.161352 -0.21419 0.145588 -0.406867 -0.310774 -0.281044 0.0610952 -1.06579 0.505099 -0.216385 1.14834 0.161562 0.926844 -1.0254 0.694034 0.735979 -0.0448719 0.663885 0.0883584 -0.281861 0.162848 -0.989717 -0.243199 -0.155105 0.885954 0.283354 1.02618 0.471397 0.9842 0.554087 0.492293 
0.255239 -0.497048 -0.0647095 0.987123 0.0902641 0.755795 -0.00918268 0.358464 0.431821 0.680567 0.33191 -0.242133 0.623859 0.496653 -0.756972 0.0857946 -0.339145 0.982741 -0.73659 0.148601 0.434033 -0.926533 -0.960189 -0.501753 -1.11377 0.301344 -0.693352 0.490683 0.1878 0.796085 0.132919 -0.0344421 -0.647869 0.864107 -0.310627 0.640843 0.508014 0.538603 0.128157 -0.0838711 0.499741 -0.533031 0.529254 -0.143169 -0.790904 0.919892 0.834997 -0.328181 0.624298 -0.972837 1.03339 0.187321 -0.762781 1.1198 0.677159 -0.685388 0.271494 0.804486 0.764444 -0.330671 0.568402 -0.191346 0.127024 -1.06278 -0.225553 0.681492 0.792547 -0.886693 0.586827 -0.352409 -0.00167556 -0.491975 0.125806 -0.403275 0.515203 0.155543 -0.536211 0.43737 0.950405 -0.615476 0.503976 0.672916 0.460837 0.808062 0.919589 0.149284 -0.744695 0.101936 0.104292 -1.09215 0.682382 -0.0653878 -0.277996 0.0558407 -0.131176 0.513948 -0.305294 -0.469563 0.479345 -0.782682 
0.269519 -0.36154 -0.0969997 -0.54232 0.317919 -0.532881 0.652385 0.904451 0.915607 0.496793 -0.704362 0.398929 0.247925 0.910031 0.192245 -0.0160945 0.143165 0.35351 -0.970194 -0.806384 0.374744 0.677686 -0.0595698 -0.829034 -0.412216 0.762976 0.551728 0.348762 -0.730102 0.115662 0.579117 0.602517 0.773656 -0.555714 -0.987358 0.115338 -0.0667536 0.659526 0.0458633 -0.148828 0.147126 0.342232 -0.762936 -0.605816 0.247894 0.441108 0.356873 -0.611197 -0.235364 0.370775 -0.407975 -0.853117 0.0656061 0.554823 -0.683652 0.670606 0.280424 0.887801 0.0325921 0.601803 -0.0497317 -0.393651 0.147464 -0.274729 0.0892349 0.147822 0.888323 -0.996099 -0.1613 -0.125124 -0.150198 0.945557 -0.777084 0.0869991 -0.623908 0.473468 -0.496356 0.739233 0.86079 0.274591 0.117338 -0.580215 0.435343 -0.811149 0.999616 0.740656 0.886444 0.285086 0.605826 -0.0798775 -0.113058 -0.400941 0.513422 -0.961062 0.317532 -0.403988 0.173848 0.175214 -0.413234 -0.998144 
-0.936646 0.449769 0.969413 -0.705206 -0.456718 -0.64566 0.760058 0.0591551 -0.912076 0.610191 -0.637741 0.202741 -0.951162 0.805579 0.392503 -0.961773 0.553927 0.275938 0.298106 0.160147 -0.80501 -0.831003 0.737025 0.714418 -0.807556 0.0564796 -0.6921 0.370553 -0.764086 -0.0975839 0.376271 -0.705164 -0.649894 0.356213 -0.413309 -0.105672 0.70674 -0.651545 0.955822 0.798374 0.950169 -0.68803 0.00346356 -1.0001 -0.869535 -0.604135 -0.970535 0.678507 0.670863 0.338498 -0.159715 0.865723 0.514213 -0.421031 0.586527 0.703675 0.635562 0.885135 0.0746937 0.867236 -0.208638 -0.55724 -0.83564 0.140085 0.802503 -0.251368 -0.966821 0.512425 0.0859441 0.997633 0.333828 0.0358485 -0.680299 -0.68596 0.0366173 -0.551927 -0.290979 0.0655004 -0.870934 -0.630592 -0.594561 -0.0366992 -0.752093 0.919017 0.549592 0.834434 0.628572 0.184878 0.715047 -0.298297 0.0661564 -0.490504 0.143626 0.210426 0.657254 -0.050394 0.962353 0.679705 -0.53718 0.0277031 
0.689527 0.775379 -0.915561 -0.991265 -0.91058 0.121056 -0.544297 -0.199003 -0.812863 -0.415642 0.183398 -0.408257 0.554845 0.431305 -0.489243 0.104435 0.260943 -0.864738 -0.710385 -0.0205504 -0.165544 0.342603 0.489315 0.980803 -0.441029 0.142502 -0.0697195 -0.478701 -0.165738 0.393455 0.569586 -0.476211 0.168834 0.654025 -0.467476 0.258254 -0.224919 -0.0117727 -0.940749 -0.0377828 0.572586 0.242649 0.55396 0.127431 -0.326047 -0.935283 -0.768134 0.934897 -0.800021 -0.478519 -0.0856536 0.0344353 0.864084 -0.596339 0.0152384 -0.576945 0.546163 0.945519 -0.0556458 -0.619575 0.338974 -0.486059 -0.095786 -0.492191 -0.832034 0.436738 0.766063 -0.0569537 -0.575035 0.825314 0.905264 0.997551 0.0679625 0.459223 0.124982 0.741916 0.52394 0.356849 0.676813 0.723919 0.87833 -0.408841 -0.241646 0.742414 -0.00517988 0.773593 -0.83453 -0.459017 0.719112 0.109824 -0.0785922 0.0580858 0.623764 0.825622 0.565894 0.79173 0.26236 0.331957 -0.265224 0.687325 
0.156531 -0.362615 0.688199 -0.772458 -0.904434 -0.191374 0.974399 0.621394 -0.83082 0.638327 0.350455 -0.950808 -0.766179 -0.890654 0.790184 0.232204 0.876046 0.95621 0.778395 0.590315 0.0636993 -0.315854 -0.343096 -0.311075 -0.483486 -0.786042 -0.519297 0.775479 0.54796 0.2121 0.469957 -0.284122 0.85806 0.157578 -0.0629862 0.957202 0.961766 -0.100485 0.573432 -0.8711 -0.447458 -0.0859306 -0.827525 -0.217169 0.0287589 0.956097 -0.986191 -0.0921036 0.908122 0.793124 -0.49229 -0.0224761 -0.524502 0.159834 0.661865 -0.0118049 0.380914 -0.848655 -0.225302 -0.0606292 0.357086 -0.756248 0.649071 0.193903 0.395686 -0.415464 0.168292 0.369099 0.490214 -0.258629 0.482679 -0.965175 0.646769 0.66476 -0.17579 -0.315371 0.62145 -0.164795 0.593069 0.533968 -0.383449 -0.913431 -0.491861 0.0910243 0.262686 -0.826201 -0.904413 -0.355564 -0.682944 -0.139508 0.581754 0.670826 0.102445 0.238575 -0.11418 -0.501024 0.814018 -0.960153 0.851226 0.309429 
-0.26382 0.261686 0.413186 -0.517332 -0.0642808 -0.851692 0.215164 -0.394724 8.85031e-05 -0.347729 -0.857185 0.671887 -0.136384 -0.297832 -0.317842 -0.850225 -0.135929 -0.15536 -0.170248 0.0670314 0.533517 -0.83521 -0.0518549 -0.130414 0.559688 0.653504 0.274171 0.388597 0.782881 0.110432 -0.369583 -0.45507 -0.458327 -0.978578 -0.0663475 0.510555 -0.877796 -0.925351 -0.964272 0.139505 -0.0905515 -0.802321 -0.303963 0.632941 -0.0625252 0.411611 0.689974 0.766509 -0.814978 -0.459346 -0.127682 0.939521 -0.292493 0.706576 -0.325256 -0.738656 0.491217 1.08537 0.568567 0.333071 0.0927695 -0.665561 0.823325 0.489555 -0.737008 -0.208141 0.0964595 -0.340971 -0.181155 0.172318 0.531894 0.582178 0.148454 -0.473107 0.454251 -0.953293 0.938944 0.152245 0.989886 -0.790248 0.508409 -0.223588 -0.920779 -0.728883 -0.315117 -0.216978 -0.43843 -0.882343 -0.187373 -0.882526 0.334455 0.871337 -0.575562 0.236354 0.48492 -0.197383 0.963371 -0.539852 0.232258 -0.190205 
0.322966 -0.259375 -0.281669 -0.0812212 0.282462 0.794414 0.298207 0.178888 -0.0152659 -0.329709 0.336193 -0.477268 0.912189 0.610115 -0.357289 -0.465501 -0.301554 0.375276 -0.261548 0.218727 0.10332 0.505705 0.394776 1.20517 0.0920538 -0.394376 -0.401313 -0.113856 0.251643 0.681477 0.626229 -0.727245 -0.193825 -0.638134 0.144673 -0.931098 -0.906981 -0.880118 0.187377 -0.056882 0.220596 -0.153972 0.373779 -0.303283 -0.501585 -1.02438 0.105274 -0.145794 0.148018 0.680162 -1.05957 -0.213164 0.272478 0.240963 -0.554848 -0.534762 -0.916118 0.474936 0.0835742 0.103645 0.136898 0.108394 0.543657 0.813028 0.302872 -0.244228 0.9918 0.805612 -0.274113 0.428453 -0.538105 0.704364 0.637384 -0.691486 -0.140733 -0.988566 -0.68568 0.964754 0.168455 0.903269 0.359585 0.101731 -0.771464 -0.145171 -0.211064 -0.0372559 0.174349 -0.373616 -0.529881 -0.690813 0.587951 0.493962 0.393494 0.429657 0.419704 -0.0373263 -0.874194 0.306597 -0.697313 0.00847003 
-1.14397 -0.267574 0.141552 -0.899934 0.174572 0.589798 -0.15731 0.279667 0.700108 -0.0629227 -0.049223 -0.231501 -0.136521 0.717163 0.369248 0.135851 0.224278 -0.0922354 1.01185 0.243183 -0.178776 -0.0651278 0.0913652 0.198362 -0.28193 -0.883916 0.499897 -0.434586 0.313626 0.681505 0.526813 0.165872 -0.0476572 -0.32293 0.48911 0.89285 -0.897252 0.625598 0.0741876 0.484809 0.147377 -0.362505 -0.760624 0.501851 -0.653726 0.739995 -0.438208 -0.0674992 -0.675559 -0.624304 -1.09243 0.96102 0.700929 0.0605225 -0.718052 -0.34263 0.270077 -0.481805 -0.174097 -0.651945 -0.64039 0.0286649 0.944597 0.125603 0.489397 0.305459 0.108482 0.820377 0.0489735 -0.319206 -0.00610233 -1.05212 -0.643826 0.694011 0.686802 -0.605354 0.421755 -0.253035 0.740839 -0.623782 -0.171527 0.747498 -1.23355 -0.405794 0.102148 -0.47079 -0.00183287 -0.761152 0.169529 -0.92697 -0.488782 0.328523 0.033685 -0.0395246 -0.510342 -0.596227 -0.886886 0.464334 0.885916 0.570155 
0.253904 0.00743664 0.62897 0.579901 -0.587111 0.241053 0.144688 0.806885 0.700528 0.521871 -0.924361 -0.618964 1.09764 -0.529891 -0.522929 -0.519707 0.541564 -0.749851 0.161655 -0.625028 -1.08994 0.00422852 0.991057 1.01033 -0.512968 -0.912094 0.957393 -0.381515 0.267173 0.647159 0.691727 -0.176742 0.00349996 0.503215 -0.269168 0.2338 -0.641371 0.221689 0.0325664 -0.730437 0.428501 0.76922 -0.857541 0.190286 1.19177 0.138764 0.702493 -0.125392 -0.313807 -0.527668 -0.238821 0.698359 -0.905815 -0.0636552 -0.404301 -0.0274326 0.264552 0.334363 -0.241046 -0.354407 -0.0409323 0.647619 1.13481 0.686723 -0.0660223 -0.292083 0.546357 0.401339 -1.04573 0.0853025 -0.104097 0.499841 0.526675 0.812982 -0.506959 0.311323 -0.537089 -0.139283 -0.383054 0.874878 0.111646 0.457968 0.0474433 0.0898691 -0.0503919 -0.586057 0.700678 -0.995361 0.492484 -0.166351 -0.479888 -0.53042 -0.958626 0.333686 -0.998057 -0.652728 0.640283 0.45827 0.531628 -0.52553 
-0.010593 -0.123536 0.841259 -0.636812 0.473567 -0.84507 0.0360917 -0.874822 -0.435018 -1.23166 -0.460281 0.709981 1.04445 1.0931 -0.931962 -0.85087 0.00715119 -0.0531545 -0.205852 -0.77685 0.0849826 -0.302964 -0.0657953 1.2987 -0.416076 0.140132 -0.179145 -0.584902 -1.03351 -0.920064 -0.634684 0.375306 -0.0642927 -0.633466 -0.688878 -0.741159 -1.09137 -0.481999 -0.0673682 -0.0074067 -0.0134279 0.568394 -0.660834 -0.19372 0.794591 0.0942076 0.19092 0.817352 -0.0405206 0.447839 -1.25381 0.40569 -0.329113 0.0824693 -0.282775 0.920828 -0.478076 0.823538 0.274929 -0.511764 0.710086 0.26936 -0.0564088 -0.743352 -0.0368253 0.105013 0.615936 0.158324 0.196889 1.65091 0.607392 -0.412607 0.375822 -0.367786 0.163846 -0.34607 0.294018 -0.261047 -0.466155 -0.0848622 0.754466 -0.642905 -0.801528 -0.211515 -0.39103 0.581389 -0.771948 -0.411624 0.208842 -1.17336 -0.117949 0.347065 -0.775764 -0.247052 0.476583 -0.509562 0.184054 -0.185082 0.691707 0.656827 
-0.758621 0.815336 1.35605 0.338702 0.26524 0.0800563 0.461009 -0.105808 0.335316 -1.14134 -0.0995161 0.380947 0.369553 0.446601 -1.78745 -0.0676013 0.586359 -0.270201 -0.464791 -0.610895 -0.880229 -0.0438201 -1.26213 0.00530695 1.0969 0.975749 1.41306 0.336117 -0.797195 0.848481 -0.124622 -0.544245 0.741597 0.18186 -0.420291 -0.0974893 0.471317 -0.341768 -0.662735 0.0538016 0.409695 -0.0540998 -0.507361 -0.307444 -0.553414 -0.453808 1.30918 0.160751 -0.783484 -0.802236 -1.44741 0.665319 0.226393 -1.0151 -0.98838 1.22022 -0.67547 -0.49597 -0.523744 -0.918307 -0.959759 2.23442 1.24739 0.285117 0.113405 -0.457495 0.381852 -0.155818 -0.533246 0.365072 0.651552 -0.580712 1.12008 -0.29031 0.0897051 -0.678367 -0.167966 0.706511 0.197326 -1.45154 0.311961 0.186902 0.348031 -0.0592077 1.29204 -0.788341 -0.398073 -0.821576 -0.507628 -0.0579944 -0.848135 0.160338 0.203435 0.609813 -0.629583 -1.48333 0.449494 0.327119 -0.577559 0.138857 
-0.796979 -0.53612 0.801042 -1.29469 -0.80711 -0.469774 0.873886 -1.26609 0.599854 0.218439 -0.467037 0.0666772 0.44572 1.10823 -0.0442939 0.138219 -0.376555 -0.303585 1.48423 -0.343063 -1.18565 -0.639346 -1.13789 0.270386 0.99389 0.245426 0.960128 0.191183 -1.00915 -0.856469 -0.613261 -0.830573 -0.152215 0.897513 0.0873178 0.187659 -1.5046 0.41729 0.599182 0.304859 0.384816 0.328264 -0.570403 0.29826 0.66629 -0.792509 -0.165782 0.626153 -0.846257 -0.145335 -0.623666 0.291155 -0.311358 -0.179509 -0.718454 0.851136 -0.580595 -1.1257 -1.02344 -1.20356 -1.16753 1.04341 0.744315 -0.638861 -0.248308 -0.906935 1.91955 -0.416559 0.095657 0.448432 0.937901 -0.177823 0.137134 0.087495 -0.723264 -0.50869 -0.264111 0.421948 0.668205 -0.040368 0.544411 -0.57561 -0.470276 -0.288824 1.07665 0.154106 -0.622668 -0.975278 0.0286525 -1.12339 -1.2745 0.40139 -0.0598226 -0.116925 -0.990033 0.347834 -0.540765 -0.806402 0.936299 -0.607358 
0.568537 0.806095 0.358534 -1.21904 -1.27155 0.706936 1.12105 -0.0471413 -0.910605 -0.838344 0.490452 1.05177 0.0761345 0.818618 -1.30943 -0.147164 0.12633 -0.177587 1.00395 -0.927946 0.46236 -1.1462 -1.49662 -0.34816 -0.544196 -0.334754 0.00694786 -0.435856 -0.522684 -0.486177 -0.460282 -0.712282 -0.362066 1.09345 0.295388 -0.484675 -0.255286 0.8222 1.34622 0.468203 -0.642446 -0.281405 0.0712552 1.07414 -0.126239 0.733631 0.0812568 0.343322 -1.0279 -0.00144952 0.594341 -0.0854518 -1.14103 0.50911 0.563595 0.435771 -0.308909 -1.54501 -0.131169 -0.566482 -0.737298 1.97232 1.09631 -0.35165 1.34794 -0.608895 1.71607 0.127142 -0.885323 0.445906 -0.231304 -0.495773 -0.182587 1.54339 -0.286201 0.293309 0.584227 0.719129 -0.899264 -1.11482 -0.717604 -1.20903 0.0232388 -0.356999 -0.834317 -0.861794 1.00001 -0.636966 -0.868314 -0.647031 -0.719736 -0.194728 -0.818375 0.868692 -1.00574 -0.442423 1.00191 -1.41465 0.752735 -0.662751 
0.597215 -0.666238 -0.0496023 -0.144966 -1.61991 1.10103 0.22111 0.679301 0.114397 0.0273136 0.134477 1.10549 -0.389649 0.761808 -1.56122 0.123858 -1.07233 -0.789073 1.15913 -0.224071 0.596576 -0.0696332 -1.3205 -1.04023 -0.257812 0.184847 0.418337 -0.723863 -0.791787 0.0623462 -0.855202 1.13817 0.0308653 0.823178 1.10417 0.0113296 -0.313448 -0.272033 0.919778 -0.130012 0.252954 0.789202 -0.900621 -0.490411 0.75972 -0.158257 0.574382 0.620195 -0.181735 0.895238 -0.757963 0.525146 -0.98503 -0.952512 1.01053 0.676504 0.198101 -1.52019 -0.154668 -0.133842 -0.125734 0.906039 0.907395 -0.823211 0.561702 -0.0161419 1.42254 -0.877405 0.405396 -0.379438 0.764908 -0.136325 -0.0622317 0.403608 0.602916 1.38224 -0.723127 -0.063788 0.252693 -1.62133 -0.666875 0.415115 0.295461 0.0382094 -1.13018 -1.11406 -0.667316 0.0245676 -0.454204 0.0798697 -1.65279 -1.26297 -0.891447 0.83197 -0.638449 0.689234 0.329578 -1.5778 -0.893497 -0.599136 
0.198666 -0.145002 0.672724 -0.764932 -1.51511 0.676997 -0.00624479 -0.142777 -0.688016 -0.0871374 0.449957 0.589602 -1.39071 -0.821508 -2.18501 -0.619819 -0.914971 -0.644073 0.906105 0.637867 1.0585 0.569566 0.5598 -0.374344 1.17847 0.367998 0.0797696 0.169666 -0.768401 0.100586 0.490831 0.73381 0.884011 1.16838 0.18214 -0.806845 -0.38937 1.00349 1.13115 1.39704 -0.62012 -0.509436 -0.400552 -0.730736 -0.534238 0.178935 -0.0480927 0.287976 0.215476 0.022857 -0.396896 1.18711 -0.751809 -1.0521 0.242184 0.128965 -0.253833 -1.23498 0.0212032 0.0543466 0.277182 0.118299 0.317974 -0.00211034 0.531119 0.575651 1.542 -1.14058 0.236224 -0.0856941 2.33287 -1.14412 0.576613 -0.566588 -0.12653 1.22168 -1.05218 0.143212 -0.406449 -1.70099 -1.22031 0.290045 0.925918 -0.341989 0.502441 0.36894 0.356159 -0.45274 -0.624007 -0.320375 0.109538 -1.16862 0.144553 -0.933587 0.411036 -0.525331 -0.574053 -0.560853 -0.16344 -0.134469 
-0.0648714 -0.691702 0.316997 -0.210314 -0.14924 -0.395834 -0.1922 0.920169 -1.13388 -0.0544303 -0.667973 -0.0666537 -0.0130657 0.564217 -1.41029 0.666595 -0.182345 -0.721874 0.995354 -0.792038 0.488589 0.501622 -0.373598 -0.328781 -0.465486 0.219184 1.00467 -0.173023 0.261195 0.122342 -0.922711 1.17201 0.661695 -0.418647 0.837492 0.175292 -0.51952 -0.0263967 0.289933 1.02526 0.117929 0.640322 0.241922 -1.08773 -0.566999 -0.244097 -1.09343 -0.756756 -0.0794574 -0.392771 -0.442404 -0.246031 1.27628 -0.476802 1.03462 0.282658 0.0416187 -1.52442 -0.113601 -0.643343 -0.484018 0.312087 -0.194298 -1.0965 -0.742672 1.17093 1.10448 -0.518044 -0.620898 -0.442959 2.85244 -1.12264 1.00354 -0.230242 -0.119064 -0.307266 -0.983808 -0.725789 -0.584811 -0.114006 -0.348684 0.0668853 1.10369 0.130329 -1.06042 -0.807798 0.57606 0.16347 -0.111207 -0.114309 -0.104869 -1.3481 -1.13947 -1.96763 -0.53302 -0.942335 1.22931 0.118798 -0.276283 -1.25816 
0.281129 -0.446041 -0.998954 -1.27347 -0.995838 0.347432 -1.04424 0.0444786 -0.591411 1.44104 0.12674 1.36611 -0.815662 -0.516144 -1.43173 -0.0482372 -0.611698 -0.814238 0.449443 -0.952996 0.899692 0.203328 -0.264869 0.081819 0.283025 0.668101 0.961495 0.27436 -0.25316 0.342237 -1.48769 0.578972 -0.635132 0.0886945 0.847931 0.114704 -0.384128 -0.436943 -1.56406 1.22477 0.781502 0.583437 -0.00199523 -1.61972 -0.139075 -0.746346 -0.134243 -0.633681 -0.326278 0.322523 0.109505 1.20136 -0.00888393 -0.0231605 1.14802 1.51308 -0.732521 -0.956433 -0.0723519 -0.517757 0.0626508 -0.18627 -0.361858 0.396642 -1.15502 1.55618 -0.113041 -0.654928 -1.41692 -0.765158 0.9735 -0.86592 0.54171 -0.744285 -0.209491 -0.243429 -0.0684463 -0.139524 -0.029146 0.136173 -0.609266 -1.02198 0.840687 0.0684431 0.34443 -0.869341 -0.505383 0.897141 0.270309 0.454157 -1.03607 -0.790288 -0.725149 -1.02753 -0.580478 -0.758653 0.257376 -1.13627 -0.610997 -0.777604 
0.665202 -0.852013 -0.202904 -1.2054 -1.49404 -0.772759 -1.28547 0.367506 -0.645514 2.09125 0.830463 0.725698 -1.01948 -0.0035437 -1.88345 0.821677 -0.390123 -0.746047 -0.199665 -0.891722 1.48722 0.951295 0.381116 -1.11942 -0.210337 0.973389 -0.589148 0.663321 1.04648 0.537863 -0.779801 0.0559541 -0.30037 -0.455134 0.157607 -0.0660142 0.159994 1.04568 -1.99969 1.29551 0.6719 1.45978 -0.325992 -0.303715 -1.0742 0.0771578 0.216424 -1.60634 0.521541 0.532246 -0.363839 0.460167 0.941522 0.515788 1.04284 1.92458 0.608296 0.168385 0.883217 -0.50488 -0.567544 -0.48515 -0.3647 0.216834 -0.456719 0.957999 1.31258 -1.16874 -1.06097 0.71776 2.25059 -0.684847 0.542581 -1.73233 -0.782357 1.11033 -0.507582 -2.20184 0.781514 -1.76274 -0.267283 -0.958501 0.487382 1.09086 -0.660268 -1.05437 0.969226 1.17083 1.07361 0.314138 -0.329435 -0.784364 0.863084 -0.158455 0.990349 -0.200688 0.0457053 -0.193746 -1.02895 -0.504792 
0.648588 -1.85271 -1.4244 -0.826382 -1.50866 -0.487207 -1.87801 -0.330908 0.0539659 0.293814 0.488123 1.39918 -0.438318 -0.68622 0.213175 0.286094 -1.3177 0.253261 -0.755663 -1.51959 0.0765475 -0.444883 -0.111069 -0.924044 0.765443 -0.187429 -0.251535 -0.587509 0.867206 0.464964 0.153434 -0.423376 1.36411 -0.946309 -0.0948447 -0.521843 -0.323623 0.258943 -1.52529 1.28593 -0.0385413 -0.178349 0.916297 -0.280037 -1.15422 0.637149 -0.146127 -0.972748 0.085179 -0.29128 0.191601 0.602588 0.779857 -1.31144 1.26205 0.254716 -0.0524434 -0.662818 0.567168 -0.233142 -1.14506 -0.114933 -0.0313241 1.03998 -0.766136 0.76365 1.73918 0.682543 -1.92111 0.119365 2.09535 -0.0653127 0.394862 -0.574725 -0.630545 0.429185 -0.506391 -0.697674 -0.542378 -0.330766 -1.26923 -0.29895 0.255359 -0.105737 0.460815 -0.776848 0.792665 -0.594895 0.244929 0.861197 -1.27716 0.0314332 -0.130833 -0.680257 0.4705 0.765301 1.09951 -0.200731 -0.65127 0.0250116 
1.80007 -1.2281 -0.516399 0.333053 0.0647382 0.612191 -1.37981 -1.03169 0.986285 1.10036 1.39816 1.44898 -0.557545 -0.00600502 -0.444126 -0.250218 -0.116918 0.45859 -1.5268 -1.09955 0.690868 0.420729 -1.14114 -1.0492 0.209263 0.332744 0.565614 -0.0326322 -0.583949 -0.561936 -1.13085 -0.975211 1.61748 0.489745 0.487833 0.732208 0.0238337 -0.710229 -2.8108 0.172891 -0.178045 -0.7084 0.0201081 -1.66033 -0.511697 0.31168 -0.268123 -1.35655 -0.0719307 0.965887 0.542745 -0.901396 0.24501 0.262132 -0.302092 1.15144 0.42544 0.845711 0.532651 -1.251 -0.375474 0.567381 0.441692 -0.660518 -0.687587 0.144466 1.74917 -0.630385 -1.27412 0.971043 1.03287 -0.897402 1.18862 0.00112302 -1.01643 -0.343695 -0.27467 -1.71366 0.549372 -0.110198 -0.972 -1.38196 0.770788 -0.0149029 -0.597397 -1.4989 0.660108 0.642576 0.837758 0.232974 -0.825953 -0.37054 -0.164196 0.751345 0.282906 1.05336 -0.218836 -0.222746 -0.539165 -0.0831028 
0.414146 -1.15876 0.0969066 0.146167 -1.86162 0.386471 -0.186882 -0.767489 -0.211442 0.661388 -0.265905 0.551654 -1.36001 0.853003 1.65899 0.0679026 0.486406 -0.345149 -2.0567 0.0856502 0.897053 0.649155 -0.934301 -0.458528 -0.760087 0.197257 -0.813407 -0.465907 -0.34936 0.230626 -0.173657 -0.0562751 0.607684 -0.142552 -0.605807 -0.169943 0.706858 0.898057 -1.53544 -0.706237 -0.593253 0.619658 0.23521 -0.263629 0.297309 0.059148 -0.468153 -0.547076 0.743972 0.0868373 0.619917 0.30462 0.830549 -1.23879 -1.01086 0.764441 1.20738 -0.63615 -0.044661 -2.02723 -0.787157 -0.521611 -0.00720957 -0.524299 -0.78595 0.710527 0.924961 -0.00425214 -0.472341 -0.646532 -0.00600442 0.00381761 -0.915935 0.357087 -0.966578 0.518625 -0.688708 -2.13368 0.189741 -1.20867 -0.154686 -2.02465 0.714607 -0.356742 -0.229658 0.533808 0.710312 -0.330235 -0.760608 -0.226438 -0.635095 -0.217733 0.154046 -0.298133 -0.133519 1.34763 0.969472 -0.793192 -1.97896 0.564363 
-0.0576943 -0.595476 1.09724 -0.0595739 -1.80218 0.744843 -0.927708 -0.941588 -0.392821 0.684519 0.296642 1.09716 -1.08653 -0.440391 0.654137 0.517626 -0.804693 0.147419 -0.607437 -0.787431 -0.664898 0.639294 -0.6073 0.618842 -0.502937 -1.18878 -0.262682 -1.57597 -0.458699 -0.521078 -0.416529 -0.371182 1.83552 -0.093003 1.1718 -0.427921 -0.308525 -0.880958 -1.91114 -0.338871 -0.0878172 0.429235 -0.570162 -1.30283 -0.949835 -0.159849 1.42243 -1.36297 0.785946 0.878353 0.563567 -0.964257 1.06518 -0.586365 0.0238687 -1.36473 0.926549 -0.0444786 -0.516904 -0.15565 1.20752 0.898277 -1.31715 0.756605 0.761195 -1.07923 1.38689 0.144431 -1.50106 -0.760511 0.0415658 -0.286587 -0.944081 0.360862 -0.470069 -0.858767 -1.6024 -2.39764 -0.266681 0.643245 0.478094 -2.13051 -0.820242 0.478332 0.839733 0.465426 1.7233 -0.366794 -0.479586 -1.11605 -1.46599 0.146773 0.713579 -0.0634263 0.879522 1.09083 -0.0881228 1.20282 -0.00948147 0.986806 
-0.703639 0.0440245 0.741174 -0.629532 -0.111925 0.182081 0.0915512 -1.54204 0.640863 0.433104 -0.904031 0.449351 -0.853064 -0.905818 1.1005 0.783045 1.0612 -0.167176 -1.72093 -1.16089 -0.304246 0.624708 -1.62827 0.313421 -0.427927 -0.746839 -0.841001 -0.593097 -0.665908 0.0262193 -0.864481 -0.976072 0.320046 0.322383 0.667602 0.356653 -0.195628 0.30416 -0.898928 -1.15198 -1.1266 -0.551557 -0.11815 -0.102259 -0.164965 -0.549907 0.988446 -1.16702 -0.392663 0.724308 0.0856098 0.68984 0.919127 0.305076 -1.26391 -1.74596 0.232628 0.0244676 -1.13038 -0.383252 -0.186285 -0.429105 -0.473515 0.152295 0.38017 0.520887 0.90892 2.0524 -0.420764 -0.597089 0.66728 -0.0473232 0.323333 0.598168 0.897483 -0.94031 -0.543547 -1.50883 -0.311893 -0.9105 -0.280793 -1.8504 -0.835627 -1.1991 -0.220249 -0.289263 0.331662 -0.775023 0.286353 -1.02421 -0.54516 2.04203 0.0456849 -0.573438 -0.177725 -0.34345 -0.855853 0.693723 -1.6898 1.78506 
0.249971 -0.544088 1.27702 -0.183412 -0.780409 -0.515006 0.909572 -0.743452 0.477086 -0.987674 -0.12555 -0.850639 -0.0590292 0.126986 0.0910037 -0.212785 1.31994 0.104118 -0.598219 -0.354775 0.187942 0.376639 -1.31785 1.0219 -0.78332 0.245312 0.214568 -1.20902 -0.386295 -0.825893 -0.902934 0.34327 0.403965 1.0356 0.690665 -0.113312 0.13014 0.176397 0.536751 -0.385448 -0.262361 -0.6302 -0.953922 -1.00499 0.649014 0.485487 0.311386 -0.270427 0.454744 -0.67834 -0.56285 0.458834 -0.779171 0.22992 0.288157 -1.64814 1.04677 0.0120912 0.0987545 1.40437 0.700783 1.00159 0.212485 -0.438021 0.674267 -0.781078 -0.810999 1.08384 0.549307 0.664398 0.275131 1.10181 -0.686121 -0.256888 1.33705 -1.07555 -0.253603 -0.664882 0.254301 0.346321 0.737034 -1.07733 0.0972186 0.214641 -0.374171 0.441475 -0.458051 0.0257776 0.792614 0.251381 0.0601737 1.48513 0.580726 -0.0732533 0.639349 0.848391 -0.20324 0.264531 -1.36004 1.13168 
